#lags,ntau,weight_dist,acf,smooth_dist,smooth_weight_dist
-1000.0,36.0,0.08316260828269263,-0.6811933314882133,3.57013224428327e-05,4.1002518138678996e-06
-998.5,36.0,0.0837251243271733,-0.6827822369332455,5.6121587975261714e-05,6.445821034809957e-06
-997.0,36.0,0.08429025078504522,-0.6828066979717489,8.735018543206803e-05,1.0033142052270637e-05
-995.5,36.0,0.08485843027033572,-0.6811573945423106,0.0001346138908922458,1.546290233862945e-05
-994.0,36.0,0.08542957079177636,-0.6777550456323809,0.00020540574579313464,2.3596378669825174e-05
-992.5,36.0,0.08600350789467116,-0.6725567327668285,0.0003103395432706405,3.56537881309354e-05
-991.0,33.0,0.0865792691367089,-0.6739838498046895,0.00046426866868013307,5.334313184960904e-05
-989.5,33.0,0.0871585237487678,-0.6738438415494676,0.0006877271338563646,7.902624723846231e-05
-988.0,33.0,0.08774315360178771,-0.6719801647514723,0.0010087540280733504,0.00011592920910533822
-986.5,33.0,0.0883332508188701,-0.6682832807840906,0.0014651623363799266,0.00016840424027390563
-985.0,33.0,0.08892885171300367,-0.662678647560746,0.0021073076079794616,0.00024224973713713252
-983.5,30.0,0.08952991953852792,-0.6619157415170889,0.003001399713965282,0.0003450937106536407
-982.0,30.0,0.09013738226505838,-0.6629034224040851,0.004233380508394919,0.0004868437361460379
-980.5,30.0,0.09075224947926766,-0.6620752309873471,0.005913360656660069,0.0006802032984928946
-979.0,30.0,0.09137479309331119,-0.6593011277840017,0.00818057010049845,0.0009412502118839623
-977.5,30.0,0.0920052367921778,-0.6544944422331311,0.011208729692292582,0.0012900677260947715
-976.0,27.0,0.09264375393504483,-0.6507059011639544,0.01521169916953434,0.001751413331301234
-974.5,27.0,0.09329258848786401,-0.651538017949362,0.02044920350042495,0.0023554046889899425
-973.0,27.0,0.09395091910602464,-0.6506067654480776,0.02723239244093467,0.003138197332087771
-971.5,27.0,0.09461833579895014,-0.6477486344304384,0.03592895559699023,0.004142625797998571
-970.0,27.0,0.09529521685946674,-0.6428368553307562,0.046967507571035495,0.005418779850705926
-968.5,27.0,0.09598193035668279,-0.6357954365323748,0.060840985660702694,0.00702449163152574
-967.0,24.0,0.09667894041857278,-0.6357397482312254,0.07810887603913177,0.009025719058605858
-965.5,24.0,0.09738548278615906,-0.6338300175519445,0.0993982107281871,0.011496826349622956
-964.0,24.0,0.09810117957105247,-0.6297653498231779,0.12540345955223492,0.014520784363695407
-962.5,24.0,0.09882654153607642,-0.6233864110455667,0.15688567417574817,0.01818934089128025
-961.0,24.0,0.09956213064499196,-0.6146024732552301,0.1946715117392796,0.022603242318275516
-959.5,21.0,0.10030853365682169,-0.6119107429738603,0.23965304941791166,0.0278726202463548
-958.0,21.0,0.10106547187699248,-0.6119346864982511,0.2927895633421311,0.03411768535344304
-956.5,21.0,0.10182874837304604,-0.6100738165820881,0.3551126406594938,0.04146989053561014
-955.0,21.0,0.1025989538114922,-0.6060966415891835,0.4277360697798254,0.0500737298571004
-953.5,21.0,0.10337677100216325,-0.5998115055004812,0.5118718562468848,0.0600893224604084
-952.0,18.0,0.10416300023235699,-0.594953660386423,0.6088533895146717,0.07169588530610861
-950.5,18.0,0.10495932332723744,-0.5965797286650597,0.7201662006332769,0.08509612090037416
-949.0,18.0,0.10575971456671165,-0.5966000902176498,0.8474858849286606,0.1005214341111148
-947.5,18.0,0.10656232314002288,-0.5948564767277056,0.992721629273043,0.11823774751946425
-946.0,18.0,0.10736789177983913,-0.5912308480545995,1.1580624293151702,0.13855151379453307
-944.5,18.0,0.10817736537820821,-0.5856621764091304,1.3460215979264891,0.16181533768990647
-943.0,15.0,0.10899287222615323,-0.5835245569331816,1.5594736831214417,0.1884324359256528
-941.5,15.0,0.10981380050125353,-0.5801325359767147,1.8016765988891295,0.2188590014255416
-940.0,15.0,0.11063583942103379,-0.5752988409405961,2.0762708179686955,0.2536034232814107
-938.5,15.0,0.11145971546411451,-0.5689674835191738,2.387247082412859,0.2932212706887465
-937.0,15.0,0.11228637859894888,-0.5611294709694958,2.7388744436639265,0.3383050016525617
-935.5,12.0,0.11311697418290642,-0.5583031481328529,3.1355816989692253,0.38946752454592326
-934.0,12.0,0.11395499077740623,-0.5579512191413646,3.581787532193908,0.4473190337530189
-932.5,12.0,0.11479434715076378,-0.5564443391683183,4.081677894759588,0.5124369598781621
-931.0,12.0,0.11563571245009,-0.5536069672303147,4.638933272444669,0.5853294073465396
-929.5,12.0,0.11647993049340678,-0.5492691111793826,5.256413258555094,0.6663930701638809
-928.0,9.0,0.11732805633563627,-0.5448000414731226,5.935810964902057,0.7558672783366738
-926.5,9.0,0.11818337109719221,-0.5424290349308495,6.677294825124612,0.8537864787447585
-925.0,9.0,0.11904259133799347,-0.5388720239309237,7.479159790119559,0.9599340320676808
-923.5,9.0,0.11990315579993889,-0.533940161929752,8.337513268253812,1.0738006451227449
-922.0,9.0,0.12076560904377832,-0.527438205039059,9.24602293588675,1.1945509920995034
-920.5,9.0,0.12163071851101845,-0.5191853110635348,10.1957533312715,1.32100205531175
-919.0,6.0,0.12250142838080347,-0.5162853652679883,11.17511567900527,1.4516164002418002
-917.5,6.0,0.12338046799076785,-0.5129438338293351,12.169950588637029,1.584512978419994
-916.0,6.0,0.12426152744635605,-0.5089716208789243,13.163756261854768,1.7174971406693216
-914.5,6.0,0.1251445994376832,-0.5043695778611225,14.138065988422625,1.8481103879129712
-913.0,6.0,0.12602988844163585,-0.4991495070825065,15.072968589093371,1.9736990611539909
-911.5,3.0,0.12691780283954687,-0.4946248294175317,15.947754831268448,2.091499774472701
-910.0,3.0,0.1278192116474285,-0.49058914451558133,16.741662576606892,2.198738039324797
-908.5,3.0,0.128725287163211,-0.48638928257641734,17.434684435314335,2.292735335459147
-907.0,3.0,0.12963533399504187,-0.4820325490438173,18.008394865029054,2.371018967990271
-905.5,3.0,0.130548751793091,-0.4775265828663585,18.44674968609894,2.4314285081836937
-904.0,0.0,0.131465131185623,-0.47283718027369803,18.736810387618732,2.472212514995109
-902.5,0.0,0.13239043446597984,-0.4680139373376616,18.869348580021544,2.4921096054990217
-901.0,0.0,0.1333276068615802,-0.4632098488152218,18.83929239795718,2.4904087728296136
-899.5,0.0,0.13427121488736748,-0.4584268642467023,18.645986135862337,2.4669850850881154
-898.0,0.0,0.1352197240247686,-0.4536668263528686,18.293246183008723,2.422308444172269
-896.5,0.0,0.13617177309711057,-0.44893147019538876,17.78920946713079,2.357424815877497
-895.0,4.0,0.13713006727822877,-0.4496369978981692,17.14598403725476,2.2739111199819257
-893.5,4.0,0.13810841887497022,-0.4486192485185597,16.379124014148964,2.1738066453304246
-892.0,4.0,0.13909684746617415,-0.44734110200746807,15.506961893173571,2.0595252945520266
-890.5,4.0,0.14009295139636505,-0.4458214508662932,14.549839266046556,1.933754054040322
-889.0,4.0,0.1410944614962058,-0.44408222828432947,13.529281864400971,1.7993437494679432
-887.5,8.0,0.14209927560026195,-0.4501328088289591,12.46716615849841,1.659198348478146
-886.0,8.0,0.14312861372889316,-0.45035288212055413,11.384922632059748,1.5161688162286915
-884.5,8.0,0.14417096913400745,-0.4503320179747679,10.302815663630128,1.372956862324198
-883.0,8.0,0.1452232964272883,-0.45008686346608556,9.239332290278934,1.2320329190379198
-881.5,8.0,0.14628248911381336,-0.44963469396196043,8.210702798572601,1.0955714639088527
-880.0,12.0,0.14734558114600332,-0.45721795626564093,7.2305659536397275,0.9654054600887102
-878.5,12.0,0.14842069597056953,-0.4567530639799706,6.309781607286954,0.8430003504259895
-877.0,12.0,0.14952030713290848,-0.4559623603744671,5.456384200258656,0.7294468103715581
-875.5,12.0,0.1506326117787824,-0.4548552653348044,4.675662918387511,0.6254704246550418
-874.0,12.0,0.15175389318077234,-0.45344507488812347,3.970348407964874,0.531455661857825
-872.5,12.0,0.15288054105807083,-0.4517483302946942,3.3408822184951172,0.4474810097372316
-871.0,16.0,0.15401308917664075,-0.46570173357840705,2.785743529434312,0.373361905015933
-869.5,16.0,0.1551728571901912,-0.46479405073349306,2.3018080584675937,0.30869812264059326
-868.0,16.0,0.15634813520165095,-0.4632818714514765,1.8847160292225866,0.25292254064896313
-866.5,16.0,0.15753478739944962,-0.46119225511835266,1.5292292924923254,0.20534861482769762
-865.0,16.0,0.15872874873674025,-0.45855805569877317,1.2295617042853326,0.16521442379511042
-863.5,20.0,0.15992610031318044,-0.4598332865355075,0.9796712313589296,0.13172172221302347
-862.0,20.0,0.16114879894568862,-0.46101003611035585,0.7735065915200127,0.10406901559144757
-860.5,20.0,0.1623900981859478,-0.4615215955605934,0.6052052263543093,0.08147820220708933
-859.0,20.0,0.16364581560564595,-0.46138143290734074,0.4692428208079265,0.06321478521902485
-857.5,20.0,0.16491151790295142,-0.46061095699454324,0.36053729142128266,0.048602022470462886
-856.0,24.0,0.16618287831736767,-0.4635799314170382,0.2745121125951685,0.03702964542265531
-854.5,24.0,0.16746430276948474,-0.462704513641629,0.2071250597351232,0.02795794454176296
-853.0,24.0,0.16877445455170687,-0.46110803653950005,0.15486899580507418,0.020918095989755955
-851.5,24.0,0.1701029997535576,-0.4588177571259556,0.11475132581039868,0.015509608269541281
-850.0,24.0,0.1714452098773656,-0.4558695676328209,0.08425832181557658,0.011395714631249242
-848.5,24.0,0.17279640922813652,-0.4523066662422423,0.06130981125104658,0.008297445048272331
-847.0,28.0,0.17415502959030738,-0.45863904116634835,0.04420884562121172,0.005986996687792595
-845.5,28.0,0.17554192357982723,-0.45819836804673925,0.03159002950341758,0.004280897980872353
-844.0,28.0,0.17695089435373854,-0.4569156444257868,0.022369272848686946,0.0030333396672152482
-842.5,28.0,0.17837713803150973,-0.45485716977576984,0.015696891555484406,0.0021299344772690225
-841.0,28.0,0.17981582810265717,-0.45209628583259776,0.010915258507598198,0.001482070410770515
-839.5,32.0,0.18126221383398558,-0.4707730872485153,0.007521617114573292,0.001021943319890102
-838.0,32.0,0.18273140262278414,-0.4727922628697609,0.005136214117334743,0.0006982931176725079
-836.5,32.0,0.1842258300371925,-0.47384034495743355,0.003475579343981445,0.0004728233399539996
-835.0,32.0,0.18574147018326312,-0.47397747627991277,0.0023305615734166814,0.0003172539697511969
-833.5,32.0,0.18727355629402764,-0.4732741850991761,0.001548602476516186,0.00021093986796023666
-832.0,36.0,0.18881729961894606,-0.494460902325992,0.0010196746682611928,0.000138979187387941
-830.5,36.0,0.1903721397824248,-0.49731865719640156,0.000665306183046535,9.073524766222725e-05
-829.0,36.0,0.19195781019039992,-0.49926951148770427,0.0004301454146273763,5.8699277223094823e-05
-827.5,36.0,0.19356495548929947,-0.5003601789386065,0.0002755738729130738,3.762832508365094e-05
-826.0,36.0,0.19518888234439133,-0.5006463570237205,0.0001749381903488857,2.390105293777939e-05
-824.5,36.0,0.19682479639764056,-0.5001902458330454,0.00011003974467063364,1.5042965942685155e-05
-823.0,40.0,0.1984694392139971,-0.5240630450104902,6.85846711575816e-05,9.38119527842936e-06
-821.5,40.0,0.20013904718130507,-0.5285689095308425,4.2355613570747876e-05,5.796753514564146e-06
-820.0,40.0,0.20182913558141935,-0.5320731842120221,2.5917608944288304e-05,3.5490071131105354e-06
-818.5,40.0,0.20353503797331587,-0.5346004659796713,1.5713476427704725e-05,2.1528683216624233e-06
-817.0,40.0,0.2052519247860785,-0.536189303986867,9.439220515842105e-06,1.2939264590190804e-06
-815.5,44.0,0.2069749071370496,-0.5539042048614813,5.617969820453725e-06,7.705059968026239e-07
-814.0,44.0,0.2087217021330712,-0.5592427982777529,3.3127968976193237e-06,4.545789935621157e-07
-812.5,44.0,0.21049140935808697,-0.5635863245180917,1.935418649874014e-06,2.6570643776867214e-07
-811.0,44.0,0.21227809271603376,-0.5669478872625601,1.1202428019087652e-06,1.5386736366122664e-07
-809.5,44.0,0.2140767010288714,-0.5693545894481205,6.423901148180795e-07,8.827443038485887e-08
-808.0,48.0,0.21588204934838534,-0.5842724679319163,3.649448295526698e-07,5.017177841066133e-08
-806.5,48.0,0.21770734039418077,-0.5895850253738557,2.0539479269234658e-07,2.8249604205643924e-08
-805.0,48.0,0.21956434252849608,-0.5939172048384312,1.1451901974453163e-07,1.575743980954246e-08
-803.5,48.0,0.22144361931093764,-0.5972719159503854,6.325340500685634e-08,8.707058851269828e-09
-802.0,48.0,0.22333980466922448,-0.5996659337869392,3.46099052604976e-08,4.7660870724635014e-09
-800.5,48.0,0.2252472963979864,-0.6011287201690119,1.8759414165746103e-08,2.5843379736343248e-09
-799.0,52.0,0.2271709128282957,-0.615999183003475,1.0072393477981124e-08,1.3881158798207529e-09
-797.5,52.0,0.22913617483993087,-0.6194321178012133,5.357138782460149e-09,7.385561507669814e-10
-796.0,52.0,0.23113007283756662,-0.6218042501339127,2.822358946212526e-09,3.8923787794090257e-10
-794.5,52.0,0.2331468333060992,-0.6231326410502284,1.472865725408897e-09,2.03194970469382e-10
-793.0,52.0,0.23518033815088157,-0.6234490804778443,7.613391461749836e-10,1.0506781745200037e-10
-791.5,56.0,0.2372242677659635,-0.6347264961265706,3.898072530251544e-10,5.3811873650168325e-11
-790.0,56.0,0.23930972242589385,-0.639389761012652,1.9768385784424758e-10,2.7298013799423703e-11
-788.5,56.0,0.24142815316316574,-0.6430122695005848,9.929673447838206e-11,1.371581285323098e-11
-787.0,56.0,0.24357292135232345,-0.6455956976031081,4.940083284416982e-11,6.8256310498675676e-12
-785.5,56.0,0.24573747554484818,-0.6471563407022449,2.434234194291406e-11,3.364249356369533e-12
-784.0,60.0,0.24791498048172156,-0.6562261748076879,1.1879895831080184e-11,1.6422950265147011e-12
-782.5,60.0,0.25011545703702814,-0.6603524763205859,5.742204612060255e-12,7.940091408062769e-13
-781.0,60.0,0.25235383815090134,-0.6633632069599065,2.748869973322365e-12,3.8019379193078546e-13
-779.5,60.0,0.2546171865775093,-0.6652529697034796,1.3032662714745258e-12,1.8029504148989083e-13
-778.0,60.0,0.2568986605225475,-0.6660333145694408,6.119411245558768e-13,8.467515799047462e-14
-776.5,60.0,0.25919106951899007,-0.6657319395086805,2.845626733619354e-13,3.938366502223344e-14
-775.0,64.0,0.26149485006700574,-0.6763060398055604,1.3104863281923059e-13,1.8140895140139233e-14
-773.5,64.0,0.26382264756263196,-0.6801598023754718,5.976789640719099e-14,8.275200761399557e-15
-772.0,64.0,0.2661693357318654,-0.6827651864591537,2.6994742221934292e-14,3.738269063197958e-15
-770.5,64.0,0.2685278857007939,-0.6841112071476567,1.2074277120035578e-14,1.6723604734019338e-15
-769.0,64.0,0.2708908960342587,-0.684207621567195,5.348216926610169e-15,7.408867965014536e-16
-767.5,68.0,0.27325077556234845,-0.6904863389068617,2.3459468253603998e-15,3.2503633717476174e-16
-766.0,68.0,0.2756034384246578,-0.6938088694314433,1.0190233014732308e-15,1.4121008699318854e-16
-764.5,68.0,0.2779664518686801,-0.6957358166949932,4.3833137969709616e-16,6.075039184291923e-17
-763.0,68.0,0.28033302324834314,-0.696243340916079,1.8671076888687076e-16,2.5880816853155356e-17
-761.5,68.0,0.28269586079582887,-0.6953335649852743,7.875543821423305e-17,1.0918137087891375e-17
-760.0,72.0,0.2850474926661116,-0.6977624510101611,3.2895182332980126e-17,4.560968404848447e-18
-758.5,72.0,0.2873685943175183,-0.7007084399787755,1.3605701505017374e-17,1.886687544893857e-18
-757.0,72.0,0.28967962413240744,-0.7022524566433823,5.572408666905615e-18,7.728120521442784e-19
-755.5,72.0,0.2919858095532196,-0.7023695225984887,2.259930005967726e-18,3.134552190760512e-19
-754.0,72.0,0.29428018342993095,-0.7010606460298445,9.075567640806942e-19,1.2589303598958843e-19
-752.5,72.0,0.29655558761193423,-0.6983527285262965,3.608912021331555e-19,5.006676057399877e-20
-751.0,76.0,0.29879556859548856,-0.7032528566724436,1.4210178028915254e-19,1.9715872106574872e-20
-749.5,76.0,0.30099809129122607,-0.7047926661058526,5.540393836484815e-20,7.687736001389695e-21
-748.0,76.0,0.3031861377290531,-0.704848915090013,2.138931819364934e-20,2.968207609563196e-21
-746.5,76.0,0.3053532503530325,-0.7034102346278781,8.176469852233185e-21,1.1347519094410197e-21
-745.0,76.0,0.30749278463639496,-0.7004936993261324,3.094887431595154e-21,4.295522593912082e-22
-743.5,80.0,0.3095980739019871,-0.7002282008131644,1.159929591928977e-21,1.6100421298722237e-22
-742.0,80.0,0.31162943291917766,-0.7008822375731916,4.304511702925922e-22,5.975337398318669e-23
-740.5,80.0,0.3136354947692154,-0.6999281672716822,1.5816831704280173e-22,2.1957833968179265e-23
-739.0,80.0,0.31561158544333384,-0.6973586062135624,5.754616286646469e-23,7.989441834391685e-24
-737.5,80.0,0.31755185073660924,-0.6931993219711492,2.073063272462474e-23,2.8783351277151325e-24
-736.0,84.0,0.31945041482749487,-0.6914762074368968,7.39445513998006e-24,1.0267446249294928e-24
-734.5,84.0,0.3212739699223409,-0.6932684121191671,2.611532553635249e-24,3.626418723071221e-25
-733.0,84.0,0.32304348347759304,-0.6934509019415298,9.132267960638153e-25,1.2681955877534906e-25
-731.5,84.0,0.32477300877682574,-0.6919988694023055,3.161943878615918e-25,4.391225425117212e-26
-730.0,84.0,0.3264577794703707,-0.6889216037385053,1.0839778930492172e-25,1.5054797946374197e-26
-728.5,84.0,0.328093023947172,-0.6842621338281711,3.6793912521407216e-26,5.110370752954253e-27
-727.0,88.0,0.32966268239145463,-0.6873846911825932,1.2365719956837095e-26,1.7175795535958056e-27
-725.5,88.0,0.3311542530791766,-0.6886562948633969,4.1148083428789425e-27,5.715676092631541e-28
-724.0,88.0,0.33259783292530204,-0.6882966629568614,1.3557126287960064e-27,1.8832581558566028e-28
-722.5,88.0,0.33398986023479404,-0.6862966471253478,4.422792293781191e-28,6.144822057447485e-29
-721.0,88.0,0.3353267827823622,-0.6826817727647443,1.4295093395497206e-28,1.9886499763256393e-29
-719.5,88.0,0.33660513335407216,-0.6826858235193922,4.605107682182709e-29,6.48874074934465e-30
-718.0,88.0,0.337791934215449,-0.6834195811240783,1.568834275901688e-29,2.4786233616904082e-30
-716.5,88.0,0.33893160505489495,-0.6825542105538296,8.522255051291488e-30,2.1571182563847804e-30
-715.0,88.0,0.3400242457597678,-0.6800748143207597,1.4258237811697727e-29,5.11640410302811e-30
-713.5,88.0,0.34106762798524176,-0.6760002718276522,4.142985129383072e-29,1.5758891382177573e-29
-712.0,84.0,0.34205951835488374,-0.6718350368990159,1.296253263193898e-28,4.9604724066095986e-29
-710.5,84.0,0.34298276744419076,-0.6708362331644754,4.050011071902156e-28,1.5507688840136855e-28
-709.0,84.0,0.34385212035899515,-0.6683110057095436,1.2538774316649737e-27,4.801470388913701e-28
-707.5,84.0,0.344684968348758,-0.6642443033088322,3.843803433416953e-27,1.471927976487193e-27
-706.0,84.0,0.34548032132626505,-0.6586522968350081,1.166657126624204e-26,4.467584292176054e-27
-704.5,84.0,0.34623707621257466,-0.6515821822327357,3.5058910722698425e-26,1.3425544160888136e-26
-703.0,80.0,0.3469455934591293,-0.6507255886670696,1.0431015197122132e-25,3.9945148584963263e-26
-701.5,80.0,0.34759516944300384,-0.649244639914205,3.07275444250675e-25,1.1767097274603867e-25
-700.0,80.0,0.34821392525116734,-0.6462672397350945,8.961948027468083e-25,3.4320055422494477e-25
-698.5,80.0,0.34880192040449937,-0.6417859734124465,2.587917678811689e-24,9.910604286863353e-25
-697.0,80.0,0.3493590591848502,-0.6358240219433768,7.398985142497851e-24,2.833518176044944e-24
-695.5,76.0,0.34988506302242944,-0.6332547066244871,2.0944389918973685e-23,8.020949531500013e-24
-694.0,76.0,0.35035531415250265,-0.6330023848359201,5.869989771971611e-23,2.2480175138987055e-23
-692.5,76.0,0.3507949441286666,-0.631326995735431,1.6288506467825455e-22,6.238036976988135e-23
-691.0,76.0,0.3512086602935461,-0.6282091533393028,4.475068674932137e-22,1.7138419903087032e-22
-689.5,76.0,0.3515972709443953,-0.6236584556991798,1.2172867767580977e-21,4.661958860238652e-22
-688.0,72.0,0.3519613600387685,-0.6192973903691392,3.2783937724072218e-21,1.2555706993993234e-21
-686.5,72.0,0.35228703879927387,-0.6189461665121503,8.74187521880109e-21,3.3480293168103668e-21
-685.0,72.0,0.3525724817066822,-0.6172770658401696,2.3079353607379608e-20,8.839199900245194e-21
-683.5,72.0,0.35283401684040494,-0.6142540759105504,6.032794322051948e-20,2.3105351224884778e-20
-682.0,72.0,0.3530732515721081,-0.6098666240210158,1.561311428503956e-19,5.97982417609746e-20
-680.5,72.0,0.35329157200178574,-0.604130938106288,4.0007094884127444e-19,1.5322893941704258e-19
-679.0,68.0,0.35348464377707395,-0.6032924776231624,1.0149888757222309e-18,3.887496866291536e-19
-677.5,68.0,0.3536343978892126,-0.6019203512127127,2.5495450087162014e-18,9.76509637297766e-19
-676.0,68.0,0.3537626995662871,-0.5992365155074457,6.340763874815797e-18,2.4286258156816522e-18
-674.5,68.0,0.35387189893644716,-0.5952240610970128,1.561343118119332e-17,5.980295652948504e-18
-673.0,68.0,0.35396414131940007,-0.5898918202424333,3.80656628977008e-17,1.4580186464209227e-17
-671.5,64.0,0.3540412756741991,-0.5874020597158235,9.188553036844505e-17,3.51951074274303e-17
-670.0,64.0,0.35408235458440857,-0.5869594795435887,2.1960386226464754e-16,8.411641288357659e-17
-668.5,64.0,0.3541035074571606,-0.5852545102642321,5.196517480373974e-16,1.9904848791259952e-16
-667.0,64.0,0.3541125362974261,-0.5822586140972725,1.217488465643305e-15,4.663555933847596e-16
-665.5,64.0,0.3541122242217159,-0.5779681517099204,2.824215664040652e-15,1.081822889218752e-15
-664.0,60.0,0.35410502750429323,-0.573672831636919,6.486522301555145e-15,2.4847135812028853e-15
-662.5,60.0,0.35408546266170166,-0.572662889634898,1.4750528134761477e-14,5.650387595680818e-15
-661.0,60.0,0.3540476663701442,-0.5704910829575843,3.3211262565368695e-14,1.2722206926684852e-14
-659.5,60.0,0.3540060073757062,-0.5671180944805856,7.40365125030554e-14,2.836152480177648e-14
-658.0,60.0,0.35396369425706037,-0.5625264151036471,1.6341423581852484e-13,6.260084941427153e-14
-656.5,60.0,0.35392359576142574,-0.5567222160738907,3.571230094274957e-13,1.3680912201358372e-13
-655.0,56.0,0.3538843560873835,-0.5545763095221908,7.727347824098393e-13,2.960293318186514e-13
-653.5,56.0,0.35382301126876253,-0.5520068605808586,1.6554972924290338e-12,6.342201019359204e-13
-652.0,56.0,0.3537609611449495,-0.5483475918655346,3.5116611768726992e-12,1.3453385016296847e-12
-650.5,56.0,0.3537016468281668,-0.5435656074559956,7.375366741663618e-12,2.8255970120951075e-12
-649.0,56.0,0.3536482149105183,-0.5376471708662287,1.5337067040648724e-11,5.87593204257457e-12
-647.5,52.0,0.35360340453392103,-0.5341135933941685,3.1578356651565584e-11,1.2098514197473232e-11
-646.0,52.0,0.3535526688688459,-0.5324150255474709,6.437631569884446e-11,2.4664761676598073e-11
-644.5,52.0,0.353499199191936,-0.529637949856401,1.2994303330672085e-10,4.978658474671946e-11
-643.0,52.0,0.3534510842399559,-0.525734471536754,2.596995026239338e-10,9.950370010339236e-11
-641.5,52.0,0.3534116038607333,-0.5206763042327536,5.139033586965365e-10,1.9690584337656788e-10
-640.0,48.0,0.3533836981962788,-0.5163657712454949,1.0068969901608998e-09,3.8580823720798073e-10
-638.5,48.0,0.3533662659277072,-0.5180787297649236,1.953362960725274e-09,7.484779090493273e-10
-637.0,48.0,0.3533461579740026,-0.5188173000006251,3.752116283456338e-09,1.4377461231147788e-09
-635.5,48.0,0.35333369210998516,-0.5185100691617661,7.1361870925498475e-09,2.734527688886653e-09
-634.0,48.0,0.35333233432504974,-0.5171019989559367,1.3438598342993273e-08,5.149683879743178e-09
-632.5,48.0,0.35334529213257604,-0.5145584072101692,2.505767592960642e-08,9.602365065284313e-09
-631.0,44.0,0.35337397763949535,-0.5153662766746632,4.62623811760666e-08,1.7728687274718158e-08
-629.5,44.0,0.35339866404021836,-0.5157834075877143,8.457011516631258e-08,3.240985199498749e-08
-628.0,44.0,0.35343271703462925,-0.5151016743888023,1.5307667709312705e-07,5.866526712163656e-08
-626.5,44.0,0.35347987284745347,-0.5132437130616243,2.74350509947753e-07,1.0514535334405346e-07
-625.0,44.0,0.3535437205822243,-0.5101529315153792,4.868651554516639e-07,1.865974458316691e-07
-623.5,40.0,0.35362759281977557,-0.5094311000723656,8.55498764258244e-07,3.2789099758763093e-07
-622.0,40.0,0.3537221957267186,-0.5106742421397182,1.4884680181786592e-06,5.705098573579654e-07
-620.5,40.0,0.3538254120398849,-0.5107627109567643,2.5643114842513315e-06,9.828979075115686e-07
-619.0,40.0,0.35394445196346275,-0.5096057428395557,4.374364631432218e-06,1.676745191165327e-06
-617.5,40.0,0.354083352275359,-0.5071377010165623,7.388801047517411e-06,2.832311396299169e-06
-616.0,36.0,0.3542460124436381,-0.5039434046243945,1.2358042173923705e-05,4.7373136640167526e-06
-614.5,36.0,0.3544351651791678,-0.501931974938044,2.0466523283743875e-05,7.845895201422013e-06
-613.0,36.0,0.3546366050290799,-0.4987269330909463,3.35628814804978e-05,1.286690718704114e-05
-611.5,36.0,0.3548545984781374,-0.4942334106182228,5.4500100933328586e-05,2.0894370592562795e-05
-610.0,36.0,0.3550935163803069,-0.4883766572028978,8.763154887101422e-05,3.359774345012649e-05
-608.5,36.0,0.35535774008616916,-0.48111076967057953,0.00013952469168859976,5.349570621312184e-05
-607.0,32.0,0.35565180024228116,-0.47639764280854147,0.0002199740362383232,8.434476375988574e-05
-605.5,32.0,0.3559580061154415,-0.4708985653915845,0.00034341873871523174,0.0001316831411424468
-604.0,32.0,0.35627825989727313,-0.46392527901809827,0.0005308982473410464,0.0002035811786172046
-602.5,32.0,0.3566172924329009,-0.4554115204142067,0.0008127106239251096,0.0003116614539199475
-601.0,32.0,0.3569800539872835,-0.44533714274596276,0.0012319713589593211,0.00047246461622134963
-599.5,28.0,0.3573715856332621,-0.4373686156212746,0.0018493030386135252,0.0007092494431229075
-598.0,28.0,0.3577876573083769,-0.43115777241310427,0.002748914317037257,0.001054326464428813
-596.5,28.0,0.3582105521615217,-0.4234557559563545,0.004046344957873181,0.0015520315880823512
-595.0,28.0,0.3586452599130844,-0.4141788499593466,0.005898155283364306,0.0022624468473204486
-593.5,28.0,0.3590971347499134,-0.40329457052163553,0.008513814712639596,0.0032659664022626628
-592.0,24.0,0.35957186935706076,-0.39212146576966145,0.012169985467465838,0.004668783541445151
-590.5,24.0,0.36007589988301936,-0.3848499317403627,0.017227293689762044,0.006609334684921073
-589.0,24.0,0.3605870409351862,-0.3764088475180398,0.024149521334323416,0.009265675511308092
-587.5,24.0,0.36110013474754443,-0.36682451153864476,0.03352493037171269,0.012863679267359499
-586.0,24.0,0.3616205902770936,-0.3561708094535605,0.04608914190230263,0.017685836452206654
-584.5,24.0,0.3621543689643086,-0.34457108160230604,0.06274863843202447,0.024080299020454554
-583.0,20.0,0.3627098699939182,-0.3357472170504238,0.08460354751789337,0.03246965472050303
-581.5,20.0,0.3632815542612933,-0.32678946747834053,0.11296791900534518,0.04335874572514232
-580.0,20.0,0.36385079588427455,-0.31719486313858286,0.14938525734466707,0.05734067226555887
-578.5,20.0,0.36442274021528814,-0.3070596036292261,0.19563665806700553,0.07509996306146731
-577.0,20.0,0.3650031679603857,-0.2965010259198222,0.2537385774043031,0.09741177066428161
-575.5,16.0,0.3655983669427949,-0.2851846442910432,0.325927098393317,0.12513588526551628
-574.0,16.0,0.3662230357207886,-0.2726885250438921,0.4146256111773239,0.15920438028003137
-572.5,16.0,0.36685014912548125,-0.25934009856411244,0.522393161894392,0.20060183107768242
-571.0,16.0,0.3674798267361058,-0.2452673880477201,0.6518513941599122,0.2503373041575262
-569.5,16.0,0.3681172900703917,-0.23064619094080002,0.8055890393589261,0.3094077093587446
-568.0,12.0,0.36876832994857306,-0.21566625748898588,0.9860443060692088,0.37875264228370287
-566.5,12.0,0.3694488496237338,-0.19999470654135,1.1953672358704022,0.4592015031513872
-565.0,12.0,0.370143602806535,-0.1835908809599725,1.4352660498163539,0.5514144302098486
-563.5,12.0,0.3708401909186921,-0.16663429948412806,1.7068435794071797,0.6558193817849982
-562.0,12.0,0.37154290015464986,-0.14935408051433727,2.010431889816275,0.7725484765434605
-560.5,12.0,0.3722566290697364,-0.13202064804028696,2.345434962755517,0.9013773803275782
-559.0,8.0,0.37299072134499717,-0.12069433997283893,2.710190598653414,1.041672028075024
-557.5,8.0,0.37376075180932467,-0.11052818567267206,3.1018633164172673,1.1923472114052909
-556.0,8.0,0.3745335742684236,-0.10055975340532697,3.5163797985611116,1.351841478753102
-554.5,8.0,0.37531176494023055,-0.09082908694853642,3.948417230361874,1.5181123391070366
-553.0,8.0,0.3760985106838537,-0.08137046093441583,4.391452672589552,1.6886549160715474
-551.5,4.0,0.37689754933780356,-0.07299158315641469,4.837878441524719,1.860545986036867
-550.0,4.0,0.3777400528074411,-0.06553101507416315,5.279184502965082,2.0305138119456845
-548.5,4.0,0.3785962983253268,-0.05822148322367496,5.706204373047184,2.1950324497586973
-547.0,4.0,0.37945982303754067,-0.05106030728130198,6.109416295515928,2.3504373876478875
-545.5,4.0,0.38033150723414805,-0.04404395990303772,6.479286926263811,2.4930576293789732
-544.0,0.0,0.38121280091357607,-0.03717999235866193,6.806640814949375,2.619357812300277
-542.5,0.0,0.38212496406929974,-0.030498585242672155,7.083036021278383,2.7260828074937464
-541.0,0.0,0.38306774490512274,-0.023937364893135415,7.3011245655611,2.8103966106875298
-539.5,0.0,0.38402296831567784,-0.0174919059353828,7.454976310636166,2.8700072833154135
-538.0,0.0,0.3849888439651678,-0.011157768635892018,7.540346392738391,2.903270278226299
-536.5,0.0,0.3859641321731499,-0.004930515248771528,7.554869400529299,2.9092636611692093
-535.0,5.0,0.38695574993069703,-0.040247484356091656,7.498167933394758,2.8878304370893155
-533.5,5.0,0.3879954639350071,-0.03634650659419697,7.3718686093717505,2.8395852783283715
-532.0,5.0,0.38905276629650964,-0.03285983928632044,7.1795245971245185,2.765885260280898
-530.5,5.0,0.39012320418415475,-0.02976048341801349,6.926449816827498,2.6687665473625506
-529.0,5.0,0.3912028215770431,-0.027017011703539456,6.619475587684605,2.550851144273735
-527.5,10.0,0.3922882231386164,-0.048644726672691235,6.266645236480108,2.415229657559286
-526.0,10.0,0.39342932113490836,-0.04740492680519856,5.876865653980993,2.265327358023316
-524.5,10.0,0.39459851891876174,-0.04638916755602693,5.459536751304549,2.1047616012635264
-523.0,10.0,0.3957870589380246,-0.04556540753238164,5.024180128773279,1.9371988128068194
-521.5,10.0,0.39698868262914366,-0.04490188865971256,4.58008707628724,1.7662187946869707
-520.0,15.0,0.3981976403807969,-0.06349220463787139,4.136003464069517,1.5951931329956273
-518.5,15.0,0.39943548152909936,-0.059283328117797074,3.6998654528798016,1.4271830946580866
-517.0,15.0,0.40072461259359454,-0.055326619085671686,3.2785956240701646,1.2648607387103221
-515.5,15.0,0.4020392669846236,-0.05162161364911927,2.8779645048203113,1.1104551875808233
-514.0,15.0,0.40337137463141953,-0.0481625407765868,2.5025179356486236,0.9657242588214803
-512.5,15.0,0.40471330970319863,-0.044938951414713074,2.155566642546293,0.8319500812686809
-511.0,20.0,0.4060656673398686,-0.055163696308509785,1.8392310066224693,0.709956016968821
-509.5,20.0,0.4074764825269223,-0.05334009683128224,1.5545315491468124,0.600141251021071
-508.0,20.0,0.40891907861245363,-0.05159172244980384,1.3015141497065192,0.5025288273971298
-506.5,20.0,0.41038426781161397,-0.04991385045773844,1.0793984761792592,0.41682269513994297
-505.0,20.0,0.4118632089426322,-0.048300015900608256,0.8867384333918378,0.342469450433707
-503.5,25.0,0.4133475791830586,-0.061852477459844235,0.7215844784992096,0.2787208568474224
-502.0,25.0,0.41488260787743214,-0.06049986656902556,0.5816392141661861,0.2246938251695635
-500.5,25.0,0.41645636461002156,-0.05919324718522237,0.4643995510147969,0.1794252569248651
-499.0,25.0,0.41805893590013293,-0.05792766050438672,0.3672807316214043,0.14191992596276556
-497.5,25.0,0.4196805908174227,-0.05669657271502221,0.2877194571759467,0.11119032381724905
-496.0,30.0,0.4213120273781264,-0.06843056026719617,0.22325511820075958,0.08628807400527407
-494.5,30.0,0.4229645787051505,-0.06518477280080778,0.17158960757500968,0.06632709122311992
-493.0,30.0,0.42467528434647056,-0.06189331906651112,0.1306273348395035,0.05049910295297895
-491.5,30.0,0.42642392804205403,-0.058568474199030815,0.09849785117095691,0.03808245760331673
-490.0,30.0,0.42820026446845566,-0.055221952189898504,0.07356395206577468,0.028445321553434294
-488.5,30.0,0.429994352115596,-0.051864850610089025,0.054418290532994434,0.021044432974961082
-487.0,35.0,0.43180217053847936,-0.04494025482848102,0.039871462802268914,0.015420554310556629
-485.5,35.0,0.4336711081847614,-0.03857009067901444,0.02893428275015199,0.011191671494387203
-484.0,35.0,0.4355897349813523,-0.03216300156178689,0.02079660125331993,0.008044849851004926
-482.5,35.0,0.43754782024438565,-0.025765801098546273,0.014804607381053022,0.00572749530460898
-481.0,35.0,0.4395352047912794,-0.019423188527973256,0.01043811536093136,0.004038602708789828
-479.5,40.0,0.4415420192008851,-0.01375993037346565,0.0072889293328520744,0.0028204142214010635
-478.0,40.0,0.4435963024807738,-0.010820886999352228,0.005041010759837274,0.0019507689016164096
-476.5,40.0,0.44570700067162733,-0.007879472977009527,0.00345286461010313,0.001336305401005941
-475.0,40.0,0.4478662314599885,-0.004956436841391271,0.0023423152254248873,0.0009065847914981255
-473.5,40.0,0.4500640623821695,-0.0020713810092681806,0.0015736598199690736,0.0006091297419544393
-472.0,45.0,0.45229058323740606,-0.001106173839153679,0.001047061008888473,0.00040532720661799775
-470.5,45.0,0.45454275328806126,0.0022485248423491505,0.0006899612043431999,0.0002671112802976083
-469.0,45.0,0.4568594439391527,0.005573817629738673,0.0004502615836115393,0.00017432722783105285
-467.5,45.0,0.45922589450377266,0.008845484271633772,0.0002909971233716675,0.00011267324317814004
-466.0,45.0,0.4616326015497291,0.0120414387215238,0.00018624823868081488,7.21198902112289e-05
-464.5,45.0,0.46406986163340785,0.01514235555339942,0.00011805149520135637,4.5715575127329115e-05
-463.0,50.0,0.46653026104126105,0.016938764180868926,7.410079677483244e-05,2.8697524434023816e-05
-461.5,50.0,0.469047270955572,0.018139078934784655,4.6061983001063786e-05,1.783988761197745e-05
-460.0,50.0,0.4716129791518729,0.0193449717416931,2.835483492487958e-05,1.0982560857909334e-05
-458.5,50.0,0.4742160388701017,0.020547374731489335,1.728513610528113e-05,6.695382848001695e-06
-457.0,50.0,0.47684678722221463,0.021736731975471463,1.0434609421316585e-05,4.042072052587498e-06
-455.5,55.0,0.47949542154772995,0.017907870397207287,6.237835401896147e-06,2.4164963906703727e-06
-454.0,55.0,0.48218747919857785,0.01863056651483566,3.6926881241955527e-06,1.4306006649953914e-06
-452.5,55.0,0.4849267649157624,0.019363756954001637,2.1647070058373197e-06,8.386826439961705e-07
-451.0,55.0,0.4877039915559817,0.020104142821163892,1.2566092173885095e-06,4.868786405951052e-07
-449.5,55.0,0.4905094472123648,0.020847425573536707,7.223420860484047e-07,2.7988819320068054e-07
-448.0,60.0,0.4933330963624001,0.01787940442505076,4.111726080685746e-07,1.593258570208219e-07
-446.5,60.0,0.49618512609614757,0.016080952667195704,2.3176140184975368e-07,8.980962828972678e-08
-445.0,60.0,0.49910437459479035,0.014303705460993063,1.2935728943298715e-07,5.012930586798036e-08
-443.5,60.0,0.5020689491720927,0.012557130452124761,7.149420389658211e-08,2.770702698574675e-08
-442.0,60.0,0.5050688773318217,0.01084923857714521,3.912715236994613e-08,1.516404200102229e-08
-440.5,60.0,0.5080936514244164,0.009186486447381986,2.1203646637548566e-08,8.217965140242813e-09
-439.0,65.0,0.5111430394322073,0.007764063391216616,1.1377983359606465e-08,4.409967679383633e-09
-437.5,65.0,0.5142726303271703,0.006902969477957946,6.045608779019085e-09,2.343289376961719e-09
-436.0,65.0,0.5174593723227747,0.0060730564279457555,3.1807714324997923e-09,1.2329161267995378e-09
-434.5,65.0,0.5206913584022324,0.005278364280250768,1.6570679031511802e-09,6.423267348763074e-10
-433.0,65.0,0.5239574458697053,0.004521544235692579,8.54793848563872e-10,3.3135319124939577e-10
-431.5,70.0,0.5272460219623168,0.006276674884438532,4.3660992478878737e-10,1.6925321298523451e-10
-430.0,70.0,0.5306043436299054,0.007735309524541427,2.2081822602727477e-10,8.560345119073456e-11
-428.5,70.0,0.5340227140706248,0.009201884888215175,1.1058172550745102e-10,4.286987996794922e-11
-427.0,70.0,0.5374905965924166,0.01066722978508635,5.483237346081433e-11,2.1257785652857007e-11
-425.5,70.0,0.5409962569189151,0.012121936142250066,2.6921182738837303e-11,1.043726548850432e-11
-424.0,75.0,0.5445273135837556,0.015658920718569624,1.3087384799572694e-11,5.074072186557564e-12
-422.5,75.0,0.5480944499213035,0.019106394315211342,6.299579383453184e-12,2.4424521969671403e-12
-421.0,75.0,0.5517291408649553,0.022546681490335008,3.0023999330628123e-12,1.1641083430617092e-12
-419.5,75.0,0.5554092027362421,0.02595678511501714,1.4168447341847649e-12,5.493600407892894e-13
-418.0,75.0,0.5591224898848627,0.02931393363929218,6.62020122027935e-13,2.566939084180625e-13
-416.5,75.0,0.5628560935028464,0.03259638567115994,3.0627663567169836e-13,1.1875924867437212e-13
-415.0,80.0,0.5666080413139567,0.04573654731062795,1.4029716220957057e-13,5.4401554450250873e-14
-413.5,80.0,0.5703997559828264,0.04993371975493254,6.363190011171875e-14,2.4674355929513093e-14
-412.0,80.0,0.5742248156727349,0.05404030360945901,2.857528567420602e-14,1.108076384589933e-14
-410.5,80.0,0.578069860520571,0.05802713792996632,1.2705586010943973e-14,4.9269901156083545e-15
-409.0,80.0,0.581921792774564,0.06186750378547333,5.5935309589257385e-15,2.169105161162225e-15
-407.5,85.0,0.5857670578630361,0.07466715708891769,2.4381670597418536e-15,9.455082069056684e-16
-406.0,85.0,0.589608178831916,0.08048832733277642,1.0522667013248091e-15,4.0807000599529347e-16
-404.5,85.0,0.5934450800853935,0.08615681353809976,4.496473934547047e-16,1.743763823562852e-16
-403.0,85.0,0.597284540644493,0.09162874119474629,1.9023971638359844e-16,7.377738412265752e-17
-401.5,85.0,0.6011138314926938,0.09686429620547174,7.96915307146504e-17,3.0905833785887345e-17
-400.0,90.0,0.6049197750049389,0.11072535133064151,3.305248134340846e-17,1.281853402523954e-17
-398.5,90.0,0.608680418921279,0.11659251303544263,1.3573004048878179e-17,5.264001917498223e-18
-397.0,90.0,0.6124012074210999,0.12222220927034996,5.518575946641146e-18,2.140290056111662e-18
-395.5,90.0,0.6161064851554597,0.1275690831763872,2.2215513896461178e-18,8.6160322138292575e-19
-394.0,90.0,0.6197843122012424,0.1325937132267385,8.854482683683437e-19,3.434150165278191e-19
-392.5,90.0,0.6234223102929658,0.13726410868872937,3.494191770729038e-19,1.3552136598498972e-19
-391.0,95.0,0.6270068480676951,0.1470637009601492,1.3652313473539448e-19,5.295074136998206e-20
-389.5,95.0,0.630494829591712,0.1523989458004803,5.281302273820108e-20,2.0483841170810743e-20
-388.0,95.0,0.633948886486456,0.157376524980202,2.0227880151452398e-20,7.845581837292404e-21
-386.5,95.0,0.6373574447236008,0.16195383442389608,7.670675933890091e-21,2.975176030945191e-21
-385.0,95.0,0.6407092188301304,0.16609757262777786,2.8799847292832922e-21,1.1170517796023032e-21
-383.5,100.0,0.6439928189594779,0.17299422361481426,1.0705807146580293e-21,4.1524697079688166e-22
-382.0,100.0,0.6471540744489844,0.177797290235809,3.9402225047916544e-22,1.5283104993742292e-22
-380.5,100.0,0.6502369555341846,0.18214461772769944,1.4357989193546485e-22,5.56913986124278e-23
-379.0,100.0,0.6532570754467435,0.18599373574572045,5.180092395288684e-23,2.0092571768166723e-23
-377.5,100.0,0.65620483530162,0.18931465102558082,1.8503414872813193e-23,7.177171101827842e-24
-376.0,105.0,0.6590705497565548,0.19499509761338396,6.5438942266414655e-24,2.5382883272413322e-24
-374.5,105.0,0.661810869796023,0.2002232066653509,2.2913434341767998e-24,8.88787666773912e-25
-373.0,105.0,0.6644249654804509,0.20494046852146003,7.943523480496787e-25,3.0812295393745087e-25
-371.5,105.0,0.666956643356787,0.2090972207197124,2.726495759365819e-25,1.057593141848278e-25
-370.0,105.0,0.6693984246075593,0.2126577569684252,9.265411656605029e-26,3.5940272198952026e-26
-368.5,105.0,0.6717428037304042,0.21560178545749029,3.117400939359618e-26,1.2092392002653585e-26
-367.0,110.0,0.6739793924713916,0.21859863911667515,1.038461127239296e-26,4.028230366713881e-27
-365.5,110.0,0.6760423929156627,0.2201656938727511,3.4251267044025346e-27,1.3286841607846131e-27
-364.0,110.0,0.678004748293537,0.22110781818610514,1.1190382135820904e-27,4.342859044729172e-28
-362.5,110.0,0.6798609584599419,0.22141427347962195,3.6374981718001843e-28,1.4175402803626238e-28
-361.0,110.0,0.6816059816940098,0.2210909054422292,1.2268416280081953e-28,4.9658115263892924e-29
-359.5,110.0,0.6832349498483316,0.21740906876066154,5.850590594901218e-29,2.918381602955861e-29
-358.0,110.0,0.6846962962186786,0.2176533990036656,7.934179520168725e-29,5.09401606379327e-29
-356.5,110.0,0.6860343823110153,0.21728223265357488,2.1227860976729783e-28,1.4438138574869344e-28
-355.0,110.0,0.687271406067571,0.21629179105954405,6.368977893937472e-28,4.360572780912547e-28
-353.5,110.0,0.6884050637843733,0.21469422542606312,1.9182173159205406e-27,1.3142397782808735e-27
-352.0,105.0,0.6894331056857053,0.213121925289098,5.728614121713793e-27,3.925247728314294e-27
-350.5,105.0,0.6903276982338218,0.2155552192989758,1.6942728056175932e-26,1.1609555445590229e-26
-349.0,105.0,0.691099507306403,0.21742905748933944,4.9618953767326335e-26,3.400106937506214e-26
-347.5,105.0,0.6917892691664259,0.2187171590679608,1.4389329145001694e-25,9.860493840417698e-26
-346.0,105.0,0.6923971901597867,0.21940755113905286,4.1320498652555795e-25,2.831636618033103e-25
-344.5,105.0,0.6929233592053297,0.21950303995940543,1.1749698165225185e-24,8.05217649075373e-25
-343.0,100.0,0.6933664118699914,0.22217176429871136,3.3084788373749276e-24,2.2674115174475266e-24
-341.5,100.0,0.6936739723793991,0.22518026686255022,9.22518473460048e-24,6.322565164141331e-24
-340.0,100.0,0.6939115973132693,0.22761285621345217,2.5472503520514345e-23,1.7458503424354187e-23
-338.5,100.0,0.6940814449341167,0.22944177325376164,6.965031060060775e-23,4.773935027787088e-23
-337.0,100.0,0.6941856753309059,0.23065371147083386,1.885969247168955e-22,1.2927277988343708e-22
-335.5,95.0,0.6942261609948713,0.23267234425897837,5.057219198332666e-22,3.466604590788501e-22
-334.0,95.0,0.6941658369221154,0.23589092825079616,1.3429514721472984e-21,9.206063326079652e-22
-332.5,95.0,0.6940215202078157,0.23851788408242908,3.531719765941622e-21,2.4211521892558325e-21
-331.0,95.0,0.693819188980433,0.2405210044844086,9.198050543309802e-21,6.3060152104982054e-21
-329.5,95.0,0.6935628490778982,0.24188281540323647,2.372441522121251e-20,1.6265945391512322e-20
-328.0,90.0,0.6932561538772848,0.24290186375172879,6.060273274515377e-20,4.15529464367941e-20
-326.5,90.0,0.6928804347353378,0.24578383461439712,1.5331792615001797e-19,1.0513072879099292e-19
-325.0,90.0,0.6924228835160885,0.24809124137695976,3.8415371913930946e-19,2.634330461315084e-19
-323.5,90.0,0.6919170945074932,0.24978631947300384,9.533143723168172e-19,6.537793877587268e-19
-322.0,90.0,0.6913685793233796,0.2508444760681207,2.3431177698342882e-18,1.6070171861868828e-18
-320.5,90.0,0.6907824795608044,0.25125563956935537,5.70409997246993e-18,3.912427915518523e-18
-319.0,85.0,0.6901636818238573,0.2541744841463126,1.3753828124841066e-17,9.434462751478226e-18
-317.5,85.0,0.689465589305744,0.25743588536193884,3.28482463137947e-17,2.253417802733804e-17
-316.0,85.0,0.6887270891381602,0.2600816529700611,7.770730437505038e-17,5.331248940208323e-17
-314.5,85.0,0.6879549183023519,0.26207796117058724,1.8208816778002206e-16,1.2493614678921482e-16
-313.0,85.0,0.687155521268548,0.2634054516269694,4.226503466700437e-16,2.900204296189229e-16
-311.5,80.0,0.6863347720425443,0.2635596021917131,9.717844839736491e-16,6.668989862473419e-16
-310.0,80.0,0.6854778667192382,0.2624351170703422,2.2133888564603185e-15,1.5191208979280937e-15
-308.5,80.0,0.6845798020550672,0.2606767423635283,4.9940683104194025e-15,3.4279575678553284e-15
-307.0,80.0,0.6836637146038756,0.258280142587604,1.116272851121684e-14,7.663011972772582e-15
-305.5,80.0,0.6827370931250586,0.25525475180767315,2.4718130395537736e-14,1.6970506582132704e-14
-304.0,75.0,0.6818068030502167,0.25226280682212066,5.4225128739837333e-14,3.723331489752543e-14
-302.5,75.0,0.6808729154455376,0.25439250948806974,1.1785165577996514e-13,8.093206308631312e-14
-301.0,75.0,0.6799202462066929,0.2559846030387484,2.5376478040347743e-13,1.7428979969411263e-13
-299.5,75.0,0.6789659964300159,0.25700523353882454,5.413747511611841e-13,3.7187433613404157e-13
-298.0,75.0,0.6780182851388415,0.25743128645546887,1.1443161391147417e-12,7.861468795395526e-13
-296.5,75.0,0.6770845949514003,0.25725170594873775,2.3965457328418975e-12,1.6466629314595492e-12
-295.0,70.0,0.676172292998962,0.2593592297770115,4.9731007184434796e-12,3.4175068016374394e-12
-293.5,70.0,0.6752601522100535,0.261871267942984,1.0225407221865883e-11,7.027934135841839e-12
-292.0,70.0,0.6743524558356798,0.26387744436285,2.0833179613122724e-11,1.432086711941972e-11
-290.5,70.0,0.6734574237036162,0.2653414699364341,4.205925590312746e-11,2.8916366840017943e-11
-289.0,70.0,0.6725827351865652,0.26623622057226837,8.414103855085255e-11,5.78575485971462e-11
-287.5,65.0,0.6717352809763835,0.2678773839252476,1.6680275381175172e-10,1.147167841159723e-10
-286.0,65.0,0.670915094787556,0.2707672304932133,3.276845948434746e-10,2.253994481925335e-10
-284.5,65.0,0.6700994794745009,0.2731198293526261,6.379317680468726e-10,4.3887974063757455e-10
-283.0,65.0,0.6692986055640401,0.27488874930323837,1.230737022669432e-09,8.468614410356889e-10
-281.5,65.0,0.6685201348516637,0.2760373952106152,2.3530763513588443e-09,1.6194222934236415e-09
-280.0,60.0,0.6677710959541995,0.2767365954337059,4.458541339369263e-09,3.0689866238470164e-09
-278.5,60.0,0.6670583771134958,0.27875601834802405,8.372232658956127e-09,5.763981522714739e-09
-277.0,60.0,0.6663604026151334,0.280223895699787,1.5580684397550478e-08,1.0728716951352494e-08
-275.5,60.0,0.6656787301160384,0.28109487241499576,2.8736434894510457e-08,1.9791324552497197e-08
-274.0,60.0,0.6650211331540363,0.2813331667455934,5.25271729542258e-08,3.6183230714128814e-08
-272.5,60.0,0.6643949266299611,0.28091467459890157,9.515747421771027e-08,6.556137570529058e-08
-271.0,55.0,0.6638087996262114,0.2827025780268134,1.7084873096247488e-07,1.1773324543389056e-07
-269.5,55.0,0.6632501905969513,0.2848519982704498,3.040129541357907e-07,2.09537565829398e-07
-268.0,55.0,0.6627104096692749,0.2864018463902059,5.361479956119869e-07,3.6960432943566796e-07
-266.5,55.0,0.6621974291566477,0.2872992360772067,9.371079385946356e-07,6.46136870796296e-07
-265.0,55.0,0.6617189504003164,0.28750221642859325,1.6233278745911116e-06,1.1194986148309604e-06
-263.5,50.0,0.6612822022175685,0.2885402815905788,2.7869761841789e-06,1.9223511596920708e-06
-262.0,50.0,0.6608931217020066,0.2910816076355392,4.742077826793139e-06,3.271522617544545e-06
-260.5,50.0,0.6605274976767395,0.2929706560374627,7.996683451515122e-06,5.517882671613065e-06
-259.0,50.0,0.6601924612005201,0.2941467747647727,1.3364531766097132e-05,9.22352724038393e-06
-257.5,50.0,0.6598962655696174,0.2945623400387171,2.213586314356196e-05,1.527987524913682e-05
-256.0,45.0,0.6596469205722869,0.2945458617168497,3.633572179870717e-05,2.5086290355793428e-05
-254.5,45.0,0.6594564886600316,0.2977469328913843,5.911000875442497e-05,4.081710051501019e-05
-253.0,45.0,0.6593027575740067,0.3003973772465124,9.529563924576212e-05,6.581603741474676e-05
-251.5,45.0,0.6591816350167894,0.3024257422463718,0.00015225245792940326,0.00010517187985038682
-250.0,45.0,0.6591018553381875,0.30376757678381644,0.00024106217889971915,0.0001665482289190931
-248.5,45.0,0.6590721823053471,0.304369034748345,0.00037823461093572136,0.0002613646109771241
-247.0,40.0,0.6591046721837704,0.3081266017768193,0.000588104662976058,0.00040645609861751327
-245.5,40.0,0.6591876573404816,0.3125820733003114,0.0009061555179766836,0.000626374656274754
-244.0,40.0,0.6592991218424706,0.316357102707063,0.0013835635649647239,0.0009565372207281131
-242.5,40.0,0.6594483822402286,0.31936443412014115,0.0020933276624347593,0.0014474720687071248
-241.0,40.0,0.6596450729348038,0.3215296128637127,0.003138415884654723,0.0021704641053371825
-239.5,35.0,0.6598989872556973,0.3258616478429448,0.004662431703738922,0.0032249476146078916
-238.0,35.0,0.6602244049175561,0.33394414876514633,0.006863360513527214,0.004748036160590478
-236.5,35.0,0.6605716902946649,0.34146374226132026,0.01001099532071912,0.006926605967533368
-235.0,35.0,0.6609427776672491,0.34830211759901364,0.01446864280966062,0.010012351183302279
-233.5,35.0,0.6613478414238303,0.3543471112360078,0.020719660153636157,0.014340194681505384
-232.0,30.0,0.6617976747091442,0.35970955539678723,0.029399248705521214,0.02035035246399788
-230.5,30.0,0.6623185121463715,0.36682780474080984,0.04133171166144171,0.028614198419677196
-229.0,30.0,0.6628675687043482,0.373297268764469,0.05757304845418776,0.03986384491065622
-227.5,30.0,0.6634207756260292,0.3790483594779987,0.07945829232247541,0.05502503175478208
-226.0,30.0,0.6639882429533732,0.3840229343487322,0.10865239007100241,0.07525249521426454
-224.5,30.0,0.6645810923380355,0.38817677002301987,0.1472026771525419,0.10196647131628993
-223.0,25.0,0.6652172299918716,0.3919414695905711,0.19759013583715052,0.13688838724511887
-221.5,25.0,0.6659051907376312,0.39526240757611214,0.26277567878361496,0.18207313784002943
-220.0,25.0,0.6665875539235042,0.3979864826324564,0.34623673765491014,0.23993467487331915
-218.5,25.0,0.6672740974690129,0.4000879312332174,0.45198854393777665,0.31326101528897554
-217.0,25.0,0.6679755872343375,0.40154957687219994,0.5845837770940885,0.4052142773711792
-215.5,20.0,0.6687037341262787,0.4038629434255477,0.7490838514220441,0.5193110695655421
-214.0,20.0,0.6694976011107667,0.4078176082360711,0.9509951536578767,0.6593785799273693
-212.5,20.0,0.6702980033013403,0.41122058355991076,1.1961641594755599,0.8294821360752468
-211.0,20.0,0.6710999163159653,0.4140375701138847,1.4906266578698275,1.0338209022242704
-209.5,20.0,0.6719130309400974,0.41624129666502396,1.840408366332032,1.2765897993147037
-208.0,15.0,0.6727481073809692,0.4181021555830989,2.25127703510956,1.561807682868237
-206.5,15.0,0.6736456524535874,0.42334452201928674,2.728449647145006,1.8931142441681146
-205.0,15.0,0.6745765842026082,0.4281861895654797,3.276262364486479,2.273540905474963
-203.5,15.0,0.6755055509733757,0.4326094946921867,3.8978152030347983,2.7052639872023123
-202.0,15.0,0.6764404444687262,0.43660043043958735,4.594607701532133,3.1893514031827377
-200.5,15.0,0.6773903115374578,0.44014886690603494,5.366185687943546,3.725516812332729
-199.0,10.0,0.6783746078929337,0.4430118141597986,6.209822202342223,4.311897219707025
-197.5,10.0,0.6794355506453549,0.4455966118700648,7.12025728232183,4.944871179915978
-196.0,10.0,0.6804945139369574,0.44802686663472857,8.08952128219466,5.618934751748082
-194.5,10.0,0.6815567206808536,0.45030043772938644,9.106864413518535,6.326650997825277
-193.0,10.0,0.6826282157353666,0.4524155375240524,10.158811145769116,7.058686034973323
-191.5,5.0,0.6837160991984866,0.45461573957581897,11.229352062270117,7.803940466307434
-190.0,5.0,0.6848810890779982,0.4570985638564345,12.300278001762454,8.549779652791067
-188.5,5.0,0.686069386404684,0.4595213357013338,13.351652304312694,9.282360037168893
-187.0,5.0,0.6872644935657288,0.4618814807342951,14.362407368243389,9.987042063708417
-185.5,5.0,0.6884683554676129,0.46417638467488814,15.311042280972405,10.648873675301324
-184.0,0.0,0.6896840061851082,0.4664250639285019,16.176389832011573,11.253122484478293
-182.5,0.0,0.6909553225657142,0.4689729062484815,16.938414542607454,11.785830056695744
-181.0,0.0,0.6922820928877144,0.47152275989380504,17.578999131609976,12.234358784807123
-179.5,0.0,0.6936231374580368,0.4740753848482394,18.08267556826911,12.58790091331106
-178.0,0.0,0.6949755814713773,0.47663152299923145,18.43725877613292,12.837920556820809
-176.5,0.0,0.6963376148440408,0.47919189789221295,18.634346099038474,12.978503018687157
-175.0,6.0,0.6977230439721858,0.4806695618844518,18.66965348194805,13.006591121580922
-173.5,6.0,0.6991967988794217,0.484139693676592,18.543169356172903,12.922095199116754
-172.0,6.0,0.7006921106946613,0.487439098390733,18.25911864598072,12.727871310794626
-170.5,6.0,0.7022020022738551,0.4905724801459418,17.825741202604213,12.429570488688357
-169.0,6.0,0.7037199393533047,0.493545007340753,17.254900361384273,12.035369737275287
-167.5,12.0,0.7052404770133768,0.4966362006878513,16.561547310675476,11.55560246417577
-166.0,12.0,0.7068473112480378,0.4997148550095212,15.763074809227318,11.002311498539552
-164.5,12.0,0.7084992019778587,0.502548809581532,14.878598961043728,10.38875148414531
-163.0,12.0,0.7101718730908269,0.5051439019804952,13.92820998094397,9.728869023551368
-161.5,12.0,0.7118547042990616,0.5075067022977963,12.932232159041414,9.036788493209178
-160.0,18.0,0.7135381074535557,0.5117903381781055,11.910529811410873,8.326329119287545
-158.5,18.0,0.7152648201393197,0.5172877031155811,10.881890353111004,7.610575019878888
-157.0,18.0,0.7170682224028696,0.5222936429197957,9.863508366089398,6.901514907186202
-155.5,18.0,0.7189005848671556,0.5267970877292817,8.870586356762637,6.209762486165192
-154.0,18.0,0.7207481239991406,0.5307912585885292,7.916059512889708,5.544362773627516
-152.5,18.0,0.7225979935453928,0.5342736796951874,7.010443825615045,4.912684044654249
-151.0,24.0,0.7244547075180107,0.5430043699571021,6.161799978402188,4.320390266081916
-149.5,24.0,0.7264017857390334,0.5472782462531174,5.375799811826477,3.771484973739725
-148.0,24.0,0.7283846135011234,0.5508837658619253,4.655878180683402,3.268414752333836
-146.5,24.0,0.7303883802529568,0.5538223294638703,4.003450695069056,2.812218833886379
-145.0,24.0,0.7323982858397694,0.5561024250322105,3.4181771032330364,2.4027107917461668
-143.5,30.0,0.7344006135133245,0.5639767747788258,2.8982507386296703,2.0386787410815104
-142.0,30.0,0.7364737432379901,0.5685763485254751,2.4406962437429383,1.7180916757711668
-140.5,30.0,0.7385935454890162,0.5724385527903368,2.0416603825931294,1.4383013573550225
-139.0,30.0,0.7407410466123843,0.5755557666326103,1.696683837503545,1.196231299301638
-137.5,30.0,0.7429000982870204,0.5779291488683762,1.40094514983191,0.9885466483832269
-136.0,36.0,0.7450555112077786,0.5832332400952946,1.1494711481011257,0.8118009728948843
-134.5,36.0,0.7472380089405523,0.5879781823852077,0.9373111063218744,0.662557982414784
-133.0,36.0,0.7494863179153995,0.5917444379349655,0.7596743490532716,0.5374879267160787
-131.5,36.0,0.7517741726604391,0.5945238893133376,0.6120329883351763,0.43343979598096233
-130.0,36.0,0.754084746162928,0.5963235498947161,0.4901929167023053,0.3474914526747701
-128.5,36.0,0.7564019808493665,0.5971648178704374,0.39033711088734135,0.27698048084502735
-127.0,42.0,0.7587254028226932,0.6071473723258177,0.30904577668516564,0.21951887806336898
-125.5,42.0,0.7611235357417574,0.6123433679164375,0.24329796212477664,0.17299479049848487
-124.0,42.0,0.7635759140156116,0.616327368976384,0.1904590689542374,0.13556436164141966
-122.5,42.0,0.7660671443548036,0.6191253831780831,0.14825828752949163,0.10563648959533435
-121.0,42.0,0.768581162086843,0.6207825762806685,0.11475944709950214,0.08185292185371475
-119.5,48.0,0.7711026518027734,0.6300388566004302,0.08832818057133832,0.06306570770704246
-118.0,48.0,0.7736838623537166,0.636089541535559,0.06759770471963494,0.04831361492338785
-116.5,48.0,0.7763251394010899,0.6407570397614495,0.05143495361666961,0.03679872721854856
-115.0,48.0,0.7790156385959719,0.6440635061673381,0.03890830123995675,0.027864090827611127
-113.5,48.0,0.7817400963845503,0.6460554936404921,0.029257683233589585,0.020972982445561273
-112.0,54.0,0.784483575677894,0.6513042563613174,0.021867582443759,0.01569013040073848
-110.5,54.0,0.7872583012154378,0.6560285869728981,0.016243075686520454,0.011665034598746677
-109.0,54.0,0.790089937632799,0.6594365336094252,0.011988942953864629,0.008617393563747055
-107.5,54.0,0.7929743531017092,0.6615562465744551,0.008791704862422926,0.0063245518924873395
-106.0,54.0,0.7958973216186193,0.6624368147900692,0.006404368437538552,0.004610820923408011
-104.5,54.0,0.7988445543041998,0.6621449932343303,0.004633614287379946,0.0033384917931718727
-103.0,60.0,0.8018118661949448,0.6714456589342059,0.003329139813447441,0.002400346355842733
-101.5,60.0,0.8048342581417701,0.6777201540480622,0.0023748747233077938,0.0017134717200146044
-100.0,60.0,0.8079084664373948,0.6826134789538143,0.0016817997813493746,0.0012141935841222483
-98.5,60.0,0.8110198538258485,0.6861451187136748,0.0011821220761651298,0.0008539583946526089
-97.0,60.0,0.8141546085994184,0.6883578556113723,0.0008245861625659559,0.0005960118881113214
-95.5,66.0,0.8172988785081303,0.6956695055028695,0.000570727528113328,0.00041273991571825775
-94.0,66.0,0.8204807784323038,0.7013496567571931,0.00039190117489312944,0.0002835553637487864
-92.5,66.0,0.8237070272999192,0.7056672293773751,0.00026694265334174626,0.00019323174255500057
-91.0,66.0,0.8269680474550044,0.7086457147182814,0.000180341102687305,0.0001305992452068039
-89.5,66.0,0.8302505542276086,0.7103302568208587,0.00012082354875541457,8.753262803481983e-05
-88.0,72.0,0.8335409463436803,0.7142292046659117,8.026690306804711e-05,5.817214133117091e-05
-86.5,72.0,0.8368438470500692,0.7206649210069761,5.2868936300688114e-05,3.8329023215253706e-05
-85.0,72.0,0.8401889409709249,0.725769072651699,3.4522162845392084e-05,2.5035888900824655e-05
-83.5,72.0,0.843570679176209,0.7295442618524527,2.2345292103494245e-05,1.6209843167794245e-05
-82.0,72.0,0.8469760723680091,0.7320147836588283,1.4335897637260323e-05,1.040245950533441e-05
-80.5,72.0,0.8503915348729085,0.7332246709155854,9.115438926387939e-06,6.616043661340773e-06
-79.0,78.0,0.8538089170024256,0.7417050279144737,5.743939162661946e-06,4.169962416762503e-06
-77.5,78.0,0.8572718048576351,0.7480002326175016,3.5866573335831377e-06,2.6043912156955373e-06
-76.0,78.0,0.8607746338491545,0.7528950872383431,2.2191589317248705e-06,1.6117282665202063e-06
-74.5,78.0,0.8643036257628763,0.7564023176596752,1.3604365651714093e-06,9.882398756209578e-07
-73.0,78.0,0.8678450343753098,0.7585565743263406,8.26293925788775e-07,6.003345967630287e-07
-71.5,84.0,0.8713846160151683,0.7643904012979362,4.972034803221672e-07,3.6129523766822553e-07
-70.0,84.0,0.8749494948300702,0.77069697264873,2.963847629589604e-07,2.1540122646917932e-07
-68.5,84.0,0.8785527309163896,0.7756314135356881,1.7501696929456527e-07,1.2721315705914598e-07
-67.0,84.0,0.8821811620254557,0.7791974869127154,1.0237384926789026e-07,7.442111859708244e-08
-65.5,84.0,0.8858208450616856,0.7814200095044894,5.931519257073986e-08,4.312453712870298e-08
-64.0,90.0,0.8894571301629949,0.7846521450313422,3.4040479195679854e-08,2.4751519885689405e-08
-62.5,90.0,0.8930883141318354,0.7915606923810912,1.9349252040538164e-08,1.4070668901540969e-08
-61.0,90.0,0.8967412044324733,0.7969939808043164,1.0893278310428145e-08,7.922284405370559e-09
-59.5,90.0,0.9004129975956923,0.8009348082970296,6.0738917805584305e-09,4.417711005644712e-09
-58.0,90.0,0.904089831208292,0.8033913795139231,3.35412007200336e-09,2.439746241320118e-09
-56.5,90.0,0.9077569765378832,0.8043962322497652,1.8343542220207323e-09,1.3343895628704756e-09
-55.0,96.0,0.9114017524115807,0.8123312677581992,9.935084663222818e-10,7.227733887205136e-10
-53.5,96.0,0.9150449453927222,0.8197083236476612,5.328870492131543e-10,3.876991391653323e-10
-52.0,96.0,0.9186903732915138,0.8254911004428984,2.830519181529302e-10,2.059458098224253e-10
-50.5,96.0,0.9223239554400606,0.8296556566428488,1.488871133944196e-10,1.0833515199050789e-10
-49.0,96.0,0.9259313248937409,0.8322064852514748,7.755351284148968e-11,5.6433575259184387e-11
-47.5,102.0,0.9294976040837263,0.8374166280515811,4.000303960160239e-11,2.911061518383929e-11
-46.0,102.0,0.9330217268043521,0.844517809125034,2.04327080082255e-11,1.486980345744912e-11
-44.5,102.0,0.9365110279816842,0.8498809673261003,1.0334631100677756e-11,7.521317064708365e-12
-43.0,102.0,0.9399685890094404,0.8534719770415405,5.1760114772860565e-12,3.767147037089153e-12
-41.5,102.0,0.9433810362914495,0.8552898807477833,2.566977921359617e-12,1.868343768634228e-12
-40.0,108.0,0.9467344995420455,0.8566594281998996,1.2605830616367217e-12,9.175345048545877e-13
-38.5,108.0,0.9500146392940529,0.8650995609488645,6.129701370371672e-13,4.461753584814512e-13
-37.0,108.0,0.953216388613126,0.871753454259715,2.951359040421795e-13,2.1483386720012146e-13
-35.5,108.0,0.9563687564593758,0.8765740711716228,1.4070718478549623e-13,1.0242608705855255e-13
-34.0,108.0,0.959459891875702,0.8795490954212761,6.642305667842841e-14,4.835328683743094e-14
-32.5,108.0,0.962477436230158,0.880700692462639,3.104751662950151e-14,2.2601961352096475e-14
-31.0,114.0,0.9654093392830954,0.8877192915433754,1.4369365103909365e-14,1.0460881534328795e-14
-29.5,114.0,0.9682204809356612,0.8955385149900402,6.584888830713082e-15,4.793911024127576e-15
-28.0,114.0,0.970961429165749,0.9014473367704138,2.987838348868914e-15,2.175248362963813e-15
-26.5,114.0,0.9736216798126875,0.9054045970524347,1.3423362262403143e-15,9.772884083173485e-16
-25.0,114.0,0.9761906698892254,0.9074068946724244,5.971164211184133e-16,4.347400207010654e-16
-23.5,120.0,0.9786576737069134,0.91171612384153,2.6299547016068403e-16,1.9148182789244822e-16
-22.0,120.0,0.9809888447703256,0.9205377327499196,1.1469044926960936e-16,8.350544387408242e-17
-20.5,120.0,0.9832062076961399,0.9273102012891454,4.9521554448689154e-17,3.6057002394628476e-17
-19.0,120.0,0.9853217571664007,0.9319789501275817,2.11713091391147e-17,1.5415246791486903e-17
-17.5,120.0,0.987327270985614,0.9345315777055865,8.961611021875299e-18,6.525231172694151e-18
-16.0,126.0,0.9892144111372151,0.9352747012581373,3.755847811975329e-18,2.7347932047952654e-18
-14.5,126.0,0.9909586524508853,0.9458482486350241,1.5585189186443974e-18,1.1348408144205565e-18
-13.0,126.0,0.9925339740856733,0.9543369751732225,6.403200767054408e-19,4.662577225306154e-19
-11.5,126.0,0.9939809327871617,0.9606546279396202,2.604725327934306e-19,1.8966911120088975e-19
-10.0,126.0,0.9952941928009401,0.9647585514184346,1.0490722849453897e-19,7.639159353937963e-20
-8.5,126.0,0.9964684211634726,0.9666510771546761,4.1833723042540703e-20,3.046294531755345e-20
-7.0,132.0,0.9974984452736627,0.9746416784357286,1.6516737139409856e-20,1.2027478858126351e-20
-5.5,132.0,0.9983237293067009,0.9843147137007036,6.456508154869143e-21,4.701676956711419e-21
-4.0,132.0,0.9989887358743794,0.9917163935450426,2.4988833171347458e-21,1.819724223548012e-21
-2.5,132.0,0.999491046668557,0.9967804288720847,9.575649622800711e-22,6.973200495766246e-22
-1.0,132.0,0.9998286973939418,0.9994892153299691,3.6329859971265626e-22,2.6456460331560114e-22
0.5,132.0,1.0,0.9998727600817829,1.3646826330887952e-22,9.938105446020174e-23
2.0,132.0,0.9999671728298185,0.9979445045698192,5.075412767368895e-23,3.696128370072568e-23
3.5,132.0,0.9997486614244143,0.9936660263705475,1.8688833918970662e-23,1.3610104354060385e-23
5.0,132.0,0.9993642491133101,0.9870385699640278,6.813400101761507e-24,4.961883225864195e-24
6.5,132.0,0.9988156545941368,0.9781123654961191,2.4593416796644993e-24,1.7910372803222104e-24
8.0,132.0,0.9981048580390702,0.9669848066528406,8.789674724299225e-25,6.401184724794684e-25
9.5,126.0,0.9972114043447472,0.9656337010435456,3.1120854833838945e-25,2.2663693781038616e-25
11.0,126.0,0.9961279861574377,0.9622693829205389,1.0964802580214e-25,7.983352335178884e-26
12.5,126.0,0.9949019106678405,0.9566871172919849,3.9908508385751526e-26,2.90036825752311e-26
14.0,126.0,0.9935384623376776,0.9489145956297813,1.9274457778407784e-26,1.3856695961289037e-26
15.5,126.0,0.992043034618387,0.9390238443897504,2.2907875959951086e-26,1.6152780418460342e-26
17.0,120.0,0.9904209778560812,0.934916133272675,5.526319292266174e-26,3.870289567923274e-26
18.5,120.0,0.9886213113187197,0.9330643409990822,1.553288620902011e-25,1.0867249297281867e-25
20.0,120.0,0.9866982920504505,0.9291016850496332,4.416054471837087e-25,3.089106733720221e-25
21.5,120.0,0.9846596958391741,0.923026455122801,1.2463842532797319e-24,8.718166569738647e-25
23.0,120.0,0.9825138005629428,0.9148792836469986,3.484584002262144e-24,2.4372679015042007e-24
24.5,114.0,0.9802686904342709,0.9076446891359122,9.647710475025034e-24,6.747696170677901e-24
26.0,114.0,0.9778979194450359,0.9062883296153336,2.6452283955474996e-23,1.8500037231797863e-23
27.5,114.0,0.975402495622538,0.9029842109878281,7.182414708053693e-23,5.022931069853785e-23
29.0,114.0,0.9728084327712205,0.8977231921375041,1.931303216520336e-22,1.3505591857150767e-22
30.5,114.0,0.9701263754771519,0.8905338996154637,5.142896437603062e-22,3.596221353985842e-22
32.0,114.0,0.9673667108694305,0.8814820281264835,1.3562735315260307e-21,9.483320430189406e-22
33.5,108.0,0.9645192391428392,0.8801335057415004,3.542208010642154e-21,2.4766274599545086e-21
35.0,108.0,0.9615572126735733,0.8777704147050575,9.16206558401967e-21,6.4054912579326244e-21
36.5,108.0,0.9585130013687871,0.8735653520729719,2.3469876936526665e-20,1.6407453329079312e-20
38.0,108.0,0.9553991246103475,0.867519023997285,5.954318534808396e-20,4.162292507263853e-20
39.5,108.0,0.9522278316768399,0.8596669802496029,1.496108702889983e-19,1.0457615075152974e-19
41.0,102.0,0.9490107617464816,0.8555063719290503,3.7231481410968707e-19,2.602241166370428e-19
42.5,102.0,0.945706842151239,0.8542740531214268,9.17656352272624e-19,6.413332072190631e-19
44.0,102.0,0.9423363829473406,0.8512756061827256,2.240160836463195e-18,1.5654814659548755e-18
45.5,102.0,0.938911562589158,0.8465010061414507,5.416450056403915e-18,3.784836722290534e-18
47.0,102.0,0.9354460773193827,0.8399733495553201,1.2971614570372856e-17,9.063348127857748e-18
48.5,96.0,0.9319530016614892,0.8327029191740705,3.076980195143039e-17,2.149710787484565e-17
50.0,96.0,0.9284351515144024,0.830684207312223,7.22960642626754e-17,5.0504390182153005e-17
51.5,96.0,0.9248609482970644,0.827059447334056,1.6825660311594456e-16,1.175287479831889e-16
53.0,96.0,0.9212502323489481,0.8218148274100443,3.8788734320996097e-16,2.709152394961731e-16
54.5,96.0,0.9176176832000363,0.8149647820551635,8.857761116238478e-16,6.185942566060327e-16
56.0,96.0,0.9139773471471578,0.8065520937830462,2.003716737370851e-15,1.3991701747903127e-15
57.5,90.0,0.9103377914327433,0.803885360968859,4.4900600907325846e-15,3.1349946310622044e-15
59.0,90.0,0.9066784627270973,0.8019174601650683,9.967384608419549e-15,6.958480001664168e-15
60.5,90.0,0.9029988724935999,0.7984735312497884,2.191964916159624e-14,1.5300770822475148e-14
62.0,90.0,0.8993141892553487,0.7935370822583228,4.775509251894974e-14,3.333066023429698e-14
63.5,90.0,0.8956389903195918,0.7871168001389255,1.0307425090641807e-13,7.193112314117688e-14
65.0,84.0,0.8919868703116899,0.7818693923653237,2.2041242787843755e-13,1.5379528534806158e-13
66.5,84.0,0.8883602063454008,0.7800858094476747,4.669696348563725e-13,3.257869504867264e-13
68.0,84.0,0.8847254201563821,0.7769713393882623,9.80210671897277e-13,6.837547107643789e-13
69.5,84.0,0.8810921555207858,0.772494506759831,2.0386386148802743e-12,1.421853101126075e-12
71.0,84.0,0.8774748200337329,0.7666443822187792,4.201101306628813e-12,2.9296038123880436e-12
72.5,78.0,0.8738869886639326,0.7589828619257379,8.578284169466679e-12,5.98101732075104e-12
74.0,78.0,0.8703437817833193,0.7572684320696117,1.7356595722341452e-11,1.2099451414002801e-11
75.5,78.0,0.8668075476581687,0.7542170653100995,3.4799112224898896e-11,2.425455878319952e-11
77.0,78.0,0.8632740162150094,0.7497872882056783,6.913915692533228e-11,4.8180459369005396e-11
78.5,78.0,0.8597572336285365,0.7439588564880439,1.361272930372894e-10,9.484430428222969e-11
80.0,78.0,0.8562706346397109,0.7367345312749876,2.6561007797788836e-10,1.8502368505109425e-10
81.5,72.0,0.8528235882199485,0.7325554555647571,5.136119808838207e-10,3.5771091701002804e-10
83.0,72.0,0.8494021746319913,0.7305109405948853,9.843058100969435e-10,6.853918240038709e-10
84.5,72.0,0.8459811668698657,0.7271743630771182,1.8695723430087196e-09,1.301549037247579e-09
86.0,72.0,0.8425744277433389,0.7225145898048558,3.5195307629473816e-09,2.4496836813883424e-09
87.5,72.0,0.8391954545870799,0.7165216256900863,6.567050296482404e-09,4.569831611061212e-09
89.0,66.0,0.8358570496727893,0.7106147768685298,1.2145395548058524e-08,8.449748870212575e-09
90.5,66.0,0.832561597478911,0.7093482021343598,2.2264921950423548e-08,1.5486501664388604e-08
92.0,66.0,0.8292749615317804,0.7068070353005034,4.045862131469308e-08,2.8134617835972087e-08
93.5,66.0,0.8260007086977189,0.7029395590063228,7.287746708159182e-08,5.0666261651352196e-08
95.0,66.0,0.8227523371562894,0.6977147730484365,1.3013056317653344e-07,9.044789970889103e-08
96.5,60.0,0.8195429222860832,0.6888127050098176,2.303458437337282e-07,1.6006307805846866e-07
98.0,60.0,0.8163835671683584,0.6870265159691455,4.0421018422772594e-07,2.8080688774093383e-07
99.5,60.0,0.8132496777945651,0.6839403300427012,7.031860450913677e-07,4.883809132090792e-07
101.0,60.0,0.8101297632052077,0.6795042720150843,1.2127721106295525e-06,8.420810488189305e-07
102.5,60.0,0.8070375952320287,0.6736907901491224,2.0736882671528404e-06,1.4394707489563734e-06
104.0,60.0,0.8039868001133909,0.6664972284396677,3.5153767816744354e-06,2.439576692960913e-06
105.5,54.0,0.8009792981473722,0.6624660715438082,5.9084386444539885e-06,4.09918201617134e-06
107.0,54.0,0.7980181567694404,0.6619844843882203,9.845862974961542e-06,6.82902822658398e-06
108.5,54.0,0.7950713217602386,0.6602842197131009,1.6267555149760944e-05,1.1279943933154818e-05
110.0,54.0,0.7921529857380902,0.6573099060027949,2.664924715901558e-05,1.847345506824002e-05
111.5,54.0,0.7892775061514148,0.6530260928296652,4.3286051004681156e-05,2.9997757384157727e-05
113.0,48.0,0.7864590842921793,0.6464385011996039,6.971353118968492e-05,4.829862330054061e-05
114.5,48.0,0.7836976080988056,0.6448706187215443,0.00011132624649941917,7.710657187128651e-05
116.0,48.0,0.780961524948107,0.6420085930530255,0.00017627644691090363,0.00012205727635524437
117.5,48.0,0.7782494803030823,0.6377985030979847,0.000276765368495833,0.00019158264842480586
119.0,48.0,0.7755765248001448,0.6322097166177589,0.0004308778062349825,0.00029817631640474706
120.5,42.0,0.7729579149740786,0.6210916184957608,0.0006651588131773058,0.0004601702936403541
122.0,42.0,0.7704080335570106,0.6198018172646973,0.0010181907518969568,0.0007042003748072667
123.5,42.0,0.7678936995339509,0.6173899510676275,0.0015455003741422825,0.0010685867755741425
125.0,42.0,0.7653914572336991,0.6138051765278912,0.0023262092532854227,0.0016079138050807597
126.5,42.0,0.7629167989058431,0.6090147690730734,0.003471935722790852,0.0023991571987935804
128.0,42.0,0.7604858646537197,0.6030069987004449,0.005138559833127572,0.0035497782832080932
129.5,36.0,0.7581114469034002,0.5967090121574816,0.007541569910639614,0.005208277040749304
131.0,36.0,0.7557993288217277,0.5952318706740384,0.010975812546201034,0.007577766170435066
132.5,36.0,0.7534832043704099,0.5927805271311178,0.015840556502585798,0.010933187967831704
134.0,36.0,0.7511783760880097,0.5893430599946177,0.02267084077514713,0.01564283540115395
135.5,36.0,0.7489011494433716,0.5849224993519679,0.03217608985175195,0.02219484575120722
137.0,30.0,0.7466684949321719,0.5785564161845415,0.04528692364688135,0.031229294899711303
138.5,30.0,0.7445039428933187,0.5764292354249474,0.06321094150288706,0.04357641628638649
140.0,30.0,0.7423480197758786,0.573560522893204,0.08749799359813187,0.06030128334877839
141.5,30.0,0.7401932417578708,0.5699462378563036,0.12011504430574725,0.08275501109732762
143.0,30.0,0.7380551725096186,0.5655910630561843,0.1635301591334217,0.11263213696890292
144.5,24.0,0.7359502276808184,0.556718557544739,0.22080439519371836,0.15203332356393823
146.0,24.0,0.7339128091540704,0.5546549099102694,0.29568944056132074,0.20353188393057708
147.5,24.0,0.7319092586495921,0.5519371158675048,0.39272774069046773,0.2702418713500062
149.0,24.0,0.7299023398686548,0.5485544289368304,0.5173505988435915,0.35588462029957146
150.5,24.0,0.7279061442936754,0.544503041285952,0.6759683920994161,0.46484970826370764
152.0,24.0,0.7259357600368948,0.5397864616021701,0.8760456780934562,0.6022453800554952
153.5,18.0,0.7240125310844028,0.5320089261513337,1.126152676803882,0.7739326039891907
155.0,18.0,0.7221690206623542,0.5281852743997127,1.4359835146049398,0.9865361938298232
156.5,18.0,0.72031946761714,0.5238510475652373,1.8163308498194881,1.2474259245764066
158.0,18.0,0.7184759005544924,0.5190115866522365,2.2790062056263496,1.5646603929388916
159.5,18.0,0.7166514489658716,0.5136765387710185,2.8366956635317147,1.9468866238158298
161.0,12.0,0.7148601026075845,0.5082439059131697,3.5027416536184517,2.4031891928416234
162.5,12.0,0.713159585250978,0.5059569694083745,4.290843526716019,2.942883995301835
164.0,12.0,0.7114770974191872,0.5034400699223118,5.214672479783292,3.575253789304255
165.5,12.0,0.7097979906729079,0.5006864237060961,6.287400247259404,4.309225285092569
167.0,12.0,0.7081322622434871,0.4976899336911125,7.521145719785032,5.152990806353383
168.5,6.0,0.706490882373349,0.4945010543554238,8.926349182569421,6.113581324442032
170.0,6.0,0.7049161070415476,0.4915809282243673,10.51108997002897,7.196401817034859
171.5,6.0,0.703396434504221,0.4885017595173322,12.280369716553391,8.404744225502018
173.0,6.0,0.701881202992282,0.4852582430617482,14.235389668957437,9.739297522496166
174.5,6.0,0.7003762464842134,0.4818455109928787,16.372856267365567,11.197678248658463
176.0,6.0,0.6988884537679967,0.47825921345942524,18.684353899687324,12.774007997768361
177.5,0.0,0.6974351300028921,0.4774844753505002,21.155826868757895,14.458566372036584
179.0,0.0,0.6960687172167973,0.47492700443289015,23.76721367171961,16.237548553201385
180.5,0.0,0.6947111840216191,0.4723732899443328,26.492275225820958,18.092955540379258
182.0,0.0,0.6933635415844834,0.4698225960831539,29.298654336386047,20.00264206482603
183.5,0.0,0.6920278863705421,0.46727416887152573,32.148196300271174,21.940542084091575
185.0,5.0,0.6907073668536675,0.46492640060271645,34.997550084706965,23.87708460099974
186.5,5.0,0.6894684797417359,0.4626538274322528,37.79905627318429,25.779803527880052
188.0,5.0,0.6882565119666497,0.46031513779389893,40.501912450113885,27.614134784171128
189.5,5.0,0.6870551614254135,0.45791295297101176,43.053589696686885,29.344382316534155
191.0,5.0,0.6858618031644016,0.45544986371054874,45.40145642852744,30.934822968307934
192.5,10.0,0.6846749153148398,0.4530851000375661,47.4945491482453,32.35090892839539
194.0,10.0,0.6835361050803564,0.4510231565281816,49.28541514578024,33.560516756054405
195.5,10.0,0.6824572197784596,0.4488022287539605,50.731941086175965,34.53518460016812
197.0,10.0,0.6813924315891393,0.4464239809272317,51.79907497865222,35.251275012373355
198.5,10.0,0.680335005338442,0.44389043893725827,52.46034816355997,35.691000318902496
200.0,10.0,0.6792792973072989,0.44120396464481637,52.69910924667822,35.843251234998704
201.5,15.0,0.6782332524148049,0.43783279482084836,52.50939344222175,35.70417732778553
203.0,15.0,0.6772703663578008,0.43398842928305176,51.89636812025207,35.27747975391338
204.5,15.0,0.676329106941443,0.42970787877415667,50.876317527579644,34.574391758448485
206.0,15.0,0.6753996789725031,0.4250038777776041,49.47615522899261,33.61333974647608
207.5,15.0,0.6744733256413311,0.4198929011134075,47.73248000152243,32.419296112426395
209.0,20.0,0.6735424944800465,0.41683601192746966,45.69021770579735,31.02285308128609
210.5,20.0,0.6726795293769895,0.41484141048709655,43.400916030496944,29.459063215531042
212.0,20.0,0.6718532090684376,0.4122261903566561,40.92077910427885,27.76610572446689
213.5,20.0,0.6710448439989534,0.40901505867596,38.308543289365566,25.98384726933635
215.0,20.0,0.6702440290573036,0.4052400910792533,35.62330299973367,24.152370912767992
216.5,25.0,0.6694415001441915,0.40189295910112405,32.92239569490349,22.310546934139325
218.0,25.0,0.6686686327258813,0.40064682349850494,30.259448468428836,20.4947145548622
219.5,25.0,0.6679518440004423,0.3987571781777874,27.682675632015,18.737534707586047
221.0,25.0,0.6672574462089877,0.3962381910125945,25.233498622456597,17.06706168005223
222.5,25.0,0.6665740625183898,0.39311284861232826,22.94553799650965,15.506066832693115
224.0,25.0,0.6658913435963658,0.38941215593536266,20.84400396604582,14.071631807014413
225.5,30.0,0.6652109801782208,0.38550048351482,18.945488599938663,12.775012884944825
227.0,30.0,0.6646006470840782,0.3807953215051936,17.25814106285387,11.621763496319677
228.5,30.0,0.6640235858575824,0.37529725114312185,15.78218837988544,10.612089181411605
230.0,30.0,0.6634680389704993,0.36906002127344656,14.510749158137163,9.741399233439996
231.5,30.0,0.6629230966126591,0.3621497120845457,13.430877019879944,9.001012142227825
233.0,35.0,0.662378934622546,0.35616804430555443,12.524764384780127,8.378967946453383
234.5,35.0,0.6618913142319146,0.35041051706498266,11.771035524459581,7.86089956338696
236.0,35.0,0.6614589018013233,0.34382461340490106,11.146060079692072,7.430916807457271
237.5,35.0,0.6610670145875692,0.33651913065813044,10.625223871928435,7.072460713730814
239.0,35.0,0.6607050074281614,0.3286109755993731,10.1841021430393,6.769091459999053
240.5,40.0,0.6603629494108689,0.32205377330044216,9.799490568454608,6.505180118434306
242.0,40.0,0.6600560663692514,0.32018294618298787,9.450260772129099,6.266482163815679
243.5,40.0,0.6598194564370562,0.31744883444661115,9.11801894002332,6.040578655956104
245.0,40.0,0.6596360957009088,0.3139205381863054,8.7875578656033,5.817178885459342
246.5,40.0,0.6594963350710442,0.30968160302140285,8.447103829350933,5.588285666961802
248.0,40.0,0.6593907733358063,0.3048250197482213,8.088369659983472,5.348231083042977
249.5,45.0,0.6593153127116249,0.3040526127863745,7.706433777105831,5.093596083373436
251.0,45.0,0.6593111417494297,0.30295221312919496,7.29947168860645,4.823031744525063
252.5,45.0,0.6593624497161158,0.301145980339133,6.868371117848074,4.53700307467169
254.0,45.0,0.6594605581561271,0.2986952283502066,6.4162645706108155,4.237477947900089
255.5,45.0,0.6595966724274142,0.29566947441299607,5.948013729896891,3.9275840877935435
257.0,50.0,0.6597621073596085,0.294525904764774,5.469678706443319,3.611256072773751
258.5,50.0,0.6599775825562295,0.2943717137571459,4.9880020975143005,3.292892258102496
260.0,50.0,0.6602474996010624,0.29344456339232927,4.509933333138962,2.9770385136811086
261.5,50.0,0.6605610725639952,0.29178698983846146,4.04221330723464,2.6681120220541192
263.0,50.0,0.6609101498432765,0.2894556947689089,3.591033235361257,2.3701743549022583
264.5,55.0,0.6612864228400723,0.2874102287443712,3.1617754964483566,2.0867589427394355
266.0,55.0,0.6616903534440157,0.28744575534522593,2.7588383237027845,1.8207541488035432
267.5,55.0,0.662141905078755,0.2867757960279354,2.385540974079146,1.5743396935617602
269.0,55.0,0.6626321464134821,0.285438037855822,2.0441017069382683,1.3489713349777541
270.5,55.0,0.6631537347575011,0.28348204587667303,1.7356777212159353,1.1454066095561948
272.0,55.0,0.6636989360352867,0.28096633263396803,1.4604542102960565,0.963763127709049
273.5,60.0,0.6642621112784263,0.281267465830758,1.2177688664905197,0.8036003744899911
275.0,60.0,0.6648665237872269,0.28124605031007965,1.0062583863385415,0.664016115710845
276.5,60.0,0.6655063940820387,0.28058252954114327,0.8240146110006513,0.5437492286161001
278.0,60.0,0.6661748388591912,0.27930900469013475,0.6687396586543718,0.4412819172892239
279.5,60.0,0.6668643776444688,0.2774678974110072,0.5378915285099896,0.3549356775004361
281.0,65.0,0.6675671527021918,0.276277786437998,0.4288139478564087,0.2829568912176194
282.5,65.0,0.668295773969733,0.27534203343036656,0.3388464911905579,0.22358942335224274
284.0,65.0,0.6690593096884028,0.2737763532957428,0.26541306186881836,0.17513295556288777
285.5,65.0,0.66984952866373,0.27161359469699725,0.20608857778976855,0.1359869489028694
287.0,65.0,0.6706591247123487,0.2688971593853134,0.15864507826973157,0.10468103590823041
288.5,70.0,0.6714802447149596,0.2664047778688491,0.12107944923194566,0.07989329009563353
290.0,70.0,0.6723113206164147,0.26570401908832303,0.09162556494054724,0.060458217979257656
291.5,70.0,0.673169464606217,0.2644272352291578,0.06875391099835984,0.045366494879818184
293.0,70.0,0.6740519127031918,0.2625981627126338,0.051161746523809296,0.03375846151634671
294.5,70.0,0.6749515299061586,0.26025021718554386,0.03775665216768887,0.02491325911109997
296.0,70.0,0.675860483348059,0.2574248285240174,0.027635963231870498,0.018235251602785215
297.5,75.0,0.6767710155138071,0.2574389009471382,0.02006416537790446,0.013239105330512532
299.0,75.0,0.6776931447353217,0.2572141188225927,0.014449885660312531,0.00953460314550724
300.5,75.0,0.6786334421846496,0.2563896867456867,0.010323683098853582,0.0068119872085916425
302.0,75.0,0.6795850085380903,0.25498481613309515,0.007317457607099742,0.0048283704843641775
303.5,75.0,0.680540143777843,0.25302996307703424,0.0051459694899344995,0.0033955414864667564
305.0,80.0,0.6814905998315652,0.25411017359642096,0.0035907002268665104,0.0023693143293842377
306.5,80.0,0.682423134497153,0.25734067900790847,0.002486088060355507,0.0016404460646287596
308.0,80.0,0.6833564281342172,0.2599486100044289,0.0017080333106835191,0.0011270518623740728
309.5,80.0,0.6842832948221217,0.26191991696653316,0.0011644797756375606,0.0007683901913496089
311.0,80.0,0.685196595969228,0.26325438890630387,0.0007878302685484936,0.000519858299724986
312.5,85.0,0.6860886627834544,0.26369818061481337,0.0005289365555020381,0.0003490265771535637
314.0,85.0,0.6869418872674506,0.26259528869176413,0.0003524077845263357,0.00023254291965941256
315.5,85.0,0.6877626038623884,0.26082051713144666,0.00023299939969977104,0.00015375003936905695
317.0,85.0,0.6885592828747369,0.25838816404770826,0.00015287046184851136,0.00010087577591268054
318.5,85.0,0.6893258089105934,0.25532738561152457,9.952671298028815e-05,6.56758795457548e-05
320.0,85.0,0.6900555843414607,0.2516807324523276,6.429642913391067e-05,4.2428340351406734e-05
321.5,90.0,0.6907370079721588,0.25105348418216866,4.121403855143661e-05,2.7196769686263016e-05
323.0,90.0,0.6913503049455944,0.2502106118463279,2.621145703388374e-05,1.729681982742647e-05
324.5,90.0,0.6919285244905761,0.24872580600688438,1.6538581469625084e-05,1.0913807100041394e-05
326.0,90.0,0.6924668502054742,0.2466189262394174,1.0352307673616976e-05,6.831531243883757e-06
327.5,90.0,0.6929599807628974,0.2439235474587063,6.428006719651223e-06,4.241896042857095e-06
329.0,95.0,0.6934023220080563,0.24219344367682955,3.95897042508788e-06,2.612574561503831e-06
330.5,95.0,0.6937432276382287,0.24104661747245998,2.4183551548488326e-06,1.5959128470994312e-06
332.0,95.0,0.69403504929589,0.23925608317039257,1.465054800330256e-06,9.668197656590376e-07
333.5,95.0,0.6942745505554799,0.23683419573165804,8.801305009635496e-07,5.808194931932087e-07
335.0,95.0,0.6944579404049319,0.2338083923813658,5.24279496889778e-07,3.459866499552583e-07
336.5,100.0,0.6945811424384826,0.2309204277174221,3.09645334508661e-07,2.043446423425131e-07
338.0,100.0,0.69460988361362,0.22991453398195,1.813074771978386e-07,1.1965106421388022e-07
339.5,100.0,0.6945542340107083,0.22829053234472046,1.0523996174096767e-07,6.945180804925382e-08
341.0,100.0,0.6944333699337325,0.22605677768484086,6.055145633150295e-08,3.996035886764257e-08
342.5,100.0,0.6942452681837394,0.22323631516168704,3.4531357837112376e-08,2.278873637539679e-08
344.0,100.0,0.6939876686748899,0.21986584677138746,1.9517099811536666e-08,1.2880228410883798e-08
345.5,105.0,0.6936474298155698,0.21950492197825255,1.0931964409301446e-08,7.214530567904311e-09
347.0,105.0,0.6931813370862241,0.219013866483407,6.067818425358974e-09,4.004459723718122e-09
348.5,105.0,0.6926325983261659,0.2179244010807971,3.337259613334442e-09,2.2024331360673006e-09
350.0,105.0,0.6920011877206769,0.21624357402083133,1.8186267042743765e-09,1.2002109791190718e-09
351.5,105.0,0.6912869536092743,0.21399301172047364,9.819014565501924e-10,6.480121324733832e-10
353.0,110.0,0.6904896610705579,0.2140311020135223,5.252174298052395e-10,3.466214851285579e-10
354.5,110.0,0.6895372743275388,0.21582567715255907,2.783138612711192e-10,1.8367591836634825e-10
356.0,110.0,0.6884750685442846,0.21702061902536568,1.460945662472813e-10,9.641673147495883e-11
357.5,110.0,0.6873070020005012,0.2175985805088824,7.596564834260347e-11,5.013447557875306e-11
359.0,110.0,0.6860353422327373,0.21755801569156819,3.912606556357771e-11,2.582178286088237e-11
360.5,110.0,0.684662421239494,0.22084647999748383,1.9960155776373945e-11,1.3173001107528446e-11
362.0,110.0,0.6831466821158684,0.22137570578273033,1.0085438700262358e-11,6.656045661797185e-12
363.5,110.0,0.6814884216688455,0.22128065049992884,5.0471271465212714e-12,3.330936747559781e-12
365.0,110.0,0.6797146883573878,0.22055004349094198,2.501490411409122e-12,1.6509030629958212e-12
366.5,110.0,0.6778303381329994,0.21918908847223398,1.2278524435532805e-12,8.103440596059925e-13
368.0,110.0,0.6758403855761886,0.21721938740987898,5.968632182264938e-13,3.9391143597282855e-13
369.5,105.0,0.673731133025765,0.21370814590694354,2.8732553296563807e-13,1.8962624820655533e-13
371.0,105.0,0.6714518316855878,0.21035163979665095,1.3697291633056344e-13,9.039811092144122e-14
372.5,105.0,0.6690690995296859,0.2063904004400129,6.466173526054837e-14,4.2674888364260473e-14
374.0,105.0,0.6665903695289679,0.2018551046979565,3.022762327805163e-14,1.9949379573629318e-14
375.5,105.0,0.6640231982710427,0.19679098941578815,1.399255869003073e-14,9.234701337620977e-15
377.0,100.0,0.6613750763038433,0.19030100934288613,6.413866032628246e-15,4.232976905695383e-15
378.5,100.0,0.6585694309539369,0.1871604920039548,2.9111590947536525e-15,1.9212869246511317e-15
380.0,100.0,0.6556708692893632,0.18348476625326898,1.3083668535969797e-15,8.63487528518113e-16
381.5,100.0,0.6526924608555038,0.1792993726860158,5.82244481729507e-16,3.842661646280234e-16
383.0,100.0,0.649643924276592,0.17464280328914134,2.56559826359357e-16,1.693228720568034e-16
384.5,95.0,0.6465348287233145,0.16737821579062356,1.1193732675270298e-16,7.387578275016928e-17
386.0,95.0,0.64333152053991,0.1633846044800345,4.8357092186215807e-17,3.191446122018392e-17
387.5,95.0,0.64003137870291,0.15894861975096738,2.0684294175940507e-17,1.365111748223926e-17
389.0,95.0,0.6366659266165711,0.15410015698868673,8.760182443221407e-18,5.7815034934865845e-18
390.5,95.0,0.6332464806903279,0.14887889565586793,3.673452904024903e-18,2.424388575566813e-18
392.0,95.0,0.6297841724151382,0.14333265684502144,1.5251836493887374e-18,1.0065836236318926e-18
393.5,90.0,0.626274882224216,0.13419121447892884,6.269825219752689e-19,4.1379209710412715e-19
395.0,90.0,0.6226697276889156,0.12928150942625807,2.5520245974903823e-19,1.6842411517130414e-19
396.5,90.0,0.6190155154471,0.12403801030372605,1.0287200851671884e-19,6.788364811388854e-20
398.0,90.0,0.6153247366940541,0.1184978063714576,4.1125020302710376e-20,2.7115490664652296e-20
399.5,90.0,0.6116096805199113,0.11270446689977717,1.6463923788007914e-20,1.0794492366903405e-20
401.0,85.0,0.6078821094836034,0.09855084521585056,7.029905609167744e-21,4.446275176579961e-21
402.5,85.0,0.6040922370968472,0.09340200909364994,4.306953506135012e-21,2.323701710349983e-21
404.0,85.0,0.6002715932039359,0.0880046943200193,5.8621192687428604e-21,2.4902912896929212e-21
405.5,85.0,0.5964311111409321,0.08239701981688638,1.3303682946585494e-20,5.1531321737159446e-21
407.0,85.0,0.5925838768345526,0.07662168710619766,3.3858061901820656e-20,1.289751105273171e-20
408.5,80.0,0.588742431162382,0.06311092649324318,8.70265669773992e-20,3.3067861545130577e-20
410.0,80.0,0.5849106099085096,0.05932476488004042,2.2211769879497688e-19,8.436751016164991e-20
411.5,80.0,0.5810676605463003,0.05538393303983314,5.615341041238944e-19,2.132752814497438e-19
413.0,80.0,0.5772217221720515,0.051314125673755255,1.4056431527990032e-18,5.338645640589557e-19
414.5,80.0,0.5733861796650618,0.047143800627568275,3.48383895550387e-18,1.3231478538900905e-18
416.0,80.0,0.5695738617996047,0.042903171151772355,8.549141734043802e-18,3.246888473379007e-18
417.5,75.0,0.5657979681926061,0.030417413102507514,2.0771537811395995e-17,7.888745681750661e-18
419.0,75.0,0.5620541382095269,0.027082820895142655,4.99685952417465e-17,1.897713906141841e-17
420.5,75.0,0.5583210374499195,0.023687873431636124,1.1901693255334804e-16,4.5199796080874976e-17
422.0,75.0,0.554611932452943,0.02025508655463136,2.8067536978109416e-16,1.0659233281057378e-16
423.5,75.0,0.5509395627075321,0.01680747266953876,6.553671238974866e-16,2.48885768653975e-16
425.0,70.0,0.5473158080385478,0.012602854890260605,1.5151328048250907e-15,5.753864917029392e-16
426.5,70.0,0.5437540763615084,0.01115377910474262,3.4681941797642865e-15,1.3170604267092333e-15
428.0,70.0,0.5402257422551371,0.00969093274396568,7.860384015648135e-15,2.9849645088644484e-15
429.5,70.0,0.5367262650485426,0.008223730180543704,1.7638954133406533e-14,6.698246351952156e-15
431.0,70.0,0.5332678359444202,0.006761457282559891,3.9191484510414506e-14,1.488238824177811e-14
432.5,65.0,0.5298619089834146,0.004277951265845931,8.621872145478665e-14,3.2739712773578167e-14
434.0,65.0,0.5265332855571392,0.005021791347585028,1.8780348550341686e-13,7.131305354278891e-14
435.5,65.0,0.5232550793708518,0.005804086286450766,4.0504120924147904e-13,1.538000252453256e-13
437.0,65.0,0.5200027120236742,0.006622639151952374,8.649472444296449e-13,3.284266005083555e-13
438.5,65.0,0.5167876135192178,0.0074738736163996455,1.8288424552738676e-12,6.944103636326335e-13
440.0,65.0,0.5136206556408736,0.008352838821967655,3.828782804059731e-12,1.4537558996515269e-12
441.5,60.0,0.5105184199803248,0.010289698692411801,7.936782785679834e-12,3.0134623210205885e-12
443.0,60.0,0.5074809472635513,0.011983183836557249,1.6290305652282656e-11,6.185013457221785e-12
444.5,60.0,0.5044604997955159,0.013717678799108242,3.310675947191489e-11,1.2569495586857995e-11
446.0,60.0,0.5014678100327886,0.015485685153908524,6.662061378443301e-11,2.5292931195122578e-11
447.5,60.0,0.4985132567688533,0.017278203330964616,1.327415861835693e-10,5.039488627279765e-11
449.0,55.0,0.49560661173471554,0.021094974284663982,2.618869078961237e-10,9.94218280849633e-11
450.5,55.0,0.4927628656797837,0.0203518183826832,5.116006357751516e-10,1.9421691733176144e-10
452.0,55.0,0.4899427314170033,0.01960994660695707,9.896031213940074e-10,3.756683220146144e-10
453.5,55.0,0.48714351088685354,0.018873937331247606,1.895422474481839e-09,7.195095647155979e-10
455.0,55.0,0.4843751310974328,0.018147446421288987,3.5947474704867006e-09,1.3645373430500598e-09
456.5,50.0,0.48164713071315457,0.022128622962788225,6.750728695533744e-09,2.562439539760334e-09
458.0,50.0,0.47897703907478467,0.020945753483849264,1.2553229262438673e-08,4.764790194551424e-09
459.5,50.0,0.4763388606813462,0.019746626891433028,2.3114556049160594e-08,8.773211846197948e-09
461.0,50.0,0.4737213619868104,0.01854085605086088,4.2144782688369476e-08,1.5995616303396405e-08
462.5,50.0,0.4711342369934278,0.017337723484292536,7.609099304043279e-08,2.8878447588973642e-08
464.0,50.0,0.4685869700135318,0.01614572133088707,1.360369834969963e-07,5.1627407885447894e-08
465.5,45.0,0.4660884927325365,0.01308650305969801,2.4083428697886595e-07,9.139525591375548e-08
467.0,45.0,0.463632742136551,0.009920230959533718,4.2220233965939744e-07,1.6021649434602463e-07
468.5,45.0,0.4612003074569838,0.006671473088174201,7.329384567683506e-07,2.7812149934176137e-07
470.0,45.0,0.4588009233882926,0.0033614548875666866,1.2599770773033076e-06,4.780896463582942e-07
471.5,45.0,0.45644428462862086,1.3766809670162639e-05,2.144914066794835e-06,8.138331558628966e-07
473.0,40.0,0.4541398294009451,-0.0011212825566104118,3.6158739444931484e-06,1.3718816979734991e-06
474.5,40.0,0.4518857221411562,-0.003989608676138109,6.036385502397028e-06,2.2901151694065417e-06
476.0,40.0,0.44966628340345516,-0.0069020877383776935,9.979419623624697e-06,3.7858347923142605e-06
477.5,40.0,0.44747827759914566,-0.009839638226023323,1.633814427452436e-05,6.197750999196694e-06
479.0,40.0,0.4453316082076464,-0.012781819868914662,2.6489511656443607e-05,1.0047993451051607e-05
480.5,35.0,0.4432361350325175,-0.017328361563373654,4.253278146365069e-05,1.6132515989778656e-05
482.0,35.0,0.4412010272249559,-0.023643412887815907,6.763277648919645e-05,2.5651180825329037e-05
483.5,35.0,0.4392028966544499,-0.03002723750385186,0.00010650730794630668,4.039245414395355e-05
485.0,35.0,0.4372267479070067,-0.03643615853545862,0.00016610996453656678,6.299209186283557e-05
486.5,35.0,0.43528248257985824,-0.04282389926717267,0.0002565733500918456,9.729044535376213e-05
488.0,35.0,0.4333802349505168,-0.049143111733974607,0.0003924936601179119,0.00014881898809917314
489.5,30.0,0.4315310293372478,-0.054103563941654,0.0005946546413432745,0.0002254531392501156
491.0,30.0,0.42973092409163277,-0.05745481447016182,0.0008923064443906298,0.0003382750447506321
492.5,30.0,0.42794166153389035,-0.06078815679005681,0.001326131026778633,0.0005026960515486165
494.0,30.0,0.426172848979625,-0.06409207885119655,0.001952038253900374,0.0007398932886416617
495.5,30.0,0.42443454267668,-0.06735448289287706,0.0028459425615315697,0.0010786168688219847
497.0,25.0,0.42273703960666686,-0.05629258437669324,0.004109665081099324,0.0015574222692243962
498.5,25.0,0.42108827515377945,-0.05751382299861685,0.005878085895637436,0.0022273747004386336
500.0,25.0,0.4194597896227762,-0.05876712080136412,0.008327630542802299,0.003155256826960104
501.5,25.0,0.41784369489505213,-0.06005942373103196,0.011686108912884918,0.004427286134126131
503.0,25.0,0.41624946337770846,-0.06139627002354675,0.016243828745208466,0.0061533118348343855
504.5,20.0,0.4146869369911181,-0.04777500042200308,0.022365776763275853,0.008471412262796024
506.0,20.0,0.4131737088416,-0.04936914950675117,0.03050449711641793,0.011552751854098953
507.5,20.0,0.4116896673647828,-0.051024886680100384,0.04121310149946816,0.015606482965917441
509.0,20.0,0.4102133831740708,-0.05274913867121642,0.05515762467686766,0.02088439443613852
510.5,20.0,0.40875334542882186,-0.05454726709156732,0.07312770485986313,0.027684920411608513
512.0,20.0,0.4073185125739623,-0.05642255348558678,0.09604433785122853,0.03635603616420226
513.5,15.0,0.40592004932613385,-0.047062482361084707,0.12496325011015443,0.047296491101307146
515.0,15.0,0.40457530865333213,-0.0504416903087789,0.16107228686847025,0.060954773542828924
516.5,15.0,0.40323522126216554,-0.05406383119421346,0.20568114849318148,0.07782517891984536
518.0,15.0,0.4019070265036862,-0.05793631468651514,0.2602018636860499,0.0984403750053896
519.5,15.0,0.4005985035691714,-0.06206143089045968,0.32611859164135326,0.12335993581678535
521.0,10.0,0.3993178303568776,-0.044710979154825914,0.40494572027082854,0.15315445865185873
522.5,10.0,0.3980883562045748,-0.04532797374533035,0.4981737864953053,0.18838509091768504
524.0,10.0,0.3968815122187556,-0.046094830269518244,0.6072034846746983,0.22957857380494417
525.5,10.0,0.39568356654294823,-0.04704302503985988,0.7332689290172489,0.2771982501758946
527.0,10.0,0.39450047409472816,-0.04820460573874272,0.8773523527563776,0.3316118680488511
528.5,5.0,0.39333866507302184,-0.026175727622710726,1.0400934971229494,0.3930574145085288
530.0,5.0,0.39221820397471524,-0.028808100055913333,1.2216979835128279,0.4616086062482771
531.5,5.0,0.3911330750476842,-0.03178516182240454,1.4218498751159183,0.5371420053563631
533.0,5.0,0.39005494495503773,-0.03513947472687587,1.6396343149771333,0.6193079829312662
534.5,5.0,0.38898738118707143,-0.03889968660532045,1.873476474060164,0.7075078803130136
536.0,5.0,0.38793449110128925,-0.04308898085619556,2.1211029673849295,0.8008796851790141
537.5,0.0,0.3869042014736561,-0.00907036032065428,2.3795313362726263,0.8982943242453653
539.0,0.0,0.38592129586815016,-0.015368377097609659,2.6450921239243597,0.9983642663441107
540.5,0.0,0.3849471022995594,-0.021776235313203718,2.9134865081672596,1.0994655365175696
542.0,0.0,0.38398247902922455,-0.028298375756247413,3.179880466266,1.1997734892099632
543.5,0.0,0.38302884680079125,-0.034939230529178356,3.4390341476914337,1.297311820582507
545.0,4.0,0.38208816936697465,-0.041736643483094776,3.685462679707974,1.3900133763164084
546.5,4.0,0.38119151105661025,-0.04870562926239136,3.913622216941654,1.4757904035363298
548.0,4.0,0.38031448343413377,-0.05581809838886814,4.118112874445084,1.5526110808316096
549.5,4.0,0.37944656444214075,-0.0630778364010007,4.293888455068527,1.6185785142740803
551.0,4.0,0.3785865178842645,-0.07048781797839815,4.436461772704005,1.672007975957344
552.5,8.0,0.37773368443959904,-0.07828303816883792,4.542094015827738,1.7114980343389488
554.0,8.0,0.37690693105772194,-0.08764447392969127,4.607957063292994,1.7359914092359436
555.5,8.0,0.37611257761591743,-0.09728796003463938,4.632258958312608,1.7448218786784242
557.0,8.0,0.37532930512535617,-0.10718131948982132,4.614324794366223,1.7377443419247958
558.5,8.0,0.3745535299579929,-0.11728633353742535,4.554627925430848,1.714946148375635
560.0,8.0,0.3737822405062618,-0.12755965169899894,4.454769481058472,1.677038959628517
561.5,12.0,0.3730174607608553,-0.14356790815899675,4.317407402925652,1.6250316303538173
563.0,12.0,0.37229217199565834,-0.16089755992647,4.146139364991917,1.5602857757064243
564.5,12.0,0.37158120537131156,-0.17798976420212712,3.9453467437334075,1.4844567445195218
566.0,12.0,0.37087931027275534,-0.1946003238431967,3.720009049707201,1.3994235567901954
567.5,12.0,0.37018178279522956,-0.21053273485037216,3.4754997515375083,1.307211929279162
569.0,16.0,0.369484560239733,-0.22568725630363223,3.2173751206744536,1.2099147683240399
570.5,16.0,0.3688174028866193,-0.2404446069286802,2.951167577530259,1.1096144464336575
572.0,16.0,0.36817169640182495,-0.2547219510632268,2.6821940789361713,1.0083108191005752
573.5,16.0,0.36753719046967787,-0.2683284240125805,2.4153884715028613,0.9078583255158578
575.0,16.0,0.36690829317377166,-0.2811199033835396,2.155164614915517,0.8099147156087649
576.5,20.0,0.3662800246602833,-0.2929099168688471,1.9053146549695725,0.7159030320406135
578.0,20.0,0.3656641006571779,-0.3035808300050752,1.6689443104690993,0.6269875292764266
579.5,20.0,0.36507469809491433,-0.31387110117157724,1.4484446330489804,0.5440633084866623
581.0,20.0,0.3644975808843958,-0.32365776970978244,1.245497578415732,0.4677586519031632
582.5,20.0,0.3639266166641568,-0.33283698775576176,1.0611110235320889,0.39844840268451515
584.0,20.0,0.36335623123761307,-0.341329081448731,0.895677659260991,0.33627628691085815
585.5,24.0,0.3627848355435207,-0.35240188536547323,0.7490515124889046,0.281183824126967
587.0,24.0,0.36223911213691695,-0.36338700750930447,0.6206356879152276,0.2329434148296529
588.5,24.0,0.361710622063332,-0.3733384705387552,0.5094752091302028,0.191193305224779
590.0,24.0,0.361193102570205,-0.3821658093485043,0.41434949327480264,0.15547237817796677
591.5,24.0,0.3606807533686978,-0.38982741650488084,0.3338599081597028,0.1252530648603237
593.0,28.0,0.3601683697901893,-0.3993135129415655,0.26650892486146155,0.09997107264800127
594.5,28.0,0.359671781672368,-0.4107290963848593,0.2107684879801556,0.07905104213333454
596.0,28.0,0.3592024686703419,-0.42054129372836985,0.16513628973370442,0.06192764584601699
597.5,28.0,0.3587533920529608,-0.4287610877801161,0.128179582652064,0.048061997204019304
599.0,28.0,0.3583189936666281,-0.4354573406482662,0.09856695123186322,0.03695353257604559
600.5,32.0,0.3578941129530227,-0.4416368547189477,0.07508906052304329,0.028147752886771335
602.0,32.0,0.3574784800351161,-0.4522262244321652,0.056669804592569546,0.02124036230845732
603.5,32.0,0.35709273952985454,-0.46126059008099807,0.04236950206516296,0.0158784248354889
605.0,32.0,0.35673354232023613,-0.46874201506504454,0.03138185337208689,0.011759183981681272
606.5,32.0,0.35639597491619757,-0.47472282904734553,0.02302631605962372,0.008627168207833642
608.0,32.0,0.35607526048368304,-0.4792926899617438,0.016737404462213515,0.006270147751158572
609.5,36.0,0.35576726088308885,-0.4861125340230058,0.012052211358132581,0.004514429733774977
611.0,36.0,0.3554883104148402,-0.4924355744776817,0.008597211508808256,0.003219888883347821
612.5,36.0,0.3552370344124352,-0.497376444685277,0.006075164628560862,0.002275040044042567
614.0,36.0,0.35500909480392484,-0.5010012571672865,0.004252706735610602,0.0015923727718846347
615.5,36.0,0.3548000943997492,-0.5033991179185806,0.0029490163877458706,0.0011040923203386132
617.0,40.0,0.3546056965424989,-0.5060168335325534,0.0020257729497413965,0.0007583478103805391
618.5,40.0,0.35442496933152845,-0.5089311135586315,0.0013784901856193918,0.0005159782274213932
