#lags,ntau,weight_dist,acf,smooth_dist,smooth_weight_dist
-1976.98849,1.0,0.002031463494443671,0.0,0.0,0.0
-1974.9884899999,1.0,0.0020549907276684832,0.0,0.0,0.0
-1972.9884899997999,1.0,0.002079481251461453,0.0,0.0,0.0
-1970.9884899996998,1.0,0.0021044072367900637,0.0,0.0,0.0
-1968.9884899995998,1.0,0.00212967874856977,0.0,0.0,0.0
-1966.9884899994997,2.0,0.0021552101482897826,-0.9999999999994778,0.0,0.0
-1964.9884899993997,2.0,0.002182001081940566,-0.9999999999996461,0.0,0.0
-1962.9884899992996,2.0,0.0022093573566424923,-0.9999999999990246,0.0,0.0
-1960.9884899991996,2.0,0.0022371594288376614,-4.626299343613027e-13,0.0,0.0
-1958.9884899990996,3.0,0.0022652891264872757,-0.8282636676025051,0.0,0.0
-1956.9884899989995,3.0,0.0022949256552652407,-0.7709536679653982,0.0,0.0
-1954.9884899988995,3.0,0.0023252538024049604,-0.5632184934862131,0.0,0.0
-1952.9884899987994,3.0,0.0023561288939438806,-0.1896186560105745,0.0,0.0
-1950.9884899986994,4.0,0.002387404853029704,-0.6079933219412789,0.0,0.0
-1948.9884899985993,4.0,0.0024203753269483805,-0.7414597491454735,0.0,0.0
-1946.9884899984993,4.0,0.0024541712659800537,-0.8392056448811995,0.0,0.0
-1944.9884899983992,4.0,0.002488629141217774,-0.8691747485166488,0.0,0.0
-1942.9884899982992,5.0,0.0025235809442635776,-0.890776912609861,0.0,0.0
-1940.9884899981992,5.0,0.002560414071632722,-0.8008118030358353,0.0,0.0
-1938.988489998099,5.0,0.0025982489898788196,-0.5704936837799951,0.0,0.0
-1936.988489997999,5.0,0.0026369036899577766,-0.2833560447884592,0.0,0.0
-1934.988489997899,6.0,0.0026761881128961333,-0.12896611114589207,0.0,0.0
-1932.988489997799,6.0,0.002717608296289544,-0.021147496944850214,0.0,0.0
-1930.988489997699,6.0,0.002760236668932731,0.1385858567293251,0.0,0.0
-1928.988489997599,6.0,0.0028038743455029197,0.2759038718587348,0.0,0.0
-1926.9884899974988,7.0,0.0028483103616683434,-0.002451400711282331,0.0,0.0
-1924.9884899973988,7.0,0.0028951717227261313,-0.11062398899997379,0.0,0.0
-1922.9884899972988,7.0,0.0029434650530857165,-0.22882143992574533,0.0,0.0
-1920.9884899971987,7.0,0.0029929790500164938,-0.29141990640802024,0.0,0.0
-1918.9884899970987,8.0,0.003043484538261951,-0.20849122129404385,0.0,0.0
-1916.9884899969986,8.0,0.0030966980205518546,-0.09153146602705046,0.0,0.0
-1914.9884899968986,8.0,0.003151569673450073,0.07035424459150644,0.0,0.0
-1912.9884899967985,8.0,0.003207877384427292,0.17413099403420162,0.0,0.0
-1910.9884899966985,9.0,0.0032653738862697193,-0.13560184304249143,0.0,0.0
-1908.9884899965984,9.0,0.0033259224106092678,-0.14833815255928195,0.0,0.0
-1906.9884899964984,9.0,0.0033884040449717445,-0.14108639197831405,0.0,0.0
-1904.9884899963984,9.0,0.003452579570586947,-0.13229899392175612,0.0,0.0
-1902.9884899962983,10.0,0.003518176686475517,-0.3448725924725694,0.0,0.0
-1900.9884899961983,10.0,0.0035872350931665815,-0.45025940686683774,0.0,0.0
-1898.9884899960982,10.0,0.0036585150852262815,-0.5039280099499575,0.0,0.0
-1896.9884899959982,10.0,0.003731752239874291,-0.48218446955388305,0.0,0.0
-1894.9884899958981,11.0,0.0038066413135091895,-0.4872341188343487,0.0,0.0
-1892.988489995798,11.0,0.0038854203195637146,-0.4029262274496085,0.0,0.0
-1890.988489995698,11.0,0.0039667108067596695,-0.25760145237093723,0.0,0.0
-1888.988489995598,11.0,0.0040502163569319325,-0.14167973941520512,0.0,0.0
-1886.988489995498,12.0,0.004135592041195441,-0.0691136423170853,0.0,0.0
-1884.988489995398,12.0,0.004225332593750388,0.058702400918331385,0.0,0.0
-1882.9884899952979,12.0,0.004317912875793344,0.19633118749805084,0.0,0.0
-1880.9884899951978,12.0,0.004412994710982321,0.28600744433109115,0.0,0.0
-1878.9884899950978,13.0,0.004510183450332811,0.27687019322469686,0.0,0.0
-1876.9884899949977,13.0,0.004612251670220574,0.2649213080003557,0.0,0.0
-1874.9884899948977,13.0,0.004717495057793763,0.20522068329828658,0.0,0.0
-1872.9884899947976,13.0,0.004825525969697838,0.12923049183478205,0.0,0.0
-1870.9884899946976,14.0,0.0049358924567380925,0.4052466439107869,0.0,0.0
-1868.9884899945976,14.0,0.005051684536263084,0.5409857844955841,0.0,0.0
-1866.9884899944975,14.0,0.005171008164912268,0.6170524918238249,0.0,0.0
-1864.9884899943975,14.0,0.005293299294014334,0.6329394358103115,0.0,0.0
-1862.9884899942974,15.0,0.005417941191287557,0.759352452437168,0.0,0.0
-1860.9884899941974,15.0,0.0055480493262598605,0.7604271517262915,0.0,0.0
-1858.9884899940973,15.0,0.005681590395269395,0.6692541225493208,0.0,0.0
-1856.9884899939973,15.0,0.005817817476750043,0.5249639111360722,0.0,0.0
-1854.9884899938972,16.0,0.005955948933991157,0.4412998040917473,0.0,0.0
-1852.9884899937972,16.0,0.006098135101005902,0.3955932817733524,0.0,0.0
-1850.9884899936972,16.0,0.006243075723127911,0.2962799341875514,0.0,0.0
-1848.988489993597,16.0,0.0063899690461133056,0.18904505026969043,0.0,0.0
-1846.988489993497,17.0,0.006537984700972428,0.37600519765411133,0.0,0.0
-1844.988489993397,17.0,0.006687669857914934,0.43406112423512083,0.0,0.0
-1842.988489993297,17.0,0.006839143964760773,0.44537056395078084,0.0,0.0
-1840.988489993197,17.0,0.006991574622410412,0.42797876865711126,0.0,0.0
-1838.988489993097,18.0,0.00714411096332616,0.4589391416286582,0.0,0.0
-1836.9884899929968,18.0,0.007295769824026397,0.3981709942643189,0.0,0.0
-1834.9884899928968,18.0,0.007448081835451049,0.31387191668737197,0.0,0.0
-1832.9884899927968,18.0,0.00760021287715575,0.22626400633402727,0.0,0.0
-1830.9884899926967,19.0,0.00775132206251959,0.2661835101500276,0.0,0.0
-1828.9884899925967,19.0,0.007899414185706452,0.22391712319357507,0.0,0.0
-1826.9884899924966,19.0,0.00804708315377249,0.17247056045180414,0.0,0.0
-1824.9884899923966,19.0,0.008193522204283998,0.12078845737347643,0.0,0.0
-1822.9884899922965,20.0,0.008337928574173521,0.11653170072358976,0.0,0.0
-1820.9884899921965,20.0,0.008477951638513535,0.040703773172322336,0.0,0.0
-1818.9884899920964,20.0,0.00861663673683926,-0.03262500469481511,0.0,0.0
-1816.9884899919964,20.0,0.008753238069737377,-0.0939957805082482,0.0,0.0
-1814.9884899918964,21.0,0.008887022529161187,-0.08675204461614441,0.0,0.0
-1812.9884899917963,21.0,0.009015337311295533,-0.14558930736178594,0.0,0.0
-1810.9884899916963,21.0,0.009141474832615423,-0.19406069821309382,0.0,0.0
-1808.9884899915962,21.0,0.009264781016602877,-0.22757050206091595,0.0,0.0
-1806.9884899914962,22.0,0.009384621234864478,-0.1913569475207676,0.0,0.0
-1804.9884899913961,22.0,0.009498363049132003,-0.2249407437392992,0.0,0.0
-1802.988489991296,22.0,0.009609514109988386,-0.2477968774007243,0.0,0.0
-1800.988489991196,22.0,0.009717534569849617,-0.25916971652696835,0.0,0.0
-1798.988489991096,22.0,0.009821902954167551,-0.21259447551421246,0.0,0.0
-1796.988489990996,22.0,0.009920872178276271,-0.23198930056880251,0.0,0.0
-1794.988489990896,22.0,0.010017724648479128,-0.24268962561270516,0.0,0.0
-1792.9884899907959,22.0,0.010112041174766632,-0.24472429469238466,0.0,0.0
-1790.9884899906958,21.0,0.010203405885978583,-0.26397219950595374,0.0,0.0
-1788.9884899905958,21.0,0.010290594989977073,-0.27672662829651173,0.0,0.0
-1786.9884899904957,21.0,0.010376285667105509,-0.28014272822152797,0.0,0.0
-1784.9884899903957,21.0,0.01046016138627811,-0.27577078882000006,0.0,0.0
-1782.9884899902956,20.0,0.010541892948116874,-0.29541339689341445,0.0,0.0
-1780.9884899901956,20.0,0.010620092927380953,-0.30912117726473154,0.0,0.0
-1778.9884899900956,20.0,0.010696999940573389,-0.31364427466571365,0.0,0.0
-1776.9884899899955,20.0,0.010772381976504436,-0.3102746275537789,0.0,0.0
-1774.9884899898955,19.0,0.010845986027946121,-0.33071947601836904,0.0,0.0
-1772.9884899897954,19.0,0.010916426201474322,-0.3451956964209133,0.0,0.0
-1770.9884899896954,19.0,0.010985639268539342,-0.35053851186227025,0.0,0.0
-1768.9884899895953,19.0,0.011053471335754888,-0.3479904281948787,0.0,0.0
-1766.9884899894953,18.0,0.011119741979568935,-0.3633225769097226,0.0,0.0
-1764.9884899893952,18.0,0.01118318128063805,-0.3723300578412604,0.0,0.0
-1762.9884899892952,18.0,0.011245526216987508,-0.37274244998949646,0.0,0.0
-1760.9884899891952,18.0,0.011306694511377852,-0.3661840603404407,0.0,0.0
-1758.9884899890951,17.0,0.011366572503747709,-0.3849401703461969,0.0,0.0
-1756.988489988995,17.0,0.011423946511857519,-0.3994774108894724,0.0,0.0
-1754.988489988895,17.0,0.011480325988190336,-0.40653316221919633,0.0,0.0
-1752.988489988795,17.0,0.011535694546567209,-0.4065234902932606,0.0,0.0
-1750.988489988695,16.0,0.011590001277586479,-0.3982204434581402,0.0,0.0
-1748.988489988595,16.0,0.011642430617120593,-0.38290626183268306,0.0,0.0
-1746.9884899884948,16.0,0.011694525526872404,-0.36145460518352523,0.0,0.0
-1744.9884899883948,16.0,0.011746332396421812,-0.3361201896259292,0.0,0.0
-1742.9884899882948,15.0,0.011797852079410429,-0.31068730545476586,0.0,0.0
-1740.9884899881947,15.0,0.01184847783199906,-0.28040270903406406,0.0,0.0
-1738.9884899880947,15.0,0.011899648003260408,-0.24700804456052278,0.0,0.0
-1736.9884899879946,15.0,0.011951451024181168,-0.2131623553031558,0.0,0.0
-1734.9884899878946,14.0,0.012003917819058126,-0.19064425981428948,0.0,0.0
-1732.9884899877945,14.0,0.012056247575763923,-0.1670003476281138,0.0,0.0
-1730.9884899876945,14.0,0.012109468934409175,-0.14339864476901992,0.0,0.0
-1728.9884899875944,14.0,0.012163680888271492,-0.12160736169055346,0.0,0.0
-1726.9884899874944,13.0,0.01221892346048576,-0.11301720770969706,0.0,0.0
-1724.9884899873944,13.0,0.012274483876056586,-0.10611634304854577,0.0,0.0
-1722.9884899872943,13.0,0.012331186026751541,-0.10125467143449529,0.0,0.0
-1720.9884899871943,13.0,0.012389133576086859,-0.09884142677229843,0.0,0.0
-1718.9884899870942,12.0,0.012448374242920873,-0.06805124674041366,0.0,0.0
-1716.9884899869942,12.0,0.012508425137373609,-0.03623040342139214,0.0,0.0
-1714.9884899868941,12.0,0.012569996954844988,-0.008370279879569231,0.0,0.0
-1712.988489986794,12.0,0.012633207308348684,0.013767187404731263,0.0,0.0
-1710.988489986694,11.0,0.012698121598976573,0.036427328094985,0.0,0.0
-1708.988489986594,11.0,0.012764461860467691,0.05542258518225307,0.0,0.0
-1706.988489986494,11.0,0.012832786900418326,0.06839863947395311,0.0,0.0
-1704.988489986394,11.0,0.012903232204224195,0.07502457283540895,0.0,0.0
-1702.9884899862939,10.0,0.01297588749787099,0.10154398940232245,0.0,0.0
-1700.9884899861938,10.0,0.013050599849321836,0.12467344865227703,0.0,0.0
-1698.9884899860938,10.0,0.013127700139872913,0.14030235721055923,0.0,0.0
-1696.9884899859937,10.0,0.013207356098166652,0.14812306172467885,0.0,0.0
-1694.9884899858937,9.0,0.013289700718774774,0.1649660902229094,0.0,0.0
-1692.9884899857936,9.0,0.013374704278629452,0.17633499638604522,0.0,0.0
-1690.9884899856936,9.0,0.013462412166663565,0.17965513358207147,0.0,0.0
-1688.9884899855936,9.0,0.01355301927555254,0.17554850030182995,0.0,0.0
-1686.9884899854935,8.0,0.013646701640409977,0.18168799076875833,0.0,0.0
-1684.9884899853935,8.0,0.013743454613715065,0.18213409321864388,0.0,0.0
-1682.9884899852934,8.0,0.013842939377584332,0.17469602320814162,0.0,0.0
-1680.9884899851934,8.0,0.01394537661326946,0.16046160546062013,0.0,0.0
-1678.9884899850933,7.0,0.01405099398410357,0.18469873661889732,0.0,0.0
-1676.9884899849933,7.0,0.014159610860172962,0.20788896001766086,0.0,0.0
-1674.9884899848932,7.0,0.01427027554790914,0.22505619689066741,0.0,0.0
-1672.9884899847932,7.0,0.014383230748585399,0.23591123317344612,0.0,0.0
-1670.9884899846932,6.0,0.014498767890021885,0.2683307684058142,0.0,0.0
-1668.9884899845931,6.0,0.014616753326778736,0.29842310595189314,0.0,0.0
-1666.988489984493,6.0,0.014735724807187683,0.32274060522416387,0.0,0.0
-1664.988489984393,6.0,0.014855945529004162,0.34114215204733944,0.0,0.0
-1662.988489984293,5.0,0.014977765418324082,0.3483529087617607,0.0,0.0
-1660.988489984193,5.0,0.015101659433960869,0.3499745928978902,0.0,0.0
-1658.988489984093,5.0,0.015226126801777482,0.3460138814804844,0.0,0.0
-1656.9884899839928,5.0,0.015351449440454792,0.33678629284551515,0.0,0.0
-1654.9884899838928,4.0,0.01547801002737636,0.30467069600845537,0.0,0.0
-1652.9884899837928,4.0,0.015606836697594193,0.2631151706096757,0.0,0.0
-1650.9884899836927,4.0,0.015736290039948236,0.21418799267583058,0.0,0.0
-1648.9884899835927,4.0,0.01586664131868707,0.1598595900154643,0.0,0.0
-1646.9884899834926,3.0,0.015998269254744048,0.0864681746186476,0.0,0.0
-1644.9884899833926,3.0,0.016132493608053262,-0.000776574424240084,0.0,0.0
-1642.9884899832925,3.0,0.016267195076770675,-0.09869241925221689,0.0,0.0
-1640.9884899831925,3.0,0.016402591749348175,-0.20258484621813683,0.0,0.0
-1638.9884899830924,2.0,0.01653901414020473,-0.26369411941646254,0.0,0.0
-1636.9884899829924,2.0,0.016678392616510253,-0.31931905349590056,0.0,0.0
-1634.9884899828924,2.0,0.016818312237549995,-0.3719330121348061,0.0,0.0
-1632.9884899827923,2.0,0.01695884370332455,-0.42051823534904353,0.0,0.0
-1630.9884899826923,1.0,0.017100166482562736,-0.4366288876516071,0.0,0.0
-1628.9884899825922,1.0,0.01724503732650153,-0.4494514394408256,0.0,0.0
-1626.9884899824922,1.0,0.017390936823977847,-0.46178828349231504,0.0,0.0
-1624.9884899823921,1.0,0.017537701706463016,-0.4736350936779406,0.0,0.0
-1622.988489982292,0.0,0.017685270000065235,-0.47465458036366337,0.0,0.0
-1620.988489982192,0.0,0.017837126847773336,-0.4746545803636878,0.0,0.0
-1618.988489982092,0.0,0.017990585463068892,-0.47465458036362784,0.0,0.0
-1616.988489981992,0.0,0.01814519775956534,-0.4746545803636066,0.0,0.0
-1614.988489981892,2.0,0.0183006082683459,-0.3812094714299008,0.0,0.0
-1612.9884899817919,2.0,0.018461490398282293,-0.4102414788191576,0.0,0.0
-1610.9884899816918,2.0,0.018624486835684406,-0.4372345081117426,0.0,0.0
-1608.9884899815918,2.0,0.01878886723424216,-0.46186099028647254,0.0,0.0
-1606.9884899814917,4.0,0.018953982623763726,-0.4464373699947657,0.0,0.0
-1604.9884899813917,4.0,0.019125980559484824,-0.46269488458087304,0.0,0.0
-1602.9884899812917,4.0,0.01930064527630202,-0.4770890048447872,0.0,0.0
-1600.9884899811916,4.0,0.01947699765205348,-0.4891602782148469,0.0,0.0
-1598.9884899810916,6.0,0.019654127183712317,-0.4627361201825353,0.0,0.0
-1596.9884899809915,6.0,0.01983902518921361,-0.4888008270947978,0.0,0.0
-1594.9884899808915,6.0,0.020027049813748064,-0.5120884875210661,0.0,0.0
-1592.9884899807914,6.0,0.020217029502546655,-0.5317038949258732,0.0,0.0
-1590.9884899806914,8.0,0.020407850873991048,-0.5099200427368896,0.0,0.0
-1588.9884899805913,8.0,0.020606724150470074,-0.525774618940536,0.0,0.0
-1586.9884899804913,8.0,0.020809145170198613,-0.5276499555428932,0.0,0.0
-1584.9884899803913,8.0,0.021013824036722667,-0.518508214030563,0.0,0.0
-1582.9884899802912,10.0,0.021219516633545606,-0.3941298107276768,0.0,0.0
-1580.9884899801912,10.0,0.021433375760451196,-0.39093790642805576,0.0,0.0
-1578.9884899800911,10.0,0.02165139621367665,-0.37530170398132684,0.0,0.0
-1576.988489979991,10.0,0.02187219213340284,-0.35015402369659154,0.0,0.0
-1574.988489979891,12.0,0.022094408576097676,-0.29173718142910837,0.0,0.0
-1572.988489979791,12.0,0.02232528940579367,-0.300804153255603,0.0,0.0
-1570.988489979691,12.0,0.022561121405723503,-0.29642184395211685,0.0,0.0
-1568.988489979591,12.0,0.022800455890846737,-0.2798607352297366,0.0,0.0
-1566.9884899794909,14.0,0.02304185755131173,-0.2531685195570547,0.0,0.0
-1564.9884899793908,14.0,0.02329260054142362,-0.25574667168735127,0.0,0.0
-1562.9884899792908,14.0,0.02354918482231709,-0.24523966770750896,0.0,0.0
-1560.9884899791907,14.0,0.02381015516597137,-0.22431986586593672,0.0,0.0
-1558.9884899790907,16.0,0.024074036882649905,-0.18542673174987762,0.0,0.0
-1556.9884899789906,16.0,0.02434773667263155,-0.1910865561755361,0.0,0.0
-1554.9884899788906,16.0,0.02462802664135392,-0.18185925351032992,0.0,0.0
-1552.9884899787905,16.0,0.024913478311979625,-0.16008798562373427,0.0,0.0
-1550.9884899786905,18.0,0.025202600711647427,-0.14418318930742094,0.0,0.0
-1548.9884899785905,18.0,0.02550227766819584,-0.15117657962214487,0.0,0.0
-1546.9884899784904,18.0,0.025809475733683484,-0.14483202605145873,0.0,0.0
-1544.9884899783904,18.0,0.026122763858581578,-0.12822159602891375,0.0,0.0
-1542.9884899782903,20.0,0.026440604072626755,-0.15550733118249685,0.0,0.0
-1540.9884899781903,20.0,0.026770024654510616,-0.18016990272800293,0.0,0.0
-1538.9884899780902,20.0,0.02710785028909838,-0.1922782108759344,0.0,0.0
-1536.9884899779902,20.0,0.027452605827851133,-0.19224861272469043,0.0,0.0
-1534.9884899778901,22.0,0.0278026693925799,-0.19497416385175778,0.0,0.0
-1532.98848997779,22.0,0.028165299959730647,-0.20505618801544256,0.0,0.0
-1530.98848997769,22.0,0.028537095898472774,-0.2025421368180086,0.0,0.0
-1528.98848997759,22.0,0.028916509540177777,-0.18978091616591058,0.0,0.0
-1526.98848997749,24.0,0.029301809757625655,-0.19461441163858284,0.0,0.0
-1524.98848997739,24.0,0.029700853769171073,-0.2076010321958366,0.0,0.0
-1522.9884899772899,24.0,0.030109995220321588,-0.20930173942680774,0.0,0.0
-1520.9884899771898,24.0,0.030527561537678282,-0.20195136597788615,0.0,0.0
-1518.9884899770898,26.0,0.030951660682222246,-0.21275030397777742,0.0,0.0
-1516.9884899769897,26.0,0.031390821788831035,-0.21479904766905902,0.0,0.0
-1514.9884899768897,26.0,0.03184095020239229,-0.2085948330043334,0.0,0.0
-1512.9884899767897,26.0,0.032300215696252695,-0.1969448910588931,0.0,0.0
-1510.9884899766896,28.0,0.03276653610472058,-0.22601651715313067,0.0,0.0
-1508.9884899765896,28.0,0.03324932413693589,-0.23311934552556426,0.0,0.0
-1506.9884899764895,28.0,0.033743997492482705,-0.23416432465241002,0.0,0.0
-1504.9884899763895,28.0,0.034248132479729035,-0.23066023163822374,0.0,0.0
-1502.9884899762894,30.0,0.03475908785624767,-0.259119687871469,0.0,0.0
-1500.9884899761894,30.0,0.035286242578480544,-0.27065874134640266,0.0,0.0
-1498.9884899760893,30.0,0.035824661041340224,-0.2761757010143607,0.0,0.0
-1496.9884899759893,30.0,0.03637130404372862,-0.276443600640212,0.0,0.0
-1494.9884899758893,32.0,0.03692297281576081,-0.30255200569275337,0.0,0.0
-1492.9884899757892,32.0,0.03748558584339262,-0.3129656562796063,1.275e-321,2.2e-322
-1490.9884899756892,32.0,0.038056673913864386,-0.31676843806594723,1.9333e-319,3.3834e-320
-1488.9884899755891,32.0,0.038633031681719825,-0.31436651082767253,3.177673e-317,5.56093e-318
-1486.988489975489,34.0,0.03921131760847139,-0.3271744515861086,5.131084437e-315,8.97940576e-316
-1484.988489975389,34.0,0.03979191835599789,-0.3313451544555808,8.13935693215e-313,1.42438873377e-313
-1482.988489975289,34.0,0.04037719274611594,-0.3279668455349855,1.26838250970607e-310,2.219671372028e-311
-1480.988489975189,34.0,0.04096387245768064,-0.31934747262497054,1.9417334169666254e-308,3.39803651089067e-309
-1478.988489975089,36.0,0.0415485921437651,-0.34038470951213506,2.9201702633802835e-306,5.110302519537496e-307
-1476.9884899749889,36.0,0.04212650568764013,-0.3531868605114691,4.314256406512939e-304,7.549955446310101e-305
-1474.9884899748888,36.0,0.04270477081076669,-0.3595724645757662,6.261565680143956e-302,1.0957749715090199e-302
-1472.9884899747888,36.0,0.04328017021417267,-0.3604221732786532,8.927690734575223e-300,1.5623472722415597e-300
-1470.9884899746887,38.0,0.04384943227966327,-0.38068281280516314,1.2504736467372923e-297,2.1883308338927057e-298
-1468.9884899745887,38.0,0.044404149451750224,-0.3933288594472384,1.720636609230437e-295,3.0111167522274985e-296
-1466.9884899744886,38.0,0.04495496447055911,-0.39971167063402113,2.3258568604665812e-293,4.070253136703108e-294
-1464.9884899743886,38.0,0.04549881916108768,-0.40030915167463377,3.0885598206323416e-291,5.404984507656095e-292
-1462.9884899742885,40.0,0.04603264257053535,-0.4275870944478696,4.0291019846788734e-289,7.050934763031697e-290
-1460.9884899741885,40.0,0.04654669898086186,-0.44830681263163497,5.1634468698586716e-287,9.03604008294519e-288
-1458.9884899740885,40.0,0.04705305263417236,-0.46165185005238474,6.50055405644344e-285,1.1375979746862165e-285
-1456.9884899739884,40.0,0.047548938245332295,-0.46768711664104534,8.0397074294600345e-283,1.4069500552465433e-283
-1454.9884899738884,42.0,0.048031613668472625,-0.49565923849372673,9.76808262803829e-281,1.7094159848216086e-281
-1452.9884899737883,42.0,0.048490144247372184,-0.5171885803466083,1.1658900977926114e-278,2.0403094912372707e-279
-1450.9884899736883,42.0,0.04893726812195304,-0.5300919837291573,1.3670522438095126e-276,2.392343560813486e-277
-1448.9884899735882,42.0,0.0493706366247048,-0.5344606551171628,1.5746782162120369e-274,2.7556893366582532e-275
-1446.9884899734882,44.0,0.049787955639136586,-0.5562097799629615,1.7818770583470134e-272,3.1182876338711717e-273
-1444.9884899733881,44.0,0.05017813529290785,-0.570382918227085,1.9808101935707823e-270,3.466420931088972e-271
-1442.988489973288,44.0,0.05055442857812583,-0.5754199037675294,2.1631527971041999e-268,3.7855207719519826e-269
-1440.988489973188,44.0,0.05091499862176158,-0.5719739288479175,2.3206558601851154e-266,4.061151378248382e-267
-1438.988489973088,44.0,0.05125807184048231,-0.5959472212686949,2.445758071689008e-264,4.280080443705523e-265
-1436.988489972988,44.0,0.05157578078813183,-0.6134053842654663,2.5321851546152307e-262,4.431327973776505e-263
-1434.988489972888,44.0,0.051880983704423296,-0.6216972087932636,2.5754708003459765e-260,4.507077921406651e-261
-1432.9884899727879,44.0,0.05217239694856609,-0.6212765877904693,2.5733390574928835e-258,4.5033473681120857e-259
-1430.9884899726878,42.0,0.052448751285898425,-0.6462295441984838,2.525902612934099e-256,4.420333516104223e-257
-1428.9884899725878,42.0,0.05270422137475253,-0.6684487292038941,2.4356529221549544e-254,4.262396416370642e-255
-1426.9884899724877,42.0,0.052950039171374155,-0.6815840090377296,2.3072433920051905e-252,4.037679538161859e-253
-1424.9884899723877,42.0,0.05318540748198393,-0.6858816977253184,2.1470918775544616e-250,3.757414137867993e-251
-1422.9884899722877,40.0,0.0534094790824746,-0.7020923049795151,1.962849747315085e-248,3.4349901223297954e-249
-1420.9884899721876,40.0,0.053615704655766795,-0.7131934576459351,1.762798584138874e-246,3.084900274466327e-247
-1418.9884899720876,40.0,0.05381367689344988,-0.715329914663638,1.5552404343922288e-244,2.7216731883794816e-245
-1416.9884899719875,40.0,0.05400300124017279,-0.7090990973800924,1.34794320552379e-242,2.358902714231544e-243
-1414.9884899718875,38.0,0.054183196455598784,-0.724610605173997,1.1476906888628018e-240,2.0084604974398053e-241
-1412.9884899717874,38.0,0.054347582703694504,-0.7368218399774507,9.599692720434426e-239,1.6799477249299812e-239
-1410.9884899716874,38.0,0.05450456100694061,-0.7402665454843149,7.888038371452841e-237,1.3804079466257472e-237
-1408.9884899715873,38.0,0.05465409321974502,-0.7353956732253448,6.367367356052156e-235,1.1142902815116879e-235
-1406.9884899714873,36.0,0.05479602852276808,-0.7478687096324321,5.049286433300582e-233,8.836259142377398e-234
-1404.9884899713873,36.0,0.054924013909119336,-0.7574751942473215,3.9335014836451677e-231,6.883633738371331e-232
-1402.9884899712872,36.0,0.05504563244383474,-0.7594024148418251,3.0102865490958353e-229,5.268006161440011e-230
-1400.9884899711872,36.0,0.0551611554519007,-0.7536904038277539,2.2631616070714256e-227,3.960536346344469e-228
-1398.9884899710871,34.0,0.055270719184877096,-0.7661240847533557,1.6714850834023367e-225,2.9251015060672865e-226
-1396.988489970987,34.0,0.055368178478174775,-0.7758483083581759,1.2127426541861702e-223,2.122301538633211e-224
-1394.988489970887,34.0,0.05546010893011498,-0.7780540411817836,8.64398509644893e-222,1.5126987417495275e-222
-1392.988489970787,34.0,0.05554705724675237,-0.7729324143404968,6.052552641951275e-220,1.0591976575523923e-220
-1390.988489970687,32.0,0.055629420194296744,-0.782101513293268,4.163344520494205e-218,7.285859412839864e-219
-1388.988489970587,32.0,0.05570255748762757,-0.7880808166184037,2.8133601730049578e-216,4.923384696576218e-217
-1386.9884899704869,32.0,0.055772895838284535,-0.7868563681390166,1.8676157548137795e-214,3.268330487806839e-215
-1384.9884899703868,32.0,0.055841228764414524,-0.7786889900545078,1.2179485197481158e-212,2.1314118118469947e-213
-1382.9884899702868,30.0,0.055908157725340496,-0.7878253471097687,7.802783271914873e-211,1.3654882913329376e-211
-1380.9884899701867,30.0,0.05596993325258738,-0.7945324503802823,4.910767419131503e-209,8.593850654126555e-210
-1378.9884899700867,30.0,0.05603232222484822,-0.7941773417202792,3.0361861629578724e-207,5.313330527930687e-208
-1376.9884899699866,30.0,0.056096270406800444,-0.786881313634566,1.8441092100850468e-205,3.227193998428038e-206
-1374.9884899698866,28.0,0.056162488896913526,-0.7942686735008907,1.1003328689306078e-203,1.9255842396056346e-204
-1372.9884899697865,28.0,0.056226678551780034,-0.7993505119222332,6.449718276440492e-202,1.1287017060302736e-202
-1370.9884899696865,28.0,0.05629295373564215,-0.7981155282266148,3.7139547932605975e-200,6.499426690945835e-201
-1368.9884899695865,28.0,0.056362272681224575,-0.7907603597476414,2.1009305222799818e-198,3.6766316967282286e-199
-1366.9884899694864,26.0,0.0564353552403221,-0.8055765085148299,1.1675244312660116e-196,2.0431695791182317e-197
-1364.9884899693864,26.0,0.056508287745112754,-0.8197395538667316,6.373815284344506e-195,1.1154186708228284e-195
-1362.9884899692863,26.0,0.05658440250514548,-0.8277974206599699,3.4183157708211805e-193,5.982057941308968e-194
-1360.9884899691863,26.0,0.056664649107559376,-0.8297350056946359,1.8009601092542528e-191,3.1516830060978387e-192
-1358.9884899690862,24.0,0.056749752641758786,-0.8373773633159969,9.321272781594973e-190,1.6312241938299412e-190
-1356.9884899689862,24.0,0.05683667536720889,-0.8411762040197278,4.73942386438812e-188,8.293999171825493e-189
-1354.9884899688861,24.0,0.05692823366684831,-0.8386975042482303,2.367309788656645e-186,4.1427958313618593e-187
-1352.988489968786,24.0,0.0570254187128661,-0.8300532195884673,1.1616193723362609e-184,2.032835717951141e-185
-1350.988489968686,22.0,0.057129016234900784,-0.825397416799764,5.599532992163607e-183,9.799191493057364e-184
-1348.988489968586,22.0,0.05723678732133184,-0.8164964385921989,2.65166696998587e-181,4.640421344805278e-182
-1346.988489968486,22.0,0.057350824748353166,-0.80139464965635,1.2335744326082042e-179,2.158757186705992e-180
-1344.988489968386,22.0,0.05747217854432878,-0.780358668775202,5.637557046211508e-178,9.865733650868666e-179
-1342.9884899682859,20.0,0.057601724394192554,-0.7779559714081201,2.531021002813799e-176,4.429290715373721e-177
-1340.9884899681858,20.0,0.057737861386253544,-0.7745647774552052,1.116297001095034e-174,1.9535214989647683e-175
-1338.9884899680858,20.0,0.05788170579865137,-0.7654393440040572,4.8366312386293036e-173,8.464112238549815e-174
-1336.9884899679857,20.0,0.058034432325194306,-0.7507121703493379,2.0586636898589788e-171,3.6026646804063225e-172
-1334.9884899678857,18.0,0.05819708886729591,-0.7520979970519669,8.608094821481777e-170,1.506417941782396e-170
-1332.9884899677857,18.0,0.05836869663996145,-0.7526834443657613,3.535964445746439e-168,6.187943318655721e-169
-1330.9884899676856,18.0,0.05854903290270526,-0.7482054515644971,1.4268816286979526e-166,2.4970450857969247e-167
-1328.9884899675856,18.0,0.05873938396950125,-0.7387220618741621,5.656492464806027e-165,9.898870678151363e-166
-1326.9884899674855,16.0,0.05894097556217639,-0.7395239189623493,2.2028538735313505e-163,3.854997731950821e-164
-1324.9884899673855,16.0,0.05915315812883671,-0.7383511646007594,8.427589533629977e-162,1.4748294899359455e-162
-1322.9884899672854,16.0,0.05937403397592647,-0.7320567301985921,3.16738073464628e-160,5.542921254141945e-161
-1320.9884899671854,16.0,0.05960500757908101,-0.7206891509455897,1.1694357773178914e-158,2.0465144454017947e-159
-1318.9884899670853,14.0,0.059847525455616585,-0.7273323703230046,4.241619351261143e-157,7.422840523290817e-158
-1316.9884899669853,14.0,0.06010078224636565,-0.7346109478565375,1.5113540600688856e-155,2.6448719786614487e-156
-1314.9884899668853,14.0,0.060360390773865624,-0.73770073217333,5.2902957579653814e-154,9.258025888412535e-155
-1312.9884899667852,14.0,0.06062786834284246,-0.7363070038000437,1.819168375108377e-152,3.1835475160383346e-153
-1310.9884899666852,12.0,0.0609049295928231,-0.7429437654460278,6.145327787971883e-151,1.0754333293923861e-151
-1308.9884899665851,12.0,0.061191367910990606,-0.7481898770439904,2.0393718404329003e-149,3.568903929921829e-150
-1306.988489966485,12.0,0.06148048401055992,-0.7492351474126333,6.648550838117985e-148,1.1634974435103778e-148
-1304.988489966385,12.0,0.061773879085200566,-0.7458538185928809,2.129299636029154e-146,3.72627771785157e-147
-1302.988489966285,10.0,0.06207348978195876,-0.7519374064257435,6.699243694183105e-145,1.1723687026983554e-145
-1300.988489966185,10.0,0.062381493161372044,-0.7580902095306616,2.070589383133365e-143,3.6235346874161144e-144
-1298.988489966085,10.0,0.0626907144965415,-0.7613667572066611,6.286970175165238e-142,1.1002207733819285e-142
-1296.9884899659849,10.0,0.06300279948851144,-0.7615388292858835,1.8752882305972965e-140,3.2817573671811825e-141
-1294.9884899658848,8.0,0.0633197802522081,-0.7698048105644955,5.4950780655960704e-139,9.616395306913972e-140
-1292.9884899657848,8.0,0.06364603304635026,-0.7783640881014695,1.5818267518399174e-137,2.768199320300244e-138
-1290.9884899656847,8.0,0.06397366951312085,-0.7846255183119378,4.473250060576383e-136,7.828194696145685e-137
-1288.9884899655847,8.0,0.0643042569049398,-0.7881401726046751,1.2427010006013517e-134,2.1747287229618792e-135
-1286.9884899654846,6.0,0.06463977539103336,-0.795674146698774,3.3914805504489425e-133,5.935096351371027e-134
-1284.9884899653846,6.0,0.0649859985093368,-0.8028349887730215,9.092665717356714e-132,1.5912179469749757e-132
-1282.9884899652845,6.0,0.0653331764569527,-0.8077421618903291,2.3948169907849714e-130,4.190933548793586e-131
-1280.9884899651845,6.0,0.06568263928558886,-0.8097087139886815,6.196303021948282e-129,1.0843540173818601e-129
-1278.9884899650845,4.0,0.06603615062594433,-0.8076339438776882,1.5749696077211622e-127,2.756199330206793e-128
-1276.9884899649844,4.0,0.06640165434619479,-0.8035458615724098,3.93270091411202e-126,6.882232894707344e-127
-1274.9884899648844,4.0,0.06676838147023492,-0.7976249347618847,9.646924353398774e-125,1.6882133088657173e-125
-1272.9884899647843,4.0,0.06713706643686995,-0.7898191862376363,2.324695310138621e-123,4.0682205281110534e-124
-1270.9884899646843,2.0,0.06750886972624405,-0.7848892896510999,5.503290251751633e-122,9.630766802171199e-123
-1268.9884899645842,2.0,0.06789421552720319,-0.7804773401143736,1.2798468714205645e-120,2.239734090544713e-121
-1266.9884899644842,2.0,0.06828238676289042,-0.775705208023717,2.923969357079193e-119,5.116951105458966e-120
-1264.9884899643841,2.0,0.06867319889191836,-0.7705827209433924,6.562462526058836e-118,1.1484320065594657e-118
-1262.988489964284,0.0,0.06906687612101675,-0.7698022736768126,1.4469051751960374e-116,2.5320864102238777e-117
-1260.988489964184,0.0,0.06947566987682119,-0.770004801547878,3.1339532807867e-115,5.48442335464088e-116
-1258.988489964084,0.0,0.0698891509849533,-0.7702057483932466,6.668438968337358e-114,1.166977910977356e-114
-1256.988489963984,0.0,0.07030602827400091,-0.770405116176589,1.3939110429600052e-112,2.439346614693207e-113
-1254.988489963884,3.0,0.07072539865860196,-0.7838388375095453,2.8623659194747703e-111,5.009145077987667e-112
-1252.9884899637839,3.0,0.07116289038569118,-0.7850671163382115,5.774235097548989e-110,1.010492097796178e-110
-1250.9884899636838,3.0,0.07160660897348686,-0.7850688918156616,1.1443081436041284e-108,2.0025411533731638e-109
-1248.9884899635838,3.0,0.07205416621370708,-0.7839486954903019,2.2277719549519873e-107,3.8986046410312275e-108
-1246.9884899634837,6.0,0.07250353317948101,-0.8009141343424145,4.260667995574715e-106,7.456176141274782e-107
-1244.9884899633837,6.0,0.0729748755936805,-0.8017738919424107,8.005046776450584e-105,1.4008845360608613e-105
-1242.9884899632837,6.0,0.07345401744296101,-0.8017672572975397,1.4775060682720702e-103,2.585638125437063e-104
-1240.9884899631836,6.0,0.07393761802707578,-0.8009954102261645,2.67900727172987e-102,4.688267296434326e-103
-1238.9884899630836,9.0,0.07442266279261535,-0.8176096986280912,4.771970303657725e-101,8.3509562252338e-102
-1236.9884899629835,9.0,0.07493173112038677,-0.8195194567798145,8.350275298763482e-100,1.461299620858871e-100
-1234.9884899628835,9.0,0.0754499219746069,-0.8202820960622832,1.4354335014892125e-98,2.5120111272084798e-99
-1232.9884899627834,9.0,0.0759731868132906,-0.8199579199221037,2.424066811793932e-97,4.242121174601615e-98
-1230.9884899626834,12.0,0.07649777702018783,-0.8374081831318775,4.021474487865837e-96,7.03758746950584e-97
-1228.9884899625833,12.0,0.07704642541526101,-0.8377974103873344,6.553982477880651e-95,1.1469481035687017e-95
-1226.9884899624833,12.0,0.07760531212226207,-0.8365230113349988,1.0493115688587659e-93,1.8362971362662136e-94
-1224.9884899623833,12.0,0.07816999329750275,-0.8337247398881651,1.6503759054822657e-92,2.8881608382859026e-93
-1222.9884899622832,15.0,0.07873628881653016,-0.8449673992205191,2.550001981488414e-91,4.4625081582496996e-92
-1220.9884899621832,15.0,0.07932597890439552,-0.8424098319340043,3.8705919820527488e-90,6.773543169440122e-91
-1218.9884899620831,15.0,0.0799273985657592,-0.8380514722571206,5.7715637952120495e-89,1.0100247508977556e-89
-1216.988489961983,15.0,0.08053581801729251,-0.8320424021084007,8.454517805492691e-88,1.4795422283474064e-88
-1214.988489961883,18.0,0.08114672737501086,-0.8398474034446091,1.2166437307946702e-86,2.1291288808784322e-87
-1212.988489961783,18.0,0.08178156922953045,-0.8367516993402949,1.719955620128797e-85,3.009925708394183e-86
-1210.988489961683,18.0,0.08243035971568678,-0.8316266732029719,2.3886377990393584e-84,4.180120904895312e-85
-1208.988489961583,18.0,0.08308822529798578,-0.8246664131737054,3.2588367380170117e-83,5.702970886619932e-84
-1206.9884899614829,21.0,0.08375045669070404,-0.8310997407008263,4.3677135984041365e-82,7.643507788731426e-83
-1204.9884899613828,21.0,0.08443794316284159,-0.8275465912629203,5.750756131044296e-81,1.0063835283811264e-81
-1202.9884899612828,21.0,0.0851422059663751,-0.8222006343958846,7.438322455192682e-80,1.3017080188744608e-80
-1200.9884899611827,21.0,0.08585844159007845,-0.8152709001229193,9.451577652184246e-79,1.6540281495343954e-79
-1198.9884899610827,24.0,0.08658189205276907,-0.8199633795265302,1.1798121678650258e-77,2.0646739208334963e-78
-1196.9884899609826,24.0,0.08733122770082258,-0.8194876671417997,1.4467740069272965e-76,2.531857806374162e-77
-1194.9884899608826,24.0,0.08809939254894371,-0.8169456328295721,1.7428812215030656e-75,3.050046200397176e-76
-1192.9884899607825,24.0,0.08888178057495975,-0.8125365617838327,2.06259592160539e-74,3.6095477909243074e-75
-1190.9884899606825,27.0,0.08967367786750546,-0.8124871579898173,2.3979481830813383e-73,4.1964151999741746e-74
-1188.9884899605825,27.0,0.09049254570842297,-0.8089989624694451,2.7387015932347904e-72,4.7927346878690704e-73
-1186.9884899604824,27.0,0.09133240243141419,-0.8037623576626192,3.0727619808733578e-71,5.377341430773212e-72
-1184.9884899603824,27.0,0.09218875136885726,-0.7969702157601251,3.386822363756974e-70,5.926948179269129e-71
-1182.9884899602823,30.0,0.09305684090757217,-0.7998022735302079,3.667205228755658e-69,6.417619249802499e-70
-1180.9884899601823,30.0,0.09395354530299306,-0.8022225102067736,3.900832627663925e-68,6.826468194127175e-69
-1178.9884899600822,30.0,0.09487299476615696,-0.8025258225384547,4.076230461802751e-67,7.1334152996279734e-68
-1176.9884899599822,30.0,0.09581067629393454,-0.8008306108420953,4.18446041681847e-66,7.322818477815155e-67
-1174.9884899598821,33.0,0.09676169727238482,-0.8068633012421578,4.219874415575423e-65,7.384793559581081e-66
-1172.988489959782,33.0,0.0977426201190851,-0.8105447167465532,4.1806029888712625e-64,7.3160689464846164e-65
-1170.988489959682,33.0,0.09874749582096806,-0.8121512591511213,4.068718790336697e-63,7.120271763936543e-64
-1168.988489959582,33.0,0.09977171885703275,-0.8117646172253619,3.890055349690004e-62,6.807610680858384e-63
-1166.988489959482,36.0,0.10081019390624096,-0.817330132296507,3.6537031238429855e-61,6.3939939997729255e-62
-1164.988489959382,36.0,0.10188034955776447,-0.8207400421326374,3.3712434388155303e-60,5.8996890549278046e-61
-1162.9884899592819,36.0,0.10297612809530891,-0.8220719047581592,3.055810136445324e-59,5.347680092952806e-60
-1160.9884899591818,36.0,0.10409266618688748,-0.8213927440868821,2.721084506967713e-58,4.761909403050865e-59
-1158.9884899590818,39.0,0.10522450713008123,-0.8271851566349673,2.3803297080321793e-57,4.1655875479109256e-58
-1156.9884899589817,39.0,0.10639016332656236,-0.8305775674083459,2.045557282523204e-56,3.579734767234103e-57
-1154.9884899588817,39.0,0.10758287165644109,-0.8317938386270809,1.726893814374512e-55,3.0220726227198175e-56
-1152.9884899587817,39.0,0.10879741908324084,-0.8309161756663968,1.4321849336468664e-54,2.5063310044848413e-55
-1150.9884899586816,42.0,0.11002791056015299,-0.8368242583730772,1.1668420375176788e-53,2.041979890754957e-54
-1148.9884899585816,42.0,0.11129459087394018,-0.843078386174049,9.339089878157475e-53,1.6343460670769857e-53
-1146.9884899584815,42.0,0.11258990408979194,-0.8472110820165595,7.343051752782256e-52,1.2850384879250491e-52
-1144.9884899583815,42.0,0.11390723739264878,-0.8492732834802064,5.671895165803358e-51,9.925852712793014e-52
-1142.9884899582814,45.0,0.11523936790577773,-0.8561528000145313,4.303872541962008e-50,7.53180598706052e-51
-1140.9884899581814,45.0,0.11660616232694934,-0.8626782364257628,3.2082650330751285e-49,5.614486732002717e-50
-1138.9884899580813,45.0,0.1179994622999358,-0.8668079712481211,2.349420411889584e-48,4.1115035164886026e-49
-1136.9884899579813,45.0,0.1194112033636066,-0.868569565895195,1.6901721278524253e-47,2.957814807702212e-48
-1134.9884899578813,48.0,0.12083284472875773,-0.877596552130949,1.1944854663655627e-46,2.0903597617343903e-47
-1132.9884899577812,48.0,0.12227551121681901,-0.8841082131609341,8.292979305468929e-46,1.4512789026117968e-46
-1130.9884899576812,48.0,0.12373678476580993,-0.8878784676740554,5.656139536784637e-45,9.898298783595492e-46
-1128.9884899575811,48.0,0.12520825304602842,-0.8889026615616527,3.7897408901039256e-44,6.632085503829559e-45
-1126.988489957481,51.0,0.12668109328783142,-0.8950140466545538,2.494473194047789e-43,4.365355404290036e-44
-1124.988489957381,51.0,0.128153068152291,-0.8979724378162534,1.612976876978699e-42,2.822728368102223e-43
-1122.988489957281,51.0,0.12963336770012374,-0.8977019947386873,1.0246073771434039e-41,1.793075675755231e-42
-1120.988489957181,51.0,0.13111352223191272,-0.8942232792012852,6.39391585948472e-41,1.1189437816390161e-41
-1118.988489957081,54.0,0.1325847579043046,-0.8983153686332164,3.919733375852621e-40,6.85958912469193e-41
-1116.9884899569809,54.0,0.13403234141791065,-0.900939297547017,2.3606216403483178e-39,4.1311237450217366e-40
-1114.9884899568808,54.0,0.1354770943577693,-0.9003083012426382,1.3966145755699174e-38,2.444098212040045e-39
-1112.9884899567808,54.0,0.13691079203460657,-0.8964544431199069,8.117217321401415e-38,1.4205271557815061e-38
-1110.9884899566807,57.0,0.13832501344473588,-0.8997817800447134,4.634664370534853e-37,8.110749014661644e-38
-1108.9884899565807,57.0,0.13969623046542234,-0.9017739630713596,2.5996209041434407e-36,4.549388488124589e-37
-1106.9884899564806,57.0,0.14105338645121004,-0.9003704962753393,1.432459918444998e-35,2.506835517987277e-36
-1104.9884899563806,57.0,0.1423887762053351,-0.8955959718863042,7.754178326145524e-35,1.3569990075608436e-35
-1102.9884899562805,60.0,0.14369460744041762,-0.89908958597539,4.123538630386516e-34,7.216294171174648e-35
-1100.9884899561805,60.0,0.1449438930098705,-0.9006386506019999,2.1541972580439685e-33,3.769902158864322e-34
-1098.9884899560805,60.0,0.14616883870476638,-0.8984458321453315,1.1055595500061068e-32,1.934760603251519e-33
-1096.9884899559804,60.0,0.14736261196512757,-0.8925716737071174,5.573913787964019e-32,9.754519151569548e-33
-1094.9884899558804,63.0,0.14851839186616195,-0.8961011945079473,2.760704779301118e-31,4.8313238658174717e-32
-1092.9884899557803,63.0,0.1496059037006617,-0.8981642431768078,1.3432643629281586e-30,2.3507599775536405e-31
-1090.9884899556803,63.0,0.15065869331149473,-0.8963531571691531,6.420739252286101e-30,1.1236537067533501e-30
-1088.9884899555802,63.0,0.1516711283455332,-0.8907163934048081,3.0150242840478435e-29,5.276415448977341e-30
-1086.9884899554802,66.0,0.1526376806190714,-0.894940261040127,1.3908461109554773e-28,2.4340417347024506e-29
-1084.9884899553801,66.0,0.15352711860744137,-0.8979902454158538,6.303040482800151e-28,1.1030618643744346e-28
-1082.98848995528,66.0,0.15437378651942876,-0.897077327935068,2.806106497963028e-27,4.9108291443285025e-28
-1080.98848995518,66.0,0.15517351442127214,-0.8922227850172058,1.2272740468280903e-26,2.1477968460581758e-27
-1078.98848995508,66.0,0.15592228540042416,-0.8925771178732059,5.273059065489244e-26,9.228164775039858e-27
-1076.98848995498,66.0,0.15659658373139573,-0.8923476776793551,2.225705874704272e-25,3.895126955564986e-26
-1074.98848995488,66.0,0.1572306767303664,-0.8881833266352077,9.229057561426149e-25,1.615148410627239e-25
-1072.9884899547799,66.0,0.15782199676406505,-0.8801413318765643,3.75951492701739e-24,6.579429371327407e-25
-1070.9884899546798,63.0,0.1583680236078647,-0.8789883551419451,1.5044980005354266e-23,2.6329916201028086e-24
-1068.9884899545798,63.0,0.15885042203399727,-0.8772337794152212,5.914761875429157e-23,1.0351342841703952e-23
-1066.9884899544797,63.0,0.15930072295396902,-0.8717034166346302,2.2843850687797693e-22,3.9978862835461934e-23
-1064.9884899543797,63.0,0.15971779655396176,-0.8624575767317426,8.667390334396599e-22,1.5168803189421082e-22
-1062.9884899542797,60.0,0.16010039098616413,-0.859314431244567,3.2306881631358472e-21,5.65405452460416e-22
-1060.9884899541796,60.0,0.16042828287777308,-0.8553975340046113,1.1830145124683658e-20,2.0704139326199564e-21
-1058.9884899540796,60.0,0.16072886814181353,-0.8477695956543347,4.255731463946324e-20,7.448068535159357e-21
-1056.9884899539795,60.0,0.16100221194349798,-0.8364918671087949,1.5040016213044294e-19,2.6322085078050413e-20
-1054.9884899538795,57.0,0.1612481529999545,-0.8311264098554991,5.221715932552059e-19,9.138774828285209e-20
-1052.9884899537794,57.0,0.1614460597640471,-0.8250200286981758,1.781024992302736e-18,3.1170784518964493e-19
-1050.9884899536794,57.0,0.1616200717134754,-0.815310844609928,5.967874635654847e-18,1.04448125308297e-18
-1048.9884899535793,57.0,0.16177128485010217,-0.8020902148945717,1.9645516093459184e-17,3.438332846241075e-18
-1046.9884899534793,54.0,0.1619004908395179,-0.7983034718379353,6.353346435692002e-17,1.111964260078471e-17
-1044.9884899533793,54.0,0.16198795337713645,-0.7951361665072909,2.0185446530619533e-16,3.5328955638357556e-17
-1042.9884899532792,54.0,0.16205546099953463,-0.7886161462569841,6.300462388460656e-16,1.1027304510029246e-16
-1040.9884899531792,54.0,0.16210497279162037,-0.7787285211345271,1.931996653633044e-15,3.3814908077665565e-16
-1038.9884899530791,51.0,0.16213807500456237,-0.7748862860996286,5.820254775241195e-15,1.0187066978362176e-15
-1036.988489952979,51.0,0.16213608521036393,-0.7707168059381813,1.7225873757298973e-14,3.0150479033114203e-15
-1034.988489952879,51.0,0.16211750727612428,-0.7632809454866525,5.0087147706839516e-14,8.766890000278061e-15
-1032.988489952779,51.0,0.16208504442456406,-0.7525853428217459,1.4308017171723027e-13,2.504410787422166e-14
-1030.988489952679,48.0,0.1620409787039112,-0.7482576183551097,4.0155336176723956e-13,7.028729724752872e-14
-1028.988489952579,48.0,0.16197116262555328,-0.7438381243040357,1.107185852887631e-12,1.938037761781e-13
-1026.9884899524789,48.0,0.1618925556313172,-0.7362914406202552,2.9992611661686068e-12,5.250067021508426e-13
-1024.9884899523788,48.0,0.16180849270582365,-0.7256115955230252,7.982296703447749e-12,1.3972949239371925e-12
-1022.9884899522788,45.0,0.16172177456259845,-0.7222402095402864,2.087204094155769e-11,3.6537233006753895e-12
-1020.9884899521787,45.0,0.16162137781715333,-0.7191716239985803,5.362032294637889e-11,9.386671880083493e-12
-1018.9884899520787,45.0,0.16152139676961835,-0.7130209939951326,1.3533986904609414e-10,2.3693023307229053e-11
-1016.9884899519786,45.0,0.16142551985158485,-0.7037161806400132,3.356283783497661e-10,5.875800814583759e-11
-1014.9884899518786,42.0,0.16133679351573377,-0.7021174804504986,8.177742360764009e-10,1.431715501592753e-10
-1012.9884899517785,42.0,0.16124342907236822,-0.7011790086455921,1.957743223346168e-09,3.427640904418767e-10
-1010.9884899516785,42.0,0.16115468191779211,-0.6973278944223891,4.60502366649246e-09,8.062862279281829e-10
-1008.9884899515785,42.0,0.16107414866332212,-0.6904384346980199,1.0643113936980171e-08,1.8635691908904698e-09
-1006.9884899514784,39.0,0.1610047703830891,-0.6914526750067771,2.4169841255012702e-08,4.232255225501786e-09
-1004.9884899513784,39.0,0.16093574664346422,-0.693244936219586,5.393309975033629e-08,9.444449623395728e-09
-1002.9884899512783,39.0,0.1608743433234862,-0.6920871801051651,1.1825581560699808e-07,2.0709478903665256e-08
-1000.9884899511783,39.0,0.16082401327305604,-0.6877717079533123,2.547915887114776e-07,4.462307750621427e-08
-998.9884899510782,36.0,0.16078758913731986,-0.6887390577185573,5.394534502249222e-07,9.448411100679984e-08
-996.9884899509782,36.0,0.16075641643174476,-0.6896067336849321,1.1223829540250136e-06,1.9659800043840585e-07
-994.9884899508781,36.0,0.1607364771665039,-0.6874212437603635,2.294876745996745e-06,4.0200712672478385e-07
-992.9884899507781,36.0,0.16073128528112215,-0.6819997724157365,4.611297359341477e-06,8.078622008802504e-07
-990.9884899506781,33.0,0.16074379392705415,-0.6821039725157699,9.106425348324439e-06,1.595532315215729e-06
-988.988489950578,33.0,0.1607673284904996,-0.682116731256157,1.7674649181612554e-05,3.0971060463093865e-06
-986.988489950478,33.0,0.1608059496250408,-0.6789162866994839,3.371710944028745e-05,5.908914054018295e-06
-984.9884899503779,33.0,0.16086328367076816,-0.6722832078823755,6.32217943693139e-05,1.108105440459138e-05
-982.9884899502779,30.0,0.1609424888780636,-0.6727452620384355,0.00011652587032699953,2.0426730480031153e-05
-980.9884899501778,30.0,0.1610386827798714,-0.6735155732704677,0.00021112565208759946,3.701566094491345e-05
-978.9884899500778,30.0,0.1611534007978083,-0.6708151111072884,0.0003760528637110836,6.594284314692863e-05
-976.9884899499777,30.0,0.16129057087685936,-0.6644128693339473,0.0006585282187115699,0.000115497931536001
-974.9884899498777,27.0,0.16145378606284527,-0.6643599968190393,0.0011338305369696555,0.00019890071869104798
-972.9884899497777,27.0,0.16163990615106655,-0.6644834539610798,0.0019195671155848213,0.00033681219158477715
-970.9884899496776,27.0,0.16184677908744663,-0.6611125417221198,0.0031957699629956084,0.000560873370246087
-968.9884899495776,27.0,0.16207861354409073,-0.6539465665981257,0.005232425623324286,0.0009185574049054037
-966.9884899494775,24.0,0.16233946450274084,-0.6525469036813027,0.008426106056155597,0.0014796323862334825
-964.9884899493775,24.0,0.16262731106538464,-0.6508045018358752,0.013347217366707702,0.0023445077237423144
-962.9884899492774,24.0,0.16293550199882262,-0.6450442448510676,0.020798921521326976,0.0036546580073341744
-960.9884899491774,24.0,0.1632685645586384,-0.6349237175184888,0.03188791146384955,0.005605166815703233
-958.9884899490773,21.0,0.16363114451579533,-0.6340159192045718,0.048105847445739085,0.0084591936317729
-956.9884899489773,21.0,0.16402153228670233,-0.6344584127215276,0.0714183488059146,0.012563831621438388
-954.9884899488773,21.0,0.16442656202779626,-0.6312132899540948,0.1043560070760299,0.01836639621065375
-952.9884899487772,21.0,0.16485108329412776,-0.623768086909705,0.15009906473829704,0.026429684422842853
-950.9884899486772,18.0,0.1653004591084463,-0.6244413153504438,0.21254442508774674,0.03744421312721923
-948.9884899485771,18.0,0.16577509298769666,-0.6263417265148477,0.29634087798598285,0.05223494226663222
-946.9884899484771,18.0,0.16625542107223734,-0.6249469473276348,0.40687630574583705,0.07175959762012665
-944.988489948377,18.0,0.16674650874670036,-0.6199486008459993,0.5501997062359875,0.0970955210859544
-942.988489948277,15.0,0.1672542804749455,-0.6172108298379404,0.7328616847549245,0.1294120932337079
-940.988489948177,15.0,0.16778531057902885,-0.6138624001041744,0.9616601112715744,0.16992628259349418
-938.9884899480769,15.0,0.1683183955158574,-0.607747291787963,1.2432832597349588,0.2198398446772602
-936.9884899479769,15.0,0.16885866825761842,-0.5987280480416267,1.5838510533742203,0.2802581472586965
-934.9884899478768,12.0,0.169412248835948,-0.5981457447949787,1.988365832622989,0.35209250830575206
-932.9884899477768,12.0,0.16999147858210154,-0.5995526482528141,2.460096760298372,0.4359502028249852
-930.9884899476767,12.0,0.17057309537886114,-0.5986720317092986,2.9999355853115395,0.5320187523712077
-928.9884899475767,12.0,0.1711619695327879,-0.5950189160810783,3.6057745905885668,0.6399535063716488
-926.9884899474766,9.0,0.1717640281182654,-0.594525925737061,4.271968385757736,0.7587795395229173
-924.9884899473766,9.0,0.17239565684821884,-0.5943176683064824,4.988947777463547,0.8868201602854577
-922.9884899472765,9.0,0.17302878653720036,-0.5918837435691358,5.7430542577987,1.0216644810375803
-920.9884899471765,9.0,0.17366762390538204,-0.5866401714853796,6.516655987283601,1.1601852189353354
-918.9884899470765,6.0,0.1743174876336792,-0.5837839337010268,7.288589471914104,1.2986149741411517
-916.9884899469764,6.0,0.17500015610519737,-0.5814333814033237,8.034945455735638,1.4326846556184343
-914.9884899468764,6.0,0.1756850932170949,-0.5777499890050166,8.730184258320786,1.5578217327012447
-912.9884899467763,6.0,0.17637492321932885,-0.5726841979313737,9.34852780131039,1.669399104588603
-910.9884899466763,3.0,0.17707337146963528,-0.5678361771711418,9.865537242135812,1.7630183872152352
-908.9884899465762,3.0,0.17780766391927402,-0.563009181171268,10.259751825315949,1.834805294570228
-906.9884899464762,3.0,0.17854803458571636,-0.5577540249028972,10.514241895269294,1.8816905705112066
-904.9884899463761,3.0,0.1792947044764854,-0.5520830294660997,10.617921903344211,1.901648514356724
-902.9884899462761,0.0,0.18004896630055736,-0.5458998320951044,10.566480859196416,1.8938671321634835
-900.9884899461761,0.0,0.18084143574768516,-0.5395984201699799,10.362818590396557,1.8588294551638445
-898.988489946076,0.0,0.18164441177727625,-0.5332738939872496,10.016923874164053,1.7982941550641693
-896.988489945976,0.0,0.18245523812767886,-0.5269319541540494,9.545189492307749,1.7151742627082784
-894.9884899458759,4.0,0.18327229316927832,-0.4985518146144393,8.969221749097791,1.6133241504486744
-892.9884899457759,4.0,0.1841333012948,-0.49623292616634096,8.314259135478117,1.4972553588270119
-890.9884899456758,4.0,0.1850083308547703,-0.4932846694818336,7.607358239469783,1.3718098028743662
-888.9884899455758,4.0,0.18589187001448104,-0.489786010321404,6.875528285588535,1.2418232054616793
-886.9884899454757,8.0,0.1867793847614674,-0.4843747142907708,6.143995579833625,1.1118116681982229
-884.9884899453757,8.0,0.18771884968266858,-0.4832731071994641,5.434756116532182,0.985710176589812
-882.9884899452757,8.0,0.18867580867499656,-0.481734852890965,4.765532738764692,0.8666842740831038
-880.9884899451756,8.0,0.18964228769444064,-0.4798166391691,4.149199385383833,0.7570263681699763
-878.9884899450756,12.0,0.19061122416741638,-0.48156569448212116,3.59367743284794,0.658137664544757
-876.9884899449755,12.0,0.19163586574867403,-0.480318001026288,3.1022562521656956,0.5705870774281923
-874.9884899448755,12.0,0.1926810500406026,-0.47841633301896125,2.674248737567917,0.4942308979808137
-872.9884899447754,12.0,0.19373701003571125,-0.4759013190011939,2.3058671826232526,0.42837234151555015
-870.9884899446754,16.0,0.19479483772475467,-0.48584555673799107,1.9911970351251076,0.3719386328967575
-868.9884899445753,16.0,0.19590748577787898,-0.4839695531770819,1.7231544956367155,0.323654808758956
-866.9884899444753,16.0,0.19704316077736628,-0.4809065496074958,1.4943351374922118,0.28219728347327266
-864.9884899443753,16.0,0.19819114555857562,-0.47674607560768767,1.2976898586731012,0.24631555833208107
-862.9884899442752,20.0,0.1993414988837684,-0.4752390734587516,1.1269962857287648,0.21491629036828536
-860.9884899441752,20.0,0.20054400923124577,-0.47596930809490345,0.9771234952817953,0.18710940599699596
-858.9884899440751,20.0,0.2017725071857291,-0.4754100340118077,0.8441120075223194,0.16222038018483595
-856.9884899439751,20.0,0.20301563559402255,-0.47362238144151725,0.7251073369913742,0.13977581116809462
-854.988489943875,24.0,0.20426271223830317,-0.4741910852466782,0.618193381647573,0.11947089134539397
-852.988489943775,24.0,0.20556207124335718,-0.4718476560223867,0.522172319831139,0.10112743636435294
-850.988489943675,24.0,0.20689239932851264,-0.4681500432621789,0.43633211741139266,0.08465008888326528
-848.9884899435749,24.0,0.20824208005054148,-0.4632074688474996,0.3602333509752541,0.06998655398560924
-846.9884899434749,28.0,0.209600037301217,-0.4663803173036914,0.2935360058929314,0.05709565476052718
-844.9884899433748,28.0,0.21101267443133864,-0.4652735479725101,0.23587610415577479,0.045924973070880705
-842.9884899432748,28.0,0.21246324050517498,-0.4625806248629597,0.18679285072077087,0.036398124099180605
-840.9884899431747,28.0,0.2139403976439126,-0.45850308856916344,0.14570026881091822,0.028410457169641638
-838.9884899430747,32.0,0.2154330431408986,-0.47698115460222024,0.11189327578893436,0.021831228093151463
-836.9884899429746,32.0,0.21698119161905344,-0.47873671461323075,0.08457663132242262,0.016510012950188172
-834.9884899428746,32.0,0.21857193852079354,-0.4787353364841666,0.06290566555155794,0.01228523527557106
-832.9884899427745,32.0,0.22019454147304993,-0.4771695629545921,0.04602951883600297,0.008993035506456425
-830.9884899426745,36.0,0.22183810482453964,-0.5000535392738159,0.03313014121505236,0.006475198926627539
-828.9884899425745,36.0,0.22353843419617075,-0.5026396009849889,0.02345294747270396,0.004585369273753313
-826.9884899424744,36.0,0.22528546754613032,-0.5036302615714479,0.01632739230650499,0.0031932313523137163
-824.9884899423744,36.0,0.2270688554963653,-0.5031824179438773,0.011177577111132538,0.0021867010687645788
-822.9884899422743,40.0,0.22887773975858908,-0.5265413534500356,0.00752423581253671,0.0014723981923690412
-820.9884899421743,40.0,0.23074534613950642,-0.5323732023449357,0.004980100713901058,0.0009748014519394325
-818.9884899420742,40.0,0.23266244712118117,-0.5363583978774457,0.003240824581587861,0.0006345174511414085
-816.9884899419742,40.0,0.23461880026346774,-0.5385812657700375,0.002073470792425468,0.0004060611352976263
-814.9884899418741,44.0,0.23660336249799765,-0.5580492352011811,0.0013042193789316355,0.00025547329905256335
-812.9884899417741,44.0,0.2386474605123083,-0.5645691786434455,0.0008064928880766476,0.00015801307676775422
-810.9884899416741,44.0,0.24074238593924718,-0.5692609511896564,0.0004902702923956191,9.607761287227116e-05
-808.988489941574,44.0,0.24287784280299213,-0.5721877607307868,0.00029298447121628484,5.7427787715710745e-05
-806.988489941474,48.0,0.24504248294880576,-0.5901279660343226,0.00017211436827824946,3.374289542614226e-05
-804.9884899413739,48.0,0.2472684743698606,-0.5961986598701241,9.939011368259515e-05,1.94891610020441e-05
-802.9884899412739,48.0,0.24954758966304863,-0.6004636879396329,5.641742177337193e-05,1.106483733090795e-05
-800.9884899411738,48.0,0.25186909226054965,-0.6029730048821307,3.147879262896116e-05,6.174885355207828e-06
-798.9884899410738,52.0,0.2542209635628882,-0.6180269530938646,1.7264291766319058e-05,3.3871614758773902e-06
-796.9884899409737,52.0,0.2566367329440238,-0.622281206891663,9.306720628453156e-06,1.8262383187469396e-06
-794.9884899408737,52.0,0.25910737248218557,-0.6245988468019967,4.931208546048389e-06,9.677990357643387e-07
-792.9884899407737,52.0,0.2616215032353826,-0.6250436669447326,2.5680923185237924e-06,5.040933327807981e-07
-790.9884899406736,56.0,0.264166273625474,-0.6375548269079225,1.314499599546431e-06,2.580636357582631e-07
-788.9884899405736,56.0,0.26677805715839126,-0.6430372447540416,6.61294703918748e-07,1.298449358501931e-07
-786.9884899404735,56.0,0.26944687399373596,-0.646616573253468,3.269691560989768e-07,6.420931296478344e-08
-784.9884899403735,56.0,0.2721586242601272,-0.648331003368928,1.5888696790331418e-07,3.120602751497171e-08
-782.9884899402734,60.0,0.27489786164533236,-0.6597253838311954,7.588087150105675e-08,1.4905249932393464e-08
-780.9884899401734,60.0,0.2776997226841707,-0.6639857861183572,3.561491216002828e-08,6.996702443329111e-09
-778.9884899400734,60.0,0.28055340914636834,-0.6661991243228695,1.642782896885878e-08,3.22770747808076e-09
-776.9884899399733,60.0,0.2834420001475091,-0.666401764683102,7.446815437919474e-09,1.4633055227216154e-09
-774.9884899398733,64.0,0.2863474852246552,-0.6766076146838025,3.317391495190369e-09,6.519429504447336e-10
-772.9884899397732,64.0,0.28928700407830554,-0.6815240245322649,1.4522867671184938e-09,2.854379902688059e-10
-770.9884899396732,64.0,0.2922607386276219,-0.6841612763441177,6.247863734789196e-10,1.2281053322142325e-10
-768.9884899395731,64.0,0.29525116468530965,-0.6845200789523751,2.6413650805468543e-10,5.1924865543321614e-11
-766.9884899394731,68.0,0.2982398168878458,-0.6920118590977432,1.0973304376584191e-10,2.157374414667884e-11
-764.988489939373,68.0,0.3012173519758644,-0.6956258070278545,4.4797432377941136e-11,8.808068836698047e-12
-762.988489939273,68.0,0.3042069435408453,-0.6966690129041686,1.7970919875013024e-11,3.533749454498186e-12
-760.988489939173,68.0,0.30719110351480383,-0.6951374733734523,7.084088156747955e-12,1.3931109999934299e-12
-758.9884899390729,72.0,0.3101516334940737,-0.7005442786143725,2.7440323817511656e-12,5.396669482649668e-13
-756.9884899389729,72.0,0.3130546777749888,-0.7030130643561492,1.0444351453728213e-12,2.05424128513046e-13
-754.9884899388728,72.0,0.31594666016893863,-0.7028868042240101,3.906215655110228e-13,7.683484108369158e-14
-752.9884899387728,72.0,0.3188107677072703,-0.7001789110956056,1.4355196628465789e-13,2.8238511730989332e-14
-750.9884899386727,76.0,0.3216296979351549,-0.7042391495295802,5.18365551366033e-14,1.0197605162597508e-14
-748.9884899385727,76.0,0.3243518338557438,-0.7059998754112328,1.8392179968758413e-14,3.618457245646538e-15
-746.9884899384726,76.0,0.32703930394501873,-0.7050482232732675,6.412045043531486e-15,1.2615771212545916e-15
-744.9884899383726,76.0,0.32967653284007303,-0.7013925628924713,2.19645623070583e-15,4.3218100189809585e-16
-742.9884899382726,80.0,0.3322476856559785,-0.7017482529825255,7.392778955565934e-16,1.454707505925124e-16
-740.9884899381725,80.0,0.3346938757791373,-0.7017306451285674,2.444833337334135e-16,4.811067985980254e-17
-738.9884899380725,80.0,0.33708351645878326,-0.6987701861102966,7.944197506882676e-17,1.5634024281147194e-17
-736.9884899379724,80.0,0.3394030108633937,-0.692920865786036,2.5367301485351424e-17,4.993217006357111e-18
-734.9884899378724,84.0,0.34163871623036723,-0.6948877606295021,7.9737519274469e-18,1.5721402638757115e-18
-732.9884899377723,84.0,0.3437245802417878,-0.6957012554473425,2.5137336088502265e-18,5.042743383020354e-19
-730.9884899376723,84.0,0.34573129113383155,-0.6935389360305404,9.494944158136879e-19,2.1874984987776065e-19
-728.9884899375722,84.0,0.3476479181772986,-0.6884425736856687,9.020780113941043e-19,2.8238770654954384e-19
-726.9884899374722,88.0,0.3494636935407472,-0.6903771115220623,2.266428069617216e-18,7.849546839691279e-19
-724.9884899373722,88.0,0.35110969214685417,-0.6919121791858962,7.010456890779022e-18,2.4558818974103307e-18
-722.9884899372721,88.0,0.3526575210670937,-0.6904638296136754,2.181656196223269e-17,7.650786357678235e-18
-720.9884899371721,88.0,0.3540994819949382,-0.686057434818959,6.684315540253757e-17,2.3443274433396458e-17
-718.988489937072,88.0,0.3554281801836117,-0.6869327942385683,2.0123011047759296e-16,7.057616484591876e-17
-716.988489936972,88.0,0.35658957406572217,-0.6870247352865324,5.951356888971319e-16,2.0872834234813966e-16
-714.9884899368719,88.0,0.35765652454809127,-0.6841828617090265,1.729095332108342e-15,6.064351957853431e-16
-712.9884899367719,88.0,0.3586249039273921,-0.6784446768363223,4.9351590665573476e-15,1.7308786383145978e-15
-710.9884899366718,84.0,0.35949070255610255,-0.6757384879089898,1.3837657811551435e-14,4.853198448359648e-15
-708.9884899365718,84.0,0.36021034820190656,-0.6729533983630647,3.811564104187711e-14,1.3368069401020259e-14
-706.9884899364718,84.0,0.3608532787573335,-0.6673613777743375,1.0313903863188646e-13,3.617333432428157e-14
-704.9884899363717,84.0,0.36141861108151535,-0.659016405468313,2.7417139320115873e-13,9.615848276248865e-14
-702.9884899362717,80.0,0.36190522707329137,-0.6559759330833115,7.159792038010984e-13,2.5111107735626683e-13
-700.9884899361716,80.0,0.36226573863829087,-0.6539776409950981,1.8367831488510203e-12,6.44203899958466e-13
-698.9884899360716,80.0,0.36256118232787354,-0.6492442200887749,4.6290788020395794e-12,1.62352895024894e-12
-696.9884899359715,80.0,0.36279337892252467,-0.641796784718181,1.1460682221972846e-11,4.019536104846366e-12
-694.9884899358715,76.0,0.3629636833775747,-0.6396244489247259,2.7874403131177415e-11,9.776221660871686e-12
-692.9884899357714,76.0,0.3630238945506531,-0.6386069555531677,6.660086839507187e-11,2.335852176538917e-11
-690.9884899356714,76.0,0.36302796610417526,-0.6349641335719947,1.5632679218326983e-10,5.482755504126801e-11
-688.9884899355714,76.0,0.3629800151226327,-0.6287073580298761,3.604675293477691e-10,1.2642460725952103e-10
-686.9884899354713,72.0,0.3628835145721339,-0.6264265209771878,8.165411811971856e-10,2.8638057450255377e-10
-684.9884899353713,72.0,0.362692389120204,-0.6248428335684042,1.8170599021948711e-09,6.372864843553738e-10
-682.9884899352712,72.0,0.3624552778766737,-0.6207991959037773,3.972277734542907e-09,1.3931730645068204e-09
-680.9884899351712,72.0,0.3621781757177687,-0.614275528754564,8.530788531676662e-09,2.991952123088043e-09
-678.9884899350711,68.0,0.36186627362529455,-0.611793055756574,1.79977392754173e-08,6.312238784973636e-09
-676.9884899349711,68.0,0.36147681558646066,-0.6100714102378969,3.7301469820591045e-08,1.3082520028557347e-08
-674.988489934871,68.0,0.36105033860283975,-0.6059406408906669,7.594744064464677e-08,2.66365888030512e-08
-672.988489934771,68.0,0.3605944183980387,-0.5993865867093686,1.5190761685242981e-07,5.327764427432786e-08
-670.988489934671,64.0,0.36011570902842666,-0.5973298127297497,2.984868255034886e-07,1.0468648800929855e-07
-668.9884899345709,64.0,0.3595822839656886,-0.5963244030372021,5.761691395386789e-07,2.020763349214713e-07
-666.9884899344709,64.0,0.3590293344157853,-0.5929731218489658,1.0925819675274231e-06,3.83194698332219e-07
-664.9884899343708,64.0,0.3584657229740779,-0.5872490608472152,2.035341431633376e-06,7.138430517458282e-07
-662.9884899342708,60.0,0.35789914685870916,-0.5845484176014238,3.7247722891204465e-06,1.3063669697228611e-06
-660.9884899341707,60.0,0.35730581755758944,-0.5823359173885513,6.696400065715211e-06,2.348588097581206e-06
-658.9884899340707,60.0,0.3567128191139637,-0.5779366372064816,1.1826664221788914e-05,4.147894774195432e-06
-656.9884899339706,60.0,0.3561296712589,-0.5713055573405106,2.0519291085216804e-05,7.196607490678848e-06
-654.9884899338706,56.0,0.3555645058775794,-0.5675771944425962,3.497370563370683e-05,1.2266117343559754e-05
-652.9884899337706,56.0,0.354993110756378,-0.5644135075937695,5.855987789202909e-05,2.0538353666406506e-05
-650.9884899336705,56.0,0.35443142138087036,-0.5592353337742528,9.632475029879859e-05,3.3783400279360356e-05
-648.9884899335705,56.0,0.35388853542591325,-0.551973943434526,0.00015565204957056206,5.459090740052921e-05
-646.9884899334704,52.0,0.35337212347378644,-0.5486220589426503,0.00024708764282503555,8.665956399620727e-05
-644.9884899333704,52.0,0.3528599372630091,-0.5463197213992,0.000385324349091096,0.00013514249518901706
-642.9884899332703,52.0,0.3523638562108307,-0.5419794538452685,0.0005903113690204734,0.00020703636679082662
-640.9884899331703,52.0,0.3518924520464731,-0.5355050015635042,0.0008884134917311158,0.0003115879490804883
-638.9884899330702,48.0,0.3514529383043853,-0.5351243403338848,0.0013134952501967583,0.00046067436093316405
-636.9884899329702,48.0,0.35102726242489546,-0.5370544474717112,0.0019077494187307801,0.0006690936544715651
-634.9884899328702,48.0,0.35062486455003716,-0.5370498358002496,0.0027220354427256086,0.0009546835337673976
-632.9884899327701,48.0,0.3502543581807371,-0.5349699364653211,0.00381545299020567,0.0013381718386910495
-630.9884899326701,44.0,0.34992313736212405,-0.5356469870913324,0.0052538631246451355,0.001842657988092536
-628.98848993257,44.0,0.34961704802434174,-0.5368809196221812,0.007107099926304121,0.0024926352396708617
-626.98848993247,44.0,0.3493416323673793,-0.5360313868954222,0.00944470206536002,0.0033124940728225293
-624.9884899323699,44.0,0.3491056634317366,-0.5329175502643051,0.01233014445708753,0.004324499919740786
-622.9884899322699,40.0,0.3489169049533777,-0.5337755551238595,0.015813762755286006,0.00554631320401768
-620.9884899321698,40.0,0.3487650099162428,-0.5357756161633209,0.019924823671902205,0.006988211194306724
-618.9884899320698,40.0,0.3486504271585504,-0.535503262901896,0.024663474323885198,0.008650269927730164
-616.9884899319698,40.0,0.34858250816190106,-0.5327580929531367,0.029993565444132377,0.0105198569883357
-614.9884899318697,36.0,0.34856988622904944,-0.5308593599802196,0.03583754269967584,0.012569857082613779
-612.9884899317697,36.0,0.34860591092967,-0.5285206633740042,0.04207469775535877,0.014758088387665243
-610.9884899316696,36.0,0.34868323357379116,-0.5238232118827214,0.04854404079694211,0.01702835993363728
-608.9884899315696,36.0,0.34881176000274194,-0.5165535907672592,0.05505289790991406,0.019313568725723113
-606.9884899314695,32.0,0.34900106794159985,-0.5112074518604431,0.061392078992700876,0.021541150347261822
-604.9884899313695,32.0,0.3492470910186431,-0.5057027388101183,0.06735816272647731,0.023641098908047678
-602.9884899312694,32.0,0.3495330666511575,-0.49741154877296123,0.07278318136219507,0.025556688287913673
-600.9884899311694,32.0,0.34986956283144716,-0.48613274429247066,0.07757183606515541,0.027257982956181107
-598.9884899310694,28.0,0.3502673935309199,-0.47892478068541755,0.08174638264070892,0.02875823938252124
-596.9884899309693,28.0,0.3507239819580305,-0.47283981401278297,0.08549949110319355,0.030133363844992603
-594.9884899308693,28.0,0.35120908729575007,-0.46391762604778297,0.08925561383812705,0.031544675665834895
-592.9884899307692,28.0,0.3517339725851447,-0.4518850347806983,0.09374151698125816,0.03326525949793815
-590.9884899306692,24.0,0.35231095752468367,-0.4429987340330006,0.10006637570560553,0.035710079067975374
-588.9884899305691,24.0,0.3529424991921626,-0.4350018916196144,0.10981089610380804,0.03946965354907072
-586.9884899304691,24.0,0.3535846705768368,-0.4245663031390394,0.12512301024649936,0.045346358876741225
-584.988489930369,24.0,0.35424917134453815,-0.4116876509631903,0.14881460790382744,0.05439124165327978
-582.988489930269,20.0,0.35494945974883335,-0.40118239094418773,0.18444953711687567,0.06793763200667169
-580.988489930169,20.0,0.3557007201488652,-0.3914136157998729,0.236408049760369,0.08762593650109227
-578.9884899300689,20.0,0.3564551875747552,-0.3800157804635571,0.30990768115370554,0.11541204345099815
-576.9884899299689,20.0,0.3572246341867913,-0.36711142136290187,0.4109563032201704,0.15355018104186582
-574.9884899298688,16.0,0.35802285181762017,-0.35445496727241316,0.5462111386909244,0.20454034259542525
-572.9884899297688,16.0,0.358877025852596,-0.3408174678421887,0.7227193331416786,0.2710310810583382
-570.9884899296687,16.0,0.3597349229768691,-0.32525113193379246,0.9475225313125835,0.35567105533706805
-568.9884899295687,16.0,0.36060769043844876,-0.3078966585172226,1.2271205311580649,0.46090746068395444
-566.9884899294686,12.0,0.361508641656148,-0.29048213027053066,1.5668073240694287,0.58873633082286
-564.9884899293686,12.0,0.36247386796346137,-0.2719945390583773,1.9699153141267083,0.7404181519590716
-562.9884899292686,12.0,0.36344124073490736,-0.2516643700700467,2.4370275919767925,0.9161812842986645
-560.9884899291685,12.0,0.364420466333408,-0.22978640011358764,2.9652400376542114,1.1149439261402319
-558.9884899290685,8.0,0.365423534107363,-0.2123707959992036,3.5475702959866267,1.3340911099510735
-556.9884899289684,8.0,0.36649741825532584,-0.1976957874941403,4.1726149496010585,1.5693448511115908
-554.9884899288684,8.0,0.367575125288943,-0.18295621104820822,4.824546161445112,1.8147618184945724
-552.9884899287683,8.0,0.36866302991231203,-0.1682838007508028,5.483513257665443,2.062883226394646
-550.9884899286683,4.0,0.36976977832347746,-0.1550195331062506,6.126474387248813,2.305046510290555
-548.9884899285682,4.0,0.3709524056711355,-0.14262634132080126,6.728432626391054,2.531849278859086
-546.9884899284682,4.0,0.3721463317232587,-0.13043502533667078,7.26399635218638,2.733735528759462
-544.9884899283682,4.0,0.37335292087115785,-0.11845740236604269,7.7091336817580665,2.9016552793808317
-542.9884899282681,0.0,0.3745757672181282,-0.1067564324163559,8.042953772409344,3.0277348318287016
-540.9884899281681,0.0,0.3758772586618468,-0.09532332493430898,8.249330917055982,3.1058884570715692
-538.988489928068,0.0,0.3771987644902094,-0.08412613280988057,8.318194860196883,3.132305064138759
-536.988489927968,0.0,0.37853567181496145,-0.07315937684963547,8.246342899020078,3.105755412792862
-534.9884899278679,5.0,0.37988554067377545,-0.09841825221687106,8.037682222097436,3.0276852621468726
-532.9884899277679,5.0,0.38132346548365936,-0.09166966302580823,7.702877042144703,2.902084666301511
-530.9884899276678,5.0,0.3827881556095165,-0.08553037484060258,7.258444547594534,2.735149743635134
-528.9884899275678,5.0,0.384269060923526,-0.07995931669021414,6.725406150564597,2.534776757541576
-526.9884899274678,10.0,0.3857577077708938,-0.09552238093962712,6.127646925028617,2.3099458575966483
-524.9884899273677,10.0,0.38734860532353743,-0.09253738899196193,5.490160423610317,2.0700610442606475
-522.9884899272677,10.0,0.38897279654829603,-0.08983488107675855,4.8373560317604465,1.8243129962100078
-520.9884899271676,10.0,0.3906146319047231,-0.0873599119130817,4.191583491397476,1.5811230101711273
-518.9884899270676,15.0,0.3922604237615564,-0.10001574575142742,3.5719894292857433,1.3477114014287856
-516.9884899269675,15.0,0.3940144812167614,-0.09398924559081778,2.9937710681834577,1.129815076332809
-514.9884899268675,15.0,0.39580779646805186,-0.08825383745535892,2.467840872879874,0.9315596552318451
-512.9884899267674,15.0,0.39762105064279224,-0.08281031847416764,2.0008700105750385,0.7554742505330121
-510.98848992666746,20.0,0.39943679532726284,-0.08956798424845072,1.595643617198225,0.6026238391380969
-508.98848992656747,20.0,0.40135799610829315,-0.08658490860085369,1.2516398846404713,0.4728262214657015
-506.9884899264675,20.0,0.4033232441803745,-0.08356255050020933,0.9657382728186151,0.3649179744529536
-504.9884899263675,20.0,0.4053113374656989,-0.08050747954601992,0.732967889135305,0.2770359099511105
-502.9884899262675,25.0,0.4073027829341016,-0.09180390866246946,0.5472219892157143,0.20688611727622183
-500.9884899261675,25.0,0.40939327876371767,-0.08949503045341214,0.4018847207418336,0.15198023011235995
-498.98848992606753,25.0,0.41153299287176603,-0.08709301532020822,0.29033785947075835,0.10982668549326745
-496.98848992596754,25.0,0.4136995136318511,-0.08460015163903403,0.20633526144468967,0.07807226328605588
-494.98848992586755,30.0,0.41587194174369074,-0.09298699131568378,0.14424896813503535,0.05459531057590584
-492.98848992576757,30.0,0.41814242767133086,-0.08807813833040269,0.09920231308661327,0.03755637094485062
-490.9884899256676,30.0,0.4204716952694164,-0.08291280796034046,0.0671118951581093,0.025414413741898165
-488.9884899255676,30.0,0.4228369239675903,-0.0775444624923279,0.04466250700735786,0.016917716045380136
-486.9884899254676,35.0,0.4252165348600768,-0.06769734295269607,0.029238046116714655,0.011078067103225382
-484.9884899253676,35.0,0.4276982749104131,-0.05840552497504713,0.018828232532829316,0.007135770751578749
-482.98848992526763,35.0,0.43025300608899153,-0.04892657502130854,0.011926681252296538,0.0045213178979975665
-480.98848992516764,35.0,0.43285858827846646,-0.03941088370171793,0.0074313905160138536,0.00281791412269928
-478.98848992506765,40.0,0.43549348921490244,-0.030823735280356576,0.004554610797471831,0.001727504074197413
-476.98848992496767,40.0,0.43823165502790984,-0.026295741070584813,0.0027456951515335533,0.0010416646884838204
-474.9884899248677,40.0,0.4410519418775638,-0.021662709288126886,0.0016280258625448536,0.0006177919099610949
-472.9884899247677,40.0,0.44393352459901114,-0.01700785099512364,0.0009494352340922599,0.0003603701819155914
-470.9884899246677,45.0,0.4468553874628146,-0.013412867356190877,0.0005445662630715775,0.00020674449898599271
-468.9884899245677,45.0,0.44988165725518814,-0.008446740682450868,0.0003071871291441841,0.0001166495254845596
-466.98848992446773,45.0,0.45299696094059777,-0.0035010743641031017,0.0001704147299468037,6.472629042719902e-05
-464.98848992436774,45.0,0.45618139602782615,0.0013470283616039969,9.297100311310984e-05,3.53192551737776e-05
-462.98848992426775,50.0,0.4594141595156598,0.005174018573608746,4.987790725434909e-05,1.895219068364798e-05
-460.98848992416777,50.0,0.46275298256127934,0.006906123382664539,2.6313160789689733e-05,1.0000186172250638e-05
-458.9884899240678,50.0,0.4661847122082333,0.008724499327760954,1.3649775141003492e-05,5.1884914795656245e-06
-456.9884899239678,50.0,0.4696898205427725,0.010593348698425334,6.9622428331415806e-06,2.6469271614116747e-06
-454.9884899238678,55.0,0.47324730872068305,0.0071344798700913176,3.4916246308193743e-06,1.3276826037575722e-06
-452.9884899237678,55.0,0.47690990694044305,0.008236317176196516,1.7216475691779746e-06,6.547591411243796e-07
-450.9884899236678,55.0,0.4806662476651777,0.009418867500470884,8.346089948178961e-07,3.1745906089852214e-07
-448.98848992356784,55.0,0.48449688586060746,0.010662083521826522,3.97766296912166e-07,1.5132016357907489e-07
-446.98848992346785,60.0,0.4883804212643445,0.006012072870654153,1.8636455762407312e-07,7.090766199467013e-08
-444.98848992336787,60.0,0.49236988851743346,0.003579178722075825,8.583684221062043e-08,3.2663411562941744e-08
-442.9884899232679,60.0,0.4964556639520585,0.0012625098962941103,3.8863709295400225e-08,1.4790643012000206e-08
-440.9884899231679,60.0,0.5006176291706295,-0.0009245927562723313,1.7296583815366778e-08,6.583475965084325e-09
-438.9884899230679,65.0,0.504833276478888,-0.0029033205218143704,7.56672430624855e-09,2.880395701133945e-09
-436.9884899229679,65.0,0.5091569930048162,-0.0039012593405672105,3.2536690073198996e-09,1.2386946147717647e-09
-434.9884899228679,65.0,0.5135785713979397,-0.004783570595533172,1.3751295271270774e-09,5.235745582125954e-10
-432.98848992276794,65.0,0.5180768408451195,-0.005550924063393352,5.712234428186359e-10,2.1751164599793302e-10
-430.98848992266795,70.0,0.5226278886116953,-0.0030297994311074203,2.3321073189863465e-10,8.881047859909378e-11
-428.98848992256796,70.0,0.5272903009085823,-0.0009545591391671646,9.357494299508523e-11,3.56379046733348e-11
-426.988489922468,70.0,0.5320530587281234,0.0011716884416350243,3.6900146781162995e-11,1.405450086372416e-11
-424.988489922368,70.0,0.5368903087560136,0.003319131275298523,1.4300247919036241e-11,5.447077760006551e-12
-422.988489922268,75.0,0.541773654754604,0.008761315144483427,5.446229834749939e-12,2.0746588043123523e-12
-420.988489922168,75.0,0.5467588431186233,0.01358162319959682,2.0383359325202383e-12,7.765247866273227e-13
-418.988489922068,75.0,0.5518339218729292,0.01838828973267778,7.496765252544491e-13,2.85614695450888e-13
-416.98848992196804,75.0,0.5569681843626864,0.02311693945898031,2.7094544311425623e-13,1.0323189208791083e-13
-414.98848992186805,80.0,0.5621288200104967,0.03773348531222483,9.622578642733697e-14,3.666463109914472e-14
-412.98848992176806,80.0,0.5673391624219597,0.04346992245370612,3.3581114057193755e-14,1.2795971606781587e-14
-410.9884899216681,80.0,0.5726058709482322,0.049060646094946356,1.1515571721799228e-14,4.388181449464797e-15
-408.9884899215681,80.0,0.5778973031897134,0.054430751239080304,3.880215580549609e-15,1.4786810274676958e-15
-406.9884899214681,85.0,0.5831799985108777,0.069683094714861,1.2846940621085692e-15,4.895946692701852e-16
-404.9884899213681,85.0,0.5884310074954913,0.0775010671238264,4.179372017247871e-16,1.5928142487786995e-16
-402.9884899212681,85.0,0.5936971998922206,0.08501852854324717,1.3359312119772744e-16,5.091599388953888e-17
-400.98848992116814,85.0,0.5989472007398062,0.0921302832679031,4.1957881933295885e-17,1.5991848621722806e-17
-398.98848992106815,90.0,0.6041482489527399,0.10861150170874054,1.2947752139967547e-17,4.935072027311675e-18
-396.98848992096816,90.0,0.6092349202835566,0.11628819678947672,3.925742711549437e-18,1.4963529263879496e-18
-394.9884899208682,90.0,0.6142950806629126,0.12347419307806522,1.1694764791829852e-18,4.457752164324118e-19
-392.9884899207682,90.0,0.6192987912763418,0.1300715038671708,3.422939288083265e-19,1.3047732363300507e-19
-390.9884899206682,95.0,0.6242151227141584,0.14138466374814224,9.843307486019021e-20,3.752213607318314e-20
-388.9884899205682,95.0,0.6289471408107847,0.14858770114967756,2.781079540018647e-20,1.0601562109862388e-20
-386.9884899204682,95.0,0.6336096763224244,0.15513010827925755,7.71992098123997e-21,2.942920927191279e-21
-384.98848992036824,95.0,0.6381752330402488,0.16091462509376767,2.1054076192895344e-21,8.026211393267139e-22
-382.98848992026825,100.0,0.6426157440677496,0.16961228476938928,5.641315972254944e-22,2.150616204892037e-22
-380.98848992016826,100.0,0.6468209936753981,0.17569288758003676,1.4850557720929162e-22,5.661516724537011e-23
-378.9884899200683,100.0,0.6509166116855607,0.18090074641060094,3.840790267183856e-23,1.4642581754034043e-23
-376.9884899199683,100.0,0.6548788907910095,0.1851570125303661,9.759138185290381e-24,3.7206180881290744e-24
-374.9884899198683,105.0,0.6586839500215329,0.1934924007564475,2.4362009434164672e-24,9.288013765631029e-25
-372.9884899197683,105.0,0.6622081425630353,0.19983175397703484,5.9748000995180625e-25,2.2779218851320084e-25
-370.9884899196683,105.0,0.6655806064087126,0.20515912175031176,1.4395948843404863e-25,5.48859341703855e-26
-368.98848991956834,105.0,0.6687826721668685,0.20939500514761297,3.407705034399594e-26,1.2992350271579187e-26
-366.98848991946835,110.0,0.6717958957891734,0.21324349896367784,7.924772144697391e-27,3.021462164413275e-27
-364.98848991936836,110.0,0.674490239044765,0.21493239461036534,1.8105638795585554e-27,6.903180465472817e-28
-362.9884899192684,110.0,0.6769955692916574,0.2154812381019116,4.064061775560742e-28,1.5495855400311446e-28
-360.9884899191684,110.0,0.6792993052616686,0.21489109940596607,8.971221304089375e-29,3.423529522005138e-29
-358.9884899190684,110.0,0.6813893966242721,0.21082076573730665,1.991348730376525e-29,7.741547792572977e-30
-356.9884899189684,110.0,0.68316104869862,0.21040862771134822,6.577556699788983e-30,3.23520564219803e-30
-354.9884899188684,110.0,0.6847482517945268,0.20888265091379,1.260153151755404e-29,8.294768123942165e-30
-352.98848991876844,110.0,0.6861451855251415,0.20627393756890805,5.55127092648764e-29,3.761946940498778e-29
-350.98848991866845,105.0,0.6873462715829174,0.20678018775568036,2.5632431313300037e-28,1.7393894469246783e-28
-348.98848991856846,105.0,0.6882651548301412,0.2091173483898841,1.1661871253267022e-27,7.914173192643472e-28
-346.9884899184685,105.0,0.689032652009572,0.2104089370464704,5.213294090240327e-27,3.537981807534375e-27
-344.9884899183685,105.0,0.6896491371966906,0.21063879400223287,2.2896510030886007e-26,1.5538810336276692e-26
-342.9884899182685,100.0,0.6901145893804762,0.2130000876410056,9.879563707779064e-26,6.704886092879196e-26
-340.9884899181685,100.0,0.6903359865766163,0.21656632503721157,4.18811126421051e-25,2.84234714068661e-25
-338.9884899180685,100.0,0.6904292316574,0.21909166474031622,1.7442603311878276e-24,1.1837925207767639e-24
-336.98848991796854,100.0,0.6903998705433512,0.2205341270808845,7.137033779864561e-24,4.8438148772648825e-24
-334.98848991786855,95.0,0.6902526187964031,0.22344370986141504,2.869051133179423e-23,1.9472140285451968e-23
-332.98848991776856,95.0,0.6898931276751431,0.22710325827572658,1.1331141728837625e-22,7.690504213095479e-23
-330.9884899176686,95.0,0.6894240422835182,0.22967984129585253,4.396678294464382e-22,2.9840885268308657e-22
-328.9884899175686,95.0,0.6888552562597714,0.23113004678682936,1.6760700228061237e-21,1.137588458431157e-21
-326.9884899174686,90.0,0.6881954886446795,0.233592547041299,6.277358438994759e-21,4.260652269340399e-21
-324.9884899173686,90.0,0.687354713829482,0.23653128947390953,2.309829257304325e-20,1.567780762169206e-20
-322.9884899172686,90.0,0.6864253522875888,0.2383970764019371,8.350297060579927e-20,5.667790898332324e-20
-320.98848991716864,90.0,0.6854207965924438,0.239140965163343,2.9658147705092814e-19,2.0130868656861478e-19
-318.98848991706865,85.0,0.6843529518513992,0.24187904402709132,1.0349209148477153e-18,7.024774970903211e-19
-316.98848991696866,85.0,0.6831395216078557,0.2457885329384214,3.548071624159627e-18,2.408377511171015e-18
-314.9884899168687,85.0,0.6818564235817178,0.24860010865577384,1.1950903591280492e-17,8.112225931216616e-18
-312.9884899167687,85.0,0.6805199445420832,0.25025458654684685,3.954880622312013e-17,2.684602365799144e-17
-310.9884899166687,80.0,0.6791446464013536,0.24970595958843808,1.2858533931800782e-16,8.728618924228704e-17
-308.9884899165687,80.0,0.6776699623989012,0.24730298286258404,4.1074869437565215e-16,2.7882901220504626e-16
-306.9884899164687,80.0,0.6761590645901518,0.24378227303588162,1.2891066865551465e-15,8.751017068526497e-16
-304.98848991636874,80.0,0.6746305211332703,0.23916896432890072,3.974941969700365e-15,2.69841401746141e-15
-302.98848991626875,75.0,0.6731007216186938,0.23843729451995355,1.2042131769623232e-14,8.175033076034396e-15
-300.98848991616876,75.0,0.6715262611753494,0.2403022419412853,3.584330592465346e-14,2.43333999888348e-14
-298.9884899160688,75.0,0.6699525393247711,0.2411844991280795,1.0482053233743792e-13,7.116229431336656e-14
-296.9884899159688,75.0,0.6683991990319081,0.241037520824968,3.011756573005461e-13,2.0447139285262723e-13
-294.9884899158688,70.0,0.6668833026294537,0.24266999922922203,8.502178826937181e-13,5.772345365763362e-13
-292.9884899157688,70.0,0.6653623376438942,0.24548687335549732,2.358192216396776e-12,1.6010723080404135e-12
-290.9884899156688,70.0,0.6638599424107735,0.24741149737132337,6.4264122478282785e-12,4.363252041612438e-12
-288.98848991556883,70.0,0.6623946619009299,0.24837279682740793,1.720680655342396e-11,1.168294375493136e-11
-286.98848991546885,65.0,0.6609823714097257,0.2506424354853446,4.526643315687217e-11,3.073540262783718e-11
-284.98848991536886,65.0,0.659583938601402,0.2536957513700612,1.1700344818148693e-10,7.94460413199005e-11
-282.9884899152689,65.0,0.6582157911854576,0.25577503401660734,2.971458133267136e-10,2.0176904996497973e-10
-280.9884899151689,65.0,0.6568951936656223,0.25679279292360935,7.414663104952618e-10,5.03486777892756e-10
-278.9884899150689,60.0,0.6556368569676881,0.25825615091754095,1.8178852897307326e-09,1.2344549189858886e-09
-276.9884899149689,60.0,0.6544088296902453,0.25989302234185585,4.379225181763728e-09,2.9738466285325643e-09
-274.9884899148689,60.0,0.6532235351522644,0.2605082546418509,1.0365409214198309e-08,7.039157932739349e-09
-272.98848991476893,60.0,0.6520981907970073,0.26002684230372325,2.4106643555049968e-08,1.6371347597315802e-08
-270.98848991466895,55.0,0.6510477314321651,0.26116716762550873,5.508724275549636e-08,3.7412146365910045e-08
-268.98848991456896,55.0,0.6500469107846412,0.26336858186968826,1.236893563673196e-07,8.40056173061415e-08
-266.98848991446897,55.0,0.6491013460080323,0.2645127389350039,2.728875858379892e-07,1.853423698821243e-07
-264.988489914369,55.0,0.6482284358527435,0.2644934802503063,5.915734586248884e-07,4.0180477961970363e-07
-262.988489914269,50.0,0.6474436987921938,0.2660119325083456,1.2601158742011085e-06,8.559195798653179e-07
-260.988489914169,50.0,0.6467287908535067,0.268507574106477,2.6375019565123436e-06,1.7915623722766958e-06
-258.988489914069,50.0,0.646080429068924,0.2698220421194385,5.424495756916103e-06,3.6848160195424865e-06
-256.98848991396903,50.0,0.6455169827421567,0.2698404175499264,1.0962615227076311e-05,7.447123512119377e-06
-254.98848991386905,45.0,0.6450554854305899,0.27156289288020813,2.1770143718766495e-05,1.4789528183500778e-05
-252.98848991376906,45.0,0.6446842912259614,0.2745867942859183,4.24820085779994e-05,2.8861401753591123e-05
-250.98848991366907,45.0,0.6443859813296716,0.27655691363722956,8.146102855831447e-05,5.534550699067283e-05
-248.98848991356908,45.0,0.6441798774383588,0.2773286466982053,0.00015349721764849845,0.00010429269043303943
-246.9884899134691,40.0,0.6440846874291006,0.28078616156760244,0.0002842246650399265,0.00019312425509442844
-244.9884899133691,40.0,0.644093677646637,0.28620709473906325,0.0005171764281264402,0.00035142796781746264
-242.98848991326912,40.0,0.6441724531844198,0.2904318184282183,0.0009247762227555087,0.0006284311059788907
-240.98848991316913,40.0,0.6443415175703273,0.29325803724195676,0.001625028711153213,0.0011043491232938364
-238.98848991306915,35.0,0.6446218087143221,0.3002986336400987,0.0028061931559365434,0.0019071646810624949
-236.98848991296916,35.0,0.6450102301603541,0.31080641884005494,0.004762249258514175,0.003236749002737116
-234.98848991286917,35.0,0.6454482177928166,0.32027562502366247,0.007942383218425032,0.0053985238251056025
-232.98848991276918,35.0,0.6459575380804349,0.3284064081389457,0.013017873117560582,0.008848966628505803
-230.9884899126692,30.0,0.6465618465682575,0.33721094601774104,0.020969412052071666,0.014255032254840342
-228.9884899125692,30.0,0.6472677977754587,0.346550504659664,0.03319680212614612,0.022568814743781633
-226.98848991246922,30.0,0.6479917559341997,0.3546219354455104,0.05165079193898599,0.03511730630038716
-224.98848991236923,30.0,0.6487562289504459,0.3612534081784907,0.07898336372386663,0.053704754582338116
-222.98848991226924,25.0,0.6495868674066844,0.36668411992897765,0.11870787679254474,0.08072178768484897
-220.98848991216926,25.0,0.650512938531026,0.37122486273418154,0.17535424227409946,0.11925123578417039
-218.98848991206927,25.0,0.6514435535540565,0.3746319341855642,0.25459717691075867,0.1731557250575625
-216.98848991196928,25.0,0.6524012282414305,0.3768341064135601,0.3633284175673177,0.24712723474015685
-214.9884899118693,20.0,0.6534120961519626,0.3808450782024789,0.5096378754537596,0.3466747771041372
-212.9884899117693,20.0,0.6545266219135633,0.38621651948475894,0.7026657473355424,0.4780243239506432
-210.98848991166932,20.0,0.6556459900208906,0.3905086087206357,0.952289437555818,0.6479063268212044
-208.98848991156933,20.0,0.6567914461246307,0.39362521896162334,1.2686174891652233,0.8632118277729499
-206.98848991146934,15.0,0.6579881343325487,0.3990687481616426,1.6612787029012166,1.1305090056293043
-204.98848991136936,15.0,0.6593023807229053,0.4064738790406894,2.1385183116856448,1.4554281049464137
-202.98848991126937,15.0,0.6606182483903899,0.41306825976122247,2.7061430826352013,1.841943110925483
-200.98848991116938,15.0,0.6619542599144408,0.4187997049013752,3.3663904597866634,2.2916011751046916
-198.9884899110694,10.0,0.6633330695978156,0.4234248374654609,4.116828665754981,2.8027724883850413
-196.9884899109694,10.0,0.6648390542509491,0.4274399437692506,4.949419261978809,3.3700101016972965
-194.98848991086942,10.0,0.6663487441174136,0.4311355120475948,5.849884994068082,3.9836170007030143
-192.98848991076943,10.0,0.6678745546561001,0.4345028984902692,6.797518707721659,4.629513057685381
-190.98848991066944,5.0,0.6694330520931506,0.4381375995638192,7.7655407664819265,5.2894752893421755
-188.98848991056946,5.0,0.6711236320622401,0.4420842592532625,8.722063023661855,5.941791318999472
-186.98848991046947,5.0,0.6728294282908434,0.44589715041025874,9.631651110488384,6.562320854820793
-184.98848991036948,5.0,0.6745537668098636,0.4495672287631723,10.457401425330918,7.125908661579707
-182.9884899102695,0.0,0.6763041062099994,0.45345789071131143,11.16337536204244,7.608042142292307
-180.9884899101695,0.0,0.6781853874882844,0.45761730034562415,11.717172767130243,7.9866052731304435
-178.98848991006952,0.0,0.6800951070552568,0.461780097134616,12.092390188444156,8.243555636023743
-176.98848990996953,0.0,0.6820258036376817,0.46594835899650655,12.270704911259052,8.366347965933626
-174.98848990986954,6.0,0.6839741125275387,0.46689314068797955,12.243356014198604,8.348948013757681
-172.98848990976956,6.0,0.6860628881964379,0.4722848448022757,12.011855990226444,8.19232280089157
-170.98848990966957,6.0,0.6881892044858263,0.47733707719701235,11.587852678092016,7.904351961777843
-168.98848990956958,6.0,0.6903349163505176,0.48206292653184735,10.992158987496707,7.499171444027227
-166.9884899094696,12.0,0.6924858776132743,0.48563142889970357,10.25306281774397,6.996025584077443
-164.9884899093696,12.0,0.6947947458795276,0.4902434750071545,9.404107857432333,6.417757080014842
-162.98848990926962,12.0,0.6971491953777691,0.4943761452567883,8.481586791013614,5.789099241519104
-160.98848990916963,12.0,0.69952198291663,0.4980463796499549,7.522005797570489,5.134946964168293
-158.98848990906964,18.0,0.7018897439229034,0.50581086998045,6.559762694936747,4.478771830214312
-156.98848990896965,18.0,0.704418006232746,0.5133031856446495,5.625235584018794,3.84131590232228
-154.98848990886967,18.0,0.7069987323764938,0.519763149447658,4.743413394400404,3.239654267721522
-152.98848990876968,18.0,0.7095982694434576,0.5251763609926696,3.9331255151954085,2.686665826584411
-150.9884899086697,24.0,0.7121867659357698,0.5364129388610301,3.2068559745055563,2.19090288040952
-148.9884899085697,24.0,0.7149225431865783,0.5423034722296578,2.5710678487327936,1.7568092173360894
-146.98848990846972,24.0,0.7177149876741465,0.5468338484245012,2.0269220473671012,1.3852079366551315
-144.98848990836973,24.0,0.7205273732678935,0.5500295422742227,1.5712539352408643,1.0739660074553359
-142.98848990826974,30.0,0.723326572738589,0.5608182240170041,1.1976705030030086,0.8187419132402235
-140.98848990816975,30.0,0.7262525611675158,0.5668930839275805,0.8976463012423441,0.6137332060323129
-138.98848990806977,30.0,0.7292387820736177,0.571478142689553,0.6615227909001637,0.45235875908069034
-136.98848990796978,30.0,0.7322467692670055,0.5745804313894276,0.4793473407984323,0.32783201835784803
-134.9884899078698,36.0,0.7352414006444877,0.5834090646749693,0.34151957644290887,0.2336030265642865
-132.9884899077698,36.0,0.7383507109135466,0.5889183517144005,0.23924014949419237,0.1636656895514651
-130.98848990766982,36.0,0.7415313484175334,0.5924729537779239,0.1647778175197794,0.11274100083744244
-128.98848990756983,36.0,0.7447446569875745,0.5941145438717216,0.11158410909805792,0.07635611810885162
-126.98848990746983,42.0,0.7479549409974765,0.6050289443334523,0.07429118496197443,0.05084355085752287
-124.98848990736983,42.0,0.7512763904874286,0.6117652026776979,0.04862904098243244,0.03328511776715316
-122.98848990726982,42.0,0.7546886306297372,0.6161539074567666,0.031294610116968956,0.021422907791626634
-120.98848990716982,42.0,0.7581548527664895,0.6183220635351033,0.0197993332659693,0.01355540721446659
-118.98848990706982,48.0,0.7616401694486573,0.6304923086315033,0.012314885710314763,0.008432263074086852
-116.98848990696982,48.0,0.765227287526205,0.6377602516465579,0.007530096125247549,0.00515661438827736
-114.98848990686982,48.0,0.768914453111282,0.642407550833979,0.004526394640458952,0.00310002739974428
-112.98848990676981,48.0,0.7726679380859864,0.6445704743743217,0.0026747148151386583,0.0018320536335029035
-110.98848990666981,54.0,0.7764546194374119,0.6532951462222303,0.0015536998656612737,0.001064324395709674
-108.98848990656981,54.0,0.7803317034218876,0.6581140939575081,0.0008871821209235648,0.0006078052805412221
-106.98848990646981,54.0,0.7843121654440147,0.6605176016081857,0.0004979731463915588,0.00034119372218044505
-104.98848990636981,54.0,0.7883648115736535,0.6606599511167741,0.00027475026154796925,0.0001882674663535847
-102.9884899062698,60.0,0.7924579315037551,0.6702721687798698,0.00014900505804392165,0.00010211249387427359
-100.9884899061698,60.0,0.7966288894528948,0.6784396358750594,7.94303342805277e-05,5.443818595020812e-05
-98.9884899060698,60.0,0.8009000016483605,0.6840381796997421,4.161847547868371e-05,2.852604100178355e-05
-96.9884899059698,60.0,0.8052418120259444,0.6871617506717353,2.1433466295934112e-05,1.4692122839431467e-05
-94.9884899058698,66.0,0.8096234978767703,0.6969170911403315,1.0849191186564404e-05,7.437467089124272e-06
-92.9884899057698,66.0,0.8140644947795419,0.7036282835178489,5.397509761579695e-06,3.70045791482893e-06
-90.9884899056698,66.0,0.8185962052207816,0.707848180278206,2.6392057189575825e-06,1.809541005632871e-06
-88.98848990556979,66.0,0.8231905822611771,0.7096946923447456,1.2683221961574277e-06,8.69674583219046e-07
-86.98848990546979,72.0,0.8278175328851807,0.718153845691528,5.990395538017786e-07,4.107840426105544e-07
-84.98848990536979,72.0,0.8324870833632252,0.7252988941361929,2.780636309266883e-07,1.906918143463289e-07
-82.98848990526979,72.0,0.8372399530483597,0.7300080896533012,1.2684960100113908e-07,8.699728790500476e-08
-80.98848990516979,72.0,0.8420483553419243,0.7323598615748692,5.6870088933683234e-08,3.900571553573205e-08
-78.98848990506978,78.0,0.8468818880521319,0.7414241987438717,2.5056619284010112e-08,1.718674254759157e-08
-76.98848990496978,78.0,0.8517424171424269,0.7495868620636701,1.0849229711021256e-08,7.442105370404376e-09
-74.98848990486978,78.0,0.8566764316883582,0.7552011045169409,4.616443403691556e-09,3.1668634065977967e-09
-72.98848990476978,78.0,0.8616559394180437,0.7583357893409981,1.930380141709242e-09,1.3243070513020768e-09
-70.98848990466978,84.0,0.8666499239730074,0.7666977347816275,7.932309116503122e-10,5.442127057123376e-10
-68.98848990456978,84.0,0.8716563266795917,0.7742285970121061,3.2031172903941103e-10,2.197679121390932e-10
-66.98848990446977,84.0,0.8767273385290436,0.7792764314692882,1.2710353926979298e-10,8.721088788896171e-11
-64.98848990436977,84.0,0.8818323698802978,0.7819018562314675,4.956206662387758e-11,3.400817742651938e-11
-62.98848990426977,90.0,0.886937754562687,0.7896873825629814,1.8990819280572408e-11,1.3031602752727614e-11
-60.98848990416977,90.0,0.8920347556353891,0.7973040745198919,7.150497982597218e-12,4.906930729281689e-12
-58.988489904069766,90.0,0.8971791210026315,0.8022305301385038,2.6455935370961657e-12,1.8155809718909492e-12
-56.988489903969764,90.0,0.9023375692224647,0.8045042578972752,9.618344601804467e-13,6.601020511952939e-13
-54.98848990386976,96.0,0.9074739270256885,0.8128100633581081,3.4360876609850126e-13,2.358265220105833e-13
-52.98848990376976,96.0,0.9125516674130156,0.8223147934817338,1.2061777422274757e-13,8.27859855905225e-14
-50.98848990366976,96.0,0.9176357156689153,0.8289380309679991,4.160429871244475e-14,2.855619171160516e-14
-48.98848990356976,96.0,0.9226930276970778,0.8326634042020056,1.4100734300416167e-14,9.678763422910868e-15
-46.988489903469755,102.0,0.9276880019390141,0.8405543041823715,4.6959000067033476e-15,3.223387854755017e-15
-44.988489903369754,102.0,0.9325529913060768,0.8488602761982847,1.5366205872240318e-15,1.0548130447027506e-15
-42.98848990326975,102.0,0.9373787939748575,0.8540122467278691,4.940630771571167e-16,3.391610151644678e-16
-40.98848990316975,102.0,0.9421340931065268,0.8560027004894126,1.5608583057861532e-16,1.071522450949268e-16
-38.98848990306975,108.0,0.9467854890830494,0.8631059354074215,4.8451519801785146e-17,3.3262820530055506e-17
-36.98848990296975,108.0,0.9512390197478253,0.8723464351362498,1.4777868966324893e-17,1.0145582289503292e-17
-34.988489902869745,108.0,0.9556131610390929,0.8783201432908974,4.428681605644944e-18,3.0405543209888215e-18
-32.98848990276974,108.0,0.9598795625799529,0.8810182631884682,1.3040469145533234e-18,8.953324562869024e-19
-30.98848990266974,114.0,0.9640081344514098,0.8883080523109255,3.772819801426666e-19,2.5904168601859866e-19
-28.98848990256974,114.0,0.9678806960864855,0.898272283076084,1.0724846394059396e-19,7.363882573630749e-20
-26.988489902469738,114.0,0.9716287097561224,0.9048095222641075,2.9954801744158776e-20,2.0568097046258182e-20
-24.988489902369736,114.0,0.9752276969944886,0.9078738636942856,8.220352522776443e-21,5.6445551505546985e-21
-22.988489902269734,120.0,0.9786518693712494,0.915414763964482,2.2164677706120223e-21,1.5219908940873745e-21
-20.988489902169732,120.0,0.9817700887889569,0.9257473133342373,5.871888910736011e-22,4.032176853764304e-22
-18.98848990206973,120.0,0.9847179248469712,0.9323787712186173,1.528404115643377e-22,1.0495685630652297e-22
-16.98848990196973,120.0,0.9874761925441503,0.9352682938974133,3.9087791424144634e-23,2.6842588886086414e-23
-14.988489901869729,126.0,0.9900248633284565,0.9429618220479987,9.821671934149986e-24,6.744956237475877e-24
-12.988489901769729,126.0,0.9922174972253102,0.954659895392425,2.424778222347614e-24,1.665236988656768e-24
-10.988489901669729,126.0,0.9941870272192398,0.9625208809586479,5.882216290071148e-25,4.039767963456354e-25
-8.988489901569729,126.0,0.995920898518799,0.9664647243629054,1.404626544011696e-25,9.647424548043881e-26
-6.988489901469729,132.0,0.9974062567769888,0.974876839296799,3.4103786371059743e-26,2.344852413130385e-26
-4.988489901369729,132.0,0.9984830857593332,0.9871761174705905,1.3062297663743427e-26,9.082491947962888e-27
-2.9884899012697286,132.0,0.9992773746972458,0.9954176373401117,2.4968758025336462e-26,1.761770943194519e-26
-0.9884899011697286,132.0,0.9997844506946688,0.999503888535028,9.6827405173184e-26,6.844600440291968e-26
1.0115100989302714,132.0,1.0,0.9994804318598062,3.9292919251397346e-25,2.7778539250074065e-25
3.0115100990302714,132.0,0.9997810719265522,0.9953463734765886,1.571945215962815e-24,1.1113080501387588e-24
5.0115100991302715,132.0,0.9992706651318255,0.987057302393578,6.179087791301145e-24,4.3683858459346736e-24
7.0115100992302715,132.0,0.9984730986529661,0.9747124709409428,2.386151034945569e-23,1.6869179212232505e-23
9.011510099330271,126.0,0.99739304366703,0.9664415212759989,9.052201578848983e-23,6.399552030717146e-23
11.011510099430271,126.0,0.9959047529125731,0.9624526643186819,3.3735977640702627e-22,2.3849975271328693e-22
13.011510099530271,126.0,0.9941680954205868,0.9545467897539509,1.2351380276604788e-21,8.731911697224978e-22
15.011510099630271,126.0,0.9921959299281481,0.9428055567321483,4.442435694856058e-21,3.1406108685798223e-21
17.011510099730273,120.0,0.9900007951147382,0.9352561057529589,1.5696783231567778e-20,1.1096926211727172e-20
19.011510099830275,120.0,0.9874495989189913,0.9323237775532514,5.448594066091169e-20,3.8519040636271415e-20
21.011510099930277,120.0,0.9846890343797681,0.9256492333899817,1.8579883911343266e-19,1.3135084813065135e-19
23.01151010003028,120.0,0.9817391344089145,0.9152748362819525,6.224246811118154e-19,4.400230860356254e-19
25.01151010013028,114.0,0.9786190552189066,0.9078581887384161,2.0484079248986212e-18,1.4481173656630279e-18
27.011510100230282,114.0,0.9751927250334401,0.9047540601516317,6.622661296623354e-18,4.681859640317794e-18
29.011510100330284,114.0,0.9715918744235876,0.8981768865138172,2.1034673807269443e-17,1.4870309887624192e-17
31.011510100430286,114.0,0.967842296569366,0.8881739395490944,6.563370380383838e-17,4.6399082162753845e-17
33.01151010053029,108.0,0.9639684297872588,0.8810055694401115,2.0119017497423456e-16,1.4222872489878957e-16
35.01151010063029,108.0,0.959838101249609,0.8782701072595678,6.058655564027087e-16,4.283065318559507e-16
37.01151010073029,108.0,0.9555702866976367,0.8722585369205207,1.7924060768726597e-15,1.2671047628660772e-15
39.01151010083029,108.0,0.9511950811057787,0.8629809177710421,5.209407311482826e-15,3.682662223910582e-15
41.011510100930295,102.0,0.946740784224976,0.855997511034704,1.487418631718479e-14,1.0514872131400858e-14
43.0115101010303,102.0,0.9420880033205067,0.8539710180945521,4.17227066939755e-14,2.949444202545183e-14
