#lags,ntau,weight_dist,acf,smooth_dist,smooth_weight_dist
-1976.98849,1.0,0.002031463494443671,0.0,0.0,0.0
-1974.9884899999,1.0,0.0020549907276684832,0.0,0.0,0.0
-1972.9884899997999,1.0,0.002079481251461453,0.0,0.0,0.0
-1970.9884899996998,1.0,0.0021044072367900637,0.0,0.0,0.0
-1968.9884899995998,1.0,0.00212967874856977,0.0,0.0,0.0
-1966.9884899994997,2.0,0.0021552101482897826,-0.9999999999994778,0.0,0.0
-1964.9884899993997,2.0,0.002182001081940566,-0.9999999999996461,0.0,0.0
-1962.9884899992996,2.0,0.0022093573566424923,-0.9999999999990246,0.0,0.0
-1960.9884899991996,2.0,0.0022371594288376614,-4.626299343613027e-13,0.0,0.0
-1958.9884899990996,3.0,0.0022652891264872757,-0.8282636676025051,0.0,0.0
-1956.9884899989995,3.0,0.0022949256552652407,-0.7709536679653982,0.0,0.0
-1954.9884899988995,3.0,0.0023252538024049604,-0.5632184934862131,0.0,0.0
-1952.9884899987994,3.0,0.0023561288939438806,-0.1896186560105745,0.0,0.0
-1950.9884899986994,4.0,0.002387404853029704,-0.6079933219412789,0.0,0.0
-1948.9884899985993,4.0,0.0024203753269483805,-0.7414597491454735,0.0,0.0
-1946.9884899984993,4.0,0.0024541712659800537,-0.8392056448811995,0.0,0.0
-1944.9884899983992,4.0,0.002488629141217774,-0.8691747485166488,0.0,0.0
-1942.9884899982992,5.0,0.0025235809442635776,-0.890776912609861,0.0,0.0
-1940.9884899981992,5.0,0.002560414071632722,-0.8008118030358353,0.0,0.0
-1938.988489998099,5.0,0.0025982489898788196,-0.5704936837799951,0.0,0.0
-1936.988489997999,5.0,0.0026369036899577766,-0.2833560447884592,0.0,0.0
-1934.988489997899,6.0,0.0026761881128961333,-0.12896611114589207,0.0,0.0
-1932.988489997799,6.0,0.002717608296289544,-0.021147496944850214,0.0,0.0
-1930.988489997699,6.0,0.002760236668932731,0.1385858567293251,0.0,0.0
-1928.988489997599,6.0,0.0028038743455029197,0.2759038718587348,0.0,0.0
-1926.9884899974988,7.0,0.0028483103616683434,-0.002451400711282331,0.0,0.0
-1924.9884899973988,7.0,0.0028951717227261313,-0.11062398899997379,0.0,0.0
-1922.9884899972988,7.0,0.0029434650530857165,-0.22882143992574533,0.0,0.0
-1920.9884899971987,7.0,0.0029929790500164938,-0.29141990640802024,0.0,0.0
-1918.9884899970987,8.0,0.003043484538261951,-0.20849122129404385,0.0,0.0
-1916.9884899969986,8.0,0.0030966980205518546,-0.09153146602705046,0.0,0.0
-1914.9884899968986,8.0,0.003151569673450073,0.07035424459150644,0.0,0.0
-1912.9884899967985,8.0,0.003207877384427292,0.17413099403420162,0.0,0.0
-1910.9884899966985,9.0,0.0032653738862697193,-0.13560184304249143,0.0,0.0
-1908.9884899965984,9.0,0.0033259224106092678,-0.14833815255928195,0.0,0.0
-1906.9884899964984,9.0,0.0033884040449717445,-0.14108639197831405,0.0,0.0
-1904.9884899963984,9.0,0.003452579570586947,-0.13229899392175612,0.0,0.0
-1902.9884899962983,10.0,0.003518176686475517,-0.3448725924725694,0.0,0.0
-1900.9884899961983,10.0,0.0035872350931665815,-0.45025940686683774,0.0,0.0
-1898.9884899960982,10.0,0.0036585150852262815,-0.5039280099499575,0.0,0.0
-1896.9884899959982,10.0,0.003731752239874291,-0.48218446955388305,0.0,0.0
-1894.9884899958981,11.0,0.0038066413135091895,-0.4872341188343487,0.0,0.0
-1892.988489995798,11.0,0.0038854203195637146,-0.4029262274496085,0.0,0.0
-1890.988489995698,11.0,0.0039667108067596695,-0.25760145237093723,0.0,0.0
-1888.988489995598,11.0,0.0040502163569319325,-0.14167973941520512,0.0,0.0
-1886.988489995498,12.0,0.004135592041195441,-0.0691136423170853,0.0,0.0
-1884.988489995398,12.0,0.004225332593750388,0.058702400918331385,0.0,0.0
-1882.9884899952979,12.0,0.004317912875793344,0.19633118749805084,0.0,0.0
-1880.9884899951978,12.0,0.004412994710982321,0.28600744433109115,0.0,0.0
-1878.9884899950978,13.0,0.004510183450332811,0.27687019322469686,0.0,0.0
-1876.9884899949977,13.0,0.004612251670220574,0.2649213080003557,0.0,0.0
-1874.9884899948977,13.0,0.004717495057793763,0.20522068329828658,0.0,0.0
-1872.9884899947976,13.0,0.004825525969697838,0.12923049183478205,0.0,0.0
-1870.9884899946976,14.0,0.0049358924567380925,0.4052466439107869,0.0,0.0
-1868.9884899945976,14.0,0.005051684536263084,0.5409857844955841,0.0,0.0
-1866.9884899944975,14.0,0.005171008164912268,0.6170524918238249,0.0,0.0
-1864.9884899943975,14.0,0.005293299294014334,0.6329394358103115,0.0,0.0
-1862.9884899942974,15.0,0.005417941191287557,0.759352452437168,0.0,0.0
-1860.9884899941974,15.0,0.0055480493262598605,0.7604271517262915,0.0,0.0
-1858.9884899940973,15.0,0.005681590395269395,0.6692541225493208,0.0,0.0
-1856.9884899939973,15.0,0.005817817476750043,0.5249639111360722,0.0,0.0
-1854.9884899938972,16.0,0.005955948933991157,0.4412998040917473,0.0,0.0
-1852.9884899937972,16.0,0.006098135101005902,0.3955932817733524,0.0,0.0
-1850.9884899936972,16.0,0.006243075723127911,0.2962799341875514,0.0,0.0
-1848.988489993597,16.0,0.0063899690461133056,0.18904505026969043,0.0,0.0
-1846.988489993497,17.0,0.006537984700972428,0.37600519765411133,0.0,0.0
-1844.988489993397,17.0,0.006687669857914934,0.43406112423512083,0.0,0.0
-1842.988489993297,17.0,0.006839143964760773,0.44537056395078084,0.0,0.0
-1840.988489993197,17.0,0.006991574622410412,0.42797876865711126,0.0,0.0
-1838.988489993097,18.0,0.00714411096332616,0.4589391416286582,0.0,0.0
-1836.9884899929968,18.0,0.007295769824026397,0.3981709942643189,0.0,0.0
-1834.9884899928968,18.0,0.007448081835451049,0.31387191668737197,0.0,0.0
-1832.9884899927968,18.0,0.00760021287715575,0.22626400633402727,0.0,0.0
-1830.9884899926967,19.0,0.00775132206251959,0.2661835101500276,0.0,0.0
-1828.9884899925967,19.0,0.007899414185706452,0.22391712319357507,0.0,0.0
-1826.9884899924966,19.0,0.00804708315377249,0.17247056045180414,0.0,0.0
-1824.9884899923966,19.0,0.008193522204283998,0.12078845737347643,0.0,0.0
-1822.9884899922965,20.0,0.008337928574173521,0.11653170072358976,0.0,0.0
-1820.9884899921965,20.0,0.008477951638513535,0.040703773172322336,0.0,0.0
-1818.9884899920964,20.0,0.00861663673683926,-0.03262500469481511,0.0,0.0
-1816.9884899919964,20.0,0.008753238069737377,-0.0939957805082482,0.0,0.0
-1814.9884899918964,21.0,0.008887022529161187,-0.08675204461614441,0.0,0.0
-1812.9884899917963,21.0,0.009015337311295533,-0.14558930736178594,0.0,0.0
-1810.9884899916963,21.0,0.009141474832615423,-0.19406069821309382,0.0,0.0
-1808.9884899915962,21.0,0.009264781016602877,-0.22757050206091595,0.0,0.0
-1806.9884899914962,22.0,0.009384621234864478,-0.1913569475207676,0.0,0.0
-1804.9884899913961,22.0,0.009498363049132003,-0.2249407437392992,0.0,0.0
-1802.988489991296,22.0,0.009609514109988386,-0.2477968774007243,0.0,0.0
-1800.988489991196,22.0,0.009717534569849617,-0.25916971652696835,0.0,0.0
-1798.988489991096,22.0,0.009821902954167551,-0.21259447551421246,0.0,0.0
-1796.988489990996,22.0,0.009920872178276271,-0.23198930056880251,0.0,0.0
-1794.988489990896,22.0,0.010017724648479128,-0.24268962561270516,0.0,0.0
-1792.9884899907959,22.0,0.010112041174766632,-0.24472429469238466,0.0,0.0
-1790.9884899906958,21.0,0.010203405885978583,-0.26397219950595374,0.0,0.0
-1788.9884899905958,21.0,0.010290594989977073,-0.27672662829651173,0.0,0.0
-1786.9884899904957,21.0,0.010376285667105509,-0.28014272822152797,0.0,0.0
-1784.9884899903957,21.0,0.01046016138627811,-0.27577078882000006,0.0,0.0
-1782.9884899902956,20.0,0.010541892948116874,-0.29541339689341445,0.0,0.0
-1780.9884899901956,20.0,0.010620092927380953,-0.30912117726473154,0.0,0.0
-1778.9884899900956,20.0,0.010696999940573389,-0.31364427466571365,0.0,0.0
-1776.9884899899955,20.0,0.010772381976504436,-0.3102746275537789,0.0,0.0
-1774.9884899898955,19.0,0.010845986027946121,-0.33071947601836904,0.0,0.0
-1772.9884899897954,19.0,0.010916426201474322,-0.3451956964209133,0.0,0.0
-1770.9884899896954,19.0,0.010985639268539342,-0.35053851186227025,0.0,0.0
-1768.9884899895953,19.0,0.011053471335754888,-0.3479904281948787,0.0,0.0
-1766.9884899894953,18.0,0.011119741979568935,-0.3633225769097226,0.0,0.0
-1764.9884899893952,18.0,0.01118318128063805,-0.3723300578412604,0.0,0.0
-1762.9884899892952,18.0,0.011245526216987508,-0.37274244998949646,0.0,0.0
-1760.9884899891952,18.0,0.011306694511377852,-0.3661840603404407,0.0,0.0
-1758.9884899890951,17.0,0.011366572503747709,-0.3849401703461969,0.0,0.0
-1756.988489988995,17.0,0.011423946511857519,-0.3994774108894724,0.0,0.0
-1754.988489988895,17.0,0.011480325988190336,-0.40653316221919633,0.0,0.0
-1752.988489988795,17.0,0.011535694546567209,-0.4065234902932606,0.0,0.0
-1750.988489988695,16.0,0.011590001277586479,-0.3982204434581402,0.0,0.0
-1748.988489988595,16.0,0.011642430617120593,-0.38290626183268306,0.0,0.0
-1746.9884899884948,16.0,0.011694525526872404,-0.36145460518352523,0.0,0.0
-1744.9884899883948,16.0,0.011746332396421812,-0.3361201896259292,0.0,0.0
-1742.9884899882948,15.0,0.011797852079410429,-0.31068730545476586,0.0,0.0
-1740.9884899881947,15.0,0.01184847783199906,-0.28040270903406406,0.0,0.0
-1738.9884899880947,15.0,0.011899648003260408,-0.24700804456052278,0.0,0.0
-1736.9884899879946,15.0,0.011951451024181168,-0.2131623553031558,0.0,0.0
-1734.9884899878946,14.0,0.012003917819058126,-0.19064425981428948,0.0,0.0
-1732.9884899877945,14.0,0.012056247575763923,-0.1670003476281138,0.0,0.0
-1730.9884899876945,14.0,0.012109468934409175,-0.14339864476901992,0.0,0.0
-1728.9884899875944,14.0,0.012163680888271492,-0.12160736169055346,0.0,0.0
-1726.9884899874944,13.0,0.01221892346048576,-0.11301720770969706,0.0,0.0
-1724.9884899873944,13.0,0.012274483876056586,-0.10611634304854577,0.0,0.0
-1722.9884899872943,13.0,0.012331186026751541,-0.10125467143449529,0.0,0.0
-1720.9884899871943,13.0,0.012389133576086859,-0.09884142677229843,0.0,0.0
-1718.9884899870942,12.0,0.012448374242920873,-0.06805124674041366,0.0,0.0
-1716.9884899869942,12.0,0.012508425137373609,-0.03623040342139214,0.0,0.0
-1714.9884899868941,12.0,0.012569996954844988,-0.008370279879569231,0.0,0.0
-1712.988489986794,12.0,0.012633207308348684,0.013767187404731263,0.0,0.0
-1710.988489986694,11.0,0.012698121598976573,0.036427328094985,0.0,0.0
-1708.988489986594,11.0,0.012764461860467691,0.05542258518225307,0.0,0.0
-1706.988489986494,11.0,0.012832786900418326,0.06839863947395311,0.0,0.0
-1704.988489986394,11.0,0.012903232204224195,0.07502457283540895,0.0,0.0
-1702.9884899862939,10.0,0.01297588749787099,0.10154398940232245,0.0,0.0
-1700.9884899861938,10.0,0.013050599849321836,0.12467344865227703,0.0,0.0
-1698.9884899860938,10.0,0.013127700139872913,0.14030235721055923,0.0,0.0
-1696.9884899859937,10.0,0.013207356098166652,0.14812306172467885,0.0,0.0
-1694.9884899858937,9.0,0.013289700718774774,0.1649660902229094,0.0,0.0
-1692.9884899857936,9.0,0.013374704278629452,0.17633499638604522,0.0,0.0
-1690.9884899856936,9.0,0.013462412166663565,0.17965513358207147,0.0,0.0
-1688.9884899855936,9.0,0.01355301927555254,0.17554850030182995,0.0,0.0
-1686.9884899854935,8.0,0.013646701640409977,0.18168799076875833,0.0,0.0
-1684.9884899853935,8.0,0.013743454613715065,0.18213409321864388,0.0,0.0
-1682.9884899852934,8.0,0.013842939377584332,0.17469602320814162,0.0,0.0
-1680.9884899851934,8.0,0.01394537661326946,0.16046160546062013,0.0,0.0
-1678.9884899850933,7.0,0.01405099398410357,0.18469873661889732,0.0,0.0
-1676.9884899849933,7.0,0.014159610860172962,0.20788896001766086,0.0,0.0
-1674.9884899848932,7.0,0.01427027554790914,0.22505619689066741,0.0,0.0
-1672.9884899847932,7.0,0.014383230748585399,0.23591123317344612,0.0,0.0
-1670.9884899846932,6.0,0.014498767890021885,0.2683307684058142,0.0,0.0
-1668.9884899845931,6.0,0.014616753326778736,0.29842310595189314,0.0,0.0
-1666.988489984493,6.0,0.014735724807187683,0.32274060522416387,0.0,0.0
-1664.988489984393,6.0,0.014855945529004162,0.34114215204733944,0.0,0.0
-1662.988489984293,5.0,0.014977765418324082,0.3483529087617607,0.0,0.0
-1660.988489984193,5.0,0.015101659433960869,0.3499745928978902,0.0,0.0
-1658.988489984093,5.0,0.015226126801777482,0.3460138814804844,0.0,0.0
-1656.9884899839928,5.0,0.015351449440454792,0.33678629284551515,0.0,0.0
-1654.9884899838928,4.0,0.01547801002737636,0.30467069600845537,0.0,0.0
-1652.9884899837928,4.0,0.015606836697594193,0.2631151706096757,0.0,0.0
-1650.9884899836927,4.0,0.015736290039948236,0.21418799267583058,0.0,0.0
-1648.9884899835927,4.0,0.01586664131868707,0.1598595900154643,0.0,0.0
-1646.9884899834926,3.0,0.015998269254744048,0.0864681746186476,0.0,0.0
-1644.9884899833926,3.0,0.016132493608053262,-0.000776574424240084,0.0,0.0
-1642.9884899832925,3.0,0.016267195076770675,-0.09869241925221689,0.0,0.0
-1640.9884899831925,3.0,0.016402591749348175,-0.20258484621813683,0.0,0.0
-1638.9884899830924,2.0,0.01653901414020473,-0.26369411941646254,0.0,0.0
-1636.9884899829924,2.0,0.016678392616510253,-0.31931905349590056,0.0,0.0
-1634.9884899828924,2.0,0.016818312237549995,-0.3719330121348061,0.0,0.0
-1632.9884899827923,2.0,0.01695884370332455,-0.42051823534904353,0.0,0.0
-1630.9884899826923,1.0,0.017100166482562736,-0.4366288876516071,0.0,0.0
-1628.9884899825922,1.0,0.01724503732650153,-0.4494514394408256,0.0,0.0
-1626.9884899824922,1.0,0.017390936823977847,-0.46178828349231504,0.0,0.0
-1624.9884899823921,1.0,0.017537701706463016,-0.4736350936779406,0.0,0.0
-1622.988489982292,0.0,0.017685270000065235,-0.47465458036366337,0.0,0.0
-1620.988489982192,0.0,0.017837126847773336,-0.4746545803636878,0.0,0.0
-1618.988489982092,0.0,0.017990585463068892,-0.47465458036362784,0.0,0.0
-1616.988489981992,0.0,0.01814519775956534,-0.4746545803636066,0.0,0.0
-1614.988489981892,2.0,0.0183006082683459,-0.3812094714299008,0.0,0.0
-1612.9884899817919,2.0,0.018461490398282293,-0.4102414788191576,0.0,0.0
-1610.9884899816918,2.0,0.018624486835684406,-0.4372345081117426,0.0,0.0
-1608.9884899815918,2.0,0.01878886723424216,-0.46186099028647254,0.0,0.0
-1606.9884899814917,4.0,0.018953982623763726,-0.4464373699947657,0.0,0.0
-1604.9884899813917,4.0,0.019125980559484824,-0.46269488458087304,0.0,0.0
-1602.9884899812917,4.0,0.01930064527630202,-0.4770890048447872,0.0,0.0
-1600.9884899811916,4.0,0.01947699765205348,-0.4891602782148469,0.0,0.0
-1598.9884899810916,6.0,0.019654127183712317,-0.4627361201825353,0.0,0.0
-1596.9884899809915,6.0,0.01983902518921361,-0.4888008270947978,0.0,0.0
-1594.9884899808915,6.0,0.020027049813748064,-0.5120884875210661,0.0,0.0
-1592.9884899807914,6.0,0.020217029502546655,-0.5317038949258732,0.0,0.0
-1590.9884899806914,8.0,0.020407850873991048,-0.5099200427368896,0.0,0.0
-1588.9884899805913,8.0,0.020606724150470074,-0.525774618940536,0.0,0.0
-1586.9884899804913,8.0,0.020809145170198613,-0.5276499555428932,0.0,0.0
-1584.9884899803913,8.0,0.021013824036722667,-0.518508214030563,0.0,0.0
-1582.9884899802912,10.0,0.021219516633545606,-0.3941298107276768,0.0,0.0
-1580.9884899801912,10.0,0.021433375760451196,-0.39093790642805576,0.0,0.0
-1578.9884899800911,10.0,0.02165139621367665,-0.37530170398132684,0.0,0.0
-1576.988489979991,10.0,0.02187219213340284,-0.35015402369659154,0.0,0.0
-1574.988489979891,12.0,0.022094408576097676,-0.29173718142910837,0.0,0.0
-1572.988489979791,12.0,0.02232528940579367,-0.300804153255603,0.0,0.0
-1570.988489979691,12.0,0.022561121405723503,-0.29642184395211685,0.0,0.0
-1568.988489979591,12.0,0.022800455890846737,-0.2798607352297366,0.0,0.0
-1566.9884899794909,14.0,0.02304185755131173,-0.2531685195570547,0.0,0.0
-1564.9884899793908,14.0,0.02329260054142362,-0.25574667168735127,0.0,0.0
-1562.9884899792908,14.0,0.02354918482231709,-0.24523966770750896,0.0,0.0
-1560.9884899791907,14.0,0.02381015516597137,-0.22431986586593672,0.0,0.0
-1558.9884899790907,16.0,0.024074036882649905,-0.18542673174987762,0.0,0.0
-1556.9884899789906,16.0,0.02434773667263155,-0.1910865561755361,0.0,0.0
-1554.9884899788906,16.0,0.02462802664135392,-0.18185925351032992,0.0,0.0
-1552.9884899787905,16.0,0.024913478311979625,-0.16008798562373427,0.0,0.0
-1550.9884899786905,18.0,0.025202600711647427,-0.14418318930742094,0.0,0.0
-1548.9884899785905,18.0,0.02550227766819584,-0.15117657962214487,0.0,0.0
-1546.9884899784904,18.0,0.025809475733683484,-0.14483202605145873,0.0,0.0
-1544.9884899783904,18.0,0.026122763858581578,-0.12822159602891375,0.0,0.0
-1542.9884899782903,20.0,0.026440604072626755,-0.15550733118249685,0.0,0.0
-1540.9884899781903,20.0,0.026770024654510616,-0.18016990272800293,0.0,0.0
-1538.9884899780902,20.0,0.02710785028909838,-0.1922782108759344,0.0,0.0
-1536.9884899779902,20.0,0.027452605827851133,-0.19224861272469043,0.0,0.0
-1534.9884899778901,22.0,0.0278026693925799,-0.19497416385175778,0.0,0.0
-1532.98848997779,22.0,0.028165299959730647,-0.20505618801544256,0.0,0.0
-1530.98848997769,22.0,0.028537095898472774,-0.2025421368180086,0.0,0.0
-1528.98848997759,22.0,0.028916509540177777,-0.18978091616591058,0.0,0.0
-1526.98848997749,24.0,0.029301809757625655,-0.19461441163858284,0.0,0.0
-1524.98848997739,24.0,0.029700853769171073,-0.2076010321958366,0.0,0.0
-1522.9884899772899,24.0,0.030109995220321588,-0.20930173942680774,0.0,0.0
-1520.9884899771898,24.0,0.030527561537678282,-0.20195136597788615,0.0,0.0
-1518.9884899770898,26.0,0.030951660682222246,-0.21275030397777742,0.0,0.0
-1516.9884899769897,26.0,0.031390821788831035,-0.21479904766905902,0.0,0.0
-1514.9884899768897,26.0,0.03184095020239229,-0.2085948330043334,0.0,0.0
-1512.9884899767897,26.0,0.032300215696252695,-0.1969448910588931,0.0,0.0
-1510.9884899766896,28.0,0.03276653610472058,-0.22601651715313067,0.0,0.0
-1508.9884899765896,28.0,0.03324932413693589,-0.23311934552556426,0.0,0.0
-1506.9884899764895,28.0,0.033743997492482705,-0.23416432465241002,0.0,0.0
-1504.9884899763895,28.0,0.034248132479729035,-0.23066023163822374,0.0,0.0
-1502.9884899762894,30.0,0.03475908785624767,-0.259119687871469,0.0,0.0
-1500.9884899761894,30.0,0.035286242578480544,-0.27065874134640266,0.0,0.0
-1498.9884899760893,30.0,0.035824661041340224,-0.2761757010143607,0.0,0.0
-1496.9884899759893,30.0,0.03637130404372862,-0.276443600640212,0.0,0.0
-1494.9884899758893,32.0,0.03692297281576081,-0.30255200569275337,0.0,0.0
-1492.9884899757892,32.0,0.03748558584339262,-0.3129656562796063,0.0,0.0
-1490.9884899756892,32.0,0.038056673913864386,-0.31676843806594723,0.0,0.0
-1488.9884899755891,32.0,0.038633031681719825,-0.31436651082767253,0.0,0.0
-1486.988489975489,34.0,0.03921131760847139,-0.3271744515861086,0.0,0.0
-1484.988489975389,34.0,0.03979191835599789,-0.3313451544555808,0.0,0.0
-1482.988489975289,34.0,0.04037719274611594,-0.3279668455349855,0.0,0.0
-1480.988489975189,34.0,0.04096387245768064,-0.31934747262497054,0.0,0.0
-1478.988489975089,36.0,0.0415485921437651,-0.34038470951213506,0.0,0.0
-1476.9884899749889,36.0,0.04212650568764013,-0.3531868605114691,0.0,0.0
-1474.9884899748888,36.0,0.04270477081076669,-0.3595724645757662,0.0,0.0
-1472.9884899747888,36.0,0.04328017021417267,-0.3604221732786532,0.0,0.0
-1470.9884899746887,38.0,0.04384943227966327,-0.38068281280516314,0.0,0.0
-1468.9884899745887,38.0,0.044404149451750224,-0.3933288594472384,0.0,0.0
-1466.9884899744886,38.0,0.04495496447055911,-0.39971167063402113,0.0,0.0
-1464.9884899743886,38.0,0.04549881916108768,-0.40030915167463377,0.0,0.0
-1462.9884899742885,40.0,0.04603264257053535,-0.4275870944478696,0.0,0.0
-1460.9884899741885,40.0,0.04654669898086186,-0.44830681263163497,0.0,0.0
-1458.9884899740885,40.0,0.04705305263417236,-0.46165185005238474,0.0,0.0
-1456.9884899739884,40.0,0.047548938245332295,-0.46768711664104534,0.0,0.0
-1454.9884899738884,42.0,0.048031613668472625,-0.49565923849372673,0.0,0.0
-1452.9884899737883,42.0,0.048490144247372184,-0.5171885803466083,0.0,0.0
-1450.9884899736883,42.0,0.04893726812195304,-0.5300919837291573,0.0,0.0
-1448.9884899735882,42.0,0.0493706366247048,-0.5344606551171628,0.0,0.0
-1446.9884899734882,44.0,0.049787955639136586,-0.5562097799629615,0.0,0.0
-1444.9884899733881,44.0,0.05017813529290785,-0.570382918227085,0.0,0.0
-1442.988489973288,44.0,0.05055442857812583,-0.5754199037675294,0.0,0.0
-1440.988489973188,44.0,0.05091499862176158,-0.5719739288479175,0.0,0.0
-1438.988489973088,44.0,0.05125807184048231,-0.5959472212686949,0.0,0.0
-1436.988489972988,44.0,0.05157578078813183,-0.6134053842654663,0.0,0.0
-1434.988489972888,44.0,0.051880983704423296,-0.6216972087932636,0.0,0.0
-1432.9884899727879,44.0,0.05217239694856609,-0.6212765877904693,0.0,0.0
-1430.9884899726878,42.0,0.052448751285898425,-0.6462295441984838,0.0,0.0
-1428.9884899725878,42.0,0.05270422137475253,-0.6684487292038941,0.0,0.0
-1426.9884899724877,42.0,0.052950039171374155,-0.6815840090377296,0.0,0.0
-1424.9884899723877,42.0,0.05318540748198393,-0.6858816977253184,0.0,0.0
-1422.9884899722877,40.0,0.0534094790824746,-0.7020923049795151,0.0,0.0
-1420.9884899721876,40.0,0.053615704655766795,-0.7131934576459351,0.0,0.0
-1418.9884899720876,40.0,0.05381367689344988,-0.715329914663638,0.0,0.0
-1416.9884899719875,40.0,0.05400300124017279,-0.7090990973800924,0.0,0.0
-1414.9884899718875,38.0,0.054183196455598784,-0.724610605173997,0.0,0.0
-1412.9884899717874,38.0,0.054347582703694504,-0.7368218399774507,0.0,0.0
-1410.9884899716874,38.0,0.05450456100694061,-0.7402665454843149,0.0,0.0
-1408.9884899715873,38.0,0.05465409321974502,-0.7353956732253448,0.0,0.0
-1406.9884899714873,36.0,0.05479602852276808,-0.7478687096324321,0.0,0.0
-1404.9884899713873,36.0,0.054924013909119336,-0.7574751942473215,0.0,0.0
-1402.9884899712872,36.0,0.05504563244383474,-0.7594024148418251,0.0,0.0
-1400.9884899711872,36.0,0.0551611554519007,-0.7536904038277539,0.0,0.0
-1398.9884899710871,34.0,0.055270719184877096,-0.7661240847533557,0.0,0.0
-1396.988489970987,34.0,0.055368178478174775,-0.7758483083581759,0.0,0.0
-1394.988489970887,34.0,0.05546010893011498,-0.7780540411817836,0.0,0.0
-1392.988489970787,34.0,0.05554705724675237,-0.7729324143404968,0.0,0.0
-1390.988489970687,32.0,0.055629420194296744,-0.782101513293268,0.0,0.0
-1388.988489970587,32.0,0.05570255748762757,-0.7880808166184037,0.0,0.0
-1386.9884899704869,32.0,0.055772895838284535,-0.7868563681390166,0.0,0.0
-1384.9884899703868,32.0,0.055841228764414524,-0.7786889900545078,0.0,0.0
-1382.9884899702868,30.0,0.055908157725340496,-0.7878253471097687,0.0,0.0
-1380.9884899701867,30.0,0.05596993325258738,-0.7945324503802823,0.0,0.0
-1378.9884899700867,30.0,0.05603232222484822,-0.7941773417202792,0.0,0.0
-1376.9884899699866,30.0,0.056096270406800444,-0.786881313634566,0.0,0.0
-1374.9884899698866,28.0,0.056162488896913526,-0.7942686735008907,0.0,0.0
-1372.9884899697865,28.0,0.056226678551780034,-0.7993505119222332,0.0,0.0
-1370.9884899696865,28.0,0.05629295373564215,-0.7981155282266148,0.0,0.0
-1368.9884899695865,28.0,0.056362272681224575,-0.7907603597476414,0.0,0.0
-1366.9884899694864,26.0,0.0564353552403221,-0.8055765085148299,0.0,0.0
-1364.9884899693864,26.0,0.056508287745112754,-0.8197395538667316,0.0,0.0
-1362.9884899692863,26.0,0.05658440250514548,-0.8277974206599699,0.0,0.0
-1360.9884899691863,26.0,0.056664649107559376,-0.8297350056946359,0.0,0.0
-1358.9884899690862,24.0,0.056749752641758786,-0.8373773633159969,0.0,0.0
-1356.9884899689862,24.0,0.05683667536720889,-0.8411762040197278,0.0,0.0
-1354.9884899688861,24.0,0.05692823366684831,-0.8386975042482303,0.0,0.0
-1352.988489968786,24.0,0.0570254187128661,-0.8300532195884673,0.0,0.0
-1350.988489968686,22.0,0.057129016234900784,-0.825397416799764,0.0,0.0
-1348.988489968586,22.0,0.05723678732133184,-0.8164964385921989,0.0,0.0
-1346.988489968486,22.0,0.057350824748353166,-0.80139464965635,0.0,0.0
-1344.988489968386,22.0,0.05747217854432878,-0.780358668775202,0.0,0.0
-1342.9884899682859,20.0,0.057601724394192554,-0.7779559714081201,0.0,0.0
-1340.9884899681858,20.0,0.057737861386253544,-0.7745647774552052,0.0,0.0
-1338.9884899680858,20.0,0.05788170579865137,-0.7654393440040572,0.0,0.0
-1336.9884899679857,20.0,0.058034432325194306,-0.7507121703493379,0.0,0.0
-1334.9884899678857,18.0,0.05819708886729591,-0.7520979970519669,0.0,0.0
-1332.9884899677857,18.0,0.05836869663996145,-0.7526834443657613,0.0,0.0
-1330.9884899676856,18.0,0.05854903290270526,-0.7482054515644971,0.0,0.0
-1328.9884899675856,18.0,0.05873938396950125,-0.7387220618741621,0.0,0.0
-1326.9884899674855,16.0,0.05894097556217639,-0.7395239189623493,0.0,0.0
-1324.9884899673855,16.0,0.05915315812883671,-0.7383511646007594,0.0,0.0
-1322.9884899672854,16.0,0.05937403397592647,-0.7320567301985921,0.0,0.0
-1320.9884899671854,16.0,0.05960500757908101,-0.7206891509455897,0.0,0.0
-1318.9884899670853,14.0,0.059847525455616585,-0.7273323703230046,0.0,0.0
-1316.9884899669853,14.0,0.06010078224636565,-0.7346109478565375,0.0,0.0
-1314.9884899668853,14.0,0.060360390773865624,-0.73770073217333,0.0,0.0
-1312.9884899667852,14.0,0.06062786834284246,-0.7363070038000437,0.0,0.0
-1310.9884899666852,12.0,0.0609049295928231,-0.7429437654460278,0.0,0.0
-1308.9884899665851,12.0,0.061191367910990606,-0.7481898770439904,0.0,0.0
-1306.988489966485,12.0,0.06148048401055992,-0.7492351474126333,0.0,0.0
-1304.988489966385,12.0,0.061773879085200566,-0.7458538185928809,0.0,0.0
-1302.988489966285,10.0,0.06207348978195876,-0.7519374064257435,0.0,0.0
-1300.988489966185,10.0,0.062381493161372044,-0.7580902095306616,0.0,0.0
-1298.988489966085,10.0,0.0626907144965415,-0.7613667572066611,0.0,0.0
-1296.9884899659849,10.0,0.06300279948851144,-0.7615388292858835,0.0,0.0
-1294.9884899658848,8.0,0.0633197802522081,-0.7698048105644955,0.0,0.0
-1292.9884899657848,8.0,0.06364603304635026,-0.7783640881014695,0.0,0.0
-1290.9884899656847,8.0,0.06397366951312085,-0.7846255183119378,0.0,0.0
-1288.9884899655847,8.0,0.0643042569049398,-0.7881401726046751,0.0,0.0
-1286.9884899654846,6.0,0.06463977539103336,-0.795674146698774,0.0,0.0
-1284.9884899653846,6.0,0.0649859985093368,-0.8028349887730215,0.0,0.0
-1282.9884899652845,6.0,0.0653331764569527,-0.8077421618903291,0.0,0.0
-1280.9884899651845,6.0,0.06568263928558886,-0.8097087139886815,0.0,0.0
-1278.9884899650845,4.0,0.06603615062594433,-0.8076339438776882,0.0,0.0
-1276.9884899649844,4.0,0.06640165434619479,-0.8035458615724098,0.0,0.0
-1274.9884899648844,4.0,0.06676838147023492,-0.7976249347618847,0.0,0.0
-1272.9884899647843,4.0,0.06713706643686995,-0.7898191862376363,0.0,0.0
-1270.9884899646843,2.0,0.06750886972624405,-0.7848892896510999,0.0,0.0
-1268.9884899645842,2.0,0.06789421552720319,-0.7804773401143736,0.0,0.0
-1266.9884899644842,2.0,0.06828238676289042,-0.775705208023717,0.0,0.0
-1264.9884899643841,2.0,0.06867319889191836,-0.7705827209433924,0.0,0.0
-1262.988489964284,0.0,0.06906687612101675,-0.7698022736768126,0.0,0.0
-1260.988489964184,0.0,0.06947566987682119,-0.770004801547878,0.0,0.0
-1258.988489964084,0.0,0.0698891509849533,-0.7702057483932466,0.0,0.0
-1256.988489963984,0.0,0.07030602827400091,-0.770405116176589,0.0,0.0
-1254.988489963884,3.0,0.07072539865860196,-0.7838388375095453,0.0,0.0
-1252.9884899637839,3.0,0.07116289038569118,-0.7850671163382115,0.0,0.0
-1250.9884899636838,3.0,0.07160660897348686,-0.7850688918156616,0.0,0.0
-1248.9884899635838,3.0,0.07205416621370708,-0.7839486954903019,0.0,0.0
-1246.9884899634837,6.0,0.07250353317948101,-0.8009141343424145,0.0,0.0
-1244.9884899633837,6.0,0.0729748755936805,-0.8017738919424107,0.0,0.0
-1242.9884899632837,6.0,0.07345401744296101,-0.8017672572975397,0.0,0.0
-1240.9884899631836,6.0,0.07393761802707578,-0.8009954102261645,0.0,0.0
-1238.9884899630836,9.0,0.07442266279261535,-0.8176096986280912,0.0,0.0
-1236.9884899629835,9.0,0.07493173112038677,-0.8195194567798145,0.0,0.0
-1234.9884899628835,9.0,0.0754499219746069,-0.8202820960622832,0.0,0.0
-1232.9884899627834,9.0,0.0759731868132906,-0.8199579199221037,0.0,0.0
-1230.9884899626834,12.0,0.07649777702018783,-0.8374081831318775,0.0,0.0
-1228.9884899625833,12.0,0.07704642541526101,-0.8377974103873344,0.0,0.0
-1226.9884899624833,12.0,0.07760531212226207,-0.8365230113349988,0.0,0.0
-1224.9884899623833,12.0,0.07816999329750275,-0.8337247398881651,0.0,0.0
-1222.9884899622832,15.0,0.07873628881653016,-0.8449673992205191,0.0,0.0
-1220.9884899621832,15.0,0.07932597890439552,-0.8424098319340043,0.0,0.0
-1218.9884899620831,15.0,0.0799273985657592,-0.8380514722571206,0.0,0.0
-1216.988489961983,15.0,0.08053581801729251,-0.8320424021084007,0.0,0.0
-1214.988489961883,18.0,0.08114672737501086,-0.8398474034446091,0.0,0.0
-1212.988489961783,18.0,0.08178156922953045,-0.8367516993402949,0.0,0.0
-1210.988489961683,18.0,0.08243035971568678,-0.8316266732029719,0.0,0.0
-1208.988489961583,18.0,0.08308822529798578,-0.8246664131737054,0.0,0.0
-1206.9884899614829,21.0,0.08375045669070404,-0.8310997407008263,0.0,0.0
-1204.9884899613828,21.0,0.08443794316284159,-0.8275465912629203,0.0,0.0
-1202.9884899612828,21.0,0.0851422059663751,-0.8222006343958846,0.0,0.0
-1200.9884899611827,21.0,0.08585844159007845,-0.8152709001229193,0.0,0.0
-1198.9884899610827,24.0,0.08658189205276907,-0.8199633795265302,0.0,0.0
-1196.9884899609826,24.0,0.08733122770082258,-0.8194876671417997,0.0,0.0
-1194.9884899608826,24.0,0.08809939254894371,-0.8169456328295721,0.0,0.0
-1192.9884899607825,24.0,0.08888178057495975,-0.8125365617838327,0.0,0.0
-1190.9884899606825,27.0,0.08967367786750546,-0.8124871579898173,0.0,0.0
-1188.9884899605825,27.0,0.09049254570842297,-0.8089989624694451,0.0,0.0
-1186.9884899604824,27.0,0.09133240243141419,-0.8037623576626192,0.0,0.0
-1184.9884899603824,27.0,0.09218875136885726,-0.7969702157601251,0.0,0.0
-1182.9884899602823,30.0,0.09305684090757217,-0.7998022735302079,0.0,0.0
-1180.9884899601823,30.0,0.09395354530299306,-0.8022225102067736,0.0,0.0
-1178.9884899600822,30.0,0.09487299476615696,-0.8025258225384547,0.0,0.0
-1176.9884899599822,30.0,0.09581067629393454,-0.8008306108420953,0.0,0.0
-1174.9884899598821,33.0,0.09676169727238482,-0.8068633012421578,0.0,0.0
-1172.988489959782,33.0,0.0977426201190851,-0.8105447167465532,0.0,0.0
-1170.988489959682,33.0,0.09874749582096806,-0.8121512591511213,0.0,0.0
-1168.988489959582,33.0,0.09977171885703275,-0.8117646172253619,0.0,0.0
-1166.988489959482,36.0,0.10081019390624096,-0.817330132296507,0.0,0.0
-1164.988489959382,36.0,0.10188034955776447,-0.8207400421326374,0.0,0.0
-1162.9884899592819,36.0,0.10297612809530891,-0.8220719047581592,0.0,0.0
-1160.9884899591818,36.0,0.10409266618688748,-0.8213927440868821,0.0,0.0
-1158.9884899590818,39.0,0.10522450713008123,-0.8271851566349673,0.0,0.0
-1156.9884899589817,39.0,0.10639016332656236,-0.8305775674083459,0.0,0.0
-1154.9884899588817,39.0,0.10758287165644109,-0.8317938386270809,0.0,0.0
-1152.9884899587817,39.0,0.10879741908324084,-0.8309161756663968,0.0,0.0
-1150.9884899586816,42.0,0.11002791056015299,-0.8368242583730772,0.0,0.0
-1148.9884899585816,42.0,0.11129459087394018,-0.843078386174049,0.0,0.0
-1146.9884899584815,42.0,0.11258990408979194,-0.8472110820165595,0.0,0.0
-1144.9884899583815,42.0,0.11390723739264878,-0.8492732834802064,0.0,0.0
-1142.9884899582814,45.0,0.11523936790577773,-0.8561528000145313,0.0,0.0
-1140.9884899581814,45.0,0.11660616232694934,-0.8626782364257628,0.0,0.0
-1138.9884899580813,45.0,0.1179994622999358,-0.8668079712481211,0.0,0.0
-1136.9884899579813,45.0,0.1194112033636066,-0.868569565895195,0.0,0.0
-1134.9884899578813,48.0,0.12083284472875773,-0.877596552130949,0.0,0.0
-1132.9884899577812,48.0,0.12227551121681901,-0.8841082131609341,0.0,0.0
-1130.9884899576812,48.0,0.12373678476580993,-0.8878784676740554,0.0,0.0
-1128.9884899575811,48.0,0.12520825304602842,-0.8889026615616527,0.0,0.0
-1126.988489957481,51.0,0.12668109328783142,-0.8950140466545538,0.0,0.0
-1124.988489957381,51.0,0.128153068152291,-0.8979724378162534,0.0,0.0
-1122.988489957281,51.0,0.12963336770012374,-0.8977019947386873,0.0,0.0
-1120.988489957181,51.0,0.13111352223191272,-0.8942232792012852,0.0,0.0
-1118.988489957081,54.0,0.1325847579043046,-0.8983153686332164,0.0,0.0
-1116.9884899569809,54.0,0.13403234141791065,-0.900939297547017,0.0,0.0
-1114.9884899568808,54.0,0.1354770943577693,-0.9003083012426382,0.0,0.0
-1112.9884899567808,54.0,0.13691079203460657,-0.8964544431199069,0.0,0.0
-1110.9884899566807,57.0,0.13832501344473588,-0.8997817800447134,0.0,0.0
-1108.9884899565807,57.0,0.13969623046542234,-0.9017739630713596,0.0,0.0
-1106.9884899564806,57.0,0.14105338645121004,-0.9003704962753393,0.0,0.0
-1104.9884899563806,57.0,0.1423887762053351,-0.8955959718863042,0.0,0.0
-1102.9884899562805,60.0,0.14369460744041762,-0.89908958597539,0.0,0.0
-1100.9884899561805,60.0,0.1449438930098705,-0.9006386506019999,0.0,0.0
-1098.9884899560805,60.0,0.14616883870476638,-0.8984458321453315,0.0,0.0
-1096.9884899559804,60.0,0.14736261196512757,-0.8925716737071174,0.0,0.0
-1094.9884899558804,63.0,0.14851839186616195,-0.8961011945079473,0.0,0.0
-1092.9884899557803,63.0,0.1496059037006617,-0.8981642431768078,0.0,0.0
-1090.9884899556803,63.0,0.15065869331149473,-0.8963531571691531,0.0,0.0
-1088.9884899555802,63.0,0.1516711283455332,-0.8907163934048081,0.0,0.0
-1086.9884899554802,66.0,0.1526376806190714,-0.894940261040127,0.0,0.0
-1084.9884899553801,66.0,0.15352711860744137,-0.8979902454158538,0.0,0.0
-1082.98848995528,66.0,0.15437378651942876,-0.897077327935068,0.0,0.0
-1080.98848995518,66.0,0.15517351442127214,-0.8922227850172058,0.0,0.0
-1078.98848995508,66.0,0.15592228540042416,-0.8925771178732059,0.0,0.0
-1076.98848995498,66.0,0.15659658373139573,-0.8923476776793551,0.0,0.0
-1074.98848995488,66.0,0.1572306767303664,-0.8881833266352077,0.0,0.0
-1072.9884899547799,66.0,0.15782199676406505,-0.8801413318765643,0.0,0.0
-1070.9884899546798,63.0,0.1583680236078647,-0.8789883551419451,0.0,0.0
-1068.9884899545798,63.0,0.15885042203399727,-0.8772337794152212,0.0,0.0
-1066.9884899544797,63.0,0.15930072295396902,-0.8717034166346302,0.0,0.0
-1064.9884899543797,63.0,0.15971779655396176,-0.8624575767317426,0.0,0.0
-1062.9884899542797,60.0,0.16010039098616413,-0.859314431244567,0.0,0.0
-1060.9884899541796,60.0,0.16042828287777308,-0.8553975340046113,0.0,0.0
-1058.9884899540796,60.0,0.16072886814181353,-0.8477695956543347,0.0,0.0
-1056.9884899539795,60.0,0.16100221194349798,-0.8364918671087949,0.0,0.0
-1054.9884899538795,57.0,0.1612481529999545,-0.8311264098554991,0.0,0.0
-1052.9884899537794,57.0,0.1614460597640471,-0.8250200286981758,0.0,0.0
-1050.9884899536794,57.0,0.1616200717134754,-0.815310844609928,0.0,0.0
-1048.9884899535793,57.0,0.16177128485010217,-0.8020902148945717,0.0,0.0
-1046.9884899534793,54.0,0.1619004908395179,-0.7983034718379353,0.0,0.0
-1044.9884899533793,54.0,0.16198795337713645,-0.7951361665072909,0.0,0.0
-1042.9884899532792,54.0,0.16205546099953463,-0.7886161462569841,0.0,0.0
-1040.9884899531792,54.0,0.16210497279162037,-0.7787285211345271,0.0,0.0
-1038.9884899530791,51.0,0.16213807500456237,-0.7748862860996286,0.0,0.0
-1036.988489952979,51.0,0.16213608521036393,-0.7707168059381813,0.0,0.0
-1034.988489952879,51.0,0.16211750727612428,-0.7632809454866525,0.0,0.0
-1032.988489952779,51.0,0.16208504442456406,-0.7525853428217459,0.0,0.0
-1030.988489952679,48.0,0.1620409787039112,-0.7482576183551097,0.0,0.0
-1028.988489952579,48.0,0.16197116262555328,-0.7438381243040357,0.0,0.0
-1026.9884899524789,48.0,0.1618925556313172,-0.7362914406202552,0.0,0.0
-1024.9884899523788,48.0,0.16180849270582365,-0.7256115955230252,0.0,0.0
-1022.9884899522788,45.0,0.16172177456259845,-0.7222402095402864,0.0,0.0
-1020.9884899521787,45.0,0.16162137781715333,-0.7191716239985803,0.0,0.0
-1018.9884899520787,45.0,0.16152139676961835,-0.7130209939951326,0.0,0.0
-1016.9884899519786,45.0,0.16142551985158485,-0.7037161806400132,0.0,0.0
-1014.9884899518786,42.0,0.16133679351573377,-0.7021174804504986,0.0,0.0
-1012.9884899517785,42.0,0.16124342907236822,-0.7011790086455921,0.0,0.0
-1010.9884899516785,42.0,0.16115468191779211,-0.6973278944223891,0.0,0.0
-1008.9884899515785,42.0,0.16107414866332212,-0.6904384346980199,0.0,0.0
-1006.9884899514784,39.0,0.1610047703830891,-0.6914526750067771,0.0,0.0
-1004.9884899513784,39.0,0.16093574664346422,-0.693244936219586,0.0,0.0
-1002.9884899512783,39.0,0.1608743433234862,-0.6920871801051651,0.0,0.0
-1000.9884899511783,39.0,0.16082401327305604,-0.6877717079533123,0.0,0.0
-998.9884899510782,36.0,0.16078758913731986,-0.6887390577185573,0.0,0.0
-996.9884899509782,36.0,0.16075641643174476,-0.6896067336849321,0.0,0.0
-994.9884899508781,36.0,0.1607364771665039,-0.6874212437603635,0.0,0.0
-992.9884899507781,36.0,0.16073128528112215,-0.6819997724157365,0.0,0.0
-990.9884899506781,33.0,0.16074379392705415,-0.6821039725157699,0.0,0.0
-988.988489950578,33.0,0.1607673284904996,-0.682116731256157,0.0,0.0
-986.988489950478,33.0,0.1608059496250408,-0.6789162866994839,0.0,0.0
-984.9884899503779,33.0,0.16086328367076816,-0.6722832078823755,0.0,0.0
-982.9884899502779,30.0,0.1609424888780636,-0.6727452620384355,0.0,0.0
-980.9884899501778,30.0,0.1610386827798714,-0.6735155732704677,0.0,0.0
-978.9884899500778,30.0,0.1611534007978083,-0.6708151111072884,0.0,0.0
-976.9884899499777,30.0,0.16129057087685936,-0.6644128693339473,0.0,0.0
-974.9884899498777,27.0,0.16145378606284527,-0.6643599968190393,0.0,0.0
-972.9884899497777,27.0,0.16163990615106655,-0.6644834539610798,0.0,0.0
-970.9884899496776,27.0,0.16184677908744663,-0.6611125417221198,0.0,0.0
-968.9884899495776,27.0,0.16207861354409073,-0.6539465665981257,0.0,0.0
-966.9884899494775,24.0,0.16233946450274084,-0.6525469036813027,0.0,0.0
-964.9884899493775,24.0,0.16262731106538464,-0.6508045018358752,0.0,0.0
-962.9884899492774,24.0,0.16293550199882262,-0.6450442448510676,0.0,0.0
-960.9884899491774,24.0,0.1632685645586384,-0.6349237175184888,0.0,0.0
-958.9884899490773,21.0,0.16363114451579533,-0.6340159192045718,0.0,0.0
-956.9884899489773,21.0,0.16402153228670233,-0.6344584127215276,0.0,0.0
-954.9884899488773,21.0,0.16442656202779626,-0.6312132899540948,0.0,0.0
-952.9884899487772,21.0,0.16485108329412776,-0.623768086909705,0.0,0.0
-950.9884899486772,18.0,0.1653004591084463,-0.6244413153504438,0.0,0.0
-948.9884899485771,18.0,0.16577509298769666,-0.6263417265148477,0.0,0.0
-946.9884899484771,18.0,0.16625542107223734,-0.6249469473276348,0.0,0.0
-944.988489948377,18.0,0.16674650874670036,-0.6199486008459993,0.0,0.0
-942.988489948277,15.0,0.1672542804749455,-0.6172108298379404,0.0,0.0
-940.988489948177,15.0,0.16778531057902885,-0.6138624001041744,0.0,0.0
-938.9884899480769,15.0,0.1683183955158574,-0.607747291787963,0.0,0.0
-936.9884899479769,15.0,0.16885866825761842,-0.5987280480416267,0.0,0.0
-934.9884899478768,12.0,0.169412248835948,-0.5981457447949787,0.0,0.0
-932.9884899477768,12.0,0.16999147858210154,-0.5995526482528141,0.0,0.0
-930.9884899476767,12.0,0.17057309537886114,-0.5986720317092986,0.0,0.0
-928.9884899475767,12.0,0.1711619695327879,-0.5950189160810783,0.0,0.0
-926.9884899474766,9.0,0.1717640281182654,-0.594525925737061,0.0,0.0
-924.9884899473766,9.0,0.17239565684821884,-0.5943176683064824,0.0,0.0
-922.9884899472765,9.0,0.17302878653720036,-0.5918837435691358,0.0,0.0
-920.9884899471765,9.0,0.17366762390538204,-0.5866401714853796,0.0,0.0
-918.9884899470765,6.0,0.1743174876336792,-0.5837839337010268,0.0,0.0
-916.9884899469764,6.0,0.17500015610519737,-0.5814333814033237,0.0,0.0
-914.9884899468764,6.0,0.1756850932170949,-0.5777499890050166,0.0,0.0
-912.9884899467763,6.0,0.17637492321932885,-0.5726841979313737,0.0,0.0
-910.9884899466763,3.0,0.17707337146963528,-0.5678361771711418,0.0,0.0
-908.9884899465762,3.0,0.17780766391927402,-0.563009181171268,0.0,0.0
-906.9884899464762,3.0,0.17854803458571636,-0.5577540249028972,0.0,0.0
-904.9884899463761,3.0,0.1792947044764854,-0.5520830294660997,0.0,0.0
-902.9884899462761,0.0,0.18004896630055736,-0.5458998320951044,0.0,0.0
-900.9884899461761,0.0,0.18084143574768516,-0.5395984201699799,0.0,0.0
-898.988489946076,0.0,0.18164441177727625,-0.5332738939872496,0.0,0.0
-896.988489945976,0.0,0.18245523812767886,-0.5269319541540494,0.0,0.0
-894.9884899458759,4.0,0.18327229316927832,-0.4985518146144393,0.0,0.0
-892.9884899457759,4.0,0.1841333012948,-0.49623292616634096,0.0,0.0
-890.9884899456758,4.0,0.1850083308547703,-0.4932846694818336,0.0,0.0
-888.9884899455758,4.0,0.18589187001448104,-0.489786010321404,0.0,0.0
-886.9884899454757,8.0,0.1867793847614674,-0.4843747142907708,0.0,0.0
-884.9884899453757,8.0,0.18771884968266858,-0.4832731071994641,0.0,0.0
-882.9884899452757,8.0,0.18867580867499656,-0.481734852890965,0.0,0.0
-880.9884899451756,8.0,0.18964228769444064,-0.4798166391691,0.0,0.0
-878.9884899450756,12.0,0.19061122416741638,-0.48156569448212116,0.0,0.0
-876.9884899449755,12.0,0.19163586574867403,-0.480318001026288,0.0,0.0
-874.9884899448755,12.0,0.1926810500406026,-0.47841633301896125,0.0,0.0
-872.9884899447754,12.0,0.19373701003571125,-0.4759013190011939,0.0,0.0
-870.9884899446754,16.0,0.19479483772475467,-0.48584555673799107,0.0,0.0
-868.9884899445753,16.0,0.19590748577787898,-0.4839695531770819,0.0,0.0
-866.9884899444753,16.0,0.19704316077736628,-0.4809065496074958,0.0,0.0
-864.9884899443753,16.0,0.19819114555857562,-0.47674607560768767,0.0,0.0
-862.9884899442752,20.0,0.1993414988837684,-0.4752390734587516,0.0,0.0
-860.9884899441752,20.0,0.20054400923124577,-0.47596930809490345,0.0,0.0
-858.9884899440751,20.0,0.2017725071857291,-0.4754100340118077,0.0,0.0
-856.9884899439751,20.0,0.20301563559402255,-0.47362238144151725,0.0,0.0
-854.988489943875,24.0,0.20426271223830317,-0.4741910852466782,0.0,0.0
-852.988489943775,24.0,0.20556207124335718,-0.4718476560223867,0.0,0.0
-850.988489943675,24.0,0.20689239932851264,-0.4681500432621789,0.0,0.0
-848.9884899435749,24.0,0.20824208005054148,-0.4632074688474996,0.0,0.0
-846.9884899434749,28.0,0.209600037301217,-0.4663803173036914,0.0,0.0
-844.9884899433748,28.0,0.21101267443133864,-0.4652735479725101,0.0,0.0
-842.9884899432748,28.0,0.21246324050517498,-0.4625806248629597,0.0,0.0
-840.9884899431747,28.0,0.2139403976439126,-0.45850308856916344,0.0,0.0
-838.9884899430747,32.0,0.2154330431408986,-0.47698115460222024,0.0,0.0
-836.9884899429746,32.0,0.21698119161905344,-0.47873671461323075,0.0,0.0
-834.9884899428746,32.0,0.21857193852079354,-0.4787353364841666,0.0,0.0
-832.9884899427745,32.0,0.22019454147304993,-0.4771695629545921,0.0,0.0
-830.9884899426745,36.0,0.22183810482453964,-0.5000535392738159,0.0,0.0
-828.9884899425745,36.0,0.22353843419617075,-0.5026396009849889,0.0,0.0
-826.9884899424744,36.0,0.22528546754613032,-0.5036302615714479,0.0,0.0
-824.9884899423744,36.0,0.2270688554963653,-0.5031824179438773,0.0,0.0
-822.9884899422743,40.0,0.22887773975858908,-0.5265413534500356,0.0,0.0
-820.9884899421743,40.0,0.23074534613950642,-0.5323732023449357,0.0,0.0
-818.9884899420742,40.0,0.23266244712118117,-0.5363583978774457,0.0,0.0
-816.9884899419742,40.0,0.23461880026346774,-0.5385812657700375,0.0,0.0
-814.9884899418741,44.0,0.23660336249799765,-0.5580492352011811,0.0,0.0
-812.9884899417741,44.0,0.2386474605123083,-0.5645691786434455,0.0,0.0
-810.9884899416741,44.0,0.24074238593924718,-0.5692609511896564,0.0,0.0
-808.988489941574,44.0,0.24287784280299213,-0.5721877607307868,0.0,0.0
-806.988489941474,48.0,0.24504248294880576,-0.5901279660343226,0.0,0.0
-804.9884899413739,48.0,0.2472684743698606,-0.5961986598701241,0.0,0.0
-802.9884899412739,48.0,0.24954758966304863,-0.6004636879396329,0.0,0.0
-800.9884899411738,48.0,0.25186909226054965,-0.6029730048821307,0.0,0.0
-798.9884899410738,52.0,0.2542209635628882,-0.6180269530938646,0.0,0.0
-796.9884899409737,52.0,0.2566367329440238,-0.622281206891663,0.0,0.0
-794.9884899408737,52.0,0.25910737248218557,-0.6245988468019967,0.0,0.0
-792.9884899407737,52.0,0.2616215032353826,-0.6250436669447326,0.0,0.0
-790.9884899406736,56.0,0.264166273625474,-0.6375548269079225,0.0,0.0
-788.9884899405736,56.0,0.26677805715839126,-0.6430372447540416,0.0,0.0
-786.9884899404735,56.0,0.26944687399373596,-0.646616573253468,0.0,0.0
-784.9884899403735,56.0,0.2721586242601272,-0.648331003368928,0.0,0.0
-782.9884899402734,60.0,0.27489786164533236,-0.6597253838311954,0.0,0.0
-780.9884899401734,60.0,0.2776997226841707,-0.6639857861183572,0.0,0.0
-778.9884899400734,60.0,0.28055340914636834,-0.6661991243228695,0.0,0.0
-776.9884899399733,60.0,0.2834420001475091,-0.666401764683102,0.0,0.0
-774.9884899398733,64.0,0.2863474852246552,-0.6766076146838025,0.0,0.0
-772.9884899397732,64.0,0.28928700407830554,-0.6815240245322649,0.0,0.0
-770.9884899396732,64.0,0.2922607386276219,-0.6841612763441177,0.0,0.0
-768.9884899395731,64.0,0.29525116468530965,-0.6845200789523751,0.0,0.0
-766.9884899394731,68.0,0.2982398168878458,-0.6920118590977432,0.0,0.0
-764.988489939373,68.0,0.3012173519758644,-0.6956258070278545,0.0,0.0
-762.988489939273,68.0,0.3042069435408453,-0.6966690129041686,0.0,0.0
-760.988489939173,68.0,0.30719110351480383,-0.6951374733734523,0.0,0.0
-758.9884899390729,72.0,0.3101516334940737,-0.7005442786143725,0.0,0.0
-756.9884899389729,72.0,0.3130546777749888,-0.7030130643561492,0.0,0.0
-754.9884899388728,72.0,0.31594666016893863,-0.7028868042240101,0.0,0.0
-752.9884899387728,72.0,0.3188107677072703,-0.7001789110956056,0.0,0.0
-750.9884899386727,76.0,0.3216296979351549,-0.7042391495295802,0.0,0.0
-748.9884899385727,76.0,0.3243518338557438,-0.7059998754112328,0.0,0.0
-746.9884899384726,76.0,0.32703930394501873,-0.7050482232732675,0.0,0.0
-744.9884899383726,76.0,0.32967653284007303,-0.7013925628924713,0.0,0.0
-742.9884899382726,80.0,0.3322476856559785,-0.7017482529825255,0.0,0.0
-740.9884899381725,80.0,0.3346938757791373,-0.7017306451285674,0.0,0.0
-738.9884899380725,80.0,0.33708351645878326,-0.6987701861102966,0.0,0.0
-736.9884899379724,80.0,0.3394030108633937,-0.692920865786036,0.0,0.0
-734.9884899378724,84.0,0.34163871623036723,-0.6948877606295021,0.0,0.0
-732.9884899377723,84.0,0.3437245802417878,-0.6957012554473425,0.0,0.0
-730.9884899376723,84.0,0.34573129113383155,-0.6935389360305404,0.0,0.0
-728.9884899375722,84.0,0.3476479181772986,-0.6884425736856687,0.0,0.0
-726.9884899374722,88.0,0.3494636935407472,-0.6903771115220623,0.0,0.0
-724.9884899373722,88.0,0.35110969214685417,-0.6919121791858962,0.0,0.0
-722.9884899372721,88.0,0.3526575210670937,-0.6904638296136754,0.0,0.0
-720.9884899371721,88.0,0.3540994819949382,-0.686057434818959,0.0,0.0
-718.988489937072,88.0,0.3554281801836117,-0.6869327942385683,0.0,0.0
-716.988489936972,88.0,0.35658957406572217,-0.6870247352865324,0.0,0.0
-714.9884899368719,88.0,0.35765652454809127,-0.6841828617090265,0.0,0.0
-712.9884899367719,88.0,0.3586249039273921,-0.6784446768363223,0.0,0.0
-710.9884899366718,84.0,0.35949070255610255,-0.6757384879089898,0.0,0.0
-708.9884899365718,84.0,0.36021034820190656,-0.6729533983630647,0.0,0.0
-706.9884899364718,84.0,0.3608532787573335,-0.6673613777743375,0.0,0.0
-704.9884899363717,84.0,0.36141861108151535,-0.659016405468313,0.0,0.0
-702.9884899362717,80.0,0.36190522707329137,-0.6559759330833115,0.0,0.0
-700.9884899361716,80.0,0.36226573863829087,-0.6539776409950981,0.0,0.0
-698.9884899360716,80.0,0.36256118232787354,-0.6492442200887749,0.0,0.0
-696.9884899359715,80.0,0.36279337892252467,-0.641796784718181,0.0,0.0
-694.9884899358715,76.0,0.3629636833775747,-0.6396244489247259,0.0,0.0
-692.9884899357714,76.0,0.3630238945506531,-0.6386069555531677,0.0,0.0
-690.9884899356714,76.0,0.36302796610417526,-0.6349641335719947,0.0,0.0
-688.9884899355714,76.0,0.3629800151226327,-0.6287073580298761,0.0,0.0
-686.9884899354713,72.0,0.3628835145721339,-0.6264265209771878,0.0,0.0
-684.9884899353713,72.0,0.362692389120204,-0.6248428335684042,0.0,0.0
-682.9884899352712,72.0,0.3624552778766737,-0.6207991959037773,0.0,0.0
-680.9884899351712,72.0,0.3621781757177687,-0.614275528754564,0.0,0.0
-678.9884899350711,68.0,0.36186627362529455,-0.611793055756574,0.0,0.0
-676.9884899349711,68.0,0.36147681558646066,-0.6100714102378969,0.0,0.0
-674.988489934871,68.0,0.36105033860283975,-0.6059406408906669,0.0,0.0
-672.988489934771,68.0,0.3605944183980387,-0.5993865867093686,0.0,0.0
-670.988489934671,64.0,0.36011570902842666,-0.5973298127297497,0.0,0.0
-668.9884899345709,64.0,0.3595822839656886,-0.5963244030372021,0.0,0.0
-666.9884899344709,64.0,0.3590293344157853,-0.5929731218489658,0.0,0.0
-664.9884899343708,64.0,0.3584657229740779,-0.5872490608472152,0.0,0.0
-662.9884899342708,60.0,0.35789914685870916,-0.5845484176014238,0.0,0.0
-660.9884899341707,60.0,0.35730581755758944,-0.5823359173885513,0.0,0.0
-658.9884899340707,60.0,0.3567128191139637,-0.5779366372064816,0.0,0.0
-656.9884899339706,60.0,0.3561296712589,-0.5713055573405106,0.0,0.0
-654.9884899338706,56.0,0.3555645058775794,-0.5675771944425962,0.0,0.0
-652.9884899337706,56.0,0.354993110756378,-0.5644135075937695,0.0,0.0
-650.9884899336705,56.0,0.35443142138087036,-0.5592353337742528,0.0,0.0
-648.9884899335705,56.0,0.35388853542591325,-0.551973943434526,0.0,0.0
-646.9884899334704,52.0,0.35337212347378644,-0.5486220589426503,0.0,0.0
-644.9884899333704,52.0,0.3528599372630091,-0.5463197213992,0.0,0.0
-642.9884899332703,52.0,0.3523638562108307,-0.5419794538452685,0.0,0.0
-640.9884899331703,52.0,0.3518924520464731,-0.5355050015635042,0.0,0.0
-638.9884899330702,48.0,0.3514529383043853,-0.5351243403338848,0.0,0.0
-636.9884899329702,48.0,0.35102726242489546,-0.5370544474717112,0.0,0.0
-634.9884899328702,48.0,0.35062486455003716,-0.5370498358002496,0.0,0.0
-632.9884899327701,48.0,0.3502543581807371,-0.5349699364653211,0.0,0.0
-630.9884899326701,44.0,0.34992313736212405,-0.5356469870913324,0.0,0.0
-628.98848993257,44.0,0.34961704802434174,-0.5368809196221812,0.0,0.0
-626.98848993247,44.0,0.3493416323673793,-0.5360313868954222,0.0,0.0
-624.9884899323699,44.0,0.3491056634317366,-0.5329175502643051,0.0,0.0
-622.9884899322699,40.0,0.3489169049533777,-0.5337755551238595,0.0,0.0
-620.9884899321698,40.0,0.3487650099162428,-0.5357756161633209,0.0,0.0
-618.9884899320698,40.0,0.3486504271585504,-0.535503262901896,0.0,0.0
-616.9884899319698,40.0,0.34858250816190106,-0.5327580929531367,0.0,0.0
-614.9884899318697,36.0,0.34856988622904944,-0.5308593599802196,0.0,0.0
-612.9884899317697,36.0,0.34860591092967,-0.5285206633740042,0.0,0.0
-610.9884899316696,36.0,0.34868323357379116,-0.5238232118827214,0.0,0.0
-608.9884899315696,36.0,0.34881176000274194,-0.5165535907672592,0.0,0.0
-606.9884899314695,32.0,0.34900106794159985,-0.5112074518604431,0.0,0.0
-604.9884899313695,32.0,0.3492470910186431,-0.5057027388101183,0.0,0.0
-602.9884899312694,32.0,0.3495330666511575,-0.49741154877296123,0.0,0.0
-600.9884899311694,32.0,0.34986956283144716,-0.48613274429247066,0.0,0.0
-598.9884899310694,28.0,0.3502673935309199,-0.47892478068541755,0.0,0.0
-596.9884899309693,28.0,0.3507239819580305,-0.47283981401278297,0.0,0.0
-594.9884899308693,28.0,0.35120908729575007,-0.46391762604778297,0.0,0.0
-592.9884899307692,28.0,0.3517339725851447,-0.4518850347806983,0.0,0.0
-590.9884899306692,24.0,0.35231095752468367,-0.4429987340330006,0.0,0.0
-588.9884899305691,24.0,0.3529424991921626,-0.4350018916196144,0.0,0.0
-586.9884899304691,24.0,0.3535846705768368,-0.4245663031390394,0.0,0.0
-584.988489930369,24.0,0.35424917134453815,-0.4116876509631903,0.0,0.0
-582.988489930269,20.0,0.35494945974883335,-0.40118239094418773,0.0,0.0
-580.988489930169,20.0,0.3557007201488652,-0.3914136157998729,0.0,0.0
-578.9884899300689,20.0,0.3564551875747552,-0.3800157804635571,0.0,0.0
-576.9884899299689,20.0,0.3572246341867913,-0.36711142136290187,0.0,0.0
-574.9884899298688,16.0,0.35802285181762017,-0.35445496727241316,0.0,0.0
-572.9884899297688,16.0,0.358877025852596,-0.3408174678421887,0.0,0.0
-570.9884899296687,16.0,0.3597349229768691,-0.32525113193379246,0.0,0.0
-568.9884899295687,16.0,0.36060769043844876,-0.3078966585172226,0.0,0.0
-566.9884899294686,12.0,0.361508641656148,-0.29048213027053066,0.0,0.0
-564.9884899293686,12.0,0.36247386796346137,-0.2719945390583773,0.0,0.0
-562.9884899292686,12.0,0.36344124073490736,-0.2516643700700467,0.0,0.0
-560.9884899291685,12.0,0.364420466333408,-0.22978640011358764,0.0,0.0
-558.9884899290685,8.0,0.365423534107363,-0.2123707959992036,0.0,0.0
-556.9884899289684,8.0,0.36649741825532584,-0.1976957874941403,0.0,0.0
-554.9884899288684,8.0,0.367575125288943,-0.18295621104820822,0.0,0.0
-552.9884899287683,8.0,0.36866302991231203,-0.1682838007508028,0.0,0.0
-550.9884899286683,4.0,0.36976977832347746,-0.1550195331062506,0.0,0.0
-548.9884899285682,4.0,0.3709524056711355,-0.14262634132080126,0.0,0.0
-546.9884899284682,4.0,0.3721463317232587,-0.13043502533667078,0.0,0.0
-544.9884899283682,4.0,0.37335292087115785,-0.11845740236604269,0.0,0.0
-542.9884899282681,0.0,0.3745757672181282,-0.1067564324163559,0.0,0.0
-540.9884899281681,0.0,0.3758772586618468,-0.09532332493430898,0.0,0.0
-538.988489928068,0.0,0.3771987644902094,-0.08412613280988057,0.0,0.0
-536.988489927968,0.0,0.37853567181496145,-0.07315937684963547,0.0,0.0
-534.9884899278679,5.0,0.37988554067377545,-0.09841825221687106,0.0,0.0
-532.9884899277679,5.0,0.38132346548365936,-0.09166966302580823,0.0,0.0
-530.9884899276678,5.0,0.3827881556095165,-0.08553037484060258,0.0,0.0
-528.9884899275678,5.0,0.384269060923526,-0.07995931669021414,0.0,0.0
-526.9884899274678,10.0,0.3857577077708938,-0.09552238093962712,0.0,0.0
-524.9884899273677,10.0,0.38734860532353743,-0.09253738899196193,0.0,0.0
-522.9884899272677,10.0,0.38897279654829603,-0.08983488107675855,0.0,0.0
-520.9884899271676,10.0,0.3906146319047231,-0.0873599119130817,0.0,0.0
-518.9884899270676,15.0,0.3922604237615564,-0.10001574575142742,0.0,0.0
-516.9884899269675,15.0,0.3940144812167614,-0.09398924559081778,0.0,0.0
-514.9884899268675,15.0,0.39580779646805186,-0.08825383745535892,0.0,0.0
-512.9884899267674,15.0,0.39762105064279224,-0.08281031847416764,0.0,0.0
-510.98848992666746,20.0,0.39943679532726284,-0.08956798424845072,0.0,0.0
-508.98848992656747,20.0,0.40135799610829315,-0.08658490860085369,0.0,0.0
-506.9884899264675,20.0,0.4033232441803745,-0.08356255050020933,0.0,0.0
-504.9884899263675,20.0,0.4053113374656989,-0.08050747954601992,0.0,0.0
-502.9884899262675,25.0,0.4073027829341016,-0.09180390866246946,0.0,0.0
-500.9884899261675,25.0,0.40939327876371767,-0.08949503045341214,0.0,0.0
-498.98848992606753,25.0,0.41153299287176603,-0.08709301532020822,0.0,0.0
-496.98848992596754,25.0,0.4136995136318511,-0.08460015163903403,0.0,0.0
-494.98848992586755,30.0,0.41587194174369074,-0.09298699131568378,0.0,0.0
-492.98848992576757,30.0,0.41814242767133086,-0.08807813833040269,0.0,0.0
-490.9884899256676,30.0,0.4204716952694164,-0.08291280796034046,0.0,0.0
-488.9884899255676,30.0,0.4228369239675903,-0.0775444624923279,0.0,0.0
-486.9884899254676,35.0,0.4252165348600768,-0.06769734295269607,0.0,0.0
-484.9884899253676,35.0,0.4276982749104131,-0.05840552497504713,0.0,0.0
-482.98848992526763,35.0,0.43025300608899153,-0.04892657502130854,0.0,0.0
-480.98848992516764,35.0,0.43285858827846646,-0.03941088370171793,0.0,0.0
-478.98848992506765,40.0,0.43549348921490244,-0.030823735280356576,0.0,0.0
-476.98848992496767,40.0,0.43823165502790984,-0.026295741070584813,0.0,0.0
-474.9884899248677,40.0,0.4410519418775638,-0.021662709288126886,0.0,0.0
-472.9884899247677,40.0,0.44393352459901114,-0.01700785099512364,0.0,0.0
-470.9884899246677,45.0,0.4468553874628146,-0.013412867356190877,0.0,0.0
-468.9884899245677,45.0,0.44988165725518814,-0.008446740682450868,0.0,0.0
-466.98848992446773,45.0,0.45299696094059777,-0.0035010743641031017,0.0,0.0
-464.98848992436774,45.0,0.45618139602782615,0.0013470283616039969,0.0,0.0
-462.98848992426775,50.0,0.4594141595156598,0.005174018573608746,0.0,0.0
-460.98848992416777,50.0,0.46275298256127934,0.006906123382664539,0.0,0.0
-458.9884899240678,50.0,0.4661847122082333,0.008724499327760954,0.0,0.0
-456.9884899239678,50.0,0.4696898205427725,0.010593348698425334,0.0,0.0
-454.9884899238678,55.0,0.47324730872068305,0.0071344798700913176,0.0,0.0
-452.9884899237678,55.0,0.47690990694044305,0.008236317176196516,0.0,0.0
-450.9884899236678,55.0,0.4806662476651777,0.009418867500470884,0.0,0.0
-448.98848992356784,55.0,0.48449688586060746,0.010662083521826522,0.0,0.0
-446.98848992346785,60.0,0.4883804212643445,0.006012072870654153,0.0,0.0
-444.98848992336787,60.0,0.49236988851743346,0.003579178722075825,0.0,0.0
-442.9884899232679,60.0,0.4964556639520585,0.0012625098962941103,0.0,0.0
-440.9884899231679,60.0,0.5006176291706295,-0.0009245927562723313,0.0,0.0
-438.9884899230679,65.0,0.504833276478888,-0.0029033205218143704,0.0,0.0
-436.9884899229679,65.0,0.5091569930048162,-0.0039012593405672105,0.0,0.0
-434.9884899228679,65.0,0.5135785713979397,-0.004783570595533172,0.0,0.0
-432.98848992276794,65.0,0.5180768408451195,-0.005550924063393352,0.0,0.0
-430.98848992266795,70.0,0.5226278886116953,-0.0030297994311074203,0.0,0.0
-428.98848992256796,70.0,0.5272903009085823,-0.0009545591391671646,0.0,0.0
-426.988489922468,70.0,0.5320530587281234,0.0011716884416350243,0.0,0.0
-424.988489922368,70.0,0.5368903087560136,0.003319131275298523,0.0,0.0
-422.988489922268,75.0,0.541773654754604,0.008761315144483427,0.0,0.0
-420.988489922168,75.0,0.5467588431186233,0.01358162319959682,0.0,0.0
-418.988489922068,75.0,0.5518339218729292,0.01838828973267778,0.0,0.0
-416.98848992196804,75.0,0.5569681843626864,0.02311693945898031,0.0,0.0
-414.98848992186805,80.0,0.5621288200104967,0.03773348531222483,0.0,0.0
-412.98848992176806,80.0,0.5673391624219597,0.04346992245370612,0.0,0.0
-410.9884899216681,80.0,0.5726058709482322,0.049060646094946356,0.0,0.0
-408.9884899215681,80.0,0.5778973031897134,0.054430751239080304,0.0,0.0
-406.9884899214681,85.0,0.5831799985108777,0.069683094714861,0.0,0.0
-404.9884899213681,85.0,0.5884310074954913,0.0775010671238264,0.0,0.0
-402.9884899212681,85.0,0.5936971998922206,0.08501852854324717,0.0,0.0
-400.98848992116814,85.0,0.5989472007398062,0.0921302832679031,0.0,0.0
-398.98848992106815,90.0,0.6041482489527399,0.10861150170874054,0.0,0.0
-396.98848992096816,90.0,0.6092349202835566,0.11628819678947672,0.0,0.0
-394.9884899208682,90.0,0.6142950806629126,0.12347419307806522,0.0,0.0
-392.9884899207682,90.0,0.6192987912763418,0.1300715038671708,0.0,0.0
-390.9884899206682,95.0,0.6242151227141584,0.14138466374814224,0.0,0.0
-388.9884899205682,95.0,0.6289471408107847,0.14858770114967756,0.0,0.0
-386.9884899204682,95.0,0.6336096763224244,0.15513010827925755,0.0,0.0
-384.98848992036824,95.0,0.6381752330402488,0.16091462509376767,0.0,0.0
-382.98848992026825,100.0,0.6426157440677496,0.16961228476938928,0.0,0.0
-380.98848992016826,100.0,0.6468209936753981,0.17569288758003676,0.0,0.0
-378.9884899200683,100.0,0.6509166116855607,0.18090074641060094,0.0,0.0
-376.9884899199683,100.0,0.6548788907910095,0.1851570125303661,0.0,0.0
-374.9884899198683,105.0,0.6586839500215329,0.1934924007564475,0.0,0.0
-372.9884899197683,105.0,0.6622081425630353,0.19983175397703484,0.0,0.0
-370.9884899196683,105.0,0.6655806064087126,0.20515912175031176,0.0,0.0
-368.98848991956834,105.0,0.6687826721668685,0.20939500514761297,0.0,0.0
-366.98848991946835,110.0,0.6717958957891734,0.21324349896367784,0.0,0.0
-364.98848991936836,110.0,0.674490239044765,0.21493239461036534,0.0,0.0
-362.9884899192684,110.0,0.6769955692916574,0.2154812381019116,0.0,0.0
-360.9884899191684,110.0,0.6792993052616686,0.21489109940596607,0.0,0.0
-358.9884899190684,110.0,0.6813893966242721,0.21082076573730665,0.0,0.0
-356.9884899189684,110.0,0.68316104869862,0.21040862771134822,0.0,0.0
-354.9884899188684,110.0,0.6847482517945268,0.20888265091379,0.0,0.0
-352.98848991876844,110.0,0.6861451855251415,0.20627393756890805,0.0,0.0
-350.98848991866845,105.0,0.6873462715829174,0.20678018775568036,0.0,0.0
-348.98848991856846,105.0,0.6882651548301412,0.2091173483898841,0.0,0.0
-346.9884899184685,105.0,0.689032652009572,0.2104089370464704,0.0,0.0
-344.9884899183685,105.0,0.6896491371966906,0.21063879400223287,0.0,0.0
-342.9884899182685,100.0,0.6901145893804762,0.2130000876410056,0.0,0.0
-340.9884899181685,100.0,0.6903359865766163,0.21656632503721157,0.0,0.0
-338.9884899180685,100.0,0.6904292316574,0.21909166474031622,0.0,0.0
-336.98848991796854,100.0,0.6903998705433512,0.2205341270808845,0.0,0.0
-334.98848991786855,95.0,0.6902526187964031,0.22344370986141504,0.0,0.0
-332.98848991776856,95.0,0.6898931276751431,0.22710325827572658,0.0,0.0
-330.9884899176686,95.0,0.6894240422835182,0.22967984129585253,0.0,0.0
-328.9884899175686,95.0,0.6888552562597714,0.23113004678682936,2.08e-322,1.33e-322
-326.9884899174686,90.0,0.6881954886446795,0.233592547041299,1.5642e-319,1.0075e-319
-324.9884899173686,90.0,0.687354713829482,0.23653128947390953,2.514996e-317,1.6198723e-317
-322.9884899172686,90.0,0.6864253522875888,0.2383970764019371,4.10608795e-315,2.644669707e-315
-320.98848991716864,90.0,0.6854207965924438,0.239140965163343,6.610941599e-313,4.2580087359e-313
-318.98848991706865,85.0,0.6843529518513992,0.24187904402709132,1.0457096527514e-310,6.7352602387637e-311
-316.98848991696866,85.0,0.6831395216078557,0.2457885329384214,1.6250522953035067e-308,1.046672087785233e-308
-314.9884899168687,85.0,0.6818564235817178,0.24860010865577384,2.4810287072174556e-306,1.5979939446042077e-306
-312.9884899167687,85.0,0.6805199445420832,0.25025458654684685,3.7213826929704224e-304,2.3968878455662847e-304
-310.9884899166687,80.0,0.6791446464013536,0.24970595958843808,5.483840931939125e-302,3.532061601351287e-302
-308.9884899165687,80.0,0.6776699623989012,0.24730298286258404,7.93913546317436e-300,5.113481331694271e-300
-306.9884899164687,80.0,0.6761590645901518,0.24378227303588162,1.1291959257930467e-297,7.2729869488280626e-298
-304.98848991636874,80.0,0.6746305211332703,0.23916896432890072,1.5778764724335982e-295,1.0162874220472016e-295
-302.98848991626875,75.0,0.6731007216186938,0.23843729451995355,2.1661283636567152e-293,1.395172106400188e-293
-300.98848991616876,75.0,0.6715262611753494,0.2403022419412853,2.921478896527562e-291,1.8816827172766446e-291
-298.9884899160688,75.0,0.6699525393247711,0.2411844991280795,3.871048218639832e-289,2.4932869942515674e-289
-296.9884899159688,75.0,0.6683991990319081,0.241037520824968,5.03919960572441e-287,3.24567702464869e-287
-294.9884899158688,70.0,0.6668833026294537,0.24266999922922203,6.4446833919308615e-285,4.150929688819529e-285
-292.9884899157688,70.0,0.6653623376438942,0.24548687335549732,8.097455152491528e-283,5.215457294567145e-283
-290.9884899156688,70.0,0.6638599424107735,0.24741149737132337,9.995450037787654e-281,6.437929967645529e-281
-288.98848991556883,70.0,0.6623946619009299,0.24837279682740793,1.2121682104368064e-278,7.807407366481493e-279
-286.98848991546885,65.0,0.6609823714097257,0.2506424354853446,1.4442090646716173e-276,9.301951527996813e-277
-284.98848991536886,65.0,0.659583938601402,0.2536957513700612,1.690455670414658e-274,1.0887993405666042e-274
-282.9884899152689,65.0,0.6582157911854576,0.25577503401660734,1.9439449324769338e-272,1.2520684702249809e-272
-280.9884899151689,65.0,0.6568951936656223,0.25679279292360935,2.1961929455921223e-270,1.4145381765696682e-270
-278.9884899150689,60.0,0.6556368569676881,0.25825615091754095,2.4376048327706117e-268,1.5700285294647664e-268
-276.9884899149689,60.0,0.6544088296902453,0.25989302234185585,2.658044851487965e-266,1.712011230946297e-266
-274.9884899148689,60.0,0.6532235351522644,0.2605082546418509,2.8475241745168827e-264,1.8340526052900712e-264
-272.98848991476893,60.0,0.6520981907970073,0.26002684230372325,2.9969435973752223e-262,1.930291966969427e-262
-270.98848991466895,55.0,0.6510477314321651,0.26116716762550873,3.0988152180377953e-260,1.9959064453640014e-260
-268.98848991456896,55.0,0.6500469107846412,0.26336858186968826,3.147883710722799e-258,2.0275111397743786e-258
-266.98848991446897,55.0,0.6491013460080323,0.2645127389350039,3.1415755063359803e-256,2.0234484317590978e-256
-264.988489914369,55.0,0.6482284358527435,0.2644934802503063,3.0802224472389336e-254,1.983932039611315e-254
-262.988489914269,50.0,0.6474436987921938,0.2660119325083456,2.967032863195406e-252,1.9110283902379168e-252
-260.988489914169,50.0,0.6467287908535067,0.268507574106477,2.807813577429025e-250,1.8084775683192897e-250
-258.988489914069,50.0,0.646080429068924,0.2698220421194385,2.61047636969763e-248,1.6813754368185218e-248
-256.98848991396903,50.0,0.6455169827421567,0.2698404175499264,2.384387272585265e-246,1.5357545280495695e-246
-254.98848991386905,45.0,0.6450554854305899,0.27156289288020813,2.1396331015845308e-244,1.3781116256568585e-244
-252.98848991376906,45.0,0.6446842912259614,0.2745867942859183,1.8862847836850638e-242,1.2149332840811402e-242
-250.98848991366907,45.0,0.6443859813296716,0.27655691363722956,1.633731241445148e-240,1.0522667914623002e-240
-248.98848991356908,45.0,0.6441798774383588,0.2773286466982053,1.3901425250928334e-238,8.953743791799558e-239
-246.9884899134691,40.0,0.6440846874291006,0.28078616156760244,1.1620996543469336e-236,7.484948067495499e-237
-244.9884899133691,40.0,0.644093677646637,0.28620709473906325,9.544050168245608e-235,6.1472124080311115e-235
-242.98848991326912,40.0,0.6441724531844198,0.2904318184282183,7.700648972013734e-233,4.959900013172184e-233
-240.98848991316913,40.0,0.6443415175703273,0.29325803724195676,6.104177997583549e-231,3.931632116379792e-231
-238.98848991306915,35.0,0.6446218087143221,0.3002986336400987,4.7537055891667804e-229,3.061808735864979e-229
-236.98848991296916,35.0,0.6450102301603541,0.31080641884005494,3.636994021663684e-227,2.3425477782047093e-227
-234.98848991286917,35.0,0.6454482177928166,0.32027562502366247,2.7337455901142006e-225,1.7607758013006808e-225
-232.98848991276918,35.0,0.6459575380804349,0.3284064081389457,2.0187326064088417e-223,1.3002440056155748e-223
-230.9884899126692,30.0,0.6465618465682575,0.33721094601774104,1.4645516402493336e-221,9.43302207539099e-222
-228.9884899125692,30.0,0.6472677977754587,0.346550504659664,1.0438444105267394e-219,6.723292901144368e-220
-226.98848991246922,30.0,0.6479917559341997,0.3546219354455104,7.309236968757523e-218,4.707804353028323e-218
-224.98848991236923,30.0,0.6487562289504459,0.3612534081784907,5.028211216362499e-216,3.238619903290126e-216
-222.98848991226924,25.0,0.6495868674066844,0.36668411992897765,3.398288074646878e-214,2.1888034542231503e-214
-220.98848991216926,25.0,0.650512938531026,0.37122486273418154,2.2563792288767014e-212,1.4533117165511868e-212
-218.98848991206927,25.0,0.6514435535540565,0.3746319341855642,1.4718692609794762e-210,9.480167847905395e-211
-216.98848991196928,25.0,0.6524012282414305,0.3768341064135601,9.43260481624441e-209,6.07545127905871e-209
-214.9884899118693,20.0,0.6534120961519626,0.3808450782024789,5.9388086393613615e-207,3.825131303540462e-207
-212.9884899117693,20.0,0.6545266219135633,0.38621651948475894,3.6734348333168868e-205,2.3660257725990714e-205
-210.98848991166932,20.0,0.6556459900208906,0.3905086087206357,2.2322904291711573e-203,1.437798232733554e-203
-208.98848991156933,20.0,0.6567914461246307,0.39362521896162334,1.3327062676644575e-201,8.583843824688954e-202
-206.98848991146934,15.0,0.6579881343325487,0.3990687481616426,7.816702960891531e-200,5.0346710116427563e-200
-204.98848991136936,15.0,0.6593023807229053,0.4064738790406894,4.5042060228601465e-198,2.9011211025272838e-198
-202.98848991126937,15.0,0.6606182483903899,0.41306825976122247,2.5498721295614507e-196,1.6423516006043737e-196
-200.98848991116938,15.0,0.6619542599144408,0.4187997049013752,1.4181563870143725e-194,9.13423095046304e-195
-198.9884899110694,10.0,0.6633330695978156,0.4234248374654609,7.748818191433143e-193,4.990952803656795e-193
-196.9884899109694,10.0,0.6648390542509491,0.4274399437692506,4.1596088972770995e-191,2.6791721566247544e-191
-194.98848991086942,10.0,0.6663487441174136,0.4311355120475948,2.1936900672866766e-189,1.412939363442311e-189
-192.98848991076943,10.0,0.6678745546561001,0.4345028984902692,1.1365900448685292e-187,7.32069373686141e-188
-190.98848991066944,5.0,0.6694330520931506,0.4381375995638192,5.785465452442728e-186,3.726377356429727e-186
-188.98848991056946,5.0,0.6711236320622401,0.4420842592532625,2.8932016997788107e-184,1.8634913377168738e-184
-186.98848991046947,5.0,0.6728294282908434,0.44589715041025874,1.4214289124373547e-182,9.155328945793278e-183
-184.98848991036948,5.0,0.6745537668098636,0.4495672287631723,6.86084620429045e-181,4.419026799473783e-181
-182.9884899102695,0.0,0.6763041062099994,0.45345789071131143,3.253392132006508e-179,2.0954895951986767e-179
-180.9884899101695,0.0,0.6781853874882844,0.45761730034562415,1.5156586940550704e-177,9.762266501184357e-178
-178.98848991006952,0.0,0.6800951070552568,0.461780097134616,6.937017382392509e-176,4.4680927193038e-176
-176.98848990996953,0.0,0.6820258036376817,0.46594835899650655,3.119253047730357e-174,2.009093525148665e-174
-174.98848990986954,6.0,0.6839741125275387,0.46689314068797955,1.377954848743024e-172,8.875333627486034e-173
-172.98848990976956,6.0,0.6860628881964379,0.4722848448022757,5.980341986963051e-171,3.8519077375633647e-171
-170.98848990966957,6.0,0.6881892044858263,0.47733707719701235,2.549903872098858e-169,1.642380663237463e-169
-168.98848990956958,6.0,0.6903349163505176,0.48206292653184735,1.0681406879554133e-167,6.879844686665029e-168
-166.9884899094696,12.0,0.6924858776132743,0.48563142889970357,4.395821809971873e-166,2.8313295251067597e-166
-164.9884899093696,12.0,0.6947947458795276,0.4902434750071545,1.777291986197638e-164,1.1447463992995161e-164
-162.98848990926962,12.0,0.6971491953777691,0.4943761452567883,7.059674591619337e-163,4.5471088864625084e-163
-160.98848990916963,12.0,0.69952198291663,0.4980463796499549,2.7549765004501447e-161,1.7744703185664209e-161
-158.98848990906964,18.0,0.7018897439229034,0.50581086998045,1.0562301252433724e-159,6.803142417410072e-160
-156.98848990896965,18.0,0.704418006232746,0.5133031856446495,3.97838455853062e-158,2.562465030594023e-158
-154.98848990886967,18.0,0.7069987323764938,0.519763149447658,1.4721859089871105e-156,9.48230717350791e-157
-152.98848990876968,18.0,0.7095982694434576,0.5251763609926696,5.352126466884488e-155,3.447290711114023e-155
-150.9884899086697,24.0,0.7121867659357698,0.5364129388610301,1.9116044079120203e-153,1.231259931649237e-153
-148.9884899085697,24.0,0.7149225431865783,0.5423034722296578,6.707763773354968e-152,4.320456795666086e-152
-146.98848990846972,24.0,0.7177149876741465,0.5468338484245012,2.3124146538422207e-150,1.4894221410213636e-150
-144.98848990836973,24.0,0.7205273732678935,0.5500295422742227,7.831807815819733e-149,5.044455586882503e-149
-142.98848990826974,30.0,0.723326572738589,0.5608182240170041,2.605954496081489e-147,1.6784920919528182e-147
-140.98848990816975,30.0,0.7262525611675158,0.5668930839275805,8.518836346282527e-146,5.486974470509879e-146
-138.98848990806977,30.0,0.7292387820736177,0.571478142689553,2.73591442534574e-144,1.762200697998869e-144
-136.98848990796978,30.0,0.7322467692670055,0.5745804313894276,8.632442185732382e-143,5.56015291551618e-143
-134.9884899078698,36.0,0.7352414006444877,0.5834090646749693,2.675924973900661e-141,1.7235631098035624e-141
-132.9884899077698,36.0,0.7383507109135466,0.5889183517144005,8.1493585207257065e-140,5.249003764770262e-140
-130.98848990766982,36.0,0.7415313484175334,0.5924729537779239,2.4382728766799132e-138,1.5704928815258933e-138
-128.98848990756983,36.0,0.7447446569875745,0.5941145438717216,7.167220043047395e-137,4.616412517631858e-137
-126.98848990746983,42.0,0.7479549409974765,0.6050289443334523,2.0698023398321026e-135,1.3331620887723848e-135
-124.98848990736983,42.0,0.7512763904874286,0.6117652026776979,5.872416812437108e-134,3.7824323298927516e-134
-122.98848990726982,42.0,0.7546886306297372,0.6161539074567666,1.636872672978204e-132,1.054312623516738e-132
-120.98848990716982,42.0,0.7581548527664895,0.6183220635351033,4.4825290313155395e-131,2.887206428067681e-131
-118.98848990706982,48.0,0.7616401694486573,0.6304923086315033,1.2059843581929795e-129,7.76777467641122e-130
-116.98848990696982,48.0,0.765227287526205,0.6377602516465579,3.1876509183875456e-128,2.0531747825755452e-128
-114.98848990686982,48.0,0.768914453111282,0.642407550833979,8.277715936727953e-127,5.331702506588822e-127
-112.98848990676981,48.0,0.7726679380859864,0.6445704743743217,2.1118405878819992e-125,1.3602437818828303e-125
-110.98848990666981,54.0,0.7764546194374119,0.6532951462222303,5.293254371000645e-124,3.4094051334257594e-124
-108.98848990656981,54.0,0.7803317034218876,0.6581140939575081,1.3034536286943793e-122,8.395598529617636e-123
-106.98848990646981,54.0,0.7843121654440147,0.6605176016081857,3.153405092037926e-121,2.031122306899525e-121
-104.98848990636981,54.0,0.7883648115736535,0.6606599511167741,7.495066202810502e-120,4.827608250720501e-120
-102.9884899062698,60.0,0.7924579315037551,0.6702721687798698,1.7501806710131995e-118,1.12730042189312e-118
-100.9884899061698,60.0,0.7966288894528948,0.6784396358750594,4.0151536249335256e-117,2.5861826518180192e-117
-98.9884899060698,60.0,0.8009000016483605,0.6840381796997421,9.049685699739541e-116,5.828955869369274e-116
-96.9884899059698,60.0,0.8052418120259444,0.6871617506717353,2.0039046130638923e-114,1.2907274970908987e-114
-94.9884899058698,66.0,0.8096234978767703,0.6969170911403315,4.359462903603821e-113,2.807958933896886e-113
-92.9884899057698,66.0,0.8140644947795419,0.7036282835178489,9.317544891555265e-112,6.001495851623074e-112
-90.9884899056698,66.0,0.8185962052207816,0.707848180278206,1.9565130129967632e-110,1.2602044545602834e-110
-88.98848990556979,66.0,0.8231905822611771,0.7096946923447456,4.0362392443507963e-109,2.599772981630727e-109
-86.98848990546979,72.0,0.8278175328851807,0.718153845691528,8.18058095886276e-108,5.269178732704655e-108
-84.98848990536979,72.0,0.8324870833632252,0.7252988941361929,1.628938367243391e-106,1.0492130804948275e-106
-82.98848990526979,72.0,0.8372399530483597,0.7300080896533012,3.1866809947021626e-105,2.052569620378997e-105
-80.98848990516979,72.0,0.8420483553419243,0.7323598615748692,6.124718491898344e-104,3.9449881572249724e-104
-78.98848990506978,78.0,0.8468818880521319,0.7414241987438717,1.1565048277917482e-102,7.449159770595763e-103
-76.98848990496978,78.0,0.8517424171424269,0.7495868620636701,2.145471327248606e-101,1.381919750462015e-101
-74.98848990486978,78.0,0.8566764316883582,0.7552011045169409,3.9103181774109414e-100,2.518677009573356e-100
-72.98848990476978,78.0,0.8616559394180437,0.7583357893409981,7.00189776324672e-99,4.509998743490604e-99
-70.98848990466978,84.0,0.8666499239730074,0.7666977347816275,1.2317820992415132e-97,7.934047951985602e-98
-68.98848990456978,84.0,0.8716563266795917,0.7742285970121061,2.128955745104031e-96,1.3712853787858851e-96
-66.98848990446977,84.0,0.8767273385290436,0.7792764314692882,3.615048825320773e-95,2.3284968799049358e-95
-64.98848990436977,84.0,0.8818323698802978,0.7819018562314675,6.030823990735595e-94,3.8845295588173466e-94
-62.98848990426977,90.0,0.886937754562687,0.7896873825629814,9.884489778873983e-93,6.366728337551055e-93
-60.98848990416977,90.0,0.8920347556353891,0.7973040745198919,1.5916484029387317e-91,1.0252021036542001e-91
-58.988489904069766,90.0,0.8971791210026315,0.8022305301385038,2.5179984451527273e-90,1.621877686336758e-90
-56.988489903969764,90.0,0.9023375692224647,0.8045042578972752,3.91362648712342e-89,2.5208227436688476e-89
-54.98848990386976,96.0,0.9074739270256885,0.8128100633581081,5.976116371373697e-88,3.849304562980404e-88
-52.98848990376976,96.0,0.9125516674130156,0.8223147934817338,8.965502294619337e-87,5.774816009077222e-87
-50.98848990366976,96.0,0.9176357156689153,0.8289380309679991,1.3214364084066193e-85,8.511578194053857e-86
-48.98848990356976,96.0,0.9226930276970778,0.8326634042020056,1.913524925686768e-84,1.2325321315147262e-84
-46.988489903469755,102.0,0.9276880019390141,0.8405543041823715,2.7223147790842886e-83,1.7534878885560913e-83
-44.988489903369754,102.0,0.9325529913060768,0.8488602761982847,3.805038596074459e-82,2.4508898967101795e-82
-42.98848990326975,102.0,0.9373787939748575,0.8540122467278691,5.225122110402435e-81,3.365592158171465e-81
-40.98848990316975,102.0,0.9421340931065268,0.8560027004894126,7.049375040417407e-80,4.5406284815737286e-80
-38.98848990306975,108.0,0.9467854890830494,0.8631059354074215,9.343761018711204e-79,6.018487825753618e-79
-36.98848990296975,108.0,0.9512390197478253,0.8723464351362498,1.2167739349333028e-77,7.837469719099358e-78
-34.988489902869745,108.0,0.9556131610390929,0.8783201432908974,1.5567371078159597e-76,1.0027243733205464e-76
-32.98848990276974,108.0,0.9598795625799529,0.8810182631884682,1.956761941775683e-75,1.2603890004523486e-75
-30.98848990266974,114.0,0.9640081344514098,0.8883080523109255,2.4164519940041774e-74,1.5564855848288989e-74
-28.98848990256974,114.0,0.9678806960864855,0.898272283076084,2.9318107955161655e-73,1.8884400068408634e-73
-26.988489902469738,114.0,0.9716287097561224,0.9048095222641075,3.4947122251232433e-72,2.251018143737797e-72
-24.988489902369736,114.0,0.9752276969944886,0.9078738636942856,4.092651169615339e-71,2.6361652543516215e-71
-22.988489902269734,120.0,0.9786518693712494,0.915414763964482,4.7088622694561094e-70,3.0330824549552827e-70
-20.988489902169732,120.0,0.9817700887889569,0.9257473133342373,5.322863220116647e-69,3.4285766611904437e-69
-18.98848990206973,120.0,0.9847179248469712,0.9323787712186173,5.911433322561628e-68,3.8076908854749726e-68
-16.98848990196973,120.0,0.9874761925441503,0.9352682938974133,6.449982872278611e-67,4.1545862855074724e-67
-14.988489901869729,126.0,0.9900248633284565,0.9429618220479987,6.914212257348918e-66,4.453610825334534e-66
-12.988489901769729,126.0,0.9922174972253102,0.954659895392425,7.281910454633864e-65,4.6904577311032214e-65
-10.988489901669729,126.0,0.9941870272192398,0.9625208809586479,7.534709921529105e-64,4.853295865542317e-64
-8.988489901569729,126.0,0.995920898518799,0.9664647243629054,7.659605625661881e-63,4.933748183051827e-63
-6.988489901469729,132.0,0.9974062567769888,0.974876839296799,7.650063508450079e-62,4.9276057331911505e-62
-4.988489901369729,132.0,0.9984830857593332,0.9871761174705905,7.506586892325576e-61,4.8351925148387665e-61
-2.9884899012697286,132.0,0.9992773746972458,0.9954176373401117,7.236672491924446e-60,4.661337159679074e-60
-0.9884899011697286,132.0,0.9997844506946688,0.999503888535028,6.854161380072507e-59,4.414954889458785e-59
1.0115100989302714,132.0,1.0,0.9994804318598062,6.378063117942385e-58,4.108290121679601e-58
3.0115100990302714,132.0,0.9997810719265522,0.9953463734765886,5.830992070540709e-57,3.755909269293093e-57
5.0115100991302715,132.0,0.9992706651318255,0.987057302393578,5.237394733760624e-56,3.373558920123104e-56
7.0115100992302715,132.0,0.9984730986529661,0.9747124709409428,4.6217605942267055e-55,2.9770134038184466e-55
9.011510099330271,126.0,0.99739304366703,0.9664415212759989,4.0069961512515444e-54,2.581027450869398e-54
11.011510099430271,126.0,0.9959047529125731,0.9624526643186819,3.4131062091080954e-53,2.1984867687375072e-53
13.011510099530271,126.0,0.9941680954205868,0.9545467897539509,2.85627573484593e-52,1.839816630542363e-52
15.011510099630271,126.0,0.9921959299281481,0.9428055567321483,2.3483885611851177e-51,1.5126718465419968e-51
17.011510099730273,120.0,0.9900007951147382,0.9352561057529589,1.8969650315535738e-50,1.22189658814186e-50
19.011510099830275,120.0,0.9874495989189913,0.9323237775532514,1.5054567318797742e-49,9.697142228947653e-50
21.011510099930277,120.0,0.9846890343797681,0.9256492333899817,1.1738074234627856e-48,7.560886193315497e-49
23.01151010003028,120.0,0.9817391344089145,0.9152748362819525,8.991767726116255e-48,5.791903164147057e-48
25.01151010013028,114.0,0.9786190552189066,0.9078581887384161,6.767262009081202e-47,4.35902709276771e-47
27.011510100230282,114.0,0.9751927250334401,0.9047540601516317,5.00380771819847e-46,3.2231280161234066e-46
29.011510100330284,114.0,0.9715918744235876,0.8981768865138172,3.635029715178184e-45,2.341452084255409e-45
31.011510100430286,114.0,0.967842296569366,0.8881739395490944,2.5943888432902336e-44,1.6711396572575565e-44
33.01151010053029,108.0,0.9639684297872588,0.8810055694401115,1.8192062325853243e-43,1.1718175062195942e-43
35.01151010063029,108.0,0.959838101249609,0.8782701072595678,1.253281352728458e-42,8.072852079261013e-43
37.01151010073029,108.0,0.9555702866976367,0.8722585369205207,8.48271749388872e-42,5.464039019176273e-42
39.01151010083029,108.0,0.9511950811057787,0.8629809177710421,5.640806681001063e-41,3.6334599459285086e-41
41.011510100930295,102.0,0.946740784224976,0.855997511034704,3.685252212024145e-40,2.3738143463037317e-40
43.0115101010303,102.0,0.9420880033205067,0.8539710180945521,2.3654457863598708e-39,1.5236769873836795e-39
45.0115101011303,102.0,0.9373317004544921,0.8487824998316351,1.4916899353807434e-38,9.608571908994484e-39
47.0115101012303,102.0,0.9325052812724864,0.8404406807531004,9.241955803048913e-38,5.953118798784784e-38
49.0115101013303,96.0,0.927640002773281,0.8326368179783501,5.625601553086142e-37,3.623681416533638e-37
51.011510101430304,96.0,0.9226441088998943,0.8288783377085183,3.364292813055615e-36,2.167081309532737e-36
53.011510101530305,96.0,0.9175862842085848,0.8222216656544651,1.97668890251713e-35,1.2732688739276843e-35
55.01151010163031,96.0,0.9125021353901727,0.8126842216046812,1.1410444283261292e-34,7.349955910241816e-35
57.01151010173031,90.0,0.9074246363091563,0.8044928171091263,6.471224304947788e-34,4.16839642280223e-34
59.01151010183031,90.0,0.9022878185395817,0.8021890648322083,3.605703335214353e-33,2.3225920504724844e-33
61.01151010193031,90.0,0.8971293238924363,0.7972317038281846,1.973845413254666e-32,1.2714417379138324e-32
63.011510102030314,90.0,0.8919853309649441,0.7895841466908,1.0615876417936367e-31,6.838164844031049e-32
65.01151010213032,84.0,0.8868890426556705,0.7818850099494207,5.609421903781479e-31,3.613284875256988e-31
67.01151010223032,84.0,0.881783462942387,0.7792322898602482,2.912056868583835e-30,1.875790514434794e-30
69.01151010233032,84.0,0.8766786366579122,0.7741560929085141,1.485255088027575e-29,9.567223496048522e-30
71.01151010243032,84.0,0.8716082013383136,0.7665965642801782,7.44254811680249e-29,4.7940980248415056e-29
73.01151010253032,78.0,0.8666027045218199,0.7583133617819913,3.664051849337017e-28,2.3601915888768493e-28
75.01151010263033,78.0,0.8616086957199153,0.7551507893767362,1.7722332366294765e-27,1.1415814799814452e-27
77.01151010273033,78.0,0.8566295475540927,0.7495074683627565,8.421692841539493e-27,5.424826161335573e-27
79.01151010283033,78.0,0.8516962162716605,0.7413153603266125,3.9318515958286674e-26,2.5327010886379804e-26
81.01151010293033,72.0,0.8468366913964301,0.7323457263576414,1.8034909998687453e-25,1.1617192648460606e-25
83.01151010303033,72.0,0.8420032626691358,0.7299675113865297,8.127367996039592e-25,5.2352512558662655e-25
85.01151010313033,72.0,0.837195337414811,0.725230594987273,3.5983623311263365e-24,2.3178903693261462e-24
87.01151010323034,72.0,0.8324432655609894,0.7180573272953371,1.5652323619657606e-23,1.008247636745815e-23
89.01151010333034,66.0,0.827774831923091,0.7096863156275544,6.689160867540048e-23,4.308840620809428e-23
91.01151010343034,66.0,0.8231480753817667,0.7078134008989647,2.80855731614192e-22,1.8091412570998094e-22
93.01151010353034,66.0,0.8185542574347896,0.7035653678784729,1.158547124119363e-21,7.462825510594633e-22
95.01151010363034,66.0,0.8140234282928557,0.6968250964007808,4.695294183932018e-21,3.0244944398348067e-21
97.01151010373034,60.0,0.8095836361405097,0.6871393129912842,1.869521805982878e-20,1.2042618167891748e-20
99.01151010383035,60.0,0.8052022274478099,0.6839880741694522,7.313357653455235e-20,4.710940230116946e-20
101.01151010393035,60.0,0.800861062442249,0.6783603436979974,2.810745788222862e-19,1.8105592890342212e-19
103.01151010403035,60.0,0.7965909318118403,0.6701630847449601,1.0613160427720826e-18,6.836539275852353e-19
105.01151010413035,54.0,0.7924212970583759,0.6606704336527783,3.937188607284759e-18,2.5361690978160688e-18
107.01151010423035,54.0,0.7883284598470166,0.6605031542068889,1.434980387811438e-17,9.243540659190628e-18
109.01151010433036,54.0,0.7842764688839435,0.6580726020891969,5.138352454434998e-17,3.3099138129967684e-17
111.01151010443036,54.0,0.7802970148560778,0.6532252161110748,1.8076731951465517e-16,1.1644292827893308e-16
113.01151010453036,48.0,0.776421303618183,0.6445589867883703,6.24789858922627e-16,4.0246449965062703e-16
115.01151010463036,48.0,0.7726348178871019,0.6423685302423014,2.1216120536430293e-15,1.3666584407726852e-15
117.01151010473036,48.0,0.7688819098124958,0.6376916860069292,7.078086204329269e-15,4.559427032123496e-15
119.01151010483036,48.0,0.7651956981090675,0.6303931228966955,2.3199761205832727e-14,1.494439527895031e-14
121.01151010493037,42.0,0.7616099325791902,0.6183090873636075,7.470830752382208e-14,4.812426830527703e-14
123.01151010503037,42.0,0.7581246446074253,0.6161163316074563,2.363588777677177e-13,1.5225360068059732e-13
125.01151010513037,42.0,0.7546588442375481,0.6117011989250014,7.346703312292489e-13,4.732477598857934e-13
127.01151010523037,42.0,0.7512474321530317,0.6049374628620671,2.243523216508558e-12,1.4451969841080855e-12
129.01151010533036,36.0,0.7479272507073489,0.594106220064833,6.7310999824873415e-12,4.335936711356366e-12
131.01151010543035,36.0,0.74471674054834,0.5924430564801177,1.9840784764543727e-11,1.2780744540717594e-11
133.01151010553033,36.0,0.7415036013355668,0.5888660833177146,5.745778836454104e-11,3.7012347455108195e-11
135.01151010563032,36.0,0.7383235560673769,0.5833342834478616,1.6347680640683937e-10,1.0530628401636866e-10
137.0115101057303,30.0,0.7352153037773594,0.5745530351763055,4.569624250754749e-10,2.943601750062241e-10
139.0115101058303,30.0,0.732220332398862,0.57143385032239,1.2549368399592518e-09,8.083898477287768e-10
141.01151010593028,30.0,0.7292123910894599,0.5668316161720154,3.385947397943316e-09,2.1811202525693004e-09
143.01151010603027,30.0,0.726226635695381,0.5607397066325074,8.975433507721119e-09,5.781696095705805e-09
145.01151010613026,24.0,0.7233015773081463,0.5500001780568504,2.337477717148768e-08,1.5057321712151805e-08
147.01151010623025,24.0,0.72050205222378,0.5467893721516581,5.980758617246371e-08,3.85262687636385e-08
149.01151010633023,24.0,0.71768970196939,0.5422434299888454,1.5034249450112447e-07,9.684625997666404e-08
151.01151010643022,24.0,0.7148976918911462,0.5363372083708245,3.712990556890433e-07,2.391802825249767e-07
153.0115101065302,18.0,0.7121627941742065,0.5251200121135904,9.009122424015916e-07,5.80342595534545e-07
155.0115101066302,18.0,0.7095740161315564,0.5196947392623957,2.1476208923207226e-06,1.3834389860789872e-06
157.01151010673019,18.0,0.7069745193075813,0.5132227758429508,5.029782182638125e-06,3.24005214961141e-06
159.01151010683017,18.0,0.7043941967296788,0.5057187332930021,1.1573297111707662e-05,7.455218193372901e-06
161.01151010693016,12.0,0.7018667483297711,0.4980066951537879,2.6162626156319277e-05,1.6853302919743308e-05
163.01151010703015,12.0,0.6994988118930743,0.4943312433773581,5.810611254408257e-05,3.743052763185768e-05
165.01151010713014,12.0,0.6971260956752509,0.4901931469372722,0.00012678810319430365,8.167385811185925e-05
167.01151010723012,12.0,0.6947720071620065,0.48557549524558086,0.0002718011779385749,0.00017508798364006408
169.0115101073301,6.0,0.6924638367546042,0.4820103338927196,0.0005724535601161405,0.0003687616157042762
171.0115101074301,6.0,0.6903128707676696,0.477280809129645,0.0011845277377909222,0.0007630467149380158
173.01151010753009,6.0,0.6881672944385827,0.47222474014572524,0.0024080539458932013,0.0015512169770269897
175.01151010763007,6.0,0.6860412983543691,0.4668290604685164,0.00480953564776151,0.003098203443793665
177.01151010773006,0.0,0.6839530758773945,0.4659003432224953,0.009437479088089598,0.0060794352247686406
179.01151010783005,0.0,0.6820049657847054,0.4617321557415247,0.01819385528770888,0.011720129758476085
181.01151010793004,0.0,0.6800744839298665,0.4575694099328538,0.034459527083984746,0.02219818413309816
183.01151010803002,0.0,0.6781650406034258,0.45341002684041765,0.06412238972048312,0.04130648979852915
185.01151010813,5.0,0.6762841463435919,0.44952583248848904,0.117226517613619,0.07551529295045736
187.01151010823,5.0,0.6745341635199966,0.445854058652845,0.21055122755834865,0.13563359846360923
189.01151010833,5.0,0.6728100730587826,0.44203957657461956,0.37153986174586734,0.2393400525696729
191.01151010842997,5.0,0.671104462370836,0.43809142921335614,0.6441229191466487,0.4149341523431268
193.01151010852996,10.0,0.6694140550071701,0.4344660342822839,1.097103925487739,0.7067383586589886
195.01151010862995,10.0,0.667856042519587,0.43109482766597385,1.835872204785494,1.1826433886404724
197.01151010872994,10.0,0.6663305037953833,0.4273955291396825,3.0182330483375077,1.9443059314604434
199.01151010882992,10.0,0.6648209188212201,0.42337680147278184,4.875046100201109,3.140443825525365
201.0115101089299,15.0,0.663314921867983,0.41873879669664316,7.736068510241541,4.983484175445483
203.0115101090299,15.0,0.661936747788939,0.4129971815204191,12.060838553110987,7.769458594845185
205.0115101091299,15.0,0.6606010888585363,0.4063931428129015,18.473547996146582,11.900468096934064
207.01151010922987,15.0,0.6592853370835987,0.3989790414587244,27.79961194306217,17.908241639265526
209.01151010932986,20.0,0.6579710190495175,0.3935963155404337,41.10008940503645,26.476310293202218
211.01151010942985,20.0,0.6567750768157566,0.39046573506400706,59.69836220174562,38.45719445393192
213.01151010952984,20.0,0.6556300560460804,0.38616062452515637,85.19177968692539,54.87990627753092
215.01151010962982,20.0,0.6545108571238756,0.3807774161656976,119.43967131231153,76.94222850648666
217.0115101097298,25.0,0.653396280041543,0.37681578853172454,164.51865698927108,105.98192669847221
219.0115101098298,25.0,0.6523861854346666,0.3745994671335187,222.63701714035045,143.42158774393573
221.0115101099298,25.0,0.6514289630929911,0.371178880754199,296.0024295574227,190.6834171275711
223.01151011002977,25.0,0.6504985218968161,0.3666256226044109,386.6418676667524,249.07321816989958
225.01151011012976,30.0,0.6495723873884296,0.3611857848595137,496.178808494551,319.6368695020782
227.01151011022975,30.0,0.64874266743064,0.3545369372858097,625.5806377549708,402.9976025806953
229.01151011032974,30.0,0.6479787993866422,0.3464498496036208,774.8973393524645,499.18766346527696
231.01151011042973,30.0,0.6472551712440839,0.33709684896744535,943.019901662727,607.492674895177
233.0115101105297,35.0,0.646549309481382,0.3283214982355589,1127.4918193886356,726.3302013663563
235.0115101106297,35.0,0.6459462356469953,0.32017368992115924,1324.4081101978823,853.184690348901
237.0115101107297,35.0,0.6454378657012855,0.31069079415842216,1528.4322586382898,984.6183818761469
239.01151011082968,35.0,0.6450005698436739,0.30017283383125437,1732.9520011112202,1116.3716598418396
241.01151011092966,40.0,0.6446126003071606,0.29323410266607414,1930.3803748107532,1243.5569834226806
243.01151011102965,40.0,0.6443337103110992,0.2903907965996241,2112.5905031547954,1360.9389733967664
245.01151011112964,40.0,0.6441658013813875,0.2861510829172463,2271.45361963638,1463.2810071270114
247.01151011122963,40.0,0.6440879462484506,0.2807176802901082,2399.432838295529,1545.7277283502117
249.0115101113296,45.0,0.6440796421680526,0.2773270357697084,2490.1731928556846,1604.1851560655423
251.0115101114296,45.0,0.6441762136253818,0.2765408052695155,2539.0239519881284,1635.6571681165617
253.0115101115296,45.0,0.6443834839471781,0.27455768102491296,2543.4335274371197,1638.4999107115757
255.01151011162958,45.0,0.6446827455153664,0.27152258561213677,2503.170307858422,1612.564069827353
257.0115101117296,50.0,0.6450546640805109,0.26984787780676206,2420.342815737716,1559.2078658691075
259.0115101118296,50.0,0.6455174279872015,0.26981410839120407,2299.216745769276,1481.1791975357487
261.01151011192957,50.0,0.6460819482084899,0.2684853072069304,2145.850982137081,1382.3811691334863
263.01151011202955,50.0,0.6467311850691518,0.2659768955738125,1967.5958196693089,1267.5488463079448
265.01151011212954,55.0,0.6474467467896545,0.2645006148855379,1772.5111802774923,1141.874469317816
267.01151011222953,55.0,0.6482325818950219,0.2645060180696527,1568.7686819784788,1010.6222610712182
269.0115101123295,55.0,0.6491064166739212,0.2633490225382192,1364.0985615990762,878.7721275637397
271.0115101124295,55.0,0.6500527225972121,0.2611361782840357,1165.3317600538635,750.7246606854803
273.0115101125295,60.0,0.6510540700901416,0.26003880096981025,978.0712365237773,630.0893899931922
275.0115101126295,60.0,0.6521054702987158,0.260507301714015,806.5077519580506,519.5661023220421
277.01151011272947,60.0,0.6532315899030122,0.25987981735583526,653.3770012071968,420.91721967510784
279.01151011282946,60.0,0.6544174817271412,0.2582317493718764,520.0396580292987,335.019359573222
281.01151011292944,65.0,0.6556458907268129,0.2567873466920285,406.6553542359371,261.9754099448353
283.01151011302943,65.0,0.6569050212853316,0.255757004725385,312.41654371027374,201.2651839054754
285.0115101131294,65.0,0.6582262499068479,0.25366594956430855,235.80832797557912,151.91280068438286
287.0115101132294,65.0,0.6595948527534425,0.25060205195059254,174.86461304069806,112.65170439948052
289.0115101133294,70.0,0.6609935221313913,0.24836739274997865,127.39796515521412,82.07274038658291
291.0115101134294,70.0,0.6624065008302177,0.24739471712440148,91.18867627104154,58.745954647809356
293.01151011352937,70.0,0.6638723041028152,0.24545936281590008,64.12646265080424,41.31187939877884
295.01151011362936,70.0,0.6653750237864057,0.24263273966541773,44.30489408514653,28.542367218846515
297.01151011372934,75.0,0.6668960862639465,0.2410451353095267,30.073519847304013,19.37417282865043
299.01151011382933,75.0,0.6684124939679335,0.24118014587473963,20.055572103047776,12.920359209307682
301.0115101139293,75.0,0.6699661758618826,0.24028624209032626,13.140266658766077,8.465338712960042
303.0115101140293,75.0,0.671540019451743,0.2384103933944116,8.458468322307063,5.449197139326508
305.0115101141293,80.0,0.6731143696456477,0.2392280585413083,5.349310369269669,3.446190052034268
307.0115101142293,80.0,0.6746442336099517,0.24382910367229027,3.3237050923898215,2.1412360611036383
309.01151011432927,80.0,0.6761726754837709,0.2473370044531716,2.028924473090056,1.3070993205280594
311.01151011442926,80.0,0.6776832637418092,0.249727145632846,1.2168248963197024,0.7839194505918903
313.01151011452924,85.0,0.6791574189672517,0.2502422120942495,0.716983557998037,0.46190556913215136
315.01151011462923,85.0,0.6805323416311467,0.24857426181634457,0.41505849291648217,0.2673954165974624
317.0115101147292,85.0,0.6818682955148997,0.24574962145065568,0.23606331782295747,0.15208059954231734
319.0115101148292,85.0,0.6831506861294971,0.2418280185850089,0.13190671252853559,0.08497924424683584
321.0115101149292,90.0,0.6843632162936597,0.23913883560024157,0.0724143386054566,0.04665210000774092
323.0115101150292,90.0,0.6854303909469348,0.23838193420995618,0.039057245818737395,0.02516221736227972
325.01151011512917,90.0,0.6864341537871899,0.23650342985322487,0.02069655819992204,0.013333559150561856
327.01151011522916,90.0,0.6873625743773726,0.23355279805939172,0.010774923659237812,0.006941651973171963
329.01151011532914,95.0,0.6882022476781355,0.23111978302319586,0.005511247615319577,0.0035505794302790467
331.01151011542913,95.0,0.688861010895669,0.22965655729256065,0.0027695256052595683,0.0017842486269236233
333.0115101155291,95.0,0.689428702142481,0.22706716587548118,0.0013673530776232936,0.0008809095936879079
335.0115101156291,95.0,0.6898965855104919,0.22339559673190368,0.0006632478856872922,0.00042729442382006405
337.0115101157291,100.0,0.6902547532842844,0.2205237042438653,0.00031607567603845566,0.00020363063401546556
339.0115101158291,100.0,0.6904006709807908,0.21906872433371988,0.00014798795216311922,9.534086510077088e-05
341.01151011592907,100.0,0.6904286490285211,0.21653107151953488,6.807408488128017e-05,4.3856627525275126e-05
343.01151011602906,100.0,0.6903339642698705,0.21295328375431966,3.0765041864697365e-05,1.9820364025721537e-05
345.01151011612905,105.0,0.6901110549302439,0.21064210909628617,1.3660089204243799e-05,8.800520321029705e-06
347.01151011622903,105.0,0.6896438636181517,0.21040012750451498,5.958953057810944e-06,3.839065131754093e-06
349.011510116329,105.0,0.6890256393455129,0.20909631626034658,2.5539175489430873e-06,1.645368173117248e-06
351.011510116429,105.0,0.6882564062517258,0.20674740866013952,1.0753858881402695e-06,6.928213459506397e-07
353.011510116529,110.0,0.6873357731924541,0.2063098591883871,4.4487952455401176e-07,2.8661575149907944e-07
355.011510116629,110.0,0.6861324048361785,0.20890648516424432,1.8081780628369747e-07,1.1649292346087356e-07
357.01151011672897,110.0,0.6847332459579537,0.21041971525684505,7.220391299397723e-08,4.6517867478334435e-08
359.01151011682896,110.0,0.6831438914868042,0.2108190640509582,2.832703356708719e-08,1.8249916310207706e-08
361.01151011692895,110.0,0.6813701453033073,0.2149042094130771,1.091848412787086e-08,7.034331754378334e-09
363.01151011702893,110.0,0.6792775330957151,0.2154814566432114,4.134705137337283e-09,2.66382545914131e-09
365.0115101171289,110.0,0.6769714028093371,0.21491938762664597,1.5383237463576143e-09,9.91082231621698e-10
367.0115101172289,110.0,0.6744638312946829,0.21321758639591287,5.623050745754149e-10,3.622719222258714e-10
369.0115101173289,105.0,0.6717673794259102,0.20935260920663798,2.0193768436360746e-10,1.3010104153662166e-10
371.0115101174289,105.0,0.6687518849368566,0.2051039099961082,7.124984111365492e-11,4.5903735953973605e-11
373.01151011752887,105.0,0.6655477466860019,0.19976434238300805,2.4698560050402446e-11,1.5912429772588585e-11
375.01151011762886,105.0,0.6621734383575749,0.19341399957639585,8.411638833573835e-12,5.419337748521174e-12
377.01151011772885,100.0,0.6586475981831562,0.185113603913066,2.8145624549457483e-12,1.8133315936167833e-12
379.01151011782883,100.0,0.6548406015208378,0.18084610870108447,9.25257235603258e-13,5.961143375234629e-13
381.0115101179288,100.0,0.6508766448742911,0.17562767042689165,2.988377457437068e-13,1.9253215425350515e-13
383.0115101180288,100.0,0.6467796407157032,0.1695376484047748,9.482651863350411e-14,6.109397291057399e-14
385.0115101181288,95.0,0.6425732534907647,0.1608526284366505,2.956280121449477e-14,1.9046487199785556e-14
387.0115101182288,95.0,0.6381311517606523,0.15505896027988364,9.054882237289223e-15,5.833817768475379e-15
389.0115101183288,95.0,0.633564311558313,0.1485083354238939,2.7248430919077163e-15,1.7555463458365108e-15
391.01151011842876,95.0,0.6289008328964267,0.14129837523453675,8.056041205434322e-16,5.190309178154484e-16
393.01151011852875,90.0,0.6241681576715691,0.12999921563253894,2.340040437732813e-16,1.50763309862062e-16
395.01151011862873,90.0,0.6192506527230563,0.12339466536481103,6.678002260747308e-17,4.302487479764064e-17
397.0115101187287,90.0,0.6142461082820715,0.11620241908865231,1.8723683268503488e-17,1.2063271249287361e-17
399.0115101188287,90.0,0.6091854879223597,0.10852072960734255,5.157717377728003e-18,3.3230134826097265e-18
401.0115101189287,85.0,0.6040986646869528,0.09205108347707344,1.39587114238164e-18,8.993332448275716e-19
403.0115101190287,85.0,0.598896874734565,0.08493412274669755,3.711544307032714e-19,2.39128162087692e-19
405.0115101191287,85.0,0.5936464924345101,0.07741257586616139,9.695841290441065e-20,6.246868059581353e-20
407.01151011922866,85.0,0.588380314211544,0.06959180630094783,2.4885012734294798e-20,1.60330247290529e-20
409.01151011932865,80.0,0.5831296381706697,0.05437045409782159,6.2749713394558075e-21,4.042873032726564e-21
411.01151011942864,80.0,0.5778466596488644,0.04899741494992797,1.5545586853769403e-21,1.0015813730911693e-21
413.0115101195286,80.0,0.5725553124236267,0.04340457442814832,3.7837634244780927e-22,2.437832457810059e-22
415.0115101196286,80.0,0.5672890930575692,0.03766691855513182,9.048201959131316e-23,5.829656011845427e-23
417.0115101197286,75.0,0.5620795557093659,0.023063190879510698,2.1257981754101325e-23,1.3696305602779794e-23
419.0115101198286,75.0,0.5569190446971131,0.018333286686501766,4.90685450181825e-24,3.161442978986826e-24
421.0115101199286,75.0,0.5517852668189418,0.013526094162876087,1.112770763298811e-24,7.169496295972996e-25
423.01151012002856,75.0,0.5467110706214791,0.008706004909140596,2.4793028207544186e-25,1.5973985235964525e-25
425.01151012012855,70.0,0.541727064978399,0.003294409481180101,5.427186516744413e-26,3.4967067994706936e-26
427.01151012022854,70.0,0.5368440818836855,0.0011470357027974151,1.1671889967617302e-26,7.520148601452466e-27
429.0115101203285,70.0,0.5320075316887504,-0.000978790609643683,2.46620312459853e-27,1.588966894119414e-27
431.0115101204285,70.0,0.5272457876219112,-0.003053280005916023,5.119619418132965e-28,3.298560473766844e-28
