-1.011393e+00 3.438114e+02 0.000000e+00
-1.023366e+00 3.508023e+02 0.000000e+00
-7.177086e-02 -6.252481e+03 0.000000e+00
-4.337886e-03 -6.264419e+03 0.000000e+00
-8.694671e-03 -6.264124e+03 0.000000e+00
-1.704215e+00 1.641391e+03 1.188787e-296
-2.718967e-01 -5.997833e+03 0.000000e+00
-1.124683e+00 7.490601e+02 0.000000e+00
-1.098375e+00 6.349417e+02 0.000000e+00
-2.505734e+00 2.082853e+03 1.083947e-105
-2.524141e+00 2.086873e+03 6.037703e-104
-2.825356e+00 2.155726e+03 4.823361e-74
-2.642320e+00 2.102139e+03 2.575202e-97
-2.837989e+00 2.173857e+03 3.610297e-66
-2.674184e+00 2.109442e+03 3.823525e-94
-2.741130e+00 2.140655e+03 1.374351e-80
-2.863744e+00 2.179971e+03 1.632373e-63
-2.876874e+00 2.180185e+03 2.021894e-63
-8.075414e-01 -1.092781e+03 0.000000e+00
-1.945199e+00 1.783941e+03 9.633463e-235
-1.778272e+00 1.684469e+03 6.076335e-278
-1.613300e+00 1.616475e+03 1.795654e-307
-3.065767e-01 -5.810398e+03 0.000000e+00
-3.547709e-01 -5.568586e+03 0.000000e+00
-3.671913e-01 -5.503946e+03 0.000000e+00
-4.184756e-01 -5.046443e+03 0.000000e+00
-2.220324e-01 -6.158146e+03 0.000000e+00
-2.833236e-01 -5.945022e+03 0.000000e+00
-2.775938e-01 -5.980601e+03 0.000000e+00
-2.006443e-01 -6.183262e+03 0.000000e+00
-2.112812e-01 -6.170879e+03 0.000000e+00
-1.145272e-01 -6.232724e+03 0.000000e+00
-1.390951e-01 -6.222660e+03 0.000000e+00
-1.307052e-02 -6.261870e+03 0.000000e+00
-1.570765e+00 1.529425e+03 0.000000e+00
-5.370586e-01 -4.400347e+03 0.000000e+00
-5.078653e-01 -4.491815e+03 0.000000e+00
-5.825116e-01 -3.851319e+03 0.000000e+00
-5.671299e-01 -4.004771e+03 0.000000e+00
-1.453045e+00 1.359588e+03 0.000000e+00
-2.007666e+00 1.906181e+03 1.180157e-181
-1.657724e+00 1.620111e+03 6.812672e-306
-9.995628e-01 3.360984e+02 0.000000e+00
-9.204500e-01 -1.627328e+01 0.000000e+00
-2.631415e-02 -6.260144e+03 0.000000e+00
-1.111443e+00 7.248957e+02 0.000000e+00
-6.251271e-02 -6.252895e+03 0.000000e+00
-3.734598e-01 -5.379774e+03 0.000000e+00
-1.237435e+00 1.007259e+03 0.000000e+00
-1.830878e+00 1.732459e+03 4.221180e-257
-4.519174e-01 -4.889690e+03 0.000000e+00
-4.865163e-01 -4.598276e+03 0.000000e+00
-2.305852e+00 2.039667e+03 1.107065e-123
-2.183387e+00 2.011267e+03 5.131092e-136
-2.605989e-01 -6.050246e+03 0.000000e+00
-3.989345e-01 -5.148469e+03 0.000000e+00
-1.072742e+00 5.073838e+02 0.000000e+00
-5.223554e-01 -4.436310e+03 0.000000e+00
-2.438879e-01 -6.120175e+03 0.000000e+00
-4.935821e-01 -4.565581e+03 0.000000e+00
-3.609618e-01 -5.560340e+03 0.000000e+00
-1.347735e+00 1.124693e+03 0.000000e+00
-3.797679e-01 -5.365886e+03 0.000000e+00
-6.465194e-01 -3.204766e+03 0.000000e+00
-7.060976e-01 -2.434224e+03 0.000000e+00
-1.550157e+00 1.471057e+03 0.000000e+00
-1.746560e-02 -6.260376e+03 0.000000e+00
-7.327593e-01 -1.820632e+03 0.000000e+00
-7.418069e-01 -1.820614e+03 0.000000e+00
-1.193650e+00 9.616935e+02 0.000000e+00
-4.317184e-01 -5.005924e+03 0.000000e+00
-7.601514e-01 -1.720521e+03 0.000000e+00
-6.548163e-01 -3.150818e+03 0.000000e+00
-1.252467e+00 1.014999e+03 0.000000e+00
-1.314960e+00 1.106856e+03 0.000000e+00
-1.858257e+00 1.735169e+03 6.344128e-256
-1.060167e+00 4.816971e+02 0.000000e+00
-1.298967e+00 1.101205e+03 0.000000e+00
-5.333948e-02 -6.255192e+03 0.000000e+00
-1.975945e+00 1.840692e+03 4.270007e-210
-1.341330e-01 -6.224710e+03 0.000000e+00
-1.399005e+00 1.222793e+03 0.000000e+00
-1.471728e+00 1.392659e+03 0.000000e+00
-1.085476e+00 5.336973e+02 0.000000e+00
-2.396710e+00 2.041963e+03 1.099799e-122
-2.263342e+00 2.035966e+03 2.734319e-125
-2.222565e+00 2.027996e+03 9.451967e-129
-1.047749e+00 4.444422e+02 0.000000e+00
-1.416696e+00 1.296428e+03 0.000000e+00
-9.878705e-01 2.893685e+02 0.000000e+00
-1.886406e+00 1.746616e+03 5.939377e-251
-5.595269e-01 -4.206036e+03 0.000000e+00
-6.301292e-01 -3.289790e+03 0.000000e+00
-5.296800e-01 -4.400581e+03 0.000000e+00
-4.725328e-01 -4.627290e+03 0.000000e+00
-5.006982e-01 -4.523633e+03 0.000000e+00
-8.572893e-01 -4.181500e+02 0.000000e+00
-4.587421e-01 -4.880702e+03 0.000000e+00
-7.149061e-01 -2.162714e+03 0.000000e+00
-1.953681e-01 -6.186753e+03 0.000000e+00
-5.902920e-01 -3.707185e+03 0.000000e+00
-7.237929e-01 -2.030644e+03 0.000000e+00
-7.978820e-01 -1.315014e+03 0.000000e+00
-1.915370e+00 1.780255e+03 2.415310e-236
-1.752972e+00 1.659178e+03 6.308120e-289
-1.728296e+00 1.656670e+03 5.136762e-290
-1.541309e-01 -6.213008e+03 0.000000e+00
-2.948826e-01 -5.851114e+03 0.000000e+00
-2.890864e-01 -5.855208e+03 0.000000e+00
-5.444921e-01 -4.268704e+03 0.000000e+00
-5.150841e-01 -4.437160e+03 0.000000e+00
-6.973660e-01 -2.440932e+03 0.000000e+00
-8.111552e-02 -6.249090e+03 0.000000e+00
-1.693963e-01 -6.208554e+03 0.000000e+00
-3.243785e-01 -5.722531e+03 0.000000e+00
-4.054058e-01 -5.123309e+03 0.000000e+00
-3.925047e-01 -5.179848e+03 0.000000e+00
-5.747911e-01 -3.936029e+03 0.000000e+00
-9.535922e-01 9.023720e+01 0.000000e+00
-2.145685e+00 1.981173e+03 4.370707e-149
-1.529966e+00 1.460148e+03 0.000000e+00
-1.901194e-01 -6.189414e+03 0.000000e+00
-1.745369e-01 -6.203662e+03 0.000000e+00
-1.591935e-01 -6.212997e+03 0.000000e+00
-1.848983e-01 -6.197532e+03 0.000000e+00
-3.124755e-01 -5.743079e+03 0.000000e+00
-3.007125e-01 -5.819214e+03 0.000000e+00
-2.329005e-01 -6.156493e+03 0.000000e+00
-3.973552e-02 -6.258144e+03 0.000000e+00
-3.425028e-01 -5.637818e+03 0.000000e+00
-3.364248e-01 -5.671249e+03 0.000000e+00
-1.364535e+00 1.172011e+03 0.000000e+00
-4.878424e-02 -6.255362e+03 0.000000e+00
-8.779028e-01 -2.228257e+02 0.000000e+00
-1.138101e+00 8.126078e+02 0.000000e+00
-1.635265e+00 1.619120e+03 2.528900e-306
-2.662318e-01 -6.017975e+03 0.000000e+00
-2.274517e-01 -6.156682e+03 0.000000e+00
-1.000710e-01 -6.237812e+03 0.000000e+00
-2.494273e-01 -6.101268e+03 0.000000e+00
-2.059486e-01 -6.178572e+03 0.000000e+00
-1.242820e-01 -6.230849e+03 0.000000e+00
-9.054834e-02 -6.247261e+03 0.000000e+00
-8.582081e-02 -6.247455e+03 0.000000e+00
-1.193927e-01 -6.231241e+03 0.000000e+00
-6.220338e-01 -3.394091e+03 0.000000e+00
-6.382907e-01 -3.272728e+03 0.000000e+00
-8.172949e-01 -8.171454e+02 0.000000e+00
-1.490766e+00 1.397870e+03 0.000000e+00
-8.471398e-01 -5.176952e+02 0.000000e+00
-9.763133e-01 2.473816e+02 0.000000e+00
-1.035483e+00 3.575550e+02 0.000000e+00
-3.076795e-02 -6.259335e+03 0.000000e+00
-4.451389e-01 -4.982789e+03 0.000000e+00
-4.795001e-01 -4.623680e+03 0.000000e+00
-2.383791e-01 -6.131131e+03 0.000000e+00
-4.250751e-01 -5.017388e+03 0.000000e+00
-4.656136e-01 -4.660104e+03 0.000000e+00
-3.303835e-01 -5.720745e+03 0.000000e+00
-1.642819e-01 -6.208677e+03 0.000000e+00
-1.440820e-01 -6.221979e+03 0.000000e+00
-9.529832e-02 -6.244952e+03 0.000000e+00
-1.797042e-01 -6.203191e+03 0.000000e+00
-2.166423e-01 -6.164107e+03 0.000000e+00
-7.883151e-01 -1.675320e+03 0.000000e+00
-7.509371e-01 -1.759012e+03 0.000000e+00
-2.040426e+00 1.913027e+03 1.109481e-178
-2.074296e+00 1.921135e+03 3.684509e-175
-2.601356e+00 2.098507e+03 6.814810e-99
-2.533473e+00 2.087457e+03 1.082679e-103
-2.581486e+00 2.095938e+03 5.220971e-100
-2.591372e+00 2.096718e+03 1.138940e-99
-2.514895e+00 2.084971e+03 9.012467e-105
-2.542893e+00 2.087739e+03 1.435393e-103
-2.552403e+00 2.088468e+03 2.975579e-103
-2.571697e+00 2.093317e+03 3.797217e-101
-2.562003e+00 2.090876e+03 3.306379e-102
-2.611441e+00 2.099814e+03 2.518121e-98
-3.148565e+00 2.210375e+03 2.612816e-50
-3.033984e+00 2.191510e+03 1.675496e-58
-3.003521e+00 2.191450e+03 1.577923e-58
-3.049571e+00 2.193858e+03 1.753343e-57
-3.065404e+00 2.196988e+03 4.010593e-56
-2.685035e+00 2.112850e+03 1.154887e-92
-2.850783e+00 2.174664e+03 8.091306e-66
-3.018636e+00 2.191509e+03 1.673822e-58
-2.973959e+00 2.189679e+03 2.685037e-59
-2.959499e+00 2.189662e+03 2.639777e-59
-2.663450e+00 2.104897e+03 4.060650e-96
-2.621628e+00 2.101162e+03 9.694058e-98
-2.764479e+00 2.147188e+03 9.448077e-78
-2.776361e+00 2.148671e+03 4.162959e-77
-2.800559e+00 2.149749e+03 1.223409e-76
-2.788387e+00 2.149745e+03 1.218525e-76
-2.812880e+00 2.151292e+03 5.723847e-76
-3.381912e+00 2.222355e+03 4.168279e-45
-3.360247e+00 2.222288e+03 3.898154e-45
-3.114466e+00 2.207472e+03 1.433349e-51
-2.903664e+00 2.183404e+03 5.055364e-62
-2.917334e+00 2.183862e+03 7.992070e-62
-3.097843e+00 2.200805e+03 1.823521e-54
-3.081492e+00 2.200769e+03 1.759041e-54
-3.976336e+00 2.236567e+03 1.444899e-39
-3.943514e+00 2.236407e+03 3.208240e-39
-3.920449e+00 2.236368e+03 3.085527e-39
-4.125772e+00 2.240905e+03 1.106132e-37
-4.136575e+00 2.240905e+03 1.106132e-37
-4.158091e+00 2.241343e+03 1.644965e-37
-4.199665e+00 2.241559e+03 6.773114e-38
-nan 2.241537e+03 1.489477e-37
-5.078348e+00 2.257356e+03 3.569513e-31
-4.894728e+00 2.254555e+03 2.984554e-32
-5.429033e+00 2.266154e+03 6.461733e-28
-5.415688e+00 2.265785e+03 6.507839e-28
-8.134809e+00 2.304448e+03 2.761988e-11
-9.064392e+00 2.308308e+03 2.173526e-10
-5.754352e+00 2.274408e+03 2.483222e-24
-5.723655e+00 2.273700e+03 1.223306e-24
-8.801797e+00 2.307299e+03 4.779643e-10
-8.490823e+00 2.306878e+03 3.137310e-10
-8.389253e+00 2.306355e+03 1.859608e-10
-8.545758e+00 2.306897e+03 3.197489e-10
-8.665605e+00 2.307225e+03 4.438719e-10
-6.923209e+00 2.294015e+03 8.132565e-16
-7.054024e+00 2.294856e+03 1.885685e-15
-7.016617e+00 2.294586e+03 1.439493e-15
-6.018407e+00 2.281810e+03 4.070646e-21
-6.093310e+00 2.282937e+03 1.256358e-20
-5.841140e+00 2.276175e+03 1.453496e-23
-5.883584e+00 2.278234e+03 1.139269e-22
-5.887533e+00 2.278303e+03 1.220654e-22
-5.903488e+00 2.278562e+03 1.581521e-22
-5.919702e+00 2.279101e+03 2.711188e-22
-5.923797e+00 2.279119e+03 2.760431e-22
-5.658635e+00 2.270986e+03 8.106995e-26
-5.750894e+00 2.274388e+03 2.434051e-24
-5.223287e+00 2.261129e+03 6.185313e-30
-5.789603e+00 2.275052e+03 4.728259e-24
-5.571285e+00 2.269075e+03 1.199287e-26
-9.829488e+00 2.314299e+03 8.690068e-08
-9.198855e+00 2.309316e+03 5.955713e-10
-9.293112e+00 2.310099e+03 1.303126e-09
-9.146290e+00 2.309021e+03 4.434217e-10
-9.702679e+00 2.312888e+03 2.119501e-08
-9.513364e+00 2.311041e+03 3.342656e-09
-9.419367e+00 2.310727e+03 2.441874e-09
-9.397186e+00 2.310694e+03 2.362607e-09
-6.174282e+00 2.285914e+03 2.466084e-19
-6.601844e+00 2.291365e+03 5.745756e-17
-6.163795e+00 2.285613e+03 1.825094e-19
-6.531617e+00 2.290799e+03 3.262395e-17
-6.501921e+00 2.290479e+03 2.368985e-17
-6.122912e+00 2.283711e+03 2.724314e-20
-6.117917e+00 2.283623e+03 2.494820e-20
-5.475112e+00 2.267159e+03 1.765285e-27
-6.132977e+00 2.284083e+03 3.951980e-20
-6.411081e+00 2.289653e+03 1.037134e-17
-6.431324e+00 2.289710e+03 1.097968e-17
-6.424531e+00 2.289689e+03 1.075151e-17
-6.417784e+00 2.289674e+03 1.059144e-17
-9.235498e+00 2.309497e+03 7.137417e-10
-9.254336e+00 2.309531e+03 7.384262e-10
-9.273536e+00 2.309578e+03 7.739607e-10
-9.096351e+00 2.308512e+03 2.665391e-10
-1.012958e+01 2.316513e+03 2.121992e-07
-1.011748e+01 2.316506e+03 2.107190e-07
-1.003664e+01 2.315610e+03 8.601534e-08
-1.004780e+01 2.315612e+03 8.618754e-08
-1.005908e+01 2.315800e+03 1.040140e-07
-1.008203e+01 2.315908e+03 1.158766e-07
-1.007049e+01 2.315848e+03 1.091284e-07
-9.972202e+00 2.314998e+03 4.664313e-08
-9.873250e+00 2.314356e+03 2.454543e-08
-9.892273e+00 2.314528e+03 2.915206e-08
-9.882716e+00 2.314399e+03 2.562390e-08
-9.941475e+00 2.314886e+03 4.170102e-08
-9.931439e+00 2.314875e+03 4.124482e-08
-1.002561e+01 2.315573e+03 8.289093e-08
-9.921503e+00 2.314777e+03 3.739457e-08
-1.010552e+01 2.316218e+03 1.579890e-07
-9.901921e+00 2.314597e+03 3.123457e-08
-9.911664e+00 2.314600e+03 3.132842e-08
-1.000390e+01 2.315064e+03 4.982544e-08
-9.982658e+00 2.315024e+03 4.787175e-08
-9.993224e+00 2.315024e+03 4.787175e-08
-9.796247e+00 2.314036e+03 6.680419e-08
-9.732906e+00 2.313427e+03 3.633443e-08
-9.181024e+00 2.309213e+03 5.372809e-10
-9.617123e+00 2.312287e+03 1.162044e-08
-9.375487e+00 2.310423e+03 1.801763e-09
-9.354248e+00 2.310260e+03 1.530762e-09
-9.465262e+00 2.310988e+03 3.170109e-09
-9.538312e+00 2.311225e+03 4.017926e-09
-9.563898e+00 2.311618e+03 5.952229e-09
-9.163507e+00 2.309028e+03 4.465365e-10
-9.112722e+00 2.308552e+03 2.774168e-10
-9.080244e+00 2.308469e+03 2.553209e-10
-8.297056e+00 2.305302e+03 6.487978e-11
-7.281280e+00 2.296837e+03 1.367120e-14
-6.148267e+00 2.284669e+03 7.100866e-20
-5.987322e+00 2.280658e+03 1.286341e-21
-5.176915e+00 2.259588e+03 1.324689e-30
-7.364374e+00 2.297868e+03 3.833224e-14
-6.004966e+00 2.281511e+03 3.018626e-21
-5.891498e+00 2.278382e+03 1.320997e-22
-5.359749e+00 2.264546e+03 1.885150e-28
-5.356354e+00 2.264512e+03 1.822132e-28
-5.394343e+00 2.265428e+03 4.554007e-28
-5.401407e+00 2.265664e+03 5.766166e-28
-5.214427e+00 2.260831e+03 4.591366e-30
-5.160066e+00 2.258859e+03 6.390182e-31
-5.191177e+00 2.260159e+03 2.344747e-30
-5.643020e+00 2.270728e+03 6.263426e-26
-5.220325e+00 2.261054e+03 5.738384e-30
-5.822428e+00 2.275783e+03 9.821335e-24
-5.927909e+00 2.279299e+03 3.304836e-22
-5.630701e+00 2.270618e+03 5.610991e-26
-5.636841e+00 2.270695e+03 6.060106e-26
-5.646123e+00 2.270738e+03 6.326374e-26
-5.370002e+00 2.264723e+03 2.250174e-28
-5.531699e+00 2.267933e+03 3.827885e-27
-5.526170e+00 2.267928e+03 3.808793e-27
-5.528930e+00 2.267930e+03 3.816418e-27
-5.542850e+00 2.268076e+03 4.416345e-27
-5.534475e+00 2.267947e+03 3.881852e-27
-5.501659e+00 2.267400e+03 2.246363e-27
-5.562669e+00 2.268748e+03 8.647864e-27
-5.523416e+00 2.267901e+03 3.707332e-27
-5.554127e+00 2.268536e+03 6.995817e-27
-5.165651e+00 2.258944e+03 6.957100e-31
-5.449251e+00 2.266466e+03 8.827726e-28
-5.588742e+00 2.269407e+03 1.671510e-26
-5.618532e+00 2.270407e+03 4.543635e-26
-5.652360e+00 2.270878e+03 7.277063e-26
-5.603526e+00 2.269714e+03 2.272152e-26
-5.727019e+00 2.273906e+03 1.503141e-24
-5.700414e+00 2.272909e+03 5.546362e-25
-5.687372e+00 2.272278e+03 2.950994e-25
-4.783099e+00 2.253363e+03 9.061507e-33
-5.054454e+00 2.256996e+03 3.427617e-31
-5.582889e+00 2.269365e+03 1.602760e-26
-6.333976e+00 2.288570e+03 3.511511e-18
-6.321684e+00 2.288201e+03 2.427948e-18
-5.915624e+00 2.278977e+03 2.395009e-22
-5.815040e+00 2.275588e+03 8.081335e-24
-5.740592e+00 2.274124e+03 1.869287e-24
-5.952941e+00 2.279606e+03 4.492399e-22
-6.050489e+00 2.282186e+03 5.928681e-21
-5.517932e+00 2.267709e+03 3.059686e-27
-5.565533e+00 2.268824e+03 9.330722e-27
-7.995248e+00 2.303858e+03 1.531046e-11
-7.844396e+00 2.302677e+03 4.699875e-12
-5.235224e+00 2.261588e+03 9.788201e-30
-5.138032e+00 2.258494e+03 4.436043e-31
-5.594629e+00 2.269596e+03 2.019252e-26
-5.271915e+00 2.263127e+03 4.561231e-29
-5.253401e+00 2.262564e+03 2.597612e-29
-5.431538e+00 2.266233e+03 6.992915e-28
-5.168455e+00 2.259131e+03 8.387670e-31
-5.174087e+00 2.259460e+03 1.165532e-30
-8.098051e+00 2.304318e+03 2.425289e-11
-8.172970e+00 2.304548e+03 3.052469e-11
-5.793198e+00 2.275065e+03 4.790128e-24
-5.764797e+00 2.274627e+03 3.091193e-24
-5.352971e+00 2.264490e+03 1.782483e-28
-5.275034e+00 2.263188e+03 4.848127e-29
-5.697137e+00 2.272898e+03 5.485686e-25
-6.466000e+00 2.289885e+03 1.307951e-17
-5.412099e+00 2.265721e+03 6.104386e-28
-5.404959e+00 2.265676e+03 5.835777e-28
-5.446701e+00 2.266465e+03 8.818903e-28
-5.451807e+00 2.266467e+03 8.836558e-28
-5.444158e+00 2.266464e+03 8.810088e-28
-5.496293e+00 2.267342e+03 2.119780e-27
-5.911562e+00 2.278944e+03 2.317263e-22
-6.609961e+00 2.291418e+03 6.058495e-17
-6.524110e+00 2.290739e+03 3.072407e-17
-5.132599e+00 2.258462e+03 4.296337e-31
-6.069295e+00 2.282575e+03 8.747796e-21
-6.651561e+00 2.291515e+03 6.675616e-17
-5.895479e+00 2.278447e+03 1.409714e-22
-5.778897e+00 2.274919e+03 4.139426e-24
-5.775353e+00 2.274916e+03 4.127026e-24
-5.796805e+00 2.275161e+03 5.272777e-24
-5.597586e+00 2.269623e+03 2.074515e-26
-5.456939e+00 2.266624e+03 1.033873e-27
-5.454370e+00 2.266545e+03 9.553403e-28
-5.548473e+00 2.268249e+03 5.250443e-27
-7.789898e+00 2.302228e+03 2.999771e-12
-7.713346e+00 2.302054e+03 2.520698e-12
-7.689077e+00 2.301985e+03 2.352635e-12
-7.932151e+00 2.303365e+03 9.351493e-12
-7.763724e+00 2.302161e+03 2.805372e-12
-8.028355e+00 2.303934e+03 1.651941e-11
-6.022927e+00 2.281881e+03 4.370170e-21
-5.606509e+00 2.269786e+03 2.441780e-26
-5.512479e+00 2.267635e+03 2.841444e-27
-5.300344e+00 2.263859e+03 9.483871e-29
-5.297145e+00 2.263844e+03 9.342674e-29
-5.303554e+00 2.263860e+03 9.493359e-29
-5.293956e+00 2.263844e+03 9.342674e-29
-5.284451e+00 2.263260e+03 5.210066e-29
-5.326312e+00 2.264018e+03 1.111830e-28
-5.238231e+00 2.261815e+03 1.228253e-29
-4.694702e+00 2.252232e+03 2.924242e-33
-4.596912e+00 2.250693e+03 6.275295e-34
-4.757035e+00 2.252920e+03 5.818459e-33
-4.789722e+00 2.253388e+03 9.290900e-33
-5.229238e+00 2.261373e+03 7.894589e-30
-5.199833e+00 2.260541e+03 3.435552e-30
-4.385322e+00 2.245798e+03 4.696374e-36
-4.440010e+00 2.246891e+03 1.401027e-35
-4.341927e+00 2.244746e+03 1.640155e-36
-5.111098e+00 2.257772e+03 5.410974e-31
-4.995604e+00 2.256232e+03 1.596582e-31
-5.003802e+00 2.256233e+03 1.598180e-31
-5.012068e+00 2.256251e+03 1.627207e-31
-5.188308e+00 2.260157e+03 2.340062e-30
-5.339553e+00 2.264183e+03 1.311285e-28
-5.262615e+00 2.262776e+03 3.211033e-29
-4.987473e+00 2.256214e+03 1.568101e-31
-4.917121e+00 2.254924e+03 4.316524e-32
-5.208564e+00 2.260688e+03 3.979585e-30
-5.135312e+00 2.258467e+03 4.317872e-31
-5.151746e+00 2.258677e+03 5.326864e-31
-5.154512e+00 2.258678e+03 5.332194e-31
-5.194054e+00 2.260222e+03 2.497219e-30
-4.210777e+00 2.241698e+03 7.783148e-38
-4.272221e+00 2.242660e+03 2.036792e-37
-4.292224e+00 2.243471e+03 4.583101e-37
-4.115084e+00 2.240620e+03 8.318272e-38
-4.248735e+00 2.242283e+03 1.397068e-37
-4.947779e+00 2.255324e+03 6.439497e-32
-4.602407e+00 2.250782e+03 6.859404e-34
-4.613489e+00 2.250920e+03 7.874428e-34
-4.591447e+00 2.250620e+03 5.833520e-34
-5.422906e+00 2.265876e+03 7.127834e-28
-5.664950e+00 2.271635e+03 1.551376e-25
-5.826142e+00 2.275849e+03 1.049141e-23
-5.716959e+00 2.273642e+03 1.154373e-24
-5.693872e+00 2.272762e+03 4.788141e-25
-5.436567e+00 2.266280e+03 7.329428e-28
-5.439091e+00 2.266291e+03 7.410497e-28
-5.579975e+00 2.269224e+03 1.391980e-26
-5.244272e+00 2.261964e+03 1.425600e-29
-5.464687e+00 2.266943e+03 1.422353e-27
-5.469886e+00 2.267065e+03 1.606909e-27
-5.520671e+00 2.267751e+03 3.190930e-27
-5.363155e+00 2.264704e+03 2.207824e-28
-5.633766e+00 2.270627e+03 5.661717e-26
-6.957223e+00 2.294240e+03 1.018460e-15
-7.474157e+00 2.298890e+03 1.065156e-13
-6.721946e+00 2.292369e+03 1.568118e-16
-7.041399e+00 2.294736e+03 1.672453e-15
-6.083635e+00 2.282802e+03 1.097700e-20
-5.624598e+00 2.270566e+03 5.326675e-26
-5.649237e+00 2.270859e+03 7.140104e-26
-6.703880e+00 2.292099e+03 1.197069e-16
-7.249884e+00 2.296502e+03 9.779528e-15
-4.880074e+00 2.254391e+03 2.533117e-32
-4.851394e+00 2.254110e+03 1.912575e-32
-4.971406e+00 2.255809e+03 1.045887e-31
-4.731634e+00 2.252510e+03 3.861422e-33
-4.719171e+00 2.252450e+03 3.636550e-33
-4.823514e+00 2.253752e+03 1.337030e-32
-3.469349e+00 2.228972e+03 1.893596e-42
-5.537259e+00 2.267967e+03 3.960271e-27
-6.143144e+00 2.284519e+03 6.111772e-20
-4.284175e+00 2.243117e+03 3.216764e-37
-4.233379e+00 2.241949e+03 1.000376e-37
-6.487397e+00 2.290099e+03 1.620057e-17
-6.768593e+00 2.292571e+03 1.919138e-16
-6.858467e+00 2.293208e+03 3.628707e-16
-6.677379e+00 2.291814e+03 9.002132e-17
-6.660093e+00 2.291673e+03 7.818256e-17
-6.740345e+00 2.292496e+03 1.780468e-16
-6.827603e+00 2.292845e+03 2.524079e-16
-6.879585e+00 2.293334e+03 4.115978e-16
-7.417760e+00 2.298508e+03 7.269636e-14
-7.119658e+00 2.295334e+03 3.041319e-15
-7.204565e+00 2.295850e+03 5.095161e-15
-7.219444e+00 2.295943e+03 5.591744e-15
-6.759088e+00 2.292513e+03 1.810995e-16
-6.256652e+00 2.286865e+03 6.382958e-19
-5.117778e+00 2.257818e+03 5.665693e-31
-5.157285e+00 2.258774e+03 5.869461e-31
-6.234015e+00 2.286575e+03 4.776135e-19
-5.856367e+00 2.276886e+03 2.959357e-23
-5.860210e+00 2.276946e+03 3.142353e-23
-6.179567e+00 2.285921e+03 2.483408e-19
-5.899476e+00 2.278497e+03 1.481992e-22
-5.844925e+00 2.276279e+03 1.612800e-23
-6.585807e+00 2.291159e+03 4.676086e-17
-6.397811e+00 2.289542e+03 9.281717e-18
-6.103080e+00 2.282957e+03 1.281738e-20
-5.256463e+00 2.262588e+03 2.660709e-29
-5.600552e+00 2.269626e+03 2.080748e-26
-5.390829e+00 2.265330e+03 4.128885e-28
-4.507839e+00 2.248000e+03 4.246969e-35
-7.597497e+00 2.301350e+03 1.246745e-12
-6.359023e+00 2.289168e+03 6.385607e-18
-6.391241e+00 2.289533e+03 9.198556e-18
-8.212645e+00 2.304669e+03 3.445093e-11
-5.591681e+00 2.269530e+03 1.890284e-26
-5.577070e+00 2.269167e+03 1.314856e-26
-5.477735e+00 2.267186e+03 1.813597e-27
-6.643102e+00 2.291484e+03 6.471846e-17
-8.253960e+00 2.304714e+03 3.603663e-11
-7.161210e+00 2.295595e+03 3.948324e-15
-7.106182e+00 2.295318e+03 2.993045e-15
-6.371786e+00 2.289406e+03 8.101478e-18
-7.265459e+00 2.296829e+03 1.356226e-14
-5.020403e+00 2.256360e+03 1.814600e-31
-4.300338e+00 2.243687e+03 5.688097e-37
-3.854282e+00 2.236109e+03 2.381481e-39
-5.488297e+00 2.267250e+03 1.933462e-27
-5.373443e+00 2.264795e+03 2.418161e-28
-4.630345e+00 2.251122e+03 9.637103e-34
-4.619076e+00 2.251020e+03 8.702589e-34
-4.636028e+00 2.251187e+03 1.028432e-33
-5.171267e+00 2.259190e+03 8.897432e-31
-5.037284e+00 2.256430e+03 1.946174e-31
-4.858487e+00 2.254155e+03 2.000606e-32
-5.250349e+00 2.262397e+03 2.198098e-29
-5.278163e+00 2.263217e+03 4.990782e-29
-5.182596e+00 2.260036e+03 2.073375e-30
-4.664935e+00 2.251515e+03 1.427658e-33
-5.185448e+00 2.260070e+03 2.145082e-30
-5.091320e+00 2.257433e+03 3.855224e-31
-4.569881e+00 2.250047e+03 3.289122e-34
-5.387327e+00 2.265225e+03 3.717337e-28
-5.241247e+00 2.261875e+03 1.304204e-29
-5.713628e+00 2.273619e+03 1.128125e-24
-5.441621e+00 2.266334e+03 7.736098e-28
-5.313244e+00 2.263924e+03 1.012080e-28
-5.545657e+00 2.268099e+03 4.519098e-27
-4.053249e+00 2.239093e+03 1.806614e-38
-4.063293e+00 2.239100e+03 1.819305e-38
-4.308519e+00 2.243785e+03 6.273760e-37
-4.641743e+00 2.251365e+03 1.228797e-33
-4.372105e+00 2.245297e+03 2.845648e-36
-4.478204e+00 2.247442e+03 2.430764e-35
-4.430685e+00 2.246730e+03 1.192683e-35
-4.955593e+00 2.255421e+03 7.095426e-32
-4.554006e+00 2.249708e+03 2.343441e-34
-5.179751e+00 2.259611e+03 1.355510e-30
-5.419291e+00 2.265862e+03 7.028740e-28
-5.408522e+00 2.265698e+03 5.965587e-28
-5.383838e+00 2.265215e+03 3.680349e-28
-7.381854e+00 2.298036e+03 4.534461e-14
-4.580606e+00 2.250505e+03 5.199802e-34
-4.421446e+00 2.246669e+03 1.122104e-35
-3.626271e+00 2.232991e+03 1.053700e-40
-3.513896e+00 2.230716e+03 1.083171e-41
-4.688678e+00 2.252043e+03 2.420648e-33
-5.104461e+00 2.257621e+03 4.652614e-31
-4.887374e+00 2.254504e+03 2.836158e-32
-4.564561e+00 2.249948e+03 2.979098e-34
-4.346183e+00 2.244790e+03 1.713933e-36
-4.487985e+00 2.247718e+03 3.203377e-35
-4.468518e+00 2.247352e+03 2.221551e-35
-5.612502e+00 2.270324e+03 4.181739e-26
-5.467283e+00 2.266967e+03 1.456902e-27
-5.498972e+00 2.267397e+03 2.239634e-27
-5.504353e+00 2.267466e+03 2.399625e-27
-5.771822e+00 2.274717e+03 3.382304e-24
-5.690616e+00 2.272643e+03 4.250949e-25
-7.963202e+00 2.303437e+03 1.004963e-11
-8.959506e+00 2.307759e+03 7.571308e-10
-7.436208e+00 2.298693e+03 8.746960e-14
-7.902036e+00 2.303261e+03 8.427802e-12
-8.438749e+00 2.306647e+03 2.490207e-10
-8.342092e+00 2.305904e+03 1.184553e-10
-7.347193e+00 2.297830e+03 3.690294e-14
-7.330303e+00 2.297787e+03 3.534975e-14
-6.787879e+00 2.292709e+03 2.203124e-16
-6.108001e+00 2.283248e+03 1.714663e-20
-6.817523e+00 2.292833e+03 2.493971e-16
-7.313694e+00 2.297642e+03 3.057832e-14
-6.378229e+00 2.289411e+03 8.142087e-18
-7.297356e+00 2.297091e+03 1.762452e-14
-6.059848e+00 2.282301e+03 6.651230e-21
-6.032030e+00 2.281965e+03 4.753123e-21
-6.438164e+00 2.289740e+03 1.131406e-17
-6.901159e+00 2.293891e+03 7.184144e-16
-5.677701e+00 2.272131e+03 2.547576e-25
-6.088461e+00 2.282887e+03 1.195084e-20
-6.273973e+00 2.287222e+03 9.121476e-19
-6.912123e+00 2.293990e+03 7.931771e-16
-6.848072e+00 2.293088e+03 3.218374e-16
-6.797663e+00 2.292787e+03 2.381847e-16
-6.577883e+00 2.291126e+03 4.524294e-17
-6.222886e+00 2.286503e+03 4.444341e-19
-7.189903e+00 2.295816e+03 4.924837e-15
-6.404424e+00 2.289586e+03 9.699230e-18
-5.852538e+00 2.276822e+03 2.775892e-23
-6.158592e+00 2.285412e+03 1.492767e-19
-6.868970e+00 2.293249e+03 3.780576e-16
-6.473081e+00 2.289933e+03 1.372263e-17
-6.346421e+00 2.288895e+03 4.860039e-18
-6.352702e+00 2.288954e+03 5.155409e-18
-6.686135e+00 2.292019e+03 1.105034e-16
-6.694968e+00 2.292057e+03 1.147834e-16
-6.554483e+00 2.291033e+03 4.122507e-17
-6.968823e+00 2.294288e+03 1.068538e-15
-6.211879e+00 2.286306e+03 3.649651e-19
-6.206420e+00 2.286168e+03 3.179206e-19
-6.169025e+00 2.285758e+03 2.109881e-19
-6.279814e+00 2.287272e+03 9.589144e-19
-5.668122e+00 2.271653e+03 1.579553e-25
-5.875732e+00 2.277761e+03 7.099128e-23
-5.978615e+00 2.280115e+03 7.473676e-22
-5.969983e+00 2.279985e+03 6.562600e-22
-5.744014e+00 2.274147e+03 1.912779e-24
-7.665384e+00 2.301474e+03 1.411335e-12
-7.642239e+00 2.301473e+03 1.409924e-12
-7.738218e+00 2.302128e+03 2.714305e-12
-6.634713e+00 2.291473e+03 6.401046e-17
-5.661787e+00 2.271035e+03 8.514131e-26
-6.384713e+00 2.289474e+03 8.671541e-18
-6.200992e+00 2.286128e+03 3.054548e-19
-6.239626e+00 2.286694e+03 5.379695e-19
-6.837785e+00 2.293015e+03 2.991803e-16
-6.153416e+00 2.284894e+03 8.892576e-20
-5.907517e+00 2.278937e+03 2.301099e-22
-6.539181e+00 2.290885e+03 3.555378e-17
-5.247306e+00 2.262171e+03 1.753463e-29
-6.027468e+00 2.281938e+03 4.626505e-21
-6.138048e+00 2.284464e+03 5.784701e-20
-9.961855e+00 2.314989e+03 4.622522e-08
-1.009371e+01 2.316037e+03 1.318316e-07
-1.023345e+01 2.318604e+03 2.440052e-06
-1.049520e+01 2.319900e+03 8.917534e-06
-1.047057e+01 2.319899e+03 8.908621e-06
-1.031332e+01 2.319439e+03 5.623867e-06
-1.033433e+01 2.319448e+03 5.674710e-06
-1.062834e+01 2.320576e+03 1.753185e-05
-1.065724e+01 2.321119e+03 3.017517e-05
-1.054635e+01 2.320338e+03 1.381865e-05
-1.078198e+01 2.321635e+03 5.055286e-05
-1.094145e+01 2.323173e+03 1.348492e-04
-1.254031e+01 2.329350e+03 1.041926e-02
-1.267274e+01 2.329864e+03 1.742065e-02
-1.257639e+01 2.329814e+03 1.657103e-02
-1.184444e+01 2.327222e+03 4.610482e-03
-1.300570e+01 2.331176e+03 6.469320e-02
-1.246005e+01 2.329003e+03 2.736685e-02
-1.297787e+01 2.331033e+03 5.607309e-02
-1.292443e+01 2.330941e+03 5.114456e-02
-1.306380e+01 2.331274e+03 7.135419e-02
-1.280213e+01 2.330611e+03 3.676904e-02
-1.329923e+01 2.332267e+03 1.447760e-01
-1.351817e+01 2.332804e+03 1.626949e-01
-1.321733e+01 2.331753e+03 8.659031e-02
-1.324389e+01 2.331864e+03 9.675558e-02
-1.271404e+01 2.330283e+03 2.648705e-02
-1.166461e+01 2.326734e+03 2.830158e-03
-1.240105e+01 2.328711e+03 2.043670e-02
-1.131999e+01 2.324388e+03 2.709916e-04
-1.120969e+01 2.324023e+03 1.881214e-04
-1.219473e+01 2.328424e+03 1.533799e-02
-1.100572e+01 2.323392e+03 1.000918e-04
-1.265271e+01 2.329861e+03 1.736846e-02
-1.277937e+01 2.330551e+03 3.462777e-02
-1.178084e+01 2.327143e+03 4.260270e-03
-1.172104e+01 2.327007e+03 3.718545e-03
-1.106417e+01 2.323491e+03 1.105080e-04
-1.114239e+01 2.323762e+03 1.449064e-04
-1.112625e+01 2.323759e+03 1.444723e-04
-1.146622e+01 2.324879e+03 4.427865e-04
-1.109473e+01 2.323499e+03 1.113956e-04
-1.163755e+01 2.325824e+03 1.139207e-03
-1.287371e+01 2.330722e+03 4.108553e-02
-1.255819e+01 2.329801e+03 1.635700e-02
-1.263308e+01 2.329858e+03 1.731644e-02
-1.259493e+01 2.329828e+03 1.680466e-02
-1.349517e+01 2.332708e+03 1.478024e-01
-1.345071e+01 2.332508e+03 1.210104e-01
-1.342920e+01 2.332504e+03 1.205273e-01
-1.461804e+01 2.335340e+03 5.267436e-01
-1.447075e+01 2.335196e+03 8.961543e-01
-1.441178e+01 2.334605e+03 4.962662e-01
-1.430334e+01 2.334413e+03 4.095719e-01
-1.405444e+01 2.334113e+03 3.034184e-01
-1.407467e+01 2.334157e+03 3.170668e-01
-1.476789e+01 2.335520e+03 4.851672e-01
-1.482768e+01 2.335588e+03 3.249323e-01
-1.500144e+01 2.335898e+03 4.430209e-01
-1.489361e+01 2.335737e+03 3.771402e-01
-1.497646e+01 2.335865e+03 4.286398e-01
-1.487115e+01 2.335708e+03 3.663602e-01
-1.496419e+01 2.335862e+03 4.273558e-01
-1.521394e+01 2.336045e+03 4.813469e-01
-1.519937e+01 2.336022e+03 4.704023e-01
-1.514313e+01 2.335979e+03 4.506037e-01
-1.508988e+01 2.335958e+03 4.412397e-01
-1.524847e+01 2.336088e+03 3.297422e-01
-1.581612e+01 2.336611e+03 4.795055e-01
-1.673508e+01 2.337422e+03 4.453840e-01
-1.657233e+01 2.337303e+03 9.579114e-01
-1.654055e+01 2.337291e+03 9.464851e-01
-1.815524e+01 2.338200e+03 4.139576e-01
-1.795465e+01 2.338150e+03 5.525833e-01
-1.805496e+01 2.338187e+03 5.734118e-01
-1.772789e+01 2.338050e+03 4.999981e-01
-1.792333e+01 2.338150e+03 5.525833e-01
-1.783485e+01 2.338086e+03 5.183259e-01
-1.802039e+01 2.338166e+03 5.614957e-01
-1.943195e+01 2.338640e+03 1.453894e-01
-1.879302e+01 2.338426e+03 1.779848e-01
-1.875111e+01 2.338423e+03 2.449213e-01
-1.829924e+01 2.338259e+03 2.078750e-01
-1.859701e+01 2.338390e+03 2.369708e-01
-1.940973e+01 2.338609e+03 1.409514e-01
-1.966485e+01 2.338717e+03 9.792805e-02
-1.926665e+01 2.338567e+03 1.351541e-01
-1.928588e+01 2.338584e+03 1.374713e-01
-1.936672e+01 2.338592e+03 1.385755e-01
-1.851856e+01 2.338377e+03 2.339101e-01
-1.834575e+01 2.338299e+03 2.163585e-01
-1.903611e+01 2.338502e+03 1.920389e-01
-1.905931e+01 2.338503e+03 1.922311e-01
-1.720627e+01 2.337628e+03 3.278657e-01
-1.726838e+01 2.337664e+03 3.398839e-01
-1.725249e+01 2.337642e+03 3.324881e-01
-1.750186e+01 2.337821e+03 3.976627e-01
-1.849987e+01 2.338365e+03 2.311200e-01
-1.866017e+01 2.338413e+03 2.424843e-01
-1.831451e+01 2.338281e+03 2.124989e-01
-1.844581e+01 2.338352e+03 2.281348e-01
-1.899127e+01 2.338493e+03 1.903183e-01
-1.964732e+01 2.338717e+03 9.792805e-02
-1.968269e+01 2.338723e+03 9.851738e-02
-2.041582e+01 2.338956e+03 4.955915e-02
-2.132414e+01 2.339090e+03 2.179362e-02
-2.184098e+01 2.339223e+03 1.491384e-02
-2.075676e+01 2.339030e+03 4.627763e-02
-2.091423e+01 2.339050e+03 4.721250e-02
-2.089314e+01 2.339049e+03 4.716531e-02
-nan 2.339101e+03 2.272039e-02
-2.133849e+01 2.339096e+03 2.192478e-02
-2.112727e+01 2.339069e+03 4.811812e-02
-2.066960e+01 2.339009e+03 4.531594e-02
-2.047321e+01 2.338964e+03 4.332192e-02
-2.052964e+01 2.338981e+03 4.406469e-02
-1.952612e+01 2.338660e+03 1.483264e-01
-1.997314e+01 2.338806e+03 1.070433e-01
-2.129605e+01 2.339087e+03 2.172834e-02
-2.164573e+01 2.339175e+03 2.009088e-02
-2.166251e+01 2.339175e+03 2.009088e-02
-2.283430e+01 2.339394e+03 1.769514e-02
-2.275986e+01 2.339372e+03 1.731010e-02
-2.259490e+01 2.339351e+03 1.695037e-02
-2.328179e+01 2.339439e+03 5.538302e-03
-2.370286e+01 2.339493e+03 5.845592e-03
-2.375955e+01 2.339501e+03 5.892545e-03
-nan 2.339502e+03 3.269585e-03
-2.354984e+01 2.339475e+03 5.741313e-03
-2.357377e+01 2.339480e+03 5.770092e-03
-2.409082e+01 2.339522e+03 1.358266e-03
-2.419712e+01 2.339536e+03 1.377416e-03
-2.408169e+01 2.339522e+03 1.358266e-03
-2.391520e+01 2.339508e+03 2.113930e-03
-2.390314e+01 2.339507e+03 2.111817e-03
-2.459740e+01 2.339574e+03 1.395492e-03
-2.418698e+01 2.339535e+03 1.376039e-03
-2.422819e+01 2.339537e+03 1.378794e-03
-2.397782e+01 2.339514e+03 2.126652e-03
-2.399083e+01 2.339515e+03 2.128779e-03
-2.395230e+01 2.339514e+03 2.126652e-03
-2.412818e+01 2.339527e+03 1.365075e-03
-2.474790e+01 2.339588e+03 6.820730e-04
-2.471781e+01 2.339586e+03 9.100565e-04
-2.426403e+01 2.339537e+03 1.618267e-03
-2.428996e+01 2.339540e+03 1.623129e-03
-2.529961e+01 2.339634e+03 7.141811e-04
-2.573448e+01 2.339665e+03 5.076326e-04
-2.568941e+01 2.339662e+03 5.061119e-04
-2.564629e+01 2.339660e+03 5.051007e-04
-2.691000e+01 2.339741e+03 2.009156e-04
-3.031347e+01 2.339904e+03 1.948388e-05
-2.978196e+01 2.339901e+03 1.465996e-04
-2.944454e+01 2.339894e+03 1.455770e-04
-3.100194e+01 2.339917e+03 1.973882e-05
-3.120054e+01 2.339921e+03 1.981794e-05
-3.199735e+01 2.339945e+03 2.029932e-05
-2.816987e+01 2.339844e+03 1.384771e-04
-2.651340e+01 2.339715e+03 4.057270e-04
-2.605248e+01 2.339686e+03 3.941299e-04
-2.611886e+01 2.339687e+03 3.945242e-04
-2.653919e+01 2.339716e+03 4.061329e-04
-2.634941e+01 2.339702e+03 4.004867e-04
-2.882441e+01 2.339867e+03 1.416990e-04
-2.875021e+01 2.339866e+03 1.415573e-04
-2.868114e+01 2.339864e+03 1.412745e-04
-2.861653e+01 2.339863e+03 1.411333e-04
-2.919270e+01 2.339878e+03 1.432663e-04
-2.809286e+01 2.339841e+03 1.380623e-04
-2.767492e+01 2.339803e+03 1.329143e-04
-2.758179e+01 2.339794e+03 1.317235e-04
-2.825331e+01 2.339847e+03 1.388931e-04
-2.834435e+01 2.339853e+03 1.397290e-04
-2.829780e+01 2.339851e+03 1.394498e-04
-2.721396e+01 2.339769e+03 1.284712e-04
-2.772495e+01 2.339811e+03 1.339819e-04
-nan 2.339903e+03 5.798995e-05
-2.959909e+01 2.339894e+03 1.455770e-04
-3.091570e+01 2.339915e+03 1.969938e-05
-2.769962e+01 2.339809e+03 1.337142e-04
-2.777762e+01 2.339812e+03 1.341160e-04
-2.775094e+01 2.339812e+03 1.341160e-04
-2.780503e+01 2.339814e+03 1.343845e-04
-2.792287e+01 2.339820e+03 1.351932e-04
-2.931072e+01 2.339887e+03 1.445615e-04
-2.747640e+01 2.339783e+03 1.302825e-04
-2.698585e+01 2.339749e+03 2.025294e-04
-2.765081e+01 2.339800e+03 1.325162e-04
-2.813063e+01 2.339843e+03 1.383387e-04
-2.908716e+01 2.339871e+03 1.422669e-04
-2.821072e+01 2.339845e+03 1.386156e-04
-3.109632e+01 2.339921e+03 1.981794e-05
-2.680602e+01 2.339736e+03 1.999135e-04
-2.692843e+01 2.339742e+03 2.011166e-04
-2.664956e+01 2.339720e+03 4.077607e-04
-2.484381e+01 2.339596e+03 6.875514e-04
-2.508015e+01 2.339621e+03 7.049569e-04
-2.624682e+01 2.339695e+03 3.976931e-04
-2.639358e+01 2.339707e+03 4.024941e-04
-2.662080e+01 2.339719e+03 4.073532e-04
-2.786221e+01 2.339817e+03 1.347882e-04
-2.783321e+01 2.339816e+03 1.346535e-04
-2.674114e+01 2.339729e+03 4.114471e-04
-2.491984e+01 2.339607e+03 6.951562e-04
-2.486228e+01 2.339598e+03 6.889279e-04
-2.479907e+01 2.339593e+03 6.854919e-04
-2.485301e+01 2.339598e+03 6.889279e-04
-2.500213e+01 2.339614e+03 7.000394e-04
-2.491002e+01 2.339607e+03 6.951562e-04
-2.483470e+01 2.339595e+03 6.868642e-04
-2.498092e+01 2.339613e+03 6.993397e-04
-2.503482e+01 2.339617e+03 7.021427e-04
-2.687412e+01 2.339738e+03 2.003137e-04
-2.561854e+01 2.339659e+03 5.045959e-04
-2.630710e+01 2.339700e+03 3.996865e-04
-2.546649e+01 2.339651e+03 5.005752e-04
-2.549028e+01 2.339652e+03 5.010760e-04
-2.637125e+01 2.339703e+03 4.008874e-04
-2.593163e+01 2.339681e+03 3.921642e-04
-2.536594e+01 2.339640e+03 4.950991e-04
-2.550239e+01 2.339653e+03 5.015774e-04
-2.626651e+01 2.339696e+03 3.980910e-04
-2.743716e+01 2.339779e+03 1.297624e-04
-2.613616e+01 2.339688e+03 3.949189e-04
-2.667916e+01 2.339722e+03 4.085770e-04
-2.685666e+01 2.339738e+03 2.003137e-04
-2.694720e+01 2.339742e+03 2.011166e-04
-3.160033e+01 2.339935e+03 2.009734e-05
-3.177926e+01 2.339944e+03 2.027903e-05
-3.323466e+01 2.339979e+03 8.034611e-06
-3.273838e+01 2.339972e+03 7.978565e-06
-3.295604e+01 2.339979e+03 8.034611e-06
-3.255973e+01 2.339971e+03 7.970590e-06
-3.240820e+01 2.339965e+03 7.922910e-06
-3.508774e+01 2.340001e+03 3.719262e-07
-3.416807e+01 2.339994e+03 3.623450e-06
-3.385837e+01 2.339994e+03 3.623450e-06
-3.555180e+01 2.340012e+03 3.760400e-07
-3.541410e+01 2.340012e+03 3.760400e-07
-3.529309e+01 2.340012e+03 3.760400e-07
-3.518515e+01 2.340010e+03 3.752886e-07
-3.634421e+01 2.340013e+03 1.567544e-07
-3.649015e+01 2.340016e+03 1.572253e-07
-3.789381e+01 2.340020e+03 2.613854e-08
-3.779316e+01 2.340020e+03 2.613854e-08
-3.877909e+01 2.340023e+03 1.434385e-08
-3.910876e+01 2.340025e+03 1.437257e-08
-3.827607e+01 2.340022e+03 2.619087e-08
-3.844472e+01 2.340022e+03 2.619087e-08
-3.800574e+01 2.340021e+03 2.616469e-08
-3.813180e+01 2.340021e+03 2.616469e-08
-4.020202e+01 2.340030e+03 4.041829e-09
-3.893040e+01 2.340024e+03 1.435820e-08
-4.124174e+01 2.340032e+03 1.208589e-09
-nan 2.340031e+03 3.371905e-09
-4.037998e+01 2.340030e+03 4.041829e-09
-4.138978e+01 2.340032e+03 1.208589e-09
-nan 2.340034e+03 1.179166e-09
-4.349652e+01 2.340044e+03 2.331043e-10
-4.378421e+01 2.340048e+03 2.340386e-10
-4.298407e+01 2.340043e+03 3.906462e-10
-4.275995e+01 2.340043e+03 3.906462e-10
-4.418967e+01 2.340053e+03 2.352117e-10
-4.488282e+01 2.340058e+03 2.363907e-10
-2.563232e+01 2.339659e+03 5.045959e-04
-2.700575e+01 2.339750e+03 2.027320e-04
-2.330004e+01 2.339439e+03 5.538302e-03
-2.235295e+01 2.339291e+03 1.596326e-02
-1.639523e+01 2.337129e+03 8.049300e-01
-1.456629e+01 2.335292e+03 9.864499e-01
-1.435609e+01 2.334514e+03 4.530999e-01
-1.377927e+01 2.333662e+03 2.325658e-01
-1.374332e+01 2.333574e+03 2.129747e-01
-1.370861e+01 2.333234e+03 1.515891e-01
-1.275712e+01 2.330399e+03 2.974485e-02
-1.224245e+01 2.328491e+03 1.640084e-02
-1.057294e+01 2.320364e+03 1.418265e-05
-1.083564e+01 2.322522e+03 7.032707e-05
-4.363389e+00 2.245203e+03 2.590344e-36
-4.316767e+00 2.244261e+03 1.009839e-36
-4.312634e+00 2.244257e+03 1.005808e-36
-2.350249e+00 2.040573e+03 2.739327e-123
-2.109354e+00 1.971931e+03 4.234499e-153
-1.434705e+00 1.346604e+03 0.000000e+00
-8.675429e-01 -2.564335e+02 0.000000e+00
-4.119193e-01 -5.095962e+03 0.000000e+00
-6.140034e-01 -3.420458e+03 0.000000e+00
-6.060370e-01 -3.615989e+03 0.000000e+00
-5.519812e-01 -4.237144e+03 0.000000e+00
-9.313758e-01 5.501630e+01 0.000000e+00
-9.424223e-01 7.409030e+01 0.000000e+00
-2.707097e+00 2.119928e+03 1.369228e-89
-2.652829e+00 2.104661e+03 3.207023e-96
-2.631921e+00 2.101267e+03 1.076729e-97
-2.890180e+00 2.180265e+03 2.190292e-63
-2.718313e+00 2.120050e+03 1.546891e-89
-2.729656e+00 2.120052e+03 1.549988e-89
-3.131370e+00 2.209366e+03 9.525894e-51
-3.576556e+00 2.232526e+03 6.618659e-41
-3.733792e+00 2.235122e+03 8.875616e-40
-3.897903e+00 2.236316e+03 2.929180e-39
-3.792224e+00 2.235577e+03 1.398951e-39
-3.696652e+00 2.234484e+03 4.689414e-40
-3.660843e+00 2.233352e+03 1.511810e-40
-3.592855e+00 2.232757e+03 8.338579e-41
-4.104509e+00 2.240180e+03 5.357270e-38
-4.083688e+00 2.239801e+03 3.667296e-38
-4.073439e+00 2.239541e+03 2.827674e-38
-4.416859e+00 2.246604e+03 1.051487e-35
-4.304420e+00 2.243719e+03 5.873060e-37
-4.394231e+00 2.245913e+03 5.268737e-36
-4.473350e+00 2.247390e+03 2.307595e-35
-4.412292e+00 2.246436e+03 8.888788e-36
-4.359060e+00 2.245122e+03 2.388799e-36
-4.333470e+00 2.244719e+03 1.596463e-36
-5.483002e+00 2.267234e+03 1.902773e-27
-4.769982e+00 2.253177e+03 7.523530e-33
-4.712998e+00 2.252444e+03 3.614796e-33
-5.380361e+00 2.265060e+03 3.151906e-28
-5.306773e+00 2.263875e+03 9.636833e-29
-5.097869e+00 2.257433e+03 3.855224e-31
-5.316495e+00 2.263931e+03 1.019189e-28
-5.462098e+00 2.266875e+03 1.328848e-27
-5.556966e+00 2.268685e+03 8.119856e-27
-5.559814e+00 2.268686e+03 8.127980e-27
-5.509763e+00 2.267523e+03 2.540377e-27
-5.493621e+00 2.267263e+03 1.958761e-27
-5.490955e+00 2.267258e+03 1.948992e-27
-7.234549e+00 2.296184e+03 7.115612e-15
-7.147167e+00 2.295499e+03 3.586911e-15
-7.133318e+00 2.295494e+03 3.569021e-15
-7.066811e+00 2.294939e+03 2.048876e-15
-7.028931e+00 2.294733e+03 1.667443e-15
-5.376896e+00 2.264919e+03 2.737397e-28
-5.346239e+00 2.264281e+03 1.446298e-28
-5.342890e+00 2.264246e+03 1.396554e-28
-5.232227e+00 2.261540e+03 9.329465e-30
-5.226258e+00 2.261335e+03 7.600223e-30
-4.337690e+00 2.244738e+03 1.627086e-36
-4.325083e+00 2.244519e+03 1.307074e-36
-4.512865e+00 2.248212e+03 5.249882e-35
-4.548770e+00 2.249503e+03 1.909078e-34
-5.259535e+00 2.262690e+03 2.946425e-29
-5.281302e+00 2.263246e+03 5.137633e-29
-5.323029e+00 2.264016e+03 1.109609e-28
-5.319756e+00 2.264014e+03 1.107392e-28
-5.349600e+00 2.264332e+03 1.521973e-28
-5.336226e+00 2.264161e+03 1.282752e-28
-5.397869e+00 2.265437e+03 4.595178e-28
-5.434050e+00 2.266233e+03 6.992915e-28
-5.837370e+00 2.275997e+03 1.216493e-23
-6.184880e+00 2.286021e+03 2.744590e-19
-6.190222e+00 2.286068e+03 2.876665e-19
-6.074052e+00 2.282604e+03 9.005197e-21
-6.036613e+00 2.282063e+03 5.242517e-21
-6.064560e+00 2.282438e+03 7.627818e-21
-6.890314e+00 2.293781e+03 6.435801e-16
-2.696005e+00 2.119076e+03 5.840593e-90
-4.607933e+00 2.250791e+03 6.921417e-34
-4.367737e+00 2.245265e+03 2.756029e-36
-4.376491e+00 2.245328e+03 2.935244e-36
-4.354749e+00 2.244993e+03 2.099692e-36
-4.538379e+00 2.249091e+03 1.264429e-34
-4.750624e+00 2.252820e+03 5.264759e-33
-5.940346e+00 2.279549e+03 4.243494e-22
-6.078832e+00 2.282712e+03 1.003222e-20
-5.948725e+00 2.279585e+03 4.399043e-22
-5.807706e+00 2.275331e+03 6.249848e-24
-5.782453e+00 2.274972e+03 4.364733e-24
-5.568405e+00 2.268904e+03 1.010785e-26
-5.551296e+00 2.268371e+03 5.931709e-27
-5.540051e+00 2.267986e+03 4.036235e-27
-5.202735e+00 2.260614e+03 3.695728e-30
-4.647490e+00 2.251435e+03 1.317895e-33
-4.522992e+00 2.248386e+03 6.247652e-35
-5.129893e+00 2.258435e+03 4.181888e-31
-5.148988e+00 2.258626e+03 5.062005e-31
-5.833613e+00 2.275988e+03 1.205594e-23
-5.684138e+00 2.272227e+03 2.804267e-25
-4.575229e+00 2.250447e+03 4.906793e-34
-5.747448e+00 2.274265e+03 2.152343e-24
-5.574173e+00 2.269078e+03 1.202890e-26
-5.585811e+00 2.269405e+03 1.668170e-26
-5.515202e+00 2.267672e+03 2.948547e-27
-5.459515e+00 2.266702e+03 1.117744e-27
-6.112947e+00 2.283459e+03 2.117459e-20
-5.621560e+00 2.270421e+03 4.607693e-26
-6.055157e+00 2.282262e+03 6.396825e-21
-6.098183e+00 2.282940e+03 1.260132e-20
-7.455002e+00 2.298781e+03 9.551576e-14
-7.513604e+00 2.299611e+03 2.190481e-13
-7.533927e+00 2.299733e+03 2.474705e-13
-6.315594e+00 2.288182e+03 2.382253e-18
-6.509263e+00 2.290504e+03 2.428956e-17
-6.570022e+00 2.291102e+03 4.417003e-17
-6.934419e+00 2.294121e+03 9.041964e-16
-3.339041e+00 2.220862e+03 9.366021e-46
-4.979407e+00 2.256003e+03 1.269807e-31
-4.872826e+00 2.254355e+03 2.443546e-32
-5.287609e+00 2.263585e+03 7.210891e-29
-5.310003e+00 2.263894e+03 9.821684e-29
-5.811366e+00 2.275582e+03 8.032992e-24
-6.980559e+00 2.294302e+03 1.083603e-15
-6.668699e+00 2.291717e+03 8.169939e-17
-1.680699e+00 1.631341e+03 5.133865e-301
-1.291954e-01 -6.226381e+03 0.000000e+00
-1.048665e-01 -6.237097e+03 0.000000e+00
-1.096852e-01 -6.236232e+03 0.000000e+00
-1.490938e-01 -6.220540e+03 0.000000e+00
-1.804229e+00 1.725731e+03 5.052434e-260
-6.887100e-01 -2.458152e+03 0.000000e+00
-1.381621e+00 1.192052e+03 0.000000e+00
-1.267728e+00 1.049424e+03 0.000000e+00
-2.445435e+00 2.077237e+03 2.294123e-107
-4.424964e-02 -6.256905e+03 0.000000e+00
-2.188009e-02 -6.260206e+03 0.000000e+00
-5.791558e-02 -6.254874e+03 0.000000e+00
-3.524169e-02 -6.258233e+03 0.000000e+00
-6.713107e-02 -6.252609e+03 0.000000e+00
-1.165490e+00 8.869776e+02 0.000000e+00
-7.643228e-02 -6.249239e+03 0.000000e+00
-4.384061e-01 -5.002352e+03 0.000000e+00
-3.486180e-01 -5.581720e+03 0.000000e+00
-2.549975e-01 -6.084495e+03 0.000000e+00
-7.788388e-01 -1.676406e+03 0.000000e+00
-6.716195e-01 -2.855198e+03 0.000000e+00
-6.801282e-01 -2.786713e+03 0.000000e+00
-7.694515e-01 -1.689267e+03 0.000000e+00
-8.883711e-01 -1.986151e+02 0.000000e+00
-9.096423e-01 -1.347733e+02 0.000000e+00
-1.331213e+00 1.111136e+03 0.000000e+00
-1.283225e+00 1.091632e+03 0.000000e+00
-1.510174e+00 1.455914e+03 0.000000e+00
-1.591806e+00 1.547733e+03 0.000000e+00
-8.989501e-01 -1.457886e+02 0.000000e+00
-8.271446e-01 -5.521199e+02 0.000000e+00
-3.184093e-01 -5.723237e+03 0.000000e+00
-6.631826e-01 -2.989953e+03 0.000000e+00
-3.861160e-01 -5.225433e+03 0.000000e+00
-9.648882e-01 1.338664e+02 0.000000e+00
-1.151702e+00 8.143511e+02 0.000000e+00
-8.370922e-01 -5.470820e+02 0.000000e+00
-5.981335e-01 -3.685034e+03 0.000000e+00
-1.179471e+00 9.273080e+02 0.000000e+00
-1.208033e+00 9.674935e+02 0.000000e+00
-1.222626e+00 1.003363e+03 0.000000e+00
-2.988631e+00 2.191235e+03 1.272660e-58
-2.931192e+00 2.186656e+03 1.306406e-60
-2.945245e+00 2.188954e+03 1.300429e-59
-2.752736e+00 2.145595e+03 1.920934e-78
-3.875855e+00 2.236258e+03 2.764121e-39
-3.643408e+00 2.233346e+03 1.502766e-40
-3.440718e+00 2.228323e+03 9.895331e-43
-3.454931e+00 2.228324e+03 9.905231e-43
-4.033459e+00 2.238287e+03 8.069081e-39
-4.023709e+00 2.238055e+03 6.398346e-39
-4.043305e+00 2.238320e+03 8.339803e-39
-4.444705e+00 2.246965e+03 1.508636e-35
-4.252611e+00 2.242308e+03 1.432435e-37
-4.260409e+00 2.242582e+03 1.883960e-37
-4.222014e+00 2.241769e+03 8.355842e-38
-4.225788e+00 2.241834e+03 8.917012e-38
-4.296273e+00 2.243644e+03 5.448693e-37
-4.288191e+00 2.243257e+03 3.700159e-37
-4.280174e+00 2.242943e+03 2.703037e-37
-4.244874e+00 2.242279e+03 1.391491e-37
-4.237196e+00 2.242174e+03 1.252793e-37
-4.670818e+00 2.251618e+03 1.582547e-33
-4.659086e+00 2.251502e+03 1.409219e-33
-4.586012e+00 2.250591e+03 5.666777e-34
-5.140760e+00 2.258497e+03 4.449371e-31
-5.063152e+00 2.257244e+03 4.392354e-31
-6.262392e+00 2.287162e+03 8.590283e-19
-6.297544e+00 2.287875e+03 1.752506e-18
-6.285689e+00 2.287350e+03 1.036704e-18
-6.013906e+00 2.281705e+03 3.664903e-21
-6.309541e+00 2.288091e+03 2.175039e-18
-5.871829e+00 2.277449e+03 5.196431e-23
-5.996105e+00 2.281320e+03 2.493785e-21
-6.000526e+00 2.281371e+03 2.624268e-21
-5.737182e+00 2.273973e+03 1.607302e-24
-6.778189e+00 2.292580e+03 1.936489e-16
-5.944527e+00 2.279579e+03 4.372727e-22
-1.158553e+01 2.325354e+03 7.120070e-04
-1.156050e+01 2.325344e+03 7.049224e-04
-1.311762e+01 2.331580e+03 7.283437e-02
-1.115880e+01 2.323811e+03 1.521836e-04
-1.126332e+01 2.324228e+03 2.309238e-04
-1.052045e+01 2.320296e+03 1.325029e-05
-9.764075e+00 2.313702e+03 4.783540e-08
-9.673340e+00 2.312604e+03 1.595490e-08
-9.333451e+00 2.310237e+03 1.495957e-09
-9.313078e+00 2.310106e+03 1.312280e-09
-9.217009e+00 2.309402e+03 6.490574e-10
-9.129365e+00 2.308587e+03 2.872983e-10
-9.644836e+00 2.312288e+03 1.163207e-08
-9.590156e+00 2.311798e+03 7.126112e-09
-9.489024e+00 2.310995e+03 3.192377e-09
-9.442051e+00 2.310900e+03 2.903061e-09
-1.015949e+01 2.316828e+03 4.131351e-07
-1.029275e+01 2.319059e+03 3.845945e-06
-1.234534e+01 2.328577e+03 1.787374e-02
-1.194814e+01 2.327658e+03 7.130151e-03
-1.191236e+01 2.327615e+03 6.830053e-03
-1.035579e+01 2.319476e+03 5.835847e-06
-1.019579e+01 2.317812e+03 1.105192e-06
-1.138006e+01 2.324689e+03 3.661663e-04
-1.091937e+01 2.322944e+03 1.072494e-04
-1.144397e+01 2.324871e+03 4.392583e-04
-1.119244e+01 2.323986e+03 1.812881e-04
-1.135963e+01 2.324597e+03 3.339822e-04
-1.151225e+01 2.325116e+03 5.612058e-04
-1.128186e+01 2.324273e+03 2.415527e-04
-1.017748e+01 2.316981e+03 4.814367e-07
-1.169243e+01 2.327006e+03 3.714828e-03
-1.133961e+01 2.324421e+03 2.800835e-04
-1.142221e+01 2.324852e+03 4.309912e-04
-1.140091e+01 2.324812e+03 4.140918e-04
-1.074931e+01 2.321526e+03 4.533228e-05
-1.068700e+01 2.321298e+03 3.609013e-05
-1.071767e+01 2.321443e+03 4.172162e-05
-1.021445e+01 2.318063e+03 1.420515e-06
-1.025283e+01 2.318616e+03 2.469509e-06
-1.044654e+01 2.319773e+03 7.853972e-06
-1.027259e+01 2.318872e+03 3.189995e-06
-1.085593e+01 2.322622e+03 7.772343e-05
-1.261382e+01 2.329850e+03 1.717846e-02
-1.372581e+01 2.333387e+03 1.766505e-01
-1.450159e+01 2.335258e+03 9.534744e-01
-1.626838e+01 2.337020e+03 7.218052e-01
-1.603560e+01 2.336733e+03 5.417233e-01
-1.717661e+01 2.337608e+03 3.213736e-01
-1.636854e+01 2.337129e+03 8.049300e-01
-1.492828e+01 2.335799e+03 4.012630e-01
-1.490503e+01 2.335763e+03 3.870744e-01
-1.545847e+01 2.336227e+03 3.789147e-01
-1.560383e+01 2.336438e+03 4.679264e-01
-1.563269e+01 2.336462e+03 4.792925e-01
-1.596280e+01 2.336697e+03 5.225681e-01
-1.541045e+01 2.336203e+03 3.699290e-01
-1.624483e+01 2.336996e+03 7.046881e-01
-1.561815e+01 2.336451e+03 4.740492e-01
-1.578625e+01 2.336592e+03 4.704809e-01
-1.577164e+01 2.336590e+03 4.695408e-01
-1.670419e+01 2.337409e+03 4.396315e-01
-1.680891e+01 2.337430e+03 5.695773e-01
-1.719133e+01 2.337623e+03 3.262305e-01
-1.713371e+01 2.337573e+03 3.103201e-01
-1.722144e+01 2.337637e+03 3.308299e-01
-1.675089e+01 2.337423e+03 4.458296e-01
-1.689850e+01 2.337450e+03 5.810835e-01
-1.692221e+01 2.337450e+03 5.810835e-01
-1.683057e+01 2.337441e+03 5.758772e-01
-1.740550e+01 2.337803e+03 3.905688e-01
-1.354170e+01 2.332828e+03 1.666468e-01
-1.336732e+01 2.332395e+03 1.080805e-01
-1.340815e+01 2.332496e+03 1.195669e-01
-1.523855e+01 2.336085e+03 3.287544e-01
-1.549607e+01 2.336310e+03 4.117067e-01
-1.538727e+01 2.336182e+03 3.622415e-01
-1.544625e+01 2.336216e+03 3.747695e-01
-1.529960e+01 2.336134e+03 3.452646e-01
-1.586266e+01 2.336626e+03 4.867523e-01
-1.583139e+01 2.336618e+03 4.828738e-01
-1.525849e+01 2.336094e+03 3.317266e-01
-1.526861e+01 2.336116e+03 3.391054e-01
-1.401516e+01 2.334057e+03 2.868939e-01
-1.394095e+01 2.333974e+03 2.640432e-01
-1.420551e+01 2.334268e+03 3.542889e-01
-1.425323e+01 2.334328e+03 3.761969e-01
-1.478403e+01 2.335527e+03 4.885753e-01
-1.547085e+01 2.336285e+03 4.015416e-01
-1.533159e+01 2.336163e+03 3.554239e-01
-1.536463e+01 2.336177e+03 3.604348e-01
-1.471186e+01 2.335460e+03 5.939018e-01
-1.491659e+01 2.335769e+03 3.894038e-01
-1.427797e+01 2.334369e+03 3.919415e-01
-1.432936e+01 2.334509e+03 4.508400e-01
-1.411641e+01 2.334195e+03 3.293472e-01
-1.295080e+01 2.330977e+03 5.301930e-02
-1.359583e+01 2.333019e+03 1.222629e-01
-1.364261e+01 2.333158e+03 1.404952e-01
-1.365871e+01 2.333161e+03 1.409173e-01
-1.347270e+01 2.332650e+03 1.394737e-01
-1.269318e+01 2.330213e+03 2.469637e-02
-1.284928e+01 2.330649e+03 3.819315e-02
-1.214917e+01 2.328326e+03 1.390617e-02
-1.453342e+01 2.335289e+03 9.834950e-01
-1.518501e+01 2.336011e+03 4.652562e-01
-1.480043e+01 2.335558e+03 5.039584e-01
-1.362677e+01 2.333090e+03 1.312591e-01
-1.599853e+01 2.336722e+03 5.357970e-01
-1.505172e+01 2.335935e+03 4.312070e-01
-1.535349e+01 2.336176e+03 3.600746e-01
-1.548338e+01 2.336292e+03 4.043622e-01
-1.507700e+01 2.335945e+03 4.355407e-01
-1.542224e+01 2.336204e+03 3.702991e-01
-1.556204e+01 2.336364e+03 4.345500e-01
-1.660516e+01 2.337346e+03 1.000000e+00
-1.754316e+01 2.337825e+03 3.992566e-01
-1.758624e+01 2.337840e+03 4.052905e-01
-1.760850e+01 2.337855e+03 4.114157e-01
-1.744294e+01 2.337811e+03 3.937059e-01
-1.913233e+01 2.338512e+03 1.939690e-01
-1.736942e+01 2.337783e+03 3.828350e-01
-1.730094e+01 2.337705e+03 3.541088e-01
-1.742405e+01 2.337805e+03 3.913507e-01
-1.846351e+01 2.338358e+03 2.295078e-01
-2.004809e+01 2.338818e+03 1.083355e-01
-2.038639e+01 2.338947e+03 4.911512e-02
-2.040100e+01 2.338949e+03 4.921345e-02
-2.045958e+01 2.338960e+03 4.314898e-02
-2.054425e+01 2.338983e+03 4.415291e-02
-2.057415e+01 2.338996e+03 4.473064e-02
-2.191522e+01 2.339240e+03 1.516955e-02
-2.196256e+01 2.339247e+03 1.527611e-02
-2.189992e+01 2.339239e+03 1.515439e-02
-2.287371e+01 2.339395e+03 1.771284e-02
-2.310931e+01 2.339429e+03 1.289614e-02
-2.343809e+01 2.339457e+03 5.638894e-03
-2.304016e+01 2.339424e+03 1.283182e-02
-2.193075e+01 2.339245e+03 1.524558e-02
-2.188486e+01 2.339238e+03 1.513924e-02
-2.153556e+01 2.339150e+03 1.959484e-02
-1.947793e+01 2.338651e+03 1.469975e-01
-1.945467e+01 2.338648e+03 1.465571e-01
-1.994935e+01 2.338806e+03 1.070433e-01
-2.033841e+01 2.338912e+03 1.132856e-01
-2.024397e+01 2.338884e+03 1.101576e-01
-2.021437e+01 2.338864e+03 1.079764e-01
-2.010138e+01 2.338827e+03 1.093149e-01
-2.128229e+01 2.339086e+03 2.170662e-02
-2.107585e+01 2.339066e+03 4.797398e-02
-2.118147e+01 2.339079e+03 4.860171e-02
-1.863867e+01 2.338413e+03 2.424843e-01
-1.901344e+01 2.338494e+03 1.905088e-01
-1.918414e+01 2.338523e+03 1.961144e-01
-1.955111e+01 2.338686e+03 1.522335e-01
-1.938799e+01 2.338605e+03 1.403887e-01
-1.988120e+01 2.338788e+03 1.051337e-01
-1.932548e+01 2.338591e+03 1.384370e-01
-2.211973e+01 2.339267e+03 1.558470e-02
-2.158130e+01 2.339152e+03 1.963407e-02
-2.140970e+01 2.339115e+03 1.892088e-02
-2.155057e+01 2.339150e+03 1.959484e-02
-2.143633e+01 2.339120e+03 1.901572e-02
-2.139664e+01 2.339107e+03 1.877012e-02
-2.144992e+01 2.339123e+03 1.907286e-02
-2.105110e+01 2.339066e+03 4.797398e-02
-1.970086e+01 2.338743e+03 1.005076e-01
-1.977703e+01 2.338778e+03 1.040876e-01
-2.072098e+01 2.339025e+03 4.604682e-02
-2.194653e+01 2.339247e+03 1.527611e-02
-2.210100e+01 2.339263e+03 1.552249e-02
-2.043087e+01 2.338956e+03 4.955915e-02
-2.051523e+01 2.338971e+03 4.362624e-02
-2.050102e+01 2.338969e+03 4.353907e-02
-2.077514e+01 2.339036e+03 4.655613e-02
-2.002248e+01 2.338817e+03 1.082272e-01
-1.746220e+01 2.337814e+03 3.948888e-01
-1.763127e+01 2.337866e+03 4.159663e-01
-1.678771e+01 2.337429e+03 5.690080e-01
-1.592829e+01 2.336639e+03 4.931213e-01
-1.631721e+01 2.337023e+03 7.239739e-01
-1.486010e+01 2.335646e+03 3.443357e-01
-1.488232e+01 2.335716e+03 3.693028e-01
-1.611412e+01 2.336832e+03 5.980984e-01
-1.609390e+01 2.336824e+03 5.933327e-01
-1.553513e+01 2.336325e+03 4.179288e-01
-1.557578e+01 2.336390e+03 4.459965e-01
-1.510293e+01 2.335968e+03 4.456742e-01
-1.413796e+01 2.334233e+03 3.421032e-01
-1.361118e+01 2.333078e+03 1.296934e-01
-1.358070e+01 2.332946e+03 1.136557e-01
-1.438354e+01 2.334529e+03 4.599476e-01
-1.383575e+01 2.333837e+03 2.770432e-01
-1.607409e+01 2.336821e+03 5.915554e-01
-1.469238e+01 2.335428e+03 5.751978e-01
-1.473173e+01 2.335504e+03 6.206169e-01
-1.503932e+01 2.335926e+03 4.273436e-01
-1.517086e+01 2.336010e+03 4.647912e-01
-1.566240e+01 2.336469e+03 4.826593e-01
-1.569303e+01 2.336491e+03 4.933955e-01
-1.613475e+01 2.336868e+03 6.200222e-01
-1.484918e+01 2.335616e+03 3.341590e-01
-1.483837e+01 2.335596e+03 3.275422e-01
-1.506428e+01 2.335940e+03 4.333685e-01
-1.511615e+01 2.335971e+03 4.470133e-01
-1.528917e+01 2.336134e+03 3.452646e-01
-1.515690e+01 2.335982e+03 4.519576e-01
-1.316623e+01 2.331610e+03 7.505251e-02
-1.314163e+01 2.331588e+03 7.341938e-02
-1.187783e+01 2.327445e+03 5.762275e-03
-1.153609e+01 2.325181e+03 5.988959e-04
-1.124512e+01 2.324142e+03 2.118943e-04
-1.122725e+01 2.324029e+03 1.892536e-04
-1.117548e+01 2.323814e+03 1.526408e-04
-1.102002e+01 2.323396e+03 1.004930e-04
-1.148897e+01 2.324965e+03 4.825515e-04
-1.130074e+01 2.324359e+03 2.632457e-04
-1.181213e+01 2.327166e+03 4.359391e-03
-1.206385e+01 2.328152e+03 1.168531e-02
-1.198524e+01 2.327730e+03 7.662455e-03
-1.087663e+01 2.322730e+03 8.658762e-05
-1.099163e+01 2.323389e+03 9.979197e-05
-1.001470e+01 2.315213e+03 5.783104e-08
-9.951613e+00 2.314973e+03 4.549151e-08
-1.040013e+01 2.319645e+03 6.910344e-06
-1.037771e+01 2.319645e+03 6.910344e-06
-1.060026e+01 2.320449e+03 1.544089e-05
-1.042306e+01 2.319692e+03 7.242884e-06
-1.107933e+01 2.323498e+03 1.112842e-04
-1.161120e+01 2.325561e+03 8.757562e-04
-1.089777e+01 2.322741e+03 8.754534e-05
-1.103452e+01 2.323409e+03 1.018079e-04
-1.104924e+01 2.323437e+03 1.046988e-04
-1.097773e+01 2.323299e+03 9.120299e-05
-1.111037e+01 2.323532e+03 1.151330e-04
-1.210560e+01 2.328248e+03 1.286271e-02
-1.570870e+01 2.336504e+03 4.998515e-01
-1.580107e+01 2.336593e+03 4.709516e-01
-1.601689e+01 2.336727e+03 5.384827e-01
-1.645085e+01 2.337188e+03 8.538498e-01
-1.409533e+01 2.334172e+03 3.218587e-01
-1.422909e+01 2.334308e+03 3.687477e-01
-1.444083e+01 2.335133e+03 8.414382e-01
-1.671952e+01 2.337413e+03 4.413935e-01
-1.723684e+01 2.337638e+03 3.311608e-01
-1.818334e+01 2.338206e+03 4.164488e-01
-1.826940e+01 2.338241e+03 2.041667e-01
-1.857681e+01 2.338387e+03 2.362609e-01
-1.855701e+01 2.338384e+03 2.355532e-01
-1.934589e+01 2.338591e+03 1.384370e-01
-2.081294e+01 2.339040e+03 4.674273e-02
-2.079386e+01 2.339038e+03 4.664934e-02
-2.085224e+01 2.339040e+03 4.674273e-02
-2.065305e+01 2.339005e+03 4.513503e-02
-2.058944e+01 2.338997e+03 4.477539e-02
-1.983822e+01 2.338783e+03 1.046094e-01
-1.992611e+01 2.338805e+03 1.069363e-01
-1.999750e+01 2.338811e+03 1.075798e-01
-1.748183e+01 2.337814e+03 3.948888e-01
-1.888724e+01 2.338465e+03 1.850633e-01
-1.890720e+01 2.338470e+03 1.859910e-01
-1.694650e+01 2.337453e+03 5.828293e-01
-1.705002e+01 2.337511e+03 6.176330e-01
-1.650975e+01 2.337290e+03 9.455391e-01
-1.697139e+01 2.337464e+03 5.892759e-01
-1.687534e+01 2.337449e+03 5.805027e-01
-1.539879e+01 2.336203e+03 3.699290e-01
-1.512955e+01 2.335977e+03 4.497034e-01
-1.531015e+01 2.336141e+03 3.476899e-01
-1.622182e+01 2.336988e+03 6.990731e-01
-1.615582e+01 2.336969e+03 6.859161e-01
-1.367507e+01 2.333169e+03 1.420492e-01
-1.594539e+01 2.336669e+03 5.081391e-01
-1.501418e+01 2.335900e+03 4.439078e-01
-1.532081e+01 2.336146e+03 3.494327e-01
-1.550892e+01 2.336314e+03 4.133568e-01
-1.605466e+01 2.336796e+03 5.769498e-01
-1.822623e+01 2.338223e+03 2.005246e-01
-1.825480e+01 2.338230e+03 2.019332e-01
-1.828421e+01 2.338246e+03 2.051901e-01
-1.809077e+01 2.338191e+03 5.757101e-01
-1.728452e+01 2.337669e+03 3.415876e-01
-1.930549e+01 2.338584e+03 1.374713e-01
-2.213883e+01 2.339269e+03 1.561590e-02
-2.201226e+01 2.339253e+03 1.536804e-02
-2.062074e+01 2.339003e+03 4.504485e-02
-2.256494e+01 2.339348e+03 1.689960e-02
-2.248009e+01 2.339326e+03 1.653187e-02
-2.146369e+01 2.339124e+03 1.909194e-02
-2.272462e+01 2.339369e+03 1.725824e-02
-2.294464e+01 2.339396e+03 1.247752e-02
-2.430318e+01 2.339540e+03 1.623129e-03
-2.552706e+01 2.339655e+03 5.025815e-04
-2.560495e+01 2.339658e+03 5.040915e-04
-2.547832e+01 2.339652e+03 5.010760e-04
-2.476467e+01 2.339591e+03 6.841222e-04
-2.487165e+01 2.339601e+03 6.909978e-04
-2.555236e+01 2.339656e+03 5.030844e-04
-2.567483e+01 2.339662e+03 5.061119e-04
-2.403090e+01 2.339517e+03 2.133041e-03
-2.401736e+01 2.339517e+03 2.133041e-03
-2.414740e+01 2.339530e+03 1.369176e-03
-2.416699e+01 2.339532e+03 1.371917e-03
-2.427691e+01 2.339539e+03 1.621507e-03
-2.458266e+01 2.339573e+03 1.394097e-03
-2.440095e+01 2.339552e+03 1.642724e-03
-2.420737e+01 2.339536e+03 1.377416e-03
-2.447715e+01 2.339560e+03 1.655919e-03
-2.472865e+01 2.339586e+03 9.100565e-04
-2.393978e+01 2.339512e+03 2.122402e-03
-2.434391e+01 2.339543e+03 1.628006e-03
-2.437203e+01 2.339549e+03 1.637804e-03
-2.226173e+01 2.339277e+03 1.574133e-02
-2.219839e+01 2.339273e+03 1.567849e-02
-2.217814e+01 2.339272e+03 1.566282e-02
-2.269058e+01 2.339366e+03 1.720655e-02
-2.322293e+01 2.339438e+03 1.301273e-02
-2.318361e+01 2.339436e+03 1.298673e-02
-2.348130e+01 2.339460e+03 5.655836e-03
-2.362343e+01 2.339482e+03 5.781643e-03
-2.352647e+01 2.339473e+03 5.729842e-03
-2.341716e+01 2.339455e+03 5.627627e-03
-2.438638e+01 2.339551e+03 1.641082e-03
-2.467449e+01 2.339581e+03 1.405295e-03
-2.510360e+01 2.339622e+03 7.056622e-04
-2.481673e+01 2.339593e+03 6.854919e-04
-2.478172e+01 2.339593e+03 6.854919e-04
-2.480786e+01 2.339593e+03 6.854919e-04
-2.490029e+01 2.339607e+03 6.951562e-04
-2.492977e+01 2.339607e+03 6.951562e-04
-2.453973e+01 2.339569e+03 1.388532e-03
-2.520335e+01 2.339627e+03 7.091993e-04
-2.417693e+01 2.339532e+03 1.371917e-03
-2.410003e+01 2.339524e+03 1.360986e-03
-2.443074e+01 2.339554e+03 1.646013e-03
-2.464294e+01 2.339577e+03 1.399685e-03
-2.441573e+01 2.339553e+03 1.644368e-03
-2.534490e+01 2.339638e+03 4.941099e-04
-2.533454e+01 2.339638e+03 4.941099e-04
-2.683949e+01 2.339737e+03 2.001135e-04
-2.620856e+01 2.339695e+03 3.976931e-04
-2.622750e+01 2.339695e+03 3.976931e-04
-2.610184e+01 2.339687e+03 3.945242e-04
-2.602087e+01 2.339685e+03 3.937360e-04
-2.513985e+01 2.339623e+03 7.063682e-04
-2.505723e+01 2.339620e+03 7.042523e-04
-2.496014e+01 2.339610e+03 6.972448e-04
-2.522992e+01 2.339629e+03 7.106191e-04
-2.590357e+01 2.339680e+03 3.917722e-04
-2.618996e+01 2.339690e+03 3.957096e-04
-2.641643e+01 2.339708e+03 4.028968e-04
-2.739941e+01 2.339778e+03 1.296327e-04
-2.718364e+01 2.339767e+03 1.282145e-04
-2.729402e+01 2.339774e+03 1.291152e-04
-2.760427e+01 2.339795e+03 1.318553e-04
-2.738106e+01 2.339777e+03 1.295031e-04
-2.736303e+01 2.339776e+03 1.293737e-04
-2.719868e+01 2.339768e+03 1.283428e-04
-2.715422e+01 2.339765e+03 1.279584e-04
-2.435787e+01 2.339547e+03 1.634531e-03
-2.702605e+01 2.339752e+03 2.031379e-04
-2.704677e+01 2.339753e+03 2.033411e-04
-2.648826e+01 2.339713e+03 4.049164e-04
-2.646374e+01 2.339713e+03 4.049164e-04
-2.656566e+01 2.339717e+03 4.065393e-04
-2.392742e+01 2.339509e+03 2.116045e-03
-2.389121e+01 2.339507e+03 2.111817e-03
-2.279639e+01 2.339390e+03 1.762450e-02
-2.242728e+01 2.339308e+03 1.623696e-02
-2.178531e+01 2.339196e+03 1.451656e-02
-2.167957e+01 2.339177e+03 2.013111e-02
-2.185539e+01 2.339232e+03 1.504867e-02
-2.553963e+01 2.339656e+03 5.030844e-04
-2.597525e+01 2.339683e+03 3.929493e-04
-2.599023e+01 2.339685e+03 3.937360e-04
-2.713983e+01 2.339762e+03 1.275751e-04
-2.726122e+01 2.339773e+03 1.289861e-04
-2.722946e+01 2.339772e+03 1.288572e-04
-2.716882e+01 2.339766e+03 1.280864e-04
-3.131690e+01 2.339924e+03 1.987748e-05
-3.144861e+01 2.339930e+03 1.999710e-05
-3.063016e+01 2.339908e+03 1.956197e-05
-3.076278e+01 2.339910e+03 1.960113e-05
-3.056992e+01 2.339908e+03 1.956197e-05
-3.045933e+01 2.339907e+03 1.954242e-05
-3.069427e+01 2.339909e+03 1.958154e-05
-3.051310e+01 2.339907e+03 1.954242e-05
-3.035976e+01 2.339905e+03 1.950337e-05
-3.026922e+01 2.339904e+03 1.948388e-05
-3.040831e+01 2.339906e+03 1.952288e-05
-3.083632e+01 2.339914e+03 1.967969e-05
-2.890456e+01 2.339869e+03 1.419826e-04
-2.839318e+01 2.339855e+03 1.400087e-04
-2.544326e+01 2.339649e+03 4.995751e-04
-2.571923e+01 2.339662e+03 5.061119e-04
-2.608512e+01 2.339687e+03 3.945242e-04
-2.333758e+01 2.339444e+03 5.566063e-03
-2.250758e+01 2.339326e+03 1.653187e-02
-2.110123e+01 2.339068e+03 4.807002e-02
-2.400401e+01 2.339516e+03 2.130909e-03
-2.499147e+01 2.339613e+03 6.993397e-04
-2.502381e+01 2.339615e+03 7.007398e-04
-2.521654e+01 2.339627e+03 7.091993e-04
-2.542055e+01 2.339648e+03 4.990757e-04
-2.519032e+01 2.339627e+03 7.091993e-04
-2.488111e+01 2.339602e+03 6.916891e-04
-2.506862e+01 2.339621e+03 7.049569e-04
-2.570421e+01 2.339662e+03 5.061119e-04
-2.591750e+01 2.339680e+03 3.917722e-04
-2.617170e+01 2.339690e+03 3.957096e-04
-2.504596e+01 2.339620e+03 7.042523e-04
-2.596050e+01 2.339682e+03 3.925565e-04
-2.659285e+01 2.339718e+03 4.069460e-04
-2.566046e+01 2.339661e+03 5.056061e-04
-2.581113e+01 2.339674e+03 3.894286e-04
-2.253585e+01 2.339343e+03 1.681531e-02
-2.245334e+01 2.339310e+03 1.626946e-02
-2.150619e+01 2.339139e+03 1.938048e-02
-2.142292e+01 2.339115e+03 1.892088e-02
-2.162923e+01 2.339156e+03 1.971276e-02
-1.908306e+01 2.338509e+03 1.933879e-01
-2.171460e+01 2.339185e+03 2.029280e-02
-2.147766e+01 2.339124e+03 1.909194e-02
-2.177187e+01 2.339195e+03 1.450205e-02
-2.161299e+01 2.339154e+03 1.967337e-02
-2.182677e+01 2.339216e+03 1.480981e-02
-2.230630e+01 2.339282e+03 1.582024e-02
-2.012913e+01 2.338848e+03 1.116348e-01
-2.007438e+01 2.338821e+03 1.086610e-01
-1.711980e+01 2.337557e+03 3.053944e-01
-1.668910e+01 2.337405e+03 4.378764e-01
-1.702312e+01 2.337500e+03 6.108763e-01
-1.685270e+01 2.337448e+03 5.799225e-01
-1.716210e+01 2.337576e+03 3.112524e-01
-1.707766e+01 2.337517e+03 6.213499e-01
-1.399608e+01 2.334011e+03 2.739957e-01
-1.282543e+01 2.330626e+03 3.732473e-02
-1.303433e+01 2.331196e+03 6.600009e-02
-1.319145e+01 2.331631e+03 7.664528e-02
-1.327117e+01 2.331982e+03 1.088736e-01
-1.338752e+01 2.332494e+03 1.193280e-01
-1.369170e+01 2.333223e+03 1.499307e-01
-1.567760e+01 2.336480e+03 4.879979e-01
-1.558971e+01 2.336413e+03 4.563733e-01
-1.554850e+01 2.336352e+03 4.293666e-01
-1.418248e+01 2.334251e+03 3.483169e-01
-1.415997e+01 2.334247e+03 3.469264e-01
-1.387186e+01 2.333870e+03 2.379624e-01
-1.392322e+01 2.333897e+03 2.444749e-01
-1.390581e+01 2.333895e+03 2.439864e-01
-1.388869e+01 2.333895e+03 2.439864e-01
-1.572462e+01 2.336511e+03 5.033628e-01
-1.379775e+01 2.333826e+03 2.740124e-01
-1.714780e+01 2.337574e+03 3.106305e-01
-1.973822e+01 2.338760e+03 1.022308e-01
-1.990341e+01 2.338796e+03 1.059782e-01
-1.853760e+01 2.338378e+03 2.341441e-01
-1.848152e+01 2.338364e+03 2.308890e-01
-1.780702e+01 2.338082e+03 5.162567e-01
-1.767841e+01 2.337974e+03 4.634063e-01
-1.735185e+01 2.337761e+03 3.745046e-01
-1.910739e+01 2.338510e+03 1.935814e-01
-1.886768e+01 2.338456e+03 1.834053e-01
-1.950173e+01 2.338659e+03 1.481782e-01
-1.957675e+01 2.338697e+03 1.539173e-01
-1.960306e+01 2.338702e+03 1.546888e-01
-1.896958e+01 2.338492e+03 1.901281e-01
-1.924779e+01 2.338555e+03 1.335419e-01
-2.030593e+01 2.338902e+03 1.121584e-01
-2.018562e+01 2.338863e+03 1.078684e-01
-2.093578e+01 2.339052e+03 4.730702e-02
-2.115400e+01 2.339075e+03 4.840769e-02
-2.100337e+01 2.339064e+03 4.787813e-02
-2.102695e+01 2.339064e+03 4.787813e-02
-2.073871e+01 2.339028e+03 4.618517e-02
-2.098033e+01 2.339061e+03 4.773471e-02
-2.240189e+01 2.339301e+03 1.612370e-02
-2.228377e+01 2.339278e+03 1.575708e-02
-2.215829e+01 2.339271e+03 1.564717e-02
-2.187001e+01 2.339236e+03 1.510899e-02
-2.206455e+01 2.339258e+03 1.544507e-02
-2.199541e+01 2.339253e+03 1.536804e-02
-2.174551e+01 2.339189e+03 1.441530e-02
-2.543184e+01 2.339649e+03 4.995751e-04
-2.497047e+01 2.339612e+03 6.986407e-04
-2.594596e+01 2.339682e+03 3.925565e-04
-2.579859e+01 2.339672e+03 3.886505e-04
-2.535536e+01 2.339638e+03 4.941099e-04
-2.576191e+01 2.339666e+03 3.863256e-04
-2.559154e+01 2.339658e+03 5.040915e-04
-2.515223e+01 2.339624e+03 7.070749e-04
-2.517746e+01 2.339626e+03 7.084905e-04
-2.727749e+01 2.339774e+03 1.291152e-04
-2.482568e+01 2.339593e+03 6.854919e-04
-2.489065e+01 2.339605e+03 6.937673e-04
-2.509181e+01 2.339621e+03 7.049569e-04
-2.532430e+01 2.339635e+03 4.926297e-04
-2.586290e+01 2.339677e+03 3.905986e-04
-2.577399e+01 2.339671e+03 3.882621e-04
-2.583668e+01 2.339675e+03 3.898182e-04
-2.528528e+01 2.339633e+03 7.134673e-04
-2.350363e+01 2.339473e+03 5.729842e-03
-2.359829e+01 2.339481e+03 5.775864e-03
-2.367567e+01 2.339492e+03 5.839750e-03
-2.364921e+01 2.339492e+03 5.839750e-03
-2.421773e+01 2.339537e+03 1.378794e-03
-2.425132e+01 2.339537e+03 1.618267e-03
-2.431657e+01 2.339542e+03 1.626379e-03
-2.433015e+01 2.339542e+03 1.626379e-03
-2.387943e+01 2.339504e+03 2.105491e-03
-2.479036e+01 2.339593e+03 6.854919e-04
-2.462753e+01 2.339577e+03 1.399685e-03
-2.461235e+01 2.339576e+03 1.398286e-03
-2.300730e+01 2.339419e+03 1.276783e-02
-2.179894e+01 2.339197e+03 1.453108e-02
-2.175860e+01 2.339193e+03 1.447307e-02
-2.055909e+01 2.338984e+03 4.419708e-02
-2.120972e+01 2.339079e+03 4.860171e-02
-2.149182e+01 2.339134e+03 1.928381e-02
-2.063676e+01 2.339005e+03 4.513503e-02
-2.068644e+01 2.339010e+03 4.536127e-02
-1.985948e+01 2.338786e+03 1.049237e-01
-1.922927e+01 2.338551e+03 1.330088e-01
-1.833001e+01 2.338284e+03 2.131374e-01
-1.770284e+01 2.338034e+03 4.920617e-01
-1.663910e+01 2.337346e+03 1.000000e+00
-1.527884e+01 2.336121e+03 3.408052e-01
-1.564743e+01 2.336469e+03 4.826593e-01
-1.647987e+01 2.337214e+03 8.763410e-01
-1.629250e+01 2.337021e+03 7.225274e-01
-1.584690e+01 2.336619e+03 4.833569e-01
-1.574080e+01 2.336555e+03 5.260052e-01
-1.617734e+01 2.336980e+03 6.935028e-01
-1.894835e+01 2.338482e+03 1.882363e-01
-1.979701e+01 2.338778e+03 1.040876e-01
-2.027447e+01 2.338887e+03 1.104886e-01
-2.123879e+01 2.339082e+03 4.874774e-02
-2.095781e+01 2.339055e+03 4.744916e-02
-2.152077e+01 2.339148e+03 1.955569e-02
-2.221906e+01 2.339274e+03 1.569418e-02
-2.156582e+01 2.339151e+03 1.961444e-02
-2.131000e+01 2.339089e+03 2.177184e-02
-2.083240e+01 2.339040e+03 4.674273e-02
-2.087248e+01 2.339041e+03 4.678950e-02
-2.070356e+01 2.339013e+03 4.549756e-02
-2.060497e+01 2.339002e+03 4.499983e-02
-1.971937e+01 2.338759e+03 1.021286e-01
-1.981741e+01 2.338779e+03 1.041918e-01
-1.839453e+01 2.338337e+03 2.247384e-01
-1.881117e+01 2.338428e+03 1.783411e-01
-1.882965e+01 2.338432e+03 1.790559e-01
-1.870461e+01 2.338414e+03 2.427269e-01
-1.975744e+01 2.338768e+03 1.030519e-01
-1.777994e+01 2.338060e+03 5.050231e-01
-1.775358e+01 2.338057e+03 5.035103e-01
-1.837801e+01 2.338328e+03 2.227248e-01
-1.868214e+01 2.338413e+03 2.424843e-01
-1.836175e+01 2.338302e+03 2.170086e-01
-1.824041e+01 2.338226e+03 2.011271e-01
-1.731762e+01 2.337717e+03 3.583837e-01
-1.534248e+01 2.336167e+03 3.568484e-01
-1.543417e+01 2.336208e+03 3.717833e-01
-1.552194e+01 2.336317e+03 4.145987e-01
-1.634255e+01 2.337051e+03 7.445316e-01
-1.619934e+01 2.336984e+03 6.962824e-01
-1.861762e+01 2.338398e+03 2.388742e-01
-1.842843e+01 2.338343e+03 2.260908e-01
-1.841134e+01 2.338339e+03 2.251883e-01
-1.591147e+01 2.336636e+03 4.916442e-01
-1.587867e+01 2.336629e+03 4.882147e-01
-1.589494e+01 2.336630e+03 4.887032e-01
-1.756447e+01 2.337833e+03 4.024634e-01
-1.872759e+01 2.338421e+03 2.444319e-01
-1.738730e+01 2.337785e+03 3.836015e-01
-1.789296e+01 2.338141e+03 5.476324e-01
-1.798698e+01 2.338163e+03 5.598138e-01
-2.169693e+01 2.339182e+03 2.023201e-02
-2.159702e+01 2.339154e+03 1.967337e-02
-2.208261e+01 2.339259e+03 1.546052e-02
-2.224017e+01 2.339277e+03 1.574133e-02
-2.232936e+01 2.339283e+03 1.583607e-02
-2.265766e+01 2.339362e+03 1.713786e-02
-2.262579e+01 2.339360e+03 1.710362e-02
-2.181276e+01 2.339205e+03 1.464780e-02
-2.202939e+01 2.339258e+03 1.544507e-02
-2.413774e+01 2.339528e+03 1.366440e-03
-2.396498e+01 2.339514e+03 2.126652e-03
-2.405854e+01 2.339521e+03 2.141590e-03
-2.444597e+01 2.339555e+03 1.647660e-03
-2.582382e+01 2.339675e+03 3.898182e-04
-2.632803e+01 2.339702e+03 4.004867e-04
-2.628660e+01 2.339698e+03 3.988879e-04
-2.615378e+01 2.339690e+03 3.957096e-04
-2.527115e+01 2.339633e+03 7.134673e-04
-2.516477e+01 2.339625e+03 7.077823e-04
-2.537662e+01 2.339645e+03 4.975808e-04
-2.524347e+01 2.339630e+03 7.113301e-04
-2.540938e+01 2.339648e+03 4.990757e-04
-2.475625e+01 2.339591e+03 6.841222e-04
-2.465859e+01 2.339577e+03 1.399685e-03
-2.456815e+01 2.339571e+03 1.391312e-03
-2.477316e+01 2.339592e+03 6.848067e-04
-2.410932e+01 2.339525e+03 1.362347e-03
-2.450933e+01 2.339563e+03 1.660894e-03
-2.314577e+01 2.339432e+03 1.293489e-02
-2.307414e+01 2.339428e+03 1.288325e-02
-2.335689e+01 2.339444e+03 5.566063e-03
-2.337658e+01 2.339445e+03 5.571632e-03
-2.339667e+01 2.339455e+03 5.627627e-03
-2.237712e+01 2.339301e+03 1.612370e-02
-2.197885e+01 2.339249e+03 1.530669e-02
-2.204681e+01 2.339258e+03 1.544507e-02
-2.297548e+01 2.339413e+03 1.269145e-02
-2.331863e+01 2.339444e+03 5.566063e-03
-2.682262e+01 2.339736e+03 1.999135e-04
-2.588983e+01 2.339680e+03 3.917722e-04
-2.643980e+01 2.339709e+03 4.032999e-04
-2.556525e+01 2.339656e+03 5.030844e-04
-2.584970e+01 2.339676e+03 3.902082e-04
-2.696634e+01 2.339746e+03 2.019227e-04
-2.741811e+01 2.339778e+03 1.296327e-04
-2.712564e+01 2.339758e+03 1.270658e-04
-2.805647e+01 2.339835e+03 1.372364e-04
-2.753829e+01 2.339790e+03 1.311976e-04
-2.751723e+01 2.339783e+03 1.302825e-04
-2.749661e+01 2.339783e+03 1.302825e-04
-2.798744e+01 2.339827e+03 1.361429e-04
-2.802136e+01 2.339827e+03 1.361429e-04
-2.795463e+01 2.339821e+03 1.353285e-04
-2.899170e+01 2.339869e+03 1.419826e-04
-2.855585e+01 2.339863e+03 1.411333e-04
-2.849864e+01 2.339860e+03 1.407105e-04
-2.844452e+01 2.339860e+03 1.407105e-04
-2.706794e+01 2.339754e+03 2.035445e-04
-2.731083e+01 2.339775e+03 1.292444e-04
-2.734533e+01 2.339775e+03 1.292444e-04
-2.724522e+01 2.339772e+03 1.288572e-04
-2.551465e+01 2.339654e+03 5.020792e-04
-2.525721e+01 2.339632e+03 7.127542e-04
-2.538742e+01 2.339647e+03 4.985769e-04
-2.539834e+01 2.339647e+03 4.985769e-04
-2.455384e+01 2.339571e+03 1.391312e-03
-2.411871e+01 2.339526e+03 1.363710e-03
-2.512762e+01 2.339623e+03 7.063682e-04
-2.449311e+01 2.339562e+03 1.659234e-03
-2.755981e+01 2.339792e+03 1.314603e-04
-2.745659e+01 2.339782e+03 1.301522e-04
-2.732793e+01 2.339775e+03 1.292444e-04
-2.762727e+01 2.339798e+03 1.322514e-04
-2.789208e+01 2.339818e+03 1.349231e-04
-2.670967e+01 2.339727e+03 4.106250e-04
-2.689190e+01 2.339741e+03 2.009156e-04
-2.678969e+01 2.339733e+03 1.993147e-04
-2.587627e+01 2.339679e+03 3.913806e-04
-2.501291e+01 2.339615e+03 7.007398e-04
-2.511554e+01 2.339622e+03 7.056622e-04
-2.708955e+01 2.339755e+03 2.037482e-04
-2.606866e+01 2.339686e+03 3.941299e-04
-2.469065e+01 2.339585e+03 1.410927e-03
-2.446144e+01 2.339557e+03 1.650959e-03
-2.373080e+01 2.339500e+03 5.886655e-03
-2.345946e+01 2.339459e+03 5.650183e-03
-2.404462e+01 2.339518e+03 2.135175e-03
-2.415715e+01 2.339531e+03 1.370546e-03
-2.493979e+01 2.339608e+03 6.958517e-04
-2.494991e+01 2.339608e+03 6.958517e-04
-2.557831e+01 2.339656e+03 5.030844e-04
-2.545481e+01 2.339649e+03 4.995751e-04
-2.603655e+01 2.339686e+03 3.941299e-04
-2.600543e+01 2.339685e+03 3.937360e-04
-2.578621e+01 2.339672e+03 3.886505e-04
-2.048702e+01 2.338967e+03 4.345208e-02
-1.915790e+01 2.338520e+03 1.955269e-01
-1.892757e+01 2.338480e+03 1.878602e-01
-1.884848e+01 2.338432e+03 1.790559e-01
-1.752230e+01 2.337823e+03 3.984588e-01
-1.786348e+01 2.338141e+03 5.476324e-01
-1.765456e+01 2.337914e+03 4.364196e-01
-1.733459e+01 2.337742e+03 3.674562e-01
-1.699692e+01 2.337500e+03 6.108763e-01
-1.537589e+01 2.336180e+03 3.615177e-01
-1.498887e+01 2.335873e+03 4.320827e-01
-1.494011e+01 2.335803e+03 4.028712e-01
-1.642266e+01 2.337142e+03 8.154624e-01
-1.598051e+01 2.336699e+03 5.236143e-01
-1.495208e+01 2.335846e+03 4.205725e-01
-1.397737e+01 2.334009e+03 2.734483e-01
-1.381657e+01 2.333827e+03 2.742865e-01
-1.403461e+01 2.334103e+03 3.003993e-01
-1.334751e+01 2.332367e+03 1.050962e-01
-1.202377e+01 2.328122e+03 1.133996e-02
-1.229258e+01 2.328558e+03 1.753734e-02
-1.289875e+01 2.330817e+03 4.518007e-02
-1.175049e+01 2.327141e+03 4.251758e-03
-1.395899e+01 2.334000e+03 2.709983e-01
-1.376113e+01 2.333591e+03 2.166262e-01
-1.465452e+01 2.335370e+03 5.427853e-01
-1.467327e+01 2.335370e+03 5.427853e-01
-1.463611e+01 2.335341e+03 5.272706e-01
-1.273535e+01 2.330380e+03 2.918503e-02
-6.445050e+00 2.289771e+03 1.167029e-17
-7.619618e+00 2.301369e+03 1.270659e-12
-7.175454e+00 2.295771e+03 4.708132e-15
-8.603887e+00 2.307183e+03 4.256153e-10
-8.731384e+00 2.307275e+03 4.666297e-10
-7.493686e+00 2.299441e+03 1.848032e-13
-7.554671e+00 2.300153e+03 3.766405e-13
-7.816776e+00 2.302573e+03 4.235647e-12
-7.872801e+00 2.303118e+03 7.304832e-12
-7.575855e+00 2.300541e+03 5.551794e-13
-7.399646e+00 2.298507e+03 7.262370e-14
-5.864068e+00 2.276978e+03 3.244535e-23
-5.961426e+00 2.279812e+03 5.520050e-22
-5.733783e+00 2.273968e+03 1.599286e-24
-5.768304e+00 2.274675e+03 3.243189e-24
-5.366572e+00 2.264716e+03 2.234478e-28
-3.812485e+00 2.235740e+03 1.646617e-39
-3.715050e+00 2.235086e+03 8.561777e-40
-3.995017e+00 2.236804e+03 1.831325e-39
-4.350457e+00 2.244969e+03 2.049899e-36
-4.407746e+00 2.245997e+03 5.730431e-36
-4.389767e+00 2.245873e+03 5.062147e-36
-4.543561e+00 2.249476e+03 1.858223e-34
-4.559270e+00 2.249786e+03 2.533548e-34
-4.533224e+00 2.249001e+03 1.155601e-34
-6.340179e+00 2.288614e+03 3.669467e-18
-7.079763e+00 2.294951e+03 2.073610e-15
-6.945756e+00 2.294124e+03 9.069130e-16
-3.297932e+00 2.218975e+03 1.419193e-46
-3.220463e+00 2.213894e+03 8.818428e-49
-3.201998e+00 2.213112e+03 4.034343e-49
-3.166061e+00 2.211342e+03 6.871818e-50
-3.318275e+00 2.219886e+03 3.529260e-46
-4.004490e+00 2.237314e+03 3.049689e-39
-3.498825e+00 2.230027e+03 5.438362e-42
-3.985632e+00 2.236606e+03 1.502364e-39
-4.014053e+00 2.237609e+03 4.096118e-39
-3.609423e+00 2.232786e+03 8.583938e-41
-3.772365e+00 2.235176e+03 9.368076e-40
-3.752893e+00 2.235154e+03 9.164229e-40
-3.833165e+00 2.235889e+03 1.911183e-39
-3.544735e+00 2.231629e+03 2.699031e-41
-3.560519e+00 2.232437e+03 6.055051e-41
-3.678587e+00 2.234210e+03 3.565512e-40
-5.671305e+00 2.271919e+03 2.060899e-25
-5.480365e+00 2.267206e+03 1.850234e-27
-6.327811e+00 2.288343e+03 2.798396e-18
-6.250944e+00 2.286839e+03 6.219140e-19
-6.245269e+00 2.286795e+03 5.951431e-19
-5.615513e+00 2.270336e+03 4.232223e-26
-5.804059e+00 2.275295e+03 6.028855e-24
-5.800425e+00 2.275249e+03 5.757809e-24
-4.624695e+00 2.251055e+03 9.012573e-34
-4.653272e+00 2.251491e+03 1.393802e-33
-4.214509e+00 2.241739e+03 8.108889e-38
-5.507054e+00 2.267512e+03 2.512586e-27
-5.655492e+00 2.270925e+03 7.627249e-26
-5.627645e+00 2.270602e+03 5.521929e-26
-5.639926e+00 2.270704e+03 6.114893e-26
-5.680914e+00 2.272170e+03 2.648894e-25
-4.264331e+00 2.242635e+03 1.986503e-37
-4.268269e+00 2.242636e+03 1.988491e-37
-4.816664e+00 2.253429e+03 9.679744e-33
-4.924697e+00 2.255060e+03 4.945363e-32
-4.963468e+00 2.255632e+03 8.762229e-32
-4.837357e+00 2.253927e+03 1.592731e-32
-4.830411e+00 2.253926e+03 1.591139e-32
-4.763488e+00 2.253040e+03 6.560294e-33
-4.682689e+00 2.251957e+03 2.221173e-33
-4.676736e+00 2.251946e+03 2.196874e-33
-4.403221e+00 2.245950e+03 5.467332e-36
-4.483083e+00 2.247483e+03 2.532497e-35
-4.497863e+00 2.247911e+03 3.885321e-35
-4.502839e+00 2.247966e+03 4.105000e-35
-4.528095e+00 2.248690e+03 8.467249e-35
-4.744254e+00 2.252555e+03 4.039155e-33
-4.725383e+00 2.252492e+03 3.792538e-33
-4.426055e+00 2.246684e+03 1.139063e-35
-4.776519e+00 2.253356e+03 8.998298e-33
-4.940026e+00 2.255302e+03 6.299375e-32
-4.737924e+00 2.252533e+03 3.951264e-33
-4.706862e+00 2.252385e+03 3.407693e-33
-4.932332e+00 2.255232e+03 5.873498e-32
-4.909601e+00 2.254716e+03 3.505911e-32
-4.796390e+00 2.253397e+03 9.374896e-33
-4.809860e+00 2.253414e+03 9.535631e-33
-4.329268e+00 2.244530e+03 1.321531e-36
-4.241027e+00 2.242181e+03 1.261594e-37
-4.320916e+00 2.244448e+03 1.217489e-36
-4.207059e+00 2.241638e+03 7.329893e-38
-4.094044e+00 2.240082e+03 4.857163e-38
-4.398716e+00 2.245919e+03 5.300445e-36
-4.435337e+00 2.246809e+03 1.290727e-35
-4.380897e+00 2.245425e+03 3.234230e-36
-5.028808e+00 2.256368e+03 1.829175e-31
-4.218254e+00 2.241764e+03 8.314167e-38
-4.492912e+00 2.247832e+03 3.590192e-35
-4.229576e+00 2.241910e+03 9.621122e-38
-4.168799e+00 2.241372e+03 1.693367e-37
-3.183868e+00 2.212039e+03 1.379669e-49
-3.404057e+00 2.223029e+03 8.178455e-45
-5.332910e+00 2.264095e+03 1.200823e-28
-5.329605e+00 2.264088e+03 1.192447e-28
-5.045832e+00 2.256608e+03 2.325338e-31
-5.162854e+00 2.258884e+03 6.551950e-31
-5.211491e+00 2.260742e+03 4.200391e-30
-5.205645e+00 2.260647e+03 3.819722e-30
-5.127195e+00 2.258280e+03 3.581432e-31
-5.217372e+00 2.260875e+03 4.797897e-30
-5.710308e+00 2.273512e+03 1.013649e-24
-5.757822e+00 2.274502e+03 2.727968e-24
-5.720301e+00 2.273675e+03 1.193103e-24
-5.761303e+00 2.274618e+03 3.063497e-24
-5.730395e+00 2.273950e+03 1.570756e-24
-5.485646e+00 2.267242e+03 1.918056e-27
-5.472495e+00 2.267120e+03 1.697764e-27
-5.867941e+00 2.277445e+03 5.175687e-23
-5.991704e+00 2.280983e+03 1.780335e-21
-6.045842e+00 2.282107e+03 5.478338e-21
-5.674498e+00 2.271949e+03 2.123663e-25
-5.848725e+00 2.276763e+03 2.616852e-23
-5.609501e+00 2.269927e+03 2.811526e-26
-5.932037e+00 2.279319e+03 3.371598e-22
-5.936183e+00 2.279328e+03 3.402080e-22
-6.127932e+00 2.283847e+03 3.121197e-20
-6.041217e+00 2.282074e+03 5.300504e-21
-5.084813e+00 2.257369e+03 3.616219e-31
-5.268806e+00 2.263051e+03 4.227423e-29
-6.009426e+00 2.281612e+03 3.339436e-21
-5.829871e+00 2.275888e+03 1.090866e-23
-6.228435e+00 2.286557e+03 4.690934e-19
-6.749672e+00 2.292512e+03 1.809185e-16
-5.957174e+00 2.279778e+03 5.335523e-22
-5.974290e+00 2.280086e+03 7.260051e-22
-5.965695e+00 2.279839e+03 5.671122e-22
-5.703701e+00 2.273228e+03 7.630415e-25
-5.706999e+00 2.273247e+03 7.776779e-25
-3.483979e+00 2.229994e+03 5.261825e-42
-6.992434e+00 2.294303e+03 1.084687e-15
-7.004452e+00 2.294319e+03 1.102181e-15
-6.516659e+00 2.290728e+03 3.038796e-17
-6.494633e+00 2.290109e+03 1.636339e-17
-6.365384e+00 2.289382e+03 7.909357e-18
-6.458968e+00 2.289815e+03 1.219525e-17
-6.451985e+00 2.289805e+03 1.207391e-17
-6.303524e+00 2.287885e+03 1.770119e-18
-6.268166e+00 2.287220e+03 9.103251e-19
-6.731103e+00 2.292484e+03 1.759230e-16
-6.807543e+00 2.292811e+03 2.439703e-16
-6.618144e+00 2.291468e+03 6.369121e-17
-6.291599e+00 2.287591e+03 1.319228e-18
-5.982959e+00 2.280121e+03 7.518652e-22
-6.217367e+00 2.286393e+03 3.981393e-19
-5.879650e+00 2.277977e+03 8.810745e-23
-5.786022e+00 2.275006e+03 4.515686e-24
-5.818727e+00 2.275644e+03 8.546801e-24
-3.277995e+00 2.218824e+03 1.220290e-46
-3.258448e+00 2.217484e+03 3.195276e-47
-3.239275e+00 2.216182e+03 8.690743e-48
-3.529197e+00 2.231603e+03 2.629761e-41
-4.276190e+00 2.242764e+03 2.260025e-37
-6.712872e+00 2.292213e+03 1.341618e-16
-4.803102e+00 2.253406e+03 9.459651e-33
-4.844351e+00 2.254047e+03 1.795800e-32
-4.865631e+00 2.254330e+03 2.383215e-32
-4.458925e+00 2.247325e+03 2.162372e-35
-4.463710e+00 2.247334e+03 2.181921e-35
-4.449423e+00 2.247256e+03 2.018199e-35
-5.265706e+00 2.262899e+03 3.631307e-29
-5.146238e+00 2.258621e+03 5.036759e-31
-5.143495e+00 2.258608e+03 4.971704e-31
-4.517916e+00 2.248270e+03 5.563379e-35
-4.256503e+00 2.242364e+03 1.514940e-37
-4.203355e+00 2.241577e+03 6.896134e-38
-4.902137e+00 2.254581e+03 3.063170e-32
-5.196939e+00 2.260252e+03 2.573270e-30
-4.454163e+00 2.247303e+03 2.115319e-35
-5.290778e+00 2.263702e+03 8.105903e-29
-6.480214e+00 2.290038e+03 1.524187e-17
-6.195592e+00 2.286111e+03 3.003060e-19
-6.562222e+00 2.291041e+03 4.155619e-17
-6.626394e+00 2.291470e+03 6.381872e-17
-7.092885e+00 2.294960e+03 2.092357e-15
-8.877545e+00 2.307393e+03 5.250723e-10
-4.700764e+00 2.252302e+03 3.136274e-33
-6.593793e+00 2.291193e+03 4.837807e-17
-6.546802e+00 2.290969e+03 3.866932e-17
-8.062596e+00 2.303964e+03 1.702250e-11
