-1.504199e+00 -2.036015e+04 0.000000e+00
-1.426972e+00 -2.043783e+04 0.000000e+00
-2.466189e+00 -1.505011e+04 0.000000e+00
-1.355284e+00 -2.107966e+04 0.000000e+00
-1.058225e+00 -2.311601e+04 0.000000e+00
-2.378721e-01 -3.218232e+04 0.000000e+00
-1.225697e+00 -2.201875e+04 0.000000e+00
-3.423754e+00 -1.142421e+04 0.000000e+00
-2.550563e+00 -1.419734e+04 0.000000e+00
-2.126465e+00 -1.639745e+04 0.000000e+00
-2.316198e+00 -1.613271e+04 0.000000e+00
-5.004827e+00 -7.599062e+03 0.000000e+00
-2.185798e+00 -1.628558e+04 0.000000e+00
-7.442616e+00 -2.137243e+03 0.000000e+00
-4.703152e+00 -8.000666e+03 0.000000e+00
-2.984644e+00 -1.250870e+04 0.000000e+00
-3.382069e+00 -1.145463e+04 0.000000e+00
-5.397159e+00 -6.325516e+03 0.000000e+00
-4.373393e+00 -8.605794e+03 0.000000e+00
-2.857231e+00 -1.305974e+04 0.000000e+00
-3.840061e+00 -1.002630e+04 0.000000e+00
-1.891551e+00 -1.741904e+04 0.000000e+00
-1.779769e+00 -1.798367e+04 0.000000e+00
-9.211153e+00 -6.050345e+02 0.000000e+00
-4.201737e+00 -9.281846e+03 0.000000e+00
-3.663060e+00 -1.057266e+04 0.000000e+00
-1.587892e+00 -2.025124e+04 0.000000e+00
-4.283886e+00 -9.132676e+03 0.000000e+00
-3.303577e+00 -1.175523e+04 0.000000e+00
-3.560371e+00 -1.077530e+04 0.000000e+00
-2.642716e+00 -1.416148e+04 0.000000e+00
-2.248874e+00 -1.613441e+04 0.000000e+00
-4.842656e+00 -7.817241e+03 0.000000e+00
-6.573779e+00 -3.216221e+03 0.000000e+00
-8.271568e+00 -1.126423e+03 0.000000e+00
-8.311051e+00 -1.119175e+03 0.000000e+00
-1.521388e-01 -3.267482e+04 0.000000e+00
-8.587643e+00 -8.589841e+02 0.000000e+00
-1.062555e+01 1.672740e+02 0.000000e+00
-1.079927e+01 2.600027e+02 0.000000e+00
-7.938567e+00 -1.554049e+03 0.000000e+00
-1.057376e+01 9.612013e+01 0.000000e+00
-7.249290e+00 -2.298360e+03 0.000000e+00
-1.222524e+01 6.414390e+02 0.000000e+00
-6.414231e+00 -3.522227e+03 0.000000e+00
-3.467251e+00 -1.122151e+04 0.000000e+00
-1.288393e+00 -2.117771e+04 0.000000e+00
-1.110993e+00 -2.246673e+04 0.000000e+00
-6.366243e+00 -3.795292e+03 0.000000e+00
-1.339710e+01 9.267671e+02 0.000000e+00
-3.162962e+00 -1.244520e+04 0.000000e+00
-6.913882e+00 -2.701960e+03 0.000000e+00
-9.920969e+00 -2.554813e+02 0.000000e+00
-8.826431e+00 -7.489807e+02 0.000000e+00
-3.906782e+00 -9.726727e+03 0.000000e+00
-1.679236e+00 -1.883601e+04 0.000000e+00
-1.559641e+01 1.361696e+03 0.000000e+00
-3.342053e+00 -1.167818e+04 0.000000e+00
-3.230800e+00 -1.214790e+04 0.000000e+00
-1.038986e+01 1.051855e+01 0.000000e+00
-1.117938e+01 3.383936e+02 0.000000e+00
-1.140054e+01 4.249979e+02 0.000000e+00
-6.835979e+00 -3.063459e+03 0.000000e+00
-1.565606e+01 1.362523e+03 0.000000e+00
-8.395025e+00 -9.981549e+02 0.000000e+00
-1.162147e+01 4.743870e+02 0.000000e+00
-6.517720e+00 -3.291888e+03 0.000000e+00
-3.196306e+00 -1.227573e+04 0.000000e+00
-7.090663e+00 -2.582151e+03 0.000000e+00
-3.610398e+00 -1.062381e+04 0.000000e+00
-9.054643e+00 -6.437572e+02 0.000000e+00
-9.084046e+00 -6.424744e+02 0.000000e+00
-1.349959e+01 9.491778e+02 0.000000e+00
-1.254560e+01 7.593633e+02 0.000000e+00
-2.070457e+00 -1.731947e+04 0.000000e+00
-1.534212e+01 1.307367e+03 0.000000e+00
-1.710287e+01 1.552074e+03 0.000000e+00
-1.130604e+01 3.920842e+02 0.000000e+00
-1.334954e+01 9.187150e+02 0.000000e+00
-1.397404e+01 1.055476e+03 0.000000e+00
-2.744232e+00 -1.360050e+04 0.000000e+00
-5.505942e-01 -2.925607e+04 0.000000e+00
-8.998309e+00 -6.627048e+02 0.000000e+00
-1.234753e+01 6.651868e+02 0.000000e+00
-8.642209e+00 -8.061959e+02 0.000000e+00
-7.279026e+00 -2.246715e+03 0.000000e+00
-1.093450e+01 2.751160e+02 0.000000e+00
-5.292897e+00 -6.579794e+03 0.000000e+00
-6.811364e-01 -2.884464e+04 0.000000e+00
-1.136804e+01 4.015952e+02 0.000000e+00
-1.344703e+01 9.464212e+02 0.000000e+00
-1.523572e+01 1.284160e+03 0.000000e+00
-1.133656e+01 3.971771e+02 0.000000e+00
-1.437500e+01 1.137313e+03 0.000000e+00
-1.027120e+01 -1.963851e+01 0.000000e+00
-1.317913e+01 8.796640e+02 0.000000e+00
-3.512728e+00 -1.105032e+04 0.000000e+00
-1.568728e+01 1.362633e+03 0.000000e+00
-7.728731e+00 -1.763262e+03 0.000000e+00
-1.873613e+01 1.720954e+03 9.736041e-281
-1.758506e+01 1.609374e+03 0.000000e+00
-9.177830e+00 -6.121727e+02 0.000000e+00
-1.146890e+01 4.463059e+02 0.000000e+00
-1.578724e+01 1.401266e+03 0.000000e+00
-1.773362e+01 1.627330e+03 6.383328e-321
-1.185217e+01 5.368182e+02 0.000000e+00
-9.854331e+00 -2.801364e+02 0.000000e+00
-1.249229e+01 7.176382e+02 0.000000e+00
-5.797152e+00 -4.862660e+03 0.000000e+00
-1.780473e+01 1.632201e+03 8.327971e-319
-8.161691e+00 -1.257188e+03 0.000000e+00
-6.464637e+00 -3.312958e+03 0.000000e+00
-7.220413e+00 -2.384817e+03 0.000000e+00
-1.529819e+01 1.301004e+03 0.000000e+00
-1.734124e+01 1.577257e+03 0.000000e+00
-6.320454e+00 -3.900784e+03 0.000000e+00
-1.788129e+01 1.638141e+03 3.164082e-316
-4.351423e-01 -3.096219e+04 0.000000e+00
-1.841830e+01 1.692956e+03 6.745366e-293
-1.961280e+01 1.790840e+03 7.928502e-251
-2.324867e+01 1.993074e+03 9.767784e-165
-2.106575e+01 1.887609e+03 2.000933e-209
-1.970778e+01 1.799326e+03 3.842502e-247
-1.413770e+01 1.092649e+03 0.000000e+00
-2.088136e+01 1.872196e+03 4.049970e-216
-8.233585e+00 -1.150367e+03 0.000000e+00
-1.180157e+01 5.303652e+02 0.000000e+00
-1.930971e+01 1.775048e+03 3.027667e-257
-2.155443e+01 1.912408e+03 1.178424e-198
-4.125827e+00 -9.347481e+03 0.000000e+00
-1.196175e+01 5.833745e+02 0.000000e+00
-1.355507e+01 9.734098e+02 0.000000e+00
-2.286073e+01 1.975072e+03 6.961848e-172
-1.808666e+01 1.652973e+03 8.743865e-310
-1.844902e+01 1.695882e+03 1.258204e-291
-5.882676e+00 -4.544480e+03 0.000000e+00
-1.988144e+01 1.815910e+03 6.122853e-240
-1.385173e+01 1.033420e+03 0.000000e+00
-1.476269e+01 1.201885e+03 0.000000e+00
-2.101200e+01 1.881754e+03 5.733746e-212
-1.370894e+01 9.987951e+02 0.000000e+00
-9.624918e+00 -3.898972e+02 0.000000e+00
-1.047759e+01 5.041797e+01 0.000000e+00
-1.377779e+01 1.024179e+03 0.000000e+00
-2.028475e+01 1.835743e+03 2.513716e-231
-2.701721e+01 2.111321e+03 5.567036e-115
-1.260192e+01 7.617143e+02 0.000000e+00
-2.388384e+00 -1.561556e+04 0.000000e+00
-2.319968e+01 1.990870e+03 1.077981e-165
-7.555380e+00 -1.998452e+03 0.000000e+00
-1.321908e+01 8.809780e+02 0.000000e+00
-1.732591e+01 1.576524e+03 0.000000e+00
-2.598131e+01 2.082946e+03 1.303316e-126
-2.304496e+01 1.984422e+03 1.707183e-168
-1.554011e+01 1.340161e+03 0.000000e+00
-2.541183e+01 2.068107e+03 4.683320e-133
-1.302904e+01 8.544617e+02 0.000000e+00
-2.336855e+01 1.998459e+03 2.130452e-162
-1.891799e+01 1.734930e+03 1.143094e-274
-9.527337e+00 -4.674293e+02 0.000000e+00
-1.796420e+01 1.645811e+03 6.780885e-313
-7.373936e+00 -2.143270e+03 0.000000e+00
-2.332698e+01 1.996340e+03 2.559775e-163
-1.650573e+01 1.480356e+03 0.000000e+00
-1.208484e+01 6.039005e+02 0.000000e+00
-2.723041e+01 2.116864e+03 1.422061e-112
-2.560589e+01 2.072100e+03 2.539170e-131
-2.927350e+01 2.152181e+03 9.022330e-98
-1.938635e+01 1.780477e+03 6.900695e-255
-7.516362e+00 -2.007143e+03 0.000000e+00
-8.313154e-01 -2.673116e+04 0.000000e+00
-1.589831e+01 1.408288e+03 0.000000e+00
-2.229612e+01 1.946013e+03 1.669403e-184
-2.582614e+01 2.077938e+03 8.711699e-129
-2.099470e+01 1.881361e+03 3.870443e-212
-2.778267e+01 2.126599e+03 2.403118e-108
-2.735690e+01 2.119178e+03 1.438387e-111
-1.052452e+01 6.165075e+01 0.000000e+00
-1.190546e+01 5.677956e+02 0.000000e+00
-1.536483e+01 1.308457e+03 0.000000e+00
-3.978275e+00 -9.612961e+03 0.000000e+00
-1.793579e+01 1.641383e+03 8.095253e-315
-2.126919e+01 1.898008e+03 6.568420e-205
-1.374277e+01 1.016562e+03 0.000000e+00
-2.769791e+01 2.126073e+03 1.420157e-108
-1.735682e+01 1.580412e+03 0.000000e+00
-1.461612e+01 1.179695e+03 0.000000e+00
-2.906737e+01 2.149912e+03 9.330491e-99
-1.665063e+01 1.511097e+03 0.000000e+00
-1.493450e+01 1.238341e+03 0.000000e+00
-1.424933e+01 1.126120e+03 0.000000e+00
-2.425836e+01 2.031411e+03 1.599211e-148
-2.290149e+01 1.975782e+03 1.416034e-171
-1.869540e+01 1.716350e+03 9.747441e-283
-1.513956e+01 1.270570e+03 0.000000e+00
-1.782961e+01 1.632879e+03 1.640555e-318
-2.551163e+01 2.070901e+03 7.655483e-132
-2.171700e+01 1.924450e+03 2.000210e-193
-2.451655e+01 2.039035e+03 3.273158e-145
-1.927349e+01 1.770220e+03 2.422894e-259
-1.652847e+01 1.482157e+03 0.000000e+00
-2.555765e+01 2.071546e+03 1.459125e-131
-2.396471e+01 2.021434e+03 7.429331e-153
-1.043276e+01 2.062937e+01 0.000000e+00
-1.531991e+01 1.304383e+03 0.000000e+00
-1.611622e+01 1.436634e+03 0.000000e+00
-2.362528e+01 2.009897e+03 1.976661e-157
-1.747322e+01 1.597069e+03 0.000000e+00
-2.431025e+01 2.033569e+03 1.383927e-147
-3.271785e+01 2.207993e+03 3.477170e-75
-1.323968e+01 8.836324e+02 0.000000e+00
-3.106323e+01 2.180455e+03 9.105055e-87
-1.639522e+01 1.459483e+03 0.000000e+00
-1.429772e+01 1.131246e+03 0.000000e+00
-1.673179e+01 1.514265e+03 0.000000e+00
-1.422599e+01 1.125782e+03 0.000000e+00
-1.527693e+01 1.292462e+03 0.000000e+00
-3.248220e+01 2.204239e+03 8.144874e-77
-3.046549e+01 2.174514e+03 1.151915e-88
-2.868506e+01 2.142625e+03 6.385584e-102
-2.456689e+01 2.040751e+03 1.820607e-144
-1.143414e+01 4.285726e+02 0.000000e+00
-2.214862e+01 1.939449e+03 2.354248e-187
-2.677481e+01 2.105837e+03 2.311815e-117
-2.052415e+01 1.848430e+03 8.132243e-226
-9.245624e+00 -5.811374e+02 0.000000e+00
-1.019926e+01 -4.561100e+01 0.000000e+00
-2.696380e+01 2.109957e+03 1.423136e-115
-2.877359e+01 2.143151e+03 1.080537e-101
-2.514023e+01 2.060966e+03 3.709001e-136
-6.276669e+00 -4.158188e+03 0.000000e+00
-1.150492e+01 4.516568e+02 0.000000e+00
-3.314165e+01 2.214698e+03 2.839033e-72
-2.519332e+01 2.062448e+03 1.632606e-135
-5.453672e+00 -6.256792e+03 0.000000e+00
-1.993002e+01 1.817893e+03 4.447949e-239
-1.381408e+01 1.028375e+03 0.000000e+00
-2.498880e+01 2.052611e+03 2.576017e-139
-1.593826e+01 1.415685e+03 0.000000e+00
-1.865627e+01 1.715273e+03 3.320133e-283
-3.549840e+01 2.251954e+03 3.062780e-57
-1.846474e+01 1.698502e+03 1.728235e-290
-7.595982e+00 -1.959620e+03 0.000000e+00
-1.718809e+01 1.559844e+03 0.000000e+00
-9.281327e+00 -5.543687e+02 0.000000e+00
-3.337276e+01 2.218076e+03 1.925736e-71
-3.777514e+00 -1.014560e+04 0.000000e+00
-8.127594e+00 -1.299834e+03 0.000000e+00
-2.654630e+01 2.096879e+03 1.465800e-120
-8.761180e+00 -7.698834e+02 0.000000e+00
-9.026080e+00 -6.577842e+02 0.000000e+00
-2.057028e+01 1.852591e+03 5.215665e-224
-2.584689e+01 2.078729e+03 1.921453e-128
-3.139001e+01 2.187567e+03 1.116825e-83
-2.190623e+01 1.929405e+03 1.022818e-191
-1.546120e+01 1.330081e+03 0.000000e+00
-2.308678e+01 1.986034e+03 8.557815e-168
-2.066945e+01 1.859175e+03 3.773154e-221
-2.520428e+01 2.062815e+03 2.356500e-135
-1.319891e+01 8.801713e+02 0.000000e+00
-1.575280e+01 1.390894e+03 0.000000e+00
-9.791859e+00 -2.945839e+02 0.000000e+00
-2.420903e+01 2.030141e+03 4.491090e-149
-3.266527e+00 -1.193310e+04 0.000000e+00
-8.896240e+00 -7.101515e+02 0.000000e+00
-2.552673e+01 2.071077e+03 9.128690e-132
-1.013214e+01 -6.342042e+01 0.000000e+00
-1.337303e+01 9.231444e+02 0.000000e+00
-3.464662e+01 2.239334e+03 1.012324e-62
-2.339726e+01 2.000730e+03 2.064213e-161
-2.129201e+01 1.899044e+03 1.850930e-204
-2.282157e+01 1.969796e+03 3.559482e-174
-2.507080e+01 2.057218e+03 2.580735e-137
-1.884587e+01 1.728150e+03 1.298869e-277
-2.012143e+01 1.829922e+03 7.452261e-234
-8.486703e+00 -9.175740e+02 0.000000e+00
-2.813205e+01 2.133048e+03 1.518939e-105
-7.777208e+00 -1.719712e+03 0.000000e+00
-3.806191e+01 2.284519e+03 1.159864e-44
-2.003487e+01 1.823758e+03 1.567822e-236
-7.407686e+00 -2.141738e+03 0.000000e+00
-4.067103e+01 2.309265e+03 2.000919e-34
-3.348540e+01 2.219325e+03 6.714763e-71
-2.691310e+01 2.108417e+03 3.050934e-116
-2.372120e+01 2.013399e+03 6.558906e-156
-1.465080e+01 1.187116e+03 0.000000e+00
-1.966870e+01 1.795760e+03 1.086225e-248
-2.384996e+01 2.018574e+03 1.159592e-153
-2.666292e+01 2.102192e+03 6.038787e-119
-2.840915e+01 2.139522e+03 2.868038e-103
-2.009174e+01 1.828439e+03 1.691334e-234
-2.707363e+01 2.113857e+03 7.030640e-114
-1.215258e+01 6.136267e+02 0.000000e+00
-1.389086e+01 1.048673e+03 0.000000e+00
-5.577288e+00 -6.120416e+03 0.000000e+00
-3.026293e+01 2.169893e+03 1.133824e-90
-3.375783e+01 2.225133e+03 2.235697e-68
-2.603046e+01 2.085602e+03 1.855820e-125
-2.580582e+01 2.077793e+03 7.535814e-129
-2.035836e+01 1.839318e+03 8.972615e-230
-2.523792e+01 2.063245e+03 3.622547e-135
-2.845858e+01 2.139884e+03 4.119073e-103
-2.704502e+01 2.113040e+03 3.105820e-114
-2.039730e+01 1.839832e+03 1.500190e-229
-1.910978e+01 1.746307e+03 9.978158e-270
-3.034477e+01 2.171866e+03 8.154711e-90
-1.785511e+01 1.637533e+03 1.722648e-316
-2.570996e+01 2.074884e+03 4.109297e-130
-2.152486e+01 1.908939e+03 3.670573e-200
-9.114341e+00 -6.359480e+02 0.000000e+00
-1.882293e+01 1.726984e+03 4.047419e-278
-2.545339e+01 2.069124e+03 1.294885e-132
-1.963109e+01 1.791097e+03 1.025191e-250
-2.334064e+01 1.997049e+03 5.201356e-163
-3.280093e+01 2.209464e+03 1.513816e-74
-1.358401e+01 9.754277e+02 0.000000e+00
-1.974845e+01 1.807933e+03 2.101777e-243
-1.908003e+01 1.745606e+03 4.950054e-270
-2.408473e+01 2.025553e+03 4.568869e-151
-2.889656e+01 2.144451e+03 3.964810e-101
-6.633169e+00 -3.108291e+03 0.000000e+00
-4.269121e+01 2.324080e+03 1.603375e-29
-3.795929e+01 2.283578e+03 4.526222e-45
-1.468672e+01 1.187201e+03 0.000000e+00
-4.580747e+00 -8.376844e+03 0.000000e+00
-7.638304e+00 -1.908878e+03 0.000000e+00
-2.703102e+01 2.112642e+03 2.086061e-114
-2.463821e+01 2.042213e+03 7.855155e-144
-1.706284e+01 1.548627e+03 0.000000e+00
-2.695088e+01 2.109517e+03 9.165513e-116
-3.883917e+01 2.292053e+03 2.169610e-41
-1.998107e+01 1.820458e+03 5.782626e-238
-1.393159e+01 1.052296e+03 0.000000e+00
-3.831931e+01 2.287485e+03 2.251772e-43
-2.982461e+01 2.162573e+03 7.507753e-94
-1.548682e+01 1.331725e+03 0.000000e+00
-2.529662e+01 2.065363e+03 3.011964e-134
-1.834540e+01 1.677112e+03 2.661570e-299
-2.094454e+01 1.878662e+03 2.603754e-213
-1.905113e+01 1.743636e+03 6.903190e-271
-3.219259e+01 2.199290e+03 5.775120e-79
-3.322633e+01 2.215866e+03 9.129065e-72
-2.882098e+01 2.143363e+03 1.335703e-101
-3.840691e+01 2.287779e+03 3.021391e-43
-1.655174e+01 1.486871e+03 0.000000e+00
-2.827404e+01 2.135690e+03 6.213959e-105
-1.743856e+01 1.595059e+03 0.000000e+00
-2.546763e+01 2.069726e+03 2.364159e-132
-3.574817e+01 2.256594e+03 1.283184e-55
-2.600559e+01 2.084986e+03 1.002329e-125
-1.849695e+01 1.702077e+03 6.168868e-289
-1.917209e+01 1.754617e+03 4.055436e-266
-2.196970e+01 1.931224e+03 6.306379e-191
-3.056667e+01 2.175976e+03 4.970029e-88
-8.196992e+00 -1.256402e+03 0.000000e+00
-1.330413e+01 9.128289e+02 0.000000e+00
-3.168046e+01 2.192502e+03 1.553203e-81
-2.338281e+01 2.000680e+03 1.963541e-161
-2.900714e+01 2.146501e+03 3.079825e-100
-3.968596e+01 2.300149e+03 2.198877e-38
-1.010021e+01 -8.378040e+01 0.000000e+00
-3.972041e+01 2.300387e+03 2.789736e-38
-1.742167e+01 1.592304e+03 0.000000e+00
-1.448831e+01 1.154515e+03 0.000000e+00
-3.102752e+01 2.180219e+03 7.190997e-87
-1.352695e+01 9.599391e+02 0.000000e+00
-2.364374e+01 2.010621e+03 4.077194e-157
-8.699926e+00 -7.931268e+02 0.000000e+00
-3.349874e+01 2.219562e+03 8.510566e-71
-9.356800e+00 -5.193482e+02 0.000000e+00
-1.606867e+01 1.425153e+03 0.000000e+00
-3.397024e+01 2.229336e+03 1.495384e-66
-1.848072e+01 1.700857e+03 1.821236e-289
-4.339290e+01 2.327730e+03 6.168933e-28
-7.828155e+00 -1.611447e+03 0.000000e+00
-1.738872e+01 1.588425e+03 0.000000e+00
-1.840329e+01 1.692170e+03 3.073619e-293
-2.203747e+01 1.934898e+03 2.485295e-189
-2.586808e+01 2.080389e+03 1.010552e-127
-3.338466e+01 2.218099e+03 1.970542e-71
-2.183216e+01 1.926693e+03 6.791908e-193
-2.048005e+01 1.847903e+03 4.801060e-226
-3.088599e+01 2.178948e+03 2.017441e-87
-2.133927e+01 1.901574e+03 2.323566e-203
-3.760053e+01 2.279077e+03 1.515882e-46
-2.216840e+01 1.939534e+03 2.563110e-187
-2.376231e+01 2.015070e+03 3.487687e-155
-3.570168e+01 2.254580e+03 1.712458e-56
-3.754068e+01 2.278733e+03 1.074652e-46
-2.382731e+01 2.017226e+03 3.012149e-154
-2.122505e+01 1.897298e+03 3.229326e-205
-1.856464e+01 1.709777e+03 1.362301e-285
-1.843355e+01 1.694992e+03 5.166888e-292
-3.028947e+01 2.170881e+03 3.045289e-90
-2.424580e+01 2.030427e+03 5.978056e-149
-2.610903e+01 2.087765e+03 1.614042e-124
-2.146823e+01 1.906917e+03 4.859488e-201
-1.023458e+01 -2.289066e+01 0.000000e+00
-1.802356e+01 1.651420e+03 1.850308e-310
-1.976943e+01 1.808374e+03 3.266710e-243
-2.227367e+01 1.945816e+03 1.370898e-184
-1.616614e+01 1.441842e+03 0.000000e+00
-4.375726e+01 2.330905e+03 5.919500e-27
-3.595934e+01 2.258483e+03 8.485381e-55
-6.696310e+00 -3.091618e+03 0.000000e+00
-3.090650e+01 2.179040e+03 2.211851e-87
-2.317606e+01 1.989068e+03 1.778330e-166
-5.343670e+00 -6.499987e+03 0.000000e+00
-2.032088e+01 1.838709e+03 4.880156e-230
-1.851345e+01 1.702259e+03 7.400261e-289
-2.416202e+01 2.028925e+03 1.331220e-149
-1.896914e+01 1.739863e+03 1.586561e-272
-4.345587e+01 2.328124e+03 9.147914e-28
-3.344643e+01 2.218609e+03 3.281526e-71
-2.187594e+01 1.927839e+03 2.136453e-192
-2.261423e+01 1.956113e+03 4.063829e-180
-1.723359e+01 1.570681e+03 0.000000e+00
-3.736367e+01 2.275713e+03 5.244435e-48
-9.677528e+00 -3.685970e+02 0.000000e+00
-3.023707e+01 2.169684e+03 9.199793e-91
-2.353776e+01 2.006471e+03 6.427458e-159
-2.432366e+01 2.033803e+03 1.748792e-147
-4.548401e+01 2.342015e+03 3.956368e-22
-2.688868e+01 2.108289e+03 2.684375e-116
-1.714457e+01 1.558834e+03 0.000000e+00
-2.330019e+01 1.994256e+03 3.185166e-164
-2.399339e+01 2.022949e+03 3.379916e-152
-1.551311e+01 1.339432e+03 0.000000e+00
-7.478809e+00 -2.101602e+03 0.000000e+00
-2.400314e+01 2.023251e+03 4.571543e-152
-3.700039e+01 2.272056e+03 1.353580e-49
-1.525611e+01 1.289499e+03 0.000000e+00
-3.823876e+01 2.286534e+03 8.699822e-44
-3.703482e+01 2.272762e+03 2.742178e-49
-2.680763e+01 2.106290e+03 3.636541e-117
-3.145960e+01 2.188971e+03 4.547099e-83
-2.080760e+01 1.870784e+03 9.867973e-217
-4.050433e+01 2.308697e+03 1.133836e-34
-2.521537e+01 2.062832e+03 2.396903e-135
-3.364291e+01 2.221330e+03 4.986446e-70
-2.674303e+01 2.104478e+03 5.939459e-118
-3.101589e+01 2.179988e+03 5.707778e-87
-3.601992e+01 2.259076e+03 1.535352e-54
-2.510968e+01 2.060241e+03 1.796360e-136
-2.977516e+01 2.161428e+03 2.389147e-94
-1.676038e+01 1.519340e+03 0.000000e+00
-3.879322e+01 2.291881e+03 1.826766e-41
-2.567405e+01 2.074197e+03 2.067318e-130
-1.432282e+01 1.132601e+03 0.000000e+00
-1.403730e+01 1.067682e+03 0.000000e+00
-3.701174e+01 2.272599e+03 2.329730e-49
-1.830408e+01 1.673174e+03 5.186642e-301
-1.627413e+01 1.451127e+03 0.000000e+00
-1.981274e+01 1.814561e+03 1.588878e-240
-7.682495e+00 -1.835966e+03 0.000000e+00
-1.914045e+01 1.748509e+03 9.023330e-269
-3.140696e+01 2.188102e+03 1.906920e-83
-1.405659e+01 1.075054e+03 0.000000e+00
-3.458350e+01 2.238119e+03 3.003666e-63
-1.766723e+01 1.623123e+03 9.387247e-323
-1.983512e+01 1.814981e+03 2.418211e-240
-2.082193e+01 1.870835e+03 1.038429e-216
-1.517692e+01 1.276060e+03 0.000000e+00
-2.543934e+01 2.068756e+03 8.962124e-133
-3.925293e+01 2.296516e+03 5.813118e-40
-3.655837e+01 2.266578e+03 2.781539e-51
-1.756553e+01 1.602979e+03 0.000000e+00
-1.597987e+01 1.418650e+03 0.000000e+00
-9.396786e+00 -5.056211e+02 0.000000e+00
-2.710308e+01 2.114029e+03 8.350135e-114
-2.413932e+01 2.028682e+03 1.044038e-149
-2.305525e+01 1.984460e+03 1.773305e-168
-2.061864e+01 1.857829e+03 9.820739e-222
-1.853022e+01 1.706362e+03 4.478755e-287
-6.079391e+00 -4.302814e+03 0.000000e+00
-1.202141e+01 5.964111e+02 0.000000e+00
-4.020757e+01 2.305734e+03 5.857815e-36
-3.124917e+01 2.184151e+03 3.668048e-85
-2.439351e+01 2.035463e+03 9.197441e-147
-2.000761e+01 1.820867e+03 8.704655e-238
-2.608215e+01 2.086751e+03 5.855179e-125
-4.248588e+01 2.322207e+03 1.445472e-29
-2.491301e+01 2.051152e+03 5.988432e-140
-2.392114e+01 2.020699e+03 9.709148e-153
-2.576637e+01 2.076535e+03 2.141843e-129
-1.239350e+01 6.764987e+02 0.000000e+00
-2.352114e+01 2.006179e+03 4.799823e-159
-2.828818e+01 2.136531e+03 1.440821e-104
-1.170747e+01 5.139214e+02 0.000000e+00
-1.244167e+01 7.050199e+02 0.000000e+00
-4.570847e+01 2.342995e+03 1.835438e-22
-2.856542e+01 2.141354e+03 1.791482e-102
-3.475671e+01 2.240518e+03 3.307685e-62
-1.768887e+01 1.625446e+03 9.683687e-322
-1.951358e+01 1.786038e+03 1.794752e-252
-2.971281e+01 2.160985e+03 1.534088e-94
-2.787529e+01 2.127568e+03 6.332956e-108
-1.034872e+01 -5.067590e+00 0.000000e+00
-2.790818e+01 2.130199e+03 8.794988e-107
-3.997902e+01 2.304128e+03 1.175598e-36
-2.181799e+01 1.926609e+03 6.244692e-193
-1.968805e+01 1.798293e+03 1.367691e-247
-1.367621e+01 9.954694e+02 0.000000e+00
-3.957393e+01 2.298945e+03 6.596452e-39
-2.448434e+01 2.038257e+03 1.503439e-145
-2.737635e+01 2.119295e+03 1.616919e-111
-3.870721e+01 2.291125e+03 8.577413e-42
-1.685140e+01 1.529903e+03 0.000000e+00
-2.473518e+01 2.045795e+03 2.823564e-142
-2.429702e+01 2.033447e+03 1.224981e-147
-4.017944e+01 2.305245e+03 3.592243e-36
-1.894324e+01 1.736764e+03 7.154481e-274
-3.896422e+01 2.293038e+03 5.809806e-41
-1.068017e+01 2.205465e+02 0.000000e+00
-2.422114e+01 2.030209e+03 4.807107e-149
-1.451877e+01 1.158282e+03 0.000000e+00
-3.906341e+01 2.294538e+03 8.042196e-41
-2.323620e+01 1.992798e+03 7.411921e-165
-6.234722e+00 -4.162761e+03 0.000000e+00
-2.939505e+01 2.155653e+03 2.905288e-96
-1.621868e+01 1.447280e+03 0.000000e+00
-1.678981e+01 1.520585e+03 0.000000e+00
-1.702435e+01 1.540283e+03 0.000000e+00
-2.965412e+01 2.159789e+03 4.639104e-95
-1.659996e+01 1.494405e+03 0.000000e+00
-3.965265e+01 2.300136e+03 2.170477e-38
-2.461990e+01 2.042087e+03 6.925221e-144
-3.762131e+01 2.279459e+03 2.221088e-46
-3.011695e+01 2.168412e+03 2.578431e-91
-4.479562e+01 2.337714e+03 5.362856e-24
-2.347287e+01 2.005642e+03 2.805492e-159
-4.884207e+01 2.360517e+03 1.341332e-15
-3.579693e+01 2.257604e+03 3.523112e-55
-2.574721e+01 2.076456e+03 1.979149e-129
-1.434857e+01 1.135738e+03 0.000000e+00
-4.258722e+01 2.322636e+03 2.219842e-29
-2.527272e+01 2.064018e+03 7.847362e-135
-3.252510e+01 2.205687e+03 3.465316e-76
-3.803000e+01 2.284117e+03 7.759265e-45
-2.512994e+01 2.060447e+03 2.207283e-136
-3.817627e+01 2.285557e+03 3.274950e-44
-3.834766e+01 2.287640e+03 2.629299e-43
-1.657556e+01 1.489152e+03 0.000000e+00
-3.498443e+01 2.244688e+03 2.140583e-60
-1.427323e+01 1.128541e+03 0.000000e+00
-2.875071e+01 2.143064e+03 9.905033e-102
-2.417357e+01 2.029053e+03 1.513002e-149
-1.515806e+01 1.271069e+03 0.000000e+00
-1.455018e+01 1.166014e+03 0.000000e+00
-3.358273e+01 2.220731e+03 2.739357e-70
-3.342126e+01 2.218424e+03 2.727290e-71
-4.206059e+01 2.320480e+03 2.570296e-30
-3.240157e+01 2.202243e+03 1.106707e-77
-3.846989e+01 2.288522e+03 6.351668e-43
-4.379313e+01 2.331123e+03 7.361413e-27
-3.770900e+01 2.281523e+03 1.749644e-45
-4.101044e+01 2.311751e+03 4.159361e-34
-1.682013e+01 1.528936e+03 0.000000e+00
-2.086616e+01 1.871445e+03 1.911158e-216
-2.192172e+01 1.929640e+03 1.293772e-191
-3.826490e+01 2.286751e+03 1.080817e-43
-2.750175e+01 2.121342e+03 1.252244e-110
-3.508021e+01 2.247236e+03 2.735989e-59
-3.820080e+01 2.285857e+03 4.420720e-44
-2.397418e+01 2.021991e+03 1.296737e-152
-3.604096e+01 2.259113e+03 1.593224e-54
-2.450031e+01 2.038616e+03 2.152769e-145
-1.957720e+01 1.787669e+03 3.326927e-252
-2.342682e+01 2.001885e+03 6.551862e-161
-2.307616e+01 1.986028e+03 8.506622e-168
-2.446862e+01 2.038217e+03 1.444488e-145
-4.803320e+01 2.356394e+03 2.172401e-17
-3.224089e+01 2.200266e+03 1.532613e-78
-4.578314e+01 2.343794e+03 4.080759e-22
-3.232695e+01 2.201742e+03 6.705807e-78
-1.411680e+01 1.086347e+03 0.000000e+00
-3.472803e+01 2.240131e+03 2.246219e-62
-1.418087e+01 1.118944e+03 0.000000e+00
-9.733060e+00 -2.969495e+02 0.000000e+00
-3.722738e+01 2.274524e+03 1.597065e-48
-3.107542e+01 2.180576e+03 1.027619e-86
-2.443789e+01 2.036624e+03 2.936858e-146
-2.772537e+01 2.126137e+03 1.514018e-108
-1.484491e+01 1.208679e+03 0.000000e+00
-8.094621e+00 -1.419080e+03 0.000000e+00
-3.217700e+01 2.199158e+03 5.060974e-79
-1.762530e+01 1.615003e+03 0.000000e+00
-2.110326e+01 1.889007e+03 8.097973e-209
-1.752758e+01 1.600420e+03 0.000000e+00
-3.099303e+01 2.179960e+03 5.550177e-87
-1.745574e+01 1.595966e+03 0.000000e+00
-4.833988e+01 2.358483e+03 1.754612e-16
-3.331526e+01 2.217525e+03 1.109943e-71
-2.246922e+01 1.951686e+03 4.856392e-182
-4.002548e+01 2.304420e+03 1.574246e-36
-6.763708e+00 -3.089671e+03 0.000000e+00
-2.733782e+01 2.118596e+03 8.037415e-112
-2.435102e+01 2.034577e+03 3.792120e-147
-4.303718e+01 2.325787e+03 8.838446e-29
-1.923853e+01 1.763874e+03 4.249145e-262
-2.639036e+01 2.093008e+03 3.054364e-122
-1.670400e+01 1.512624e+03 0.000000e+00
-1.688368e+01 1.530334e+03 0.000000e+00
-3.963640e+01 2.299982e+03 1.860689e-38
-1.407626e+01 1.079321e+03 0.000000e+00
-3.122040e+01 2.183186e+03 1.397465e-85
-2.718074e+01 2.115766e+03 4.743108e-113
-4.386898e+01 2.331776e+03 1.414345e-26
-2.223023e+01 1.944782e+03 4.874664e-185
-2.072299e+01 1.859494e+03 5.190922e-221
-3.172643e+01 2.192999e+03 2.553128e-81
-1.863726e+01 1.710851e+03 3.987542e-285
-4.026632e+01 2.305817e+03 6.364761e-36
-4.419165e+01 2.333532e+03 8.187977e-26
-5.244578e+00 -6.672846e+03 0.000000e+00
-2.943909e+01 2.157148e+03 1.295566e-95
-4.667290e+01 2.347984e+03 2.694231e-20
-2.524939e+01 2.063500e+03 4.674758e-135
-2.528460e+01 2.064375e+03 1.121416e-134
-2.558955e+01 2.072037e+03 2.384137e-131
-4.273239e+01 2.324251e+03 1.902390e-29
-1.972791e+01 1.801691e+03 4.089974e-246
-1.737264e+01 1.585059e+03 0.000000e+00
-2.234260e+01 1.949392e+03 4.898264e-183
-4.178681e+01 2.317495e+03 1.299015e-31
-3.049809e+01 2.175686e+03 3.718892e-88
-3.821330e+01 2.286032e+03 5.266166e-44
-4.046666e+01 2.308584e+03 1.012686e-34
-1.799344e+01 1.647944e+03 5.723168e-312
-2.387313e+01 2.019553e+03 3.086595e-153
-4.275363e+01 2.324349e+03 2.098265e-29
-3.264115e+01 2.206746e+03 9.992189e-76
-2.366255e+01 2.010654e+03 4.213986e-157
-3.785691e+01 2.282756e+03 6.003918e-45
-2.427108e+01 2.032146e+03 3.335126e-148
-3.177463e+01 2.193939e+03 6.535960e-81
-3.081734e+01 2.178326e+03 1.083103e-87
-4.103272e+01 2.311894e+03 4.798779e-34
-3.719946e+01 2.274491e+03 1.545222e-48
-3.733173e+01 2.275586e+03 4.618950e-48
-3.108777e+01 2.180611e+03 1.064223e-86
-4.632559e+01 2.346748e+03 7.827928e-21
-4.734774e+01 2.351714e+03 1.122931e-18
-2.679657e+01 2.106100e+03 3.007271e-117
-3.504079e+01 2.246404e+03 1.190643e-59
-3.541073e+01 2.250607e+03 7.963814e-58
-9.438437e+00 -5.050253e+02 0.000000e+00
-3.502165e+01 2.246340e+03 1.116829e-59
-3.084618e+01 2.178518e+03 1.312364e-87
-3.018728e+01 2.169644e+03 8.839064e-91
-2.220919e+01 1.940067e+03 4.367633e-187
-3.467303e+01 2.239593e+03 1.311601e-62
-4.144524e+01 2.314789e+03 8.677873e-33
-2.539836e+01 2.067923e+03 3.896222e-133
-2.613666e+01 2.088999e+03 5.544139e-124
-3.295685e+01 2.211653e+03 1.351275e-73
-3.860916e+01 2.290381e+03 4.076066e-42
-2.124688e+01 1.897451e+03 3.763214e-205
-4.714693e+01 2.350821e+03 4.597569e-19
-2.112256e+01 1.890082e+03 2.372700e-208
-1.778046e+01 1.632016e+03 6.921415e-319
-2.595762e+01 2.082801e+03 1.127397e-126
-3.334936e+01 2.218035e+03 1.848378e-71
-2.687669e+01 2.108244e+03 2.566256e-116
-3.432862e+01 2.234912e+03 3.948015e-64
-4.428670e+01 2.334545e+03 2.254846e-25
-2.398374e+01 2.022402e+03 1.955901e-152
-1.920476e+01 1.759058e+03 3.441433e-264
-4.573767e+01 2.343320e+03 2.540302e-22
-4.692974e+01 2.349706e+03 1.507613e-19
-4.076612e+01 2.309722e+03 3.160109e-34
-3.625334e+01 2.264028e+03 2.171872e-52
-3.170318e+01 2.192967e+03 2.472721e-81
-3.612983e+01 2.261628e+03 1.970278e-53
-3.546831e+01 2.251647e+03 2.253136e-57
-4.325976e+01 2.327034e+03 3.075680e-28
-3.043392e+01 2.174375e+03 1.002429e-88
-2.428397e+01 2.032831e+03 6.616129e-148
-3.120632e+01 2.183129e+03 1.320037e-85
-1.166354e+01 4.921212e+02 0.000000e+00
-3.697808e+01 2.271996e+03 1.274753e-49
-3.943295e+01 2.297706e+03 1.910819e-39
-2.897832e+01 2.146271e+03 2.447024e-100
-3.590222e+01 2.258027e+03 5.378152e-55
-2.805173e+01 2.131755e+03 4.168670e-106
-2.258350e+01 1.955720e+03 2.743201e-180
-3.462089e+01 2.238546e+03 4.603577e-63
-3.005125e+01 2.167249e+03 8.058811e-92
-2.781260e+01 2.127055e+03 3.791520e-108
-2.675351e+01 2.105470e+03 1.601648e-117
-2.959868e+01 2.158199e+03 9.460322e-96
-2.851057e+01 2.140631e+03 8.693956e-103
-2.667259e+01 2.102498e+03 8.200566e-119
-2.471502e+01 2.045576e+03 2.268230e-142
-1.729592e+01 1.576162e+03 0.000000e+00
-3.581373e+01 2.257737e+03 4.024275e-55
-1.440215e+01 1.146374e+03 0.000000e+00
-4.107884e+01 2.312188e+03 6.438924e-34
-2.458425e+01 2.041122e+03 2.638393e-144
-4.497699e+01 2.338901e+03 1.757534e-23
-4.004955e+01 2.304623e+03 1.928566e-36
-2.184654e+01 1.927025e+03 9.466241e-193
-3.021186e+01 2.169645e+03 8.847907e-91
-3.712009e+01 2.273919e+03 8.721163e-49
-2.252473e+01 1.954175e+03 5.851574e-181
-3.916872e+01 2.295746e+03 2.691550e-40
-3.941989e+01 2.297589e+03 1.699836e-39
-4.390917e+01 2.331850e+03 1.522977e-26
-3.377538e+01 2.225752e+03 4.151847e-68
-3.250342e+01 2.205573e+03 3.091955e-76
-1.854728e+01 1.707329e+03 1.177932e-286
-3.091692e+01 2.179053e+03 2.240793e-87
-2.501539e+01 2.055923e+03 7.068579e-138
-2.264594e+01 1.957394e+03 1.463075e-179
-5.135141e+01 2.373946e+03 1.513547e-10
-3.190637e+01 2.195931e+03 4.790976e-80
-4.111488e+01 2.312526e+03 9.028277e-34
-3.037361e+01 2.172789e+03 2.052402e-89
-2.335450e+01 1.997107e+03 5.511955e-163
-1.964972e+01 1.792408e+03 3.803338e-250
-2.079348e+01 1.869800e+03 3.688775e-217
-4.878446e+01 2.359820e+03 6.680868e-16
-1.342175e+01 9.325250e+02 0.000000e+00
-3.868681e+01 2.290982e+03 7.434507e-42
-3.910043e+01 2.294736e+03 9.803134e-41
-3.234509e+01 2.201904e+03 7.885092e-78
-3.704657e+01 2.272778e+03 2.786406e-49
-3.702321e+01 2.272623e+03 2.386320e-49
-2.699015e+01 2.111044e+03 4.220117e-115
-2.646529e+01 2.095583e+03 4.010782e-121
-1.648350e+01 1.472436e+03 0.000000e+00
-3.608441e+01 2.260206e+03 4.752923e-54
-2.116230e+01 1.894441e+03 1.854951e-206
-2.211018e+01 1.938817e+03 1.251348e-187
-3.888733e+01 2.292318e+03 2.827936e-41
-3.588389e+01 2.257932e+03 4.890746e-55
-2.021619e+01 1.834744e+03 9.256697e-232
-2.995051e+01 2.165885e+03 2.060124e-92
-2.404310e+01 2.023758e+03 7.590146e-152
-4.872999e+01 2.359710e+03 5.984950e-16
-3.286041e+01 2.210120e+03 2.917227e-74
-1.543622e+01 1.320590e+03 0.000000e+00
-4.660011e+01 2.347762e+03 2.157851e-20
-4.393690e+01 2.332136e+03 2.027223e-26
-3.696711e+01 2.271670e+03 9.201235e-50
-3.426887e+01 2.234012e+03 1.605143e-64
-4.324211e+01 2.326917e+03 2.736079e-28
-1.754637e+01 1.601629e+03 0.000000e+00
-3.493108e+01 2.243595e+03 7.175434e-61
-3.489703e+01 2.243450e+03 6.206911e-61
-3.384883e+01 2.227434e+03 2.232156e-67
-1.959484e+01 1.787846e+03 3.971124e-252
-4.827056e+01 2.358257e+03 1.399686e-16
-4.919378e+01 2.362062e+03 6.288124e-15
-1.073795e+01 2.335844e+02 0.000000e+00
-2.313042e+01 1.987346e+03 3.178025e-167
-4.464215e+01 2.337353e+03 3.737798e-24
-4.137937e+01 2.314009e+03 3.977989e-33
-4.136356e+01 2.313942e+03 3.720196e-33
-4.402500e+01 2.332639e+03 3.352367e-26
-5.087793e+01 2.371698e+03 1.598461e-11
-4.646873e+01 2.347618e+03 1.868457e-20
-3.418544e+01 2.231856e+03 1.858552e-65
-9.145581e+00 -6.167685e+02 0.000000e+00
-4.400977e+01 2.332523e+03 2.985200e-26
-3.893793e+01 2.292613e+03 3.798276e-41
-3.970304e+01 2.300161e+03 2.225423e-38
-4.638041e+01 2.347043e+03 1.051390e-20
-4.640899e+01 2.347045e+03 1.053495e-20
-2.402292e+01 2.023424e+03 5.434952e-152
-2.517174e+01 2.061832e+03 8.817713e-136
-2.278389e+01 1.966908e+03 1.982186e-175
-1.826440e+01 1.672259e+03 2.077336e-301
-1.541185e+01 1.316531e+03 0.000000e+00
-2.389684e+01 2.019922e+03 4.464104e-153
-3.266607e+01 2.207331e+03 1.793589e-75
-3.886296e+01 2.292069e+03 2.204603e-41
-2.714895e+01 2.115304e+03 2.988264e-113
-3.111292e+01 2.182072e+03 4.587085e-86
-4.357052e+01 2.329090e+03 2.403536e-27
-2.357185e+01 2.008263e+03 3.857402e-158
-1.556786e+01 1.360093e+03 0.000000e+00
-2.475575e+01 2.046190e+03 4.191253e-142
-2.948516e+01 2.157568e+03 1.971801e-95
-1.445876e+01 1.150416e+03 0.000000e+00
-4.359512e+01 2.329411e+03 3.313287e-27
-4.302303e+01 2.325783e+03 8.803162e-29
-3.829173e+01 2.287291e+03 1.854690e-43
-3.741356e+01 2.276463e+03 1.110247e-47
-1.875714e+01 1.721504e+03 1.687502e-280
-1.811977e+01 1.655166e+03 7.836304e-309
-3.912913e+01 2.294971e+03 1.240007e-40
-4.399476e+01 2.332447e+03 2.766732e-26
-3.222453e+01 2.200085e+03 1.278866e-78
-3.491391e+01 2.243555e+03 6.894082e-61
-3.382995e+01 2.227265e+03 1.885076e-67
-4.343443e+01 2.327956e+03 7.733225e-28
-3.516404e+01 2.248220e+03 7.319142e-59
-3.112574e+01 2.182147e+03 4.944346e-86
-2.314164e+01 1.987723e+03 4.633256e-167
-2.719703e+01 2.116242e+03 7.634616e-113
-2.108433e+01 1.888747e+03 6.243955e-209
-4.202958e+01 2.320072e+03 1.709193e-30
-3.843790e+01 2.288129e+03 4.287558e-43
-4.911285e+01 2.361853e+03 5.102154e-15
-3.332650e+01 2.217669e+03 1.281855e-71
-2.824634e+01 2.135554e+03 5.423809e-105
-2.884554e+01 2.143858e+03 2.191219e-101
-3.151516e+01 2.190234e+03 1.607860e-82
-4.584717e+01 2.344054e+03 5.292459e-22
-2.724753e+01 2.117620e+03 3.028621e-112
-1.749101e+01 1.597591e+03 0.000000e+00
-2.668235e+01 2.102652e+03 9.565885e-119
-3.556142e+01 2.253300e+03 1.176728e-56
-2.168230e+01 1.922505e+03 2.860045e-194
-4.568009e+01 2.342530e+03 1.152903e-22
-2.685314e+01 2.107498e+03 1.217072e-116
-1.100965e+01 3.150290e+02 0.000000e+00
-3.361237e+01 2.221147e+03 4.152553e-70
-4.426696e+01 2.334489e+03 2.132045e-25
-2.987664e+01 2.163719e+03 2.361628e-93
-4.105552e+01 2.312070e+03 5.722247e-34
-4.104406e+01 2.311980e+03 5.229740e-34
-4.354652e+01 2.328986e+03 2.166127e-27
-3.584819e+01 2.257849e+03 4.501203e-55
-4.289153e+01 2.325081e+03 4.362787e-29
-7.309672e+00 -2.223167e+03 0.000000e+00
-3.506031e+01 2.246535e+03 1.357294e-59
-4.139544e+01 2.314610e+03 7.255621e-33
-2.622443e+01 2.090275e+03 1.986067e-123
-3.113873e+01 2.182529e+03 7.244516e-86
-3.804052e+01 2.284207e+03 8.489988e-45
-1.443005e+01 1.149018e+03 0.000000e+00
-3.620209e+01 2.263139e+03 8.927841e-53
-3.955890e+01 2.298647e+03 4.896555e-39
-4.109071e+01 2.312437e+03 8.259479e-34
-4.404047e+01 2.332770e+03 3.821591e-26
-1.315973e+01 8.694825e+02 0.000000e+00
-3.390769e+01 2.228535e+03 6.712477e-67
-3.123468e+01 2.183679e+03 2.287958e-85
-4.181105e+01 2.317779e+03 1.725654e-31
-2.678563e+01 2.106045e+03 2.846337e-117
-3.592090e+01 2.258036e+03 5.426774e-55
-1.266160e+01 7.730551e+02 0.000000e+00
-2.665334e+01 2.102044e+03 5.208038e-119
-3.645672e+01 2.265759e+03 1.226304e-51
-1.571950e+01 1.375022e+03 0.000000e+00
-4.239387e+01 2.321821e+03 9.825894e-30
-3.586588e+01 2.257909e+03 4.779542e-55
-1.519614e+01 1.278588e+03 0.000000e+00
-3.130934e+01 2.185024e+03 8.781609e-85
-3.636445e+01 2.265154e+03 6.696530e-52
-1.585990e+01 1.403405e+03 0.000000e+00
-2.401298e+01 2.023355e+03 5.072586e-152
-4.948534e+01 2.363393e+03 2.379946e-14
-2.767118e+01 2.125920e+03 1.218679e-108
-4.608914e+01 2.345520e+03 2.292626e-21
-1.510354e+01 1.263923e+03 0.000000e+00
-2.310836e+01 1.986839e+03 1.914124e-167
-2.831708e+01 2.137299e+03 3.105619e-104
-3.679918e+01 2.269933e+03 7.967887e-50
-2.593447e+01 2.082383e+03 7.422357e-127
-2.412816e+01 2.028678e+03 1.039870e-149
-3.365854e+01 2.222207e+03 1.198581e-69
-4.227002e+01 2.320925e+03 4.010922e-30
-3.115189e+01 2.182558e+03 7.457683e-86
-2.844183e+01 2.139703e+03 3.437100e-103
-2.328706e+01 1.994017e+03 2.508047e-164
-7.317893e-02 -3.275794e+04 0.000000e+00
-2.298834e+01 1.980989e+03 2.584907e-169
-3.822595e+01 2.286095e+03 5.608608e-44
-4.320772e+01 2.326746e+03 2.306027e-28
-3.717230e+01 2.274238e+03 1.199815e-48
-2.236667e+01 1.949780e+03 7.220188e-183
-2.619431e+01 2.089693e+03 1.109774e-123
-3.874929e+01 2.291746e+03 1.596075e-41
-4.285523e+01 2.324914e+03 3.691788e-29
-2.131536e+01 1.899211e+03 2.187345e-204
-3.808376e+01 2.284704e+03 1.395569e-44
-2.395533e+01 2.021236e+03 6.094800e-153
-5.522863e+01 2.387272e+03 2.638467e-06
-4.604788e+01 2.345233e+03 1.720643e-21
-3.708266e+01 2.273166e+03 4.107245e-49
-3.330414e+01 2.217375e+03 9.553366e-72
-3.480133e+01 2.241247e+03 6.856852e-62
-3.193493e+01 2.196322e+03 7.083259e-80
-3.261684e+01 2.206238e+03 6.012278e-76
-2.200301e+01 1.932173e+03 1.629017e-190
-2.477676e+01 2.046550e+03 6.007447e-142
-1.691703e+01 1.532287e+03 0.000000e+00
-2.671223e+01 2.103844e+03 3.150679e-118
-2.175294e+01 1.924863e+03 3.023008e-193
-3.394895e+01 2.229242e+03 1.361222e-66
-3.928644e+01 2.296711e+03 7.064746e-40
-3.100440e+01 2.179968e+03 5.594756e-87
-2.526099e+01 2.063956e+03 7.375601e-135
-2.745818e+01 2.120515e+03 5.476808e-111
-3.316506e-01 -3.111665e+04 0.000000e+00
-3.165824e+01 2.192471e+03 1.505792e-81
-2.747972e+01 2.120617e+03 6.064926e-111
-1.698728e+01 1.534413e+03 0.000000e+00
-4.169532e+01 2.316895e+03 7.129145e-32
-3.060281e+01 2.176224e+03 6.368893e-88
-4.317447e+01 2.326608e+03 2.008777e-28
-2.141463e+01 1.904964e+03 6.893081e-202
-1.154228e+01 4.530387e+02 0.000000e+00
-3.078013e+01 2.177466e+03 4.583280e-88
-4.759928e+01 2.354188e+03 1.332901e-17
-3.110027e+01 2.181015e+03 1.593997e-86
-4.448453e+01 2.336090e+03 1.057065e-24
-3.915867e+01 2.295596e+03 2.316638e-40
-2.958529e+01 2.157999e+03 7.745456e-96
-3.848627e+01 2.288997e+03 1.021357e-42
-1.086460e+01 2.634435e+02 0.000000e+00
-2.318780e+01 1.990248e+03 5.787351e-166
-3.610686e+01 2.261026e+03 1.079151e-53
-2.306565e+01 1.985660e+03 5.887579e-168
-3.175024e+01 2.193571e+03 4.523650e-81
-3.333786e+01 2.217916e+03 1.641004e-71
-2.410621e+01 2.028152e+03 6.145257e-150
-4.337276e+01 2.327664e+03 5.774929e-28
-3.053179e+01 2.175859e+03 4.421264e-88
-4.043036e+01 2.307630e+03 3.900839e-35
-2.984165e+01 2.162863e+03 1.003357e-93
-4.591559e+01 2.344481e+03 8.111501e-22
-4.779883e+01 2.355215e+03 6.682005e-18
-2.104751e+01 1.886502e+03 6.614068e-210
-4.420996e+01 2.333734e+03 1.002084e-25
-2.018359e+01 1.834558e+03 7.685591e-232
-3.881593e+01 2.291895e+03 1.852521e-41
-2.239134e+01 1.950064e+03 9.591535e-183
-4.795695e+01 2.355911e+03 1.340219e-17
-3.924201e+01 2.296491e+03 5.669591e-40
-1.771100e+01 1.626769e+03 3.641264e-321
-2.969781e+01 2.160452e+03 9.002671e-95
-2.684157e+01 2.107338e+03 1.037120e-116
-3.630735e+01 2.264394e+03 3.131742e-52
-2.554207e+01 2.071484e+03 1.371407e-131
-4.315825e+01 2.326543e+03 1.882359e-28
-2.919997e+01 2.151708e+03 5.622085e-98
-3.877101e+01 2.291866e+03 1.799569e-41
-3.379324e+01 2.226528e+03 9.020982e-68
-4.473138e+01 2.337479e+03 4.239717e-24
-3.788384e+01 2.282792e+03 6.223996e-45
-3.369055e+01 2.224058e+03 7.630385e-69
-1.272507e+01 7.750326e+02 0.000000e+00
-4.381778e+01 2.331312e+03 8.892888e-27
-2.327410e+01 1.993961e+03 2.371457e-164
-3.367442e+01 2.223912e+03 6.593856e-69
-2.711814e+01 2.114470e+03 1.297829e-113
-2.860373e+01 2.141489e+03 2.050417e-102
-3.040331e+01 2.173074e+03 2.729206e-89
-2.406370e+01 2.025159e+03 3.081035e-151
-4.268117e+01 2.324019e+03 1.508493e-29
-4.663584e+01 2.347879e+03 2.425682e-20
-4.142836e+01 2.314670e+03 7.704283e-33
-4.800714e+01 2.356036e+03 1.518667e-17
-3.474227e+01 2.240323e+03 2.721677e-62
-3.907253e+01 2.294611e+03 8.651236e-41
-2.693813e+01 2.109179e+03 6.536801e-116
-3.739665e+01 2.276285e+03 9.292127e-48
-2.708825e+01 2.113925e+03 7.525353e-114
-4.396541e+01 2.332213e+03 2.189486e-26
-2.355466e+01 2.006851e+03 9.398772e-159
-2.114223e+01 1.893681e+03 8.674985e-207
-3.381143e+01 2.226899e+03 1.307305e-67
-4.119110e+01 2.312842e+03 1.238346e-33
-3.185157e+01 2.195801e+03 4.206934e-80
-3.471399e+01 2.239998e+03 1.966486e-62
-4.653226e+01 2.347643e+03 1.915757e-20
-3.486410e+01 2.242890e+03 3.545444e-61
-2.535898e+01 2.067300e+03 2.089672e-133
-2.532110e+01 2.066428e+03 8.737223e-134
-4.000198e+01 2.304274e+03 1.360397e-36
-1.889337e+01 1.733196e+03 2.018438e-275
-3.958919e+01 2.299028e+03 7.167321e-39
-1.314071e+01 8.646896e+02 0.000000e+00
-2.697689e+01 2.110913e+03 3.701961e-115
-3.766419e+01 2.280490e+03 6.227639e-46
-2.433724e+01 2.034392e+03 3.151647e-147
-2.442288e+01 2.036417e+03 2.387723e-146
-3.230914e+01 2.201609e+03 5.870700e-78
-2.341193e+01 2.001089e+03 2.955741e-161
-3.406022e+01 2.230462e+03 4.610715e-66
-4.727623e+01 2.351655e+03 1.058595e-18
-3.196434e+01 2.196445e+03 8.010348e-80
-1.538806e+01 1.309409e+03 0.000000e+00
-4.589804e+01 2.344133e+03 5.727522e-22
-4.123151e+01 2.313377e+03 2.114411e-33
-4.773804e+01 2.354768e+03 4.273436e-18
-5.279688e+01 2.378529e+03 4.852765e-09
-3.246143e+01 2.203279e+03 3.118614e-77
-4.777816e+01 2.355115e+03 6.046128e-18
-3.543911e+01 2.251255e+03 1.522453e-57
-2.681882e+01 2.106354e+03 3.876889e-117
-1.361381e+01 9.812270e+02 0.000000e+00
-5.747641e+01 2.393396e+03 1.281835e-04
-2.479822e+01 2.047847e+03 2.197707e-141
-2.437914e+01 2.035242e+03 7.373742e-147
-3.533013e+01 2.250235e+03 5.489889e-58
-2.511976e+01 2.060262e+03 1.834483e-136
-2.826009e+01 2.135635e+03 5.881420e-105
-4.121786e+01 2.312934e+03 1.357679e-33
-3.932110e+01 2.296854e+03 8.150808e-40
-1.016514e+01 -6.122494e+01 0.000000e+00
-1.562579e+01 1.362298e+03 0.000000e+00
-3.627998e+01 2.264070e+03 2.265033e-52
-4.099948e+01 2.311736e+03 4.097436e-34
-7.341288e+00 -2.171877e+03 0.000000e+00
-1.731080e+01 1.576187e+03 0.000000e+00
-4.235086e+01 2.321540e+03 7.418828e-30
-4.456024e+01 2.336822e+03 2.197887e-24
-3.938169e+01 2.297187e+03 1.137158e-39
-3.728567e+01 2.274844e+03 2.199362e-48
-4.128806e+01 2.313573e+03 2.572238e-33
-3.689432e+01 2.270909e+03 2.114534e-49
-4.322477e+01 2.326762e+03 2.343220e-28
-2.993152e+01 2.165674e+03 1.668235e-92
-4.510404e+01 2.339737e+03 4.054841e-23
-5.250647e+01 2.378452e+03 4.493126e-09
-4.458680e+01 2.337056e+03 2.777348e-24
-3.913888e+01 2.295083e+03 1.386964e-40
-2.484257e+01 2.048739e+03 5.362417e-141
-2.405335e+01 2.024236e+03 1.224173e-151
-3.460827e+01 2.238408e+03 4.010169e-63
-3.064030e+01 2.176514e+03 8.511564e-88
-2.588972e+01 2.081833e+03 4.282328e-127
-2.368172e+01 2.011642e+03 1.131816e-156
-4.081728e+01 2.309754e+03 3.262868e-34
-4.524962e+01 2.340567e+03 9.299043e-23
-3.727078e+01 2.274707e+03 1.917779e-48
-4.555232e+01 2.342208e+03 4.798611e-22
-4.384305e+01 2.331344e+03 9.182063e-27
-2.972804e+01 2.161136e+03 1.784140e-94
-2.118279e+01 1.894895e+03 2.920803e-206
-2.241663e+01 1.951262e+03 3.178139e-182
-4.817483e+01 2.357269e+03 5.211319e-17
-3.199464e+01 2.196784e+03 1.124287e-79
-4.688208e+01 2.349190e+03 8.998994e-20
-2.935287e+01 2.153721e+03 4.208547e-97
-5.408825e+01 2.383956e+03 3.632617e-07
-3.523188e+01 2.249620e+03 2.968059e-58
-3.775592e+01 2.281962e+03 2.713969e-45
-3.147778e+01 2.189061e+03 4.975319e-83
-2.670217e+01 2.103292e+03 1.814152e-118
-2.854680e+01 2.140922e+03 1.163047e-102
-3.568665e+01 2.254445e+03 1.496202e-56
-2.895032e+01 2.146137e+03 2.140143e-100
-1.858231e+01 1.709947e+03 1.614742e-285
-3.155399e+01 2.190732e+03 2.645617e-82
-3.538314e+01 2.250416e+03 6.579166e-58
-3.825175e+01 2.286594e+03 9.237788e-44
-3.129395e+01 2.184783e+03 6.900954e-85
-3.525555e+01 2.249991e+03 4.301260e-58
-4.272193e+01 2.324201e+03 1.809609e-29
-4.197031e+01 2.319251e+03 7.520302e-31
-2.096099e+01 1.878726e+03 2.775842e-213
-3.163650e+01 2.192070e+03 1.008354e-81
-3.952951e+01 2.298506e+03 4.252606e-39
-2.271254e+01 1.959307e+03 9.909963e-179
-2.415061e+01 2.028732e+03 1.097567e-149
-4.023651e+01 2.305814e+03 6.345695e-36
-3.157399e+01 2.190873e+03 3.046229e-82
-3.933293e+01 2.296911e+03 8.628900e-40
-4.149765e+01 2.315261e+03 1.391234e-32
-2.548208e+01 2.070477e+03 5.009931e-132
-3.911947e+01 2.294844e+03 1.092116e-40
-2.650498e+01 2.096507e+03 1.010455e-120
-4.784152e+01 2.355315e+03 7.384758e-18
-3.837685e+01 2.287665e+03 2.695860e-43
-4.530327e+01 2.341009e+03 1.446760e-22
-3.617742e+01 2.262821e+03 6.495922e-53
-3.000972e+01 2.166951e+03 5.982066e-92
-1.775677e+01 1.627366e+03 6.615539e-321
-5.494144e+01 2.386603e+03 1.351477e-06
-3.415911e+01 2.231660e+03 1.527753e-65
-3.652333e+01 2.266469e+03 2.494291e-51
-2.311933e+01 1.986980e+03 2.203969e-167
-3.923120e+01 2.296345e+03 4.899421e-40
-3.799908e+01 2.283689e+03 5.057577e-45
-3.718579e+01 2.274436e+03 1.462530e-48
-2.006290e+01 1.825258e+03 7.026493e-236
-2.015203e+01 1.830533e+03 1.372910e-233
-1.995522e+01 1.819905e+03 3.326291e-238
-3.328228e+01 2.217047e+03 6.881892e-72
-5.035980e+01 2.369115e+03 1.207590e-12
-1.294396e+01 8.493163e+02 0.000000e+00
-4.219523e+01 2.320547e+03 2.748406e-30
-3.663238e+01 2.268105e+03 1.280716e-50
-1.521573e+01 1.283463e+03 0.000000e+00
-3.530465e+01 2.250065e+03 4.631626e-58
-2.852852e+01 2.140870e+03 1.104114e-102
-2.249659e+01 1.952435e+03 1.027071e-181
-3.374058e+01 2.225076e+03 2.111826e-68
-4.133267e+01 2.313821e+03 3.296220e-33
-3.318310e+01 2.215292e+03 5.142109e-72
-2.591184e+01 2.082138e+03 5.809513e-127
-1.503291e+01 1.259288e+03 0.000000e+00
-2.518247e+01 2.061925e+03 9.677103e-136
-4.209259e+01 2.320499e+03 2.619599e-30
-1.409632e+01 1.080076e+03 0.000000e+00
-3.256992e+01 2.206011e+03 4.791309e-76
-4.299531e+01 2.325722e+03 8.282220e-29
-4.974109e+01 2.364583e+03 7.823075e-14
-2.549675e+01 2.070844e+03 7.231324e-132
-2.968303e+01 2.160244e+03 7.312033e-95
-8.352157e+00 -1.100311e+03 0.000000e+00
-4.125939e+01 2.313452e+03 2.279090e-33
-1.822623e+01 1.671246e+03 7.543389e-302
-3.403696e+01 2.230375e+03 4.226537e-66
-6.056663e+01 2.400219e+03 3.687928e-03
-2.923606e+01 2.152107e+03 8.378782e-98
-2.202010e+01 1.934181e+03 1.213358e-189
-2.180401e+01 1.926357e+03 4.853654e-193
-2.358935e+01 2.008938e+03 7.576065e-158
-2.834684e+01 2.137717e+03 4.717189e-104
-2.830253e+01 2.137052e+03 2.425926e-104
-4.450913e+01 2.336100e+03 1.067689e-24
-5.050458e+01 2.369977e+03 2.859442e-12
-3.573243e+01 2.255569e+03 4.604020e-56
-3.812894e+01 2.285170e+03 2.223989e-44
-4.937843e+01 2.363002e+03 1.609748e-14
-3.576416e+01 2.256822e+03 1.611789e-55
-2.690082e+01 2.108402e+03 3.005512e-116
-3.016328e+01 2.169294e+03 6.228783e-91
-2.089678e+01 1.872851e+03 7.796769e-216
-2.741643e+01 2.119790e+03 2.652553e-111
-1.488870e+01 1.235918e+03 0.000000e+00
-3.903651e+01 2.294293e+03 6.294663e-41
-3.413346e+01 2.231010e+03 7.975569e-66
-3.459581e+01 2.238383e+03 3.911158e-63
-3.310186e+01 2.214541e+03 2.426533e-72
-3.117873e+01 2.182577e+03 7.600733e-86
-4.808747e+01 2.356604e+03 2.680043e-17
-2.218859e+01 1.939730e+03 3.118092e-187
-2.892308e+01 2.145504e+03 1.136408e-100
-3.225752e+01 2.200282e+03 1.557332e-78
-4.176314e+01 2.317299e+03 1.067806e-31
-3.512125e+01 2.247910e+03 5.368203e-59
-2.453305e+01 2.039516e+03 5.294958e-145
-3.710746e+01 2.273490e+03 5.678872e-49
-2.764514e+01 2.124665e+03 3.474158e-109
-2.731910e+01 2.118588e+03 7.973372e-112
-3.399199e+01 2.230189e+03 3.509182e-66
-2.467588e+01 2.043190e+03 2.086702e-143
-2.879700e+01 2.143264e+03 1.209803e-101
-4.370019e+01 2.330511e+03 3.991839e-27
-5.008561e+01 2.366056e+03 3.412662e-13
-3.336099e+01 2.218068e+03 1.910392e-71
-4.501757e+01 2.339257e+03 2.509068e-23
-3.153439e+01 2.190323e+03 1.757521e-82
-1.279285e+01 7.899848e+02 0.000000e+00
-4.300907e+01 2.325738e+03 8.415801e-29
-1.667696e+01 1.512127e+03 0.000000e+00
-4.012544e+01 2.304833e+03 2.379229e-36
-5.817607e+01 2.395093e+03 1.756307e-04
-4.147987e+01 2.315197e+03 1.304985e-32
-3.089619e+01 2.178982e+03 2.087213e-87
-5.329515e+01 2.381125e+03 2.141569e-08
-1.942699e+01 1.781324e+03 1.609683e-254
-1.458260e+01 1.174598e+03 0.000000e+00
-3.810610e+01 2.285123e+03 2.121880e-44
-3.209146e+01 2.197250e+03 1.791672e-79
-3.918912e+01 2.296194e+03 4.212756e-40
-4.009950e+01 2.304707e+03 2.097564e-36
-4.542006e+01 2.341738e+03 2.999143e-22
-3.401422e+01 2.230221e+03 3.623292e-66
-3.639427e+01 2.265229e+03 7.218084e-52
-2.739619e+01 2.119587e+03 2.165221e-111
-2.144107e+01 1.905274e+03 9.398199e-202
-2.837751e+01 2.138154e+03 7.302474e-104
-2.440809e+01 2.035568e+03 1.021570e-146
-3.259310e+01 2.206095e+03 5.211166e-76
-3.488043e+01 2.242947e+03 3.753405e-61
-4.163181e+01 2.316030e+03 3.001738e-32
-5.361505e+01 2.382429e+03 7.889545e-08
-2.348870e+01 2.006014e+03 4.069740e-159
-2.963997e+01 2.159635e+03 3.976974e-95
-2.085120e+01 1.871395e+03 1.817950e-216
-3.565725e+01 2.254077e+03 1.035547e-56
-3.811745e+01 2.285167e+03 2.217327e-44
-3.960468e+01 2.299707e+03 1.413328e-38
-3.283023e+01 2.209822e+03 2.165462e-74
-5.826453e+01 2.395349e+03 2.268714e-04
-4.319096e+01 2.326654e+03 2.103339e-28
-3.478623e+01 2.241106e+03 5.955102e-62
-2.315298e+01 1.988809e+03 1.372556e-166
-4.788611e+01 2.355725e+03 1.112748e-17
-3.013985e+01 2.168755e+03 3.633444e-91
-4.102152e+01 2.311777e+03 4.268923e-34
-1.512139e+01 1.268030e+03 0.000000e+00
-2.954616e+01 2.157740e+03 5.978122e-96
-4.308088e+01 2.326045e+03 1.143994e-28
-4.593345e+01 2.344583e+03 8.982542e-22
-1.902305e+01 1.743267e+03 4.773041e-271
-3.127880e+01 2.184705e+03 6.383137e-85
-4.333366e+01 2.327491e+03 4.857510e-28
-2.989460e+01 2.164884e+03 7.571197e-93
-3.449578e+01 2.236398e+03 1.744779e-63
-4.280879e+01 2.324501e+03 2.442717e-29
-4.613216e+01 2.345679e+03 2.687732e-21
-3.087589e+01 2.178914e+03 1.950001e-87
-5.445650e+01 2.384890e+03 2.437038e-07
-4.223193e+01 2.320761e+03 3.404238e-30
-3.392811e+01 2.229102e+03 1.183390e-66
-2.909891e+01 2.151226e+03 3.471902e-98
-2.836206e+01 2.137963e+03 6.032812e-104
-2.161632e+01 1.920010e+03 2.359436e-195
-2.488897e+01 2.050509e+03 3.148196e-140
-3.816423e+01 2.285432e+03 2.890133e-44
-4.412163e+01 2.333366e+03 6.935595e-26
-1.867564e+01 1.716129e+03 7.814686e-283
-3.353985e+01 2.219990e+03 1.305679e-70
-2.465687e+01 2.042516e+03 1.063521e-143
-5.963478e+01 2.398597e+03 1.507473e-03
-3.386807e+01 2.227667e+03 2.817833e-67
-3.238238e+01 2.202240e+03 1.103392e-77
-4.805997e+01 2.356515e+03 2.451826e-17
-2.966847e+01 2.159911e+03 5.241047e-95
-2.635490e+01 2.092315e+03 1.527407e-122
-3.077104e+01 2.177409e+03 4.329339e-88
-2.460191e+01 2.041568e+03 4.121306e-144
-3.989210e+01 2.303294e+03 5.105722e-37
-3.954410e+01 2.298558e+03 4.479592e-39
-3.306359e+01 2.213606e+03 9.526224e-73
-3.987150e+01 2.303278e+03 5.024680e-37
-2.642712e+01 2.094182e+03 9.880580e-122
-2.537194e+01 2.067652e+03 2.971323e-133
-2.823277e+01 2.135228e+03 3.914933e-105
-6.099118e+01 2.400880e+03 7.142515e-03
-3.520875e+01 2.249307e+03 2.170393e-58
-4.675140e+01 2.348556e+03 4.773658e-20
-2.903680e+01 2.149036e+03 3.885640e-99
-5.686797e+01 2.391540e+03 2.003465e-05
-6.233936e+01 2.402892e+03 5.015030e-03
-4.505987e+01 2.339582e+03 3.472628e-23
-4.194194e+01 2.319108e+03 6.518252e-31
-2.205516e+01 1.935394e+03 4.081202e-189
-4.535996e+01 2.341505e+03 2.375782e-22
-2.267868e+01 1.957702e+03 1.990808e-179
-3.827822e+01 2.286820e+03 1.158027e-43
-3.085599e+01 2.178705e+03 1.582221e-87
-4.188751e+01 2.318323e+03 2.973103e-31
-2.321171e+01 1.991040e+03 1.277736e-165
-4.588080e+01 2.344128e+03 5.698956e-22
-2.138888e+01 1.902708e+03 7.221792e-203
-4.620039e+01 2.345942e+03 3.496274e-21
-4.515025e+01 2.339765e+03 4.169981e-23
-4.635262e+01 2.346885e+03 8.977288e-21
-3.031674e+01 2.171636e+03 6.479192e-90
-6.171301e+01 2.402040e+03 6.237058e-03
-2.482015e+01 2.048568e+03 4.519560e-141
-2.887073e+01 2.144420e+03 3.843786e-101
-5.471859e+01 2.385925e+03 6.860520e-07
-2.839321e+01 2.138234e+03 7.910675e-104
-3.500287e+01 2.245018e+03 2.977483e-60
-2.436498e+01 2.034964e+03 5.584111e-147
-4.493799e+01 2.338501e+03 1.178110e-23
-4.430685e+01 2.334547e+03 2.259360e-25
-4.153418e+01 2.315391e+03 1.584377e-32
-2.274758e+01 1.965906e+03 7.277485e-176
-2.632065e+01 2.091946e+03 1.056088e-122
-6.263366e+01 2.403769e+03 1.205452e-02
-3.254726e+01 2.205905e+03 4.309422e-76
-3.936928e+01 2.297152e+03 1.098046e-39
-4.482936e+01 2.337926e+03 6.629283e-24
-4.432741e+01 2.334701e+03 2.635523e-25
-2.683013e+01 2.106757e+03 5.801015e-117
-3.743076e+01 2.277188e+03 2.292361e-47
-3.707048e+01 2.273048e+03 3.650093e-49
-3.078930e+01 2.177675e+03 5.648641e-88
-3.983154e+01 2.302555e+03 2.438448e-37
-2.916514e+01 2.151345e+03 3.910646e-98
-3.103928e+01 2.180330e+03 8.035183e-87
-2.775361e+01 2.126198e+03 1.609248e-108
-3.009457e+01 2.168405e+03 2.560445e-91
-3.126388e+01 2.184576e+03 5.610611e-85
-2.530878e+01 2.065636e+03 3.957420e-134
-4.467102e+01 2.337399e+03 3.913752e-24
-1.985801e+01 1.815319e+03 3.390672e-240
-3.709498e+01 2.273490e+03 5.678872e-49
-4.395105e+01 2.332208e+03 2.178566e-26
-3.583081e+01 2.257813e+03 4.342042e-55
-4.159161e+01 2.315910e+03 2.662302e-32
-3.067925e+01 2.176762e+03 1.090723e-87
-3.105118e+01 2.180447e+03 9.032506e-87
-1.886933e+01 1.731869e+03 5.354349e-276
-3.355394e+01 2.219999e+03 1.317483e-70
-2.565657e+01 2.072633e+03 4.326838e-131
-3.510052e+01 2.247747e+03 4.560778e-59
-3.134083e+01 2.185524e+03 1.447843e-84
-4.408837e+01 2.333161e+03 5.650064e-26
-6.293022e+01 2.404057e+03 1.607780e-02
-1.815401e+01 1.658306e+03 1.810489e-307
-4.793278e+01 2.355862e+03 1.276131e-17
-3.730079e+01 2.275168e+03 3.040942e-48
-4.127362e+01 2.313460e+03 2.297396e-33
-6.628115e+01 2.409025e+03 1.129113e-01
-4.335302e+01 2.327621e+03 5.531870e-28
-3.853710e+01 2.289214e+03 1.268877e-42
-3.424028e+01 2.233887e+03 1.416534e-64
-4.583078e+01 2.344004e+03 5.034343e-22
-3.920994e+01 2.296290e+03 4.637229e-40
-4.622421e+01 2.346007e+03 3.731081e-21
-3.481666e+01 2.242229e+03 1.830636e-61
-4.814486e+01 2.357193e+03 4.829935e-17
-3.161523e+01 2.191616e+03 6.403882e-82
-4.284342e+01 2.324841e+03 3.431890e-29
-2.569185e+01 2.074200e+03 2.073529e-130
-2.991289e+01 2.165521e+03 1.431562e-92
-4.058421e+01 2.309023e+03 1.570834e-34
-3.086589e+01 2.178914e+03 1.950001e-87
-3.095970e+01 2.179759e+03 4.539559e-87
-3.993462e+01 2.303675e+03 7.473488e-37
-3.277246e+01 2.209108e+03 1.060387e-74
-4.120439e+01 2.312870e+03 1.273509e-33
-1.695154e+01 1.533737e+03 0.000000e+00
-3.269163e+01 2.207446e+03 2.012180e-75
-3.292366e+01 2.211641e+03 1.335156e-73
-2.955904e+01 2.157759e+03 6.092792e-96
-3.535628e+01 2.250266e+03 5.662741e-58
-2.423339e+01 2.030355e+03 5.562766e-149
-6.153180e+01 2.401692e+03 4.403980e-03
-2.676411e+01 2.105480e+03 1.617745e-117
-4.278636e+01 2.324426e+03 2.266215e-29
-3.927514e+01 2.296631e+03 6.521583e-40
-2.193746e+01 1.929750e+03 1.444209e-191
-4.841437e+01 2.358887e+03 2.628065e-16
-6.519082e+01 2.407397e+03 5.016033e-02
-4.110272e+01 2.312441e+03 8.292583e-34
-2.842536e+01 2.139565e+03 2.994053e-103
-4.286718e+01 2.324939e+03 3.785247e-29
-3.071978e+01 2.176773e+03 1.102787e-87
-4.062668e+01 2.309169e+03 1.817763e-34
-3.439217e+01 2.235889e+03 1.048780e-63
-4.441415e+01 2.335970e+03 9.375330e-25
-4.290393e+01 2.325115e+03 4.513672e-29
-4.602788e+01 2.345228e+03 1.712061e-21
-2.316445e+01 1.988914e+03 1.524513e-166
-5.918758e+01 2.397638e+03 5.777780e-04
-4.271158e+01 2.324162e+03 1.740393e-29
-2.979137e+01 2.162141e+03 4.874104e-94
-3.552941e+01 2.252672e+03 6.279705e-57
-3.144174e+01 2.188555e+03 2.999631e-83
-3.981214e+01 2.301871e+03 1.230428e-37
-6.459607e+01 2.406403e+03 6.795612e-02
-1.861860e+01 1.710495e+03 2.793164e-285
-4.417368e+01 2.333494e+03 7.882671e-26
-4.629926e+01 2.346643e+03 7.047676e-21
-4.405618e+01 2.332782e+03 3.867726e-26
-3.094883e+01 2.179576e+03 3.780400e-87
-4.461409e+01 2.337287e+03 3.499068e-24
-3.773219e+01 2.281838e+03 2.397466e-45
-2.713343e+01 2.115263e+03 2.868223e-113
-4.092820e+01 2.311057e+03 1.200840e-33
-4.380538e+01 2.331266e+03 8.493082e-27
-5.148050e+01 2.374260e+03 2.071880e-10
-4.106711e+01 2.312084e+03 5.802922e-34
-3.778023e+01 2.281971e+03 2.738505e-45
-3.340891e+01 2.218343e+03 2.515090e-71
-3.496633e+01 2.244130e+03 1.225168e-60
-4.600827e+01 2.345135e+03 1.560019e-21
-2.542549e+01 2.068445e+03 6.566673e-133
-4.167370e+01 2.316156e+03 3.404817e-32
-2.533357e+01 2.066485e+03 9.249711e-134
-2.849294e+01 2.140603e+03 8.453902e-103
-6.738545e+01 2.410405e+03 7.538313e-02
-2.411713e+01 2.028193e+03 6.402449e-150
-6.822712e+01 2.411502e+03 2.257851e-01
-4.243882e+01 2.321870e+03 1.031935e-29
-6.893140e+01 2.412136e+03 3.576231e-01
-4.490045e+01 2.338215e+03 8.850701e-24
-5.696355e+01 2.391679e+03 2.302230e-05
-3.818846e+01 2.285835e+03 4.324526e-44
-2.164877e+01 1.920290e+03 3.121840e-195
-5.601789e+01 2.388997e+03 3.071245e-06
-3.744826e+01 2.277670e+03 3.712043e-47
-2.418525e+01 2.029680e+03 2.832318e-149
-6.305248e+01 2.404370e+03 2.198674e-02
-4.519870e+01 2.339846e+03 4.521806e-23
-6.777871e+01 2.411154e+03 1.594266e-01
-4.378103e+01 2.331105e+03 7.230093e-27
-3.891231e+01 2.292477e+03 3.315297e-41
-3.940699e+01 2.297230e+03 1.187122e-39
-6.227757e+01 2.402878e+03 4.945309e-03
-4.627361e+01 2.346223e+03 4.630653e-21
-2.409541e+01 2.026273e+03 9.386436e-151
-3.910990e+01 2.294777e+03 1.021342e-40
-4.615439e+01 2.345719e+03 2.797421e-21
-2.326131e+01 1.993320e+03 1.249201e-164
-3.899122e+01 2.293275e+03 7.363587e-41
-4.576775e+01 2.343766e+03 3.968082e-22
-5.587646e+01 2.388662e+03 2.196979e-06
-4.007422e+01 2.304698e+03 2.078771e-36
-3.132496e+01 2.185220e+03 1.068306e-84
-4.683660e+01 2.349188e+03 8.981014e-20
-4.151575e+01 2.315313e+03 1.465492e-32
-3.351226e+01 2.219663e+03 9.415041e-71
-5.924956e+01 2.397708e+03 6.196717e-04
-6.161830e+01 2.401990e+03 5.932874e-03
-3.721332e+01 2.274516e+03 1.584339e-48
-4.385593e+01 2.331609e+03 1.196819e-26
-3.003027e+01 2.166959e+03 6.030115e-92
-4.155296e+01 2.315646e+03 2.044578e-32
-2.496289e+01 2.052388e+03 2.061110e-139
-4.649999e+01 2.347636e+03 1.902393e-20
-4.697977e+01 2.349874e+03 1.783411e-19
-4.708805e+01 2.350582e+03 3.620194e-19
-4.820574e+01 2.357331e+03 5.544647e-17
-5.706925e+01 2.391724e+03 2.408196e-05
-4.606830e+01 2.345339e+03 1.913048e-21
-3.794958e+01 2.283385e+03 3.731788e-45
-5.238778e+01 2.378311e+03 3.902232e-09
-4.199951e+01 2.319919e+03 1.466709e-30
-6.532092e+01 2.407490e+03 5.504904e-02
-3.851987e+01 2.289058e+03 1.085599e-42
-3.274478e+01 2.209021e+03 9.720321e-75
-2.083646e+01 1.870905e+03 1.113724e-216
-2.043782e+01 1.841842e+03 1.119640e-228
-4.750822e+01 2.353852e+03 9.525216e-18
-2.728268e+01 2.118113e+03 4.958521e-112
-2.833185e+01 2.137408e+03 3.463270e-104
-4.656561e+01 2.347721e+03 2.071168e-20
-1.871556e+01 1.718640e+03 9.625537e-282
-3.815233e+01 2.285338e+03 2.630838e-44
-4.849486e+01 2.359019e+03 2.998907e-16
-4.071745e+01 2.309696e+03 3.079005e-34
-4.720949e+01 2.350931e+03 5.132165e-19
-3.756024e+01 2.278759e+03 1.102960e-46
-3.093808e+01 2.179572e+03 3.765309e-87
-4.611042e+01 2.345536e+03 2.329603e-21
-4.171742e+01 2.316897e+03 7.143418e-32
-5.374934e+01 2.383066e+03 1.491755e-07
-4.116504e+01 2.312813e+03 1.202949e-33
-2.669222e+01 2.103146e+03 1.567713e-118
-3.798898e+01 2.283669e+03 4.957431e-45
-2.562250e+01 2.072322e+03 3.170334e-131
-3.244107e+01 2.202833e+03 1.996486e-77
-4.837643e+01 2.358887e+03 2.628065e-16
-2.757088e+01 2.123079e+03 7.113094e-110
-2.294397e+01 1.976745e+03 3.709362e-171
-4.350017e+01 2.328316e+03 1.108426e-27
-2.797738e+01 2.130970e+03 1.901412e-106
-3.966916e+01 2.300139e+03 2.176998e-38
-3.388768e+01 2.227873e+03 3.462421e-67
-2.864357e+01 2.141956e+03 3.270827e-102
-3.142420e+01 2.188325e+03 2.383308e-83
-1.328218e+01 8.995084e+02 0.000000e+00
-7.066925e+01 2.414610e+03 3.832258e-01
-3.345925e+01 2.219116e+03 5.448326e-71
-4.598903e+01 2.344838e+03 1.159163e-21
-3.715899e+01 2.274201e+03 1.156233e-48
-5.678072e+01 2.391452e+03 1.834695e-05
-4.565250e+01 2.342432e+03 1.045278e-22
-7.163222e+01 2.415313e+03 2.936173e-01
-3.842229e+01 2.288116e+03 4.232181e-43
-3.227443e+01 2.200562e+03 2.060552e-78
-5.180292e+01 2.374930e+03 4.048944e-10
-2.761977e+01 2.124332e+03 2.490173e-109
-4.331467e+01 2.327216e+03 3.689629e-28
-5.670049e+01 2.391320e+03 1.607818e-05
-4.434840e+01 2.334768e+03 2.818153e-25
-4.410486e+01 2.333194e+03 5.839626e-26
-3.119243e+01 2.182606e+03 7.824382e-86
-4.581465e+01 2.343931e+03 4.679929e-22
-2.102959e+01 1.882312e+03 1.001786e-211
-4.862921e+01 2.359633e+03 5.541404e-16
-3.242112e+01 2.202459e+03 1.373536e-77
-2.673266e+01 2.104004e+03 3.697356e-118
-4.029705e+01 2.306166e+03 9.022998e-36
-7.084896e+01 2.414926e+03 5.256441e-01
-4.781995e+01 2.355314e+03 7.377377e-18
-3.079856e+01 2.178019e+03 7.967852e-88
-4.586384e+01 2.344120e+03 5.653546e-22
-1.805461e+01 1.651525e+03 2.055157e-310
-3.372362e+01 2.224621e+03 1.339844e-68
-5.482382e+01 2.386013e+03 7.491607e-07
-3.738002e+01 2.275723e+03 5.297142e-48
-3.695625e+01 2.271537e+03 8.055360e-50
-3.182526e+01 2.195142e+03 2.176535e-80
-4.960506e+01 2.364067e+03 4.669620e-14
-5.462339e+01 2.385767e+03 5.857854e-07
-4.679309e+01 2.348854e+03 6.430889e-20
-2.207317e+01 1.936148e+03 8.674533e-189
-3.299118e+01 2.211953e+03 1.824030e-73
-3.939426e+01 2.297191e+03 1.141716e-39
-4.415603e+01 2.333475e+03 7.734314e-26
-4.036148e+01 2.307060e+03 2.206024e-35
-2.809108e+01 2.132116e+03 5.981055e-106
-4.146240e+01 2.315177e+03 1.279144e-32
-3.780514e+01 2.282167e+03 3.331465e-45
-2.322388e+01 1.991156e+03 1.434892e-165
-3.750268e+01 2.278391e+03 7.633774e-47
-2.784346e+01 2.127528e+03 6.084637e-108
-4.282020e+01 2.324539e+03 2.537327e-29
-5.649557e+01 2.390948e+03 2.160842e-05
-9.318352e+00 -5.339894e+02 0.000000e+00
-2.862345e+01 2.141955e+03 3.267558e-102
-2.975920e+01 2.161336e+03 2.179153e-94
-3.866683e+01 2.290583e+03 4.988485e-42
-6.805434e+01 2.411419e+03 2.078015e-01
-3.159440e+01 2.191303e+03 4.682838e-82
-2.996986e+01 2.166025e+03 2.369706e-92
-3.149629e+01 2.189273e+03 6.150230e-83
-4.186137e+01 2.318128e+03 2.446372e-31
-5.575258e+01 2.388401e+03 1.692291e-06
-3.725610e+01 2.274612e+03 1.743976e-48
-3.977443e+01 2.300841e+03 4.392712e-38
-2.370127e+01 2.013347e+03 6.226559e-156
-5.162877e+01 2.374311e+03 2.180286e-10
-2.563939e+01 2.072382e+03 3.366377e-131
-3.116522e+01 2.182567e+03 7.525105e-86
-2.120370e+01 1.895371e+03 4.701391e-206
-6.790706e+01 2.411259e+03 1.770768e-01
-2.961226e+01 2.158503e+03 1.282128e-95
-1.934730e+01 1.780299e+03 5.775485e-255
-1.946935e+01 1.785770e+03 1.372820e-252
-3.202588e+01 2.196806e+03 1.149295e-79
-4.230963e+01 2.321129e+03 4.918586e-30
-6.350716e+01 2.405284e+03 2.219489e-02
-4.314229e+01 2.326453e+03 1.720347e-28
-2.962602e+01 2.159600e+03 3.840188e-95
-5.549695e+01 2.387827e+03 9.532130e-07
-2.743709e+01 2.120313e+03 4.475072e-111
-5.095636e+01 2.372115e+03 2.425509e-11
-4.283174e+01 2.324630e+03 2.779055e-29
-2.403296e+01 2.023731e+03 7.387954e-152
-4.295512e+01 2.325365e+03 5.795670e-29
-4.287928e+01 2.325075e+03 4.336688e-29
-2.726495e+01 2.118095e+03 4.870066e-112
-4.989859e+01 2.364675e+03 8.576944e-14
-4.265166e+01 2.323927e+03 1.375904e-29
-3.734757e+01 2.275692e+03 5.135450e-48
-2.209150e+01 1.937823e+03 4.631155e-188
-3.917886e+01 2.296011e+03 3.508249e-40
-5.581260e+01 2.388407e+03 1.702475e-06
-3.909105e+01 2.294695e+03 9.409334e-41
-3.359744e+01 2.221014e+03 3.635415e-70
-4.439175e+01 2.335364e+03 5.114511e-25
-4.413868e+01 2.333465e+03 7.657356e-26
-4.309588e+01 2.326101e+03 1.209886e-28
-2.158490e+01 1.919747e+03 1.813797e-195
-2.716472e+01 2.115452e+03 3.464931e-113
-5.104147e+01 2.372149e+03 2.509394e-11
-3.809486e+01 2.285074e+03 2.020414e-44
-4.388220e+01 2.331825e+03 1.485374e-26
-2.913148e+01 2.151343e+03 3.902833e-98
-1.790817e+01 1.641277e+03 7.281070e-315
-5.594468e+01 2.388848e+03 2.646090e-06
-3.356823e+01 2.220456e+03 2.080740e-70
-3.205814e+01 2.197031e+03 1.439289e-79
-3.833338e+01 2.287637e+03 2.621423e-43
-4.443706e+01 2.335975e+03 9.422324e-25
-4.896832e+01 2.361164e+03 2.561679e-15
-3.135696e+01 2.186613e+03 4.301976e-84
-6.645598e+01 2.409075e+03 1.187004e-01
-6.693741e+01 2.409526e+03 1.863456e-01
-3.919947e+01 2.296196e+03 4.221190e-40
-3.082686e+01 2.178339e+03 1.097275e-87
-3.289153e+01 2.211474e+03 1.129809e-73
-4.867833e+01 2.359672e+03 5.761788e-16
-3.908175e+01 2.294637e+03 8.879117e-41
-5.055791e+01 2.370213e+03 3.620552e-12
-4.823762e+01 2.357654e+03 7.658629e-17
-2.091245e+01 1.874132e+03 2.807022e-215
-4.928185e+01 2.362617e+03 1.095354e-14
-6.419544e+01 2.406034e+03 4.698659e-02
-3.343376e+01 2.218433e+03 2.751946e-71
-2.538506e+01 2.067863e+03 3.669323e-133
-4.183589e+01 2.317996e+03 2.143856e-31
-5.718746e+01 2.391777e+03 2.539274e-05
-3.872803e+01 2.291362e+03 1.087137e-41
-4.476298e+01 2.337684e+03 5.204359e-24
-2.801386e+01 2.131715e+03 4.005214e-106
-3.212594e+01 2.197736e+03 2.912900e-79
-3.985132e+01 2.303023e+03 3.893707e-37
-2.672239e+01 2.103920e+03 3.399465e-118
-6.666800e+01 2.409096e+03 1.212195e-01
-3.648947e+01 2.266119e+03 1.757697e-51
-2.244258e+01 1.951581e+03 4.372329e-182
-4.131758e+01 2.313815e+03 3.276502e-33
-2.700359e+01 2.111196e+03 4.912892e-115
-2.752426e+01 2.121722e+03 1.831137e-110
-4.853767e+01 2.359154e+03 3.432359e-16
-3.236356e+01 2.201976e+03 8.473756e-78
-6.181762e+01 2.402347e+03 8.478289e-03
-6.045750e+01 2.400191e+03 3.586099e-03
-3.830542e+01 2.287460e+03 2.196175e-43
-3.935701e+01 2.297092e+03 1.034101e-39
-2.616507e+01 2.089135e+03 6.351820e-124
-2.866410e+01 2.142509e+03 5.686204e-102
-2.516113e+01 2.061452e+03 6.030094e-136
-4.575260e+01 2.343652e+03 3.540553e-22
-5.846907e+01 2.395987e+03 4.293976e-04
-3.578041e+01 2.257417e+03 2.922223e-55
-5.732153e+01 2.392899e+03 7.798084e-05
-5.946253e+01 2.398056e+03 8.775990e-04
-3.667154e+01 2.268306e+03 1.565835e-50
-4.130271e+01 2.313674e+03 2.845607e-33
-3.597913e+01 2.258693e+03 1.046823e-54
-3.080791e+01 2.178093e+03 8.579837e-88
-1.818947e+01 1.667999e+03 2.933677e-303
-3.599932e+01 2.258979e+03 1.393418e-54
-3.764252e+01 2.279505e+03 2.325645e-46
-3.593994e+01 2.258332e+03 7.296135e-55
-3.796909e+01 2.283579e+03 4.530751e-45
-5.718369e+00 -5.176993e+03 0.000000e+00
-2.419707e+01 2.029690e+03 2.860783e-149
-3.606245e+01 2.259776e+03 3.091819e-54
-4.371135e+01 2.330628e+03 4.487303e-27
-2.374154e+01 2.013421e+03 6.704801e-156
-5.073742e+01 2.371152e+03 9.259281e-12
-2.189097e+01 1.927984e+03 2.469824e-192
-3.633549e+01 2.264984e+03 5.649627e-52
-6.747024e+01 2.410518e+03 8.440136e-02
-3.805116e+01 2.284377e+03 1.006322e-44
-4.786356e+01 2.355363e+03 7.747871e-18
-2.794218e+01 2.130580e+03 1.287364e-106
-3.302673e+01 2.212858e+03 4.508878e-73
-4.374558e+01 2.330871e+03 5.721620e-27
-3.944619e+01 2.297753e+03 2.002771e-39
-4.117799e+01 2.312815e+03 1.205358e-33
-4.563899e+01 2.342389e+03 1.001284e-22
-2.692554e+01 2.108555e+03 3.502398e-116
-4.362034e+01 2.329820e+03 4.987530e-27
-3.995657e+01 2.304024e+03 1.059478e-36
-4.161151e+01 2.315971e+03 2.829758e-32
-2.212921e+01 1.939017e+03 1.528400e-187
-5.858953e+01 2.396221e+03 5.426059e-04
-4.267124e+01 2.323996e+03 1.474193e-29
-5.638004e+01 2.390311e+03 1.142819e-05
-2.705922e+01 2.113473e+03 4.788790e-114
-4.798173e+01 2.355979e+03 1.434524e-17
-3.698917e+01 2.272003e+03 1.283708e-49
-7.369605e+01 2.417121e+03 3.249021e-01
-3.446004e+01 2.235964e+03 1.130463e-63
-5.973348e+01 2.398795e+03 1.837552e-03
-2.445314e+01 2.038063e+03 1.238319e-145
-2.092837e+01 1.876715e+03 3.715596e-214
-2.980785e+01 2.162166e+03 4.997492e-94
-3.484804e+01 2.242544e+03 2.508446e-61
-3.713289e+01 2.274099e+03 1.044113e-48
-4.274295e+01 2.324253e+03 1.906199e-29
-4.407215e+01 2.333140e+03 5.532649e-26
-3.684562e+01 2.270647e+03 1.627157e-49
-3.567184e+01 2.254405e+03 1.437535e-56
-4.470074e+01 2.337460e+03 4.159923e-24
-2.817476e+01 2.134571e+03 6.965796e-105
-5.976204e+00 -4.426671e+03 0.000000e+00
-3.362752e+01 2.221295e+03 4.814939e-70
-6.359372e+01 2.405334e+03 2.333285e-02
-1.899573e+01 1.742703e+03 2.715520e-271
-6.998371e+00 -2.664643e+03 0.000000e+00
-4.270134e+01 2.324085e+03 1.611412e-29
-4.266140e+01 2.323929e+03 1.378659e-29
-4.845381e+01 2.359015e+03 2.986935e-16
-4.830462e+01 2.358322e+03 1.493688e-16
-3.731614e+01 2.275201e+03 3.142968e-48
-6.368850e+01 2.405467e+03 2.665195e-02
-4.305154e+01 2.325808e+03 9.026015e-29
-3.659469e+01 2.266842e+03 3.621921e-51
-4.453436e+01 2.336546e+03 1.667785e-24
-3.527980e+01 2.250060e+03 4.608526e-58
-6.130977e+01 2.401383e+03 3.233317e-03
-5.609688e+01 2.389418e+03 4.678994e-06
-4.771857e+01 2.354713e+03 4.044743e-18
-4.327773e+01 2.327139e+03 3.416190e-28
-7.202806e+01 2.415839e+03 4.968445e-01
-5.438246e+01 2.384541e+03 1.719070e-07
-3.947320e+01 2.297880e+03 2.273981e-39
-6.240522e+01 2.403501e+03 9.220594e-03
-4.383033e+01 2.331331e+03 9.063469e-27
-9.992366e+00 -1.815166e+02 0.000000e+00
-3.934490e+01 2.296986e+03 9.300955e-40
-3.137335e+01 2.187247e+03 8.109811e-84
-3.339671e+01 2.218196e+03 2.171262e-71
-5.564237e+01 2.388159e+03 1.328543e-06
-4.372263e+01 2.330712e+03 4.880521e-27
-1.109092e+01 3.237296e+02 0.000000e+00
-4.215983e+01 2.320521e+03 2.677869e-30
-5.627649e+01 2.390216e+03 1.039249e-05
-3.839177e+01 2.287771e+03 2.997317e-43
-2.097770e+01 1.879688e+03 7.264170e-213
-2.345728e+01 2.005638e+03 2.794293e-159
-3.979311e+01 2.301306e+03 6.993260e-38
-4.367825e+01 2.330397e+03 3.561750e-27
-5.123708e+01 2.372723e+03 4.455063e-11
-3.463367e+01 2.238570e+03 4.715399e-63
-3.347224e+01 2.219319e+03 6.674595e-71
-1.633285e+01 1.459259e+03 0.000000e+00
-3.465974e+01 2.239539e+03 1.242653e-62
-1.420317e+01 1.120649e+03 0.000000e+00
-6.547052e+01 2.408050e+03 9.637284e-02
-4.376907e+01 2.331059e+03 6.905042e-27
-4.112719e+01 2.312570e+03 9.434390e-34
-3.470015e+01 2.239723e+03 1.493688e-62
-2.686485e+01 2.107588e+03 1.331689e-116
-6.766498e+01 2.411063e+03 1.455593e-01
-4.422860e+01 2.333932e+03 1.221503e-25
-4.424759e+01 2.334040e+03 1.360812e-25
-3.800928e+01 2.283704e+03 5.134013e-45
-3.758018e+01 2.278769e+03 1.114045e-46
-2.380517e+01 2.016240e+03 1.123730e-154
-3.675480e+01 2.269746e+03 6.608914e-50
-5.080521e+01 2.371658e+03 1.535784e-11
-3.950096e+01 2.297979e+03 2.510626e-39
-4.253526e+01 2.322409e+03 1.769038e-29
-2.754730e+01 2.122737e+03 5.052773e-110
-5.201392e+01 2.376215e+03 1.463559e-09
-3.714586e+01 2.274122e+03 1.068406e-48
-3.948698e+01 2.297909e+03 2.340892e-39
-4.347777e+01 2.328188e+03 9.752522e-28
-4.115226e+01 2.312776e+03 1.159254e-33
-7.181068e+01 2.415681e+03 4.242306e-01
-4.471705e+00 -8.507148e+03 0.000000e+00
-3.421249e+01 2.232135e+03 2.456648e-65
-2.998959e+01 2.166057e+03 2.446763e-92
-4.890321e+01 2.360577e+03 1.424275e-15
-3.352596e+01 2.219760e+03 1.037406e-70
-1.326071e+01 8.899294e+02 0.000000e+00
-6.379322e+01 2.405687e+03 3.321037e-02
-2.231909e+01 1.947860e+03 1.058530e-183
-3.092744e+01 2.179321e+03 2.929494e-87
-1.347297e+01 9.486926e+02 0.000000e+00
-7.451143e+01 2.418173e+03 6.451137e-01
-4.124535e+01 2.313413e+03 2.191917e-33
-4.015208e+01 2.304866e+03 2.459054e-36
-3.746607e+01 2.277738e+03 3.973242e-47
-4.306610e+01 2.325894e+03 9.836609e-29
-5.554311e+01 2.387985e+03 1.116371e-06
-5.507476e+01 2.387153e+03 2.342452e-06
-4.703245e+01 2.350171e+03 2.400141e-19
-5.339085e+01 2.381377e+03 2.755334e-08
-3.083648e+01 2.178456e+03 1.233468e-87
-4.292919e+01 2.325254e+03 5.186769e-29
-3.801959e+01 2.283976e+03 6.738839e-45
-3.671230e+01 2.269451e+03 4.920545e-50
-6.282130e+01 2.403985e+03 1.496089e-02
-5.765974e+01 2.393886e+03 2.092361e-04
-8.439814e+00 -9.717550e+02 0.000000e+00
-3.836215e+01 2.287644e+03 2.639838e-43
-4.174002e+01 2.317061e+03 8.416477e-32
-nan 2.416321e+03 7.229821e-01
-4.579877e+01 2.343803e+03 4.117651e-22
-1.415906e+01 1.104887e+03 0.000000e+00
-5.349668e+01 2.382395e+03 7.625810e-08
-3.435989e+01 2.235683e+03 8.535320e-64
-2.847561e+01 2.140346e+03 6.537979e-103
-4.858239e+01 2.359456e+03 4.642476e-16
-4.032875e+01 2.306874e+03 1.831603e-35
-3.718651e+00 -1.027194e+04 0.000000e+00
-2.534619e+01 2.066732e+03 1.184129e-133
-3.814057e+01 2.285219e+03 2.335679e-44
-6.497249e+01 2.406825e+03 2.831026e-02
-3.864723e+01 2.290526e+03 4.712094e-42
-4.597016e+01 2.344738e+03 1.048854e-21
-4.113965e+01 2.312611e+03 9.829239e-34
-3.914873e+01 2.295393e+03 1.891021e-40
-1.166702e+00 -2.246031e+04 0.000000e+00
-2.331349e+01 1.995986e+03 1.796642e-163
-5.061424e+01 2.370416e+03 4.435438e-12
-4.276442e+01 2.324362e+03 2.125721e-29
-4.643841e+01 2.347060e+03 1.069416e-20
-3.862801e+01 2.290418e+03 4.229705e-42
-3.179962e+01 2.194604e+03 1.270911e-80
-3.370695e+01 2.224475e+03 1.157837e-68
-1.175342e+01 5.222473e+02 0.000000e+00
-2.225171e+01 1.945719e+03 1.244167e-184
-7.051697e+01 2.414040e+03 2.167239e-01
-6.319179e+01 2.404502e+03 2.508925e-02
-2.344194e+01 2.003108e+03 2.225906e-160
-4.329603e+01 2.327147e+03 3.443629e-28
-3.791151e+01 2.282814e+03 6.362442e-45
-4.087120e+01 2.310785e+03 9.148652e-34
-4.617713e+01 2.345810e+03 3.063928e-21
-4.366745e+01 2.330352e+03 3.405024e-27
-2.407416e+01 2.025468e+03 4.196562e-151
-2.870647e+01 2.142909e+03 8.482820e-102
-4.212564e+01 2.320521e+03 2.677869e-30
-2.730072e+01 2.118486e+03 7.200191e-112
-1.860029e+01 1.710437e+03 2.635769e-285
-3.855463e+01 2.289318e+03 1.407947e-42
-6.586022e+01 2.408323e+03 1.266243e-01
-3.930941e+01 2.296787e+03 7.622597e-40
-5.264117e+01 2.378508e+03 4.751920e-09
-4.790917e+01 2.355862e+03 1.276131e-17
-1.602329e+01 1.421450e+03 0.000000e+00
-3.807277e+01 2.284552e+03 1.198778e-44
-4.352307e+01 2.328492e+03 1.321729e-27
-2.378351e+01 2.015104e+03 3.608307e-155
-7.419949e+01 2.417790e+03 4.398468e-01
-1.498250e+01 1.238495e+03 0.000000e+00
-7.881838e+00 -1.566205e+03 0.000000e+00
-4.298173e+01 2.325543e+03 6.924813e-29
-8.535900e+00 -9.138086e+02 0.000000e+00
-2.186113e+01 1.927543e+03 1.589067e-192
-3.922051e+01 2.296339e+03 4.870113e-40
-4.373404e+01 2.330722e+03 4.929571e-27
-1.740506e+01 1.590668e+03 0.000000e+00
-1.877859e+01 1.722156e+03 3.238951e-280
-4.165254e+01 2.316057e+03 3.083889e-32
-3.453285e+01 2.236401e+03 1.750021e-63
-6.035911e+01 2.399890e+03 2.653992e-03
-3.975610e+01 2.300825e+03 4.322988e-38
-2.198622e+01 1.931708e+03 1.023243e-190
-2.628754e+01 2.090822e+03 3.432045e-123
-1.750913e+01 1.600174e+03 0.000000e+00
-1.764605e+01 1.622193e+03 3.952525e-323
-1.030921e+01 -1.701905e+01 0.000000e+00
-3.642500e+01 2.265561e+03 1.006022e-51
-4.157210e+01 2.315707e+03 2.173180e-32
-2.486550e+01 2.049738e+03 1.456199e-140
-2.024988e+01 1.835532e+03 2.035542e-231
-1.582291e+01 1.402796e+03 0.000000e+00
-4.311112e+01 2.326105e+03 1.214735e-28
-2.522658e+01 2.062925e+03 2.630509e-135
-4.572296e+01 2.343228e+03 2.317023e-22
-3.007267e+01 2.168242e+03 2.175331e-91
-6.082881e+01 2.400465e+03 4.716490e-03
-7.515753e+01 2.418539e+03 2.791650e-01
-5.809480e+01 2.394960e+03 1.537585e-04
-2.578590e+01 2.077342e+03 4.800245e-129
-4.134800e+01 2.313876e+03 3.482591e-33
-6.564651e+01 2.408212e+03 1.133210e-01
-4.054347e+01 2.309013e+03 1.555204e-34
-7.106819e+01 2.414984e+03 5.570330e-01
-7.148084e+01 2.415300e+03 2.898249e-01
-6.255157e+01 2.403676e+03 1.098400e-02
-4.039533e+01 2.307622e+03 3.869757e-35
-7.331273e+01 2.416790e+03 2.333464e-01
-4.566620e+01 2.342526e+03 1.148300e-22
-2.625548e+01 2.090818e+03 3.418344e-123
-5.569596e+01 2.388194e+03 1.375866e-06
-7.673893e+01 2.420423e+03 1.454331e-01
-5.794975e+01 2.394904e+03 1.453847e-04
-5.453647e+01 2.385046e+03 2.848474e-07
-3.973810e+01 2.300573e+03 3.360020e-38
-4.392294e+01 2.331894e+03 1.591484e-26
-2.658941e+01 2.098003e+03 4.510469e-120
-7.998709e+00 -1.516826e+03 0.000000e+00
-4.312658e+01 2.326416e+03 1.657857e-28
-5.390451e+01 2.383665e+03 2.715438e-07
-3.951513e+01 2.298320e+03 3.530826e-39
-3.945960e+01 2.297761e+03 2.018858e-39
-nan 2.412988e+03 5.830442e-01
-1.979085e+01 1.810231e+03 2.092163e-242
-4.389559e+01 2.331830e+03 1.492820e-26
-2.255368e+01 1.955182e+03 1.601796e-180
-2.974350e+01 2.161232e+03 1.963908e-94
-2.872834e+01 2.142922e+03 8.593817e-102
-3.494855e+01 2.243802e+03 8.825659e-61
-3.859065e+01 2.290008e+03 2.807045e-42
-3.220843e+01 2.199820e+03 9.811537e-79
-2.721358e+01 2.116837e+03 1.384179e-112
-7.539277e+01 2.419119e+03 4.985995e-01
-4.365678e+01 2.330325e+03 3.314318e-27
-6.068915e+01 2.400260e+03 3.842276e-03
-4.569418e+01 2.342964e+03 1.779412e-22
-7.595460e+01 2.419568e+03 2.424498e-01
-1.662497e+01 1.498435e+03 0.000000e+00
-7.629530e+01 2.419611e+03 2.531025e-01
-4.446051e+01 2.335992e+03 9.583872e-25
-3.857248e+01 2.289945e+03 2.635657e-42
-7.757092e+01 2.421508e+03 4.304006e-01
-2.605597e+01 2.086504e+03 4.573718e-125
-7.802471e+01 2.421830e+03 5.745482e-01
-7.701609e+01 2.420720e+03 1.957261e-01
-5.618266e+01 2.389444e+03 4.802243e-06
-9.481900e+00 -4.807380e+02 0.000000e+00
-3.768635e+01 2.281051e+03 1.091346e-45
-5.298138e+01 2.378765e+03 6.144447e-09
-3.926398e+01 2.296555e+03 6.044308e-40
-5.836158e+01 2.395632e+03 3.010822e-04
-6.404268e+01 2.405945e+03 4.298547e-02
-1.472399e+01 1.196548e+03 0.000000e+00
-5.559151e+01 2.388018e+03 1.153826e-06
-3.187859e+01 2.195894e+03 4.616949e-80
-7.835652e+01 2.421885e+03 6.070335e-01
-6.010631e+01 2.399403e+03 3.375132e-03
-4.141176e+01 2.314637e+03 7.454191e-33
-1.480296e+01 1.204687e+03 0.000000e+00
-3.329315e+01 2.217285e+03 8.731119e-72
-3.752150e+01 2.278581e+03 9.231139e-47
-2.136376e+01 1.901990e+03 3.522261e-203
-1.286555e+01 8.207059e+02 0.000000e+00
-2.572841e+01 2.076113e+03 1.404480e-129
-5.954495e+01 2.398544e+03 1.429657e-03
-2.504271e+01 2.057026e+03 2.129899e-137
-5.984301e+01 2.398888e+03 2.016643e-03
-6.437583e+01 2.406229e+03 5.710332e-02
-3.408404e+01 2.230631e+03 5.459641e-66
-4.624860e+01 2.346083e+03 4.025696e-21
-7.691492e+01 2.420716e+03 1.949448e-01
-4.811575e+01 2.356963e+03 3.837546e-17
-2.149615e+01 1.907906e+03 1.306495e-200
-2.858439e+01 2.141435e+03 1.942630e-102
-4.279751e+01 2.324480e+03 2.391955e-29
-6.137845e+01 2.401506e+03 3.656508e-03
-3.514242e+01 2.247949e+03 5.581699e-59
-1.158109e+01 4.723475e+02 0.000000e+00
-4.296833e+01 2.325502e+03 6.646637e-29
-4.291648e+01 2.325152e+03 4.683806e-29
-5.996601e+01 2.399181e+03 2.703195e-03
-3.797899e+01 2.283630e+03 4.767813e-45
-7.611051e+01 2.419586e+03 2.468534e-01
-4.397998e+01 2.332348e+03 2.505947e-26
-2.985899e+01 2.163134e+03 1.315677e-93
-6.124551e+01 2.401302e+03 2.981745e-03
-2.931240e+01 2.153017e+03 2.081560e-97
-6.272308e+01 2.403843e+03 1.298039e-02
-2.360715e+01 2.009150e+03 9.365137e-158
-2.515062e+01 2.060983e+03 3.772593e-136
-nan 2.423003e+03 1.000000e+00
-4.903798e+01 2.361830e+03 4.986144e-15
-2.350479e+01 2.006073e+03 4.317079e-159
-1.364452e+01 9.947919e+02 0.000000e+00
-2.493764e+01 2.051966e+03 1.351540e-139
-5.872650e+01 2.396303e+03 5.889747e-04
-3.571694e+01 2.255566e+03 4.590229e-56
-3.559449e+01 2.253603e+03 1.593189e-56
-3.564287e+01 2.253976e+03 9.360652e-57
-4.595164e+01 2.344588e+03 9.027568e-22
-3.962041e+01 2.299762e+03 1.493238e-38
-4.436984e+01 2.334876e+03 3.139557e-25
-4.341345e+01 2.327876e+03 7.138666e-28
-5.545282e+01 2.387643e+03 7.930120e-07
-3.724164e+01 2.274588e+03 1.702619e-48
-5.040577e+01 2.369578e+03 1.918659e-12
-6.507571e+01 2.406972e+03 3.279331e-02
-6.145219e+01 2.401621e+03 4.102140e-03
-7.658932e+01 2.420161e+03 1.119124e-01
-2.759502e+01 2.123728e+03 1.361180e-109
-2.195345e+01 1.930395e+03 2.752643e-191
-2.557347e+01 2.071690e+03 1.685120e-131
-5.645343e+00 -5.529517e+03 0.000000e+00
-5.045396e+01 2.369756e+03 2.292462e-12
-3.748421e+01 2.278059e+03 5.477136e-47
-4.294207e+01 2.325309e+03 5.480032e-29
-3.783069e+01 2.282301e+03 3.809173e-45
-4.671138e+01 2.348135e+03 3.133382e-20
-2.469526e+01 2.043834e+03 3.973252e-143
-2.664386e+01 2.101922e+03 4.609886e-119
-8.029606e+01 2.423272e+03 2.402121e-01
-7.348613e+01 2.417000e+03 2.878743e-01
-7.712865e+01 2.420824e+03 2.171778e-01
-5.931564e+01 2.397926e+03 7.706157e-04
-7.725551e+01 2.421187e+03 3.122226e-01
-3.429830e+01 2.234603e+03 2.898556e-64
-7.682306e+01 2.420678e+03 1.876759e-01
-8.061156e+01 2.423464e+03 2.910579e-01
-3.850293e+01 2.289046e+03 1.072650e-42
-3.229163e+01 2.200729e+03 2.435066e-78
-3.468650e+01 2.239687e+03 1.440872e-62
-7.740083e+01 2.421365e+03 3.730514e-01
-5.801965e+01 2.394954e+03 1.528387e-04
-3.477136e+01 2.240578e+03 3.512220e-62
-2.454982e+01 2.039826e+03 7.219279e-145
-5.888527e+01 2.396815e+03 9.827780e-04
-6.342749e+01 2.404881e+03 1.483312e-02
-1.760498e+01 1.612031e+03 0.000000e+00
-3.410845e+01 2.231001e+03 7.904111e-66
-3.929786e+01 2.296782e+03 7.584579e-40
-3.518615e+01 2.249300e+03 2.155253e-58
-2.309751e+01 1.986676e+03 1.626222e-167
-7.581975e+01 2.419567e+03 2.422075e-01
-7.666133e+01 2.420392e+03 1.409939e-01
-3.483222e+01 2.242353e+03 2.072309e-61
-2.957208e+01 2.157858e+03 6.726846e-96
-4.742477e+01 2.352809e+03 3.356647e-18
-3.098180e+01 2.179825e+03 4.849278e-87
-3.097069e+01 2.179778e+03 4.626635e-87
-4.486427e+01 2.338203e+03 8.745127e-24
-3.442553e+01 2.235890e+03 1.049829e-63
-5.912922e+01 2.397442e+03 4.749406e-04
-3.905436e+01 2.294441e+03 7.298743e-41
-3.615334e+01 2.261639e+03 1.992071e-53
-4.368916e+01 2.330454e+03 3.770667e-27
-5.513572e+00 -6.131126e+03 0.000000e+00
-6.756288e+01 2.410628e+03 9.421539e-02
-3.904540e+01 2.294296e+03 6.313576e-41
-4.191436e+01 2.318759e+03 4.597930e-31
-1.880052e+01 1.722218e+03 3.446122e-280
-5.067393e+01 2.371111e+03 8.887328e-12
-5.938639e+01 2.398041e+03 8.645332e-04
-1.332658e+01 9.151514e+02 0.000000e+00
-5.113450e+01 2.372198e+03 2.635417e-11
-6.865341e+01 2.411773e+03 2.487578e-01
-6.206682e+01 2.402732e+03 1.245982e-02
-6.193448e+01 2.402403e+03 8.966619e-03
-3.845377e+01 2.288406e+03 5.656003e-43
-4.775790e+01 2.354793e+03 4.381618e-18
-6.247572e+01 2.403641e+03 1.060621e-02
-3.705845e+01 2.272887e+03 3.107295e-49
-9.574937e+00 -4.040579e+02 0.000000e+00
-3.622738e+01 2.263757e+03 1.656305e-52
-4.277533e+01 2.324410e+03 2.230244e-29
-3.991313e+01 2.303361e+03 5.459525e-37
-1.990544e+01 1.816127e+03 7.606690e-240
-6.391019e+01 2.405748e+03 3.529927e-02
-3.902770e+01 2.294252e+03 6.041801e-41
