-nan -4.397861e+03 0.000000e+00
-4.698127e-01 -4.390834e+03 0.000000e+00
-7.609289e-01 -2.584694e+03 0.000000e+00
-3.765451e-01 -5.103459e+03 0.000000e+00
-1.000688e+00 -1.289486e+03 0.000000e+00
-1.407229e+00 -2.249173e+02 0.000000e+00
-6.509257e-01 -3.213971e+03 0.000000e+00
-1.313698e+00 -3.846799e+02 0.000000e+00
-3.487135e+00 4.472414e+02 7.874767e-90
-3.582103e+00 4.567532e+02 1.064535e-85
-3.856894e+00 4.682290e+02 1.355086e-81
-3.725378e+00 4.599856e+02 5.633580e-85
-3.813156e+00 4.642882e+02 4.162746e-83
-3.979975e+00 4.780714e+02 1.120422e-77
-4.079086e+00 4.838664e+02 3.381649e-75
-3.919441e+00 4.749071e+02 1.077032e-78
-3.910263e+00 4.748172e+02 9.844320e-79
-3.874369e+00 4.698612e+02 6.931421e-81
-4.010573e+00 4.804545e+02 1.214364e-76
-4.087855e+00 4.845318e+02 6.578215e-75
-4.111086e+00 4.845995e+02 9.631727e-75
-nan 4.845724e+02 9.748603e-75
-4.149614e+00 4.856398e+02 1.312973e-74
-nan 4.854698e+02 1.463310e-74
-4.143609e+00 4.855926e+02 1.190560e-74
-4.140696e+00 4.855213e+02 1.108629e-74
-4.083461e+00 4.840106e+02 3.906194e-75
-4.023979e+00 4.807209e+02 1.585057e-76
-4.046729e+00 4.825477e+02 9.849497e-76
-3.892155e+00 4.716027e+02 3.954997e-80
-3.246707e+00 4.314087e+02 1.047571e-96
-2.628911e+00 3.054229e+02 2.019509e-151
-2.609890e+00 2.899010e+02 3.665812e-158
-1.639425e+00 -3.566905e+01 1.482156e-299
-1.690690e+00 -1.805442e+01 6.619583e-292
-1.653806e+00 -2.890162e+01 1.288106e-296
-1.625248e+00 -4.993612e+01 9.435920e-306
-1.661075e+00 -2.735567e+01 6.044343e-296
-1.728987e+00 -9.926627e-01 1.700817e-284
-1.898776e+00 5.997529e+01 5.113322e-258
-1.917455e+00 7.878343e+01 7.533114e-250
-2.842140e+00 3.876703e+02 1.058858e-115
-2.161856e+00 1.865451e+02 4.756343e-203
-2.519862e+00 2.407692e+02 1.684615e-179
-4.015022e+00 4.805269e+02 1.305545e-76
-3.988622e+00 4.781535e+02 1.216290e-77
-3.984289e+00 4.781071e+02 1.161144e-77
-4.001735e+00 4.800545e+02 8.140125e-77
-3.928705e+00 4.770532e+02 9.210181e-78
-3.883222e+00 4.712087e+02 2.667068e-80
-2.346406e+00 2.159965e+02 2.936660e-190
-2.437273e+00 2.357408e+02 1.103302e-181
-2.114831e+00 1.473239e+02 4.402734e-220
-2.537231e+00 2.587143e+02 1.047028e-171
-2.138067e+00 1.711052e+02 9.371515e-210
-2.390808e+00 2.214330e+02 6.743659e-188
-2.708833e+00 3.474301e+02 3.537862e-133
-2.648301e+00 3.117729e+02 1.156154e-148
-3.211709e+00 4.279218e+02 3.205103e-98
-3.145185e+00 4.267605e+02 1.003450e-98
-2.668074e+00 3.411610e+02 6.700471e-136
-1.618234e+00 -5.043866e+01 5.708656e-306
-1.326772e+00 -3.846656e+02 0.000000e+00
-6.167921e-01 -3.381833e+03 0.000000e+00
-1.965739e+00 8.807742e+01 8.190362e-246
-1.880440e+00 5.439473e+01 1.927954e-260
-1.537694e+00 -1.258553e+02 0.000000e+00
-4.051342e+00 4.825949e+02 1.032554e-75
-4.281431e+00 4.914598e+02 4.424351e-72
-7.114941e+00 5.816400e+02 1.904741e-33
-4.737357e+00 5.139956e+02 2.657240e-62
-4.799160e+00 5.178286e+02 1.227670e-60
-6.903584e+00 5.767617e+02 3.387935e-35
-6.333790e+00 5.678652e+02 4.636970e-39
-5.708538e+00 5.505044e+02 1.338242e-46
-5.659243e+00 5.498333e+02 6.840370e-47
-5.668910e+00 5.499217e+02 7.472591e-47
-6.160802e+00 5.622896e+02 1.757041e-41
-6.278681e+00 5.673787e+02 2.850690e-39
-6.296715e+00 5.673823e+02 2.860971e-39
-6.720993e+00 5.743108e+02 2.920941e-36
-7.635586e+00 5.899757e+02 7.942997e-30
-7.287885e+00 5.837463e+02 1.565274e-32
-7.330747e+00 5.838808e+02 1.790618e-32
-8.536556e+00 6.043159e+02 2.442064e-24
-8.959208e+00 6.123119e+02 6.603206e-21
-9.032214e+00 6.130343e+02 6.147024e-21
-1.010016e+01 6.341900e+02 9.472589e-12
-9.298456e+00 6.182049e+02 1.082002e-18
-8.414916e+00 6.020368e+02 7.269461e-25
-9.397019e+00 6.210244e+02 1.814351e-17
-9.371453e+00 6.198889e+02 5.828809e-18
-9.014394e+00 6.129490e+02 5.644423e-21
-9.005601e+00 6.129490e+02 5.644423e-21
-9.023264e+00 6.129862e+02 5.858350e-21
-9.050358e+00 6.130839e+02 6.459604e-21
-9.310258e+00 6.190300e+02 2.469246e-18
-9.322201e+00 6.190303e+02 2.469987e-18
-9.662372e+00 6.285215e+02 3.270924e-14
-9.696720e+00 6.292566e+02 6.822134e-14
-9.116588e+00 6.149247e+02 4.070570e-20
-9.097213e+00 6.143051e+02 2.190616e-20
-9.136345e+00 6.159262e+02 1.108157e-19
-9.126418e+00 6.154838e+02 7.119824e-20
-1.000066e+01 6.332353e+02 3.646261e-12
-1.004917e+01 6.337148e+02 5.889683e-12
-9.059555e+00 6.138056e+02 1.329341e-20
-9.410052e+00 6.212054e+02 2.174345e-17
-8.901799e+00 6.109558e+02 1.868224e-21
-8.679308e+00 6.072904e+02 4.781519e-23
-8.742650e+00 6.078166e+02 8.092667e-23
-8.710478e+00 6.075306e+02 6.079718e-23
-8.864179e+00 6.097802e+02 5.765969e-22
-8.775892e+00 6.092106e+02 3.262107e-22
-8.845887e+00 6.097471e+02 5.578240e-22
-8.827924e+00 6.096765e+02 5.197996e-22
-9.241449e+00 6.171560e+02 3.790500e-19
-9.198073e+00 6.166491e+02 2.283245e-19
-9.492029e+00 6.233300e+02 1.819829e-16
-1.121772e+01 6.417608e+02 1.336959e-08
-1.135905e+01 6.424724e+02 7.372933e-09
-1.144803e+01 6.426517e+02 5.942263e-09
-1.142167e+01 6.426012e+02 5.649629e-09
-1.158057e+01 6.435296e+02 5.176839e-09
-nan 6.428099e+02 5.389660e-09
-nan 6.429668e+02 5.002736e-09
-1.155334e+01 6.433506e+02 4.328385e-09
-1.225222e+01 6.502169e+02 3.531962e-06
-1.223401e+01 6.500450e+02 2.974136e-06
-1.220729e+01 6.498718e+02 2.501157e-06
-1.218127e+01 6.497387e+02 2.189457e-06
-1.183096e+01 6.455960e+02 3.476840e-08
-1.183701e+01 6.456006e+02 3.492870e-08
-1.165956e+01 6.443088e+02 9.597560e-09
-1.174436e+01 6.448257e+02 1.609339e-08
-1.161000e+01 6.438661e+02 6.164511e-09
-1.162461e+01 6.439884e+02 6.966472e-09
-1.173884e+01 6.448245e+02 1.607409e-08
-1.176673e+01 6.450021e+02 1.919805e-08
-1.178384e+01 6.450680e+02 2.050582e-08
-1.185538e+01 6.458307e+02 4.396566e-08
-1.184310e+01 6.456412e+02 3.637599e-08
-1.176109e+01 6.449494e+02 1.821251e-08
-1.253805e+01 6.517800e+02 1.756788e-05
-1.180125e+01 6.453133e+02 2.620654e-08
-1.178961e+01 6.451971e+02 2.333161e-08
-1.153208e+01 6.430902e+02 3.336074e-09
-1.166466e+01 6.443110e+02 9.618698e-09
-1.172247e+01 6.447141e+02 1.439396e-08
-1.163944e+01 6.440671e+02 7.536884e-09
-1.171171e+01 6.445756e+02 1.253229e-08
-1.180712e+01 6.454680e+02 3.059109e-08
-1.168010e+01 6.443738e+02 1.024212e-08
-1.157507e+01 6.434291e+02 4.681856e-09
-1.156959e+01 6.433863e+02 4.485700e-09
-1.186158e+01 6.458600e+02 4.527291e-08
-1.368444e+01 6.583516e+02 6.621288e-03
-1.421529e+01 6.611693e+02 5.205086e-02
-nan 6.639448e+02 3.598871e-01
-1.545169e+01 6.638872e+02 7.884912e-01
-1.539515e+01 6.638719e+02 7.765191e-01
-1.492220e+01 6.630696e+02 3.481110e-01
-1.499318e+01 6.631419e+02 3.742116e-01
-1.503065e+01 6.632452e+02 4.149348e-01
-1.524249e+01 6.634563e+02 5.124593e-01
-1.453043e+01 6.623427e+02 1.682787e-01
-1.455385e+01 6.623430e+02 1.683291e-01
-1.488852e+01 6.630646e+02 3.463748e-01
-1.485593e+01 6.630622e+02 3.455444e-01
-1.519638e+01 6.634354e+02 5.018600e-01
-1.529084e+01 6.634823e+02 5.259580e-01
-1.698366e+01 6.658303e+02 5.909847e-01
-1.606216e+01 6.646068e+02 3.078631e-01
-1.584353e+01 6.641921e+02 2.033554e-01
-1.600286e+01 6.645381e+02 2.874231e-01
-1.623999e+01 6.649445e+02 4.315379e-01
-1.621596e+01 6.649424e+02 4.306326e-01
-1.626462e+01 6.649781e+02 4.462839e-01
-1.619248e+01 6.647388e+02 3.513052e-01
-1.604200e+01 6.645613e+02 2.941692e-01
-1.616955e+01 6.647353e+02 3.500778e-01
-1.589387e+01 6.643085e+02 2.284587e-01
-1.591123e+01 6.643294e+02 2.332837e-01
-1.608274e+01 6.646595e+02 3.245226e-01
-1.534163e+01 6.637786e+02 7.073470e-01
-1.426730e+01 6.614299e+02 6.754684e-02
-1.639778e+01 6.651638e+02 5.373530e-01
-1.634237e+01 6.651399e+02 5.246625e-01
-1.636969e+01 6.651506e+02 5.303066e-01
-1.645644e+01 6.653011e+02 6.164365e-01
-1.677371e+01 6.656813e+02 9.015859e-01
-1.717412e+01 6.658582e+02 6.077054e-01
-1.734986e+01 6.659809e+02 4.481357e-01
-1.739132e+01 6.659955e+02 2.245316e-01
-1.759212e+01 6.662102e+02 2.783046e-01
-1.800355e+01 6.664548e+02 1.642124e-01
-1.792311e+01 6.664111e+02 2.632235e-01
-1.794171e+01 6.664115e+02 2.633288e-01
-1.790485e+01 6.664109e+02 2.631709e-01
-1.813622e+01 6.666430e+02 2.450685e-01
-nan 6.666488e+02 1.689506e-01
-1.829713e+01 6.666711e+02 9.139741e-02
-1.785199e+01 6.663970e+02 2.595381e-01
-1.744892e+01 6.661131e+02 2.525518e-01
-1.740541e+01 6.660209e+02 2.303077e-01
-1.773855e+01 6.662884e+02 2.328288e-01
-1.775399e+01 6.662889e+02 2.329453e-01
-1.780179e+01 6.663542e+02 2.486642e-01
-1.872919e+01 6.669285e+02 1.048156e-01
-1.824739e+01 6.666582e+02 1.378620e-01
-1.831888e+01 6.666977e+02 9.386121e-02
-1.838928e+01 6.667482e+02 1.021330e-01
-1.833390e+01 6.667173e+02 9.902534e-02
-1.845657e+01 6.667650e+02 1.038633e-01
-1.844791e+01 6.667645e+02 1.038114e-01
-1.897828e+01 6.670168e+02 9.474377e-02
-1.917591e+01 6.671298e+02 7.950286e-02
-1.980180e+01 6.674221e+02 1.064945e-01
-2.007895e+01 6.674913e+02 5.683891e-02
-1.998810e+01 6.674727e+02 1.200630e-01
-2.013531e+01 6.675117e+02 4.523507e-02
-2.003334e+01 6.674841e+02 5.643113e-02
-2.002226e+01 6.674832e+02 5.638037e-02
-2.073327e+01 6.677603e+02 4.293249e-02
-2.078648e+01 6.677722e+02 4.344643e-02
-2.088898e+01 6.677800e+02 3.427294e-02
-2.096272e+01 6.678024e+02 3.504932e-02
-2.075952e+01 6.677665e+02 4.319949e-02
-2.053425e+01 6.676684e+02 3.916286e-02
-2.057764e+01 6.676738e+02 3.937491e-02
-2.106386e+01 6.678110e+02 2.294162e-02
-2.107306e+01 6.678115e+02 2.295309e-02
-2.101037e+01 6.678062e+02 2.283176e-02
-2.147833e+01 6.678591e+02 2.055118e-02
-2.169112e+01 6.679108e+02 1.644511e-02
-2.170230e+01 6.679108e+02 1.644511e-02
-2.168005e+01 6.679092e+02 1.641882e-02
-2.174285e+01 6.679151e+02 2.091339e-02
-2.176488e+01 6.679236e+02 9.884846e-03
-2.397774e+01 6.682580e+02 1.223606e-02
-2.288930e+01 6.681550e+02 1.245850e-02
-2.310858e+01 6.681787e+02 1.275729e-02
-2.295718e+01 6.681594e+02 1.251344e-02
-2.284647e+01 6.681440e+02 1.232221e-02
-2.461415e+01 6.683439e+02 2.274946e-03
-2.453913e+01 6.683245e+02 1.783585e-03
-2.433132e+01 6.683085e+02 4.883197e-03
-2.437452e+01 6.683114e+02 1.760373e-03
-2.448554e+01 6.683196e+02 1.774867e-03
-2.452546e+01 6.683245e+02 1.783585e-03
-2.445978e+01 6.683145e+02 1.765838e-03
-2.447258e+01 6.683194e+02 1.774512e-03
-2.439815e+01 6.683133e+02 1.763721e-03
-2.438627e+01 6.683133e+02 1.763721e-03
-2.441018e+01 6.683133e+02 1.763721e-03
-2.443467e+01 6.683139e+02 1.764779e-03
-2.442235e+01 6.683136e+02 1.764250e-03
-2.444715e+01 6.683141e+02 1.765132e-03
-2.458130e+01 6.683408e+02 1.812896e-03
-2.248170e+01 6.680664e+02 1.140216e-02
-2.198677e+01 6.679675e+02 1.032846e-02
-2.212958e+01 6.679949e+02 1.061537e-02
-2.217138e+01 6.680002e+02 1.067178e-02
-2.191819e+01 6.679559e+02 1.020934e-02
-2.130493e+01 6.678409e+02 2.018053e-02
-2.143208e+01 6.678506e+02 2.037723e-02
-2.165829e+01 6.678965e+02 1.621162e-02
-2.121008e+01 6.678326e+02 2.001372e-02
-2.129503e+01 6.678409e+02 2.018053e-02
-2.272801e+01 6.681072e+02 1.187699e-02
-2.233320e+01 6.680394e+02 1.109842e-02
-2.241146e+01 6.680538e+02 1.125940e-02
-2.215027e+01 6.679964e+02 1.063130e-02
-2.213987e+01 6.679964e+02 1.063130e-02
-2.278549e+01 6.681222e+02 1.205649e-02
-2.262210e+01 6.680880e+02 1.165113e-02
-2.260549e+01 6.680870e+02 1.163948e-02
-2.258916e+01 6.680764e+02 1.151675e-02
-2.541493e+01 6.684030e+02 6.281165e-04
-2.755421e+01 6.685313e+02 7.187016e-04
-2.711671e+01 6.685115e+02 7.001017e-04
-2.690484e+01 6.684976e+02 6.904376e-04
-2.493085e+01 6.683765e+02 2.174485e-03
-2.542575e+01 6.684031e+02 6.281793e-04
-2.777182e+01 6.685381e+02 4.575554e-05
-2.765068e+01 6.685338e+02 7.205006e-04
-2.654746e+01 6.684669e+02 6.695633e-04
-2.673011e+01 6.684829e+02 6.803625e-04
-2.590482e+01 6.684320e+02 6.465986e-04
-2.551677e+01 6.684132e+02 6.345561e-04
-2.502987e+01 6.683829e+02 2.188446e-03
-2.780116e+01 6.685407e+02 4.587466e-05
-2.555316e+01 6.684154e+02 6.359536e-04
-2.611944e+01 6.684509e+02 6.589355e-04
-2.605619e+01 6.684485e+02 6.573560e-04
-2.837370e+01 6.685861e+02 2.683394e-05
-2.835334e+01 6.685825e+02 4.783287e-05
-2.783139e+01 6.685414e+02 4.590679e-05
-2.782374e+01 6.685412e+02 4.589761e-05
-2.813366e+01 6.685627e+02 4.689509e-05
-2.816529e+01 6.685639e+02 4.695140e-05
-2.817606e+01 6.685647e+02 4.698897e-05
-2.832780e+01 6.685801e+02 4.771820e-05
-2.827862e+01 6.685767e+02 4.755624e-05
-2.968551e+01 6.687357e+02 9.515231e-05
-2.977284e+01 6.687357e+02 9.515231e-05
-2.911548e+01 6.686818e+02 2.952884e-05
-2.869243e+01 6.686307e+02 2.805782e-05
-2.798895e+01 6.685489e+02 4.625238e-05
-2.789473e+01 6.685456e+02 4.610000e-05
-2.798001e+01 6.685484e+02 4.622926e-05
-2.779374e+01 6.685405e+02 4.586549e-05
-2.838110e+01 6.685873e+02 2.686616e-05
-2.848270e+01 6.686016e+02 2.725310e-05
-2.879941e+01 6.686442e+02 2.843917e-05
-2.890658e+01 6.686573e+02 2.881417e-05
-2.859580e+01 6.686137e+02 2.758487e-05
-2.946401e+01 6.687237e+02 3.079239e-05
-2.889409e+01 6.686568e+02 2.879977e-05
-2.917943e+01 6.686898e+02 2.976602e-05
-2.919608e+01 6.686899e+02 2.976900e-05
-2.899867e+01 6.686694e+02 2.916494e-05
-2.875524e+01 6.686383e+02 2.827187e-05
-2.893203e+01 6.686666e+02 2.908340e-05
-2.898498e+01 6.686694e+02 2.916494e-05
-2.926559e+01 6.686943e+02 2.990027e-05
-2.895816e+01 6.686673e+02 2.910376e-05
-2.897148e+01 6.686684e+02 2.913579e-05
-2.846638e+01 6.686003e+02 2.721770e-05
-2.845033e+01 6.685980e+02 2.715517e-05
-2.844240e+01 6.685980e+02 2.715517e-05
-2.851616e+01 6.686034e+02 2.730220e-05
-2.849929e+01 6.686032e+02 2.729674e-05
-2.850769e+01 6.686032e+02 2.729674e-05
-2.862382e+01 6.686240e+02 2.787046e-05
-2.955589e+01 6.687311e+02 3.102109e-05
-2.950889e+01 6.687274e+02 3.090653e-05
-2.948620e+01 6.687270e+02 3.089417e-05
-2.870263e+01 6.686317e+02 2.808589e-05
-2.871293e+01 6.686318e+02 2.808870e-05
-2.829069e+01 6.685771e+02 4.757526e-05
-2.806351e+01 6.685539e+02 4.648422e-05
-2.805388e+01 6.685538e+02 4.647958e-05
-2.834049e+01 6.685804e+02 4.773252e-05
-2.840365e+01 6.685919e+02 2.699003e-05
-2.418676e+01 6.682890e+02 4.788897e-03
-2.563017e+01 6.684164e+02 6.365899e-04
-2.569921e+01 6.684227e+02 6.406131e-04
-2.568502e+01 6.684224e+02 6.404209e-04
-2.577337e+01 6.684243e+02 6.416389e-04
-2.661657e+01 6.684719e+02 6.729195e-04
-2.648281e+01 6.684623e+02 6.664904e-04
-2.658141e+01 6.684674e+02 6.698981e-04
-2.830291e+01 6.685787e+02 4.765145e-05
-2.796236e+01 6.685481e+02 4.621540e-05
-2.865265e+01 6.686284e+02 2.799336e-05
-2.866245e+01 6.686289e+02 2.800736e-05
-2.874449e+01 6.686383e+02 2.827187e-05
-2.878819e+01 6.686432e+02 2.841075e-05
-2.881077e+01 6.686450e+02 2.846193e-05
-2.905537e+01 6.686753e+02 2.933753e-05
-2.910011e+01 6.686808e+02 2.949933e-05
-2.907006e+01 6.686758e+02 2.935220e-05
-2.882225e+01 6.686454e+02 2.847332e-05
-2.876610e+01 6.686385e+02 2.827753e-05
-2.873386e+01 6.686382e+02 2.826905e-05
-2.792797e+01 6.685462e+02 4.612767e-05
-2.791956e+01 6.685462e+02 4.612767e-05
-2.797114e+01 6.685483e+02 4.622464e-05
-2.599671e+01 6.684432e+02 6.538812e-04
-2.588741e+01 6.684314e+02 6.462107e-04
-2.565722e+01 6.684173e+02 6.371631e-04
-2.567102e+01 6.684173e+02 6.371631e-04
-2.561692e+01 6.684163e+02 6.365263e-04
-2.572822e+01 6.684233e+02 6.409976e-04
-2.574305e+01 6.684233e+02 6.409976e-04
-2.533128e+01 6.683957e+02 2.216639e-03
-2.582066e+01 6.684271e+02 6.434380e-04
-2.738587e+01 6.685291e+02 7.125326e-04
-2.717751e+01 6.685195e+02 7.057250e-04
-2.724226e+01 6.685205e+02 7.064311e-04
-2.818695e+01 6.685663e+02 4.706422e-05
-2.804434e+01 6.685527e+02 4.642848e-05
-2.469129e+01 6.683541e+02 2.298270e-03
-2.479692e+01 6.683606e+02 2.313257e-03
-2.473221e+01 6.683600e+02 2.311869e-03
-2.475332e+01 6.683600e+02 2.311869e-03
-2.455299e+01 6.683358e+02 1.803854e-03
-2.623464e+01 6.684566e+02 6.627022e-04
-2.625936e+01 6.684570e+02 6.629673e-04
-2.488479e+01 6.683726e+02 2.166021e-03
-2.550493e+01 6.684132e+02 6.345561e-04
-2.490756e+01 6.683741e+02 2.169273e-03
-2.413432e+01 6.682775e+02 4.734140e-03
-2.139874e+01 6.678470e+02 2.030401e-02
-2.136648e+01 6.678442e+02 2.024723e-02
-2.124695e+01 6.678362e+02 2.008590e-02
-2.122834e+01 6.678360e+02 2.008189e-02
-2.123760e+01 6.678361e+02 2.008389e-02
-2.155605e+01 6.678703e+02 1.579239e-02
-2.183860e+01 6.679446e+02 1.009462e-02
-2.183098e+01 6.679446e+02 1.009462e-02
-2.308170e+01 6.681744e+02 1.270255e-02
-2.363390e+01 6.682424e+02 1.359637e-02
-2.251124e+01 6.680669e+02 1.140786e-02
-2.291142e+01 6.681569e+02 1.248219e-02
-2.300515e+01 6.681609e+02 1.253222e-02
-2.208946e+01 6.679828e+02 1.048770e-02
-2.206999e+01 6.679825e+02 1.048455e-02
-2.245301e+01 6.680634e+02 1.136801e-02
-2.196918e+01 6.679648e+02 1.030061e-02
-2.202290e+01 6.679716e+02 1.037089e-02
-2.181591e+01 6.679417e+02 1.006539e-02
-2.110118e+01 6.678179e+02 2.310046e-02
-2.105475e+01 6.678086e+02 2.288662e-02
-2.104571e+01 6.678071e+02 2.285232e-02
-2.103676e+01 6.678071e+02 2.285232e-02
-2.101909e+01 6.678063e+02 2.283404e-02
-2.109172e+01 6.678165e+02 2.306814e-02
-2.190994e+01 6.679539e+02 1.018894e-02
-2.190176e+01 6.679533e+02 1.018283e-02
-2.184628e+01 6.679474e+02 1.012293e-02
-2.246725e+01 6.680642e+02 1.137710e-02
-2.230842e+01 6.680323e+02 1.101990e-02
-2.227236e+01 6.680240e+02 1.092882e-02
-2.223755e+01 6.680204e+02 1.088954e-02
-2.451198e+01 6.683202e+02 1.775932e-03
-2.449867e+01 6.683202e+02 1.775932e-03
-2.486253e+01 6.683711e+02 2.162774e-03
-2.193490e+01 6.679569e+02 1.021955e-02
-2.194336e+01 6.679628e+02 1.028003e-02
-2.196050e+01 6.679629e+02 1.028106e-02
-2.210932e+01 6.679945e+02 1.061112e-02
-2.211940e+01 6.679946e+02 1.061219e-02
-2.188559e+01 6.679503e+02 1.015233e-02
-2.224902e+01 6.680236e+02 1.092444e-02
-2.239798e+01 6.680532e+02 1.125264e-02
-2.243897e+01 6.680609e+02 1.133962e-02
-2.203214e+01 6.679739e+02 1.039477e-02
-2.209934e+01 6.679876e+02 1.053816e-02
-2.166911e+01 6.678981e+02 1.623758e-02
-2.819796e+01 6.685663e+02 4.706422e-05
-2.812333e+01 6.685615e+02 4.683885e-05
-2.677101e+01 6.684832e+02 6.805666e-04
-2.645199e+01 6.684621e+02 6.663571e-04
-2.636486e+01 6.684602e+02 6.650922e-04
-2.800707e+01 6.685502e+02 4.631255e-05
-2.778638e+01 6.685381e+02 4.575554e-05
-2.777907e+01 6.685381e+02 4.575554e-05
-2.776461e+01 6.685378e+02 4.574182e-05
-2.783909e+01 6.685417e+02 4.592056e-05
-2.784685e+01 6.685423e+02 4.594812e-05
-2.785467e+01 6.685426e+02 4.596191e-05
-2.786256e+01 6.685436e+02 4.600789e-05
-2.794502e+01 6.685471e+02 4.616920e-05
-2.787050e+01 6.685441e+02 4.603090e-05
-2.787851e+01 6.685441e+02 4.603090e-05
-2.788659e+01 6.685448e+02 4.606314e-05
-2.793646e+01 6.685467e+02 4.615074e-05
-2.809297e+01 6.685541e+02 4.649352e-05
-2.807324e+01 6.685541e+02 4.649352e-05
-2.808306e+01 6.685541e+02 4.649352e-05
-2.826669e+01 6.685751e+02 4.748021e-05
-2.810299e+01 6.685555e+02 4.655866e-05
-2.803490e+01 6.685524e+02 4.641455e-05
-2.815464e+01 6.685637e+02 4.694201e-05
-2.856854e+01 6.686055e+02 2.735960e-05
-2.857755e+01 6.686059e+02 2.737054e-05
-2.843453e+01 6.685975e+02 2.714160e-05
-2.841897e+01 6.685973e+02 2.713617e-05
-2.842672e+01 6.685973e+02 2.713617e-05
-2.841128e+01 6.685957e+02 2.709278e-05
-2.822035e+01 6.685681e+02 4.714901e-05
-2.854201e+01 6.686046e+02 2.733499e-05
-2.824325e+01 6.685742e+02 4.743750e-05
-2.825490e+01 6.685742e+02 4.743750e-05
-2.801626e+01 6.685511e+02 4.635425e-05
-2.860506e+01 6.686182e+02 2.770928e-05
-2.849096e+01 6.686023e+02 2.727219e-05
-2.669081e+01 6.684781e+02 6.771045e-04
-2.923023e+01 6.686920e+02 2.983158e-05
-2.913109e+01 6.686856e+02 2.964126e-05
-2.937986e+01 6.686951e+02 2.992420e-05
-2.932110e+01 6.686948e+02 2.991522e-05
-2.924776e+01 6.686933e+02 2.987038e-05
-2.944230e+01 6.687151e+02 3.052871e-05
-2.942105e+01 6.686970e+02 2.998111e-05
-2.940024e+01 6.686969e+02 2.997811e-05
-2.934030e+01 6.686949e+02 2.991821e-05
-2.921301e+01 6.686908e+02 2.979580e-05
-2.902662e+01 6.686726e+02 2.925842e-05
-2.916305e+01 6.686892e+02 2.974816e-05
-2.823174e+01 6.685729e+02 4.737587e-05
-2.799797e+01 6.685498e+02 4.629403e-05
-2.802554e+01 6.685512e+02 4.635889e-05
-2.781616e+01 6.685411e+02 4.589302e-05
-2.780863e+01 6.685409e+02 4.588384e-05
-2.853332e+01 6.686045e+02 2.733225e-05
-2.838856e+01 6.685882e+02 2.689035e-05
-2.839608e+01 6.685885e+02 2.689842e-05
-2.872334e+01 6.686358e+02 2.820128e-05
-2.883387e+01 6.686454e+02 2.847332e-05
-2.914694e+01 6.686864e+02 2.966499e-05
-2.904089e+01 6.686740e+02 2.929941e-05
-2.884563e+01 6.686468e+02 2.851321e-05
-2.867235e+01 6.686296e+02 2.802697e-05
-2.928375e+01 6.686945e+02 2.990625e-05
-2.930225e+01 6.686945e+02 2.990625e-05
-2.935989e+01 6.686950e+02 2.992121e-05
-2.908497e+01 6.686766e+02 2.937569e-05
-2.953211e+01 6.687294e+02 3.096840e-05
-2.958024e+01 6.687327e+02 3.107077e-05
-2.885753e+01 6.686552e+02 2.875373e-05
-2.877708e+01 6.686394e+02 2.830299e-05
-2.864295e+01 6.686256e+02 2.791509e-05
-2.863334e+01 6.686250e+02 2.789835e-05
-2.868234e+01 6.686301e+02 2.804099e-05
-2.894501e+01 6.686667e+02 2.908630e-05
-2.855962e+01 6.686055e+02 2.735960e-05
-2.852470e+01 6.686044e+02 2.732952e-05
-2.855078e+01 6.686047e+02 2.733772e-05
-2.901254e+01 6.686696e+02 2.917078e-05
-2.886956e+01 6.686552e+02 2.875373e-05
-2.888175e+01 6.686558e+02 2.877099e-05
-2.861440e+01 6.686231e+02 2.784539e-05
-2.791121e+01 6.685457e+02 4.610461e-05
-2.790294e+01 6.685457e+02 4.610461e-05
-2.795365e+01 6.685478e+02 4.620153e-05
-2.814409e+01 6.685627e+02 4.689509e-05
-2.831528e+01 6.685790e+02 4.766574e-05
-2.631072e+01 6.684590e+02 6.642946e-04
-2.628471e+01 6.684575e+02 6.632989e-04
-2.847451e+01 6.686006e+02 2.722586e-05
-2.845832e+01 6.685981e+02 2.715789e-05
-2.820909e+01 6.685681e+02 4.714901e-05
-2.811311e+01 6.685573e+02 4.664254e-05
-2.575809e+01 6.684241e+02 6.415106e-04
-2.578889e+01 6.684258e+02 6.426021e-04
-2.564360e+01 6.684170e+02 6.369720e-04
-2.583694e+01 6.684283e+02 6.442106e-04
-2.587030e+01 6.684287e+02 6.444683e-04
-2.585348e+01 6.684287e+02 6.444683e-04
-2.731149e+01 6.685289e+02 7.123901e-04
-2.597764e+01 6.684424e+02 6.533583e-04
-2.616394e+01 6.684559e+02 6.622384e-04
-2.633742e+01 6.684590e+02 6.642946e-04
-2.603597e+01 6.684485e+02 6.573560e-04
-2.552875e+01 6.684138e+02 6.349369e-04
-2.556559e+01 6.684161e+02 6.363990e-04
-2.554088e+01 6.684149e+02 6.356357e-04
-2.543668e+01 6.684036e+02 6.284935e-04
-2.544774e+01 6.684036e+02 6.284935e-04
-2.548166e+01 6.684057e+02 6.298147e-04
-2.609791e+01 6.684491e+02 6.577505e-04
-2.465198e+01 6.683469e+02 2.281781e-03
-2.557818e+01 6.684162e+02 6.364626e-04
-2.559092e+01 6.684162e+02 6.364626e-04
-2.560384e+01 6.684162e+02 6.364626e-04
-2.891922e+01 6.686627e+02 2.897019e-05
-2.997435e+01 6.687431e+02 9.585904e-05
-2.986853e+01 6.687420e+02 9.575366e-05
-3.146704e+01 6.687743e+02 2.946808e-05
-3.186029e+01 6.687772e+02 1.769069e-05
-3.173696e+01 6.687747e+02 1.764652e-05
-3.068924e+01 6.687497e+02 7.118423e-05
-3.087354e+01 6.687575e+02 7.174164e-05
-3.120779e+01 6.687734e+02 2.944158e-05
-3.132903e+01 6.687740e+02 2.945925e-05
-nan 6.687935e+02 6.956435e-06
-3.307593e+01 6.687934e+02 9.541677e-06
-3.232777e+01 6.687906e+02 1.653959e-05
-3.269078e+01 6.687928e+02 9.535953e-06
-3.286493e+01 6.687928e+02 9.535953e-06
-3.479568e+01 6.687941e+02 1.328868e-06
-3.499722e+01 6.687941e+02 1.328868e-06
-3.462802e+01 6.687941e+02 1.328868e-06
-nan 6.687962e+02 6.762898e-07
-3.652627e+01 6.687964e+02 2.459763e-07
-3.673731e+01 6.687964e+02 2.459763e-07
-3.716711e+01 6.687965e+02 1.197734e-07
-3.736049e+01 6.687967e+02 1.197974e-07
-nan 6.687968e+02 7.158283e-08
-nan 6.687976e+02 4.421487e-08
-3.934939e+01 6.688001e+02 8.056710e-09
-3.945975e+01 6.688001e+02 8.056710e-09
-nan 6.688064e+02 3.600103e-09
-4.079907e+01 6.688048e+02 2.268553e-09
-4.048106e+01 6.688031e+02 2.264700e-09
-4.093236e+01 6.688048e+02 2.268553e-09
-4.108621e+01 6.688049e+02 2.268780e-09
-3.998904e+01 6.688022e+02 2.262662e-09
-4.004616e+01 6.688024e+02 2.263115e-09
-4.017122e+01 6.688027e+02 2.263794e-09
-4.010673e+01 6.688027e+02 2.263794e-09
-4.039414e+01 6.688030e+02 2.264473e-09
-4.031418e+01 6.688030e+02 2.264473e-09
-4.057625e+01 6.688041e+02 2.266966e-09
-3.962154e+01 6.688003e+02 2.258367e-09
-3.970154e+01 6.688006e+02 2.259045e-09
-3.974407e+01 6.688006e+02 2.259045e-09
-3.888085e+01 6.687981e+02 1.265013e-08
-3.878292e+01 6.687981e+02 1.265013e-08
-3.911126e+01 6.687998e+02 1.267165e-08
-3.978850e+01 6.688008e+02 2.259497e-09
-3.898943e+01 6.687997e+02 1.267038e-08
-4.068146e+01 6.688045e+02 2.267873e-09
-3.993501e+01 6.688020e+02 2.262210e-09
-3.988375e+01 6.688019e+02 2.261984e-09
-3.983499e+01 6.688019e+02 2.261984e-09
-3.966074e+01 6.688005e+02 2.258819e-09
-nan 6.688073e+02 2.097063e-09
-4.024015e+01 6.688030e+02 2.264473e-09
-3.215110e+01 6.687777e+02 1.632760e-05
-2.082833e+01 6.677758e+02 4.360312e-02
-2.085405e+01 6.677770e+02 3.417028e-02
-2.086556e+01 6.677778e+02 3.419763e-02
-2.087720e+01 6.677779e+02 3.420105e-02
-2.044930e+01 6.676517e+02 5.203271e-02
-2.049266e+01 6.676567e+02 3.870732e-02
-2.074631e+01 6.677612e+02 4.297114e-02
-2.549323e+01 6.684114e+02 6.334149e-04
-2.695375e+01 6.684999e+02 6.920275e-04
-2.216077e+01 6.679980e+02 1.064833e-02
-1.423232e+01 6.614273e+02 6.737145e-02
-1.424966e+01 6.614283e+02 6.743885e-02
-1.428526e+01 6.616156e+02 8.133052e-02
-2.858663e+01 6.686096e+02 2.747200e-05
-2.350445e+01 6.682363e+02 1.351369e-02
-2.197793e+01 6.679669e+02 1.032226e-02
-1.265988e+01 6.528353e+02 5.046966e-05
-4.909335e+00 5.239840e+02 5.785459e-58
-4.865036e+00 5.220146e+02 8.073062e-59
-4.915827e+00 5.246818e+02 1.162488e-57
-8.228017e+00 5.960444e+02 1.815666e-27
-8.023203e+00 5.931463e+02 1.000938e-28
-4.006144e+00 4.802453e+02 9.851320e-77
-2.995991e+00 4.125607e+02 6.832837e-105
-5.959992e+00 5.559460e+02 3.088812e-44
-6.315081e+00 5.674078e+02 2.934864e-39
-2.211203e+00 2.024487e+02 3.838123e-196
-7.804994e-01 -2.209903e+03 0.000000e+00
-5.950106e-01 -3.601409e+03 0.000000e+00
-2.818651e+00 3.842735e+02 3.545081e-117
-4.197032e+00 4.878754e+02 1.227904e-73
-5.300212e+00 5.396434e+02 3.657033e-51
-5.309824e+00 5.398570e+02 4.527872e-51
-5.329329e+00 5.408337e+02 1.202457e-50
-7.956058e+00 5.919680e+02 3.080902e-29
-4.206792e+00 4.885609e+02 2.437100e-73
-4.257073e+00 4.901940e+02 1.247727e-72
-4.200275e+00 4.880803e+02 1.507132e-73
-3.826349e+00 4.658371e+02 1.959109e-82
-3.053026e+00 4.196450e+02 8.152175e-102
-2.729853e+00 3.566465e+02 3.559365e-129
-2.773267e+00 3.671799e+02 1.336503e-124
-2.751324e+00 3.596482e+02 7.161340e-128
-2.688246e+00 3.446009e+02 2.089464e-134
-2.006117e+00 1.097075e+02 2.028278e-236
-2.058997e+00 1.160498e+02 1.152268e-233
-2.016472e+00 1.119947e+02 1.997312e-235
-2.037509e+00 1.120611e+02 2.134435e-235
-2.026935e+00 1.120547e+02 2.120818e-235
-1.451261e+00 -1.821239e+02 0.000000e+00
-1.419780e+00 -2.155029e+02 0.000000e+00
-9.884480e-01 -1.309688e+03 0.000000e+00
-8.105926e-01 -1.937877e+03 0.000000e+00
-6.684397e-01 -3.076506e+03 0.000000e+00
-7.136154e-01 -2.937648e+03 0.000000e+00
-6.252169e-01 -3.370085e+03 0.000000e+00
-6.596444e-01 -3.208875e+03 0.000000e+00
-1.604352e+00 -5.300130e+01 4.401427e-307
-8.004606e-01 -2.078047e+03 0.000000e+00
-1.275472e+00 -4.927077e+02 0.000000e+00
-1.353444e+00 -3.339542e+02 0.000000e+00
-1.135695e+00 -1.048995e+03 0.000000e+00
-1.124883e+00 -1.048995e+03 0.000000e+00
-1.367051e+00 -3.039828e+02 0.000000e+00
-9.886118e-02 -3.033096e+04 0.000000e+00
-6.480988e-02 -3.033150e+04 0.000000e+00
-1.341130e-01 -2.848535e+04 0.000000e+00
-1.706530e-01 -2.848518e+04 0.000000e+00
-3.187999e-02 -4.436648e+04 0.000000e+00
-2.085790e-01 -2.093304e+04 0.000000e+00
-2.916110e+00 4.059361e+02 9.069302e-108
-3.282975e+00 4.323162e+02 2.596006e-96
-3.113512e+00 4.251897e+02 2.085961e-99
-2.866193e+00 3.901961e+02 1.323667e-114
-1.908072e+00 7.009809e+01 1.273442e-253
-1.557229e+00 -8.226946e+01 8.562158e-320
-1.590660e+00 -6.451102e+01 4.415558e-312
-1.744726e+00 8.760835e-01 1.102158e-283
-1.752689e+00 1.834589e+00 2.874203e-283
-1.103603e+00 -1.093873e+03 0.000000e+00
-1.093131e+00 -1.100724e+03 0.000000e+00
-1.250777e+00 -6.137019e+02 0.000000e+00
-7.706663e-01 -2.409573e+03 0.000000e+00
-7.229007e-01 -2.846767e+03 0.000000e+00
-1.380846e+00 -3.039719e+02 0.000000e+00
-1.191581e+00 -7.939064e+02 0.000000e+00
-1.457193e+00 -1.800372e+02 0.000000e+00
-2.942034e+00 4.068754e+02 2.320100e-107
-1.632311e+00 -3.935208e+01 3.727129e-301
-1.646590e+00 -2.922744e+01 9.299288e-297
-1.668397e+00 -2.583985e+01 2.752082e-295
-1.862434e+00 4.505564e+01 1.695046e-264
-2.263112e+00 2.122699e+02 7.069877e-192
-2.276521e+00 2.123003e+02 7.288101e-192
-2.332033e+00 2.146487e+02 7.629772e-191
-2.317863e+00 2.141188e+02 4.491371e-191
-7.904302e-01 -2.172739e+03 0.000000e+00
-2.080958e+00 1.206401e+02 1.135260e-231
-2.092122e+00 1.207740e+02 1.297918e-231
-1.871396e+00 5.403861e+01 1.350317e-260
-4.334696e+00 4.943103e+02 7.502632e-71
-4.316648e+00 4.924087e+02 1.120364e-71
-4.721144e+00 5.139058e+02 2.429021e-62
-5.011435e+00 5.298839e+02 2.111698e-55
-4.948933e+00 5.281612e+02 3.771141e-56
-4.962489e+00 5.288782e+02 7.724349e-56
-4.871245e+00 5.228556e+02 1.871888e-58
-7.246786e+00 5.827024e+02 5.510999e-33
-9.629164e+00 6.271175e+02 8.033799e-15
-7.497127e+00 5.864360e+02 2.305219e-31
-7.471595e+00 5.863113e+02 2.034959e-31
-7.550233e+00 5.869473e+02 3.843855e-31
-9.275262e+00 6.179014e+02 7.987660e-19
-nan 6.426779e+02 5.790763e-09
-1.055992e+01 6.374180e+02 1.738057e-10
-9.384154e+00 6.204904e+02 1.063673e-17
-9.788139e+00 6.314124e+02 5.890773e-13
-9.506370e+00 6.236209e+02 2.434259e-16
-1.029659e+01 6.360093e+02 4.248869e-11
-1.160037e+01 6.437944e+02 5.737990e-09
-5.141347e+00 5.371548e+02 3.036292e-52
-5.455094e+00 5.447191e+02 5.854332e-49
-5.466325e+00 5.447195e+02 5.856674e-49
-4.438220e+00 4.977515e+02 2.342652e-69
-6.566651e+00 5.727642e+02 6.220753e-37
-5.718695e+00 5.506820e+02 1.598326e-46
-5.909317e+00 5.553802e+02 1.754154e-44
-5.897040e+00 5.548184e+02 1.000187e-44
-5.947080e+00 5.559432e+02 3.080175e-44
-5.999758e+00 5.565062e+02 5.408580e-44
-6.084373e+00 5.586141e+02 4.451769e-43
-6.808127e+00 5.751564e+02 6.803967e-36
-6.870742e+00 5.764972e+02 2.600544e-35
-6.129526e+00 5.595237e+02 1.105521e-42
-6.226451e+00 5.650994e+02 2.917847e-40
-4.513715e+00 5.026037e+02 2.999104e-67
-4.518081e+00 5.028032e+02 3.661283e-67
-4.804973e+00 5.181269e+02 1.654366e-60
-5.157803e+00 5.372275e+02 3.265253e-52
-5.085796e+00 5.354677e+02 5.618823e-53
-5.290692e+00 5.395988e+02 3.497513e-51
-5.235400e+00 5.387044e+02 1.429968e-51
-5.226475e+00 5.386306e+02 1.328236e-51
-4.764977e+00 5.154009e+02 1.083290e-61
-5.018627e+00 5.299244e+02 2.198977e-55
-5.281262e+00 5.394527e+02 3.022100e-51
-5.025872e+00 5.309066e+02 5.871983e-55
-4.629027e+00 5.085218e+02 1.114781e-64
-4.633928e+00 5.085225e+02 1.115562e-64
-4.600115e+00 5.064673e+02 1.428669e-65
-5.319529e+00 5.402008e+02 6.385642e-51
-4.638853e+00 5.089827e+02 1.767486e-64
-4.475255e+00 5.006131e+02 4.097179e-68
-4.496439e+00 5.011532e+02 7.031490e-68
-4.487911e+00 5.011348e+02 6.903294e-68
-4.274411e+00 4.912555e+02 3.606810e-72
-4.302440e+00 4.919698e+02 7.223496e-72
-4.298920e+00 4.919560e+02 7.124496e-72
-4.295411e+00 4.918754e+02 6.572794e-72
-4.371800e+00 4.963266e+02 5.634840e-70
-4.390882e+00 4.966003e+02 7.408803e-70
-4.394742e+00 4.966024e+02 7.424377e-70
-4.180975e+00 4.873689e+02 7.399362e-74
-4.210067e+00 4.889238e+02 3.503312e-73
-4.313077e+00 4.922790e+02 9.840820e-72
-4.323828e+00 4.927173e+02 1.525396e-71
-4.250221e+00 4.898753e+02 9.072145e-73
-4.187367e+00 4.876782e+02 1.008142e-73
-5.217628e+00 5.378956e+02 6.368966e-52
-5.055385e+00 5.327503e+02 3.711022e-54
-5.174534e+00 5.373853e+02 3.823389e-52
-5.093545e+00 5.357922e+02 7.772736e-53
-5.253493e+00 5.388269e+02 1.616320e-51
-5.359319e+00 5.420943e+02 4.241712e-50
-5.640186e+00 5.496274e+02 5.567476e-47
-5.603129e+00 5.480873e+02 1.193442e-47
-5.612265e+00 5.483348e+02 1.528584e-47
-5.621486e+00 5.487652e+02 2.350767e-47
-5.739325e+00 5.507854e+02 1.772439e-46
-6.069764e+00 5.576431e+02 1.685903e-43
-5.884911e+00 5.545963e+02 8.009847e-45
-5.934333e+00 5.558431e+02 2.786779e-44
-4.223273e+00 4.894772e+02 6.092806e-73
-4.203528e+00 4.883210e+02 1.917282e-73
-6.041170e+00 5.570214e+02 9.053818e-44
-6.749203e+00 5.745313e+02 3.641537e-36
-6.640847e+00 5.734278e+02 1.207927e-36
-7.523327e+00 5.867097e+02 3.030949e-31
-7.375528e+00 5.848941e+02 4.932574e-32
-5.078106e+00 5.342196e+02 1.612881e-53
-3.787280e+00 4.619983e+02 4.215887e-84
-3.865593e+00 4.694895e+02 4.779638e-81
-4.715798e+00 5.138317e+02 2.255537e-62
-5.183006e+00 5.374311e+02 4.002572e-52
-6.145042e+00 5.601646e+02 2.098486e-42
-5.771090e+00 5.516903e+02 4.380911e-46
-5.349222e+00 5.417997e+02 3.159352e-50
-6.176815e+00 5.627741e+02 2.852316e-41
-6.114247e+00 5.593044e+02 8.878223e-43
-5.826382e+00 5.541337e+02 5.043356e-45
-4.816700e+00 5.184518e+02 2.289464e-60
-4.331060e+00 4.935988e+02 3.683097e-71
-4.260516e+00 4.907420e+02 2.158306e-72
-4.219955e+00 4.891952e+02 4.595643e-73
-4.585967e+00 5.059298e+02 8.346385e-66
-4.572016e+00 5.055972e+02 5.984833e-66
-4.446333e+00 4.980847e+02 3.268999e-69
-4.450413e+00 4.981289e+02 3.416729e-69
-4.213352e+00 4.891603e+02 4.438022e-73
-4.229942e+00 4.896390e+02 7.162855e-73
-4.479456e+00 5.008226e+02 5.052073e-68
-6.392113e+00 5.696759e+02 2.835380e-38
-5.271920e+00 5.394187e+02 2.921076e-51
-7.446699e+00 5.861070e+02 1.658935e-31
-5.649670e+00 5.498072e+02 6.664146e-47
-6.666855e+00 5.737738e+02 1.707287e-36
-6.543094e+00 5.722282e+02 3.639662e-37
-4.928938e+00 5.260930e+02 4.767217e-57
-4.935559e+00 5.266709e+02 8.496571e-57
-4.983173e+00 5.293527e+02 1.241465e-55
-4.955688e+00 5.283002e+02 4.333509e-56
-6.260966e+00 5.664877e+02 1.169482e-39
-6.778231e+00 5.749117e+02 5.327094e-36
-4.890109e+00 5.232932e+02 2.899527e-58
-4.902885e+00 5.239541e+02 5.615034e-58
-4.858864e+00 5.214668e+02 4.668010e-59
-4.689486e+00 5.131752e+02 1.169865e-62
-4.342008e+00 4.947408e+02 1.153925e-70
-4.624150e+00 5.077180e+02 4.990037e-65
-nan 4.574985e+02 1.649681e-85
-3.442832e+00 4.471837e+02 7.433253e-90
-4.375588e+00 4.964583e+02 6.428035e-70
-4.360524e+00 4.958517e+02 3.504574e-70
-4.327438e+00 4.927813e+02 1.626213e-71
-4.288432e+00 4.915986e+02 4.983533e-72
-4.291915e+00 4.917286e+02 5.675389e-72
-3.533492e+00 4.529688e+02 2.418889e-87
-2.469495e+00 2.378749e+02 9.322278e-181
-2.453254e+00 2.357825e+02 1.150282e-181
-2.502790e+00 2.385998e+02 1.924607e-180
-2.486004e+00 2.381512e+02 1.228903e-180
-8.311700e-01 -1.862104e+03 0.000000e+00
-7.417340e-01 -2.679554e+03 0.000000e+00
-3.950440e+00 4.775919e+02 2.068130e-77
-2.890840e+00 3.959051e+02 3.991774e-112
-2.795701e+00 3.738005e+02 1.002906e-121
-2.968649e+00 4.122961e+02 5.244291e-105
-8.521796e-01 -1.847244e+03 0.000000e+00
-9.409318e-01 -1.434952e+03 0.000000e+00
-1.946145e+00 8.008458e+01 2.767304e-249
-1.936490e+00 8.008146e+01 2.758683e-249
-1.926927e+00 7.929545e+01 1.257019e-249
-1.955894e+00 8.038412e+01 3.733751e-249
-2.048195e+00 1.134908e+02 8.916487e-235
-1.975681e+00 9.045407e+01 8.820010e-245
-1.801849e+00 2.663464e+01 1.694505e-272
-1.810282e+00 2.664022e+01 1.703987e-272
-1.818787e+00 2.673992e+01 1.882631e-272
-1.827366e+00 2.715972e+01 2.864720e-272
-1.836018e+00 2.717261e+01 2.901885e-272
-1.853551e+00 4.246998e+01 1.277155e-265
-4.037567e+00 4.823681e+02 8.230283e-76
-3.359713e+00 4.364205e+02 1.573188e-94
-3.400409e+00 4.365047e+02 1.711387e-94
-3.177894e+00 4.268734e+02 1.123383e-98
-9.526009e-01 -1.368705e+03 0.000000e+00
-9.763556e-01 -1.356277e+03 0.000000e+00
-1.721209e+00 -1.334627e+00 1.208216e-284
-1.263048e+00 -5.597869e+02 0.000000e+00
-1.300793e+00 -4.141323e+02 0.000000e+00
-1.475204e+00 -1.665869e+02 0.000000e+00
-2.103412e+00 1.259384e+02 2.270481e-229
-2.149891e+00 1.768743e+02 3.001222e-207
-1.995869e+00 9.979551e+01 1.005553e-240
-8.845457e-01 -1.791009e+03 0.000000e+00
-8.208284e-01 -1.862907e+03 0.000000e+00
-2.480003e-01 -8.663943e+03 0.000000e+00
-2.890396e-01 -8.663913e+03 0.000000e+00
-3.318355e-01 -8.663859e+03 0.000000e+00
-5.686856e-01 -3.870145e+03 0.000000e+00
-6.862658e-01 -3.063903e+03 0.000000e+00
-6.422825e-01 -3.222848e+03 0.000000e+00
-6.773130e-01 -3.064187e+03 0.000000e+00
-7.322730e-01 -2.811144e+03 0.000000e+00
-5.430359e-01 -3.986562e+03 0.000000e+00
-4.816503e-01 -4.226524e+03 0.000000e+00
-5.180277e-01 -4.103264e+03 0.000000e+00
-5.057542e-01 -4.104125e+03 0.000000e+00
-5.304536e-01 -4.101718e+03 0.000000e+00
-4.936296e-01 -4.130045e+03 0.000000e+00
-9.293974e-01 -1.580775e+03 0.000000e+00
-7.512854e-01 -2.616124e+03 0.000000e+00
-1.062356e+00 -1.157657e+03 0.000000e+00
-1.072509e+00 -1.155224e+03 0.000000e+00
-8.736402e-01 -1.792921e+03 0.000000e+00
-2.069917e+00 1.190599e+02 2.337885e-232
-1.577154e+00 -6.954303e+01 2.881452e-314
-1.505961e+00 -1.440334e+02 0.000000e+00
-1.512228e+00 -1.416206e+02 0.000000e+00
-1.518534e+00 -1.385120e+02 0.000000e+00
-1.463161e+00 -1.799001e+02 0.000000e+00
-1.524880e+00 -1.324717e+02 0.000000e+00
-1.531267e+00 -1.304121e+02 0.000000e+00
-1.481280e+00 -1.573566e+02 0.000000e+00
-1.469164e+00 -1.707387e+02 0.000000e+00
-1.082767e+00 -1.124979e+03 0.000000e+00
-1.157676e+00 -1.016839e+03 0.000000e+00
-1.168850e+00 -1.004499e+03 0.000000e+00
-1.180151e+00 -9.485398e+02 0.000000e+00
-1.340019e+00 -3.358423e+02 0.000000e+00
-1.432490e+00 -2.022225e+02 0.000000e+00
-6.337133e-01 -3.347246e+03 0.000000e+00
-5.817615e-01 -3.725907e+03 0.000000e+00
-5.557785e-01 -3.920725e+03 0.000000e+00
-1.793486e+00 2.142411e+01 9.249928e-275
-1.844746e+00 3.867313e+01 2.866108e-267
-1.776967e+00 1.891806e+01 7.547006e-276
-1.493544e+00 -1.536300e+02 0.000000e+00
-1.499733e+00 -1.527617e+02 0.000000e+00
-1.487393e+00 -1.567793e+02 0.000000e+00
-3.962980e+00 4.778914e+02 2.790287e-77
-4.454511e+00 4.981466e+02 3.477744e-69
-4.174624e+00 4.865721e+02 3.335404e-74
-4.168312e+00 4.864102e+02 2.836849e-74
-4.152706e+00 4.856500e+02 1.326434e-74
-4.070009e+00 4.838581e+02 3.651855e-75
-4.065309e+00 4.837732e+02 3.354609e-75
-4.458626e+00 4.983461e+02 4.245603e-69
-4.240030e+00 4.897835e+02 8.276405e-73
-4.277915e+00 4.912620e+02 3.630330e-72
-4.253641e+00 4.900246e+02 1.053295e-72
-5.379823e+00 5.426624e+02 7.486242e-50
-5.400757e+00 5.433224e+02 1.448432e-49
-7.063356e+00 5.787067e+02 1.013724e-34
-6.372292e+00 5.689007e+02 1.306009e-38
-6.454050e+00 5.707031e+02 7.919880e-38
-4.379389e+00 4.964757e+02 6.540861e-70
-4.567409e+00 5.053399e+02 4.627091e-66
-4.509368e+00 5.022714e+02 2.151174e-67
-5.781906e+00 5.528490e+02 1.395666e-45
-5.973072e+00 5.559632e+02 3.142399e-44
-5.191550e+00 5.376909e+02 5.190018e-52
-6.693558e+00 5.738045e+02 1.760514e-36
-5.849384e+00 5.544951e+02 7.238917e-45
-6.412336e+00 5.704373e+02 6.071320e-38
-6.432975e+00 5.706750e+02 7.700429e-38
-6.497581e+00 5.711838e+02 1.280808e-37
-6.520078e+00 5.718545e+02 2.504755e-37
-9.219526e+00 6.170571e+02 3.433561e-19
-9.230427e+00 6.171149e+02 3.637868e-19
-9.423256e+00 6.216489e+02 3.387959e-17
-9.463950e+00 6.227371e+02 1.005860e-16
-9.477891e+00 6.229707e+02 1.270541e-16
-9.208742e+00 6.166954e+02 2.391445e-19
-7.226853e+00 5.824263e+02 4.181399e-33
-7.132744e+00 5.817625e+02 2.152965e-33
-7.150871e+00 5.818014e+02 2.238366e-33
-7.169332e+00 5.818736e+02 2.405953e-33
-6.952429e+00 5.767829e+02 1.480554e-35
-7.030387e+00 5.780091e+02 5.046103e-35
-6.967542e+00 5.773242e+02 2.543945e-35
-7.422408e+00 5.860898e+02 1.630645e-31
-7.728910e+00 5.903087e+02 1.108165e-29
-8.286520e+00 5.971397e+02 5.428986e-27
-7.606318e+00 5.898917e+02 7.303040e-30
-7.762059e+00 5.904159e+02 1.233562e-29
-5.986326e+00 5.564002e+02 4.864610e-44
-5.477683e+00 5.450730e+02 8.340156e-49
-5.040519e+00 5.311086e+02 7.186415e-55
-7.080257e+00 5.813937e+02 1.488912e-33
-7.188140e+00 5.823016e+02 3.691179e-33
-8.256841e+00 5.963008e+02 2.346330e-27
-5.390236e+00 5.426632e+02 7.492234e-50
-5.149541e+00 5.371755e+02 3.099799e-52
-4.990164e+00 5.295157e+02 1.461250e-55
-5.369518e+00 5.421414e+02 4.446276e-50
-4.562822e+00 5.050882e+02 3.597462e-66
-4.553712e+00 5.047701e+02 2.617261e-66
-4.544685e+00 5.045840e+02 2.172826e-66
-4.483675e+00 5.009256e+02 5.600180e-68
-4.679153e+00 5.128984e+02 8.869986e-63
-5.004295e+00 5.296170e+02 1.617032e-55
-4.969336e+00 5.289882e+02 8.622521e-56
-4.997205e+00 5.296138e+02 1.611866e-55
-3.737455e+00 4.611175e+02 1.747280e-84
-3.762058e+00 4.614590e+02 2.458521e-84
-3.749681e+00 4.614521e+02 2.441616e-84
-3.774589e+00 4.615353e+02 2.653448e-84
-4.155808e+00 4.858480e+02 1.616873e-74
-4.028488e+00 4.813309e+02 2.917189e-76
-4.060632e+00 4.829914e+02 1.535008e-75
-4.042137e+00 4.823914e+02 8.424300e-76
-4.123498e+00 4.850415e+02 1.498519e-74
-4.117273e+00 4.850090e+02 1.450600e-74
-4.055976e+00 4.826458e+02 1.086472e-75
-4.462757e+00 4.984402e+02 4.664514e-69
-4.387036e+00 4.965428e+02 6.994813e-70
-4.349373e+00 4.953669e+02 2.158188e-70
-5.047925e+00 5.323113e+02 2.392425e-54
-6.099198e+00 5.586556e+02 4.640404e-43
-5.062902e+00 5.329689e+02 4.617749e-54
-5.200167e+00 5.377572e+02 5.545779e-52
-5.208860e+00 5.377573e+02 5.546334e-52
-5.125158e+00 5.369847e+02 2.561357e-52
-6.209631e+00 5.649921e+02 2.620974e-40
-6.243560e+00 5.652763e+02 3.482485e-40
-6.352855e+00 5.684904e+02 8.664733e-39
-6.475579e+00 5.707524e+02 8.320114e-38
-6.615499e+00 5.728251e+02 6.611370e-37
-6.590776e+00 5.728100e+02 6.512288e-37
-6.982887e+00 5.773591e+02 2.634297e-35
-5.861087e+00 5.544970e+02 7.252684e-45
-5.837817e+00 5.544062e+02 6.623154e-45
-3.997345e+00 4.798836e+02 6.861359e-77
-3.848269e+00 4.679267e+02 1.001566e-81
-4.177794e+00 4.867508e+02 3.988016e-74
-4.976231e+00 5.292296e+02 1.097673e-55
-6.193088e+00 5.636095e+02 6.576688e-41
-8.810277e+00 6.094574e+02 4.175246e-22
-4.653776e+00 5.115295e+02 2.256406e-63
-4.576645e+00 5.056004e+02 6.004015e-66
-7.352886e+00 5.842594e+02 2.614730e-32
-4.726519e+00 5.139774e+02 2.609316e-62
-4.781922e+00 5.169458e+02 5.077926e-61
-4.742820e+00 5.143525e+02 3.796912e-62
-4.540201e+00 5.029362e+02 4.182100e-67
-4.549188e+00 5.046581e+02 2.339947e-66
-4.426174e+00 4.976019e+02 2.017146e-69
-4.883781e+00 5.232426e+02 2.756461e-58
-4.834553e+00 5.186948e+02 2.919224e-60
-4.684306e+00 5.130539e+02 1.036229e-62
-4.648777e+00 5.109417e+02 1.253542e-63
-4.810819e+00 5.181682e+02 1.724122e-60
-4.846635e+00 5.208440e+02 2.504109e-59
-4.604876e+00 5.068849e+02 2.169167e-65
-4.590661e+00 5.060714e+02 9.616001e-66
-4.609660e+00 5.071338e+02 2.782204e-65
-4.500730e+00 5.013137e+02 8.255657e-68
-4.522466e+00 5.028363e+02 3.784499e-67
-4.787635e+00 5.169824e+02 5.267222e-61
-5.728957e+00 5.507188e+02 1.658240e-46
-4.581295e+00 5.058732e+02 7.887100e-66
-3.901168e+00 4.725165e+02 9.862895e-80
-5.166133e+00 5.372397e+02 3.305333e-52
-5.133220e+00 5.370940e+02 2.857186e-52
-5.244406e+00 5.387146e+02 1.444628e-51
-4.162040e+00 4.861603e+02 2.209561e-74
-4.922361e+00 5.259480e+02 4.123749e-57
-5.558658e+00 5.469944e+02 4.000930e-48
-5.549996e+00 5.469939e+02 3.998930e-48
-5.541409e+00 5.465694e+02 2.615687e-48
-5.630792e+00 5.493014e+02 4.018633e-47
-5.760389e+00 5.514003e+02 3.278076e-46
-5.749801e+00 5.510847e+02 2.390869e-46
-5.033169e+00 5.310414e+02 6.719357e-55
-4.663849e+00 5.121307e+02 4.116376e-63
-4.668925e+00 5.121823e+02 4.334357e-63
-4.828567e+00 5.186811e+02 2.879504e-60
-4.822616e+00 5.186715e+02 2.851993e-60
-4.320232e+00 4.925658e+02 1.310952e-71
-4.305973e+00 4.919797e+02 7.295364e-72
-4.216648e+00 4.891706e+02 4.483969e-73
-4.193800e+00 4.878298e+02 1.173169e-73
-4.190579e+00 4.878225e+02 1.164636e-73
-4.243415e+00 4.898301e+02 8.671213e-73
-4.246812e+00 4.898301e+02 8.671213e-73
-5.262664e+00 5.389378e+02 1.805887e-51
-5.422139e+00 5.433820e+02 1.537383e-49
-5.585102e+00 5.479356e+02 1.025461e-47
-4.694694e+00 5.135457e+02 1.694501e-62
-4.710480e+00 5.137209e+02 2.018971e-62
-4.705190e+00 5.137178e+02 2.012722e-62
-4.852731e+00 5.210448e+02 3.060973e-59
-4.619297e+00 5.075579e+02 4.251804e-65
-5.489172e+00 5.455178e+02 1.301213e-48
-4.019490e+00 4.805285e+02 1.307635e-76
-2.572901e+00 2.725711e+02 1.091165e-165
-1.985724e+00 9.392281e+01 2.830895e-243
-1.114186e+00 -1.050273e+03 0.000000e+00
-1.146625e+00 -1.032249e+03 0.000000e+00
-9.179945e-01 -1.588569e+03 0.000000e+00
-8.955714e-01 -1.780924e+03 0.000000e+00
-9.067201e-01 -1.780897e+03 0.000000e+00
-2.375787e+00 2.168005e+02 6.561852e-190
-2.249880e+00 2.122242e+02 6.754055e-192
-2.290113e+00 2.124569e+02 8.523637e-192
-2.303892e+00 2.124719e+02 8.652455e-192
-2.223930e+00 2.100470e+02 7.656295e-193
-2.236821e+00 2.103841e+02 1.072554e-192
-2.173967e+00 1.892533e+02 7.135583e-202
-2.198636e+00 1.898220e+02 1.260122e-201
-3.320608e+00 4.336805e+02 1.015813e-95
-1.288053e+00 -4.454710e+02 0.000000e+00
-1.203143e+00 -7.732173e+02 0.000000e+00
-8.416196e-01 -1.848613e+03 0.000000e+00
-9.644077e-01 -1.368057e+03 0.000000e+00
-8.628524e-01 -1.833659e+03 0.000000e+00
-2.554907e+00 2.706524e+02 1.601804e-166
-1.713491e+00 -3.806607e+00 1.019946e-285
-1.736825e+00 -6.290624e-01 2.446624e-284
-1.889566e+00 5.940363e+01 2.886917e-258
-1.550675e+00 -1.064345e+02 0.000000e+00
-1.698233e+00 -7.000039e+00 4.184921e-287
-2.360989e+00 2.165954e+02 5.345061e-190
-2.406058e+00 2.256736e+02 4.683438e-186
-2.591224e+00 2.821568e+02 1.588206e-161
-1.052305e+00 -1.230793e+03 0.000000e+00
-1.032500e+00 -1.231366e+03 0.000000e+00
-1.022743e+00 -1.231379e+03 0.000000e+00
-1.042354e+00 -1.231073e+03 0.000000e+00
-1.238654e+00 -6.243966e+02 0.000000e+00
-1.214841e+00 -7.450674e+02 0.000000e+00
-6.952995e-01 -3.002500e+03 0.000000e+00
-7.044155e-01 -3.002474e+03 0.000000e+00
-1.675773e+00 -2.180072e+01 1.562547e-293
-1.683203e+00 -1.902002e+01 2.520437e-292
-2.421544e+00 2.330035e+02 7.143317e-183
-2.186225e+00 1.893262e+02 7.675197e-202
-1.760716e+00 1.142674e+01 4.210520e-279
-1.785192e+00 1.982649e+01 1.871978e-275
-1.705833e+00 -6.972107e+00 4.303462e-287
-1.768808e+00 1.568355e+01 2.971973e-277
-1.570468e+00 -7.252741e+01 1.457175e-315
-1.563827e+00 -7.685354e+01 1.926182e-317
-1.544164e+00 -1.197258e+02 0.000000e+00
-1.611269e+00 -5.111474e+01 2.903462e-306
-1.597483e+00 -5.332456e+01 3.185690e-307
-1.583884e+00 -6.522546e+01 2.161266e-312
-1.226676e+00 -6.817402e+02 0.000000e+00
-2.126381e+00 1.538365e+02 2.965573e-217
-3.024102e+00 4.157313e+02 1.627703e-103
-3.082812e+00 4.234420e+02 3.633203e-100
-4.748314e+00 5.146699e+02 5.215256e-62
-6.027175e+00 5.569414e+02 8.357727e-44
-6.013372e+00 5.569372e+02 8.322699e-44
-5.101355e+00 5.359040e+02 8.692167e-53
-4.165171e+00 4.862372e+02 2.386180e-74
-4.263972e+00 4.909611e+02 2.686995e-72
-4.414271e+00 4.969626e+02 1.064371e-69
-4.418223e+00 4.973043e+02 1.497929e-69
-4.505039e+00 5.014246e+02 9.223907e-68
-4.492166e+00 5.011355e+02 6.908128e-68
-4.398618e+00 4.967609e+02 8.699529e-70
-4.353076e+00 4.955064e+02 2.481266e-70
-4.558257e+00 5.048740e+02 2.903824e-66
-4.422191e+00 4.974346e+02 1.706396e-69
-4.410335e+00 4.969316e+02 1.031881e-69
-4.466906e+00 4.990846e+02 8.885171e-69
-3.992974e+00 4.792650e+02 3.696201e-77
-4.236656e+00 4.897536e+02 8.032604e-73
-4.233294e+00 4.897522e+02 8.021366e-73
-4.430173e+00 4.976437e+02 2.103250e-69
-4.442268e+00 4.979032e+02 2.726405e-69
-4.383206e+00 4.965210e+02 6.843976e-70
-4.267439e+00 4.911890e+02 3.374758e-72
-4.674026e+00 5.127388e+02 7.561527e-63
-4.896477e+00 5.237009e+02 4.359022e-58
-5.411391e+00 5.433771e+02 1.529869e-49
-5.443988e+00 5.444589e+02 4.513089e-49
-4.753837e+00 5.148106e+02 6.003173e-62
-4.759392e+00 5.148141e+02 6.024221e-62
-5.532895e+00 5.464277e+02 2.270107e-48
-5.070475e+00 5.336768e+02 9.372758e-54
-8.120376e+00 5.940819e+02 2.551133e-28
-7.934642e+00 5.918648e+02 2.778809e-29
-7.833946e+00 5.910477e+02 1.227430e-29
-7.814969e+00 5.909415e+02 1.103760e-29
-1.096246e+01 6.405885e+02 4.139946e-09
-9.346524e+00 6.197452e+02 5.048609e-18
-9.612964e+00 6.269619e+02 6.876140e-15
-1.068832e+01 6.381952e+02 3.780922e-10
-1.065464e+01 6.380556e+02 3.288291e-10
-9.932030e+00 6.330338e+02 2.980831e-12
-9.910162e+00 6.330337e+02 2.980533e-12
-1.002462e+01 6.334020e+02 4.307692e-12
-1.072317e+01 6.386782e+02 6.128609e-10
-1.032001e+01 6.360968e+02 4.637396e-11
-1.059050e+01 6.375916e+02 2.067557e-10
-1.198030e+01 6.470862e+02 1.543016e-07
-1.154266e+01 6.431414e+02 3.511329e-09
-1.159560e+01 6.437101e+02 5.274104e-09
-1.156415e+01 6.433846e+02 4.478081e-09
-1.204539e+01 6.478942e+02 3.461627e-07
-1.181303e+01 6.454747e+02 3.079674e-08
-1.184922e+01 6.457661e+02 4.121527e-08
-1.187410e+01 6.459593e+02 4.999929e-08
-1.189961e+01 6.461561e+02 6.087417e-08
-1.193914e+01 6.466120e+02 9.603463e-08
-1.194588e+01 6.466336e+02 9.813155e-08
-1.195267e+01 6.466547e+02 1.002241e-07
-1.236311e+01 6.506525e+02 5.689216e-06
-1.304074e+01 6.545617e+02 2.836589e-04
-1.312878e+01 6.546309e+02 3.039832e-04
-1.284954e+01 6.539663e+02 1.563931e-04
-1.286710e+01 6.539788e+02 1.583602e-04
-1.355211e+01 6.568667e+02 2.843447e-03
-1.333222e+01 6.558567e+02 1.035637e-03
-1.256387e+01 6.519213e+02 2.023416e-05
-1.327735e+01 6.554499e+02 6.895039e-04
-1.186782e+01 6.458643e+02 4.546800e-08
-1.193244e+01 6.463245e+02 7.203909e-08
-1.191261e+01 6.462236e+02 6.512503e-08
-1.213936e+01 6.495836e+02 1.874897e-06
-1.203056e+01 6.477712e+02 3.060991e-07
-1.232120e+01 6.504536e+02 4.663062e-06
-1.170637e+01 6.445205e+02 1.186044e-08
-1.175548e+01 6.448505e+02 1.649750e-08
-1.179542e+01 6.452473e+02 2.453275e-08
-1.168530e+01 6.443967e+02 1.047937e-08
-1.170106e+01 6.444714e+02 1.129216e-08
-1.200871e+01 6.474376e+02 2.192711e-07
-1.200153e+01 6.474231e+02 2.161146e-07
-1.198732e+01 6.471584e+02 1.658542e-07
-1.195951e+01 6.469462e+02 1.341433e-07
-1.210704e+01 6.493262e+02 1.449406e-06
-1.214760e+01 6.496368e+02 1.977342e-06
-1.105689e+01 6.407280e+02 4.759691e-09
-1.192579e+01 6.462895e+02 6.956134e-08
-1.191918e+01 6.462889e+02 6.951961e-08
-1.190609e+01 6.461944e+02 6.325087e-08
-1.189317e+01 6.460341e+02 5.388267e-08
-1.174990e+01 6.448304e+02 1.616921e-08
-1.188042e+01 6.459710e+02 5.058772e-08
-1.188677e+01 6.459768e+02 5.088198e-08
-1.182495e+01 6.455324e+02 3.262598e-08
-1.260389e+01 6.523677e+02 3.161945e-05
-1.259037e+01 6.523515e+02 3.111134e-05
-1.155873e+01 6.433513e+02 4.331416e-09
-1.159084e+01 6.436054e+02 4.749830e-09
-1.161972e+01 6.439843e+02 6.937968e-09
-1.161485e+01 6.439771e+02 6.888194e-09
-1.137735e+01 6.424856e+02 7.470901e-09
-1.116118e+01 6.411438e+02 7.213705e-09
-nan 6.424597e+02 1.338766e-08
-1.018705e+01 6.353929e+02 2.293899e-11
-9.807470e+00 6.314762e+02 6.278853e-13
-1.083568e+01 6.392321e+02 1.066394e-09
-1.062206e+01 6.376773e+02 2.252561e-10
-1.025132e+01 6.359213e+02 3.890948e-11
-9.679399e+00 6.288206e+02 4.411313e-14
-9.450201e+00 6.220611e+02 5.116280e-17
-9.436638e+00 6.220608e+02 5.114746e-17
-9.645630e+00 6.274946e+02 1.171368e-14
-8.000317e+00 5.930256e+02 8.871310e-29
-7.893140e+00 5.913321e+02 1.631211e-29
-7.873017e+00 5.913266e+02 1.622264e-29
-8.348659e+00 5.998828e+02 8.433967e-26
-8.381239e+00 5.998936e+02 8.525547e-26
-8.921153e+00 6.118658e+02 4.641271e-21
-9.581332e+00 6.245556e+02 6.198719e-16
-9.565883e+00 6.245143e+02 5.947926e-16
-9.597023e+00 6.268011e+02 5.854775e-15
-8.577283e+00 6.062998e+02 1.775635e-23
-8.563522e+00 6.059865e+02 1.298044e-23
-8.591236e+00 6.064592e+02 2.082478e-23
-9.252593e+00 6.173546e+02 4.623250e-19
-9.146372e+00 6.160615e+02 1.268706e-19
-8.977869e+00 6.128659e+02 1.149090e-20
-1.014639e+01 6.349692e+02 1.501633e-11
-1.053024e+01 6.374137e+02 1.730599e-10
-1.020802e+01 6.358042e+02 3.460984e-11
-1.041961e+01 6.371617e+02 1.345099e-10
-1.016652e+01 6.352990e+02 2.088305e-11
-9.732291e+00 6.304712e+02 2.298340e-13
-1.007434e+01 6.339361e+02 7.348544e-12
-1.027370e+01 6.359465e+02 3.990246e-11
-1.039376e+01 6.369288e+02 1.065632e-10
-1.036857e+01 6.369155e+02 1.051553e-10
-1.034399e+01 6.361007e+02 4.655517e-11
-1.022944e+01 6.358176e+02 3.507673e-11
-9.068838e+00 6.138063e+02 1.330271e-20
-9.177071e+00 6.163613e+02 1.712232e-19
-9.166733e+00 6.163613e+02 1.712232e-19
-9.187517e+00 6.164037e+02 1.786392e-19
-9.078207e+00 6.139158e+02 1.484210e-20
-9.087665e+00 6.139158e+02 1.484210e-20
-9.156501e+00 6.162756e+02 1.571606e-19
-9.106854e+00 6.147079e+02 3.277179e-20
-8.649081e+00 6.066931e+02 2.631248e-23
-8.792937e+00 6.093587e+02 3.782833e-22
-7.913676e+00 5.918188e+02 2.653879e-29
-7.577882e+00 5.881119e+02 1.231817e-30
-7.696825e+00 5.901698e+02 9.644528e-30
-7.665737e+00 5.901579e+02 9.530438e-30
-8.485877e+00 6.033381e+02 2.670851e-24
-7.977943e+00 5.927968e+02 7.057017e-29
-8.449768e+00 6.025631e+02 1.230471e-24
-8.317107e+00 5.990046e+02 3.504568e-26
-6.998471e+00 5.774003e+02 2.745096e-35
-7.207309e+00 5.823984e+02 4.066351e-33
-7.267125e+00 5.827273e+02 5.649946e-33
-7.398693e+00 5.854379e+02 8.496556e-32
-7.014302e+00 5.779325e+02 4.674004e-35
-7.097448e+00 5.814111e+02 1.515046e-33
-7.046735e+00 5.781454e+02 5.782963e-35
-7.309086e+00 5.838502e+02 1.736655e-32
-4.699928e+00 5.136076e+02 1.802705e-62
-4.658800e+00 5.116975e+02 2.669185e-63
-4.535738e+00 5.029201e+02 4.115308e-67
-3.800134e+00 4.633440e+02 1.619269e-83
-5.698483e+00 5.503813e+02 1.183240e-46
-4.309519e+00 4.920038e+02 7.473318e-72
-4.531294e+00 5.028829e+02 3.965031e-67
-4.526870e+00 5.028820e+02 3.961464e-67
-4.226602e+00 4.896001e+02 6.889570e-73
-4.158919e+00 4.860934e+02 2.066577e-74
-4.171463e+00 4.865698e+02 3.327741e-74
-4.406414e+00 4.968684e+02 9.686846e-70
-4.471072e+00 4.991696e+02 9.673438e-69
-4.338345e+00 4.946513e+02 1.055135e-70
-4.368027e+00 4.959687e+02 3.939559e-70
-4.270919e+00 4.912193e+02 3.478578e-72
-4.434189e+00 4.977354e+02 2.305238e-69
-4.184166e+00 4.874276e+02 7.846706e-74
-6.838944e+00 5.754183e+02 8.841051e-36
-6.055365e+00 5.570242e+02 9.079204e-44
-4.877494e+00 5.229999e+02 2.162463e-58
-5.339226e+00 5.410151e+02 1.441619e-50
-5.688528e+00 5.502820e+02 1.071390e-46
-5.576209e+00 5.478568e+02 9.477560e-48
-5.500794e+00 5.460883e+02 2.302043e-48
-5.567395e+00 5.472986e+02 5.423422e-48
-5.433004e+00 5.440680e+02 3.052869e-49
-5.512553e+00 5.462093e+02 2.598143e-48
-5.594075e+00 5.479925e+02 1.085501e-47
-5.678671e+00 5.499580e+02 7.748830e-47
-4.614467e+00 5.074004e+02 3.632218e-65
-4.840576e+00 5.201898e+02 1.301780e-59
-4.033017e+00 4.820488e+02 5.980597e-76
-4.364269e+00 4.959248e+02 3.770354e-70
-4.356793e+00 4.958038e+02 3.340661e-70
-4.643803e+00 5.096837e+02 3.562841e-64
-4.793381e+00 5.174438e+02 8.355358e-61
-4.595377e+00 5.060924e+02 9.820072e-66
-4.770594e+00 5.156681e+02 1.415104e-61
-4.776242e+00 5.162462e+02 2.522633e-61
-4.731924e+00 5.139918e+02 2.647162e-62
-4.345684e+00 4.950285e+02 1.538594e-70
-4.402508e+00 4.967910e+02 8.965365e-70
-5.109227e+00 5.363706e+02 1.386021e-52
-4.942224e+00 5.273132e+02 1.615069e-56
-5.117161e+00 5.365803e+02 1.709391e-52
-5.921747e+00 5.557278e+02 2.483296e-44
-5.872928e+00 5.545208e+02 7.427369e-45
-5.815076e+00 5.539532e+02 4.210459e-45
-5.803897e+00 5.537138e+02 3.314052e-45
-5.792841e+00 5.536108e+02 2.989696e-45
-8.146219e+00 5.946111e+02 4.330736e-28
-8.664080e+00 6.071275e+02 4.062743e-23
-8.046625e+00 5.931884e+02 1.043977e-28
-8.070610e+00 5.932214e+02 1.079003e-28
-7.853291e+00 5.911653e+02 1.380606e-29
-8.200001e+00 5.953153e+02 8.757736e-28
-8.095183e+00 5.938592e+02 2.041812e-28
-8.172749e+00 5.952692e+02 8.363169e-28
-8.759133e+00 6.086394e+02 1.842592e-22
-8.634303e+00 6.066618e+02 2.550166e-23
-8.605387e+00 6.066287e+02 2.467137e-23
-8.619740e+00 6.066305e+02 2.471582e-23
-8.549948e+00 6.050545e+02 5.111247e-24
-8.694771e+00 6.073168e+02 4.909432e-23
-8.726435e+00 6.076804e+02 7.062212e-23
-9.750563e+00 6.305280e+02 2.432665e-13
-9.714348e+00 6.294816e+02 8.543514e-14
-9.888763e+00 6.325228e+02 1.788187e-12
-9.867811e+00 6.318218e+02 8.870998e-13
-9.847290e+00 6.318200e+02 8.855045e-13
-9.827182e+00 6.317779e+02 8.489986e-13
-9.769174e+00 6.310376e+02 4.049475e-13
-9.550670e+00 6.243652e+02 5.124037e-16
-9.535684e+00 6.241137e+02 3.984623e-16
-9.520920e+00 6.237062e+02 2.651015e-16
-9.263863e+00 6.178100e+02 7.289959e-19
-9.358911e+00 6.198084e+02 5.377980e-18
-9.334288e+00 6.190909e+02 2.624296e-18
-9.286791e+00 6.179087e+02 8.046183e-19
-8.882812e+00 6.103007e+02 9.703370e-22
-9.041245e+00 6.130358e+02 6.156251e-21
-9.977254e+00 6.331108e+02 3.219423e-12
-9.954386e+00 6.330736e+02 3.101861e-12
-1.075929e+01 6.389270e+02 7.859852e-10
-1.100856e+01 6.406673e+02 4.479371e-09
-1.047339e+01 6.372322e+02 1.443351e-10
-1.044614e+01 6.372284e+02 1.437877e-10
-1.050141e+01 6.372601e+02 1.484188e-10
-1.091839e+01 6.403468e+02 3.251065e-09
-1.079675e+01 6.389838e+02 8.319214e-10
-1.087618e+01 6.401462e+02 2.660151e-09
-1.110768e+01 6.409172e+02 5.751052e-09
-1.221612e+01 6.500006e+02 2.844973e-06
-1.213118e+01 6.495829e+02 1.873585e-06
-1.212307e+01 6.495232e+02 1.765005e-06
-1.233151e+01 6.504752e+02 4.764880e-06
-1.205290e+01 6.480868e+02 4.196869e-07
-1.206807e+01 6.483351e+02 5.379733e-07
-1.227117e+01 6.503368e+02 4.149021e-06
-1.163447e+01 6.440211e+02 7.198041e-09
-1.177240e+01 6.450110e+02 1.936968e-08
-1.177810e+01 6.450633e+02 2.040967e-08
-1.153736e+01 6.431095e+02 3.401085e-09
-1.322534e+01 6.549929e+02 4.365803e-04
-1.216429e+01 6.497030e+02 2.112672e-06
-1.171708e+01 6.446957e+02 1.413154e-08
-1.173336e+01 6.447514e+02 1.494100e-08
-1.165449e+01 6.442924e+02 9.441444e-09
-1.154799e+01 6.431928e+02 3.696530e-09
-1.162953e+01 6.440174e+02 7.171457e-09
-1.181897e+01 6.455289e+02 3.251199e-08
-1.264559e+01 6.528210e+02 4.975308e-05
-1.261760e+01 6.524613e+02 3.472196e-05
-1.281533e+01 6.535580e+02 1.039669e-04
-1.245259e+01 6.508772e+02 7.122597e-06
-1.242946e+01 6.508353e+02 6.830326e-06
-1.244096e+01 6.508409e+02 6.868683e-06
-1.255087e+01 6.517858e+02 1.767007e-05
-1.325100e+01 6.552639e+02 5.724769e-04
-1.224307e+01 6.500472e+02 2.980686e-06
-1.238474e+01 6.507028e+02 5.982703e-06
-1.196639e+01 6.469992e+02 1.414447e-07
-1.203795e+01 6.478211e+02 3.217610e-07
-1.197332e+01 6.470525e+02 1.491882e-07
-1.207574e+01 6.483361e+02 5.385115e-07
-1.206045e+01 6.482856e+02 5.119919e-07
-1.199440e+01 6.473891e+02 2.088902e-07
-1.257703e+01 6.520899e+02 2.395010e-05
-1.218987e+01 6.498174e+02 2.368729e-06
-1.229088e+01 6.503881e+02 4.367420e-06
-1.271919e+01 6.530957e+02 6.548181e-05
-1.273459e+01 6.532103e+02 7.343292e-05
-1.345190e+01 6.563120e+02 1.632834e-03
-1.241809e+01 6.507852e+02 6.496557e-06
-1.209913e+01 6.491238e+02 1.183828e-06
-1.251288e+01 6.513519e+02 1.144980e-05
-1.211503e+01 6.495027e+02 1.729191e-06
-1.215591e+01 6.496377e+02 1.979123e-06
-1.208348e+01 6.483611e+02 5.521440e-07
-1.169052e+01 6.444051e+02 1.056777e-08
-1.247627e+01 6.513074e+02 1.095146e-05
-1.228098e+01 6.503617e+02 4.253629e-06
-1.217275e+01 6.497069e+02 2.120928e-06
-1.219854e+01 6.498178e+02 2.369677e-06
-1.358788e+01 6.569205e+02 3.000615e-03
-1.240685e+01 6.507381e+02 6.197664e-06
-1.160517e+01 6.438534e+02 6.086717e-09
-1.246436e+01 6.510891e+02 8.803703e-06
-1.295982e+01 6.542551e+02 2.087573e-04
-1.372767e+01 6.586349e+02 8.789782e-03
-1.375001e+01 6.586402e+02 8.836492e-03
-1.389565e+01 6.592554e+02 1.634774e-02
-1.403567e+01 6.596778e+02 2.494042e-02
-1.406619e+01 6.597920e+02 2.795762e-02
-1.442088e+01 6.620471e+02 1.252136e-01
-1.467999e+01 6.625465e+02 2.063185e-01
-1.397729e+01 6.595279e+02 2.146857e-02
-1.394933e+01 6.593862e+02 1.863218e-02
-1.434115e+01 6.618407e+02 1.018622e-01
-1.582729e+01 6.639998e+02 1.677803e-01
-1.651876e+01 6.653747e+02 6.635175e-01
-1.648712e+01 6.653583e+02 6.527246e-01
-1.655144e+01 6.654313e+02 7.021558e-01
-1.669400e+01 6.656409e+02 8.658877e-01
-1.662018e+01 6.655065e+02 7.569940e-01
-1.686033e+01 6.657572e+02 9.726801e-01
-1.681608e+01 6.656993e+02 9.179613e-01
-1.610374e+01 6.646738e+02 3.291966e-01
-1.614713e+01 6.646740e+02 3.292625e-01
-1.612520e+01 6.646740e+02 3.292625e-01
-1.594688e+01 6.644282e+02 2.575092e-01
-1.465346e+01 6.624323e+02 1.840525e-01
-1.557538e+01 6.639191e+02 8.140496e-01
-1.551162e+01 6.639191e+02 8.140496e-01
-1.470725e+01 6.625468e+02 2.063804e-01
-1.495706e+01 6.630947e+02 3.569591e-01
-1.479378e+01 6.628031e+02 2.666725e-01
-1.473527e+01 6.625592e+02 2.089555e-01
-1.482438e+01 6.628963e+02 2.927214e-01
-1.448516e+01 6.621348e+02 1.366908e-01
-1.409767e+01 6.602573e+02 4.452229e-02
-1.438022e+01 6.619740e+02 1.163871e-01
-1.476410e+01 6.626037e+02 2.184640e-01
-1.450754e+01 6.621910e+02 1.445928e-01
-1.460242e+01 6.623724e+02 1.733515e-01
-1.446327e+01 6.621216e+02 1.348983e-01
-1.457784e+01 6.623483e+02 1.692237e-01
-1.511009e+01 6.633404e+02 4.563779e-01
-1.506958e+01 6.633260e+02 4.498532e-01
-1.432217e+01 6.618168e+02 9.945659e-02
-1.515230e+01 6.634296e+02 4.989577e-01
-1.339027e+01 6.562132e+02 1.479223e-03
-1.342061e+01 6.562475e+02 1.530841e-03
-1.348420e+01 6.564356e+02 1.847655e-03
-1.301989e+01 6.545274e+02 2.740944e-04
-1.299946e+01 6.543656e+02 2.331478e-04
-1.297945e+01 6.543275e+02 2.244319e-04
-1.315206e+01 6.546363e+02 3.056291e-04
-1.290316e+01 6.540891e+02 1.768271e-04
-1.288497e+01 6.540849e+02 1.760860e-04
-1.336082e+01 6.558788e+02 1.058780e-03
-1.209127e+01 6.486152e+02 7.118797e-07
-1.237386e+01 6.506774e+02 5.832656e-06
-1.239573e+01 6.507224e+02 6.101120e-06
-1.235246e+01 6.505590e+02 5.181385e-06
-1.230088e+01 6.504289e+02 4.549296e-06
-1.231099e+01 6.504289e+02 4.549296e-06
-1.222502e+01 6.500154e+02 2.887392e-06
-1.267439e+01 6.528522e+02 5.132985e-05
-1.275022e+01 6.533866e+02 8.759049e-05
-1.283229e+01 6.536167e+02 1.102524e-04
-1.306204e+01 6.545756e+02 2.876293e-04
-1.268910e+01 6.529774e+02 5.817597e-05
-1.270403e+01 6.530942e+02 6.538366e-05
-1.248832e+01 6.513191e+02 1.108034e-05
-1.330441e+01 6.556559e+02 8.472302e-04
-1.172790e+01 6.447378e+02 1.473917e-08
-1.202322e+01 6.476339e+02 2.668292e-07
-1.201594e+01 6.474498e+02 2.219626e-07
-1.164945e+01 6.442914e+02 9.432007e-09
-1.164443e+01 6.441928e+02 8.546389e-09
-1.169578e+01 6.444304e+02 1.083855e-08
-1.140875e+01 6.425941e+02 5.609659e-09
-1.143476e+01 6.426355e+02 5.846773e-09
-1.416377e+01 6.610396e+02 9.734778e-02
-1.413017e+01 6.609141e+02 8.586617e-02
-1.392213e+01 6.593429e+02 1.784262e-02
-1.379624e+01 6.590835e+02 1.376584e-02
-1.370582e+01 6.586247e+02 8.700582e-03
-1.377285e+01 6.588040e+02 1.040920e-02
-1.386986e+01 6.592302e+02 1.594093e-02
-1.351758e+01 6.564712e+02 1.914616e-03
-1.320031e+01 6.549343e+02 4.117319e-04
-1.294058e+01 6.542057e+02 1.986953e-04
-1.310604e+01 6.546306e+02 3.038920e-04
-1.308379e+01 6.545924e+02 2.925023e-04
-1.317590e+01 6.548661e+02 3.845879e-04
-1.234193e+01 6.504798e+02 4.786849e-06
-1.250053e+01 6.513214e+02 1.110585e-05
-1.252538e+01 6.514791e+02 1.300290e-05
-1.263150e+01 6.526694e+02 4.275441e-05
-1.167492e+01 6.443546e+02 1.004735e-08
-1.166978e+01 6.443157e+02 9.664012e-09
-1.436049e+01 6.619690e+02 1.158066e-01
-1.440035e+01 6.620196e+02 1.218172e-01
-1.430354e+01 6.617285e+02 9.105114e-02
-1.444185e+01 6.621078e+02 1.330495e-01
-1.462761e+01 6.623815e+02 1.749362e-01
-1.673306e+01 6.656422e+02 8.670141e-01
-1.578012e+01 6.639946e+02 1.669101e-01
-1.579560e+01 6.639955e+02 1.670604e-01
-1.658522e+01 6.654566e+02 7.201469e-01
-1.665641e+01 6.655535e+02 7.934220e-01
-1.690663e+01 6.657849e+02 1.000000e+00
-1.642668e+01 6.652494e+02 5.853765e-01
-1.587681e+01 6.642804e+02 2.221283e-01
-1.581132e+01 6.639958e+02 1.671105e-01
-1.586003e+01 6.642088e+02 2.067800e-01
-1.896794e+01 6.670165e+02 9.471535e-02
-1.839745e+01 6.667486e+02 1.021739e-01
-1.707436e+01 6.658519e+02 6.038889e-01
-1.704321e+01 6.658500e+02 6.027426e-01
-1.887938e+01 6.669843e+02 9.171409e-02
-1.871944e+01 6.669240e+02 1.043450e-01
-1.869076e+01 6.669017e+02 1.020438e-01
-1.868138e+01 6.668986e+02 1.017280e-01
-1.953805e+01 6.673316e+02 9.727996e-02
-1.850105e+01 6.668001e+02 1.075737e-01
-1.856683e+01 6.668393e+02 9.587089e-02
-1.864472e+01 6.668788e+02 9.973358e-02
-1.907652e+01 6.670797e+02 1.008946e-01
-1.898873e+01 6.670170e+02 9.476272e-02
-1.880674e+01 6.669514e+02 8.874580e-02
-2.016461e+01 6.675487e+02 4.694011e-02
-1.959414e+01 6.673566e+02 9.974262e-02
-1.955178e+01 6.673409e+02 9.818889e-02
-1.916646e+01 6.671272e+02 7.929642e-02
-1.886072e+01 6.669750e+02 9.086511e-02
-1.860935e+01 6.668650e+02 9.836671e-02
-1.860070e+01 6.668650e+02 9.836671e-02
-1.788692e+01 6.664018e+02 2.607869e-01
-1.891777e+01 6.670061e+02 9.373541e-02
-1.884240e+01 6.669575e+02 8.928880e-02
-1.830433e+01 6.666810e+02 9.230674e-02
-1.996544e+01 6.674618e+02 1.187614e-01
-2.015475e+01 6.675340e+02 4.625514e-02
-2.025803e+01 6.675749e+02 4.818619e-02
-2.037323e+01 6.675954e+02 4.918421e-02
-2.036109e+01 6.675954e+02 4.918421e-02
-2.034910e+01 6.675901e+02 4.892422e-02
-2.033726e+01 6.675899e+02 4.891444e-02
-2.032555e+01 6.675884e+02 4.884112e-02
-2.020506e+01 6.675670e+02 4.780702e-02
-2.041054e+01 6.676106e+02 4.993752e-02
-2.031397e+01 6.675873e+02 4.878742e-02
-2.038551e+01 6.675996e+02 4.939121e-02
-1.973320e+01 6.674042e+02 1.046052e-01
-2.072040e+01 6.677601e+02 4.292390e-02
-2.113995e+01 6.678219e+02 2.319305e-02
-2.134554e+01 6.678440e+02 2.024318e-02
-2.146656e+01 6.678590e+02 2.054912e-02
-2.163699e+01 6.678919e+02 1.613722e-02
-2.430069e+01 6.683010e+02 4.846710e-03
-2.150860e+01 6.678666e+02 1.573407e-02
-2.093753e+01 6.678008e+02 3.499329e-02
-2.097555e+01 6.678040e+02 3.510544e-02
-2.067052e+01 6.677197e+02 4.122434e-02
-2.068276e+01 6.677264e+02 4.150147e-02
-2.427096e+01 6.682958e+02 4.821572e-03
-2.286766e+01 6.681463e+02 1.235058e-02
-2.298088e+01 6.681600e+02 1.252095e-02
-2.157568e+01 6.678797e+02 1.594154e-02
-2.293404e+01 6.681572e+02 1.248594e-02
-2.313620e+01 6.681854e+02 1.284305e-02
-2.316460e+01 6.681886e+02 1.288422e-02
-2.342661e+01 6.682260e+02 1.337521e-02
-2.335440e+01 6.682116e+02 1.318399e-02
-2.416019e+01 6.682810e+02 4.750738e-03
-2.536709e+01 6.683959e+02 2.217082e-03
-2.500419e+01 6.683814e+02 2.185166e-03
-2.516927e+01 6.683885e+02 2.200736e-03
-2.497914e+01 6.683802e+02 2.182546e-03
-2.495471e+01 6.683797e+02 2.181455e-03
-2.594057e+01 6.684354e+02 6.488008e-04
-2.595893e+01 6.684357e+02 6.489954e-04
-2.463288e+01 6.683451e+02 2.277678e-03
-1.970058e+01 6.673983e+02 1.039898e-01
-1.994327e+01 6.674592e+02 1.184530e-01
-2.043622e+01 6.676346e+02 5.115052e-02
-1.934067e+01 6.671862e+02 8.411568e-02
-1.937483e+01 6.671976e+02 8.508009e-02
-1.911154e+01 6.670960e+02 1.025526e-01
-1.923456e+01 6.671687e+02 8.265646e-02
-1.895770e+01 6.670149e+02 9.456393e-02
-1.741971e+01 6.660317e+02 2.328085e-01
-1.927566e+01 6.671786e+02 8.347883e-02
-1.801555e+01 6.664695e+02 1.666442e-01
-1.802769e+01 6.664727e+02 1.671783e-01
-1.770836e+01 6.662696e+02 2.284925e-01
-1.823702e+01 6.666560e+02 1.375590e-01
-1.822675e+01 6.666555e+02 1.374903e-01
-1.825787e+01 6.666583e+02 1.378758e-01
-1.846531e+01 6.667726e+02 1.046557e-01
-1.847413e+01 6.667870e+02 1.061736e-01
-1.885152e+01 6.669676e+02 9.019519e-02
-1.875553e+01 6.669365e+02 8.743329e-02
-1.876389e+01 6.669405e+02 8.778372e-02
-1.883337e+01 6.669568e+02 8.922632e-02
-1.948493e+01 6.673010e+02 9.434828e-02
-1.947208e+01 6.672941e+02 9.369952e-02
-1.963838e+01 6.673769e+02 1.017881e-01
-1.978420e+01 6.674152e+02 1.057622e-01
-1.799169e+01 6.664446e+02 1.625460e-01
-1.807104e+01 6.665801e+02 2.301285e-01
-1.783498e+01 6.663562e+02 2.491620e-01
-1.776967e+01 6.663492e+02 2.474240e-01
-1.810310e+01 6.666322e+02 2.424360e-01
-1.818672e+01 6.666500e+02 1.367362e-01
-1.819658e+01 6.666500e+02 1.367362e-01
-1.820653e+01 6.666500e+02 1.367362e-01
-1.902076e+01 6.670260e+02 9.561943e-02
-1.834941e+01 6.667253e+02 9.982072e-02
-1.834163e+01 6.667253e+02 9.982072e-02
-1.836517e+01 6.667296e+02 1.002509e-01
-1.837314e+01 6.667386e+02 1.011572e-01
-2.005588e+01 6.674873e+02 5.661200e-02
-2.028004e+01 6.675783e+02 4.835031e-02
-2.026897e+01 6.675782e+02 4.834547e-02
-1.974991e+01 6.674080e+02 1.050034e-01
-1.941020e+01 6.672253e+02 8.746975e-02
-1.892761e+01 6.670104e+02 9.413934e-02
-1.918545e+01 6.671346e+02 7.988539e-02
-1.952450e+01 6.673167e+02 9.584124e-02
-1.772334e+01 6.662708e+02 2.287669e-01
-1.769361e+01 6.662444e+02 2.228064e-01
-1.767907e+01 6.662440e+02 2.227173e-01
-1.747902e+01 6.661450e+02 2.607380e-01
-1.746386e+01 6.661450e+02 2.607380e-01
-1.763667e+01 6.662206e+02 2.175663e-01
-1.765060e+01 6.662246e+02 2.184383e-01
-1.749441e+01 6.661693e+02 2.671516e-01
-1.786930e+01 6.663980e+02 2.597978e-01
-1.796066e+01 6.664232e+02 2.664278e-01
-1.821659e+01 6.666524e+02 1.370647e-01
-1.827916e+01 6.666638e+02 1.386362e-01
-1.826846e+01 6.666635e+02 1.385946e-01
-1.951114e+01 6.673166e+02 9.583165e-02
-1.904269e+01 6.670338e+02 9.636818e-02
-1.881554e+01 6.669531e+02 8.889679e-02
-1.882441e+01 6.669566e+02 8.920848e-02
-1.960867e+01 6.673595e+02 1.000323e-01
-1.915710e+01 6.671223e+02 7.890882e-02
-1.919508e+01 6.671412e+02 8.041438e-02
-1.938648e+01 6.671980e+02 8.511413e-02
-1.949795e+01 6.673079e+02 9.500153e-02
-1.879802e+01 6.669455e+02 8.822374e-02
-1.870979e+01 6.669239e+02 1.043345e-01
-1.870023e+01 6.669238e+02 1.043241e-01
-1.877231e+01 6.669408e+02 8.781006e-02
-1.878081e+01 6.669432e+02 8.802106e-02
-1.878938e+01 6.669452e+02 8.819727e-02
-1.888884e+01 6.669889e+02 9.213695e-02
-1.866288e+01 6.668935e+02 1.012105e-01
-2.006735e+01 6.674895e+02 5.673669e-02
-1.976691e+01 6.674129e+02 1.055192e-01
-2.182342e+01 6.679422e+02 1.007043e-02
-1.957982e+01 6.673505e+02 9.913604e-02
-1.956570e+01 6.673465e+02 9.874029e-02
-1.935193e+01 6.671894e+02 8.438528e-02
-1.931853e+01 6.671830e+02 8.384694e-02
-1.925490e+01 6.671757e+02 8.323709e-02
-2.018463e+01 6.675583e+02 4.739291e-02
-2.017457e+01 6.675503e+02 4.701528e-02
-2.047250e+01 6.676533e+02 3.857594e-02
-2.048253e+01 6.676536e+02 3.858752e-02
-2.051324e+01 6.676643e+02 3.900262e-02
-2.050290e+01 6.676621e+02 3.891691e-02
-2.056661e+01 6.676732e+02 3.935129e-02
-2.019479e+01 6.675608e+02 4.751154e-02
-2.021543e+01 6.675676e+02 4.783572e-02
-2.022591e+01 6.675676e+02 4.783572e-02
-nan 6.674979e+02 8.348187e-02
-2.114988e+01 6.678221e+02 2.319769e-02
-2.142084e+01 6.678502e+02 2.036908e-02
-2.108235e+01 6.678127e+02 2.298065e-02
-2.242512e+01 6.680594e+02 1.132262e-02
-2.232073e+01 6.680325e+02 1.102211e-02
-2.255726e+01 6.680724e+02 1.147078e-02
-2.177920e+01 6.679371e+02 1.001920e-02
-2.179372e+01 6.679381e+02 1.002922e-02
-2.178643e+01 6.679378e+02 1.002621e-02
-2.201374e+01 6.679715e+02 1.036985e-02
-2.200467e+01 6.679711e+02 1.036571e-02
-2.252635e+01 6.680678e+02 1.141814e-02
-2.160586e+01 6.678870e+02 1.605834e-02
-2.218211e+01 6.680041e+02 1.071348e-02
-2.205089e+01 6.679796e+02 1.045419e-02
-2.199568e+01 6.679681e+02 1.033466e-02
-2.189364e+01 6.679525e+02 1.017469e-02
-2.204147e+01 6.679787e+02 1.044479e-02
-2.186182e+01 6.679483e+02 1.013204e-02
-2.263899e+01 6.680930e+02 1.170953e-02
-2.237156e+01 6.680452e+02 1.116298e-02
-2.063467e+01 6.676966e+02 4.028297e-02
-2.054492e+01 6.676700e+02 3.922557e-02
-2.064648e+01 6.676977e+02 4.032730e-02
-2.024721e+01 6.675685e+02 4.787879e-02
-2.042330e+01 6.676148e+02 5.014770e-02
-2.090090e+01 6.677919e+02 3.468323e-02
-2.192651e+01 6.679566e+02 1.021649e-02
-2.187761e+01 6.679495e+02 1.014421e-02
-2.219296e+01 6.680140e+02 1.082007e-02
-2.207968e+01 6.679827e+02 1.048665e-02
-2.222622e+01 6.680156e+02 1.083740e-02
-2.220392e+01 6.680147e+02 1.082765e-02
-2.265617e+01 6.680975e+02 1.176234e-02
-2.282573e+01 6.681307e+02 1.215940e-02
-2.221501e+01 6.680153e+02 1.083415e-02
-2.229625e+01 6.680293e+02 1.098689e-02
-2.249636e+01 6.680666e+02 1.140444e-02
-2.513979e+01 6.683862e+02 2.195680e-03
-2.467144e+01 6.683520e+02 2.293448e-03
-2.519964e+01 6.683919e+02 2.208231e-03
-2.547022e+01 6.684050e+02 6.293740e-04
-2.545892e+01 6.684050e+02 6.293740e-04
-2.505624e+01 6.683846e+02 2.192170e-03
-2.511116e+01 6.683861e+02 2.195461e-03
-2.580465e+01 6.684262e+02 6.428592e-04
-2.685821e+01 6.684901e+02 6.852787e-04
-2.471154e+01 6.683559e+02 2.302410e-03
-2.410909e+01 6.682644e+02 4.672527e-03
-2.408449e+01 6.682643e+02 4.672060e-03
-2.406048e+01 6.682634e+02 4.667857e-03
-2.523096e+01 6.683947e+02 2.214423e-03
-2.529671e+01 6.683954e+02 2.215974e-03
-2.526329e+01 6.683953e+02 2.215752e-03
-2.621051e+01 6.684562e+02 6.624371e-04
-2.571361e+01 6.684233e+02 6.409976e-04
-2.665300e+01 6.684762e+02 6.758193e-04
-2.456705e+01 6.683394e+02 1.810360e-03
-2.618695e+01 6.684560e+02 6.623047e-04
-2.651461e+01 6.684649e+02 6.682255e-04
-2.705939e+01 6.685097e+02 6.988427e-04
-2.700517e+01 6.685068e+02 6.968190e-04
-2.681366e+01 6.684867e+02 6.829527e-04
-2.592253e+01 6.684334e+02 6.475045e-04
-2.508332e+01 6.683853e+02 2.193705e-03
-2.639307e+01 6.684611e+02 6.656910e-04
-2.642210e+01 6.684611e+02 6.656910e-04
-2.607683e+01 6.684486e+02 6.574217e-04
-2.601614e+01 6.684458e+02 6.555835e-04
-2.614144e+01 6.684525e+02 6.599907e-04
-2.125638e+01 6.678376e+02 2.011404e-02
-2.128523e+01 6.678399e+02 2.016036e-02
-2.149937e+01 6.678622e+02 1.566499e-02
-2.152731e+01 6.678679e+02 1.575454e-02
-2.151791e+01 6.678678e+02 1.575296e-02
-2.111073e+01 6.678194e+02 2.313514e-02
-2.112038e+01 6.678194e+02 2.313514e-02
-2.091296e+01 6.677965e+02 3.484314e-02
-2.154638e+01 6.678689e+02 1.577030e-02
-2.153680e+01 6.678688e+02 1.576872e-02
-2.206039e+01 6.679816e+02 1.047512e-02
-2.235861e+01 6.680451e+02 1.116186e-02
-2.156581e+01 6.678765e+02 1.589061e-02
-2.004455e+01 6.674860e+02 5.653846e-02
-1.962341e+01 6.673761e+02 1.017067e-01
-1.990037e+01 6.674520e+02 1.176032e-01
-1.992159e+01 6.674522e+02 1.176267e-01
-1.983928e+01 6.674376e+02 1.159218e-01
-1.945940e+01 6.672709e+02 9.155071e-02
-2.325500e+01 6.681948e+02 1.296435e-02
-2.322395e+01 6.681928e+02 1.293844e-02
-2.305553e+01 6.681715e+02 1.266577e-02
-2.234582e+01 6.680397e+02 1.110175e-02
-2.257308e+01 6.680752e+02 1.150294e-02
-2.185402e+01 6.679477e+02 1.012597e-02
-2.254168e+01 6.680701e+02 1.144443e-02
-2.358886e+01 6.682392e+02 1.355293e-02
-2.338985e+01 6.682204e+02 1.330052e-02
-2.377052e+01 6.682459e+02 1.208890e-02
-2.372479e+01 6.682459e+02 1.208890e-02
-2.392177e+01 6.682533e+02 1.217869e-02
-2.386877e+01 6.682507e+02 1.214706e-02
-2.424210e+01 6.682949e+02 4.817235e-03
-2.421405e+01 6.682926e+02 4.806168e-03
-2.484076e+01 6.683664e+02 2.152633e-03
-2.477488e+01 6.683605e+02 2.313026e-03
-2.269145e+01 6.681063e+02 1.186631e-02
-2.274680e+01 6.681082e+02 1.188887e-02
-2.280540e+01 6.681300e+02 1.215090e-02
-2.177201e+01 6.679307e+02 9.955279e-03
-2.164758e+01 6.678934e+02 1.616144e-02
-2.172813e+01 6.679114e+02 2.083615e-02
-2.159570e+01 6.678864e+02 1.604871e-02
-2.070770e+01 6.677597e+02 4.290673e-02
-1.942228e+01 6.672577e+02 9.035018e-02
-1.932954e+01 6.671835e+02 8.388888e-02
-1.922454e+01 6.671621e+02 8.211273e-02
-1.865376e+01 6.668813e+02 9.998322e-02
-1.701299e+01 6.658404e+02 5.969839e-01
-1.710652e+01 6.658552e+02 6.058850e-01
-1.713975e+01 6.658554e+02 6.060062e-01
-1.729690e+01 6.659207e+02 4.219539e-01
-1.732303e+01 6.659571e+02 4.375959e-01
-1.727144e+01 6.659147e+02 4.194297e-01
-1.720971e+01 6.658884e+02 6.263380e-01
-1.743421e+01 6.660985e+02 2.488913e-01
-1.754207e+01 6.661872e+02 2.719767e-01
-1.752593e+01 6.661834e+02 2.709451e-01
-1.751005e+01 6.661811e+02 2.703227e-01
-1.757516e+01 6.662046e+02 2.767505e-01
-1.762293e+01 6.662105e+02 2.153799e-01
-1.766473e+01 6.662291e+02 2.194235e-01
-1.755848e+01 6.661959e+02 2.743532e-01
-1.781825e+01 6.663546e+02 2.487637e-01
-1.831157e+01 6.666968e+02 9.377677e-02
-1.838118e+01 6.667469e+02 1.020003e-01
-1.859213e+01 6.668627e+02 9.814072e-02
-1.862688e+01 6.668757e+02 9.942488e-02
-1.843932e+01 6.667630e+02 1.036558e-01
-1.843080e+01 6.667630e+02 1.036558e-01
-1.840568e+01 6.667608e+02 1.034280e-01
-1.835726e+01 6.667295e+02 1.002408e-01
-1.861808e+01 6.668662e+02 9.848482e-02
-1.855032e+01 6.668389e+02 9.583255e-02
-1.855854e+01 6.668389e+02 9.583255e-02
-1.857519e+01 6.668610e+02 9.797403e-02
-1.858363e+01 6.668610e+02 9.797403e-02
-1.863576e+01 6.668785e+02 9.970366e-02
-1.851809e+01 6.668059e+02 9.272169e-02
-1.853407e+01 6.668189e+02 9.393494e-02
-1.854216e+01 6.668192e+02 9.396312e-02
-1.939827e+01 6.672012e+02 8.538693e-02
-1.930764e+01 6.671827e+02 8.382179e-02
-1.936332e+01 6.671922e+02 8.462189e-02
-1.928621e+01 6.671789e+02 8.350387e-02
-1.921462e+01 6.671587e+02 8.183402e-02
-1.899930e+01 6.670194e+02 9.499042e-02
-1.900997e+01 6.670195e+02 9.499992e-02
-1.903167e+01 6.670322e+02 9.621411e-02
-1.913558e+01 6.671101e+02 1.040089e-01
-1.889839e+01 6.669927e+02 9.248774e-02
-1.890804e+01 6.669928e+02 9.249699e-02
-1.808694e+01 6.666101e+02 2.371369e-01
-1.811952e+01 6.666396e+02 2.442367e-01
-1.849200e+01 6.667995e+02 1.075091e-01
-1.912349e+01 6.671043e+02 1.034074e-01
-1.920480e+01 6.671570e+02 8.169502e-02
-1.867209e+01 6.668944e+02 1.013016e-01
-1.971676e+01 6.674010e+02 1.042710e-01
-2.069515e+01 6.677337e+02 4.180554e-02
-1.602224e+01 6.645433e+02 2.889216e-01
-1.631578e+01 6.651184e+02 5.135027e-01
-1.628987e+01 6.650991e+02 5.036871e-01
-1.572049e+01 6.639535e+02 1.601891e-01
-1.576488e+01 6.639594e+02 1.611371e-01
-1.574986e+01 6.639581e+02 1.609277e-01
-1.573507e+01 6.639564e+02 1.606544e-01
-1.592890e+01 6.643488e+02 2.378536e-01
-1.596519e+01 6.644669e+02 2.676701e-01
-1.598385e+01 6.644669e+02 2.676701e-01
-1.906512e+01 6.670726e+02 1.001808e-01
-1.292170e+01 6.541836e+02 1.943523e-04
-1.276611e+01 6.535119e+02 9.928281e-05
-1.278225e+01 6.535467e+02 1.027987e-04
-1.279865e+01 6.535467e+02 1.027987e-04
-1.362498e+01 6.573451e+02 4.587876e-03
-1.400605e+01 6.596514e+02 2.429061e-02
-1.382018e+01 6.591510e+02 1.472711e-02
-1.384471e+01 6.591541e+02 1.477283e-02
-2.098856e+01 6.678053e+02 3.515111e-02
-1.985923e+01 6.674419e+02 1.164214e-01
-1.987959e+01 6.674444e+02 1.167128e-01
-2.029122e+01 6.675786e+02 4.836481e-02
-2.030253e+01 6.675857e+02 4.870943e-02
-2.039795e+01 6.676075e+02 4.978295e-02
-2.023651e+01 6.675677e+02 4.784050e-02
-2.052369e+01 6.676677e+02 3.913545e-02
-2.014498e+01 6.675285e+02 4.600143e-02
-2.062300e+01 6.676881e+02 3.994202e-02
-2.058879e+01 6.676746e+02 3.940642e-02
-2.060006e+01 6.676746e+02 3.940642e-02
-2.055571e+01 6.676727e+02 3.933162e-02
-2.195189e+01 6.679628e+02 1.028003e-02
-2.346477e+01 6.682318e+02 1.345301e-02
-2.115991e+01 6.678236e+02 2.323251e-02
-2.102789e+01 6.678066e+02 2.284089e-02
-2.131493e+01 6.678410e+02 2.018255e-02
-2.133523e+01 6.678420e+02 2.020274e-02
-2.118028e+01 6.678267e+02 2.330464e-02
-2.113012e+01 6.678209e+02 2.316987e-02
-2.162650e+01 6.678904e+02 1.611303e-02
-2.186968e+01 6.679483e+02 1.013204e-02
-2.303002e+01 6.681634e+02 1.256359e-02
-2.132503e+01 6.678416e+02 2.019466e-02
-2.276596e+01 6.681211e+02 1.204323e-02
-2.121917e+01 6.678329e+02 2.001973e-02
-2.328705e+01 6.681978e+02 1.300330e-02
-2.332016e+01 6.682018e+02 1.305541e-02
-2.381844e+01 6.682494e+02 1.213128e-02
-2.354576e+01 6.682378e+02 1.353397e-02
-2.180846e+01 6.679408e+02 1.005634e-02
-2.145493e+01 6.678528e+02 2.042211e-02
-2.140973e+01 6.678485e+02 2.033448e-02
-2.228423e+01 6.680275e+02 1.096713e-02
-2.238468e+01 6.680515e+02 1.123353e-02
-2.319384e+01 6.681914e+02 1.292034e-02
-2.080024e+01 6.677746e+02 4.355083e-02
-2.095004e+01 6.678016e+02 3.502129e-02
-2.117004e+01 6.678259e+02 2.328600e-02
-2.137712e+01 6.678446e+02 2.025533e-02
-2.138787e+01 6.678446e+02 2.025533e-02
-2.119062e+01 6.678301e+02 2.338401e-02
-2.127552e+01 6.678378e+02 2.011807e-02
-2.126590e+01 6.678378e+02 2.011807e-02
-2.226062e+01 6.680237e+02 1.092554e-02
-2.180106e+01 6.679392e+02 1.004026e-02
-2.144344e+01 6.678509e+02 2.038335e-02
-2.135596e+01 6.678441e+02 2.024521e-02
-2.065842e+01 6.677068e+02 4.069596e-02
-1.943450e+01 6.672642e+02 9.093937e-02
-1.944687e+01 6.672642e+02 9.093937e-02
-1.968466e+01 6.673947e+02 1.036161e-01
-1.966900e+01 6.673940e+02 1.035436e-01
-1.965357e+01 6.673835e+02 1.024621e-01
-1.874725e+01 6.669318e+02 8.702331e-02
-1.929687e+01 6.671818e+02 8.374639e-02
-1.909973e+01 6.670918e+02 1.021228e-01
-1.926523e+01 6.671777e+02 8.340373e-02
-1.924468e+01 6.671718e+02 8.291310e-02
-1.887000e+01 6.669767e+02 9.101971e-02
-1.894757e+01 6.670125e+02 9.433724e-02
-1.893754e+01 6.670123e+02 9.431838e-02
-1.908806e+01 6.670878e+02 1.017151e-01
-1.848302e+01 6.667935e+02 1.068660e-01
-1.852605e+01 6.668076e+02 9.287945e-02
-1.842236e+01 6.667625e+02 1.036040e-01
-1.805539e+01 6.665586e+02 2.252335e-01
-1.841399e+01 6.667618e+02 1.035315e-01
-1.778560e+01 6.663538e+02 2.485648e-01
-1.905384e+01 6.670548e+02 9.841331e-02
-2.077291e+01 6.677675e+02 4.324272e-02
-2.081418e+01 6.677747e+02 4.355519e-02
-2.092517e+01 6.677979e+02 3.489195e-02
-2.061147e+01 6.676775e+02 3.952087e-02
-2.270956e+01 6.681065e+02 1.186868e-02
-2.267365e+01 6.681035e+02 1.183313e-02
-2.161613e+01 6.678872e+02 1.606155e-02
-2.158564e+01 6.678861e+02 1.604389e-02
