-2.268572e-01 -1.200850e+04 0.000000e+00
-3.291767e-01 -7.813958e+03 0.000000e+00
-3.465086e+00 2.722850e+02 4.703644e-164
-9.736938e-01 -9.157324e+02 0.000000e+00
-9.805141e-01 -9.092610e+02 0.000000e+00
-1.324152e+00 -2.888112e+02 0.000000e+00
-1.327833e+00 -2.883984e+02 0.000000e+00
-1.316832e+00 -2.890673e+02 0.000000e+00
-1.320486e+00 -2.890235e+02 0.000000e+00
-1.748403e+00 1.880888e+01 5.106969e-274
-1.740713e+00 1.247731e+01 9.086514e-277
-2.047627e+00 9.755328e+01 8.061607e-240
-2.194063e+00 1.265104e+02 2.308501e-227
-2.189491e+00 1.261235e+02 1.567839e-227
-4.175014e+00 3.726412e+02 5.437864e-121
-5.076857e+00 4.842329e+02 2.229305e-73
-3.967884e+00 3.508842e+02 1.934120e-130
-5.100531e+00 4.848181e+02 2.927566e-73
-5.006412e+00 4.783076e+02 5.954487e-76
-4.545297e+00 4.269451e+02 5.255511e-98
-4.441367e+00 4.093187e+02 1.162965e-105
-5.032667e+00 4.812054e+02 1.079799e-74
-5.035998e+00 4.812758e+02 1.158557e-74
-5.273442e+00 4.968304e+02 4.823722e-68
-4.444663e+00 4.096261e+02 1.581499e-105
-8.667045e+00 5.992804e+02 1.302802e-24
-9.932155e+00 6.244601e+02 2.088475e-13
-1.033923e+01 6.247481e+02 9.788257e-14
-7.857248e+00 5.911149e+02 3.831407e-27
-7.821142e+00 5.909852e+02 3.365351e-27
-7.752619e+00 5.893675e+02 6.675321e-28
-1.078765e+01 6.275370e+02 1.591876e-12
-5.851166e+00 5.279737e+02 1.450386e-54
-5.876205e+00 5.300914e+02 1.205560e-53
-5.576174e+00 5.133438e+02 6.423899e-61
-5.482983e+00 5.089422e+02 7.874231e-63
-5.532081e+00 5.114319e+02 9.494478e-62
-9.523010e+00 6.121478e+02 5.048000e-19
-9.289355e+00 6.081258e+02 9.044550e-21
-9.304350e+00 6.083626e+02 1.146114e-20
-8.259068e+00 5.946144e+02 1.268154e-25
-9.561337e+00 6.125623e+02 7.640722e-19
-9.541990e+00 6.124000e+02 6.496036e-19
-9.581065e+00 6.126006e+02 7.939038e-19
-9.433167e+00 6.108541e+02 1.384435e-19
-8.439208e+00 5.964069e+02 7.614558e-25
-9.399374e+00 6.107940e+02 1.303681e-19
-9.382896e+00 6.107592e+02 1.259094e-19
-9.366686e+00 6.107099e+02 1.198526e-19
-9.176861e+00 6.059697e+02 1.047140e-21
-5.678950e+00 5.167108e+02 1.862380e-59
-6.379625e+00 5.563017e+02 2.911908e-42
-6.583660e+00 5.676770e+02 2.537509e-37
-6.636471e+00 5.691601e+02 1.118175e-36
-7.628230e+00 5.879632e+02 1.639051e-28
-1.095306e+00 -6.438721e+02 0.000000e+00
-1.152427e+00 -6.022911e+02 0.000000e+00
-1.158634e+00 -6.017464e+02 0.000000e+00
-1.149338e+00 -6.030983e+02 0.000000e+00
-1.146258e+00 -6.033298e+02 0.000000e+00
-1.140127e+00 -6.040365e+02 0.000000e+00
-1.143188e+00 -6.033322e+02 0.000000e+00
-1.137076e+00 -6.041761e+02 0.000000e+00
-3.704777e+00 3.114803e+02 1.491375e-147
-1.552713e+00 -1.082512e+02 0.000000e+00
-1.438845e+00 -1.961043e+02 0.000000e+00
-1.399960e+00 -2.199429e+02 0.000000e+00
-1.391821e+00 -2.220095e+02 0.000000e+00
-1.046824e+00 -7.778315e+02 0.000000e+00
-1.083685e+00 -6.830170e+02 0.000000e+00
-5.731716e-01 -3.895151e+03 0.000000e+00
-3.626630e+00 2.992687e+02 7.415774e-153
-5.178380e-01 -4.611229e+03 0.000000e+00
-3.170164e+00 2.424621e+02 5.254284e-177
-4.402642e+00 4.032981e+02 2.823926e-108
-4.399481e+00 4.021081e+02 8.590984e-109
-4.421817e+00 4.050868e+02 1.689180e-107
-4.434808e+00 4.066777e+02 8.290772e-107
-4.326482e+00 3.867793e+02 1.891602e-115
-4.323553e+00 3.867381e+02 1.815251e-115
-6.658402e+00 5.698017e+02 2.123993e-36
-6.495105e+00 5.649820e+02 1.713894e-38
-6.041234e+00 5.377026e+02 2.436078e-50
-7.079518e+00 5.769274e+02 2.641225e-33
-5.282125e+00 4.977491e+02 1.084193e-67
-5.983145e+00 5.336694e+02 4.316131e-52
-5.881289e+00 5.302266e+02 1.380084e-53
-6.967756e+00 5.748377e+02 3.267835e-34
-5.595135e+00 5.148185e+02 2.807067e-60
-5.598971e+00 5.148275e+02 2.832445e-60
-6.135230e+00 5.437212e+02 1.001235e-47
-6.084002e+00 5.403197e+02 3.336439e-49
-4.520063e+00 4.256265e+02 1.405899e-98
-6.449098e+00 5.620372e+02 9.017240e-40
-7.167760e+00 5.794739e+02 3.370825e-32
-7.113886e+00 5.785402e+02 1.325060e-32
-7.131523e+00 5.789670e+02 2.030450e-32
-7.062766e+00 5.763455e+02 1.476010e-33
-6.023450e+00 5.374656e+02 1.922044e-50
-5.539296e+00 5.118948e+02 1.508364e-61
-6.253671e+00 5.504982e+02 8.785159e-45
-3.776033e+00 3.271954e+02 9.967086e-141
-3.831243e+00 3.336800e+02 6.528211e-138
-3.522390e+00 2.760866e+02 6.343054e-163
-4.478233e+00 4.207240e+02 1.044301e-100
-3.592524e+00 2.880008e+02 9.474793e-158
-4.636994e+00 4.376779e+02 2.408856e-93
-5.140360e+00 4.873675e+02 3.747115e-72
-5.363755e+00 5.029899e+02 2.047185e-65
-5.357698e+00 5.027532e+02 1.615696e-65
-5.793513e+00 5.254125e+02 1.119872e-55
-4.720406e+00 4.509735e+02 1.432242e-87
-5.016177e+00 4.791405e+02 1.369519e-75
-5.553884e+00 5.123950e+02 2.487368e-61
-5.765886e+00 5.237634e+02 2.152650e-56
-5.775011e+00 5.239426e+02 2.575130e-56
-5.646187e+00 5.156228e+02 6.274164e-60
-5.602822e+00 5.149477e+02 3.194211e-60
-5.479566e+00 5.088250e+02 7.003398e-63
-5.432922e+00 5.057572e+02 3.258219e-64
-5.500242e+00 5.095851e+02 1.497670e-62
-6.801164e+00 5.725626e+02 3.358898e-35
-6.739185e+00 5.712761e+02 9.278482e-36
-6.504566e+00 5.651353e+02 1.997843e-38
-6.923435e+00 5.744142e+02 2.139619e-34
-6.937992e+00 5.744143e+02 2.139833e-34
-6.727238e+00 5.710456e+02 7.368381e-36
-6.715431e+00 5.710335e+02 7.279761e-36
-6.814034e+00 5.730304e+02 5.362407e-35
-6.867239e+00 5.735750e+02 9.244353e-35
-6.853670e+00 5.735729e+02 9.224960e-35
-4.447969e+00 4.100547e+02 2.427769e-105
-3.692350e+00 3.080401e+02 4.781092e-149
-3.286093e+00 2.529087e+02 1.808899e-172
-2.068671e+00 1.048732e+02 1.217370e-236
-5.650769e-01 -3.957421e+03 0.000000e+00
-5.255578e-01 -4.488403e+03 0.000000e+00
-4.396331e+00 4.015887e+02 5.110582e-109
-4.226340e+00 3.745694e+02 3.739685e-120
-4.215862e+00 3.745203e+02 3.560501e-120
-4.303286e+00 3.823401e+02 2.233107e-117
-4.582488e+00 4.322226e+02 1.029447e-95
-4.629024e+00 4.365922e+02 8.133871e-94
-4.774011e+00 4.560041e+02 2.191686e-85
-4.286236e+00 3.812008e+02 7.146903e-118
-4.145437e+00 3.720909e+02 3.136434e-121
-4.236930e+00 3.751257e+02 6.522784e-120
-4.845329e+00 4.645272e+02 1.102335e-81
-4.816188e+00 4.604043e+02 1.785504e-83
-3.603764e+00 2.911741e+02 2.263166e-156
-4.468043e+00 4.162503e+02 1.191029e-102
-4.653129e+00 4.396627e+02 1.753067e-92
-4.386939e+00 3.992740e+02 5.049041e-110
-1.357296e+00 -2.680738e+02 0.000000e+00
-1.354689e+00 -2.681352e+02 0.000000e+00
-1.346908e+00 -2.684868e+02 0.000000e+00
-2.326142e+00 1.442342e+02 1.149949e-219
-4.277819e+00 3.799417e+02 2.029073e-118
-3.959782e+00 3.508734e+02 1.913344e-130
-2.629246e+00 1.950621e+02 1.364442e-197
-2.622190e+00 1.946481e+02 9.018975e-198
-2.773742e+00 2.100863e+02 4.569643e-191
-4.098007e+00 3.679724e+02 5.102633e-123
-4.289058e+00 3.813706e+02 8.469565e-118
-3.615131e+00 2.965220e+02 4.756416e-154
-3.077312e+00 2.348410e+02 2.574612e-180
-2.886200e+00 2.167831e+02 3.700544e-188
-1.524549e+00 -1.235845e+02 0.000000e+00
-3.512024e+00 2.752301e+02 2.693551e-163
-3.506881e+00 2.752290e+02 2.690590e-163
-3.272528e+00 2.502673e+02 1.289047e-173
-3.313788e+00 2.575316e+02 1.841256e-170
-1.889083e+00 5.933199e+01 2.028272e-256
-1.305951e+00 -3.025176e+02 0.000000e+00
-6.840283e+00 5.735136e+02 8.693824e-35
-6.751278e+00 5.720218e+02 1.955827e-35
-6.763518e+00 5.720995e+02 2.113854e-35
-5.784219e+00 5.251214e+02 8.370385e-56
-8.016321e+00 5.926739e+02 1.821476e-26
-6.604451e+00 5.678484e+02 3.011936e-37
-7.186383e+00 5.795897e+02 3.784666e-32
-7.224703e+00 5.799577e+02 5.468244e-32
-6.788457e+00 5.722888e+02 2.554389e-35
-5.966357e+00 5.333865e+02 3.252616e-52
-5.938988e+00 5.322404e+02 1.033922e-52
-6.703762e+00 5.710280e+02 7.239832e-36
-4.927462e+00 4.734010e+02 7.873285e-78
-5.134956e+00 4.867881e+02 2.099263e-72
-3.673993e+00 3.067298e+02 1.289648e-149
-3.543451e+00 2.786811e+02 8.493280e-162
-2.295246e+00 1.413094e+02 6.172400e-221
-1.555892e+00 -1.070575e+02 0.000000e+00
-3.220037e+00 2.440710e+02 2.625729e-176
-1.243041e+00 -3.690153e+02 0.000000e+00
-7.669502e-01 -1.891125e+03 0.000000e+00
-8.647961e-01 -1.316649e+03 0.000000e+00
-1.898009e+00 5.952774e+01 2.466831e-256
-3.044601e+00 2.309348e+02 5.179296e-182
-2.952436e+00 2.227659e+02 1.467447e-185
-3.356823e+00 2.612714e+02 7.749768e-169
-2.680085e+00 1.990345e+02 7.246803e-196
-2.665294e+00 1.985259e+02 4.357770e-196
-2.657980e+00 1.982784e+02 3.402330e-196
-1.559081e+00 -1.036538e+02 0.000000e+00
-1.562280e+00 -1.034018e+02 0.000000e+00
-1.565490e+00 -9.786861e+01 0.000000e+00
-1.389122e+00 -2.251939e+02 0.000000e+00
-1.760049e+00 2.438475e+01 1.348133e-271
-1.763962e+00 2.618319e+01 8.143017e-271
-4.746849e+00 4.538376e+02 2.511189e-86
-5.236981e+00 4.921645e+02 4.539496e-70
-5.219238e+00 4.916365e+02 2.677319e-70
-5.725827e+00 5.211903e+02 1.642443e-57
-5.708526e+00 5.187263e+02 1.397619e-58
-5.712823e+00 5.187305e+02 1.403501e-58
-5.704247e+00 5.180269e+02 6.944536e-59
-6.330515e+00 5.544109e+02 4.395554e-43
-5.261140e+00 4.943927e+02 4.214078e-69
-5.234002e+00 4.921546e+02 4.494777e-70
-5.856124e+00 5.281537e+02 1.736427e-54
-1.410917e+00 -2.099970e+02 0.000000e+00
-3.680075e+00 3.069025e+02 1.532758e-149
-3.667949e+00 3.066504e+02 1.191209e-149
-3.655968e+00 3.051055e+02 2.541245e-150
-4.890696e+00 4.696490e+02 1.847920e-79
-5.695743e+00 5.171852e+02 2.992937e-59
-5.496767e+00 5.094322e+02 1.285323e-62
-6.909087e+00 5.742776e+02 1.866431e-34
-6.894942e+00 5.739626e+02 1.362100e-34
-7.933625e+00 5.917282e+02 7.074750e-27
-8.507268e+00 5.979233e+02 3.469036e-24
-6.261095e+00 5.511124e+02 1.623653e-44
-6.231724e+00 5.498815e+02 4.741549e-45
-5.922919e+00 5.314096e+02 4.504805e-53
-5.933602e+00 5.317888e+02 6.582039e-53
-5.622301e+00 5.152689e+02 4.404119e-60
-5.670658e+00 5.166144e+02 1.691228e-59
-5.743434e+00 5.225238e+02 6.231923e-57
-5.752354e+00 5.229615e+02 9.654122e-57
-5.503730e+00 5.095860e+02 1.499018e-62
-5.821924e+00 5.268573e+02 4.749383e-55
-5.831577e+00 5.270126e+02 5.547319e-55
-5.524918e+00 5.108712e+02 5.419537e-62
-5.788855e+00 5.253500e+02 1.052023e-55
-6.005977e+00 5.363353e+02 6.206979e-51
-6.413758e+00 5.595378e+02 7.406244e-41
-5.955319e+00 5.330894e+02 2.416595e-52
-6.000220e+00 5.361633e+02 5.226147e-51
-5.761355e+00 5.237467e+02 2.117000e-56
-6.053268e+00 5.384370e+02 5.077349e-50
-6.476448e+00 5.636602e+02 4.570183e-39
-4.043910e+00 3.633368e+02 4.949699e-125
-2.725817e+00 2.070009e+02 2.088863e-192
-3.638262e+00 3.033584e+02 4.428847e-151
-4.107315e+00 3.685122e+02 8.754402e-123
-5.003179e+00 4.781078e+02 4.876097e-76
-4.835521e+00 4.639198e+02 6.005140e-82
-4.840413e+00 4.641356e+02 7.451503e-82
-1.645779e+00 -2.986333e+01 3.716131e-295
-1.436017e+00 -1.980716e+02 0.000000e+00
-1.430384e+00 -1.991720e+02 0.000000e+00
-1.433197e+00 -1.985643e+02 0.000000e+00
-1.416440e+00 -2.069448e+02 0.000000e+00
-1.402688e+00 -2.156787e+02 0.000000e+00
-1.631941e+00 -5.064468e+01 3.506431e-304
-1.521468e+00 -1.264741e+02 0.000000e+00
-1.527640e+00 -1.229996e+02 0.000000e+00
-1.549544e+00 -1.087190e+02 0.000000e+00
-2.781957e+00 2.106992e+02 8.434538e-191
-2.815512e+00 2.112781e+02 1.504785e-190
-2.798594e+00 2.111330e+02 1.301542e-190
-2.574144e+00 1.877632e+02 9.227479e-201
-2.718048e+00 2.065322e+02 1.307243e-192
-2.765593e+00 2.099974e+02 4.180935e-191
-2.807017e+00 2.111858e+02 1.372110e-190
-2.733647e+00 2.079816e+02 5.569582e-192
-2.672662e+00 1.990223e+02 7.158930e-196
-2.650718e+00 1.974259e+02 1.450576e-196
-1.828741e+00 4.469568e+01 8.926015e-263
-1.699443e+00 -4.851783e+00 2.706873e-284
-7.515344e-01 -2.070921e+03 0.000000e+00
-8.534394e-01 -1.333553e+03 0.000000e+00
-7.985136e-01 -1.668802e+03 0.000000e+00
-1.309565e+00 -2.980164e+02 0.000000e+00
-1.089478e+00 -6.701286e+02 0.000000e+00
-1.115973e+00 -6.171869e+02 0.000000e+00
-1.118960e+00 -6.171860e+02 0.000000e+00
-1.341755e+00 -2.849358e+02 0.000000e+00
-1.339188e+00 -2.852738e+02 0.000000e+00
-4.079647e+00 3.665783e+02 1.265740e-123
-5.019453e+00 4.792038e+02 1.459013e-75
-4.971402e+00 4.760045e+02 5.951422e-77
-5.063051e+00 4.831950e+02 7.896146e-74
-4.733540e+00 4.531099e+02 1.212951e-86
-5.049433e+00 4.816823e+02 1.739634e-74
-5.059629e+00 4.829608e+02 6.247459e-74
-4.017920e+00 3.590590e+02 6.866792e-127
-4.291887e+00 3.816688e+02 1.141216e-117
-2.027016e+00 9.389604e+01 2.080187e-241
-2.032129e+00 9.705171e+01 4.881941e-240
-1.107063e+00 -6.296514e+02 0.000000e+00
-1.104111e+00 -6.299297e+02 0.000000e+00
-1.101167e+00 -6.299831e+02 0.000000e+00
-8.705232e-01 -1.315134e+03 0.000000e+00
-2.923510e+00 2.192299e+02 4.274618e-187
-4.309035e+00 3.846794e+02 2.316619e-116
-4.438082e+00 4.070382e+02 1.188935e-106
-1.352089e+00 -2.682948e+02 0.000000e+00
-1.692119e+00 -9.951126e+00 1.651396e-286
-1.666900e+00 -1.600722e+01 3.870108e-289
-1.608178e+00 -6.214383e+01 3.555068e-309
-1.077925e+00 -7.011578e+02 0.000000e+00
-1.072197e+00 -7.273068e+02 0.000000e+00
-1.098232e+00 -6.347360e+02 0.000000e+00
-3.632429e+00 3.006504e+02 2.952713e-152
-4.412183e+00 4.038392e+02 4.851210e-108
-5.756845e+00 5.236774e+02 1.975260e-56
-7.264550e+00 5.812217e+02 1.935513e-31
-5.423204e+00 5.056288e+02 2.865608e-64
-5.472768e+00 5.081490e+02 3.562261e-63
-2.521919e+00 1.827001e+02 5.837229e-203
-3.782770e+00 3.274144e+02 1.240734e-140
-3.904840e+00 3.449958e+02 5.360233e-133
-3.867365e+00 3.375839e+02 3.237699e-136
-3.496674e+00 2.748686e+02 1.876410e-163
-3.501765e+00 2.748871e+02 1.911447e-163
-3.762694e+00 3.254946e+02 1.819366e-141
-3.951746e+00 3.479893e+02 1.069656e-131
-2.914052e+00 2.181766e+02 1.490922e-187
-2.643510e+00 1.972305e+02 1.193107e-196
-1.591543e+00 -8.113571e+01 2.008072e-317
-2.490612e+00 1.801093e+02 4.375589e-204
-2.472288e+00 1.787003e+02 1.069340e-204
-2.636353e+00 1.957666e+02 2.760041e-197
-2.710340e+00 2.057613e+02 6.047259e-193
-1.344328e+00 -2.736959e+02 0.000000e+00
-4.283423e+00 3.809293e+02 5.447622e-118
-3.749531e+00 3.198368e+02 6.349929e-144
-5.836438e+00 5.272691e+02 7.169348e-55
-4.393190e+00 4.011213e+02 3.202441e-109
-4.860224e+00 4.660687e+02 5.149660e-81
-1.213010e+00 -4.471639e+02 0.000000e+00
-1.916102e+00 6.615805e+01 1.869160e-253
-1.929890e+00 6.752432e+01 7.328414e-253
-1.925273e+00 6.728098e+01 5.745512e-253
-1.920677e+00 6.683237e+01 3.668596e-253
-1.911548e+00 6.614257e+01 1.840448e-253
-8.255994e-01 -1.404308e+03 0.000000e+00
-2.741538e+00 2.092246e+02 1.930415e-191
-2.702690e+00 2.032213e+02 4.769256e-194
-2.832721e+00 2.129340e+02 7.881750e-190
-2.180409e+00 1.260220e+02 1.416513e-227
-2.448366e+00 1.762549e+02 9.270260e-206
-2.687563e+00 2.011460e+02 5.986311e-195
-4.035171e+00 3.628554e+02 3.058507e-125
-2.749493e+00 2.097843e+02 3.378511e-191
-2.757510e+00 2.097899e+02 3.397483e-191
-2.790241e+00 2.110661e+02 1.217318e-190
-2.608225e+00 1.939703e+02 4.579229e-198
-2.615183e+00 1.942050e+02 5.790570e-198
-3.698544e+00 3.099260e+02 3.151832e-148
-2.331385e+00 1.455075e+02 4.108334e-219
-2.265277e+00 1.357972e+02 2.491931e-223
-2.528300e+00 1.827556e+02 6.170353e-203
-3.789553e+00 3.275923e+02 1.482312e-140
-4.165058e+00 3.724091e+02 4.311502e-121
-3.736538e+00 3.183745e+02 1.471296e-144
-4.306157e+00 3.827316e+02 3.303208e-117
-3.299844e+00 2.569486e+02 1.027828e-170
-2.042434e+00 9.719764e+01 5.648968e-240
-2.037269e+00 9.710502e+01 5.149259e-240
-1.948576e+00 7.297998e+01 1.715430e-250
-2.106600e+00 1.130410e+02 4.291933e-233
-2.112138e+00 1.131956e+02 5.009506e-233
-4.383827e+00 3.992535e+02 4.946590e-110
-2.580868e+00 1.900381e+02 8.975520e-200
-2.275168e+00 1.373141e+02 1.135840e-222
-1.816271e+00 4.085357e+01 1.914478e-264
-1.820410e+00 4.238852e+01 8.885272e-264
-1.824567e+00 4.408101e+01 4.827361e-263
-2.090168e+00 1.074617e+02 1.620294e-235
-2.419247e+00 1.673382e+02 1.243421e-209
-2.534722e+00 1.837428e+02 1.655944e-202
-3.912506e+00 3.454137e+02 8.140955e-133
-3.756091e+00 3.229379e+02 1.411105e-142
-4.263946e+00 3.771609e+02 1.257800e-119
-4.261194e+00 3.769777e+02 1.047246e-119
-4.275029e+00 3.791375e+02 9.079001e-119
-3.486570e+00 2.736328e+02 5.452888e-164
-3.532865e+00 2.773449e+02 2.232396e-162
-3.575897e+00 2.837818e+02 1.394059e-159
-3.559542e+00 2.822094e+02 2.893321e-160
-3.586951e+00 2.879582e+02 9.079643e-158
-3.548786e+00 2.788581e+02 1.013784e-161
-5.327952e+00 5.008441e+02 2.394683e-66
-5.348681e+00 5.024005e+02 1.135492e-65
-5.369849e+00 5.032740e+02 2.719820e-65
-5.330887e+00 5.016333e+02 5.272216e-66
-5.319198e+00 5.004149e+02 1.559010e-66
-5.413579e+00 5.054274e+02 2.342879e-64
-5.391475e+00 5.039789e+02 5.503948e-65
-5.397741e+00 5.042738e+02 7.391759e-65
-5.385248e+00 5.038568e+02 4.871324e-65
-5.345693e+00 5.023033e+02 1.030316e-65
-5.354683e+00 5.027446e+02 1.601860e-65
-5.296221e+00 4.981187e+02 1.568996e-67
-5.270352e+00 4.964917e+02 3.437848e-68
-5.267272e+00 4.960968e+02 2.316241e-68
-5.284928e+00 4.978147e+02 1.157701e-67
-5.287739e+00 4.979629e+02 1.342637e-67
-5.388357e+00 5.038889e+02 5.030230e-65
-7.599408e+00 5.855428e+02 1.456888e-29
-7.349349e+00 5.822818e+02 5.587168e-31
-7.327466e+00 5.822749e+02 5.548749e-31
-6.998434e+00 5.750336e+02 3.975012e-34
-6.982978e+00 5.748670e+02 3.364999e-34
-6.680825e+00 5.709195e+02 6.495424e-36
-6.669551e+00 5.708462e+02 6.036341e-36
-8.106478e+00 5.931645e+02 2.975009e-26
-9.854309e+00 6.226670e+02 1.868744e-14
-6.692228e+00 5.710173e+02 7.162779e-36
-1.225429e+01 6.370176e+02 7.904756e-09
-1.194865e+01 6.357291e+02 2.179215e-09
-1.096080e+01 6.303278e+02 9.829812e-12
-1.120382e+01 6.320773e+02 5.653839e-11
-1.212064e+01 6.362321e+02 3.603713e-09
-1.175747e+01 6.352432e+02 1.340529e-09
-1.115502e+01 6.316351e+02 3.633276e-11
-1.113148e+01 6.316114e+02 3.548180e-11
-1.130922e+01 6.328750e+02 1.255394e-10
-1.136640e+01 6.331498e+02 1.652435e-10
-1.104250e+01 6.308977e+02 1.738000e-11
-1.125513e+01 6.323946e+02 7.765065e-11
-1.088527e+01 6.296297e+02 4.890624e-12
-1.086725e+01 6.292649e+02 3.395734e-12
-1.084955e+01 6.283685e+02 1.385581e-12
-1.102144e+01 6.306977e+02 1.422954e-11
-1.106402e+01 6.311831e+02 2.312050e-11
-1.110848e+01 6.313940e+02 2.854894e-11
-1.045710e+01 6.252622e+02 1.636727e-13
-1.059075e+01 6.264748e+02 5.503027e-13
-1.070418e+01 6.271256e+02 1.054971e-12
-1.062715e+01 6.266175e+02 6.347102e-13
-1.092232e+01 6.296959e+02 5.225340e-12
-1.090363e+01 6.296945e+02 5.218030e-12
-1.145882e+01 6.336946e+02 2.849233e-10
-1.094138e+01 6.302737e+02 9.312149e-12
-1.100082e+01 6.306560e+02 1.364837e-11
-1.184850e+01 6.355354e+02 1.795466e-09
-1.180195e+01 6.352878e+02 1.401670e-09
-1.167404e+01 6.350937e+02 1.154381e-09
-1.171488e+01 6.351120e+02 1.175701e-09
-1.117912e+01 6.318747e+02 4.616952e-11
-1.159703e+01 6.346340e+02 7.289607e-10
-1.156065e+01 6.343361e+02 5.411626e-10
-1.149162e+01 6.338873e+02 3.454749e-10
-1.152554e+01 6.339989e+02 3.862635e-10
-1.139627e+01 6.332702e+02 1.863860e-10
-1.108600e+01 6.313934e+02 2.853182e-11
-9.828461e+00 6.187539e+02 3.733465e-16
-9.803264e+00 6.172237e+02 8.082668e-17
-9.778687e+00 6.158780e+02 2.104382e-17
-9.664118e+00 6.128420e+02 1.010664e-18
-8.767810e+00 6.002248e+02 3.349857e-24
-7.720041e+00 5.892672e+02 6.038268e-28
-6.011768e+00 5.367825e+02 9.707263e-51
-5.949845e+00 5.329466e+02 2.095012e-52
-5.841323e+00 5.274063e+02 8.223655e-55
-5.971922e+00 5.334412e+02 3.435490e-52
-5.691519e+00 5.169808e+02 2.439651e-59
-5.568689e+00 5.127619e+02 3.589903e-61
-5.564967e+00 5.127422e+02 3.519874e-61
-5.988805e+00 5.351736e+02 1.942497e-51
-8.315584e+00 5.947485e+02 1.450143e-25
-5.994496e+00 5.358191e+02 3.704226e-51
-7.786293e+00 5.898089e+02 1.037934e-27
-7.517616e+00 5.847205e+02 6.401853e-30
-7.096554e+00 5.769818e+02 2.788887e-33
-7.244428e+00 5.799821e+02 5.603311e-32
-6.291355e+00 5.528695e+02 9.410054e-44
-4.999955e+00 4.780242e+02 4.485029e-76
-5.162269e+00 4.885644e+02 1.240235e-71
-5.400888e+00 5.042951e+02 7.550892e-65
-6.458132e+00 5.620740e+02 9.355256e-40
-4.965167e+00 4.758846e+02 5.278965e-77
-7.371722e+00 5.825993e+02 7.675032e-31
-6.467248e+00 5.622728e+02 1.141283e-39
-8.983933e+00 6.028387e+02 4.573289e-23
-8.879879e+00 6.016619e+02 1.409778e-23
-8.860306e+00 6.016011e+02 1.326618e-23
-8.870045e+00 6.016369e+02 1.374971e-23
-9.150609e+00 6.058011e+02 8.846726e-22
-8.794672e+00 6.004310e+02 4.116971e-24
-8.951565e+00 6.021041e+02 2.193794e-23
-8.941004e+00 6.020892e+02 2.161349e-23
-8.920211e+00 6.019784e+02 1.934662e-23
-8.822275e+00 6.012152e+02 9.018857e-24
-8.812989e+00 6.012070e+02 8.945205e-24
-8.733082e+00 5.998875e+02 2.390775e-24
-8.724585e+00 5.998855e+02 2.385998e-24
-9.137737e+00 6.057274e+02 8.218169e-22
-9.051995e+00 6.043500e+02 2.072898e-22
-9.163649e+00 6.058721e+02 9.497679e-22
-9.504384e+00 6.117476e+02 3.383099e-19
-9.350734e+00 6.105601e+02 1.031787e-19
-9.125029e+00 6.056491e+02 7.599234e-22
-9.100087e+00 6.049727e+02 3.863786e-22
-9.075752e+00 6.044762e+02 2.351721e-22
-8.973027e+00 6.027632e+02 4.240718e-23
-8.707804e+00 5.996992e+02 1.980437e-24
-8.803789e+00 6.007177e+02 5.483906e-24
-9.274582e+00 6.078315e+02 6.738668e-21
-9.203821e+00 6.066909e+02 2.153862e-21
-9.217578e+00 6.066999e+02 2.173334e-21
-9.087845e+00 6.049506e+02 3.779333e-22
-8.580300e+00 5.983082e+02 5.097636e-24
-5.118920e+00 4.861475e+02 1.106261e-72
-5.258088e+00 4.943002e+02 3.841761e-69
-6.017592e+00 5.373314e+02 1.680665e-50
-1.267038e+00 -3.488601e+02 0.000000e+00
-1.183855e+00 -4.914900e+02 0.000000e+00
-1.703125e+00 -4.836667e+00 2.748101e-284
-1.601490e+00 -7.119801e+01 4.155924e-313
-1.618293e+00 -5.867465e+01 1.141547e-307
-1.239659e+00 -3.855108e+02 0.000000e+00
-1.003246e+00 -8.738881e+02 0.000000e+00
-7.931834e-01 -1.713392e+03 0.000000e+00
-4.509174e-01 -5.480494e+03 0.000000e+00
-4.581357e-01 -5.479868e+03 0.000000e+00
-1.424783e+00 -2.026933e+02 0.000000e+00
-1.447378e+00 -1.884915e+02 0.000000e+00
-1.450239e+00 -1.837705e+02 0.000000e+00
-1.421995e+00 -2.032095e+02 0.000000e+00
-1.427580e+00 -2.025652e+02 0.000000e+00
-1.419214e+00 -2.041116e+02 0.000000e+00
-1.845613e+00 5.355038e+01 6.254678e-259
-1.397239e+00 -2.205502e+02 0.000000e+00
-1.288075e+00 -3.329216e+02 0.000000e+00
-1.155526e+00 -6.017833e+02 0.000000e+00
-7.218676e-01 -2.212607e+03 0.000000e+00
-5.307643e+00 4.990471e+02 3.970277e-67
-2.063369e+00 1.020896e+02 7.525240e-238
-4.729143e+00 4.524768e+02 6.440082e-87
-1.236289e+00 -3.971336e+02 0.000000e+00
-1.060841e+00 -7.508480e+02 0.000000e+00
-1.033000e+00 -8.010673e+02 0.000000e+00
-9.543496e-01 -9.282056e+02 0.000000e+00
-1.795827e+00 3.308729e+01 8.113307e-268
-1.638836e+00 -4.425135e+01 2.096299e-301
-6.579409e-01 -2.892451e+03 0.000000e+00
-4.875414e-01 -4.993520e+03 0.000000e+00
-3.881956e-01 -6.312109e+03 0.000000e+00
-1.907015e+00 6.371361e+01 1.621958e-254
-1.858457e+00 5.590050e+01 6.559173e-258
-2.379854e+00 1.476055e+02 3.348232e-218
-2.212563e+00 1.283945e+02 1.519093e-226
-2.207906e+00 1.282682e+02 1.338853e-226
-2.226666e+00 1.321369e+02 6.410442e-225
-2.101093e+00 1.116642e+02 1.083219e-233
-3.259145e+00 2.491544e+02 4.235869e-174
-1.174322e+00 -5.285594e+02 0.000000e+00
-1.684849e+00 -1.245787e+01 1.346438e-287
-1.695775e+00 -8.564255e+00 6.609395e-286
-1.674041e+00 -1.508912e+01 9.692791e-289
-1.714254e+00 4.803881e+00 4.225416e-280
-1.628512e+00 -5.189482e+01 1.004469e-304
-1.500164e+00 -1.347286e+02 0.000000e+00
-5.394155e-02 -5.426101e+04 0.000000e+00
-3.563582e-02 -5.426115e+04 0.000000e+00
-1.765918e-02 -5.427129e+04 0.000000e+00
-1.464666e+00 -1.547949e+02 0.000000e+00
-1.470495e+00 -1.539573e+02 0.000000e+00
-1.467576e+00 -1.541880e+02 0.000000e+00
-1.473423e+00 -1.524779e+02 0.000000e+00
-1.571939e+00 -9.401503e+01 4.940656e-323
-1.458870e+00 -1.555503e+02 0.000000e+00
-1.109595e-01 -4.856080e+04 0.000000e+00
-9.159005e-02 -4.859157e+04 0.000000e+00
-1.677631e+00 -1.449116e+01 1.762542e-288
-4.621116e+00 4.355176e+02 2.777182e-94
-4.586284e+00 4.322893e+02 1.100453e-95
-4.418595e+00 4.049303e+02 1.444471e-107
-4.317720e+00 3.861891e+02 1.048357e-115
-4.314817e+00 3.861888e+02 1.048042e-115
-4.461307e+00 4.128219e+02 3.863555e-104
-4.374551e+00 3.983547e+02 2.013548e-110
-4.359280e+00 3.963230e+02 2.640012e-111
-4.353236e+00 3.958069e+02 1.575675e-111
-4.431544e+00 4.061248e+02 4.769508e-107
-5.891535e+00 5.304165e+02 1.668699e-53
-4.716066e+00 4.505378e+02 9.263911e-88
-4.657204e+00 4.403954e+02 3.647590e-92
-3.650031e+00 3.044807e+02 1.360503e-150
-4.502420e+00 4.236092e+02 1.870045e-99
-4.541653e+00 4.264906e+02 3.336016e-98
-4.530800e+00 4.262340e+02 2.581001e-98
-3.686193e+00 3.070342e+02 1.748519e-149
-4.415384e+00 4.044913e+02 9.312226e-108
-4.272247e+00 3.789735e+02 7.705730e-119
-3.743013e+00 3.187967e+02 2.244188e-144
-3.581408e+00 2.866314e+02 2.409056e-158
-4.377634e+00 3.984873e+02 2.299055e-110
-4.548955e+00 4.271616e+02 6.525890e-98
-4.516509e+00 4.252982e+02 1.012454e-98
-4.578706e+00 4.317824e+02 6.628689e-96
-4.574938e+00 4.316805e+02 5.986501e-96
-4.563720e+00 4.287301e+02 3.132064e-97
-4.601615e+00 4.339439e+02 5.756456e-95
-4.571185e+00 4.313304e+02 4.218194e-96
-4.613270e+00 4.349913e+02 1.640723e-94
-4.654064e-01 -5.243235e+03 0.000000e+00
-6.062221e-01 -3.827263e+03 0.000000e+00
-5.895603e-01 -3.862521e+03 0.000000e+00
-2.533509e-01 -9.177602e+03 0.000000e+00
-5.333377e-01 -4.414605e+03 0.000000e+00
-3.484652e-01 -7.225462e+03 0.000000e+00
-3.615341e-01 -6.739386e+03 0.000000e+00
-3.419943e-01 -7.238354e+03 0.000000e+00
-7.413877e-01 -2.179373e+03 0.000000e+00
-7.363527e-01 -2.179679e+03 0.000000e+00
-1.041271e+00 -7.855661e+02 0.000000e+00
-1.022078e+00 -8.133520e+02 0.000000e+00
-1.024797e+00 -8.130541e+02 0.000000e+00
-1.069346e+00 -7.389286e+02 0.000000e+00
-1.080801e+00 -6.920963e+02 0.000000e+00
-1.383747e+00 -2.268265e+02 0.000000e+00
-1.752270e+00 2.127772e+01 6.030687e-273
-4.950299e-01 -4.911176e+03 0.000000e+00
-1.791788e+00 3.266675e+01 5.327944e-268
-1.799883e+00 3.484057e+01 4.684225e-267
-2.095616e+00 1.078144e+02 2.305523e-235
-3.874748e+00 3.412231e+02 1.232313e-134
-4.724765e+00 4.520060e+02 4.021847e-87
-4.362315e+00 3.970617e+02 5.526106e-111
-4.380726e+00 3.988422e+02 3.278541e-110
-4.405812e+00 4.033064e+02 2.847462e-108
-4.247632e+00 3.753021e+02 7.781128e-120
-3.992589e+00 3.522669e+02 7.708721e-130
-3.723712e+00 3.159753e+02 1.335798e-145
-3.232903e+00 2.443169e+02 3.357708e-176
-3.730105e+00 3.174598e+02 5.894553e-145
-3.661941e+00 3.054445e+02 3.566748e-150
-4.617185e+00 4.351869e+02 1.995185e-94
-4.126195e+00 3.709369e+02 9.891458e-122
-2.992354e+00 2.268395e+02 8.623917e-184
-2.280150e+00 1.384738e+02 3.622169e-222
-3.099729e+00 2.377097e+02 4.534949e-179
-2.221943e+00 1.308589e+02 1.785910e-225
-3.386578e+00 2.657143e+02 6.588942e-167
-5.042693e+00 4.815264e+02 1.488509e-74
-5.313404e+00 4.997195e+02 7.777507e-67
-5.382149e+00 5.037187e+02 4.242979e-65
-5.606687e+00 5.149675e+02 3.258087e-60
-5.546564e+00 5.121872e+02 2.020662e-61
-5.466016e+00 5.077144e+02 2.306648e-63
-5.459309e+00 5.072036e+02 1.384024e-63
-5.944402e+00 5.324665e+02 1.296229e-52
-5.960823e+00 5.331708e+02 2.621534e-52
-5.634173e+00 5.155890e+02 6.065641e-60
-5.699986e+00 5.173509e+02 3.532321e-59
-5.730200e+00 5.223112e+02 5.038382e-57
-5.812364e+00 5.263597e+02 2.887568e-55
-6.141822e+00 5.437720e+02 1.053412e-47
-6.189225e+00 5.467301e+02 2.029012e-46
-5.630200e+00 5.155641e+02 5.916471e-60
-5.638161e+00 5.155969e+02 6.113749e-60
-5.642166e+00 5.155979e+02 6.119866e-60
-6.122175e+00 5.432312e+02 6.133828e-48
-6.059340e+00 5.392412e+02 1.134741e-49
-6.109288e+00 5.422664e+02 2.337353e-48
-6.128681e+00 5.433813e+02 7.127205e-48
-5.618374e+00 5.151540e+02 3.926075e-60
-5.591314e+00 5.145481e+02 2.142001e-60
-6.071595e+00 5.397884e+02 1.961293e-49
-6.065448e+00 5.397713e+02 1.928040e-49
-6.203191e+00 5.488983e+02 1.773870e-45
-7.491774e+00 5.847158e+02 6.371834e-30
-7.544144e+00 5.848116e+02 7.012452e-30
-6.827073e+00 5.733455e+02 7.348623e-35
-6.952763e+00 5.746323e+02 2.661069e-34
-6.210249e+00 5.494458e+02 3.066889e-45
-6.196184e+00 5.471777e+02 3.174496e-46
-5.153996e+00 4.877108e+02 5.281902e-72
-6.155138e+00 5.448312e+02 3.038105e-47
-5.137654e+00 4.869789e+02 2.540564e-72
-5.103137e+00 4.850597e+02 3.727625e-73
-5.207581e+00 4.908553e+02 1.225827e-70
-5.375980e+00 5.036041e+02 3.783561e-65
-5.279329e+00 4.976919e+02 1.023917e-67
-5.310520e+00 4.993267e+02 5.251091e-67
-5.239970e+00 4.924824e+02 6.238352e-70
-4.512969e+00 4.248948e+02 6.763648e-99
-5.094388e+00 4.846458e+02 3.368912e-73
-5.108371e+00 4.851282e+02 3.991916e-73
-4.962063e+00 4.758697e+02 5.200892e-77
-5.213393e+00 4.913028e+02 1.917680e-70
-5.210483e+00 4.913008e+02 1.913848e-70
-2.594453e+00 1.910764e+02 2.535056e-199
-2.509279e+00 1.820623e+02 3.084705e-203
-2.515579e+00 1.822166e+02 3.599360e-203
-3.194789e+00 2.429870e+02 8.881262e-177
-5.022740e+00 4.794079e+02 1.789363e-75
-4.645029e+00 4.386474e+02 6.351251e-93
-1.193479e+00 -4.821048e+02 0.000000e+00
-1.190261e+00 -4.821129e+02 0.000000e+00
-1.588249e+00 -8.530697e+01 3.099027e-319
-1.543237e+00 -1.157897e+02 0.000000e+00
-1.756152e+00 2.207916e+01 1.344088e-272
-4.365360e+00 3.972587e+02 6.729383e-111
-4.368415e+00 3.973102e+02 7.085026e-111
-4.294725e+00 3.819076e+02 1.449030e-117
-4.300424e+00 3.819285e+02 1.479633e-117
-4.329419e+00 3.870186e+02 2.403014e-115
-4.769432e+00 4.556647e+02 1.560913e-85
-4.906288e+00 4.713118e+02 9.746035e-79
-5.026038e+00 4.798526e+02 2.791447e-75
-5.012912e+00 4.788878e+02 1.063707e-75
-4.974535e+00 4.763765e+02 8.633329e-77
-5.009657e+00 4.787217e+02 9.009189e-76
-4.990347e+00 4.773379e+02 2.257922e-76
-4.880435e+00 4.690924e+02 1.059143e-79
-4.922126e+00 4.729300e+02 4.915903e-78
-2.203270e+00 1.276458e+02 7.185020e-227
-2.300330e+00 1.416001e+02 8.254742e-221
-2.260369e+00 1.352331e+02 1.417590e-223
-2.058094e+00 1.003843e+02 1.367471e-238
-1.982139e+00 8.378274e+01 8.432417e-246
-3.491609e+00 2.743244e+02 1.088892e-163
-1.987027e+00 8.389935e+01 9.475348e-246
-1.849876e+00 5.456818e+01 1.730732e-258
-4.205493e+00 3.744016e+02 3.161989e-120
-4.269472e+00 3.788121e+02 6.557204e-119
-3.882187e+00 3.431033e+02 8.077582e-134
-3.943774e+00 3.470577e+02 4.213621e-132
-1.736890e+00 1.077223e+01 1.651545e-277
-3.111129e+00 2.404653e+02 7.133691e-178
-4.009405e+00 3.581795e+02 2.849652e-127
-3.609431e+00 2.934656e+02 2.238217e-155
-2.149257e+00 1.222064e+02 3.119799e-229
-2.140531e+00 1.191866e+02 1.522804e-230
-2.363435e+00 1.460800e+02 7.282816e-219
-1.893536e+00 5.951940e+01 2.446343e-256
-4.356253e+00 3.958212e+02 1.598369e-111
-9.606149e-01 -9.274442e+02 0.000000e+00
-4.017977e-01 -5.980480e+03 0.000000e+00
-3.949735e-01 -5.981905e+03 0.000000e+00
-9.419355e-01 -9.796187e+02 0.000000e+00
-1.482257e+00 -1.402505e+02 0.000000e+00
-1.232930e+00 -4.033839e+02 0.000000e+00
-1.281014e+00 -3.464348e+02 0.000000e+00
-1.295187e+00 -3.144136e+02 0.000000e+00
-2.868054e+00 2.155262e+02 1.052933e-188
-9.175604e-01 -1.147460e+03 0.000000e+00
-8.937652e-01 -1.148653e+03 0.000000e+00
-8.996611e-01 -1.148140e+03 0.000000e+00
-9.055920e-01 -1.148139e+03 0.000000e+00
-9.115583e-01 -1.148133e+03 0.000000e+00
-8.366426e-01 -1.402880e+03 0.000000e+00
-8.311058e-01 -1.402884e+03 0.000000e+00
-8.422102e-01 -1.401573e+03 0.000000e+00
-8.201233e-01 -1.407071e+03 0.000000e+00
-7.826074e-01 -1.827816e+03 0.000000e+00
-7.773611e-01 -1.842091e+03 0.000000e+00
-9.900079e-01 -8.883534e+02 0.000000e+00
-1.216303e+00 -4.168145e+02 0.000000e+00
-1.203197e+00 -4.576657e+02 0.000000e+00
-1.124962e+00 -6.106989e+02 0.000000e+00
-3.401794e+00 2.676172e+02 4.418091e-166
-2.547691e+00 1.859129e+02 1.450468e-201
-2.131882e+00 1.169748e+02 1.667522e-231
-2.127585e+00 1.169571e+02 1.638267e-231
-2.231412e+00 1.322954e+02 7.511447e-225
-2.217242e+00 1.307150e+02 1.546552e-225
-3.935865e+00 3.467845e+02 3.206315e-132
-4.633001e+00 4.375625e+02 2.146314e-93
-3.517194e+00 2.756864e+02 4.251026e-163
-3.554150e+00 2.813677e+02 1.246956e-160
-3.570416e+00 2.834883e+02 1.039479e-159
-3.598128e+00 2.896045e+02 4.710291e-157
-4.977677e+00 4.764515e+02 9.305728e-77
-1.721742e+00 7.724896e+00 7.842420e-279
-1.837142e+00 4.990164e+01 1.627711e-260
-3.838364e+00 3.339617e+02 8.652368e-138
-4.885552e+00 4.694378e+02 1.496098e-79
-5.181841e+00 4.891599e+02 2.249710e-71
-5.184668e+00 4.894596e+02 3.035879e-71
-5.193199e+00 4.897411e+02 4.022892e-71
-5.201804e+00 4.906620e+02 1.010369e-70
-3.769341e+00 3.263065e+02 4.097546e-141
-2.972196e+00 2.262549e+02 4.806357e-184
-3.012926e+00 2.271268e+02 1.149416e-183
-3.023373e+00 2.271367e+02 1.160852e-183
-3.002587e+00 2.270147e+02 1.027526e-183
-2.982224e+00 2.268096e+02 8.369878e-184
-3.033931e+00 2.278727e+02 2.423358e-183
-1.441681e+00 -1.954025e+02 0.000000e+00
-4.916819e+00 4.723389e+02 2.722023e-78
-4.778610e+00 4.561701e+02 2.587445e-85
-3.897231e+00 3.443653e+02 2.853389e-133
-5.029347e+00 4.808414e+02 7.503428e-75
-5.304776e+00 4.989800e+02 3.712613e-67
-5.173406e+00 4.890003e+02 1.917843e-71
-4.641004e+00 4.378793e+02 2.946305e-93
-4.451287e+00 4.101283e+02 2.613193e-105
-4.474824e+00 4.203469e+02 7.162310e-101
-4.335320e+00 3.911554e+02 1.504339e-113
-4.338284e+00 3.925575e+02 6.113220e-113
-4.026508e+00 3.598411e+02 1.501121e-126
-4.932826e+00 4.734090e+02 7.936524e-78
-4.911539e+00 4.719430e+02 1.832123e-78
-4.830652e+00 4.623639e+02 1.267081e-82
-1.783758e+00 3.078134e+01 8.086052e-269
-1.775793e+00 3.024500e+01 4.729411e-269
-1.779768e+00 3.026862e+01 4.842449e-269
-1.854158e+00 5.510391e+01 2.957294e-258
-2.290189e+00 1.411955e+02 5.507924e-221
-2.503018e+00 1.818751e+02 2.558078e-203
-2.496796e+00 1.814219e+02 1.625891e-203
-1.767890e+00 2.881185e+01 1.128231e-269
-1.659810e+00 -2.470438e+01 6.465387e-293
-1.652770e+00 -2.532516e+01 3.475307e-293
-1.787765e+00 3.160598e+01 1.844476e-268
-2.587637e+00 1.903704e+02 1.251341e-199
-2.962267e+00 2.248399e+02 1.167587e-184
-2.052847e+00 9.916010e+01 4.020265e-239
-1.996875e+00 8.547419e+01 4.576563e-245
-1.934529e+00 6.776864e+01 9.356573e-253
-1.270514e+00 -3.486625e+02 0.000000e+00
-1.349495e+00 -2.684570e+02 0.000000e+00
-1.168017e+00 -5.605032e+02 0.000000e+00
-1.055210e+00 -7.593202e+02 0.000000e+00
-1.164880e+00 -5.742123e+02 0.000000e+00
-1.581693e+00 -8.661175e+01 8.405539e-320
-4.560008e+00 4.283748e+02 2.195461e-97
-2.560830e+00 1.873754e+02 6.261288e-201
-1.302350e+00 -3.051175e+02 0.000000e+00
-1.284538e+00 -3.378673e+02 0.000000e+00
-1.614910e+00 -5.936491e+01 5.724237e-308
-1.365158e+00 -2.536561e+02 0.000000e+00
-1.717991e+00 6.588699e+00 2.517712e-279
-1.386431e+00 -2.256074e+02 0.000000e+00
-1.413675e+00 -2.094397e+02 0.000000e+00
-1.461763e+00 -1.555327e+02 0.000000e+00
-1.161752e+00 -5.910113e+02 0.000000e+00
-9.481233e-01 -9.466366e+02 0.000000e+00
-1.546386e+00 -1.157784e+02 0.000000e+00
-1.485219e+00 -1.373878e+02 0.000000e+00
-1.604828e+00 -6.283242e+01 1.785653e-309
-1.649268e+00 -2.741902e+01 4.281947e-294
-2.001836e+00 9.118451e+01 1.381974e-242
-1.497157e+00 -1.351724e+02 0.000000e+00
-1.488190e+00 -1.360380e+02 0.000000e+00
-1.444526e+00 -1.893485e+02 0.000000e+00
-1.635383e+00 -4.850127e+01 2.990450e-303
-1.298763e+00 -3.054142e+02 0.000000e+00
-1.063668e+00 -7.474061e+02 0.000000e+00
-1.253255e+00 -3.535517e+02 0.000000e+00
-1.038507e+00 -7.858622e+02 0.000000e+00
-4.625062e+00 4.365395e+02 7.716315e-94
-4.425049e+00 4.053189e+02 2.130471e-107
-4.980830e+00 4.765687e+02 1.046284e-76
-5.446028e+00 5.061163e+02 4.665899e-64
-5.469386e+00 5.078947e+02 2.762388e-63
-5.455972e+00 5.067741e+02 9.007707e-64
-5.442736e+00 5.060130e+02 4.207971e-64
-5.165041e+00 4.886730e+02 1.382511e-71
-5.113631e+00 4.853636e+02 5.051430e-73
-5.264201e+00 4.946928e+02 5.688980e-69
-6.615011e+00 5.681900e+02 4.238388e-37
-6.625683e+00 5.681901e+02 4.238812e-37
-6.299065e+00 5.530262e+02 1.100642e-43
-7.014133e+00 5.753326e+02 5.360342e-34
-7.030083e+00 5.756528e+02 7.383352e-34
-7.657907e+00 5.889334e+02 4.324590e-28
-5.439454e+00 5.059808e+02 4.074633e-64
-7.894708e+00 5.913539e+02 4.865805e-27
-8.060384e+00 5.928498e+02 2.171780e-26
-8.375487e+00 5.960219e+02 5.181331e-25
-6.573424e+00 5.676527e+02 2.476591e-37
-6.563292e+00 5.675474e+02 2.229067e-37
-6.594001e+00 5.677829e+02 2.820976e-37
-6.388050e+00 5.584434e+02 2.479169e-41
-6.371271e+00 5.562849e+02 2.863397e-42
-6.322559e+00 5.543318e+02 4.061261e-43
-7.571394e+00 5.852973e+02 1.139742e-29
-7.285085e+00 5.817411e+02 3.253634e-31
-7.306051e+00 5.819697e+02 4.089295e-31
-7.394607e+00 5.832145e+02 1.419901e-30
-7.418028e+00 5.839795e+02 3.051360e-30
-9.486099e+00 6.113361e+02 2.241829e-19
-9.468142e+00 6.110196e+02 1.633610e-19
-5.087339e+00 4.845461e+02 3.049232e-73
-5.126906e+00 4.866766e+02 1.877772e-72
-5.204688e+00 4.908062e+02 1.167093e-70
-5.225118e+00 4.916812e+02 2.799710e-70
-5.242967e+00 4.925635e+02 6.765364e-70
-5.170610e+00 4.886856e+02 1.400040e-71
-5.167822e+00 4.886778e+02 1.389163e-71
-5.151254e+00 4.876881e+02 5.163353e-72
-5.734592e+00 5.223669e+02 5.326982e-57
-5.901887e+00 5.309631e+02 2.882461e-53
-6.485733e+00 5.639244e+02 5.952154e-39
-7.688491e+00 5.891202e+02 5.212800e-28
-7.974119e+00 5.921600e+02 1.089531e-26
-6.647376e+00 5.695954e+02 1.728058e-36
-4.347228e+00 3.933616e+02 1.366112e-112
-4.341257e+00 3.925797e+02 6.250451e-113
-4.820986e+00 4.607445e+02 2.509042e-83
-4.495450e+00 4.234902e+02 1.660240e-99
-4.471428e+00 4.177637e+02 5.409830e-102
-3.845536e+00 3.345869e+02 1.616798e-137
-4.609370e+00 4.349408e+02 1.559924e-94
-4.457956e+00 4.127449e+02 3.577227e-104
-4.509440e+00 4.248289e+02 6.332293e-99
-4.454616e+00 4.126796e+02 3.351097e-104
-4.280617e+00 3.801241e+02 2.435079e-118
-4.350228e+00 3.939717e+02 2.514486e-112
-4.344238e+00 3.930036e+02 9.550119e-113
-4.311922e+00 3.849342e+02 2.988911e-116
-4.332365e+00 3.888189e+02 1.454175e-114
-4.764875e+00 4.556512e+02 1.539983e-85
-4.755821e+00 4.540700e+02 3.168176e-86
-4.737957e+00 4.534008e+02 1.622480e-86
-4.855234e+00 4.655265e+02 2.994360e-81
-4.850269e+00 4.649390e+02 1.664011e-81
-4.297571e+00 3.819177e+02 1.463739e-117
-4.320632e+00 3.863075e+02 1.180129e-115
-4.751325e+00 4.538930e+02 2.654234e-86
-5.039340e+00 4.813756e+02 1.280147e-74
-4.946689e+00 4.747140e+02 1.637434e-77
-4.955885e+00 4.754519e+02 3.424756e-77
-4.949745e+00 4.748306e+02 1.839935e-77
-4.952810e+00 4.748306e+02 1.839935e-77
-4.983992e+00 4.771251e+02 1.825119e-76
-4.987164e+00 4.771560e+02 1.882395e-76
-5.198927e+00 4.903518e+02 7.409042e-71
-5.179021e+00 4.890994e+02 2.117638e-71
-5.176210e+00 4.890383e+02 1.992123e-71
-5.124237e+00 4.865745e+02 1.695514e-72
-5.121575e+00 4.865681e+02 1.684698e-72
-5.148519e+00 4.876573e+02 5.006746e-72
-5.231032e+00 4.921392e+02 4.426087e-70
-5.245973e+00 4.926313e+02 7.239962e-70
-5.116272e+00 4.859558e+02 9.132790e-73
-5.056219e+00 4.826691e+02 4.666806e-74
-5.132266e+00 4.866935e+02 1.909776e-72
-4.996742e+00 4.776739e+02 3.159599e-76
-4.567445e+00 4.308833e+02 2.697451e-96
-4.552626e+00 4.274318e+02 8.550393e-98
-4.707442e+00 4.491260e+02 2.257654e-88
-4.711745e+00 4.491533e+02 2.320137e-88
-4.673671e+00 4.443407e+02 1.885507e-90
-4.682008e+00 4.445711e+02 2.374048e-90
-4.485084e+00 4.210473e+02 1.442889e-100
-4.895866e+00 4.705545e+02 4.570216e-79
-4.870278e+00 4.688441e+02 8.262652e-80
-4.498929e+00 4.235219e+02 1.713713e-99
-4.593921e+00 4.336200e+02 4.163774e-95
-4.742393e+00 4.536398e+02 2.060515e-86
-4.787873e+00 4.575177e+02 9.956953e-85
-4.669529e+00 4.442088e+02 1.652512e-90
-4.690414e+00 4.454299e+02 5.603529e-90
-4.694644e+00 4.454894e+02 5.947057e-90
-4.390060e+00 3.998056e+02 8.591715e-110
-3.711049e+00 3.115908e+02 1.665622e-147
-1.196708e+00 -4.700271e+02 0.000000e+00
-1.005914e+00 -8.532410e+02 0.000000e+00
-1.035750e+00 -7.873879e+02 0.000000e+00
-1.030259e+00 -8.067493e+02 0.000000e+00
-1.180667e+00 -5.058381e+02 0.000000e+00
-1.000584e+00 -8.857077e+02 0.000000e+00
-9.979294e-01 -8.857972e+02 0.000000e+00
-1.008590e+00 -8.458744e+02 0.000000e+00
-1.019366e+00 -8.140235e+02 0.000000e+00
-9.952819e-01 -8.870528e+02 0.000000e+00
-1.249839e+00 -3.673900e+02 0.000000e+00
-2.436617e+00 1.738044e+02 7.995641e-207
-4.665404e+00 4.434724e+02 7.912799e-91
-4.649071e+00 4.388275e+02 7.604588e-93
-4.677831e+00 4.444116e+02 2.024042e-90
-4.703158e+00 4.472474e+02 3.449783e-89
-4.686202e+00 4.451655e+02 4.301641e-90
-4.534405e+00 4.263049e+02 2.770637e-98
-4.661296e+00 4.412470e+02 8.547738e-92
-4.698892e+00 4.461117e+02 1.108061e-89
-4.760338e+00 4.553970e+02 1.194313e-85
-1.670464e+00 -1.515277e+01 9.095069e-289
-1.688478e+00 -1.222546e+01 1.698715e-287
-5.436183e+00 5.059545e+02 3.968867e-64
-5.416777e+00 5.055173e+02 2.563262e-64
-5.372910e+00 5.033995e+02 3.083501e-65
-5.366798e+00 5.032642e+02 2.693296e-65
-5.333831e+00 5.018282e+02 6.406741e-66
-5.339744e+00 5.022681e+02 9.946799e-66
-5.351678e+00 5.024035e+02 1.138903e-65
-5.360722e+00 5.028350e+02 1.753416e-65
-5.394603e+00 5.040262e+02 5.770540e-65
-5.290559e+00 4.980479e+02 1.461752e-67
-5.528493e+00 5.111444e+02 7.122155e-62
-5.550217e+00 5.122517e+02 2.155290e-61
-5.614463e+00 5.151525e+02 3.920190e-60
-5.449332e+00 5.064131e+02 6.278183e-64
-5.429672e+00 5.057523e+02 3.242292e-64
-5.507231e+00 5.096534e+02 1.603535e-62
-5.717139e+00 5.195242e+02 3.103933e-58
-5.542923e+00 5.121253e+02 1.899376e-61
-5.798192e+00 5.257233e+02 1.528084e-55
-5.626242e+00 5.153400e+02 4.728652e-60
-5.583715e+00 5.141042e+02 1.374157e-60
-5.587508e+00 5.141921e+02 1.500413e-60
-5.486411e+00 5.089570e+02 7.991636e-63
-5.610568e+00 5.150909e+02 3.685994e-60
-5.196059e+00 4.898423e+02 4.451322e-71
-5.110998e+00 4.853524e+02 4.995169e-73
-5.105750e+00 4.851115e+02 3.925804e-73
-5.159504e+00 4.883474e+02 9.983025e-72
-5.069930e+00 4.839877e+02 1.744538e-73
-5.080339e+00 4.844237e+02 2.697943e-73
-5.073388e+00 4.841461e+02 2.043961e-73
-5.779604e+00 5.241929e+02 3.307524e-56
-5.817132e+00 5.266617e+02 3.905613e-55
-5.802894e+00 5.258547e+02 1.742664e-55
-5.807617e+00 5.263175e+02 2.768248e-55
-5.886399e+00 5.303406e+02 1.546732e-53
-3.327928e+00 2.604457e+02 3.393843e-169
-3.342271e+00 2.604980e+02 3.576065e-169
-1.246434e+00 -3.679728e+02 0.000000e+00
-1.209728e+00 -4.499295e+02 0.000000e+00
-1.943871e+00 7.164631e+01 4.520302e-251
-5.490814e-01 -4.115027e+03 0.000000e+00
-7.031820e-01 -2.346610e+03 0.000000e+00
-6.939686e-01 -2.415440e+03 0.000000e+00
-6.848393e-01 -2.417666e+03 0.000000e+00
-1.725508e+00 9.307348e+00 3.816808e-278
-1.729287e+00 9.318849e+00 3.860958e-278
-1.733081e+00 9.512717e+00 4.686956e-278
-7.258863e-02 -5.380205e+04 0.000000e+00
-1.706821e+00 2.164547e+00 3.017319e-281
-1.710531e+00 2.455441e+00 4.036035e-281
-1.177490e+00 -5.197219e+02 0.000000e+00
-1.086577e+00 -6.805690e+02 0.000000e+00
-4.968280e+00 4.759199e+02 5.468641e-77
-1.621688e+00 -5.670969e+01 8.144510e-307
-1.476359e+00 -1.494979e+02 0.000000e+00
-4.590095e+00 4.324810e+02 1.332987e-95
-4.865238e+00 4.663859e+02 7.071911e-81
-4.527208e+00 4.259667e+02 1.975610e-98
-1.656284e+00 -2.529992e+01 3.564140e-293
-4.801085e-01 -5.093301e+03 0.000000e+00
-5.145792e+00 4.875564e+02 4.526216e-72
-6.268575e+00 5.511194e+02 1.635059e-44
-6.314666e+00 5.541223e+02 3.293641e-43
-6.161863e+00 5.450148e+02 3.650390e-47
-6.246302e+00 5.504760e+02 8.592277e-45
-5.052820e+00 4.819184e+02 2.202900e-74
-5.325025e+00 5.007687e+02 2.220763e-66
-5.404046e+00 5.048601e+02 1.328540e-64
-5.871147e+00 5.296691e+02 7.902899e-54
-9.017385e+00 6.034634e+02 8.541465e-23
-9.450501e+00 6.108684e+02 1.404375e-19
-9.416128e+00 6.108044e+02 1.317311e-19
-9.335032e+00 6.089954e+02 2.157990e-20
-9.319574e+00 6.088909e+02 1.943863e-20
-8.675065e+00 5.993705e+02 1.425635e-24
-8.683150e+00 5.993708e+02 1.426063e-24
-8.691301e+00 5.994563e+02 1.553356e-24
-9.190250e+00 6.065201e+02 1.815684e-21
-9.231527e+00 6.071290e+02 3.337968e-21
-9.260023e+00 6.075836e+02 5.259113e-21
-9.245674e+00 6.072142e+02 3.634830e-21
-9.028789e+00 6.038788e+02 1.294012e-22
-8.850662e+00 6.015143e+02 1.216323e-23
-8.930553e+00 6.019804e+02 1.938535e-23
-9.040325e+00 6.038876e+02 1.305450e-22
-9.112480e+00 6.053422e+02 5.590940e-22
-8.750295e+00 6.000224e+02 2.736056e-24
-8.741651e+00 6.000217e+02 2.734142e-24
-1.128181e+01 6.325873e+02 9.415288e-11
-8.699518e+00 5.996852e+02 1.952904e-24
-8.759014e+00 6.001410e+02 3.080579e-24
-8.831648e+00 6.014858e+02 1.182147e-23
-8.841110e+00 6.014858e+02 1.182147e-23
-8.962238e+00 6.022811e+02 2.618581e-23
-8.889810e+00 6.016847e+02 1.442291e-23
-8.899841e+00 6.017020e+02 1.467459e-23
-8.909974e+00 6.017090e+02 1.477768e-23
-8.776684e+00 6.003913e+02 3.956729e-24
-8.785638e+00 6.004040e+02 4.007300e-24
-8.716159e+00 5.997187e+02 2.019435e-24
-9.601191e+00 6.126548e+02 8.381209e-19
-9.621730e+00 6.126548e+02 8.381209e-19
-9.642699e+00 6.126775e+02 8.573638e-19
-8.994960e+00 6.031942e+02 6.525598e-23
-9.006110e+00 6.032574e+02 6.951327e-23
-1.066492e+01 6.266886e+02 6.814811e-13
-9.708383e+00 6.152799e+02 1.157106e-17
-9.754699e+00 6.156063e+02 1.603714e-17
-9.731273e+00 6.154943e+02 1.433791e-17
-1.055562e+01 6.255066e+02 2.089863e-13
-1.052169e+01 6.253040e+02 1.706592e-13
-1.023767e+01 6.247116e+02 2.685681e-13
-1.016864e+01 6.245653e+02 2.320156e-13
-1.010407e+01 6.245323e+02 2.244840e-13
-9.986243e+00 6.244682e+02 2.105461e-13
-1.004342e+01 6.244974e+02 2.167847e-13
-9.686006e+00 6.142785e+02 4.250799e-18
-4.605485e+00 4.347396e+02 1.275626e-94
-3.984286e+00 3.515939e+02 3.932802e-130
-4.061619e+00 3.641836e+02 1.154355e-124
-4.070593e+00 3.649179e+02 2.405702e-124
-8.205575e+00 5.940905e+02 7.510087e-26
-1.133740e+01 6.331071e+02 1.583361e-10
-1.205996e+01 6.361151e+02 3.205809e-09
-1.074504e+01 6.273669e+02 1.342875e-12
-1.048888e+01 6.252728e+02 1.654168e-13
-1.042631e+01 6.251561e+02 1.471965e-13
-1.039643e+01 6.251534e+02 1.467996e-13
-1.036742e+01 6.251388e+02 1.446719e-13
-1.280435e+01 6.426842e+02 8.025241e-07
-1.284886e+01 6.431112e+02 1.229991e-06
-nan 6.543545e+02 7.784260e-02
-1.560564e+01 6.561163e+02 2.349811e-02
-1.524719e+01 6.554005e+02 1.148590e-02
-1.495152e+01 6.552715e+02 2.161709e-02
-1.498640e+01 6.552732e+02 2.165387e-02
-1.491781e+01 6.552467e+02 2.108758e-02
-1.509900e+01 6.553013e+02 2.227098e-02
-1.513954e+01 6.553013e+02 2.227098e-02
-1.601938e+01 6.564215e+02 3.828085e-02
-1.607692e+01 6.564217e+02 3.828851e-02
-1.557531e+01 6.560022e+02 2.096428e-02
-1.506004e+01 6.552860e+02 2.193282e-02
-1.502254e+01 6.552804e+02 2.181034e-02
-1.518179e+01 6.553691e+02 2.383331e-02
-1.465677e+01 6.544563e+02 9.566662e-03
-1.468263e+01 6.545084e+02 1.007830e-02
-1.488521e+01 6.552433e+02 2.101601e-02
-1.314283e+01 6.456207e+02 3.160527e-06
-1.301150e+01 6.440937e+02 6.864230e-07
-1.300038e+01 6.440933e+02 6.861484e-07
-1.327931e+01 6.468319e+02 1.061150e-05
-1.322247e+01 6.460706e+02 4.956197e-06
-1.366751e+01 6.506310e+02 4.739201e-04
-1.364618e+01 6.505307e+02 4.286920e-04
-1.388323e+01 6.518852e+02 1.661106e-03
-1.385683e+01 6.518362e+02 1.581673e-03
-1.375770e+01 6.515983e+02 1.246804e-03
-1.378158e+01 6.516330e+02 1.290827e-03
-1.380604e+01 6.517477e+02 1.447711e-03
-1.333959e+01 6.484724e+02 5.473146e-05
-1.337115e+01 6.487049e+02 6.905745e-05
-1.313015e+01 6.455651e+02 2.989597e-06
-1.302275e+01 6.442763e+02 8.239369e-07
-1.290545e+01 6.434687e+02 3.674157e-07
-1.292578e+01 6.437186e+02 4.717240e-07
-1.244298e+01 6.411852e+02 1.792465e-07
-1.238409e+01 6.405365e+02 9.369660e-08
-1.257231e+01 6.416664e+02 2.900235e-07
-1.253837e+01 6.415553e+02 2.595273e-07
-1.250555e+01 6.415533e+02 2.590088e-07
-1.241310e+01 6.407129e+02 1.117721e-07
-1.247378e+01 6.413177e+02 2.046419e-07
-1.235590e+01 6.399111e+02 5.013212e-08
-1.268161e+01 6.423131e+02 5.537215e-07
-1.319521e+01 6.460626e+02 4.916706e-06
-1.320874e+01 6.460684e+02 4.945305e-06
-1.326480e+01 6.462533e+02 5.949688e-06
-1.315567e+01 6.458086e+02 3.813848e-06
-1.318185e+01 6.459704e+02 4.483656e-06
-1.332418e+01 6.482884e+02 4.553306e-05
-1.659941e+01 6.572300e+02 1.801573e-02
-1.415867e+01 6.537544e+02 1.076913e-02
-1.412404e+01 6.533891e+02 7.473650e-03
-1.393822e+01 6.526892e+02 3.711676e-03
-1.329405e+01 6.479814e+02 3.349642e-05
-1.338731e+01 6.488819e+02 8.242912e-05
-1.340373e+01 6.492037e+02 1.137199e-04
-1.335524e+01 6.484987e+02 5.618999e-05
-1.405819e+01 6.531331e+02 5.785666e-03
-1.409057e+01 6.531359e+02 5.801888e-03
-1.402682e+01 6.530764e+02 5.466745e-03
-1.396689e+01 6.528116e+02 4.194958e-03
-1.391035e+01 6.521599e+02 2.186241e-03
-1.371159e+01 6.514554e+02 1.080780e-03
-1.345469e+01 6.495962e+02 1.683826e-04
-1.358479e+01 6.500802e+02 2.732094e-04
-1.310527e+01 6.454442e+02 2.649150e-06
-1.311763e+01 6.454501e+02 2.664826e-06
-1.305729e+01 6.451844e+02 2.043040e-06
-1.306907e+01 6.451846e+02 2.043448e-06
-1.291557e+01 6.437036e+02 4.647009e-07
-1.303413e+01 6.444635e+02 9.935595e-07
-1.304564e+01 6.444644e+02 9.944541e-07
-1.297849e+01 6.440392e+02 6.500141e-07
-1.298937e+01 6.440422e+02 6.519670e-07
-1.343742e+01 6.495627e+02 1.628352e-04
-1.347227e+01 6.496803e+02 1.831561e-04
-1.296772e+01 6.439240e+02 5.792847e-07
-1.294653e+01 6.437732e+02 4.981962e-07
-1.293610e+01 6.437732e+02 4.981962e-07
-1.316868e+01 6.458513e+02 3.980226e-06
-1.325049e+01 6.461800e+02 5.529176e-06
-1.323638e+01 6.460710e+02 4.958180e-06
-1.309306e+01 6.454345e+02 2.623577e-06
-1.308099e+01 6.452910e+02 2.272859e-06
-1.295707e+01 6.437953e+02 5.093289e-07
-1.272088e+01 6.426492e+02 7.749216e-07
-1.276175e+01 6.426557e+02 7.799750e-07
-1.264384e+01 6.423005e+02 5.467884e-07
-1.122915e+01 6.323637e+02 7.528793e-11
-1.189732e+01 6.355493e+02 1.820597e-09
-1.342043e+01 6.492794e+02 1.226627e-04
-1.350839e+01 6.497906e+02 2.045145e-04
-1.218523e+01 6.366873e+02 5.681212e-09
-1.142705e+01 6.333639e+02 2.046948e-10
-1.163479e+01 6.348357e+02 8.918695e-10
-1.200276e+01 6.359597e+02 2.744406e-09
-1.260743e+01 6.422850e+02 5.383785e-07
-1.349017e+01 6.496935e+02 1.855898e-04
-1.360484e+01 6.501404e+02 2.901618e-04
-1.356514e+01 6.499179e+02 2.322789e-04
-1.383111e+01 6.518218e+02 1.559061e-03
-1.362530e+01 6.501677e+02 2.981923e-04
-1.330900e+01 6.481481e+02 3.957267e-05
-1.368931e+01 6.509759e+02 6.691035e-04
-1.352695e+01 6.498151e+02 2.095870e-04
-1.354586e+01 6.498512e+02 2.172913e-04
-1.373438e+01 6.515557e+02 1.194806e-03
-1.399641e+01 6.528713e+02 4.453024e-03
-1.529118e+01 6.554541e+02 1.211834e-02
-1.570257e+01 6.562245e+02 2.618326e-02
-1.573709e+01 6.562333e+02 2.641469e-02
-1.485363e+01 6.551043e+02 1.828872e-02
-1.563692e+01 6.561188e+02 2.355693e-02
-1.541044e+01 6.556562e+02 1.483249e-02
-1.685255e+01 6.572572e+02 5.973184e-02
-1.839933e+01 6.612781e+02 9.696695e-01
-1.792026e+01 6.602609e+02 4.424336e-02
-1.778153e+01 6.599358e+02 3.196384e-02
-1.740208e+01 6.585826e+02 8.259840e-03
-1.777346e+01 6.598669e+02 2.983569e-02
-1.775753e+01 6.598592e+02 2.960683e-02
-1.714038e+01 6.577330e+02 3.531791e-03
-1.771877e+01 6.596171e+02 2.324070e-02
-1.702759e+01 6.575291e+02 2.880331e-03
-1.702379e+01 6.575115e+02 2.830081e-03
-1.700872e+01 6.574911e+02 2.772932e-03
-1.701247e+01 6.574911e+02 2.772932e-03
-1.710683e+01 6.576566e+02 3.272012e-03
-1.694711e+01 6.572675e+02 2.217333e-03
-1.795817e+01 6.605031e+02 5.636820e-02
-1.799758e+01 6.605206e+02 5.736333e-02
-1.807052e+01 6.607243e+02 7.032344e-02
-1.738560e+01 6.585585e+02 8.063158e-03
-1.741322e+01 6.586039e+02 8.437662e-03
-1.788373e+01 6.601728e+02 4.051228e-02
-1.786595e+01 6.601608e+02 4.002904e-02
-1.782285e+01 6.600719e+02 3.662405e-02
-1.794856e+01 6.604942e+02 5.586875e-02
-1.733772e+01 6.583974e+02 6.863416e-03
-1.710272e+01 6.576403e+02 3.219111e-03
-1.789274e+01 6.601803e+02 4.081727e-02
-1.808138e+01 6.607291e+02 7.066181e-02
-1.812608e+01 6.608284e+02 7.803873e-02
-1.811471e+01 6.608196e+02 7.735500e-02
-1.792960e+01 6.603266e+02 4.724776e-02
-1.803860e+01 6.606096e+02 6.270275e-02
-1.802819e+01 6.606096e+02 6.270275e-02
-1.768146e+01 6.594307e+02 1.928843e-02
-1.748281e+01 6.587429e+02 9.695921e-03
-1.726752e+01 6.581545e+02 5.383320e-03
-1.566921e+01 6.561896e+02 2.528522e-02
-1.725310e+01 6.581081e+02 5.139240e-03
-1.748883e+01 6.587760e+02 1.002223e-02
-1.716193e+01 6.577795e+02 3.699898e-03
-1.707838e+01 6.576000e+02 3.091960e-03
-1.707438e+01 6.575787e+02 3.026798e-03
-1.711511e+01 6.576688e+02 3.312176e-03
-1.711928e+01 6.576690e+02 3.312838e-03
-1.653848e+01 6.571509e+02 1.664559e-02
-1.639211e+01 6.569486e+02 1.359695e-02
-1.620626e+01 6.565798e+02 9.403157e-03
-1.615126e+01 6.564367e+02 8.149410e-03
-1.531392e+01 6.555035e+02 1.273202e-02
-1.533719e+01 6.555242e+02 1.299832e-02
-1.526894e+01 6.554219e+02 1.173435e-02
-1.538542e+01 6.556241e+02 1.436393e-02
-1.744741e+01 6.586687e+02 9.002526e-03
-1.726269e+01 6.581379e+02 5.294694e-03
-1.728216e+01 6.581655e+02 5.442863e-03
-1.714465e+01 6.577470e+02 3.581584e-03
-1.632625e+01 6.567626e+02 1.128919e-02
-1.627955e+01 6.567259e+02 1.088239e-02
-1.619222e+01 6.565740e+02 9.348776e-03
-1.637523e+01 6.569280e+02 1.331972e-02
-1.642674e+01 6.569694e+02 1.388273e-02
-1.635864e+01 6.569065e+02 1.303640e-02
-1.634231e+01 6.568986e+02 1.293382e-02
-1.730201e+01 6.582397e+02 5.862084e-03
-1.729203e+01 6.582358e+02 5.839267e-03
-1.729701e+01 6.582358e+02 5.839267e-03
-1.730703e+01 6.582470e+02 5.905034e-03
-1.731208e+01 6.582484e+02 5.913307e-03
-1.723888e+01 6.580575e+02 4.885664e-03
-1.705854e+01 6.575729e+02 3.009293e-03
-1.705462e+01 6.575707e+02 3.002680e-03
-1.721104e+01 6.579671e+02 4.463375e-03
-1.724834e+01 6.580894e+02 5.044029e-03
-1.736404e+01 6.585224e+02 7.777269e-03
-1.700499e+01 6.574814e+02 2.746165e-03
-1.742449e+01 6.586140e+02 8.523314e-03
-1.732739e+01 6.582736e+02 6.064216e-03
-1.731716e+01 6.582501e+02 5.923368e-03
-1.695771e+01 6.573061e+02 2.304596e-03
-1.676910e+01 6.572392e+02 5.866629e-02
-1.732226e+01 6.582509e+02 5.928109e-03
-1.708239e+01 6.576181e+02 3.148434e-03
-1.695417e+01 6.572995e+02 2.289435e-03
-1.702000e+01 6.575024e+02 2.804444e-03
-1.711096e+01 6.576686e+02 3.311513e-03
-1.700127e+01 6.574533e+02 2.670071e-03
-1.699388e+01 6.574468e+02 2.652772e-03
-1.699757e+01 6.574472e+02 2.653834e-03
-1.721563e+01 6.579747e+02 4.497426e-03
-1.716629e+01 6.577865e+02 3.725888e-03
-1.712767e+01 6.576887e+02 3.378748e-03
-1.751330e+01 6.588910e+02 1.124367e-02
-1.765972e+01 6.593168e+02 1.721197e-02
-1.765258e+01 6.592884e+02 1.673003e-02
-1.760396e+01 6.590727e+02 1.348402e-02
-1.739656e+01 6.585768e+02 8.212072e-03
-1.741884e+01 6.586107e+02 8.495233e-03
-1.738016e+01 6.585543e+02 8.029363e-03
-1.722486e+01 6.580090e+02 4.654364e-03
-1.746495e+01 6.587021e+02 9.308288e-03
-1.715758e+01 6.577594e+02 3.626272e-03
-1.709047e+01 6.576302e+02 3.186762e-03
-1.735343e+01 6.584552e+02 7.271810e-03
-1.764549e+01 6.592542e+02 1.616754e-02
-1.719290e+01 6.578519e+02 3.977706e-03
-1.719741e+01 6.578538e+02 3.985271e-03
-1.745322e+01 6.586833e+02 9.134927e-03
-1.743017e+01 6.586146e+02 8.528430e-03
-1.745907e+01 6.586891e+02 9.188064e-03
-1.712346e+01 6.576812e+02 3.353502e-03
-1.725788e+01 6.581378e+02 5.294165e-03
-1.759050e+01 6.590162e+02 1.274329e-02
-1.757721e+01 6.590100e+02 1.266453e-02
-1.758383e+01 6.590100e+02 1.266453e-02
-1.753204e+01 6.589189e+02 1.156178e-02
-1.753837e+01 6.589191e+02 1.156410e-02
-1.740764e+01 6.585907e+02 8.327017e-03
-1.735872e+01 6.584974e+02 7.585247e-03
-1.734816e+01 6.584465e+02 7.208820e-03
-1.763844e+01 6.592440e+02 1.600346e-02
-1.766691e+01 6.593242e+02 1.733981e-02
-1.750099e+01 6.587807e+02 1.006944e-02
-1.749489e+01 6.587794e+02 1.005636e-02
-1.747682e+01 6.587215e+02 9.490632e-03
-1.747087e+01 6.587214e+02 9.489683e-03
-1.755115e+01 6.589298e+02 1.168850e-02
-1.739106e+01 6.585699e+02 8.155604e-03
-1.734293e+01 6.584298e+02 7.089432e-03
-1.648105e+01 6.571044e+02 1.588929e-02
-1.624958e+01 6.566803e+02 1.039729e-02
-1.697202e+01 6.573833e+02 2.489558e-03
-1.698289e+01 6.574286e+02 2.604929e-03
-1.696484e+01 6.573562e+02 2.422997e-03
-1.737476e+01 6.585362e+02 7.885339e-03
-1.701623e+01 6.575013e+02 2.801361e-03
-1.705071e+01 6.575680e+02 2.994584e-03
-1.696842e+01 6.573703e+02 2.457403e-03
-1.750712e+01 6.588570e+02 1.086781e-02
-1.717508e+01 6.577991e+02 3.773131e-03
-1.715325e+01 6.577537e+02 3.605661e-03
-1.714894e+01 6.577524e+02 3.600977e-03
-1.724360e+01 6.580783e+02 4.988350e-03
-1.704682e+01 6.575452e+02 2.927080e-03
-1.695063e+01 6.572980e+02 2.286004e-03
-1.751951e+01 6.589145e+02 1.151102e-02
-1.755760e+01 6.589558e+02 1.199638e-02
-1.773409e+01 6.597561e+02 2.670645e-02
-1.774966e+01 6.598129e+02 2.826729e-02
-1.756409e+01 6.589714e+02 1.218499e-02
-1.768881e+01 6.594969e+02 2.060853e-02
-1.781445e+01 6.600049e+02 3.425064e-02
-1.460697e+01 6.544022e+02 9.062856e-03
-1.463156e+01 6.544391e+02 9.403522e-03
-1.470917e+01 6.545476e+02 1.048121e-02
-1.543610e+01 6.556775e+02 1.515181e-02
-1.536102e+01 6.556161e+02 1.424948e-02
-1.728708e+01 6.582024e+02 5.647456e-03
-1.709862e+01 6.576364e+02 3.206581e-03
-1.649983e+01 6.571134e+02 1.603294e-02
-1.626445e+01 6.567196e+02 1.081404e-02
-1.554588e+01 6.559686e+02 2.027158e-02
-1.551728e+01 6.559603e+02 2.010403e-02
-1.458297e+01 6.543877e+02 8.932393e-03
-1.455953e+01 6.543830e+02 8.890509e-03
-1.476448e+01 6.546758e+02 1.191484e-02
-1.473644e+01 6.546753e+02 1.190888e-02
-1.482302e+01 6.551020e+02 1.824670e-02
-1.479332e+01 6.551020e+02 1.824670e-02
-1.591337e+01 6.563729e+02 3.646488e-02
-1.586430e+01 6.563462e+02 3.550416e-02
-1.622049e+01 6.566186e+02 9.775170e-03
-1.616473e+01 6.564582e+02 8.326519e-03
-1.813757e+01 6.608663e+02 8.105316e-02
-1.796788e+01 6.605033e+02 5.637948e-02
-1.707039e+01 6.575743e+02 3.013509e-03
-1.706643e+01 6.575743e+02 3.013509e-03
-1.706247e+01 6.575734e+02 3.010798e-03
-1.713188e+01 6.577026e+02 3.426041e-03
-1.709454e+01 6.576346e+02 3.200814e-03
-1.708642e+01 6.576222e+02 3.161369e-03
-1.717068e+01 6.577990e+02 3.772754e-03
-1.790183e+01 6.602130e+02 4.217406e-02
-1.772640e+01 6.596175e+02 2.325000e-02
-1.761761e+01 6.591395e+02 1.441552e-02
-1.762451e+01 6.591792e+02 1.499933e-02
-1.787480e+01 6.601680e+02 4.031829e-02
-1.783132e+01 6.601191e+02 3.839416e-02
-1.723419e+01 6.580499e+02 4.848674e-03
-1.733254e+01 6.582989e+02 6.219598e-03
-1.720647e+01 6.579215e+02 4.264416e-03
-1.713612e+01 6.577135e+02 3.463589e-03
-1.727238e+01 6.581547e+02 5.384397e-03
-1.757063e+01 6.589796e+02 1.228532e-02
-1.752576e+01 6.589179e+02 1.155023e-02
-1.820944e+01 6.610912e+02 1.014946e-01
-1.912899e+01 6.613754e+02 3.760505e-01
-1.819710e+01 6.610435e+02 9.676692e-02
-1.780612e+01 6.599798e+02 3.340165e-02
-1.770368e+01 6.595170e+02 2.102696e-02
-1.774185e+01 6.597772e+02 2.727595e-02
-1.696127e+01 6.573265e+02 2.352092e-03
-1.655838e+01 6.571536e+02 1.669060e-02
-1.651897e+01 6.571301e+02 1.630294e-02
-1.736938e+01 6.585294e+02 7.831901e-03
-1.754474e+01 6.589225e+02 1.160348e-02
-1.727725e+01 6.581579e+02 5.401654e-03
-1.810348e+01 6.608188e+02 7.729314e-02
-1.804913e+01 6.606825e+02 6.744451e-02
-1.771120e+01 6.595327e+02 2.135968e-02
-1.763145e+01 6.592117e+02 1.549481e-02
-1.769622e+01 6.595108e+02 2.089699e-02
-1.801788e+01 6.605699e+02 6.026221e-02
-1.783987e+01 6.601332e+02 3.893935e-02
-1.784849e+01 6.601368e+02 3.907978e-02
-1.791100e+01 6.602229e+02 4.259365e-02
-1.761076e+01 6.590736e+02 1.349616e-02
-1.717951e+01 6.578080e+02 3.806862e-03
-1.698654e+01 6.574297e+02 2.607796e-03
-1.697925e+01 6.574156e+02 2.571284e-03
-1.697563e+01 6.574155e+02 2.571027e-03
-1.704294e+01 6.575334e+02 2.892743e-03
-1.703524e+01 6.575328e+02 2.891008e-03
-1.703140e+01 6.575327e+02 2.890719e-03
-1.703908e+01 6.575330e+02 2.891586e-03
-1.718395e+01 6.578236e+02 3.866715e-03
-1.718842e+01 6.578236e+02 3.866715e-03
-1.669208e+01 6.572344e+02 5.838537e-02
-1.699020e+01 6.574321e+02 2.614062e-03
-1.785718e+01 6.601412e+02 3.925211e-02
-1.779785e+01 6.599683e+02 3.301973e-02
-1.776547e+01 6.598627e+02 2.971064e-02
-1.778966e+01 6.599637e+02 3.286819e-02
-1.798758e+01 6.605148e+02 5.703159e-02
-1.797768e+01 6.605148e+02 5.703159e-02
-1.722952e+01 6.580105e+02 4.661351e-03
-1.657868e+01 6.571559e+02 1.672903e-02
-1.546243e+01 6.558114e+02 1.732274e-02
-1.548948e+01 6.558114e+02 1.732274e-02
-1.822194e+01 6.611449e+02 1.070938e-01
-1.818491e+01 6.610080e+02 9.339196e-02
-1.814919e+01 6.608978e+02 8.364697e-02
-1.809237e+01 6.607859e+02 7.479157e-02
-1.817286e+01 6.609283e+02 8.623751e-02
-1.823460e+01 6.612424e+02 1.180614e-01
-1.852604e+01 6.612864e+02 9.777512e-01
-1.827355e+01 6.612673e+02 1.210381e-01
-1.824741e+01 6.612673e+02 1.210381e-01
-1.826040e+01 6.612673e+02 1.210381e-01
-1.744163e+01 6.586310e+02 8.669449e-03
-1.743588e+01 6.586294e+02 8.655589e-03
-1.767416e+01 6.593326e+02 1.748608e-02
-1.800768e+01 6.605531e+02 5.925826e-02
-1.759721e+01 6.590564e+02 1.326601e-02
-1.805977e+01 6.606957e+02 6.834068e-02
-1.793904e+01 6.604561e+02 5.378019e-02
-1.816096e+01 6.609129e+02 8.491963e-02
-1.596497e+01 6.563866e+02 3.696789e-02
-1.629487e+01 6.567349e+02 1.098077e-02
-1.623493e+01 6.566347e+02 9.933824e-03
-1.640928e+01 6.569683e+02 1.386747e-02
-1.644452e+01 6.569700e+02 1.389106e-02
-1.581752e+01 6.563429e+02 3.538718e-02
-1.617838e+01 6.565105e+02 8.773585e-03
-1.646262e+01 6.570159e+02 1.454352e-02
-1.631044e+01 6.567390e+02 1.102588e-02
-1.722024e+01 6.579927e+02 4.579113e-03
-1.720193e+01 6.579032e+02 4.187087e-03
-1.921987e+01 6.613787e+02 3.772935e-01
-1.969287e+01 6.614722e+02 1.462267e-01
-1.952174e+01 6.614532e+02 3.534562e-01
-2.048952e+01 6.616222e+02 5.454986e-02
-2.118057e+01 6.617530e+02 6.222935e-02
-2.103798e+01 6.617507e+02 6.202982e-02
-2.097368e+01 6.617507e+02 6.202982e-02
-1.980690e+01 6.615383e+02 1.562189e-01
-1.986920e+01 6.615458e+02 1.573949e-01
-2.000680e+01 6.615638e+02 1.602537e-01
-1.993563e+01 6.615623e+02 1.600135e-01
-2.008342e+01 6.616118e+02 1.681335e-01
-2.075124e+01 6.617192e+02 6.010633e-02
-2.065618e+01 6.616857e+02 5.812613e-02
-2.056939e+01 6.616837e+02 5.800999e-02
-2.166399e+01 6.618559e+02 6.897381e-02
-2.213598e+01 6.618624e+02 2.342860e-02
-2.228045e+01 6.622799e+02 3.556839e-02
-2.273252e+01 6.623811e+02 2.896455e-02
-2.256720e+01 6.622989e+02 2.667889e-02
-2.242537e+01 6.622900e+02 2.644250e-02
-2.249377e+01 6.622974e+02 2.663890e-02
-2.264645e+01 6.623282e+02 2.747215e-02
-2.308280e+01 6.625155e+02 2.526341e-02
-2.298996e+01 6.624942e+02 2.473099e-02
-2.126034e+01 6.617786e+02 6.384299e-02
-2.080238e+01 6.617218e+02 6.026281e-02
-2.085629e+01 6.617455e+02 6.170810e-02
-2.091326e+01 6.617457e+02 6.172044e-02
-2.061184e+01 6.616841e+02 5.803320e-02
-2.070258e+01 6.617090e+02 5.949637e-02
-1.974826e+01 6.615001e+02 1.503639e-01
-2.134702e+01 6.618317e+02 6.732467e-02
-2.052866e+01 6.616301e+02 5.498252e-02
-2.220561e+01 6.621729e+02 3.195912e-02
-2.154681e+01 6.618415e+02 6.798770e-02
-2.412915e+01 6.627549e+02 8.251286e-03
-2.481927e+01 6.628595e+02 9.161125e-03
-2.436948e+01 6.627771e+02 8.436513e-03
-2.428279e+01 6.627762e+02 8.428923e-03
-2.456930e+01 6.628219e+02 8.823062e-03
-2.468649e+01 6.628291e+02 8.886818e-03
-2.446441e+01 6.628162e+02 8.772914e-03
-2.385072e+01 6.627303e+02 2.824459e-02
-nan 6.628987e+02 4.701447e-03
-2.588840e+01 6.628999e+02 2.006889e-03
-2.580496e+01 6.628999e+02 2.006889e-03
-2.624341e+01 6.629734e+02 9.377620e-04
-2.629880e+01 6.629743e+02 9.386064e-04
-2.635744e+01 6.629743e+02 9.386064e-04
-nan 6.629743e+02 1.187910e-03
-2.738843e+01 6.629812e+02 4.551681e-04
-2.754287e+01 6.629841e+02 1.723011e-04
-2.778561e+01 6.629862e+02 1.726633e-04
-2.804582e+01 6.629887e+02 2.310054e-04
-2.765689e+01 6.629858e+02 1.725943e-04
-2.769798e+01 6.629860e+02 1.726288e-04
-2.789866e+01 6.629864e+02 2.304747e-04
-2.796954e+01 6.629874e+02 2.307053e-04
-2.761742e+01 6.629856e+02 1.725598e-04
-2.854687e+01 6.629964e+02 9.245756e-05
-3.046502e+01 6.630397e+02 2.333897e-05
-nan 6.630675e+02 1.503058e-05
-2.908421e+01 6.630044e+02 9.320019e-05
-2.917734e+01 6.630064e+02 9.338677e-05
-2.952383e+01 6.630218e+02 9.483606e-05
-2.871634e+01 6.629986e+02 9.266119e-05
-2.877987e+01 6.629996e+02 9.275390e-05
-2.899901e+01 6.630041e+02 9.317223e-05
-2.939453e+01 6.630126e+02 9.396757e-05
-2.844800e+01 6.629944e+02 9.227283e-05
-2.840200e+01 6.629936e+02 9.219904e-05
-2.731003e+01 6.629785e+02 4.539408e-04
-2.774084e+01 6.629862e+02 1.726633e-04
-2.757945e+01 6.629847e+02 1.724045e-04
-2.723734e+01 6.629765e+02 4.530338e-04
-2.716958e+01 6.629762e+02 4.528979e-04
-2.750758e+01 6.629835e+02 1.721978e-04
-2.823664e+01 6.629898e+02 9.184935e-05
-2.827549e+01 6.629906e+02 9.192286e-05
-2.849621e+01 6.629960e+02 9.242058e-05
-2.819925e+01 6.629893e+02 9.180344e-05
-2.816320e+01 6.629893e+02 9.180344e-05
-2.860023e+01 6.629969e+02 9.250380e-05
-2.865660e+01 6.629976e+02 9.256858e-05
-nan 6.630339e+02 1.524538e-04
-2.835803e+01 6.629932e+02 9.216217e-05
-2.831591e+01 6.629929e+02 9.213452e-05
-3.076149e+01 6.630441e+02 2.344188e-05
-3.065260e+01 6.630413e+02 2.337634e-05
-3.055442e+01 6.630412e+02 2.337400e-05
-3.088369e+01 6.630451e+02 2.346534e-05
-3.118475e+01 6.630554e+02 2.370828e-05
-3.102293e+01 6.630507e+02 2.359711e-05
-3.137791e+01 6.630673e+02 2.399209e-05
-nan 6.630724e+02 1.076918e-05
-nan 6.630857e+02 3.469519e-06
-3.263805e+01 6.630822e+02 5.268247e-06
-3.281542e+01 6.630849e+02 5.282490e-06
-3.354492e+01 6.630871e+02 1.883887e-06
-3.369950e+01 6.631003e+02 1.908919e-06
-3.523968e+01 6.631111e+02 1.237050e-06
-3.593283e+01 6.631160e+02 1.243127e-06
-3.483422e+01 6.631104e+02 1.236185e-06
-3.454654e+01 6.631040e+02 1.228299e-06
-2.892051e+01 6.630003e+02 9.281885e-05
-2.884772e+01 6.630001e+02 9.280029e-05
-2.597944e+01 6.629211e+02 2.049890e-03
-2.607960e+01 6.629376e+02 2.083993e-03
-2.928005e+01 6.630125e+02 9.395817e-05
-2.420302e+01 6.627628e+02 8.316729e-03
-2.340133e+01 6.625765e+02 2.421814e-02
-2.367751e+01 6.626205e+02 2.530753e-02
-2.352992e+01 6.626204e+02 2.530499e-02
-2.328741e+01 6.625475e+02 2.352590e-02
-2.144193e+01 6.618342e+02 6.749320e-02
-2.290500e+01 6.623969e+02 2.243802e-02
-1.941570e+01 6.614189e+02 3.415382e-01
-1.884100e+01 6.613089e+02 1.000000e+00
-1.867117e+01 6.613040e+02 9.951120e-01
-3.432940e+00 2.698363e+02 4.064223e-165
-3.681331e-01 -6.621199e+03 0.000000e+00
-3.355650e-01 -7.429870e+03 0.000000e+00
-3.747760e-01 -6.597602e+03 0.000000e+00
-7.124812e-01 -2.243616e+03 0.000000e+00
-5.101774e-01 -4.673286e+03 0.000000e+00
-5.025750e-01 -4.812698e+03 0.000000e+00
-8.092601e-01 -1.647477e+03 0.000000e+00
-1.977275e+00 8.377779e+01 8.390780e-246
-1.171165e+00 -5.483305e+02 0.000000e+00
-1.206457e+00 -4.551399e+02 0.000000e+00
-1.187053e+00 -4.896602e+02 0.000000e+00
-3.564964e+00 2.825503e+02 4.068625e-160
-3.417246e+00 2.698307e+02 4.041527e-165
-4.185071e+00 3.728474e+02 6.683130e-121
-3.976051e+00 3.515564e+02 3.788053e-130
-3.803257e+00 3.314755e+02 7.200987e-139
-3.371590e+00 2.641936e+02 1.440072e-167
-4.901063e+00 4.707681e+02 5.658509e-79
-4.464669e+00 4.139386e+02 1.180222e-103
-4.993539e+00 4.776231e+02 3.003100e-76
-6.283704e+00 5.519163e+02 3.627627e-44
-6.115711e+00 5.427085e+02 3.636854e-48
-5.579937e+00 5.133602e+02 6.530120e-61
-6.182314e+00 5.461141e+02 1.095870e-46
-6.148458e+00 5.440552e+02 1.398268e-47
-6.431272e+00 5.603822e+02 1.723123e-40
-4.597761e+00 4.336443e+02 4.266194e-95
-4.408993e+00 4.033189e+02 2.883279e-108
-2.895398e+00 2.180260e+02 1.282479e-187
-8.879039e-01 -1.157551e+03 0.000000e+00
-8.762832e-01 -1.200070e+03 0.000000e+00
-8.820767e-01 -1.163906e+03 0.000000e+00
-1.075057e+00 -7.131077e+02 0.000000e+00
-1.642301e+00 -4.045053e+01 9.378393e-300
-7.464482e-01 -2.084341e+03 0.000000e+00
-7.617852e-01 -2.016851e+03 0.000000e+00
-1.066503e+00 -7.448785e+02 0.000000e+00
-1.508617e-01 -4.792206e+04 0.000000e+00
-1.714262e-01 -4.770469e+04 0.000000e+00
-1.307116e-01 -4.804925e+04 0.000000e+00
-5.813324e-01 -3.876563e+03 0.000000e+00
-6.668269e-01 -2.793623e+03 0.000000e+00
-6.146583e-01 -3.783047e+03 0.000000e+00
-9.357858e-01 -9.804779e+02 0.000000e+00
-9.296737e-01 -9.912541e+02 0.000000e+00
-1.011273e+00 -8.406878e+02 0.000000e+00
-1.131001e+00 -6.044206e+02 0.000000e+00
-1.134034e+00 -6.043923e+02 0.000000e+00
-1.127977e+00 -6.044319e+02 0.000000e+00
-1.112994e+00 -6.193192e+02 0.000000e+00
-1.110024e+00 -6.263716e+02 0.000000e+00
-1.229582e+00 -4.100210e+02 0.000000e+00
-1.222920e+00 -4.106637e+02 0.000000e+00
-1.226246e+00 -4.105924e+02 0.000000e+00
-1.219606e+00 -4.108424e+02 0.000000e+00
-4.437508e-01 -5.657245e+03 0.000000e+00
-4.366353e-01 -5.657264e+03 0.000000e+00
-4.295700e-01 -5.657487e+03 0.000000e+00
-4.155875e-01 -5.661640e+03 0.000000e+00
-4.225543e-01 -5.661556e+03 0.000000e+00
-6.231663e-01 -3.628264e+03 0.000000e+00
-6.317472e-01 -3.627692e+03 0.000000e+00
-2.011832e+00 9.190800e+01 2.849100e-242
-2.021929e+00 9.238269e+01 4.579973e-242
-2.006822e+00 9.160884e+01 2.112439e-242
-2.541185e+00 1.846486e+02 4.096656e-202
-2.554239e+00 1.863559e+02 2.258918e-201
-2.567465e+00 1.876604e+02 8.326023e-201
-2.478359e+00 1.798252e+02 3.293468e-204
-1.359910e+00 -2.652944e+02 0.000000e+00
-3.527614e+00 2.772312e+02 1.992470e-162
-5.090857e+00 4.846018e+02 3.223893e-73
-5.747884e+00 5.226773e+02 7.265847e-57
-4.371478e+00 3.975038e+02 8.598463e-111
-5.912348e+00 5.311081e+02 3.332239e-53
-5.907104e+00 5.310239e+02 3.063152e-53
-5.917619e+00 5.312135e+02 3.702634e-53
-5.928246e+00 5.316905e+02 5.965808e-53
-5.896698e+00 5.309576e+02 2.866651e-53
-5.826739e+00 5.270119e+02 5.543437e-55
-6.102906e+00 5.420102e+02 1.809081e-48
-6.090264e+00 5.408373e+02 5.598531e-49
-5.419985e+00 5.055709e+02 2.704401e-64
-6.168633e+00 5.457163e+02 7.362017e-47
-6.362986e+00 5.554031e+02 1.185552e-42
-6.035271e+00 5.376635e+02 2.342665e-50
-6.276111e+00 5.513261e+02 2.010490e-44
-3.245938e+00 2.475452e+02 8.473753e-175
-3.146130e+00 2.407377e+02 9.367336e-178
-3.134326e+00 2.406588e+02 8.656658e-178
-2.824079e+00 2.113781e+02 1.663044e-190
-9.063803e+00 6.044128e+02 2.207250e-22
-1.044044e+00 -7.851557e+02 0.000000e+00
-1.967616e+00 7.924188e+01 8.992525e-248
-1.958051e+00 7.476161e+01 1.018885e-249
-1.533849e+00 -1.206469e+02 0.000000e+00
-1.536969e+00 -1.204225e+02 0.000000e+00
-1.530740e+00 -1.215202e+02 0.000000e+00
-1.540098e+00 -1.194969e+02 0.000000e+00
-1.518397e+00 -1.302486e+02 0.000000e+00
-1.515335e+00 -1.303844e+02 0.000000e+00
-1.512282e+00 -1.306845e+02 0.000000e+00
-1.509239e+00 -1.306870e+02 0.000000e+00
-1.506205e+00 -1.311696e+02 0.000000e+00
-1.503180e+00 -1.314580e+02 0.000000e+00
-2.305439e+00 1.416736e+02 8.884319e-221
-2.310575e+00 1.417161e+02 9.270041e-221
-2.442474e+00 1.756089e+02 4.858897e-206
-1.568709e+00 -9.607725e+01 4.940656e-324
-1.575180e+00 -9.054619e+01 1.645239e-321
-1.121957e+00 -6.145031e+02 0.000000e+00
-6.757925e-01 -2.670199e+03 0.000000e+00
-1.744550e+00 1.289251e+01 1.376310e-276
-4.727304e-01 -5.178157e+03 0.000000e+00
-4.086688e-01 -5.765117e+03 0.000000e+00
-2.400163e-01 -1.189470e+04 0.000000e+00
-7.878814e-01 -1.741556e+03 0.000000e+00
-1.902502e+00 5.991225e+01 3.623514e-256
-1.867112e+00 5.715326e+01 2.295704e-257
-1.875843e+00 5.721047e+01 2.430871e-257
-1.862775e+00 5.621695e+01 9.000810e-258
-1.871468e+00 5.718718e+01 2.374910e-257
-1.880237e+00 5.726006e+01 2.554456e-257
-1.884650e+00 5.837047e+01 7.754315e-257
-1.962822e+00 7.832846e+01 3.607351e-248
-1.953302e+00 7.443343e+01 7.338349e-250
-1.972434e+00 8.204358e+01 1.481305e-246
-1.991939e+00 8.441155e+01 1.581397e-245
-2.117706e+00 1.135274e+02 6.980617e-233
-2.695098e+00 2.015451e+02 8.922493e-195
-2.466254e+00 1.778821e+02 4.718195e-205
-2.460255e+00 1.778447e+02 4.544994e-205
-2.144884e+00 1.209964e+02 9.303155e-230
-2.153648e+00 1.241768e+02 2.238002e-228
-3.824173e+00 3.325554e+02 2.120248e-138
-3.644129e+00 3.042140e+02 1.042013e-150
-3.852759e+00 3.350424e+02 2.549629e-137
-4.266705e+00 3.783056e+02 3.951377e-119
-4.155200e+00 3.722491e+02 3.674020e-121
-4.116710e+00 3.696349e+02 2.690351e-122
-3.810181e+00 3.314896e+02 7.303240e-139
-3.817152e+00 3.314896e+02 7.303240e-139
-3.860035e+00 3.362473e+02 8.506647e-137
-3.796381e+00 3.312705e+02 5.866265e-139
-2.877086e+00 2.164259e+02 2.589021e-188
-2.942701e+00 2.221373e+02 7.826454e-186
-2.933060e+00 2.220469e+02 7.149980e-186
-3.158075e+00 2.423702e+02 4.792939e-177
-1.841369e+00 5.319953e+01 4.403852e-259
-2.425003e+00 1.716385e+02 9.166739e-208
-2.454293e+00 1.767356e+02 1.499192e-205
-2.084751e+00 1.060282e+02 3.863960e-236
-2.904681e+00 2.181117e+02 1.397234e-187
-1.336628e+00 -2.866188e+02 0.000000e+00
-1.663349e+00 -2.159220e+01 1.452771e-291
-2.136197e+00 1.182492e+02 5.963984e-231
-1.092388e+00 -6.674206e+02 0.000000e+00
-7.721421e-01 -1.855775e+03 0.000000e+00
-1.771834e+00 2.909710e+01 1.500653e-269
-1.803955e+00 3.645177e+01 2.346243e-266
-2.601315e+00 1.939035e+02 4.283330e-198
-2.484467e+00 1.798641e+02 3.424109e-204
-5.570471e-01 -4.002590e+03 0.000000e+00
-8.591016e-01 -1.318911e+03 0.000000e+00
-9.235987e-01 -1.072521e+03 0.000000e+00
-1.408166e+00 -2.104559e+02 0.000000e+00
-1.453107e+00 -1.735613e+02 0.000000e+00
-1.362531e+00 -2.645976e+02 0.000000e+00
-4.523629e+00 4.257084e+02 1.525889e-98
-2.079362e+00 1.058243e+02 3.151229e-236
-2.074003e+00 1.057901e+02 3.045279e-236
-2.402174e+00 1.510755e+02 1.076013e-216
-2.390952e+00 1.488561e+02 1.169349e-217
-3.182401e+00 2.424666e+02 5.277981e-177
-3.448884e+00 2.718356e+02 3.000976e-164
-1.832933e+00 4.531187e+01 1.652972e-262
-1.681233e+00 -1.327995e+01 5.917815e-288
-9.926414e-01 -8.879660e+02 0.000000e+00
-2.175899e+00 1.259719e+02 1.347294e-227
-2.171409e+00 1.257948e+02 1.128623e-227
-2.162489e+00 1.256639e+02 9.901472e-228
-2.158059e+00 1.253829e+02 7.475892e-228
-2.184940e+00 1.260342e+02 1.433900e-227
-1.016661e+00 -8.226719e+02 0.000000e+00
-1.052407e+00 -7.647342e+02 0.000000e+00
-1.049611e+00 -7.652645e+02 0.000000e+00
-1.924224e-01 -3.307650e+04 0.000000e+00
-6.404024e-01 -3.457148e+03 0.000000e+00
-3.207333e+00 2.431203e+02 1.014767e-176
-2.668657e-01 -9.155184e+03 0.000000e+00
-2.805657e-01 -9.155173e+03 0.000000e+00
-8.146769e-01 -1.543926e+03 0.000000e+00
-2.944559e-01 -8.761785e+03 0.000000e+00
-3.085418e-01 -8.761781e+03 0.000000e+00
-3.814633e-01 -6.419905e+03 0.000000e+00
-3.549783e-01 -7.189013e+03 0.000000e+00
-1.027524e+00 -8.073494e+02 0.000000e+00
-3.122661e+00 2.405249e+02 7.571785e-178
-1.491170e+00 -1.358036e+02 0.000000e+00
-1.494159e+00 -1.357098e+02 0.000000e+00
-1.479304e+00 -1.459581e+02 0.000000e+00
-2.413524e+00 1.667737e+02 7.070645e-210
-1.808043e+00 3.783687e+01 9.373769e-266
-1.594848e+00 -7.645560e+01 2.164339e-315
-1.367793e+00 -2.470853e+02 0.000000e+00
-6.238987e+00 5.499000e+02 4.830084e-45
-6.217356e+00 5.494562e+02 3.098951e-45
-5.770438e+00 5.239160e+02 2.507534e-56
-6.224514e+00 5.498801e+02 4.734915e-45
-5.846233e+00 5.274287e+02 8.409943e-55
-5.293386e+00 4.981012e+02 1.541777e-67
-5.046057e+00 4.816504e+02 1.685016e-74
-4.797223e+00 4.576960e+02 1.190039e-84
-4.801930e+00 4.584014e+02 2.409420e-84
-4.481652e+00 4.209729e+02 1.339434e-100
-4.825808e+00 4.615020e+02 5.351628e-83
-4.938220e+00 4.740300e+02 1.476819e-77
-4.538022e+00 4.263304e+02 2.842197e-98
-5.228070e+00 4.920210e+02 3.932660e-70
-5.129582e+00 4.866776e+02 1.879651e-72
-5.687312e+00 5.167677e+02 1.971422e-59
-5.683122e+00 5.167364e+02 1.910672e-59
-5.674796e+00 5.167053e+02 1.852165e-59
-5.650224e+00 5.161559e+02 1.069247e-59
-5.654278e+00 5.161572e+02 1.070638e-59
-5.452647e+00 5.064825e+02 6.729364e-64
-5.462657e+00 5.076216e+02 2.102223e-63
-5.322107e+00 5.007381e+02 2.153837e-66
-5.342714e+00 5.022839e+02 1.010521e-65
-6.029343e+00 5.375793e+02 2.153489e-50
-6.077779e+00 5.399793e+02 2.373829e-49
-6.543331e+00 5.668660e+02 1.127703e-37
-6.346618e+00 5.545321e+02 4.961924e-43
-6.338534e+00 5.545307e+02 4.954982e-43
-6.354768e+00 5.545820e+02 5.215806e-43
-6.306835e+00 5.536742e+02 2.104112e-43
-6.405115e+00 5.587168e+02 3.258684e-41
-6.523761e+00 5.664595e+02 7.510246e-38
-6.553262e+00 5.669942e+02 1.281951e-37
-4.000961e+00 3.527863e+02 1.295850e-129
-4.052725e+00 3.634777e+02 5.698636e-125
-5.977518e+00 5.334883e+02 3.601172e-52
-4.428291e+00 4.055553e+02 2.698627e-107
-5.721474e+00 5.205372e+02 8.547766e-58
-5.739003e+00 5.224464e+02 5.767767e-57
-5.410391e+00 5.050339e+02 1.580720e-64
-5.407214e+00 5.050062e+02 1.537535e-64
-5.557565e+00 5.125149e+02 2.804220e-61
-5.561259e+00 5.125200e+02 2.818558e-61
-5.187504e+00 4.895598e+02 3.355837e-71
-5.143072e+00 4.875260e+02 4.390689e-72
-5.658348e+00 5.161672e+02 1.081399e-59
-5.662435e+00 5.164120e+02 1.381341e-59
-5.666538e+00 5.164120e+02 1.381341e-59
-5.866114e+00 5.295122e+02 6.755315e-54
-5.861106e+00 5.293336e+02 5.650419e-54
-5.535682e+00 5.117200e+02 1.266460e-61
-5.521355e+00 5.107090e+02 4.608076e-62
-6.396546e+00 5.586700e+02 3.109691e-41
-4.811413e+00 4.591935e+02 5.320067e-84
-4.806661e+00 4.588249e+02 3.679901e-84
-3.538144e+00 2.775310e+02 2.689016e-162
-6.514117e+00 5.657877e+02 3.836146e-38
-6.533498e+00 5.665364e+02 8.110570e-38
-4.556310e+00 4.274869e+02 9.034741e-98
-5.190348e+00 4.895836e+02 3.436664e-71
-5.222173e+00 4.916703e+02 2.769359e-70
-5.255045e+00 4.938197e+02 2.376030e-69
-4.958969e+00 4.755690e+02 3.850219e-77
-4.792537e+00 4.575609e+02 1.039652e-84
-5.252012e+00 4.935880e+02 1.884629e-69
-5.216311e+00 4.913188e+02 1.948609e-70
-5.248988e+00 4.934653e+02 1.667009e-69
-5.489851e+00 5.091971e+02 1.016038e-62
-5.493303e+00 5.092493e+02 1.070483e-62
-5.572424e+00 5.130834e+02 4.951177e-61
-1.939189e+00 7.155434e+01 4.123115e-251
-3.928018e+00 3.462000e+02 1.787150e-132
-4.488527e+00 4.211952e+02 1.672881e-100
-4.491983e+00 4.228428e+02 8.689779e-100
-3.620864e+00 2.973005e+02 1.036044e-153
-3.717361e+00 3.136447e+02 1.298895e-146
-4.088785e+00 3.678249e+02 4.402870e-123
-1.625094e+00 -5.641416e+01 1.094491e-306
-1.611538e+00 -5.983205e+01 3.587908e-308
-1.334074e+00 -2.872799e+02 0.000000e+00
-1.313192e+00 -2.910659e+02 0.000000e+00
-1.405423e+00 -2.144170e+02 0.000000e+00
-2.859103e+00 2.146004e+02 4.171872e-189
-2.841438e+00 2.143352e+02 3.200045e-189
-2.850231e+00 2.144229e+02 3.493363e-189
-2.368878e+00 1.460901e+02 7.356745e-219
-2.358022e+00 1.460527e+02 7.086685e-219
-2.374351e+00 1.461958e+02 8.176937e-219
-2.352637e+00 1.460344e+02 6.958178e-219
-2.341955e+00 1.457632e+02 5.305360e-219
-2.336656e+00 1.457373e+02 5.169715e-219
-2.347282e+00 1.459825e+02 6.606259e-219
-2.315737e+00 1.430835e+02 3.638613e-220
-2.236180e+00 1.339015e+02 3.743208e-224
-4.875344e+00 4.690348e+02 9.998605e-80
-2.270210e+00 1.372837e+02 1.101830e-222
-1.455984e+00 -1.620980e+02 0.000000e+00
-5.411785e-01 -4.314763e+03 0.000000e+00
-8.478091e-01 -1.387725e+03 0.000000e+00
-5.978565e-01 -3.858576e+03 0.000000e+00
-6.491332e-01 -3.137246e+03 0.000000e+00
-1.013963e+00 -8.317812e+02 0.000000e+00
-1.058022e+00 -7.552659e+02 0.000000e+00
-8.038724e-01 -1.652076e+03 0.000000e+00
-3.066289e+00 2.333315e+02 5.690420e-181
-2.320926e+00 1.433215e+02 4.616342e-220
-2.198656e+00 1.271181e+02 4.238877e-227
-1.277501e+00 -3.473925e+02 0.000000e+00
-1.260123e+00 -3.500445e+02 0.000000e+00
-1.256683e+00 -3.500920e+02 0.000000e+00
-1.263574e+00 -3.500422e+02 0.000000e+00
-1.274001e+00 -3.475970e+02 0.000000e+00
-1.291625e+00 -3.155861e+02 0.000000e+00
-2.250623e+00 1.348329e+02 9.500487e-224
-2.245785e+00 1.347769e+02 8.983082e-224
-2.240971e+00 1.341903e+02 4.996527e-224
-2.255484e+00 1.350182e+02 1.143459e-223
-4.783231e+00 4.572771e+02 7.827718e-85
-2.430793e+00 1.718402e+02 1.121533e-207
-2.016868e+00 9.227587e+01 4.115964e-242
-2.285157e+00 1.389841e+02 6.033775e-222
-2.166939e+00 1.256866e+02 1.012881e-227
-7.566467e-01 -2.031142e+03 0.000000e+00
-2.385388e+00 1.481645e+02 5.855799e-218
-1.373082e+00 -2.421442e+02 0.000000e+00
-1.378400e+00 -2.387525e+02 0.000000e+00
-1.375738e+00 -2.410573e+02 0.000000e+00
-1.370434e+00 -2.462583e+02 0.000000e+00
-1.381070e+00 -2.378002e+02 0.000000e+00
-1.394526e+00 -2.213149e+02 0.000000e+00
-2.396547e+00 1.499669e+02 3.551064e-217
-2.407833e+00 1.529591e+02 7.077087e-216
-1.598164e+00 -7.191342e+01 2.032212e-313
-1.812149e+00 3.926373e+01 3.904736e-265
-3.088458e+00 2.372893e+02 2.978482e-179
-1.199947e+00 -4.654513e+02 0.000000e+00
-1.578431e+00 -9.047310e+01 1.768755e-321
-4.195230e+00 3.736008e+02 1.419637e-120
-1.584966e+00 -8.595032e+01 1.628638e-319
-3.055386e+00 2.322887e+02 2.005682e-181
-5.517805e+00 5.099963e+02 2.259425e-62
-5.510743e+00 5.098009e+02 1.858390e-62
-5.514268e+00 5.098009e+02 1.858390e-62
-5.316297e+00 5.000811e+02 1.116558e-66
-5.301916e+00 4.987995e+02 3.099485e-67
-5.299065e+00 4.981525e+02 1.622934e-67
-6.096565e+00 5.412994e+02 8.887130e-49
-5.426433e+00 5.057068e+02 3.098074e-64
-7.046291e+00 5.763258e+02 1.447217e-33
-7.466583e+00 5.844691e+02 4.978793e-30
-7.442011e+00 5.841285e+02 3.541631e-30
-6.422477e+00 5.603145e+02 1.610329e-40
-6.440146e+00 5.616920e+02 6.384916e-40
-8.154800e+00 5.932559e+02 3.259739e-26
-5.156746e+00 4.880368e+02 7.317628e-72
-5.066485e+00 4.833226e+02 8.970800e-74
-5.083833e+00 4.845218e+02 2.976029e-73
-5.379060e+00 5.037155e+02 4.229423e-65
-5.476161e+00 5.084754e+02 4.937186e-63
-5.336783e+00 5.019268e+02 7.070638e-66
-6.775910e+00 5.722183e+02 2.380506e-35
-7.205360e+00 5.796176e+02 3.891745e-32
-6.047233e+00 5.383791e+02 4.791719e-50
-3.889681e+00 3.439647e+02 1.911537e-133
-3.920232e+00 3.458073e+02 1.206740e-132
-4.135770e+00 3.713191e+02 1.449598e-121
-1.098061e+01 6.303847e+02 1.040535e-11
-7.149478e+00 5.791623e+02 2.468369e-32
-4.505924e+00 4.239418e+02 2.607944e-99
-6.880995e+00 5.739319e+02 1.320919e-34
-6.175450e+00 5.457903e+02 7.927470e-47
