#lags,ntau,weight_dist,acf,smooth_dist,smooth_weight_dist
-1976.98849,1.0,0.002031463494443671,0.0,8.781730913856618,0.02118156354132956
-1974.9884899999,1.0,0.0020549907276684832,0.0,10.005019179880286,0.02439980328614258
-1972.9884899997999,1.0,0.002079481251461453,0.0,11.378872080874203,0.028047539069106217
-1970.9884899996998,1.0,0.0021044072367900637,0.0,12.915241226216885,0.03215961102317323
-1968.9884899995998,1.0,0.00212967874856977,0.0,14.62402684120713,0.03676499471996249
-1966.9884899994997,2.0,0.0021552101482897826,-0.9999999999994778,16.512060993006934,0.04188402113010197
-1964.9884899993997,2.0,0.002182001081940566,-0.9999999999996461,18.582038891508248,0.047525465138584036
-1962.9884899992996,2.0,0.0022093573566424923,-0.9999999999990246,20.83146175978505,0.05368367095220068
-1960.9884899991996,2.0,0.0022371594288376614,-4.626299343613027e-13,23.25166528893766,0.060335910680347354
-1958.9884899990996,3.0,0.0022652891264872757,-0.8282636676025051,25.827013653310853,0.06744018860423967
-1956.9884899989995,3.0,0.0022949256552652407,-0.7709536679653982,28.534339235414492,0.07493370487728102
-1954.9884899988995,3.0,0.0023252538024049604,-0.5632184934862131,31.342701768522737,0.08273217632685549
-1952.9884899987994,3.0,0.0023561288939438806,-0.1896186560105745,34.213527264999186,0.09073017774542755
-1950.9884899986994,4.0,0.002387404853029704,-0.6079933219412789,37.10116721626099,0.09880261531703896
-1948.9884899985993,4.0,0.0024203753269483805,-0.7414597491454735,39.95389315890131,0.10680737715664565
-1946.9884899984993,4.0,0.0024541712659800537,-0.8392056448811995,42.715312474358825,0.11458912859274677
-1944.9884899983992,4.0,0.002488629141217774,-0.8691747485166488,45.32616042904384,0.12198413749616727
-1942.9884899982992,5.0,0.0025235809442635776,-0.890776912609861,47.7263935178198,0.12882593434071582
-1940.9884899981992,5.0,0.002560414071632722,-0.8008118030358353,49.85748280777652,0.13495153985123567
-1938.988489998099,5.0,0.0025982489898788196,-0.5704936837799951,51.664785698584666,0.14020793681355423
-1936.988489997999,5.0,0.0026369036899577766,-0.2833560447884592,53.09986240641166,0.14445842762251093
-1934.988489997899,6.0,0.0026761881128961333,-0.12896611114589207,54.1226009691388,0.1475885094883553
-1932.988489997799,6.0,0.002717608296289544,-0.021147496944850214,54.70302225745439,0.14951091679981032
-1930.988489997699,6.0,0.002760236668932731,0.1385858567293251,54.82265403132557,0.15016952439906
-1928.988489997599,6.0,0.0028038743455029197,0.2759038718587348,54.47538925923212,0.14954187343845182
-1926.9884899974988,7.0,0.0028483103616683434,-0.002451400711282331,53.66777666296457,0.1476401678211589
-1924.9884899973988,7.0,0.0028951717227261313,-0.11062398899997379,52.41872809446128,0.14451068701371644
-1922.9884899972988,7.0,0.0029434650530857165,-0.22882143992574533,50.75866487384066,0.14023166225116102
-1920.9884899971987,7.0,0.0029929790500164938,-0.29141990640802024,48.72816055117549,0.13490975958330453
-1918.9884899970987,8.0,0.003043484538261951,-0.20849122129404385,46.3761678840399,0.12867539714946938
-1916.9884899969986,8.0,0.0030966980205518546,-0.09153146602705046,43.75794085717871,0.1216771891418772
-1914.9884899968986,8.0,0.003151569673450073,0.07035424459150644,40.93277674830959,0.11407585063551359
-1912.9884899967985,8.0,0.003207877384427292,0.17413099403420162,37.961707854991374,0.10603791358371324
-1910.9884899966985,9.0,0.0032653738862697193,-0.13560184304249143,34.90526770957007,0.0977295949200236
-1908.9884899965984,9.0,0.0033259224106092678,-0.14833815255928195,31.82144340154918,0.08931112519793369
-1906.9884899964984,9.0,0.0033884040449717445,-0.14108639197831405,28.763905642533018,0.08093179471950904
-1904.9884899963984,9.0,0.003452579570586947,-0.13229899392175612,25.780583549956518,0.07272590914854168
-1902.9884899962983,10.0,0.003518176686475517,-0.3448725924725694,22.912624115919513,0.06480977436268937
-1900.9884899961983,10.0,0.0035872350931665815,-0.45025940686683774,20.19374927358014,0.05727975701109646
-1898.9884899960982,10.0,0.0036585150852262815,-0.5039280099499575,17.649998451619425,0.050211398610110085
-1896.9884899959982,10.0,0.003731752239874291,-0.48218446955388305,15.29982319334242,0.043659501719787636
-1894.9884899958981,11.0,0.0038066413135091895,-0.4872341188343487,13.154483977763602,0.03765906015755008
-1892.988489995798,11.0,0.0038854203195637146,-0.4029262274496085,11.218688427674525,0.032226873203910884
-1890.988489995698,11.0,0.0039667108067596695,-0.25760145237093723,9.491404697758064,0.02736366676006002
-1888.988489995598,11.0,0.0040502163569319325,-0.14167973941520512,7.966783606739496,0.023056541550579422
-1886.988489995498,12.0,0.004135592041195441,-0.0691136423170853,6.635127247269713,0.01928157781693512
-1884.988489995398,12.0,0.004225332593750388,0.058702400918331385,5.4838493701691045,0.016006444905521337
-1882.9884899952979,12.0,0.004317912875793344,0.19633118749805084,4.498382677883155,0.013192889747868742
-1880.9884899951978,12.0,0.004412994710982321,0.28600744433109115,3.662999163975491,0.010799007457698809
-1878.9884899950978,13.0,0.004510183450332811,0.27687019322469686,2.9615207938050934,0.008781227367073402
-1876.9884899949977,13.0,0.004612251670220574,0.2649213080003557,2.3779083030529424,0.007095976469390328
-1874.9884899948977,13.0,0.004717495057793763,0.20522068329828658,1.896725076861385,0.005701007668893594
-1872.9884899947976,13.0,0.004825525969697838,0.12923049183478205,1.503480570862089,0.004556401298060661
-1870.9884899946976,14.0,0.0049358924567380925,0.4052466439107869,1.1848633685309231,0.0036252644813395156
-1868.9884899945976,14.0,0.005051684536263084,0.5409857844955841,0.9288777438754363,0.0028741640310035272
-1866.9884899944975,14.0,0.005171008164912268,0.6170524918238249,0.7248996648367154,0.0022733349967013956
-1864.9884899943975,14.0,0.005293299294014334,0.6329394358103115,0.5636687797359328,0.0017967093763654647
-1862.9884899942974,15.0,0.005417941191287557,0.759352452437168,0.43723237962800465,0.0014218086184931682
-1860.9884899941974,15.0,0.0055480493262598605,0.7604271517262915,0.3388559420499778,0.001129540248245393
-1858.9884899940973,15.0,0.005681590395269395,0.6692541225493208,0.262912939609369,0.0009039340480571861
-1856.9884899939973,15.0,0.005817817476750043,0.5249639111360722,0.20476440645184957,0.0007318474434991806
-1854.9884899938972,16.0,0.005955948933991157,0.4412998040917473,0.16063651355169722,0.0006026636858084221
-1852.9884899937972,16.0,0.006098135101005902,0.3955932817733524,0.1275022722415231,0.00050800054012415
-1850.9884899936972,16.0,0.006243075723127911,0.2962799341875514,0.10297157379278507,0.0004414417991403443
-1848.988489993597,16.0,0.0063899690461133056,0.18904505026969043,0.0851921435681376,0.00039829923680455135
-1846.988489993497,17.0,0.006537984700972428,0.37600519765411133,0.07276266529215612,0.0003754086851872338
-1844.988489993397,17.0,0.006687669857914934,0.43406112423512083,0.06465830954125719,0.0003709607735950278
-1842.988489993297,17.0,0.006839143964760773,0.44537056395078084,0.06016815644158354,0.00038436447669980387
-1840.988489993197,17.0,0.006991574622410412,0.42797876865711126,0.05884350045507009,0.00041613991507476037
-1838.988489993097,18.0,0.00714411096332616,0.4589391416286582,0.06045572519850784,0.00046783576418629925
-1836.9884899929968,18.0,0.007295769824026397,0.3981709942643189,0.06496229892047439,0.0005419660842534256
-1834.9884899928968,18.0,0.007448081835451049,0.31387191668737197,0.07247943020298139,0.0006419613155813417
-1832.9884899927968,18.0,0.00760021287715575,0.22626400633402727,0.08326000680159668,0.0007721285263730313
-1830.9884899926967,19.0,0.00775132206251959,0.2661835101500276,0.09767559091048754,0.000937616682227221
-1828.9884899925967,19.0,0.007899414185706452,0.22391712319357507,0.11620143771457653,0.0011443836436142677
-1826.9884899924966,19.0,0.00804708315377249,0.17247056045180414,0.1394037192297889,0.001399162680217163
-1824.9884899923966,19.0,0.008193522204283998,0.12078845737347643,0.16792835130842465,0.001709427378305275
-1822.9884899922965,20.0,0.008337928574173521,0.11653170072358976,0.20249101735334027,0.0020833547359126944
-1820.9884899921965,20.0,0.008477951638513535,0.040703773172322336,0.24386813652911538,0.0025297867921869935
-1818.9884899920964,20.0,0.00861663673683926,-0.03262500469481511,0.29288861648490866,0.003058191116478582
-1816.9884899919964,20.0,0.008753238069737377,-0.0939957805082482,0.35042624281736934,0.0036786197056461944
-1814.9884899918964,21.0,0.008887022529161187,-0.08675204461614441,0.41739247726021167,0.0044016641795310354
-1812.9884899917963,21.0,0.009015337311295533,-0.14558930736178594,0.4947292605583705,0.005238402600280977
-1810.9884899916963,21.0,0.009141474832615423,-0.19406069821309382,0.5834011535358016,0.006200329888122684
-1808.9884899915962,21.0,0.009264781016602877,-0.22757050206091595,0.6843858259293123,0.007299259953315738
-1806.9884899914962,22.0,0.009384621234864478,-0.1913569475207676,0.7986615589546424,0.008547183784984834
-1804.9884899913961,22.0,0.009498363049132003,-0.2249407437392992,0.9271901219988135,0.009956064476518834
-1802.988489991296,22.0,0.009609514109988386,-0.2477968774007243,1.0708931859937567,0.011537548292888482
-1800.988489991196,22.0,0.009717534569849617,-0.25916971652696835,1.2306204206367477,0.013302571210603159
-1798.988489991096,22.0,0.009821902954167551,-0.21259447551421246,1.407107659642622,0.015260843633367896
-1796.988489990996,22.0,0.009920872178276271,-0.23198930056880251,1.6009240611352271,0.017420202756959092
-1794.988489990896,22.0,0.010017724648479128,-0.24268962561270516,1.8124080639072626,0.019785832545761693
-1792.9884899907959,22.0,0.010112041174766632,-0.24472429469238466,2.0415931297789545,0.022359365261846974
-1790.9884899906958,21.0,0.010203405885978583,-0.26397219950595374,2.288125705670251,0.025137895197335575
-1788.9884899905958,21.0,0.010290594989977073,-0.27672662829651173,2.5511794248239097,0.02811295339492713
-1786.9884899904957,21.0,0.010376285667105509,-0.28014272822152797,2.8293711384779887,0.03126950989949062
-1784.9884899903957,21.0,0.01046016138627811,-0.27577078882000006,3.120685737754296,0.034585085310384775
-1782.9884899902956,20.0,0.010541892948116874,-0.29541339689341445,3.422417687101083,0.03802906380610348
-1780.9884899901956,20.0,0.010620092927380953,-0.30912117726473154,3.7311375521400576,0.04156230323355578
-1778.9884899900956,20.0,0.010696999940573389,-0.31364427466571365,4.042691410552719,0.04513713257936937
-1776.9884899899955,20.0,0.010772381976504436,-0.3102746275537789,4.352239792870259,0.048697812191222864
-1774.9884899898955,19.0,0.010845986027946121,-0.33071947601836904,4.654340704280286,0.05218150748846853
-1772.9884899897954,19.0,0.010916426201474322,-0.3451956964209133,4.943078420830064,0.055519793703247625
-1770.9884899896954,19.0,0.010985639268539342,-0.35053851186227025,5.212236325620513,0.058640669661813256
-1768.9884899895953,19.0,0.011053471335754888,-0.3479904281948787,5.455508333044456,0.06147101597624939
-1766.9884899894953,18.0,0.011119741979568935,-0.3633225769097226,5.666739786051511,0.06393939120337042
-1764.9884899893952,18.0,0.01118318128063805,-0.3723300578412604,5.840185475807062,0.0659790227826321
-1762.9884899892952,18.0,0.011245526216987508,-0.37274244998949646,5.970769984709818,0.06753082196267537
-1760.9884899891952,18.0,0.011306694511377852,-0.3661840603404407,6.054334195461108,0.06854623687999278
-1758.9884899890951,17.0,0.011366572503747709,-0.3849401703461969,6.087851747412792,0.06898975777135927
-1756.988489988995,17.0,0.011423946511857519,-0.3994774108894724,6.069600537526513,0.06884090385433123
-1754.988489988895,17.0,0.011480325988190336,-0.40653316221919633,5.999276996353071,0.06809555195795423
-1752.988489988795,17.0,0.011535694546567209,-0.4065234902932606,5.87804461887411,0.06676651019905032
-1750.988489988695,16.0,0.011590001277586479,-0.3982204434581402,5.708512773735856,0.06488329217127602
-1748.988489988595,16.0,0.011642430617120593,-0.38290626183268306,5.494646742399343,0.062491103545276885
-1746.9884899884948,16.0,0.011694525526872404,-0.36145460518352523,5.2416147988555135,0.05964910848549833
-1744.9884899883948,16.0,0.011746332396421812,-0.3361201896259292,4.955582484302096,0.056428092773657075
-1742.9884899882948,15.0,0.011797852079410429,-0.31068730545476586,4.6434676685508585,0.05290767953191427
-1740.9884899881947,15.0,0.01184847783199906,-0.28040270903406406,4.312672227063523,0.04917327861636586
-1738.9884899880947,15.0,0.011899648003260408,-0.24700804456052278,3.970807032098609,0.04531296020992834
-1736.9884899879946,15.0,0.011951451024181168,-0.2131623553031558,3.625426431741351,0.041414436600512625
-1734.9884899878946,14.0,0.012003917819058126,-0.19064425981428948,3.2837865828977275,0.03756231488749177
-1732.9884899877945,14.0,0.012056247575763923,-0.1670003476281138,2.9526391451925287,0.03383575010182269
-1730.9884899876945,14.0,0.012109468934409175,-0.14339864476901992,2.6380682537129085,0.03030658667834643
-1728.9884899875944,14.0,0.012163680888271492,-0.12160736169055346,2.345374743240734,0.02703803071471135
-1726.9884899874944,13.0,0.01221892346048576,-0.11301720770969706,2.0790076795030568,0.024083850458420847
-1724.9884899873944,13.0,0.012274483876056586,-0.10611634304854577,1.842539720352015,0.021488062135858688
-1722.9884899872943,13.0,0.012331186026751541,-0.10125467143449529,1.6386799767772233,0.019285026030088394
-1720.9884899871943,13.0,0.012389133576086859,-0.09884142677229843,1.469316080141932,0.017499856098979714
-1718.9884899870942,12.0,0.012448374242920873,-0.06805124674041366,1.335576199148314,0.016149036720879875
-1716.9884899869942,12.0,0.012508425137373609,-0.03623040342139214,1.237901797230299,0.015241142480215197
-1714.9884899868941,12.0,0.012569996954844988,-0.008370279879569231,1.176122892757707,0.014777570239217299
-1712.988489986794,12.0,0.012633207308348684,0.013767187404731263,1.1495293143175669,0.014753215075638027
-1710.988489986694,11.0,0.012698121598976573,0.036427328094985,1.156933704177968,0.015157050221876665
-1708.988489986594,11.0,0.012764461860467691,0.05542258518225307,1.1967245495562084,0.015972602633442298
-1706.988489986494,11.0,0.012832786900418326,0.06839863947395311,1.2669100341769026,0.017178346736484832
-1704.988489986394,11.0,0.012903232204224195,0.07502457283540895,1.3651557318560577,0.01874806581354085
-1702.9884899862939,10.0,0.01297588749787099,0.10154398940232245,1.488820870480824,0.020651250286395993
-1700.9884899861938,10.0,0.013050599849321836,0.12467344865227703,1.6349988895618988,0.022853612348632733
-1698.9884899860938,10.0,0.013127700139872913,0.14030235721055923,1.8005681734515366,0.02531779531517243
-1696.9884899859937,10.0,0.013207356098166652,0.14812306172467885,1.98225811762892,0.0280043430196473
-1694.9884899858937,9.0,0.013289700718774774,0.1649660902229094,2.176734112168239,0.030872970048612156
-1692.9884899857936,9.0,0.013374704278629452,0.17633499638604522,2.3807027232204874,0.033884139162294595
-1690.9884899856936,9.0,0.013462412166663565,0.17965513358207147,2.5910355169489248,0.03700091064122707
-1688.9884899855936,9.0,0.01355301927555254,0.17554850030182995,2.80490686419713,0.04019098322093102
-1686.9884899854935,8.0,0.013646701640409977,0.18168799076875833,3.019937999618527,0.04342880217301281
-1684.9884899853935,8.0,0.013743454613715065,0.18213409321864388,3.2343369211176656,0.04669757179944252
-1682.9884899852934,8.0,0.013842939377584332,0.17469602320814162,3.4470217339575404,0.049990981948889214
-1680.9884899851934,8.0,0.01394537661326946,0.16046160546062013,3.657714061470142,0.05331444547737384
-1678.9884899850933,7.0,0.01405099398410357,0.18469873661889732,3.866989385017432,0.05668564923580096
-1676.9884899849933,7.0,0.014159610860172962,0.20788896001766086,4.076272766581219,0.06013424714463193
-1674.9884899848932,7.0,0.01427027554790914,0.22505619689066741,4.287771355698652,0.06370057041795645
-1672.9884899847932,7.0,0.014383230748585399,0.23591123317344612,4.50433926385888,0.06743329524285929
-1670.9884899846932,6.0,0.014498767890021885,0.2683307684058142,4.7292755461324,0.07138608837967235
-1668.9884899845931,6.0,0.014616753326778736,0.29842310595189314,4.966061782629309,0.07561334050175446
-1666.988489984493,6.0,0.014735724807187683,0.32274060522416387,5.218051626251894,0.08016518837397058
-1664.988489984393,6.0,0.014855945529004162,0.34114215204733944,5.488130144277942,0.0850821119176289
-1662.988489984293,5.0,0.014977765418324082,0.3483529087617607,5.778365283810958,0.09038946228410108
-1660.988489984193,5.0,0.015101659433960869,0.3499745928978902,6.089676829749634,0.09609232425055177
-1658.988489984093,5.0,0.015226126801777482,0.3460138814804844,6.421549386947565,0.10217113392988274
-1656.9884899839928,5.0,0.015351449440454792,0.33678629284551515,6.7718149359939535,0.10857845649547501
-1654.9884899838928,4.0,0.01547801002737636,0.30467069600845537,7.1365272952137655,0.11523727671982759
-1652.9884899837928,4.0,0.015606836697594193,0.2631151706096757,7.5099454842004345,0.12204106920908767
-1650.9884899836927,4.0,0.015736290039948236,0.21418799267583058,7.8846358482607775,0.12885580022879942
-1648.9884899835927,4.0,0.01586664131868707,0.1598595900154643,8.25169438118074,0.13552387703431598
-1646.9884899834926,3.0,0.015998269254744048,0.0864681746186476,8.601081641249314,0.14186991427302337
-1644.9884899833926,3.0,0.016132493608053262,-0.000776574424240084,8.922053754500286,0.14770804261414378
-1642.9884899832925,3.0,0.016267195076770675,-0.09869241925221689,9.203665027818712,0.15285035512244882
-1640.9884899831925,3.0,0.016402591749348175,-0.20258484621813683,9.435311389980713,0.15711598413483105
-1638.9884899830924,2.0,0.01653901414020473,-0.26369411941646254,9.607279850731599,0.16034023564304725
-1636.9884899829924,2.0,0.016678392616510253,-0.31931905349590056,9.711267833110183,0.16238318644450606
-1634.9884899828924,2.0,0.016818312237549995,-0.3719330121348061,9.740837767104743,0.1631371746688347
-1632.9884899827923,2.0,0.01695884370332455,-0.42051823534904353,9.691776642316233,0.16253268541904597
-1630.9884899826923,1.0,0.017100166482562736,-0.4366288876516071,9.562336950775185,0.16054224453369276
-1628.9884899825922,1.0,0.01724503732650153,-0.4494514394408256,9.353344026258904,0.15718207539086726
-1626.9884899824922,1.0,0.017390936823977847,-0.46178828349231504,9.068164449723794,0.15251143384208746
-1624.9884899823921,1.0,0.017537701706463016,-0.4736350936779406,8.712540093445277,0.14662970074892367
-1622.988489982292,0.0,0.017685270000065235,-0.47465458036366337,8.294301663049698,0.13967146596630137
-1620.988489982192,0.0,0.017837126847773336,-0.4746545803636878,7.822983489883519,0.1317999690005089
-1618.988489982092,0.0,0.017990585463068892,-0.47465458036362784,7.309367204898143,0.12319935954328953
-1616.988489981992,0.0,0.01814519775956534,-0.4746545803636066,6.7649853814688825,0.11406629874973695
-1614.988489981892,2.0,0.0183006082683459,-0.3812094714299008,6.20161710570257,0.1046014366749366
-1612.9884899817919,2.0,0.018461490398282293,-0.4102414788191576,5.630805805455591,0.0950012740685185
-1610.9884899816918,2.0,0.018624486835684406,-0.4372345081117426,5.063425855837867,0.08545085289415205
-1608.9884899815918,2.0,0.01878886723424216,-0.46186099028647254,4.509318970786701,0.07611762765918957
-1606.9884899814917,4.0,0.018953982623763726,-0.4464373699947657,3.977014794788821,0.06714675904686977
-1604.9884899813917,4.0,0.019125980559484824,-0.46269488458087304,3.473543078851301,0.05865795336795822
-1602.9884899812917,4.0,0.01930064527630202,-0.4770890048447872,3.0043379891592563,0.05074385654090961
-1600.9884899811916,4.0,0.01947699765205348,-0.4891602782148469,2.573228999975531,0.043469908825788446
-1598.9884899810916,6.0,0.019654127183712317,-0.4627361201825353,2.1825078794412116,0.03687548337780372
-1596.9884899809915,6.0,0.01983902518921361,-0.4888008270947978,1.8330577479691823,0.03097607225190862
-1594.9884899808915,6.0,0.020027049813748064,-0.5120884875210661,1.5245281723483153,0.02576624946931018
-1592.9884899807914,6.0,0.020217029502546655,-0.5317038949258732,1.2555397033305935,0.021223131320344184
-1590.9884899806914,8.0,0.020407850873991048,-0.5099200427368896,1.0239019957662716,0.017310066314070654
-1588.9884899805913,8.0,0.020606724150470074,-0.525774618940536,0.8268314057896543,0.013980316693784411
-1586.9884899804913,8.0,0.020809145170198613,-0.5276499555428932,0.661156428155574,0.01118053499477268
-1584.9884899803913,8.0,0.021013824036722667,-0.518508214030563,0.5235021973014722,0.008853887319391036
-1582.9884899802912,10.0,0.021219516633545606,-0.3941298107276768,0.4104482293126121,0.006942724810290776
-1580.9884899801912,10.0,0.021433375760451196,-0.39093790642805576,0.31865637715390105,0.005390751970476619
-1578.9884899800911,10.0,0.02165139621367665,-0.37530170398132684,0.24496841915627474,0.004144681811730322
-1576.988489979991,10.0,0.02187219213340284,-0.35015402369659154,0.18647467985142502,0.0031554012612993007
-1574.988489979891,12.0,0.022094408576097676,-0.29173718142910837,0.14055653763823492,0.0023786948796340615
-1572.988489979791,12.0,0.02232528940579367,-0.300804153255603,0.1049066072960733,0.001775590761605631
-1570.988489979691,12.0,0.022561121405723503,-0.29642184395211685,0.07753084326006854,0.0013124002825055823
-1568.988489979591,12.0,0.022800455890846737,-0.2798607352297366,0.05673686803613878,0.0009605243885450429
-1566.9884899794909,14.0,0.02304185755131173,-0.2531685195570547,0.04111258118583333,0.0006960949693273488
-1564.9884899793908,14.0,0.02329260054142362,-0.25574667168735127,0.029498643428936593,0.0004995120970139395
-1562.9884899792908,14.0,0.02354918482231709,-0.24523966770750896,0.020957846820913208,0.00035492808003468197
-1560.9884899791907,14.0,0.02381015516597137,-0.22431986586593672,0.014743752011795307,0.00024971864853805595
-1558.9884899790907,16.0,0.024074036882649905,-0.18542673174987762,0.010270357136222352,0.00017397117697614802
-1556.9884899789906,16.0,0.02434773667263155,-0.1910865561755361,0.007084002266403638,0.00012001037368821997
-1554.9884899788906,16.0,0.02462802664135392,-0.18185925351032992,0.004838234419722322,8.197376680250024e-05
-1552.9884899787905,16.0,0.024913478311979625,-0.16008798562373427,0.003271972533565486,5.5442789659217723e-05
-1550.9884899786905,18.0,0.025202600711647427,-0.14418318930742094,0.002191020195524737,3.713032905222757e-05
-1548.9884899785905,18.0,0.02550227766819584,-0.15117657962214487,0.0014527690014888108,2.462212482358053e-05
-1546.9884899784904,18.0,0.025809475733683484,-0.14483202605145873,0.0009538051569362908,1.616719706338583e-05
-1544.9884899783904,18.0,0.026122763858581578,-0.12822159602891375,0.0006200620499404891,1.0511286514160924e-05
-1542.9884899782903,20.0,0.026440604072626755,-0.15550733118249685,0.00039913745820763447,6.766879159511092e-06
-1540.9884899781903,20.0,0.026770024654510616,-0.18016990272800293,0.000254402361784982,4.31352022180842e-06
-1538.9884899780902,20.0,0.02710785028909838,-0.1922782108759344,0.00016055749058994082,2.7226109754847524e-06
-1536.9884899779902,20.0,0.027452605827851133,-0.19224861272469043,0.00010033449081646171,1.7015673478022801e-06
-1534.9884899778901,22.0,0.0278026693925799,-0.19497416385175778,6.208399292260156e-05,1.0529844516231189e-06
-1532.98848997779,22.0,0.028165299959730647,-0.20505618801544256,3.803804644629796e-05,6.452135806096142e-07
-1530.98848997769,22.0,0.028537095898472774,-0.2025421368180086,2.3076259010223778e-05,3.9146526248672865e-07
-1528.98848997759,22.0,0.028916509540177777,-0.18978091616591058,1.3861834345167574e-05,2.351747065295322e-07
-1526.98848997749,24.0,0.029301809757625655,-0.19461441163858284,8.244865310283697e-06,1.3989271656825082e-07
-1524.98848997739,24.0,0.029700853769171073,-0.2076010321958366,4.855717912311613e-06,8.239600794990578e-08
-1522.9884899772899,24.0,0.030109995220321588,-0.20930173942680774,2.831586395106016e-06,4.8053306189437183e-08
-1520.9884899771898,24.0,0.030527561537678282,-0.20195136597788615,1.6349788210068863e-06,2.7748906534130882e-08
-1518.9884899770898,26.0,0.030951660682222246,-0.21275030397777742,9.347594275383191e-07,1.5866218647465094e-08
-1516.9884899769897,26.0,0.031390821788831035,-0.21479904766905902,5.291666279317445e-07,8.982669461575296e-09
-1514.9884899768897,26.0,0.03184095020239229,-0.2085948330043334,2.966124493632499e-07,5.035484817572743e-09
-1512.9884899767897,26.0,0.032300215696252695,-0.1969448910588931,1.6462284446371146e-07,2.7949916542057777e-09
-1510.9884899766896,28.0,0.03276653610472058,-0.22601651715313067,9.046781298788541e-08,1.5361108591605059e-09
-1508.9884899765896,28.0,0.03324932413693589,-0.23311934552556426,4.922671013225456e-08,8.359241852301008e-10
-1506.9884899764895,28.0,0.033743997492482705,-0.23416432465241002,2.6522211394190342e-08,4.5041513872622896e-10
-1504.9884899763895,28.0,0.034248132479729035,-0.23066023163822374,1.4148823245312457e-08,2.403036106587731e-10
-1502.9884899762894,30.0,0.03475908785624767,-0.259119687871469,7.473637881163622e-09,1.2694287100944608e-10
-1500.9884899761894,30.0,0.035286242578480544,-0.27065874134640266,3.908808523082717e-09,6.639823195948894e-11
-1498.9884899760893,30.0,0.035824661041340224,-0.2761757010143607,2.024215909048909e-09,3.438779836311125e-11
-1496.9884899759893,30.0,0.03637130404372862,-0.276443600640212,1.0379318571104885e-09,1.7634021525737127e-11
-1494.9884899758893,32.0,0.03692297281576081,-0.30255200569275337,5.269627326959006e-10,8.953585486053314e-12
-1492.9884899757892,32.0,0.03748558584339262,-0.3129656562796063,2.649046003940559e-10,4.501328541596865e-12
-1490.9884899756892,32.0,0.038056673913864386,-0.31676843806594723,1.3185515785031738e-10,2.24069136301749e-12
-1488.9884899755891,32.0,0.038633031681719825,-0.31436651082767253,6.4983374667762e-11,1.104384904091422e-12
-1486.988489975489,34.0,0.03921131760847139,-0.3271744515861086,3.171059628960803e-11,5.389586836310164e-13
-1484.988489975389,34.0,0.03979191835599789,-0.3313451544555808,1.5321562715740173e-11,2.6042734091592893e-13
-1482.988489975289,34.0,0.04037719274611594,-0.3279668455349855,7.329894534979343e-12,1.2459863218878793e-13
-1480.988489975189,34.0,0.04096387245768064,-0.31934747262497054,3.472065435903681e-12,5.902487500534489e-14
-1478.988489975089,36.0,0.0415485921437651,-0.34038470951213506,1.6284450129053209e-12,2.768544397005472e-14
-1476.9884899749889,36.0,0.04212650568764013,-0.3531868605114691,7.562281324348537e-13,1.285766302480037e-14
-1474.9884899748888,36.0,0.04270477081076669,-0.3595724645757662,3.477175501251707e-13,5.912433072279586e-15
-1472.9884899747888,36.0,0.04328017021417267,-0.3604221732786532,1.5830475646355763e-13,2.6919290606756236e-15
-1470.9884899746887,38.0,0.04384943227966327,-0.38068281280516314,7.135992963108082e-14,1.2135388604871378e-15
-1468.9884899745887,38.0,0.044404149451750224,-0.3933288594472384,3.184985708905505e-14,5.41671521440499e-16
-1466.9884899744886,38.0,0.04495496447055911,-0.39971167063402113,1.4075140017435839e-14,2.3939225708945703e-16
-1464.9884899743886,38.0,0.04549881916108768,-0.40030915167463377,6.158708780214082e-15,1.0475519236944662e-16
-1462.9884899742885,40.0,0.04603264257053535,-0.4275870944478696,2.6681972108740685e-15,4.538707257438685e-17
-1460.9884899741885,40.0,0.04654669898086186,-0.44830681263163497,1.1445569889849326e-15,1.9470675141455185e-17
-1458.9884899740885,40.0,0.04705305263417236,-0.46165185005238474,4.861273550592157e-16,8.270486778390032e-18
-1456.9884899739884,40.0,0.047548938245332295,-0.46768711664104534,2.04441945298114e-16,3.478888648931453e-18
-1454.9884899738884,42.0,0.048031613668472625,-0.49565923849372673,8.515055731426882e-17,1.450349051169353e-18
-1452.9884899737883,42.0,0.048490144247372184,-0.5171885803466083,3.516934651939226e-17,6.023806910601453e-19
-1450.9884899736883,42.0,0.04893726812195304,-0.5300919837291573,1.451976045553379e-17,2.57090995297688e-19
-1448.9884899735882,42.0,0.0493706366247048,-0.5344606551171628,6.279453870584009e-18,1.3198507093908273e-19
-1446.9884899734882,44.0,0.049787955639136586,-0.5562097799629615,3.534148684552879e-18,1.2255617176737284e-19
-1444.9884899733881,44.0,0.05017813529290785,-0.570382918227085,3.912125109050689e-18,2.2007423262400783e-19
-1442.988489973288,44.0,0.05055442857812583,-0.5754199037675294,7.65096011554786e-18,5.039665637855494e-19
-1440.988489973188,44.0,0.05091499862176158,-0.5719739288479175,1.7716395921805162e-17,1.2025479647793528e-18
-1438.988489973088,44.0,0.05125807184048231,-0.5959472212686949,4.200497836186259e-17,2.865442838990431e-18
-1436.988489972988,44.0,0.05157578078813183,-0.6134053842654663,9.915217365460931e-17,6.769297147379647e-18
-1434.988489972888,44.0,0.051880983704423296,-0.6216972087932636,2.319275235055388e-16,1.5836169030079057e-17
-1432.9884899727879,44.0,0.05217239694856609,-0.6212765877904693,5.371833355500424e-16,3.6680012523909865e-17
-1430.9884899726878,42.0,0.052448751285898425,-0.6462295441984838,1.2318561691444594e-15,8.41140247681299e-17
-1428.9884899725878,42.0,0.05270422137475253,-0.6684487292038941,2.7967662430866666e-15,1.909698543121433e-16
-1426.9884899724877,42.0,0.052950039171374155,-0.6815840090377296,6.28651063785285e-15,4.2925794352243204e-16
-1424.9884899723877,42.0,0.05318540748198393,-0.6858816977253184,1.3990081300089812e-14,9.552761395796053e-16
-1422.9884899722877,40.0,0.0534094790824746,-0.7020923049795151,3.082392106547858e-14,2.1047308988192476e-15
-1420.9884899721876,40.0,0.053615704655766795,-0.7131934576459351,6.723765921867548e-14,4.591147851476582e-15
-1418.9884899720876,40.0,0.05381367689344988,-0.715329914663638,1.4520927025792787e-13,9.915235553195942e-15
-1416.9884899719875,40.0,0.05400300124017279,-0.7090990973800924,3.1047966083570787e-13,2.1200292283155896e-14
-1414.9884899718875,38.0,0.054183196455598784,-0.724610605173997,6.572476211810473e-13,4.487843626846066e-14
-1412.9884899717874,38.0,0.054347582703694504,-0.7368218399774507,1.3774693548282e-12,9.405689524040377e-14
-1410.9884899716874,38.0,0.05450456100694061,-0.7402665454843149,2.8581954507832527e-12,1.9516440721431447e-13
-1408.9884899715873,38.0,0.05465409321974502,-0.7353956732253448,5.871633731875056e-12,4.009291654099257e-13
-1406.9884899714873,36.0,0.05479602852276808,-0.7478687096324321,1.1942164388215376e-11,8.154394875421387e-13
-1404.9884899713873,36.0,0.054924013909119336,-0.7574751942473215,2.4047181904478258e-11,1.641998975359164e-12
-1402.9884899712872,36.0,0.05504563244383474,-0.7594024148418251,4.794048101921111e-11,3.2734904665527798e-12
-1400.9884899711872,36.0,0.0551611554519007,-0.7536904038277539,9.46232021939017e-11,6.4610980889471764e-12
-1398.9884899710871,34.0,0.055270719184877096,-0.7661240847533557,1.8490555142567416e-10,1.2625792377053406e-11
-1396.988489970987,34.0,0.055368178478174775,-0.7758483083581759,3.577332551922559e-10,2.442688048898539e-11
-1394.988489970887,34.0,0.05546010893011498,-0.7780540411817836,6.852132207669693e-10,4.6787994155456013e-11
-1392.988489970787,34.0,0.05554705724675237,-0.7729324143404968,1.29941898715762e-09,8.872742984813994e-11
-1390.988489970687,32.0,0.055629420194296744,-0.782101513293268,2.4396624295185913e-09,1.665859735832813e-10
-1388.988489970587,32.0,0.05570255748762757,-0.7880808166184037,4.534895910140496e-09,3.096535164656633e-10
-1386.9884899704869,32.0,0.055772895838284535,-0.7868563681390166,8.345684511647363e-09,5.698632576253694e-10
-1384.9884899703868,32.0,0.055841228764414524,-0.7786889900545078,1.520595351638826e-08,1.0382987991045564e-09
-1382.9884899702868,30.0,0.055908157725340496,-0.7878253471097687,2.742978534712764e-08,1.872971211895634e-09
-1380.9884899701867,30.0,0.05596993325258738,-0.7945324503802823,4.898783142499152e-08,3.345006052036548e-09
-1378.9884899700867,30.0,0.05603232222484822,-0.7941773417202792,8.661858314920968e-08,5.914523595447918e-09
-1376.9884899699866,30.0,0.056096270406800444,-0.786881313634566,1.516320447921673e-07,1.0353797928146691e-08
-1374.9884899698866,28.0,0.056162488896913526,-0.7942686735008907,2.628015744601272e-07,1.794471874918295e-08
-1372.9884899697865,28.0,0.056226678551780034,-0.7993505119222332,4.5094335243124615e-07,3.079148839886475e-08
-1370.9884899696865,28.0,0.05629295373564215,-0.7981155282266148,7.660781413983488e-07,5.2309643941558296e-08
-1368.9884899695865,28.0,0.056362272681224575,-0.7907603597476414,1.2884904603321135e-06,8.798120395269208e-08
-1366.9884899694864,26.0,0.0564353552403221,-0.8055765085148299,2.145588335249567e-06,1.4650589254145708e-07
-1364.9884899693864,26.0,0.056508287745112754,-0.8197395538667316,3.537273548969387e-06,2.415334805568697e-07
-1362.9884899692863,26.0,0.05658440250514548,-0.8277974206599699,5.773616704627474e-06,3.9423632884605805e-07
-1360.9884899691863,26.0,0.056664649107559376,-0.8297350056946359,9.330057200013786e-06,6.370785742512317e-07
-1358.9884899690862,24.0,0.056749752641758786,-0.8373773633159969,1.4927178251900742e-05,1.019263358674893e-06
-1356.9884899689862,24.0,0.05683667536720889,-0.8411762040197278,2.364439395358059e-05,1.6144956527125375e-06
-1354.9884899688861,24.0,0.05692823366684831,-0.8386975042482303,3.707965714359205e-05,2.531887490114125e-06
-1352.988489968786,24.0,0.0570254187128661,-0.8300532195884673,5.757053800104875e-05,3.9310537419352906e-06
-1350.988489968686,22.0,0.057129016234900784,-0.825397416799764,8.849564956570062e-05,6.042694170478385e-06
-1348.988489968586,22.0,0.05723678732133184,-0.8164964385921989,0.000134679225405107,9.196218958038012e-06
-1346.988489968486,22.0,0.057350824748353166,-0.80139464965635,0.00020292537334233875,1.3856228826565507e-05
-1344.988489968386,22.0,0.05747217854432878,-0.780358668775202,0.0003027116620351646,2.066987478472248e-05
-1342.9884899682859,20.0,0.057601724394192554,-0.7779559714081201,0.0004470735808816724,3.052725116123272e-05
-1340.9884899681858,20.0,0.057737861386253544,-0.7745647774552052,0.0006537111852067959,4.463695997951792e-05
-1338.9884899680858,20.0,0.05788170579865137,-0.7654393440040572,0.0009463458466129257,6.461875310987876e-05
-1336.9884899679857,20.0,0.058034432325194306,-0.7507121703493379,0.0013563472776435411,9.261462939684977e-05
-1334.9884899678857,18.0,0.05819708886729591,-0.7520979970519669,0.0019246376393591126,0.00013141885166913532
-1332.9884899677857,18.0,0.05836869663996145,-0.7526834443657613,0.0027038594012944225,0.0001846259733916631
-1330.9884899676856,18.0,0.05854903290270526,-0.7482054515644971,0.003760765811011994,0.0002567940656321762
-1328.9884899675856,18.0,0.05873938396950125,-0.7387220618741621,0.005178756965075705,0.00035361788604031184
-1326.9884899674855,16.0,0.05894097556217639,-0.7395239189623493,0.007060440962829393,0.000482103760540471
-1324.9884899673855,16.0,0.05915315812883671,-0.7383511646007594,0.009530049944463223,0.0006507345561775001
-1322.9884899672854,16.0,0.05937403397592647,-0.7320567301985921,0.012735487753698187,0.000869609500412074
-1320.9884899671854,16.0,0.05960500757908101,-0.7206891509455897,0.01684973378363421,0.0011505400390658517
-1318.9884899670853,14.0,0.059847525455616585,-0.7273323703230046,0.022071282011732488,0.0015070798146779437
-1316.9884899669853,14.0,0.06010078224636565,-0.7346109478565375,0.02862326236274284,0.001954464671068491
-1314.9884899668853,14.0,0.060360390773865624,-0.73770073217333,0.036750881290952456,0.0025094378901858888
-1312.9884899667852,14.0,0.06062786834284246,-0.7363070038000437,0.04671683796131977,0.0031899371980141176
-1310.9884899666852,12.0,0.0609049295928231,-0.7429437654460278,0.058794428977520186,0.0040146239389463245
-1308.9884899665851,12.0,0.061191367910990606,-0.7481898770439904,0.07325815367438902,0.005002241582729892
-1306.988489966485,12.0,0.06148048401055992,-0.7492351474126333,0.09037177581289169,0.006170800548505095
-1304.988489966385,12.0,0.061773879085200566,-0.7458538185928809,0.11037398397977262,0.0075365990626679044
-1302.988489966285,10.0,0.06207348978195876,-0.7519374064257435,0.13346201469595267,0.009113104905623604
-1300.988489966185,10.0,0.062381493161372044,-0.7580902095306616,0.15977384598566424,0.01090973954618761
-1298.988489966085,10.0,0.0626907144965415,-0.7613667572066611,0.189369816123989,0.012930623025795658
-1296.9884899659849,10.0,0.06300279948851144,-0.7615388292858835,0.2222147489261111,0.015173353430591304
-1294.9884899658848,8.0,0.0633197802522081,-0.7698048105644955,0.25816184677604637,0.017627907068984053
-1292.9884899657848,8.0,0.06364603304635026,-0.7783640881014695,0.2969397186958681,0.02027575271725515
-1290.9884899656847,8.0,0.06397366951312085,-0.7846255183119378,0.33814391888198103,0.02308927385061887
-1288.9884899655847,8.0,0.0643042569049398,-0.7881401726046751,0.38123426307304953,0.026031585398419477
-1286.9884899654846,6.0,0.06463977539103336,-0.795674146698774,0.4255389568985983,0.029056815637627038
-1284.9884899653846,6.0,0.0649859985093368,-0.8028349887730215,0.47026621484532455,0.032110899563588965
-1282.9884899652845,6.0,0.0653331764569527,-0.8077421618903291,0.5145235868448863,0.03513289855557216
-1280.9884899651845,6.0,0.06568263928558886,-0.8097087139886815,0.557344671262876,0.03805682440340771
-1278.9884899650845,4.0,0.06603615062594433,-0.8076339438776882,0.5977223195071916,0.04081390659740201
-1276.9884899649844,4.0,0.06640165434619479,-0.8035458615724098,0.6346468782497767,0.04333520359851228
-1274.9884899648844,4.0,0.06676838147023492,-0.7976249347618847,0.667147523737931,0.045554425243778014
-1272.9884899647843,4.0,0.06713706643686995,-0.7898191862376363,0.694334370248838,0.04741080801209911
-1270.9884899646843,2.0,0.06750886972624405,-0.7848892896510999,0.7154388248619239,0.0488518705444097
-1268.9884899645842,2.0,0.06789421552720319,-0.7804773401143736,0.7298496434162668,0.04983587563050718
-1266.9884899644842,2.0,0.06828238676289042,-0.775705208023717,0.7371423301533584,0.05033383768682987
-1264.9884899643841,2.0,0.06867319889191836,-0.7705827209433924,0.7370999084685179,0.05033094103293846
-1262.988489964284,0.0,0.06906687612101675,-0.7698022736768126,0.729723644670057,0.049827272135386846
-1260.988489964184,0.0,0.06947566987682119,-0.770004801547878,0.7152329851883478,0.04883781532020744
-1258.988489964084,0.0,0.0698891509849533,-0.7702057483932466,0.6940547115793239,0.04739171225066575
-1256.988489963984,0.0,0.07030602827400091,-0.770405116176589,0.6668020611841026,0.04553083623606541
-1254.988489963884,3.0,0.07072539865860196,-0.7838388375095453,0.6342452387354606,0.04330777869385648
-1252.9884899637839,3.0,0.07116289038569118,-0.7850671163382115,0.5972752969543877,0.040783382830559725
-1250.9884899636838,3.0,0.07160660897348686,-0.7850688918156616,0.5568637469527093,0.03802398574365724
-1248.9884899635838,3.0,0.07205416621370708,-0.7839486954903019,0.5140204445360783,0.03509854279784536
-1246.9884899634837,6.0,0.07250353317948101,-0.8009141343424145,0.46975227887043847,0.032075806788580435
-1244.9884899633837,6.0,0.0729748755936805,-0.8017738919424107,0.4250249780238982,0.029021719933316814
-1242.9884899632837,6.0,0.07345401744296101,-0.8017672572975397,0.3807299718346506,0.02599715118903799
-1240.9884899631836,6.0,0.07393761802707578,-0.8009954102261645,0.33765775995664027,0.023056077758850522
-1238.9884899630836,9.0,0.07442266279261535,-0.8176096986280912,0.2964786732437306,0.020244271433377026
-1236.9884899629835,9.0,0.07493173112038677,-0.8195194567798145,0.2577313432078963,0.017598511257840826
-1234.9884899628835,9.0,0.0754499219746069,-0.8202820960622832,0.22181865672974477,0.015146307310045258
-1232.9884899627834,9.0,0.0759731868132906,-0.8199579199221037,0.1890105126445924,0.012906088926650247
-1230.9884899626834,12.0,0.07649777702018783,-0.8374081831318775,0.15945234265716088,0.01088778653156519
-1228.9884899625833,12.0,0.07704642541526101,-0.8377974103873344,0.13317812727125253,0.009093720394693108
-1226.9884899624833,12.0,0.07760531212226207,-0.8365230113349988,0.11012653076767234,0.007519702366733553
-1224.9884899623833,12.0,0.07816999329750275,-0.8337247398881651,0.09015878863530923,0.006156257275669873
-1222.9884899622832,15.0,0.07873628881653016,-0.8449673992205191,0.07307708795844112,0.004989877983484038
-1220.9884899621832,15.0,0.07932597890439552,-0.8424098319340043,0.05864236179168675,0.004004240428549302
-1218.9884899620831,15.0,0.0799273985657592,-0.8380514722571206,0.04659064558073633,0.003181320481076589
-1216.988489961983,15.0,0.08053581801729251,-0.8320424021084007,0.03664739074185872,0.002502371308486367
-1214.988489961883,18.0,0.08114672737501086,-0.8398474034446091,0.02853937410421714,0.001948736580554974
-1212.988489961783,18.0,0.08178156922953045,-0.8367516993402949,0.02200406327916502,0.0015024899591830605
-1210.988489961683,18.0,0.08243035971568678,-0.8316266732029719,0.016796484025175664,0.001146904018463755
-1208.988489961583,18.0,0.08308822529798578,-0.8246664131737054,0.012693778985215,0.0008667615261511011
-1206.9884899614829,21.0,0.08375045669070404,-0.8310997407008263,0.009497745733563797,0.0006485287475547954
-1204.9884899613828,21.0,0.08443794316284159,-0.8275465912629203,0.0070356981750550225,0.0004804142639360693
-1202.9884899612828,21.0,0.0851422059663751,-0.8222006343958846,0.00516001444131939,0.00035233810178427047
-1200.9884899611827,21.0,0.08585844159007845,-0.8152709001229193,0.0037467238857136847,0.0002558352494580614
-1198.9884899610827,24.0,0.08658189205276907,-0.8199633795265302,0.002693453709913779,0.0001839154479482747
-1196.9884899609826,24.0,0.08733122770082258,-0.8194876671417997,0.0019170100883332494,0.00013089802427993365
-1194.9884899608826,24.0,0.08809939254894371,-0.8169456328295721,0.001350816434681077,9.223697023856201e-05
-1192.9884899607825,24.0,0.08888178057495975,-0.8125365617838327,0.0009423784114066052,6.434784716466408e-05
-1190.9884899606825,27.0,0.08967367786750546,-0.8124871579898173,0.0006508956607409458,4.444470924900037e-05
-1188.9884899605825,27.0,0.09049254570842297,-0.8089989624694451,0.00044509680750915847,3.0392272357268143e-05
-1186.9884899604824,27.0,0.09133240243141419,-0.8037623576626192,0.00030133851065020285,2.0576112730770523e-05
-1184.9884899603824,27.0,0.09218875136885726,-0.7969702157601251,0.00020198161984669795,1.3791787085367331e-05
-1182.9884899602823,30.0,0.09305684090757217,-0.7998022735302079,0.00013403743838588222,9.152396208571904e-06
-1180.9884899601823,30.0,0.09395354530299306,-0.8022225102067736,8.806380436258225e-05,6.013206749297358e-06
-1178.9884899600822,30.0,0.09487299476615696,-0.8025258225384547,5.7283008890984425e-05,3.911420568036289e-06
-1176.9884899599822,30.0,0.09581067629393454,-0.8008306108420953,3.689022092185493e-05,2.51895233275457e-06
-1174.9884899598821,33.0,0.09676169727238482,-0.8068633012421578,2.3520889700479568e-05,1.6060624875354315e-06
-1172.988489959782,33.0,0.0977426201190851,-0.8105447167465532,1.4847498489534903e-05,1.0138226343238534e-06
-1170.988489959682,33.0,0.09874749582096806,-0.8121512591511213,9.27918619672694e-06,6.336049807297831e-07
-1168.988489959582,33.0,0.09977171885703275,-0.8117646172253619,5.741475873452445e-06,3.920416761808839e-07
-1166.988489959482,36.0,0.10081019390624096,-0.817330132296507,3.5171772403638866e-06,2.4016125664016247e-07
-1164.988489959382,36.0,0.10188034955776447,-0.8207400421326374,2.133153064271378e-06,1.4565678255902305e-07
-1162.9884899592819,36.0,0.10297612809530891,-0.8220719047581592,1.2808752668333861e-06,8.746122036493774e-08
-1160.9884899591818,36.0,0.10409266618688748,-0.8213927440868821,7.614628416556182e-07,5.1994500259498505e-08
-1158.9884899590818,39.0,0.10522450713008123,-0.8271851566349673,4.481750193639945e-07,3.060246000967817e-08
-1156.9884899589817,39.0,0.10639016332656236,-0.8305775674083459,2.611581790631266e-07,1.78325037890806e-08
-1154.9884899588817,39.0,0.10758287165644109,-0.8317938386270809,1.506664907009537e-07,1.0287867590249954e-08
-1152.9884899587817,39.0,0.10879741908324084,-0.8309161756663968,8.605711232998089e-08,5.87618502781326e-09
-1150.9884899586816,42.0,0.11002791056015299,-0.8368242583730772,4.866468544355475e-08,3.3229408731512083e-09
-1148.9884899585816,42.0,0.11129459087394018,-0.843078386174049,2.72457098384928e-08,1.860402096821454e-09
-1146.9884899584815,42.0,0.11258990408979194,-0.8472110820165595,1.5102171192116085e-08,1.0312122942994522e-09
-1144.9884899583815,42.0,0.11390723739264878,-0.8492732834802064,8.287770301016594e-09,5.659087370960118e-10
-1142.9884899582814,45.0,0.11523936790577773,-0.8561528000145313,4.502908043431257e-09,3.0746930857930324e-10
-1140.9884899581814,45.0,0.11660616232694934,-0.8626782364257628,2.422174933437751e-09,1.6539188561237484e-10
-1138.9884899580813,45.0,0.1179994622999358,-0.8668079712481211,1.2899562703147394e-09,8.808129295684664e-11
-1136.9884899579813,45.0,0.1194112033636066,-0.868569565895195,6.801450248314527e-10,4.644192564039696e-11
-1134.9884899578813,48.0,0.12083284472875773,-0.877596552130949,3.5504640409112816e-10,2.424341588292389e-11
-1132.9884899577812,48.0,0.12227551121681901,-0.8841082131609341,1.8349564717977193e-10,1.2529520750036067e-11
-1130.9884899576812,48.0,0.12373678476580993,-0.8878784676740554,9.389089301928895e-11,6.411094270656256e-12
-1128.9884899575811,48.0,0.12520825304602842,-0.8889026615616527,4.756398441912901e-11,3.2477823800910607e-12
-1126.988489957481,51.0,0.12668109328783142,-0.8950140466545538,2.3855583392295005e-11,1.6289161716470728e-12
-1124.988489957381,51.0,0.128153068152291,-0.8979724378162534,1.1845650382501764e-11,8.088492808759663e-13
-1122.988489957281,51.0,0.12963336770012374,-0.8977019947386873,5.823510119764143e-12,3.976431703153416e-13
-1120.988489957181,51.0,0.13111352223191272,-0.8942232792012852,2.834443559874604e-12,1.9354257141294187e-13
-1118.988489957081,54.0,0.1325847579043046,-0.8983153686332164,1.3658652248262038e-12,9.326453754756588e-14
-1116.9884899569809,54.0,0.13403234141791065,-0.900939297547017,6.516358024008965e-13,4.4495247888086736e-14
-1114.9884899568808,54.0,0.1354770943577693,-0.9003083012426382,3.0779324343664425e-13,2.1016857291352156e-14
-1112.9884899567808,54.0,0.13691079203460657,-0.8964544431199069,1.4393628256242258e-13,9.82831291515964e-15
-1110.9884899566807,57.0,0.13832501344473588,-0.8997817800447134,6.664054451918518e-14,4.550375435005252e-15
-1108.9884899565807,57.0,0.13969623046542234,-0.9017739630713596,3.054666817662909e-14,2.085799410916091e-15
-1106.9884899564806,57.0,0.14105338645121004,-0.9003704962753393,1.3862648542265506e-14,9.465747297788111e-16
-1104.9884899563806,57.0,0.1423887762053351,-0.8955959718863042,6.228531053128027e-15,4.2529896761666806e-16
-1102.9884899562805,60.0,0.14369460744041762,-0.89908958597539,2.7706528489751155e-15,1.8918679297530534e-16
-1100.9884899561805,60.0,0.1449438930098705,-0.9006386506019999,1.2202130651731011e-15,8.331907021175398e-17
-1098.9884899560805,60.0,0.14616883870476638,-0.8984458321453315,5.32042613930823e-16,3.632916607438749e-17
-1096.9884899559804,60.0,0.14736261196512757,-0.8925716737071174,2.2967570967567764e-16,1.5682877047591823e-17
-1094.9884899558804,63.0,0.14851839186616195,-0.8961011945079473,9.816259756343435e-17,6.702966708950454e-18
-1092.9884899557803,63.0,0.1496059037006617,-0.8981642431768078,4.1540042073936235e-17,2.836955076167964e-18
-1090.9884899556803,63.0,0.15065869331149473,-0.8963531571691531,1.741203947973383e-17,1.190246237150065e-18
-1088.9884899555802,63.0,0.1516711283455332,-0.8907163934048081,7.247077339546028e-18,4.982364334897855e-19
-1086.9884899554802,66.0,0.1526376806190714,-0.894940261040127,3.040586471667876e-18,2.1629300020879936e-19
-1084.9884899553801,66.0,0.15352711860744137,-0.8979902454158538,1.4001218505877335e-18,1.1758799320300447e-19
-1082.98848995528,66.0,0.15437378651942876,-0.897077327935068,9.750072766122829e-19,1.2173772100453938e-19
-1080.98848995518,66.0,0.15517351442127214,-0.8922227850172058,1.4106690503736285e-18,2.333559070312334e-19
-1078.98848995508,66.0,0.15592228540042416,-0.8925771178732059,3.0704481428853623e-18,5.466826056999176e-19
-1076.98848995498,66.0,0.15659658373139573,-0.8923476776793551,7.320642582379693e-18,1.3205234787595044e-18
-1074.98848995488,66.0,0.1572306767303664,-0.8881833266352077,1.7588042876206035e-17,3.1793506303286374e-18
-1072.9884899547799,66.0,0.15782199676406505,-0.8801413318765643,4.1955596367225155e-17,7.586813970977961e-18
-1070.9884899546798,63.0,0.1583680236078647,-0.8789883551419451,9.913336236747354e-17,1.792723144774359e-17
-1068.9884899545798,63.0,0.15885042203399727,-0.8772337794152212,2.3192042845694103e-16,4.194075265692471e-17
-1066.9884899544797,63.0,0.15930072295396902,-0.8717034166346302,5.371806859595157e-16,9.714450027138828e-17
-1064.9884899543797,63.0,0.15971779655396176,-0.8624575767317426,1.2318551894554625e-15,2.2277045144416844e-16
-1062.9884899542797,60.0,0.16010039098616413,-0.859314431244567,2.7967658844263406e-15,5.057711544752223e-16
-1060.9884899541796,60.0,0.16042828287777308,-0.8553975340046113,6.286510507846773e-15,1.1368615848146522e-15
-1058.9884899540796,60.0,0.16072886814181353,-0.8477695956543347,1.399008125343153e-14,2.529986379644935e-15
-1056.9884899539795,60.0,0.16100221194349798,-0.8364918671087949,3.082392104889882e-14,5.574242137696263e-15
-1054.9884899538795,57.0,0.1612481529999545,-0.8311264098554991,6.723765921284223e-14,1.2159354828308008e-14
-1052.9884899537794,57.0,0.1614460597640471,-0.8250200286981758,1.4520927025589586e-13,2.6259852916930455e-14
-1050.9884899536794,57.0,0.1616200717134754,-0.815310844609928,3.10479660835007e-13,5.6147587635850344e-14
-1048.9884899535793,57.0,0.16177128485010217,-0.8020902148945717,6.572476211808079e-13,1.1885760345608572e-13
-1046.9884899534793,54.0,0.1619004908395179,-0.7983034718379353,1.377469354828119e-12,2.4910353582555384e-13
-1044.9884899533793,54.0,0.16198795337713645,-0.7951361665072909,2.8581954507832256e-12,5.168801689671405e-13
-1042.9884899532792,54.0,0.16205546099953463,-0.7886161462569841,5.871633731875047e-12,1.061834674256822e-12
-1040.9884899531792,54.0,0.16210497279162037,-0.7787285211345271,1.1942164388215373e-11,2.159638153899744e-12
-1038.9884899530791,51.0,0.16213807500456237,-0.7748862860996286,2.4047181904478258e-11,4.348726901291601e-12
-1036.988489952979,51.0,0.16213608521036393,-0.7707168059381813,4.794048101921111e-11,8.669625417948785e-12
-1034.988489952879,51.0,0.16211750727612428,-0.7632809454866525,9.46232021939017e-11,1.7111795739788695e-11
-1032.988489952779,51.0,0.16208504442456406,-0.7525853428217459,1.8490555142567416e-10,3.3438585397536347e-11
-1030.988489952679,48.0,0.1620409787039112,-0.7482576183551097,3.577332551922559e-10,6.46929954836606e-11
-1028.988489952579,48.0,0.16197116262555328,-0.7438381243040357,6.852132207669693e-10,1.2391494263679428e-10
-1026.9884899524789,48.0,0.1618925556313172,-0.7362914406202552,1.29941898715762e-09,2.3498879527538687e-10
-1024.9884899523788,48.0,0.16180849270582365,-0.7256115955230252,2.4396624295185913e-09,4.4119205649382776e-10
-1022.9884899522788,45.0,0.16172177456259845,-0.7222402095402864,4.534895910140496e-09,8.200970873561126e-10
-1020.9884899521787,45.0,0.16162137781715333,-0.7191716239985803,8.345684511647363e-09,1.5092455693835276e-09
-1018.9884899520787,45.0,0.16152139676961835,-0.7130209939951326,1.520595351638826e-08,2.749866465816214e-09
-1016.9884899519786,45.0,0.16142551985158485,-0.7037161806400132,2.742978534712764e-08,4.9604417644253785e-09
-1014.9884899518786,42.0,0.16133679351573377,-0.7021174804504986,4.898783142499152e-08,8.859029769061034e-09
-1012.9884899517785,42.0,0.16124342907236822,-0.7011790086455921,8.661858314920968e-08,1.5664228939133325e-08
-1010.9884899516785,42.0,0.16115468191779211,-0.6973278944223891,1.516320447921673e-07,2.7421356685572843e-08
-1008.9884899515785,42.0,0.16107414866332212,-0.6904384346980199,2.628015744601272e-07,4.752541404212159e-08
-1006.9884899514784,39.0,0.1610047703830891,-0.6914526750067771,4.5094335243124615e-07,8.154924329454094e-08
-1004.9884899513784,39.0,0.16093574664346422,-0.693244936219586,7.660781413983488e-07,1.3853867098539553e-07
-1002.9884899512783,39.0,0.1608743433234862,-0.6920871801051651,1.2884904603321135e-06,2.3301246479365517e-07
-1000.9884899511783,39.0,0.16082401327305604,-0.6877717079533123,2.145588335249567e-06,3.8801127507001724e-07
-998.9884899510782,36.0,0.16078758913731986,-0.6887390577185573,3.537273548969387e-06,6.396856272279337e-07
-996.9884899509782,36.0,0.16075641643174476,-0.6896067336849321,5.773616704627474e-06,1.044109134321651e-06
-994.9884899508781,36.0,0.1607364771665039,-0.6874212437603635,9.330057200013786e-06,1.68726093965852e-06
-992.9884899507781,36.0,0.16073128528112215,-0.6819997724157365,1.4927178251900742e-05,2.699452346735351e-06
-990.9884899506781,33.0,0.16074379392705415,-0.6821039725157699,2.364439395358059e-05,4.2758861499494e-06
-988.988489950578,33.0,0.1607673284904996,-0.682116731256157,3.707965714359205e-05,6.705538434879096e-06
-986.988489950478,33.0,0.1608059496250408,-0.6789162866994839,5.757053800104875e-05,1.0411138748876323e-05
-984.9884899503779,33.0,0.16086328367076816,-0.6722832078823755,8.849564956570062e-05,1.600368032488531e-05
-982.9884899502779,30.0,0.1609424888780636,-0.6727452620384355,0.000134679225405107,2.4355584487645664e-05
-980.9884899501778,30.0,0.1610386827798714,-0.6735155732704677,0.00020292537334233875,3.669731586486357e-05
-978.9884899500778,30.0,0.1611534007978083,-0.6708151111072884,0.0003027116620351646,5.47428115800072e-05
-976.9884899499777,30.0,0.16129057087685936,-0.6644128693339473,0.0004470735808816724,8.084942825150048e-05
-974.9884899498777,27.0,0.16145378606284527,-0.6643599968190393,0.0006537111852067959,0.00011821806929711789
-972.9884899497777,27.0,0.16163990615106655,-0.6644834539610798,0.0009463458466129257,0.00017113854161534013
-970.9884899496776,27.0,0.16184677908744663,-0.6611125417221198,0.0013563472776435411,0.0002452837890615221
-968.9884899495776,27.0,0.16207861354409073,-0.6539465665981257,0.0019246376393591126,0.0003480542339957374
-966.9884899494775,24.0,0.16233946450274084,-0.6525469036813027,0.0027038594012944225,0.0004889698161899597
-964.9884899493775,24.0,0.16262731106538464,-0.6508045018358752,0.003760765811011994,0.0006801022887742165
-962.9884899492774,24.0,0.16293550199882262,-0.6450442448510676,0.005178756965075705,0.0009365338449526151
-960.9884899491774,24.0,0.1632685645586384,-0.6349237175184888,0.007060440962829393,0.001276820280729836
-958.9884899490773,21.0,0.16363114451579533,-0.6340159192045718,0.009530049944463223,0.0017234279147038765
-956.9884899489773,21.0,0.16402153228670233,-0.6344584127215276,0.012735487753698187,0.0023031038903258416
-954.9884899488773,21.0,0.16442656202779626,-0.6312132899540948,0.01684973378363421,0.003047130049398685
-952.9884899487772,21.0,0.16485108329412776,-0.623768086909705,0.022071282011732488,0.00399140232779376
-950.9884899486772,18.0,0.1653004591084463,-0.6244413153504438,0.02862326236274284,0.005176271861461093
-948.9884899485771,18.0,0.16577509298769666,-0.6263417265148477,0.036750881290952456,0.006646082137648583
-946.9884899484771,18.0,0.16625542107223734,-0.6249469473276348,0.04671683796131977,0.008448340050517027
-944.988489948377,18.0,0.16674650874670036,-0.6199486008459993,0.058794428977520186,0.010632468950260054
-942.988489948277,15.0,0.1672542804749455,-0.6172108298379404,0.07325815367438902,0.013248109690701067
-940.988489948177,15.0,0.16778531057902885,-0.6138624001041744,0.09037177581289169,0.016342961689071258
-938.9884899480769,15.0,0.1683183955158574,-0.607747291787963,0.11037398397977262,0.01996018973209408
-936.9884899479769,15.0,0.16885866825761842,-0.5987280480416267,0.13346201469595267,0.024135462355394734
-934.9884899478768,12.0,0.169412248835948,-0.5981457447949787,0.15977384598566424,0.02889373170297704
-932.9884899477768,12.0,0.16999147858210154,-0.5995526482528141,0.189369816123989,0.034245909435137306
-930.9884899476767,12.0,0.17057309537886114,-0.5986720317092986,0.2222147489261111,0.040185634240109305
-928.9884899475767,12.0,0.1711619695327879,-0.5950189160810783,0.25816184677604637,0.04668635902625413
-926.9884899474766,9.0,0.1717640281182654,-0.594525925737061,0.2969397186958681,0.05369900505947454
-924.9884899473766,9.0,0.17239565684821884,-0.5943176683064824,0.33814391888198103,0.061150431779966236
-922.9884899472765,9.0,0.17302878653720036,-0.5918837435691358,0.38123426307304953,0.06894295149034098
-920.9884899471765,9.0,0.17366762390538204,-0.5866401714853796,0.4255389568985983,0.07695507593211481
-918.9884899470765,6.0,0.1743174876336792,-0.5837839337010268,0.47026621484532455,0.08504361747625785
-916.9884899469764,6.0,0.17500015610519737,-0.5814333814033237,0.5145235868448863,0.09304718417107802
-914.9884899468764,6.0,0.1756850932170949,-0.5777499890050166,0.557344671262876,0.10079101055750009
-912.9884899467763,6.0,0.17637492321932885,-0.5726841979313737,0.5977223195071916,0.10809296243811711
-910.9884899466763,3.0,0.17707337146963528,-0.5678361771711418,0.6346468782497767,0.11477045265547596
-908.9884899465762,3.0,0.17780766391927402,-0.563009181171268,0.667147523737931,0.12064791604828029
-906.9884899464762,3.0,0.17854803458571636,-0.5577540249028972,0.694334370248838,0.12556442440476467
-904.9884899463761,3.0,0.1792947044764854,-0.5520830294660997,0.7154388248619239,0.12938098427766698
-902.9884899462761,0.0,0.18004896630055736,-0.5458998320951044,0.7298496434162668,0.13198705739533373
-900.9884899461761,0.0,0.18084143574768516,-0.5395984201699799,0.7371423301533584,0.13330587733532748
-898.988489946076,0.0,0.18164441177727625,-0.5332738939872496,0.7370999084685179,0.1332982057369341
-896.988489945976,0.0,0.18245523812767886,-0.5269319541540494,0.729723644670057,0.13196427160116672
-894.9884899458759,4.0,0.18327229316927832,-0.4985518146144393,0.7152329851883478,0.12934375993556366
-892.9884899457759,4.0,0.1841333012948,-0.49623292616634096,0.6940547115793239,0.12551385052945044
-890.9884899456758,4.0,0.1850083308547703,-0.4932846694818336,0.6668020611841026,0.12058544210404891
-888.9884899455758,4.0,0.18589187001448104,-0.489786010321404,0.6342452387354606,0.11469781958905402
-886.9884899454757,8.0,0.1867793847614674,-0.4843747142907708,0.5972752969543877,0.10801212223785647
-884.9884899453757,8.0,0.18771884968266858,-0.4832731071994641,0.5568637469527093,0.1007040395147636
-882.9884899452757,8.0,0.18867580867499656,-0.481734852890965,0.5140204445360783,0.09295619519356778
-880.9884899451756,8.0,0.18964228769444064,-0.4798166391691,0.46975227887043847,0.08495067655667707
-878.9884899450756,12.0,0.19061122416741638,-0.48156569448212116,0.4250249780238982,0.07686212725447009
-876.9884899449755,12.0,0.19163586574867403,-0.480318001026288,0.3807299718346506,0.06885175473875395
-874.9884899448755,12.0,0.1926810500406026,-0.47841633301896125,0.33765775995664027,0.06106251410190605
-872.9884899447754,12.0,0.19373701003571125,-0.4759013190011939,0.2964786732437306,0.05361562893796505
-870.9884899446754,16.0,0.19479483772475467,-0.48584555673799107,0.2577313432078963,0.04660850614289537
-868.9884899445753,16.0,0.19590748577787898,-0.4839695531770819,0.22181865672974477,0.04011400435862997
-866.9884899444753,16.0,0.19704316077736628,-0.4809065496074958,0.1890105126445924,0.03418093247805409
-864.9884899443753,16.0,0.19819114555857562,-0.47674607560768767,0.15945234265716088,0.028835590579452838
-862.9884899442752,20.0,0.1993414988837684,-0.4752390734587516,0.13317812727125253,0.024084123745921247
-860.9884899441752,20.0,0.20054400923124577,-0.47596930809490345,0.11012653076767234,0.019915439937937488
-858.9884899440751,20.0,0.2017725071857291,-0.4754100340118077,0.09015878863530923,0.0163044447820814
-856.9884899439751,20.0,0.20301563559402255,-0.47362238144151725,0.07307708795844112,0.013215365506664366
-854.988489943875,24.0,0.20426271223830317,-0.4741910852466782,0.05864236179168675,0.010604968902043826
-852.988489943775,24.0,0.20556207124335718,-0.4718476560223867,0.04659064558073633,0.0084255192392319
-850.988489943675,24.0,0.20689239932851264,-0.4681500432621789,0.03664739074185872,0.0066273667581641564
-848.9884899435749,24.0,0.20824208005054148,-0.4632074688474996,0.02853937410421714,0.005161101388346934
-846.9884899434749,28.0,0.209600037301217,-0.4663803173036914,0.02200406327916502,0.003979246395687119
-844.9884899433748,28.0,0.21101267443133864,-0.4652735479725101,0.016796484025175664,0.003037500286625825
-842.9884899432748,28.0,0.21246324050517498,-0.4625806248629597,0.012693778985215,0.0022955612167500743
-840.9884899431747,28.0,0.2139403976439126,-0.45850308856916344,0.009497745733563797,0.0017175859748241279
-838.9884899430747,32.0,0.2154330431408986,-0.47698115460222024,0.0070356981750550225,0.0012723457594643185
-836.9884899429746,32.0,0.21698119161905344,-0.47873671461323075,0.00516001444131939,0.000933144420046988
-834.9884899428746,32.0,0.21857193852079354,-0.4787353364841666,0.0037467238857136842,0.0006775629268426085
-832.9884899427745,32.0,0.22019454147304993,-0.4771695629545921,0.002693453709913779,0.00048708803602073684
-830.9884899426745,36.0,0.22183810482453964,-0.5000535392738159,0.0019170100883332494,0.00034667485671698153
-828.9884899425745,36.0,0.22353843419617075,-0.5026396009849889,0.001350816434681077,0.00024428358347929513
-826.9884899424744,36.0,0.22528546754613032,-0.5036302615714479,0.0009423784114066052,0.0001704210649363932
-824.9884899423744,36.0,0.2270688554963653,-0.5031824179438773,0.0006508956607409458,0.00011770890581033081
-822.9884899422743,40.0,0.22887773975858908,-0.5265413534500356,0.00044509680750915847,8.049194571666726e-05
-820.9884899421743,40.0,0.23074534613950642,-0.5323732023449357,0.00030133851065020285,5.449448891205179e-05
-818.9884899420742,40.0,0.23266244712118117,-0.5363583978774457,0.00020198161984669795,3.6526646127719994e-05
-816.9884899419742,40.0,0.23461880026346774,-0.5385812657700375,0.00013403743838588222,2.4239522801644826e-05
-814.9884899418741,44.0,0.23660336249799765,-0.5580492352011811,8.806380436258225e-05,1.5925584818332633e-05
-812.9884899417741,44.0,0.2386474605123083,-0.5645691786434455,5.7283008890984425e-05,1.0359141571793038e-05
-810.9884899416741,44.0,0.24074238593924718,-0.5692609511896564,3.689022092185493e-05,6.671280516557538e-06
-808.988489941574,44.0,0.24287784280299213,-0.5721877607307868,2.3520889700479568e-05,4.253551463497666e-06
-806.988489941474,48.0,0.24504248294880576,-0.5901279660343226,1.4847498489534903e-05,2.6850429441090784e-06
-804.9884899413739,48.0,0.2472684743698606,-0.5961986598701241,9.27918619672694e-06,1.678061354386202e-06
-802.9884899412739,48.0,0.24954758966304863,-0.6004636879396329,5.741475873452445e-06,1.0382967402658348e-06
-800.9884899411738,48.0,0.25186909226054965,-0.6029730048821307,3.5171772403638866e-06,6.360513819264864e-07
-798.9884899410738,52.0,0.2542209635628882,-0.6180269530938646,2.133153064271378e-06,3.8576246281241007e-07
-796.9884899409737,52.0,0.2566367329440238,-0.622281206891663,1.2808752668333861e-06,2.316353222678489e-07
-794.9884899408737,52.0,0.25910737248218557,-0.6245988468019967,7.614628416556182e-07,1.3770403355351423e-07
-792.9884899407737,52.0,0.2616215032353826,-0.6250436669447326,4.481750193639945e-07,8.104861396803135e-08
-790.9884899406736,56.0,0.264166273625474,-0.6375548269079225,2.611581790631266e-07,4.722822005902686e-08
-788.9884899405736,56.0,0.26677805715839126,-0.6430372447540416,1.506664907009537e-07,2.7246744497425723e-08
-786.9884899404735,56.0,0.26944687399373596,-0.646616573253468,8.605711232998089e-08,1.556269175005356e-08
-784.9884899403735,56.0,0.2721586242601272,-0.648331003368928,4.866468544355475e-08,8.800591585821915e-09
-782.9884899402734,60.0,0.27489786164533236,-0.6597253838311954,2.72457098384928e-08,4.9271532851578694e-09
-780.9884899401734,60.0,0.2776997226841707,-0.6639857861183572,1.5102171192116085e-08,2.7310983212896025e-09
-778.9884899400734,60.0,0.28055340914636834,-0.6661991243228695,8.287770301016594e-09,1.4987722803828657e-09
-776.9884899399733,60.0,0.2834420001475091,-0.666401764683102,4.502908043431257e-09,8.143123556139083e-10
-774.9884899398733,64.0,0.2863474852246552,-0.6766076146838025,2.422174933437751e-09,4.380295925949366e-10
-772.9884899397732,64.0,0.28928700407830554,-0.6815240245322649,1.2899562703147394e-09,2.332775439754465e-10
-770.9884899396732,64.0,0.2922607386276219,-0.6841612763441177,6.801450248314527e-10,1.2299840280716487e-10
-768.9884899395731,64.0,0.29525116468530965,-0.6845200789523751,3.5504640409112816e-10,6.420710147289241e-11
-766.9884899394731,68.0,0.2982398168878458,-0.6920118590977432,1.8349564717977193e-10,3.3183616289440625e-11
-764.988489939373,68.0,0.3012173519758644,-0.6956258070278545,9.389089301928895e-11,1.6979363897240523e-11
-762.988489939273,68.0,0.3042069435408453,-0.6966690129041686,4.756398441912901e-11,8.601539232235816e-12
-760.988489939173,68.0,0.30719110351480383,-0.6951374733734523,2.3855583392295005e-11,4.3140779512612616e-12
-758.9884899390729,72.0,0.3101516334940737,-0.7005442786143725,1.1845650382501764e-11,2.1421844225367347e-12
-756.9884899389729,72.0,0.3130546777749888,-0.7030130643561492,5.823510119764142e-12,1.0531319311493213e-12
-754.9884899388728,72.0,0.31594666016893863,-0.7028868042240101,2.8344435598746017e-12,5.125848429135027e-13
-752.9884899387728,72.0,0.3188107677072703,-0.7001789110956056,1.365865224826197e-12,2.470050282954042e-13
-750.9884899386727,76.0,0.3216296979351549,-0.7042391495295802,6.516358024008762e-13,1.1784275409076932e-13
-748.9884899385727,76.0,0.3243518338557438,-0.7059998754112328,3.077932434365845e-13,5.56617720565087e-14
-746.9884899384726,76.0,0.32703930394501873,-0.7050482232732675,1.4393628256224824e-13,2.602964399474147e-14
-744.9884899383726,76.0,0.32967653284007303,-0.7013925628924713,6.664054451868204e-14,1.205137174976599e-14
-742.9884899382726,80.0,0.3322476856559785,-0.7017482529825255,3.054666817519137e-14,5.524103330109729e-15
-740.9884899381725,80.0,0.3346938757791373,-0.7017306451285674,1.3862648538198139e-14,2.5069412649133005e-15
-738.9884899380725,80.0,0.33708351645878326,-0.6987701861102966,6.228531041735722e-15,1.126376496186513e-15
-736.9884899379724,80.0,0.3394030108633937,-0.692920865786036,2.770652817383854e-15,5.010488334540651e-16
-734.9884899378724,84.0,0.34163871623036723,-0.6948877606295021,1.2202129784410935e-15,2.2066506693924653e-16
-732.9884899377723,84.0,0.3437245802417878,-0.6957012554473425,5.320423781823507e-16,9.621530754910918e-17
-730.9884899376723,84.0,0.34573129113383155,-0.6935389360305404,2.2967507525777417e-16,4.153477036507352e-17
-728.9884899375722,84.0,0.3476479181772986,-0.6884425736856687,9.81609072819707e-17,1.7751559407166985e-17
-726.9884899374722,88.0,0.3494636935407472,-0.6903771115220623,4.153558346191672e-17,7.511354547870825e-18
-724.9884899373722,88.0,0.35110969214685417,-0.6919121791858962,1.7400395608574794e-17,3.1467125244323812e-18
-722.9884899372721,88.0,0.3526575210670937,-0.6904638296136754,7.216971402076864e-18,1.3051274701015644e-18
-720.9884899371721,88.0,0.3540994819949382,-0.686057434818959,2.963520266484027e-18,5.359272598583339e-19
-718.988489937072,88.0,0.3554281801836117,-0.6869327942385683,1.2048080869740344e-18,2.178792242488063e-19
-716.988489936972,88.0,0.35658957406572217,-0.6870247352865324,4.84936531134337e-19,8.769661853683552e-20
-714.9884899368719,88.0,0.35765652454809127,-0.6841828617090265,1.932453196730147e-19,3.4946761061188366e-20
-712.9884899367719,88.0,0.3586249039273921,-0.6784446768363223,7.624127003279901e-20,1.3787580735958337e-20
-710.9884899366718,84.0,0.35949070255610255,-0.6757384879089898,2.978024835776323e-20,5.385502869940545e-21
-708.9884899365718,84.0,0.36021034820190656,-0.6729533983630647,1.1516580923518338e-20,2.082675029113458e-21
-706.9884899364718,84.0,0.3608532787573335,-0.6673613777743375,4.409363137617772e-21,7.973955605397157e-22
-704.9884899363717,84.0,0.36141861108151535,-0.659016405468313,1.6714185804135449e-21,3.022617358173432e-22
-702.9884899362717,80.0,0.36190522707329137,-0.6559759330833115,6.272658434959703e-22,1.1343565573329403e-22
-700.9884899361716,80.0,0.36226573863829087,-0.6539776409950981,2.3306395316261444e-22,4.214761991095844e-23
-698.9884899360716,80.0,0.36256118232787354,-0.6492442200887749,8.573450263310011e-23,1.5504350549283518e-23
-696.9884899359715,80.0,0.36279337892252467,-0.641796784718181,3.122433603226062e-23,5.646653758342189e-24
-694.9884899358715,76.0,0.3629636833775747,-0.6396244489247259,1.1258689620549718e-23,2.0360375956177716e-24
-692.9884899357714,76.0,0.3630238945506531,-0.6386069555531677,4.0191992474500444e-24,7.268377624648817e-25
-690.9884899356714,76.0,0.36302796610417526,-0.6349641335719947,1.42052303743312e-24,2.568894256020681e-25
-688.9884899355714,76.0,0.3629800151226327,-0.6287073580298761,4.9706602700891435e-25,8.989013398568972e-26
-686.9884899354713,72.0,0.3628835145721339,-0.6264265209771878,1.722015025898736e-25,3.1141166966261465e-26
-684.9884899353713,72.0,0.362692389120204,-0.6248428335684042,5.906318288111909e-26,1.0681070792049674e-26
-682.9884899352712,72.0,0.3624552778766737,-0.6207991959037773,2.0056438343453232e-26,3.627035106015006e-27
-680.9884899351712,72.0,0.3621781757177687,-0.614275528754564,6.742917305954879e-27,1.2193988467367936e-27
-678.9884899350711,68.0,0.36186627362529455,-0.611793055756574,2.244393021027988e-27,4.058792563047858e-28
-676.9884899349711,68.0,0.36147681558646066,-0.6100714102378969,7.396172656081344e-28,1.3375344821635201e-28
-674.988489934871,68.0,0.36105033860283975,-0.6059406408906669,2.4130828168471706e-28,4.363853611767107e-29
-672.988489934771,68.0,0.3605944183980387,-0.5993865867093686,7.79461140589795e-29,1.409588717737868e-29
-670.988489934671,64.0,0.36011570902842666,-0.5973298127297497,2.4927215335035726e-29,4.507873410379575e-30
-668.9884899345709,64.0,0.3595822839656886,-0.5963244030372021,7.892418706725193e-30,1.4272763304460724e-30
-666.9884899344709,64.0,0.3590293344157853,-0.5929731218489658,2.474021812735088e-30,4.474056566861039e-31
-664.9884899343708,64.0,0.3584657229740779,-0.5872490608472152,7.678103934135615e-31,1.3885193392690343e-31
-662.9884899342708,60.0,0.35789914685870916,-0.5845484176014238,2.3591823154355835e-31,4.266379171139192e-32
-660.9884899341707,60.0,0.35730581755758944,-0.5823359173885513,7.176721225062607e-32,1.2978485703012076e-32
-658.9884899340707,60.0,0.3567128191139637,-0.5779366372064816,2.1614624964220972e-32,3.908819811677478e-33
-656.9884899339706,60.0,0.3561296712589,-0.5713055573405106,6.445051432878309e-33,1.1655323545893888e-33
-654.9884899338706,56.0,0.3555645058775794,-0.5675771944425962,1.9026641077193983e-33,3.4408050898556426e-34
-652.9884899337706,56.0,0.354993110756378,-0.5644135075937695,5.561025915377289e-34,1.005663910766914e-34
-650.9884899336705,56.0,0.35443142138087036,-0.5592353337742528,1.6091805234611358e-34,2.910065162399233e-35
-648.9884899335705,56.0,0.35388853542591325,-0.551973943434526,4.6101140673013164e-35,8.336996468913704e-36
-646.9884899334704,52.0,0.35337212347378644,-0.5486220589426503,1.307602162332091e-35,2.36468652422913e-36
-644.9884899333704,52.0,0.3528599372630091,-0.5463197213992,3.671949029857052e-36,6.640405345516689e-37
-642.9884899332703,52.0,0.3523638562108307,-0.5419794538452685,1.020880041690706e-36,1.8461741246550394e-37
-640.9884899331703,52.0,0.3518924520464731,-0.5355050015635042,2.810022761953761e-37,5.081685507553938e-38
-638.9884899330702,48.0,0.3514529383043853,-0.5351243403338848,7.657764695994905e-38,1.3848411622416542e-38
-636.9884899329702,48.0,0.35102726242489546,-0.5370544474717112,2.0660995933086984e-38,3.736364168516534e-39
-634.9884899328702,48.0,0.35062486455003716,-0.5370498358002496,5.518963758539221e-39,9.980573299336734e-40
-632.9884899327701,48.0,0.3502543581807371,-0.5349699364653211,1.4595564192666529e-39,2.6394827841493184e-40
-630.9884899326701,44.0,0.34992313736212405,-0.5356469870913324,3.821565324521262e-40,6.910973600899934e-41
-628.98848993257,44.0,0.34961704802434174,-0.5368809196221812,9.90646576829603e-41,1.7914994927239489e-41
-626.98848993247,44.0,0.3493416323673793,-0.5360313868954222,2.542454876863325e-41,4.5978119025566774e-42
-624.9884899323699,44.0,0.3491056634317366,-0.5329175502643051,6.460182987290892e-42,1.1682687666144546e-42
-622.9884899322699,40.0,0.3489169049533777,-0.5337755551238595,1.6251499573447455e-42,2.9389445159151302e-43
-620.9884899321698,40.0,0.3487650099162428,-0.5357756161633209,4.047614257510495e-43,7.319763736809986e-44
-618.9884899320698,40.0,0.3486504271585504,-0.535503262901896,9.980719457823141e-44,1.8049276365475945e-44
-616.9884899319698,40.0,0.34858250816190106,-0.5327580929531367,2.4365853855941e-44,4.4063559945266407e-45
-614.9884899318697,36.0,0.34856988622904944,-0.5308593599802196,5.889229471988649e-45,1.065016713162009e-45
-612.9884899317697,36.0,0.34860591092967,-0.5285206633740042,1.4092640514094956e-45,2.5485333440449278e-46
-610.9884899316696,36.0,0.34868323357379116,-0.5238232118827214,3.3387455784487866e-46,6.037835440029141e-47
-608.9884899315696,36.0,0.34881176000274194,-0.5165535907672592,7.831254415418122e-47,1.416215292189612e-47
-606.9884899314695,32.0,0.34900106794159985,-0.5112074518604431,1.8185966874820148e-47,3.2887763601023186e-48
-604.9884899313695,32.0,0.3492470910186431,-0.5057027388101183,4.181176620962047e-48,7.561299832494314e-49
-602.9884899312694,32.0,0.3495330666511575,-0.49741154877296123,9.517386059759255e-49,1.7211377596118677e-49
-600.9884899311694,32.0,0.34986956283144716,-0.48613274429247066,2.1448351298883313e-49,3.878750643310786e-50
-598.9884899310694,28.0,0.3502673935309199,-0.47892478068541755,4.785498643783773e-50,8.654164455104576e-51
-596.9884899309693,28.0,0.3507239819580305,-0.47283981401278297,1.0571035611800851e-50,1.9116812573779752e-51
-594.9884899308693,28.0,0.35120908729575007,-0.46391762604778297,2.3118780917888134e-51,4.1808335339270766e-52
-592.9884899307692,28.0,0.3517339725851447,-0.4518850347806983,5.005752560996994e-52,9.052474801283483e-53
-590.9884899306692,24.0,0.35231095752468367,-0.4429987340330006,1.0730769894438665e-52,1.940567834388324e-53
-588.9884899305691,24.0,0.3529424991921626,-0.4350018916196144,2.2774530950194034e-53,4.1185788755131814e-54
-586.9884899304691,24.0,0.3535846705768368,-0.4245663031390394,4.785475042187902e-54,8.654121773639743e-55
-584.988489930369,24.0,0.35424917134453815,-0.4116876509631903,9.955377323232848e-55,1.800344728543375e-55
-582.988489930269,20.0,0.35494945974883335,-0.40118239094418773,2.05044181415974e-55,3.708048415897356e-56
-580.988489930169,20.0,0.3557007201488652,-0.3914136157998729,4.181135378782222e-56,7.561225249544184e-57
-578.9884899300689,20.0,0.3564551875747552,-0.3800157804635571,8.441080938693316e-57,1.5264971962157173e-57
-576.9884899299689,20.0,0.3572246341867913,-0.36711142136290187,1.6871704284925863e-57,3.051103226396365e-58
-574.9884899298688,16.0,0.35802285181762017,-0.35445496727241316,3.338696179624461e-58,6.037746106485989e-59
-572.9884899297688,16.0,0.358877025852596,-0.3408174678421887,6.541116749727983e-59,1.1829049444140402e-59
-570.9884899296687,16.0,0.3597349229768691,-0.32525113193379246,1.2687730829144564e-59,2.294467459522671e-60
-568.9884899295687,16.0,0.36060769043844876,-0.3078966585172226,2.436537317977702e-60,4.406269068359017e-61
-566.9884899294686,12.0,0.361508641656148,-0.29048213027053066,4.632540592753432e-61,8.37755291952963e-62
-564.9884899293686,12.0,0.36247386796346137,-0.2719945390583773,8.720119867275179e-62,1.5769589966899569e-62
-562.9884899292686,12.0,0.36344124073490736,-0.2516643700700467,1.6251098823628083e-62,2.9388720437424195e-63
-560.9884899291685,12.0,0.364420466333408,-0.22978640011358764,2.9984724502545074e-63,5.4224806295390456e-64
-558.9884899290685,8.0,0.365423534107363,-0.2123707959992036,5.477399902801167e-64,9.905408625867941e-65
-556.9884899289684,8.0,0.36649741825532584,-0.1976957874941403,9.906172625779326e-65,1.7914464804103496e-65
-554.9884899288684,8.0,0.367575125288943,-0.18295621104820822,1.773758088747057e-65,3.2076895943808773e-66
-552.9884899287683,8.0,0.36866302991231203,-0.1682838007508028,3.1444155935048467e-66,5.6864063051682596e-67
-550.9884899286683,4.0,0.36976977832347746,-0.1550195331062506,5.5187732285554335e-67,9.980228742178524e-68
-548.9884899285682,4.0,0.3709524056711355,-0.14262634132080126,9.589637963383583e-68,1.7342038975987944e-68
-546.9884899284682,4.0,0.3721463317232587,-0.13043502533667078,1.649753010398862e-68,2.983437030295959e-69
-544.9884899283682,4.0,0.37335292087115785,-0.11845740236604269,2.809911893880077e-69,5.0814850121377027e-70
-542.9884899282681,0.0,0.3745757672181282,-0.1067564324163559,4.73831065690789e-70,8.5688290221378e-71
-540.9884899281681,0.0,0.3758772586618468,-0.09532332493430898,7.9106362365819e-71,1.4305708147011353e-71
-538.988489928068,0.0,0.3771987644902094,-0.08412613280988057,1.307544122821019e-71,2.3645815647440065e-72
-536.988489927968,0.0,0.37853567181496145,-0.07315937684963547,2.1397269012453567e-72,3.8695128492915565e-73
-534.9884899278679,5.0,0.37988554067377545,-0.09841825221687106,3.4667090624844653e-73,6.269246441792022e-74
-532.9884899277679,5.0,0.38132346548365936,-0.09166966302580823,5.560751657282865e-74,1.005614313539353e-74
-530.9884899276678,5.0,0.3827881556095165,-0.08553037484060258,8.830934413403439e-75,1.5969988583135196e-75
-528.9884899275678,5.0,0.384269060923526,-0.07995931669021414,1.3884711933052294e-75,2.510931240916194e-76
-526.9884899274678,10.0,0.3857577077708938,-0.09552238093962712,2.1613452380518405e-76,3.908607759957172e-77
-524.9884899273677,10.0,0.38734860532353743,-0.09253738899196193,3.3309527212372713e-77,6.02374272516207e-78
-522.9884899272677,10.0,0.38897279654829603,-0.08983488107675855,5.0824117753651015e-78,9.191106425179664e-79
-520.9884899271676,10.0,0.3906146319047231,-0.0873599119130817,7.67764953486443e-79,1.3884371650524305e-79
-518.9884899270676,15.0,0.3922604237615564,-0.10001574575142742,1.1482693542162065e-79,2.07654678641526e-80
-516.9884899269675,15.0,0.3940144812167614,-0.09398924559081778,1.700263844715204e-80,3.074781548281767e-81
-514.9884899268675,15.0,0.39580779646805186,-0.08825383745535892,2.4925617181720664e-81,4.507584398039534e-82
-512.9884899267674,15.0,0.39762105064279224,-0.08281031847416764,3.617700222893323e-82,6.542301024127491e-83
-510.98848992666746,20.0,0.39943679532726284,-0.08956798424845072,5.198478926764645e-83,9.401003928202037e-84
-508.98848992656747,20.0,0.40135799610829315,-0.08658490860085369,7.395661991981459e-84,1.337442132934512e-84
-506.9884899264675,20.0,0.4033232441803745,-0.08356255050020933,1.041681318652125e-84,1.8837914525659217e-85
-504.9884899263675,20.0,0.4053113374656989,-0.08050747954601992,1.4526124175171537e-85,2.6269251516871796e-86
-502.9884899262675,25.0,0.4073027829341016,-0.09180390866246946,2.0054954649754366e-86,3.6267667927162936e-87
-500.9884899261675,25.0,0.40939327876371767,-0.08949503045341214,2.7412627920245967e-87,4.957338990714361e-88
-498.98848992606753,25.0,0.41153299287176603,-0.08709301532020822,3.709682262912915e-88,6.708642665928932e-89
-496.98848992596754,25.0,0.4136995136318511,-0.08460015163903403,4.9702680478871764e-89,8.988304098307612e-90
-494.98848992586755,30.0,0.41587194174369074,-0.09298699131568378,6.592952754712595e-90,1.1922790419788815e-90
-492.98848992576757,30.0,0.41814242767133086,-0.08807813833040269,8.658390548722412e-91,1.5657957780951484e-91
-490.9884899256676,30.0,0.4204716952694164,-0.08291280796034046,1.125774570355184e-91,2.0358668963126488e-92
-488.9884899255676,30.0,0.4228369239675903,-0.0775444624923279,1.4491814039595919e-92,2.620720457508987e-93
-486.9884899254676,35.0,0.4252165348600768,-0.06769734295269607,1.8469329349813304e-93,3.340020036917098e-94
-484.9884899253676,35.0,0.4276982749104131,-0.05840552497504713,2.3304326396816778e-94,4.214387844733024e-95
-482.98848992526763,35.0,0.43025300608899153,-0.04892657502130854,2.9112468927745496e-95,5.264740679053368e-96
-480.98848992516764,35.0,0.43285858827846646,-0.03941088370171793,3.600630673456669e-96,6.511432205850585e-97
-478.98848992506765,40.0,0.43549348921490244,-0.030823735280356576,4.4089499718185863e-97,7.973208430433892e-98
-476.98848992496767,40.0,0.43823165502790984,-0.026295741070584813,5.345013668739307e-98,9.665999459458182e-99
-474.9884899248677,40.0,0.4410519418775638,-0.021662709288126886,6.415337732905117e-99,1.1601588864248607e-99
-472.9884899247677,40.0,0.44393352459901114,-0.01700785099512364,7.623375010027558e-100,1.3786220820564073e-100
-470.9884899246677,45.0,0.4468553874628146,-0.013412867356190877,8.968753728025988e-101,1.6219223010436233e-101
-468.9884899245677,45.0,0.44988165725518814,-0.008446740682450868,1.0446576017710241e-101,1.889173805690055e-102
-466.98848992446773,45.0,0.45299696094059777,-0.0035010743641031017,1.2046833113003313e-102,2.1785665963682745e-103
-464.98848992436774,45.0,0.45618139602782615,0.0013470283616039969,1.3753995386656114e-103,2.4872922729899295e-104
-462.98848992426775,50.0,0.4594141595156598,0.005174018573608746,1.554683215228022e-104,2.811511447746629e-105
-460.98848992416777,50.0,0.46275298256127934,0.006906123382664539,1.7398507732480358e-105,3.14637111820895e-106
-458.9884899240678,50.0,0.4661847122082333,0.008724499327760954,1.927698663922798e-106,3.486077940726932e-107
-456.9884899239678,50.0,0.4696898205427725,0.010593348698425334,2.114576236871083e-107,3.824030026737038e-108
-454.9884899238678,55.0,0.47324730872068305,0.0071344798700913176,2.2964902378284543e-108,4.153005917894406e-109
-452.9884899237678,55.0,0.47690990694044305,0.008236317176196516,2.4692377904632315e-109,4.465405072298125e-110
-450.9884899236678,55.0,0.4806662476651777,0.009418867500470884,2.6285623412902576e-110,4.7535298775122696e-111
-448.98848992356784,55.0,0.48449688586060746,0.010662083521826522,2.7703248860672734e-111,5.00989529883948e-112
-446.98848992346785,60.0,0.4883804212643445,0.006012072870654153,2.8906810823272446e-112,5.227549172167313e-113
-444.98848992336787,60.0,0.49236988851743346,0.003579178722075825,2.986253779397316e-113,5.400384209731617e-114
-442.9884899232679,60.0,0.4964556639520585,0.0012625098962941103,3.0542902071033187e-114,5.523422262426587e-115
-440.9884899231679,60.0,0.5006176291706295,-0.0009245927562723313,3.0927936298505016e-115,5.593052404934594e-116
-438.9884899230679,65.0,0.504833276478888,-0.0029033205218143704,3.100620683919587e-116,5.607206961889876e-117
-436.9884899229679,65.0,0.5091569930048162,-0.0039012593405672105,3.077537777347695e-117,5.565463502232969e-118
-434.9884899228679,65.0,0.5135785713979397,-0.004783570595533172,3.024232670333006e-118,5.469065781380766e-119
-432.98848992276794,65.0,0.5180768408451195,-0.005550924063393352,2.9422804350744505e-119,5.320862182511873e-120
-430.98848992266795,70.0,0.5226278886116953,-0.0030297994311074203,2.834066145960544e-120,5.125165908394134e-121
-428.98848992256796,70.0,0.5272903009085823,-0.0009545591391671646,2.702669594955083e-121,4.88754649903292e-122
-426.988489922468,70.0,0.5320530587281234,0.0011716884416350243,2.5517198062507175e-122,4.614566733881847e-123
-424.988489922368,70.0,0.5368903087560136,0.003319131275298523,2.3852289318444935e-123,4.313482246216756e-124
-422.988489922268,75.0,0.541773654754604,0.008761315144483427,2.2074161092964793e-124,3.9919229849774445e-125
-420.988489922168,75.0,0.5467588431186233,0.01358162319959682,2.022532001260042e-125,3.6575759095350496e-126
-418.988489922068,75.0,0.5518339218729292,0.01838828973267778,1.8346940451385165e-126,3.317887052805776e-127
-416.98848992196804,75.0,0.5569681843626864,0.02311693945898031,1.6477410297039197e-127,2.9797985355202614e-128
-414.98848992186805,80.0,0.5621288200104967,0.03773348531222483,1.4651136543586083e-128,2.6495325678777185e-129
-412.98848992176806,80.0,0.5673391624219597,0.04346992245370612,1.2897654259466033e-129,2.3324303140890632e-130
-410.9884899216681,80.0,0.5726058709482322,0.049060646094946356,1.1241058327318e-130,2.0328491310389106e-131
-408.9884899215681,80.0,0.5778973031897134,0.054430751239080304,9.699754896610423e-132,1.7541180795987724e-132
-406.9884899214681,85.0,0.5831799985108777,0.069683094714861,8.286597143633818e-133,1.4986195279045868e-133
-404.9884899213681,85.0,0.5884310074954913,0.0775010671238264,7.020279232076436e-134,1.2768709143516916e-134
-402.9884899212681,85.0,0.5936971998922206,0.08501852854324717,7.277544538996653e-135,2.2075556761519833e-135
-400.98848992116814,85.0,0.5989472007398062,0.0921302832679031,1.7485406856866551e-134,1.3920589083188422e-134
-398.98848992106815,90.0,0.6041482489527399,0.10861150170874054,2.031483841014756e-133,1.6528319520106852e-133
-396.98848992096816,90.0,0.6092349202835566,0.11628819678947672,2.402700255580707e-132,1.9551407920940676e-132
-394.9884899208682,90.0,0.6142950806629126,0.12347419307806522,2.8140537239773057e-131,2.289857114607194e-131
-392.9884899207682,90.0,0.6192987912763418,0.1300715038671708,3.2630836536982686e-130,2.65522455300985e-130
-390.9884899206682,95.0,0.6242151227141584,0.14138466374814224,3.7461623798937944e-129,3.04829246143538e-129
-388.9884899205682,95.0,0.6289471408107847,0.14858770114967756,4.2580196662688753e-128,3.464771690776452e-128
-386.9884899204682,95.0,0.6336096763224244,0.15513010827925755,4.791720909854395e-127,3.899018878100267e-127
-384.98848992036824,95.0,0.6381752330402488,0.16091462509376767,5.3387338387696545e-126,4.344090789219312e-126
-382.98848992026825,100.0,0.6426157440677496,0.16961228476938928,5.88908801714931e-125,4.791874162292175e-125
-380.98848992016826,100.0,0.6468209936753981,0.17569288758003676,6.4316286603961545e-124,5.233292287103411e-124
-378.9884899200683,100.0,0.6509166116855607,0.18090074641060094,6.954359579633444e-123,5.6585840999297665e-123
-376.9884899199683,100.0,0.6548788907910095,0.1851570125303661,7.444863036771575e-122,6.057645847534817e-122
-374.9884899198683,105.0,0.6586839500215329,0.1934924007564475,7.890777545193469e-121,6.4204198848281665e-121
-372.9884899197683,105.0,0.6622081425630353,0.19983175397703484,8.280308849318317e-120,6.737310450799156e-120
-370.9884899196683,105.0,0.6655806064087126,0.20515912175031176,8.602745075288874e-119,6.999602817726429e-119
-368.98848991956834,105.0,0.6687826721668685,0.20939500514761297,8.848944871166816e-118,7.1998604413523825e-118
-366.98848991946835,110.0,0.6717958957891734,0.21324349896367784,9.011767580222603e-117,7.332274924634538e-117
-364.98848991936836,110.0,0.674490239044765,0.21493239461036534,9.086417224329052e-116,7.392945833506178e-116
-362.9884899192684,110.0,0.6769955692916574,0.2154812381019116,9.070677178697784e-115,7.380071557816479e-115
-360.9884899191684,110.0,0.6792993052616686,0.21489109940596607,8.965019514195224e-114,7.294038184883426e-114
-358.9884899190684,110.0,0.6813893966242721,0.21082076573730665,8.7725814806576e-113,7.137400267829687e-113
-356.9884899189684,110.0,0.68316104869862,0.21040862771134822,8.4990107657548e-112,6.914754825303827e-112
-354.9884899188684,110.0,0.6847482517945268,0.20888265091379,8.152190179473497e-111,6.63251724456343e-111
-352.98848991876844,110.0,0.6861451855251415,0.20627393756890805,7.741860490562142e-110,6.2986143304744e-110
-350.98848991866845,105.0,0.6873462715829174,0.20678018775568036,7.279166585356518e-109,5.922114985011797e-109
-348.98848991856846,105.0,0.6882651548301412,0.2091173483898841,6.776156411846655e-108,5.512822492813403e-108
-346.9884899184685,105.0,0.689032652009572,0.2104089370464704,6.245264017053847e-107,5.080853887882406e-107
-344.9884899183685,105.0,0.6896491371966906,0.21063879400223287,5.69880733535858e-106,4.636231345459467e-106
-342.9884899182685,100.0,0.6901145893804762,0.2130000876410056,5.148528432162787e-105,4.188508138441919e-105
-340.9884899181685,100.0,0.6903359865766163,0.21656632503721157,4.605199051497542e-104,3.7464477453928656e-104
-338.9884899180685,100.0,0.6904292316574,0.21909166474031622,4.078308111057998e-103,3.3177696473502496e-103
-336.98848991796854,100.0,0.6903998705433512,0.2205341270808845,3.575840870736731e-102,2.9089697217414522e-102
-334.98848991786855,95.0,0.6902526187964031,0.22344370986141504,3.1041525195818693e-101,2.5252174614375695e-101
-332.98848991776856,95.0,0.6898931276751431,0.22710325827572658,2.667932473460986e-100,2.1703269971776526e-100
-330.9884899176686,95.0,0.6894240422835182,0.22967984129585253,2.2702502325808337e-99,1.8467944735551026e-99
-328.9884899175686,95.0,0.6888552562597714,0.23113004678682936,1.912669547485707e-98,1.5558909933947515e-98
-326.9884899174686,90.0,0.6881954886446795,0.233592547041299,1.5954150530309812e-97,1.29779823987771e-97
-324.9884899173686,90.0,0.687354713829482,0.23653128947390953,1.3175744604769527e-96,1.0717730168814528e-96
-322.9884899172686,90.0,0.6864253522875888,0.2383970764019371,1.0773197170646594e-95,8.763272088287443e-96
-320.98848991716864,90.0,0.6854207965924438,0.239140965163343,8.721320125726569e-95,7.094108584334942e-95
-318.98848991706865,85.0,0.6843529518513992,0.24187904402709132,6.990178291644311e-94,5.685879464878664e-94
-316.98848991696866,85.0,0.6831395216078557,0.2457885329384214,5.54706064189072e-93,4.51196763617413e-93
-314.9884899168687,85.0,0.6818564235817178,0.24860010865577384,4.3581928634233906e-92,3.54489230067589e-92
-312.9884899167687,85.0,0.6805199445420832,0.25025458654684685,3.3901513485545544e-91,2.757459191969979e-91
-310.9884899166687,80.0,0.6791446464013536,0.24970595958843808,2.6109652024187836e-90,2.123656953669386e-90
-308.9884899165687,80.0,0.6776699623989012,0.24730298286258404,1.990914843259666e-89,1.6193066593235684e-89
-306.9884899164687,80.0,0.6761590645901518,0.24378227303588162,1.5030524753970994e-88,1.2224850562021823e-88
-304.98848991636874,80.0,0.6746305211332703,0.23916896432890072,1.123480965628469e-87,9.137512656377673e-88
-302.98848991626875,75.0,0.6731007216186938,0.23843729451995355,8.31433799591061e-87,6.76211668896192e-87
-300.98848991616876,75.0,0.6715262611753494,0.2403022419412853,6.092005437934208e-86,4.954591270861067e-86
-298.9884899160688,75.0,0.6699525393247711,0.2411844991280795,4.419405110018195e-85,3.5942127467052086e-85
-296.9884899159688,75.0,0.6683991990319081,0.241037520824968,3.174231145440184e-84,2.5814919681613684e-84
-294.9884899158688,70.0,0.6668833026294537,0.24266999922922203,2.257276563696458e-83,1.8357312853706268e-83
-292.9884899157688,70.0,0.6653623376438942,0.24548687335549732,1.5892886267189202e-82,1.2924658034485281e-82
-290.9884899156688,70.0,0.6638599424107735,0.24741149737132337,1.1078803341626743e-81,9.009504908552635e-82
-288.98848991556883,70.0,0.6623946619009299,0.24837279682740793,7.646369966425875e-81,6.21806135262022e-81
-286.98848991546885,65.0,0.6609823714097257,0.2506424354853446,5.225049925669952e-80,4.248949749682423e-80
-284.98848991536886,65.0,0.659583938601402,0.2536957513700612,3.5350745548300634e-79,2.8746237676692704e-79
-282.9884899152689,65.0,0.6582157911854576,0.25577503401660734,2.3679908767237535e-78,1.9255445432541794e-78
-280.9884899151689,65.0,0.6568951936656223,0.25679279292360935,1.5704897663707623e-77,1.2770255560109933e-77
-278.9884899150689,60.0,0.6556368569676881,0.25825615091754095,1.0312504847296548e-76,8.385315274782264e-77
-276.9884899149689,60.0,0.6544088296902453,0.25989302234185585,6.704517455544239e-76,5.451466217704062e-76
-274.9884899148689,60.0,0.6532235351522644,0.2605082546418509,4.3156432176254645e-75,3.508986641335162e-75
-272.98848991476893,60.0,0.6520981907970073,0.26002684230372325,2.7504169603260237e-74,2.236273463872324e-74
-270.98848991466895,55.0,0.6510477314321651,0.26116716762550873,1.7355090878143303e-73,1.4110527941924697e-73
-268.98848991456896,55.0,0.6500469107846412,0.26336858186968826,1.084253814779053e-72,8.815300687420059e-73
-266.98848991446897,55.0,0.6491013460080323,0.2645127389350039,6.706734354641203e-72,5.452640647362794e-72
-264.988489914369,55.0,0.6482284358527435,0.2644934802503063,4.107406669542144e-71,3.339280273964746e-71
-262.988489914269,50.0,0.6474436987921938,0.2660119325083456,2.4905836720266445e-70,2.024769046931333e-70
-260.988489914169,50.0,0.6467287908535067,0.268507574106477,1.4952430399028283e-69,1.2155564251218164e-69
-258.988489914069,50.0,0.646080429068924,0.2698220421194385,8.887918349808307e-69,7.225237917578235e-69
-256.98848991396903,50.0,0.6455169827421567,0.2698404175499264,5.230778582709043e-68,4.2521343409370816e-68
-254.98848991386905,45.0,0.6450554854305899,0.27156289288020813,3.047972457298574e-67,2.477650249374654e-67
-252.98848991376906,45.0,0.6446842912259614,0.2745867942859183,1.7584684225526602e-66,1.4293929386414882e-66
-250.98848991366907,45.0,0.6443859813296716,0.27655691363722956,1.0044709112873655e-65,8.164738684377389e-66
-248.98848991356908,45.0,0.6441798774383588,0.2773286466982053,5.680935219335594e-65,4.617558387048874e-65
-246.9884899134691,40.0,0.6440846874291006,0.28078616156760244,3.1811373864905316e-64,2.585606202991923e-64
-244.9884899133691,40.0,0.644093677646637,0.28620709473906325,1.763703480372901e-63,1.4334834492035775e-63
-242.98848991326912,40.0,0.6441724531844198,0.2904318184282183,9.681657692977005e-63,7.868713736657228e-63
-240.98848991316913,40.0,0.6443415175703273,0.29325803724195676,5.2620544267851905e-62,4.2765742950507185e-62
-238.98848991306915,35.0,0.6446218087143221,0.3002986336400987,2.8316715065554785e-61,2.3012826705187277e-61
-236.98848991296916,35.0,0.6450102301603541,0.31080641884005494,1.5087344177986514e-60,1.226100441768813e-60
-234.98848991286917,35.0,0.6454482177928166,0.32027562502366247,7.959129902320411e-60,6.467921482825852e-60
-232.98848991276918,35.0,0.6459575380804349,0.3284064081389457,4.157207860842033e-59,3.378209021493137e-59
-230.9884899126692,30.0,0.6465618465682575,0.33721094601774104,2.1499171733621083e-58,1.746995837375139e-58
-228.9884899125692,30.0,0.6472677977754587,0.346550504659664,1.1008447043353864e-57,8.945019492947892e-58
-226.98848991246922,30.0,0.6479917559341997,0.3546219354455104,5.581041228255182e-57,4.5347701750277555e-57
-224.98848991236923,30.0,0.6487562289504459,0.3612534081784907,2.8014944096231617e-56,2.2762205982501865e-56
-222.98848991226924,25.0,0.6495868674066844,0.36668411992897765,1.3923555963100214e-55,1.1312510849308888e-55
-220.98848991216926,25.0,0.650512938531026,0.37122486273418154,6.851678403883557e-55,5.566597018529118e-55
-218.98848991206927,25.0,0.6514435535540565,0.3746319341855642,3.338341106040186e-54,2.7121093757820674e-54
-216.98848991196928,25.0,0.6524012282414305,0.3768341064135601,1.610467347687765e-53,1.3083134229835983e-53
-214.9884899118693,20.0,0.6534120961519626,0.3808450782024789,7.692387594160219e-53,6.248907804172121e-53
-212.9884899117693,20.0,0.6545266219135633,0.38621651948475894,3.63796878762374e-52,2.9551852485325542e-52
-210.98848991166932,20.0,0.6556459900208906,0.3905086087206357,1.703514812801666e-51,1.3837388467461636e-51
-208.98848991156933,20.0,0.6567914461246307,0.39362521896162334,7.89809882041929e-51,6.415240623406841e-51
-206.98848991146934,15.0,0.6579881343325487,0.3990687481616426,3.6256801591755987e-50,2.944840196188319e-50
-204.98848991136936,15.0,0.6593023807229053,0.4064738790406894,1.647962311969179e-49,1.3384466236028498e-49
-202.98848991126937,15.0,0.6606182483903899,0.41306825976122247,7.416457410244494e-49,6.023258562004192e-49
-200.98848991116938,15.0,0.6619542599144408,0.4187997049013752,3.30474366827387e-48,2.6838217833163608e-48
-198.9884899110694,10.0,0.6633330695978156,0.4234248374654609,1.4580475655680474e-47,1.184044852712769e-47
-196.9884899109694,10.0,0.6648390542509491,0.4274399437692506,6.369404826575466e-47,5.172202881856624e-47
-194.98848991086942,10.0,0.6663487441174136,0.4311355120475948,2.7549890287985324e-46,2.237054045184453e-46
-192.98848991076943,10.0,0.6678745546561001,0.4345028984902692,1.1798733022913695e-45,9.580133106692451e-46
-190.98848991066944,5.0,0.6694330520931506,0.4381375995638192,5.0031782850258273e-45,4.0622006760592094e-45
-188.98848991056946,5.0,0.6711236320622401,0.4420842592532625,2.1006433257523296e-44,1.705479865135236e-44
-186.98848991046947,5.0,0.6728294282908434,0.44589715041025874,8.732830466643231e-44,7.089699757031973e-44
-184.98848991036948,5.0,0.6745537668098636,0.4495672287631723,3.594634616265782e-43,2.9181375155893936e-43
-182.9884899102695,0.0,0.6763041062099994,0.45345789071131143,1.4650489471283517e-42,1.1892713907667296e-42
-180.9884899101695,0.0,0.6781853874882844,0.45761730034562415,5.91218245417217e-42,4.799037523136897e-42
-178.98848991006952,0.0,0.6800951070552568,0.461780097134616,2.3623404675863195e-41,1.917458310241914e-41
-176.98848990996953,0.0,0.6820258036376817,0.46594835899650655,9.346236795948802e-41,7.585723071805107e-41
-174.98848990986954,6.0,0.6839741125275387,0.46689314068797955,3.6612666980917257e-40,2.971446878424542e-40
-172.98848990976956,6.0,0.6860628881964379,0.4722848448022757,1.4201261200944843e-39,1.1524963469939498e-39
-170.98848990966957,6.0,0.6881892044858263,0.47733707719701235,5.454112652485651e-39,4.4260102608352635e-39
-168.98848990956958,6.0,0.6903349163505176,0.48206292653184735,2.0740709483010394e-38,1.683012040193006e-38
-166.9884899094696,12.0,0.6924858776132743,0.48563142889970357,7.809551795876507e-38,6.336722022904844e-38
-164.9884899093696,12.0,0.6947947458795276,0.4902434750071545,2.911603896143269e-37,2.3623562891768446e-37
-162.98848990926962,12.0,0.6971491953777691,0.4943761452567883,1.0748375783786918e-36,8.720274074667947e-37
-160.98848990916963,12.0,0.69952198291663,0.4980463796499549,3.928786681390342e-36,3.187275129454853e-36
-158.98848990906964,18.0,0.7018897439229034,0.50581086998045,1.4219351980273813e-35,1.15349136020654e-35
-156.98848990896965,18.0,0.704418006232746,0.5133031856446495,5.0957440125371e-35,4.1334739361695596e-35
-154.98848990886967,18.0,0.7069987323764938,0.519763149447658,1.8081836520879079e-34,1.4666376208077128e-34
-152.98848990876968,18.0,0.7095982694434576,0.5251763609926696,6.3530943896013115e-34,5.152736023016844e-34
-150.9884899086697,24.0,0.7121867659357698,0.5364129388610301,2.210225617215439e-33,1.7925080692070397e-33
-148.9884899085697,24.0,0.7149225431865783,0.5423034722296578,7.613724139691355e-33,6.174377730141504e-33
-146.98848990846972,24.0,0.7177149876741465,0.5468338484245012,2.5969739502247973e-32,2.105885809597667e-32
-144.98848990836973,24.0,0.7205273732678935,0.5500295422742227,8.770991166502108e-32,7.1119171257931e-32
-142.98848990826974,30.0,0.723326572738589,0.5608182240170041,2.933195941148664e-31,2.378206159255233e-31
-140.98848990816975,30.0,0.7262525611675158,0.5668930839275805,9.712823448892395e-31,7.874517487091026e-31
-138.98848990806977,30.0,0.7292387820736177,0.571478142689553,3.184656720728301e-30,2.5817295128007886e-30
-136.98848990796978,30.0,0.7322467692670055,0.5745804313894276,1.0339348215577969e-29,8.38128398467645e-30
-134.9884899078698,36.0,0.7352414006444877,0.5834090646749693,3.323822271335847e-29,2.694164405085591e-29
-132.9884899077698,36.0,0.7383507109135466,0.5889183517144005,1.058028114253582e-28,8.575353702126157e-29
-130.98848990766982,36.0,0.7415313484175334,0.5924729537779239,3.3348176420620264e-28,2.7026828578330387e-28
-128.98848990756983,36.0,0.7447446569875745,0.5941145438717216,1.0407900254681847e-27,8.43439452989914e-28
-126.98848990746983,42.0,0.7479549409974765,0.6050289443334523,3.216406850139779e-27,2.6063287566503365e-27
-124.98848990736983,42.0,0.7512763904874286,0.6117652026776979,9.842293998376144e-27,7.974833305841661e-27
-122.98848990726982,42.0,0.7546886306297372,0.6161539074567666,2.9822212118030216e-26,2.4161941959693515e-26
-120.98848990716982,42.0,0.7581548527664895,0.6183220635351033,8.947510244559022e-26,7.24870673099583e-26
-118.98848990706982,48.0,0.7616401694486573,0.6304923086315033,2.658177870767398e-25,2.153318895751979e-25
-116.98848990696982,48.0,0.765227287526205,0.6377602516465579,7.819626443023213e-25,6.333969334754357e-25
-114.98848990686982,48.0,0.768914453111282,0.642407550833979,2.2777641465942692e-24,1.8448624501424942e-24
-112.98848990676981,48.0,0.7726679380859864,0.6445704743743217,6.569811548957824e-24,5.320752972753222e-24
