#lags,ntau,weight_dist,acf,smooth_dist,smooth_weight_dist
-1976.98849,1.0,0.002031463494443671,0.0,4.2713591066443835,0.010335529488282674
-1974.9884899999,1.0,0.0020549907276684832,0.0,4.899162623643722,0.011903390491170361
-1972.9884899997999,1.0,0.002079481251461453,0.0,5.579359625473124,0.013614222551413327
-1970.9884899996998,1.0,0.0021044072367900637,0.0,6.309651059208127,0.015464975808440862
-1968.9884899995998,1.0,0.00212967874856977,0.0,7.086553751883933,0.017449689056280228
-1966.9884899994997,2.0,0.0021552101482897826,-0.9999999999994778,7.905363700844053,0.019559299039214467
-1964.9884899993997,2.0,0.002182001081940566,-0.9999999999996461,8.760147395053295,0.02178150703759602
-1962.9884899992996,2.0,0.0022093573566424923,-0.9999999999990246,9.643762921688513,0.024100711150700973
-1960.9884899991996,2.0,0.0022371594288376614,-4.626299343613027e-13,10.547912081840913,0.026498012354647257
-1958.9884899990996,3.0,0.0022652891264872757,-0.8282636676025051,11.463224271529121,0.028951302034510552
-1956.9884899989995,3.0,0.0022949256552652407,-0.7709536679653982,12.379372448110068,0.03143543811038582
-1954.9884899988995,3.0,0.0023252538024049604,-0.5632184934862131,13.28522104225961,0.033922515901670156
-1952.9884899987994,3.0,0.0023561288939438806,-0.1896186560105745,14.169005122589281,0.03638223829158187
-1950.9884899986994,4.0,0.002387404853029704,-0.6079933219412789,15.01853940408553,0.03878238737743819
-1948.9884899985993,4.0,0.0024203753269483805,-0.7414597491454735,15.821454758864283,0.04108939649859163
-1946.9884899984993,4.0,0.0024541712659800537,-0.8392056448811995,16.565458714780746,0.043269017302447366
-1944.9884899983992,4.0,0.002488629141217774,-0.8691747485166488,17.23861503306109,0.04528707144841723
-1942.9884899982992,5.0,0.0025235809442635776,-0.890776912609861,17.829635907464603,0.04711027090962572
-1940.9884899981992,5.0,0.002560414071632722,-0.8008118030358353,18.32817873875782,0.04870708499497575
-1938.988489998099,5.0,0.0025982489898788196,-0.5704936837799951,18.72513796186837,0.05004862666630274
-1936.988489997999,5.0,0.0026369036899577766,-0.2833560447884592,19.012921213661535,0.051109526010978165
-1934.988489997899,6.0,0.0026761881128961333,-0.12896611114589207,19.18569840288768,0.0518687553920477
-1932.988489997799,6.0,0.002717608296289544,-0.021147496944850214,19.239612134685473,0.05231036931214027
-1930.988489997699,6.0,0.002760236668932731,0.1385858567293251,19.172938560242095,0.052424122742718404
-1928.988489997599,6.0,0.0028038743455029197,0.2759038718587348,18.986189115913362,0.052205934758360883
-1926.9884899974988,7.0,0.0028483103616683434,-0.002451400711282331,18.682145760293828,0.05165816974043783
-1924.9884899973988,7.0,0.0028951717227261313,-0.11062398899997379,18.265825111915696,0.05078971592446635
-1922.9884899972988,7.0,0.0029434650530857165,-0.22882143992574533,17.744370165309288,0.04961585021194914
-1920.9884899971987,7.0,0.0029929790500164938,-0.29141990640802024,17.126871796577205,0.04815788834513342
-1918.9884899970987,8.0,0.003043484538261951,-0.20849122129404385,16.424125807360205,0.046442630048033576
-1916.9884899969986,8.0,0.0030966980205518546,-0.09153146602705046,15.648334538024276,0.04450161883587379
-1914.9884899968986,8.0,0.003151569673450073,0.07035424459150644,14.812764866991689,0.042370245195636036
-1912.9884899967985,8.0,0.003207877384427292,0.17413099403420162,13.931376506588594,0.04008672915555819
-1910.9884899966985,9.0,0.0032653738862697193,-0.13560184304249143,13.018435770954767,0.037691023459017245
-1908.9884899965984,9.0,0.0033259224106092678,-0.14833815255928195,12.088130364483021,0.03522368139137999
-1906.9884899964984,9.0,0.0033884040449717445,-0.14108639197831405,11.154200229930627,0.032724733724258284
-1904.9884899963984,9.0,0.003452579570586947,-0.13229899392175612,10.229598182133461,0.030232617368882938
-1902.9884899962983,10.0,0.003518176686475517,-0.3448725924725694,9.326192070556495,0.027783194448961095
-1900.9884899961983,10.0,0.0035872350931665815,-0.45025940686683774,8.454517735149182,0.02540889500180908
-1898.9884899960982,10.0,0.0036585150852262815,-0.5039280099499575,7.623589238263807,0.023138009842933495
-1896.9884899959982,10.0,0.003731752239874291,-0.48218446955388305,6.840769964436865,0.020994152743750976
-1894.9884899958981,11.0,0.0038066413135091895,-0.4872341188343487,6.11170535716527,0.018995903406083967
-1892.988489995798,11.0,0.0038854203195637146,-0.4029262274496085,5.440315456113371,0.01715663514322945
-1890.988489995698,11.0,0.0039667108067596695,-0.25760145237093723,4.828843121591435,0.015484523993967499
-1888.988489995598,11.0,0.0040502163569319325,-0.14167973941520512,4.277951958689362,0.013982729423927764
-1886.988489995498,12.0,0.004135592041195441,-0.0691136423170853,3.786866517174448,0.012649730961071507
-1884.988489995398,12.0,0.004225332593750388,0.058702400918331385,3.353546349855889,0.011479800169736085
-1882.9884899952979,12.0,0.004317912875793344,0.19633118749805084,2.97488494266232,0.010463583359579831
-1880.9884899951978,12.0,0.004412994710982321,0.28600744433109115,2.646924349993389,0.009588767406331687
-1878.9884899950978,13.0,0.004510183450332811,0.27687019322469686,2.365076537126873,0.008840799082748759
-1876.9884899949977,13.0,0.004612251670220574,0.2649213080003557,2.1243429038036776,0.008203627414575731
-1874.9884899948977,13.0,0.004717495057793763,0.20522068329828658,1.9195241972677077,0.0076604388381607035
-1872.9884899947976,13.0,0.004825525969697838,0.12923049183478205,1.7454139791473786,0.00719435637797016
-1870.9884899946976,14.0,0.0049358924567380925,0.4052466439107869,1.5969699501643861,0.006789076683509294
-1868.9884899945976,14.0,0.005051684536263084,0.5409857844955841,1.469458720341056,0.006429422512658533
-1866.9884899944975,14.0,0.005171008164912268,0.6170524918238249,1.3585709971442006,0.006101792999583074
-1864.9884899943975,14.0,0.005293299294014334,0.6329394358103115,1.2605056011686786,0.005794499599916224
-1862.9884899942974,15.0,0.005417941191287557,0.759352452437168,1.1720221534498776,0.0054979816876944655
-1860.9884899941974,15.0,0.0055480493262598605,0.7604271517262915,1.0904636499110674,0.005204902048607379
-1858.9884899940973,15.0,0.005681590395269395,0.6692541225493208,1.0137513840502188,0.00491012859475077
-1856.9884899939973,15.0,0.005817817476750043,0.5249639111360722,0.9403557381485997,0.004610614132751981
-1854.9884899938972,16.0,0.005955948933991157,0.4412998040917473,0.8692471830001954,0.00430519059498713
-1852.9884899937972,16.0,0.006098135101005902,0.3955932817733524,0.7998323664282435,0.003994297502989424
-1850.9884899936972,16.0,0.006243075723127911,0.2962799341875514,0.7318804094057909,0.0036796663787090457
-1848.988489993597,16.0,0.0063899690461133056,0.18904505026969043,0.6654444639520729,0.003363983274228458
-1846.988489993497,17.0,0.006537984700972428,0.37600519765411133,0.60078323935961,0.0030505505982386205
-1844.988489993397,17.0,0.006687669857914934,0.43406112423512083,0.5382866131881419,0.002742967139566159
-1842.988489993297,17.0,0.006839143964760773,0.44537056395078084,0.4784086678609505,0.0024448418841890975
-1840.988489993197,17.0,0.006991574622410412,0.42797876865711126,0.42161060071313744,0.0021595532217812048
-1838.988489993097,18.0,0.00714411096332616,0.4589391416286582,0.3683150175943073,0.0018900608043934865
-1836.9884899929968,18.0,0.007295769824026397,0.3981709942643189,0.31887220798055876,0.0016387730142531204
-1834.9884899928968,18.0,0.007448081835451049,0.31387191668737197,0.27353817489285925,0.0014074690439172517
-1832.9884899927968,18.0,0.00760021287715575,0.22626400633402727,0.23246350425191983,0.0011972712500526361
-1830.9884899926967,19.0,0.00775132206251959,0.2661835101500276,0.1956916375925484,0.0010086608895014226
-1828.9884899925967,19.0,0.007899414185706452,0.22391712319357507,0.16316477360005233,0.0008415286707345905
-1826.9884899924966,19.0,0.00804708315377249,0.17247056045180414,0.1347354651088979,0.000695250755846214
-1824.9884899923966,19.0,0.008193522204283998,0.12078845737347643,0.11018198194124716,0.0005687808528760807
-1822.9884899922965,20.0,0.008337928574173521,0.11653170072358976,0.08922564830829678,0.0004607497127724324
-1820.9884899921965,20.0,0.008477951638513535,0.040703773172322336,0.07154860183374821,0.00036956452073934397
-1818.9884899920964,20.0,0.00861663673683926,-0.03262500469481511,0.05681072256677156,0.00029350216467787313
-1816.9884899919964,20.0,0.008753238069737377,-0.0939957805082482,0.04466480903966862,0.00023079199599995866
-1814.9884899918964,21.0,0.008887022529161187,-0.08675204461614441,0.03476940336899816,0.00017968531368080893
-1812.9884899917963,21.0,0.009015337311295533,-0.14558930736178594,0.026798963987252723,0.00013851027659368367
-1810.9884899916963,21.0,0.009141474832615423,-0.19406069821309382,0.020451335729614863,0.00010571219514312644
-1808.9884899915962,21.0,0.009264781016602877,-0.22757050206091595,0.015452663150597488,7.988012232358883e-05
-1806.9884899914962,22.0,0.009384621234864478,-0.1913569475207676,0.011560031401612028,5.976134255699875e-05
-1804.9884899913961,22.0,0.009498363049132003,-0.2249407437392992,0.008562202620657735,4.426575830458111e-05
-1802.988489991296,22.0,0.009609514109988386,-0.2477968774007243,0.006278851446229925,3.246233431972101e-05
-1800.988489991196,22.0,0.009717534569849617,-0.25916971652696835,0.004558700269390796,2.3569724732271277e-05
-1798.988489991096,22.0,0.009821902954167551,-0.21259447551421246,0.0032769234445792633,1.694303111556826e-05
-1796.988489990996,22.0,0.009920872178276271,-0.23198930056880251,0.0023321399211738863,1.2058371309286556e-05
-1794.988489990896,22.0,0.010017724648479128,-0.24268962561270516,0.0016432545601357445,8.496624457263223e-06
-1792.9884899907959,22.0,0.010112041174766632,-0.24472429469238466,0.001146347053368882,5.927394519913526e-06
-1790.9884899906958,21.0,0.010203405885978583,-0.26397219950595374,0.0007917492966822499,4.0939299726005554e-06
-1788.9884899905958,21.0,0.010290594989977073,-0.27672662829651173,0.0005414008710800965,2.7994696400372e-06
-1786.9884899904957,21.0,0.010376285667105509,-0.28014272822152797,0.0003665299136245277,1.8952633983503107e-06
-1784.9884899903957,21.0,0.01046016138627811,-0.27577078882000006,0.0002456737264966246,1.2703447384790653e-06
-1782.9884899902956,20.0,0.010541892948116874,-0.29541339689341445,0.00016302961189317404,8.43007823757188e-07
-1780.9884899901956,20.0,0.010620092927380953,-0.30912117726473154,0.00010711061314908581,5.538592849356386e-07
-1778.9884899900956,20.0,0.010696999940573389,-0.31364427466571365,6.96717198837795e-05,3.602673954272853e-07
-1776.9884899899955,20.0,0.010772381976504436,-0.3102746275537789,4.4868174268730514e-05,2.3201071829527683e-07
-1774.9884899898955,19.0,0.010845986027946121,-0.33071947601836904,2.8607371931154392e-05,1.4792739656164325e-07
-1772.9884899897954,19.0,0.010916426201474322,-0.3451956964209133,1.805822700014534e-05,9.33784325653473e-08
-1770.9884899896954,19.0,0.010985639268539342,-0.35053851186227025,1.1285732173874268e-05,5.835819937226856e-08
-1768.9884899895953,19.0,0.011053471335754888,-0.3479904281948787,6.982995777624485e-06,3.610891792761208e-08
-1766.9884899894953,18.0,0.011119741979568935,-0.3633225769097226,4.277708273422362e-06,2.2119958624506538e-08
-1764.9884899893952,18.0,0.01118318128063805,-0.3723300578412604,2.5944054041181406e-06,1.3415638821022911e-08
-1762.9884899892952,18.0,0.011245526216987508,-0.37274244998949646,1.557836110696564e-06,8.05555724204993e-09
-1760.9884899891952,18.0,0.011306694511377852,-0.3661840603404407,9.261107121022572e-07,4.788913347074378e-09
-1758.9884899890951,17.0,0.011366572503747709,-0.3849401703461969,5.45081239426585e-07,2.8186133913294017e-09
-1756.988489988995,17.0,0.011423946511857519,-0.3994774108894724,3.1762649674410686e-07,1.642446262140104e-09
-1754.988489988895,17.0,0.011480325988190336,-0.40653316221919633,1.8324382889916127e-07,9.475539376495583e-10
-1752.988489988795,17.0,0.011535694546567209,-0.4065234902932606,1.046644314720379e-07,5.412199729906467e-10
-1750.988489988695,16.0,0.011590001277586479,-0.3982204434581402,5.9186954596372364e-08,3.0605591992853294e-10
-1748.988489988595,16.0,0.011642430617120593,-0.38290626183268306,3.3136754796053755e-08,1.713502888418023e-10
-1746.9884899884948,16.0,0.011694525526872404,-0.36145460518352523,1.8367542323743244e-08,9.497864710713119e-11
-1744.9884899883948,16.0,0.011746332396421812,-0.3361201896259292,1.007973727743363e-08,5.212237475199325e-11
-1742.9884899882948,15.0,0.011797852079410429,-0.31068730545476586,5.476517229834243e-09,2.8319102334311294e-11
-1740.9884899881947,15.0,0.01184847783199906,-0.28040270903406406,2.9458917326788957e-09,1.523322445498837e-11
-1738.9884899880947,15.0,0.011899648003260408,-0.24700804456052278,1.568867182185505e-09,8.112622487912335e-12
-1736.9884899879946,15.0,0.011951451024181168,-0.2131623553031558,8.272040376928843e-10,4.277477738206274e-12
-1734.9884899878946,14.0,0.012003917819058126,-0.19064425981428948,4.318134648055936e-10,2.232910481465071e-12
-1732.9884899877945,14.0,0.012056247575763923,-0.1670003476281138,2.2317049698763162e-10,1.1540162616418634e-12
-1730.9884899876945,14.0,0.012109468934409175,-0.14339864476901992,1.1419167526770294e-10,5.904860006630652e-13
-1728.9884899875944,14.0,0.012163680888271492,-0.12160736169055346,5.78481094640199e-11,2.991330110827039e-13
-1726.9884899874944,13.0,0.01221892346048576,-0.11301720770969706,2.9013555765449945e-11,1.5002931917279012e-13
-1724.9884899873944,13.0,0.012274483876056586,-0.10611634304854577,1.4406875524573742e-11,7.449806499955829e-14
-1722.9884899872943,13.0,0.012331186026751541,-0.10125467143449529,7.082648836596283e-12,3.662443254428664e-14
-1720.9884899871943,13.0,0.012389133576086859,-0.09884142677229843,3.4472967808706985e-12,1.7825998830102515e-14
-1718.9884899870942,12.0,0.012448374242920873,-0.06805124674041366,1.661187657926268e-12,8.590014556930784e-15
-1716.9884899869942,12.0,0.012508425137373609,-0.03623040342139214,7.925301174360812e-13,4.098179556483056e-15
-1714.9884899868941,12.0,0.012569996954844988,-0.008370279879569231,3.743431679978757e-13,1.93573151909877e-15
-1712.988489986794,12.0,0.012633207308348684,0.013767187404731263,1.7505765410492708e-13,9.052245359142984e-16
-1710.988489986694,11.0,0.012698121598976573,0.036427328094985,8.104931592439754e-14,4.1910666570166853e-16
-1708.988489986594,11.0,0.012764461860467691,0.05542258518225307,3.7151355085866355e-14,1.9210995719555512e-16
-1706.988489986494,11.0,0.012832786900418326,0.06839863947395311,1.6859978663280772e-14,8.718308609600281e-17
-1704.988489986394,11.0,0.012903232204224195,0.07502457283540895,7.575240719933879e-15,3.917163115725476e-17
-1702.9884899862939,10.0,0.01297588749787099,0.10154398940232245,3.3697129828368558e-15,1.742481318004457e-17
-1700.9884899861938,10.0,0.013050599849321836,0.12467344865227703,1.484042846812165e-15,7.673997617035578e-18
-1698.9884899860938,10.0,0.013127700139872913,0.14030235721055923,6.470785807253012e-16,3.346048602355135e-18
-1696.9884899859937,10.0,0.013207356098166652,0.14812306172467885,2.7933455550217033e-16,1.4444412594367329e-18
-1694.9884899858937,9.0,0.013289700718774774,0.1649660902229094,1.193848888269687e-16,6.173402321376684e-19
-1692.9884899857936,9.0,0.013374704278629452,0.17633499638604522,5.051625071251912e-17,2.612199439335011e-19
-1690.9884899856936,9.0,0.013462412166663565,0.17965513358207147,2.116264350006094e-17,1.0943220199741154e-19
-1688.9884899855936,9.0,0.01355301927555254,0.17554850030182995,8.77739771703371e-18,4.538799514761927e-20
-1686.9884899854935,8.0,0.013646701640409977,0.18168799076875833,3.6042814275114404e-18,1.8637768651713553e-20
-1684.9884899853935,8.0,0.013743454613715065,0.18213409321864388,1.4653071403011962e-18,7.577115173650439e-21
-1682.9884899852934,8.0,0.013842939377584332,0.17469602320814162,5.897876754921446e-19,3.0497968812308877e-21
-1680.9884899851934,8.0,0.01394537661326946,0.16046160546062013,2.3502809231385933e-19,1.2153321829228173e-21
-1678.9884899850933,7.0,0.01405099398410357,0.18469873661889732,9.272586922584876e-20,4.794862264042271e-22
-1676.9884899849933,7.0,0.014159610860172962,0.20788896001766086,3.621922106179617e-20,1.8728988768855673e-22
-1674.9884899848932,7.0,0.01427027554790914,0.22505619689066741,1.400665250205938e-20,7.242851440373718e-23
-1672.9884899847932,7.0,0.014383230748585399,0.23591123317344612,5.362738959855592e-21,2.7730766932688484e-23
-1670.9884899846932,6.0,0.014498767890021885,0.2683307684058142,2.0328063843074024e-21,1.0511658406238324e-23
-1668.9884899845931,6.0,0.014616753326778736,0.29842310595189314,7.628908915824977e-22,3.944915027853314e-24
-1666.988489984493,6.0,0.014735724807187683,0.32274060522416387,2.834561595108955e-22,1.4657541147784318e-24
-1664.988489984393,6.0,0.014855945529004162,0.34114215204733944,1.0427169247032633e-22,5.391897729974482e-25
-1662.988489984293,5.0,0.014977765418324082,0.3483529087617607,3.797554384670113e-23,1.9637184725741724e-25
-1660.988489984193,5.0,0.015101659433960869,0.3499745928978902,1.3693000896911413e-23,7.080661942791153e-26
-1658.988489984093,5.0,0.015226126801777482,0.3460138814804844,4.888215303032883e-24,2.527700124024407e-26
-1656.9884899839928,5.0,0.015351449440454792,0.33678629284551515,1.727663154242222e-24,8.933760275757101e-27
-1654.9884899838928,4.0,0.01547801002737636,0.30467069600845537,6.045397627539805e-25,3.1260800489121767e-27
-1652.9884899837928,4.0,0.015606836697594193,0.2631151706096757,2.0943425995685346e-25,1.0829862681625971e-27
-1650.9884899836927,4.0,0.015736290039948236,0.21418799267583058,7.183360081560056e-26,3.7145213630796715e-28
-1648.9884899835927,4.0,0.01586664131868707,0.1598595900154643,2.4392965556843548e-26,1.2613622405397415e-28
-1646.9884899834926,3.0,0.015998269254744048,0.0864681746186476,8.200845373217003e-27,4.2406638382175104e-29
-1644.9884899833926,3.0,0.016132493608053262,-0.000776574424240084,2.7296671880419342e-27,1.411513131633189e-29
-1642.9884899832925,3.0,0.016267195076770675,-0.09869241925221689,8.995345123092096e-28,4.6515003076280696e-30
-1640.9884899831925,3.0,0.016402591749348175,-0.20258484621813683,2.9348304531462613e-28,1.5176032235466395e-30
-1638.9884899830924,2.0,0.01653901414020473,-0.26369411941646254,9.479932791554914e-29,4.902080986691958e-31
-1636.9884899829924,2.0,0.016678392616510253,-0.31931905349590056,3.031688351716412e-29,1.5676885219922706e-31
-1634.9884899828924,2.0,0.016818312237549995,-0.3719330121348061,9.598887616700818e-30,4.963592623932286e-32
-1632.9884899827923,2.0,0.01695884370332455,-0.42051823534904353,3.0089454480281445e-30,1.555928147934463e-32
-1630.9884899826923,1.0,0.017100166482562736,-0.4366288876516071,9.338234514763916e-31,4.82880869212366e-33
-1628.9884899825922,1.0,0.01724503732650153,-0.4494514394408256,2.869275789113017e-31,1.4837048532768368e-33
-1626.9884899824922,1.0,0.017390936823977847,-0.46178828349231504,8.728444733359576e-32,4.513485898288585e-34
-1624.9884899823921,1.0,0.017537701706463016,-0.4736350936779406,2.6288057389353784e-32,1.3593575939927909e-34
-1622.988489982292,0.0,0.017685270000065235,-0.47465458036366337,7.838576067121697e-33,4.0533340844186987e-35
-1620.988489982192,0.0,0.017837126847773336,-0.4746545803636878,2.314050941847127e-33,1.1965976314269232e-35
-1618.988489982092,0.0,0.017990585463068892,-0.47465458036362784,6.763409897143865e-34,3.4973647800670226e-36
-1616.988489981992,0.0,0.01814519775956534,-0.4746545803636066,1.95711144746789e-34,1.0120239274473626e-36
-1614.988489981892,2.0,0.0183006082683459,-0.3812094714299008,5.606895487294247e-35,2.8993302344546506e-37
-1612.9884899817919,2.0,0.018461490398282293,-0.4102414788191576,1.590326954196092e-35,8.223593665013563e-38
-1610.9884899816918,2.0,0.018624486835684406,-0.4372345081117426,4.465883955251078e-36,2.3093122396120398e-38
-1608.9884899815918,2.0,0.01878886723424216,-0.46186099028647254,1.2416108615202112e-36,6.42037990255704e-39
-1606.9884899814917,4.0,0.018953982623763726,-0.4464373699947657,3.4175952510350536e-37,1.767241294745008e-39
-1604.9884899813917,4.0,0.019125980559484824,-0.46269488458087304,9.313497603260043e-38,4.816017215030894e-40
-1602.9884899812917,4.0,0.01930064527630202,-0.4770890048447872,2.512823829704897e-38,1.2993832540381309e-40
-1600.9884899811916,4.0,0.01947699765205348,-0.4891602782148469,6.712253219856322e-39,3.470911620481621e-41
-1598.9884899810916,6.0,0.019654127183712317,-0.4627361201825353,1.7751361855970533e-39,9.179243709549322e-42
-1596.9884899809915,6.0,0.01983902518921361,-0.4888008270947978,4.6478497190177034e-40,2.4034068846316516e-42
-1594.9884899808915,6.0,0.020027049813748064,-0.5120884875210661,1.2048404312803948e-40,6.230239707565364e-43
-1592.9884899807914,6.0,0.020217029502546655,-0.5317038949258732,3.092174850241614e-41,1.5989661397931568e-43
-1590.9884899806914,8.0,0.020407850873991048,-0.5099200427368896,7.856979308872418e-42,4.0628504157717217e-44
-1588.9884899805913,8.0,0.020606724150470074,-0.525774618940536,1.976533731906835e-42,1.022067206591293e-44
-1586.9884899804913,8.0,0.020809145170198613,-0.5276499555428932,4.922774096974414e-43,2.5455705049469546e-45
-1584.9884899803913,8.0,0.021013824036722667,-0.518508214030563,1.2138712854113692e-43,6.276938328013971e-46
-1582.9884899802912,10.0,0.021219516633545606,-0.3941298107276768,2.9634146581558877e-44,1.5323841393343242e-46
-1580.9884899801912,10.0,0.021433375760451196,-0.39093790642805576,7.162576384852859e-45,3.703774096787884e-47
-1578.9884899800911,10.0,0.02165139621367665,-0.37530170398132684,1.713969792255148e-45,8.862951790163743e-48
-1576.988489979991,10.0,0.02187219213340284,-0.35015402369659154,4.0606365143303035e-46,2.0997584570341688e-48
-1574.988489979891,12.0,0.022094408576097676,-0.29173718142910837,9.524498613347718e-47,4.9251260096314305e-49
-1572.988489979791,12.0,0.02232528940579367,-0.300804153255603,2.2118067820729804e-47,1.1437270929307265e-49
-1570.988489979691,12.0,0.022561121405723503,-0.29642184395211685,5.0852148092786584e-48,2.629568729911188e-50
-1568.988489979591,12.0,0.022800455890846737,-0.2798607352297366,1.1575199261870295e-48,5.985544989361615e-51
-1566.9884899794909,14.0,0.02304185755131173,-0.2531685195570547,2.608583266080576e-49,1.3489005367755873e-51
-1564.9884899793908,14.0,0.02329260054142362,-0.25574667168735127,5.820201053250854e-50,3.00963071677906e-52
-1562.9884899792908,14.0,0.02354918482231709,-0.24523966770750896,1.285666493327189e-50,6.648191934348916e-53
-1560.9884899791907,14.0,0.02381015516597137,-0.22431986586593672,2.811743625148662e-51,1.453954924328357e-53
-1558.9884899790907,16.0,0.024074036882649905,-0.18542673174987762,6.088077439050587e-52,3.1481498145948435e-54
-1556.9884899789906,16.0,0.02434773667263155,-0.1910865561755361,1.3050936358101413e-52,6.74864984674922e-55
-1554.9884899788906,16.0,0.02462802664135392,-0.18185925351032992,2.7698753858344686e-53,1.4323048235939455e-55
-1552.9884899787905,16.0,0.024913478311979625,-0.16008798562373427,5.82017234860701e-54,3.009615873584328e-56
-1550.9884899786905,18.0,0.025202600711647427,-0.14418318930742094,1.2107891339067153e-54,6.261000497418648e-57
-1548.9884899785905,18.0,0.02550227766819584,-0.15117657962214487,2.4937805847889027e-55,1.2895359765443054e-57
-1546.9884899784904,18.0,0.025809475733683484,-0.14483202605145873,5.0851646498703195e-56,2.6295427924402574e-58
-1544.9884899783904,18.0,0.026122763858581578,-0.12822159602891375,1.0266179520032495e-56,5.3086498120543005e-59
-1542.9884899782903,20.0,0.026440604072626755,-0.15550733118249685,2.0519640346531596e-57,1.0610722777297785e-59
-1540.9884899781903,20.0,0.026770024654510616,-0.18016990272800293,4.060576434678421e-58,2.0997273897972424e-60
-1538.9884899780902,20.0,0.02710785028909838,-0.1922782108759344,7.955412263182719e-59,4.113750176816096e-61
-1536.9884899779902,20.0,0.027452605827851133,-0.19224861272469043,1.5431023981392097e-59,7.979395100073546e-62
-1534.9884899778901,22.0,0.0278026693925799,-0.19497416385175778,2.963356197540458e-60,1.5323539093025064e-62
-1532.98848997779,22.0,0.028165299959730647,-0.20505618801544256,5.6341709911866215e-61,2.913434419793784e-63
-1530.98848997769,22.0,0.028537095898472774,-0.2025421368180086,1.0605551189929294e-61,5.4841391796519365e-64
-1528.98848997759,22.0,0.028916509540177777,-0.18978091616591058,1.9764849920628783e-62,1.0220420031783698e-64
-1526.98848997749,24.0,0.029301809757625655,-0.19461441163858284,3.6467908178771094e-63,1.885758509496961e-65
-1524.98848997739,24.0,0.029700853769171073,-0.2076010321958366,6.661702584487913e-64,3.4447718456604147e-66
-1522.9884899772899,24.0,0.030109995220321588,-0.20930173942680774,1.2048047788110004e-64,6.230055348357e-67
-1520.9884899771898,24.0,0.030527561537678282,-0.20195136597788615,2.157273351178855e-65,1.1155278112893508e-67
-1518.9884899770898,26.0,0.030951660682222246,-0.21275030397777742,3.824289235343735e-66,1.9775430860948542e-68
-1516.9884899769897,26.0,0.031390821788831035,-0.21479904766905902,6.712021494189044e-67,3.470791794951819e-69
-1514.9884899768897,26.0,0.03184095020239229,-0.2085948330043334,1.1663073198709767e-67,6.030984673849763e-70
-1512.9884899767897,26.0,0.032300215696252695,-0.1969448910588931,2.0064563639986166e-68,1.0375402240777028e-70
-1510.9884899766896,28.0,0.03276653610472058,-0.22601651715313067,3.4174604114757703e-69,1.7671715691005648e-71
-1508.9884899765896,28.0,0.03324932413693589,-0.23311934552556426,5.762810258401489e-70,2.979953889903428e-72
-1506.9884899764895,28.0,0.033743997492482705,-0.23416432465241002,9.621044071518527e-71,4.9750497448803073e-73
-1504.9884899763895,28.0,0.034248132479729035,-0.23066023163822374,1.5902563655931312e-71,8.223228650785792e-74
-1502.9884899762894,30.0,0.03475908785624767,-0.259119687871469,2.6023705555686776e-72,1.3456879390972907e-74
-1500.9884899761894,30.0,0.035286242578480544,-0.27065874134640266,4.2162677786973235e-73,2.180235510910037e-75
-1498.9884899760893,30.0,0.035824661041340224,-0.2761757010143607,6.763076339938621e-74,3.497192297374758e-76
-1496.9884899759893,30.0,0.03637130404372862,-0.276443600640212,1.07403256379231e-74,5.553831156751692e-77
-1494.9884899758893,32.0,0.03692297281576081,-0.30255200569275337,1.6886811810469007e-75,8.732184175127215e-78
-1492.9884899757892,32.0,0.03748558584339262,-0.3129656562796063,2.6286631273603464e-76,1.359283849438417e-78
-1490.9884899756892,32.0,0.038056673913864386,-0.31676843806594723,4.051158715018303e-77,2.0948574792715136e-79
-1488.9884899755891,32.0,0.038633031681719825,-0.31436651082767253,6.181311618687286e-78,3.1963612850099024e-80
-1486.988489975489,34.0,0.03921131760847139,-0.3271744515861086,9.337681866727009e-79,4.828522917419859e-81
-1484.988489975389,34.0,0.03979191835599789,-0.3313451544555808,1.3965438091818726e-79,7.221539439937144e-82
-1482.988489975289,34.0,0.04037719274611594,-0.3279668455349855,2.0678884597887615e-80,1.0693068109695541e-82
-1480.988489975189,34.0,0.04096387245768064,-0.31934747262497054,3.031493981560621e-81,1.5675880130532373e-83
-1478.988489975089,36.0,0.0415485921437651,-0.34038470951213506,4.3999056764918794e-82,2.2751948177983345e-84
-1476.9884899749889,36.0,0.04212650568764013,-0.3531868605114691,6.322474370389433e-83,3.269356659173231e-85
-1474.9884899748888,36.0,0.04270477081076669,-0.3595724645757662,8.994724044301774e-84,4.6511791474217174e-86
-1472.9884899747888,36.0,0.04328017021417267,-0.3604221732786532,1.266909711874206e-84,6.5512004643081685e-87
-1470.9884899746887,38.0,0.04384943227966327,-0.38068281280516314,1.7666907780614032e-85,9.135572438230724e-88
-1468.9884899745887,38.0,0.044404149451750224,-0.3933288594472384,2.4391161060512067e-86,1.2612689299559808e-88
-1466.9884899744886,38.0,0.04495496447055911,-0.39971167063402113,3.3339682605704554e-87,1.723997709696818e-89
-1464.9884899743886,38.0,0.04549881916108768,-0.40030915167463377,4.511775725164356e-88,2.3330429113077854e-90
-1462.9884899742885,40.0,0.04603264257053535,-0.4275870944478696,6.044920598781701e-89,3.1258333772546534e-91
-1460.9884899741885,40.0,0.04654669898086186,-0.44830681263163497,8.018456053028831e-90,4.1463501720202285e-92
-1458.9884899740885,40.0,0.04705305263417236,-0.46165185005238474,1.053047499168942e-90,5.445317216243044e-93
-1456.9884899739884,40.0,0.047548938245332295,-0.46768711664104534,1.3691852882698184e-91,7.080068304920989e-94
-1454.9884899738884,42.0,0.048031613668472625,-0.49565923849372673,1.7625179237346387e-92,9.113994574436035e-95
-1452.9884899737883,42.0,0.048490144247372184,-0.5171885803466083,2.2462697857881045e-93,1.161547940290602e-95
-1450.9884899736883,42.0,0.04893726812195304,-0.5300919837291573,2.834309967180419e-94,1.465623998218217e-96
-1448.9884899735882,42.0,0.0493706366247048,-0.5344606551171628,3.5407056804014796e-95,1.8309017982907298e-97
-1446.9884899734882,44.0,0.049787955639136586,-0.5562097799629615,4.379145413663517e-96,2.2644596689392156e-98
-1444.9884899733881,44.0,0.05017813529290785,-0.570382918227085,5.362236452211795e-97,2.772816847657738e-99
-1442.988489973288,44.0,0.05055442857812583,-0.5754199037675294,6.500692299818076e-98,3.3615132959941584e-100
-1440.988489973188,44.0,0.05091499862176158,-0.5719739288479175,7.80243778326298e-99,4.034646948347285e-101
-1438.988489973088,44.0,0.05125807184048231,-0.5959472212686949,9.271672309492976e-100,4.794389321477917e-102
-1436.988489972988,44.0,0.05157578078813183,-0.6134053842654663,1.090794372327485e-100,5.640506605545777e-103
-1434.988489972888,44.0,0.051880983704423296,-0.6216972087932636,1.2705295156674616e-101,6.569918499278474e-104
-1432.9884899727879,44.0,0.05217239694856609,-0.6212765877904693,1.465155378608511e-102,7.576330425649736e-105
-1430.9884899726878,42.0,0.052448751285898425,-0.6462295441984838,1.6727832227014194e-103,8.649975702717296e-106
-1428.9884899725878,42.0,0.05270422137475253,-0.6684487292038941,1.8908309374394864e-104,9.777502215968301e-107
-1426.9884899724877,42.0,0.052950039171374155,-0.6815840090377296,2.116034724220584e-105,1.094203283618252e-107
-1424.9884899723877,42.0,0.05318540748198393,-0.6858816977253184,2.3444983750412406e-106,1.21234202399618e-108
-1422.9884899722877,40.0,0.0534094790824746,-0.7020923049795151,2.571781909708074e-107,1.3298705253474118e-109
-1420.9884899721876,40.0,0.053615704655766795,-0.7131934576459351,2.793028667629201e-108,1.4442774045144632e-110
-1418.9884899720876,40.0,0.05381367689344988,-0.715329914663638,3.0031270424552813e-109,1.5529194456805091e-111
-1416.9884899719875,40.0,0.05400300124017279,-0.7090990973800924,3.196900144812476e-110,1.6531196751234524e-112
-1414.9884899718875,38.0,0.054183196455598784,-0.724610605173997,3.36931405062236e-111,1.7422750465921848e-113
-1412.9884899717874,38.0,0.054347582703694504,-0.7368218399774507,3.515693208235838e-112,1.8179678285114125e-114
-1410.9884899716874,38.0,0.05450456100694061,-0.7402665454843149,3.631930272239979e-113,1.878074109214497e-115
-1408.9884899715873,38.0,0.05465409321974502,-0.7353956732253448,3.7146772789094415e-114,1.920862653925481e-116
-1406.9884899714873,36.0,0.05479602852276808,-0.7478687096324321,3.7615057660343937e-115,1.9450777028528425e-117
-1404.9884899713873,36.0,0.054924013909119336,-0.7574751942473215,3.771025156118417e-116,1.9500001872377896e-118
-1402.9884899712872,36.0,0.05504563244383474,-0.7594024148418251,3.7429513508282775e-117,1.9354831996002429e-119
-1400.9884899711872,36.0,0.0551611554519007,-0.7536904038277539,3.6781208152698725e-118,1.901959276729428e-120
-1398.9884899710871,34.0,0.055270719184877096,-0.7661240847533557,3.5784491777932505e-119,1.850418991609249e-121
-1396.988489970987,34.0,0.055368178478174775,-0.7758483083581759,3.4468372045466075e-120,1.7823623327833883e-122
-1394.988489970887,34.0,0.05546010893011498,-0.7780540411817836,3.287030588458885e-121,1.6997262011237274e-123
-1392.988489970787,34.0,0.05554705724675237,-0.7729324143404968,3.103443007602224e-122,1.6047929131650985e-124
-1390.988489970687,32.0,0.055629420194296744,-0.782101513293268,2.900954106297357e-123,1.5000857369699405e-125
-1388.988489970587,32.0,0.05570255748762757,-0.7880808166184037,2.684695268063286e-124,1.3882581151456582e-126
-1386.9884899704869,32.0,0.055772895838284535,-0.7868563681390166,2.4598362177486996e-125,1.2719833166325439e-127
-1384.9884899703868,32.0,0.055841228764414524,-0.7786889900545078,2.2313846494927904e-126,1.1538508241587119e-128
-1382.9884899702868,30.0,0.055908157725340496,-0.7878253471097687,2.004009360450713e-127,1.0362748765451249e-129
-1380.9884899701867,30.0,0.05596993325258738,-0.7945324503802823,1.7818949850306947e-128,9.214193516609948e-131
-1378.9884899700867,30.0,0.05603232222484822,-0.7941773417202792,1.5686336261455135e-129,8.11141728855439e-132
-1376.9884899699866,30.0,0.056096270406800444,-0.786881313634566,1.367155741780819e-130,7.069573503455304e-133
-1374.9884899698866,28.0,0.056162488896913526,-0.7942686735008907,1.1796998280638098e-131,6.100237443063558e-134
-1372.9884899697865,28.0,0.056226678551780034,-0.7993505119222332,1.0078179673286847e-132,5.2114349378019135e-135
-1370.9884899696865,28.0,0.05629295373564215,-0.7981155282266148,8.524123482830841e-134,4.407831212843868e-136
-1368.9884899695865,28.0,0.056362272681224575,-0.7907603597476414,7.137965150970103e-135,3.6910476076525635e-137
-1366.9884899694864,26.0,0.0564353552403221,-0.8055765085148299,5.917743940453439e-136,3.0600702233944833e-138
-1364.9884899693864,26.0,0.056508287745112754,-0.8197395538667316,4.857300482784851e-137,2.511714045591277e-139
-1362.9884899692863,26.0,0.05658440250514548,-0.8277974206599699,3.947215405272916e-138,2.0411083089333737e-140
-1360.9884899691863,26.0,0.056664649107559376,-0.8297350056946359,3.1757312216781227e-139,1.6421732076864384e-141
-1358.9884899690862,24.0,0.056749752641758786,-0.8373773633159969,2.5296107929211434e-140,1.308063806424543e-142
-1356.9884899689862,24.0,0.05683667536720889,-0.8411762040197278,1.9948981499080946e-141,1.0315634621343134e-143
-1354.9884899688861,24.0,0.05692823366684831,-0.8386975042482303,1.5575600691458789e-142,8.054155834894657e-145
-1352.988489968786,24.0,0.0570254187128661,-0.8300532195884673,1.203998475691963e-143,6.225885948345065e-146
-1350.988489968686,22.0,0.057129016234900784,-0.825397416799764,9.214337695345921e-145,4.764741545689265e-147
-1348.988489968586,22.0,0.05723678732133184,-0.8164964385921989,6.981670803979828e-146,3.610227673210929e-148
-1346.988489968486,22.0,0.057350824748353166,-0.80139464965635,5.237350813612119e-147,2.7082383819698173e-149
-1344.988489968386,22.0,0.05747217854432878,-0.780358668775202,3.889743988764559e-148,2.0113897925319947e-150
-1342.9884899682859,20.0,0.057601724394192554,-0.7779559714081201,2.860140887683506e-149,1.4789811883010831e-151
-1340.9884899681858,20.0,0.057737861386253544,-0.7745647774552052,2.0821446146857442e-150,1.076678680306809e-152
-1338.9884899680858,20.0,0.05788170579865137,-0.7654393440040572,1.500691451437874e-151,7.76008774839929e-154
-1336.9884899679857,20.0,0.058034432325194306,-0.7507121703493379,1.0708508418186115e-152,5.537378446447216e-155
-1334.9884899678857,18.0,0.05819708886729591,-0.7520979970519669,7.565255699387839e-154,3.9119998991183586e-156
-1332.9884899677857,18.0,0.05836869663996145,-0.7526834443657613,5.291457296003168e-155,2.7362168881916973e-157
-1330.9884899676856,18.0,0.05854903290270526,-0.7482054515644971,3.664241042845346e-156,1.8947820350759927e-158
-1328.9884899675856,18.0,0.05873938396950125,-0.7387220618741621,2.5121746530634573e-157,1.2990475642676783e-159
-1326.9884899674855,16.0,0.05894097556217639,-0.7395239189623493,1.7051896153706131e-158,8.817549423805051e-161
-1324.9884899673855,16.0,0.05915315812883671,-0.7383511646007594,1.1459154739856315e-159,5.925538272279013e-162
-1322.9884899672854,16.0,0.05937403397592647,-0.7320567301985921,7.624116854045568e-161,3.9424370502514864e-163
-1320.9884899671854,16.0,0.05960500757908101,-0.7206891509455897,5.022079221958858e-162,2.5969212661585505e-164
-1318.9884899670853,14.0,0.059847525455616585,-0.7273323703230046,3.275175900821745e-163,1.6935961324673135e-165
-1316.9884899669853,14.0,0.06010078224636565,-0.7346109478565375,2.114670736094047e-164,1.0934979642443353e-166
-1314.9884899668853,14.0,0.060360390773865624,-0.73770073217333,1.3517859745875218e-165,6.990096311805963e-168
-1312.9884899667852,14.0,0.06062786834284246,-0.7363070038000437,8.555200105014464e-167,4.4239009595488084e-169
-1310.9884899666852,12.0,0.0609049295928231,-0.7429437654460278,5.360551382759484e-168,2.7719454968681045e-170
-1308.9884899665851,12.0,0.061191367910990606,-0.7481898770439904,3.325414679369936e-169,1.7195746458741052e-171
-1306.988489966485,12.0,0.06148048401055992,-0.7492351474126333,2.0423925191250035e-170,1.0561228392351129e-172
-1304.988489966385,12.0,0.061773879085200566,-0.7458538185928809,1.2419086950688523e-171,6.421920002276575e-174
-1302.988489966285,10.0,0.06207348978195876,-0.7519374064257435,7.476480064256752e-173,3.8660939457075464e-175
-1300.988489966185,10.0,0.062381493161372044,-0.7580902095306616,4.456169960325033e-174,2.3042891249077524e-176
-1298.988489966085,10.0,0.0626907144965415,-0.7613667572066611,2.6295617202724177e-175,1.359748512566942e-177
-1296.9884899659849,10.0,0.06300279948851144,-0.7615388292858835,1.536250532058574e-176,7.943964044625702e-179
-1294.9884899658848,8.0,0.0633197802522081,-0.7698048105644955,8.885825471156551e-178,4.594867606333593e-180
-1292.9884899657848,8.0,0.06364603304635026,-0.7783640881014695,5.088509230579514e-179,2.631272277855811e-181
-1290.9884899656847,8.0,0.06397366951312085,-0.7846255183119378,2.884964075940128e-180,1.4918172792164978e-182
-1288.9884899655847,8.0,0.0643042569049398,-0.7881401726046751,1.6193745429251993e-181,8.373798983517278e-184
-1286.9884899654846,6.0,0.06463977539103336,-0.795674146698774,8.999352454834792e-183,4.653572502287398e-185
-1284.9884899653846,6.0,0.0649859985093368,-0.8028349887730215,4.951448536928391e-184,2.5603980812599616e-186
-1282.9884899652845,6.0,0.0653331764569527,-0.8077421618903291,2.6971825001508103e-185,1.3947152730538326e-187
-1280.9884899651845,6.0,0.06568263928558886,-0.8097087139886815,1.4546062594080298e-186,7.521780844131415e-189
-1278.9884899650845,4.0,0.06603615062594433,-0.8076339438776882,7.766719598294532e-188,4.0161770457365154e-190
-1276.9884899649844,4.0,0.06640165434619479,-0.8035458615724098,4.105696621825243e-189,2.1230590754111048e-191
-1274.9884899648844,4.0,0.06676838147023492,-0.7976249347618847,2.1487858711164023e-190,1.1111389284191036e-192
-1272.9884899647843,4.0,0.06713706643686995,-0.7898191862376363,1.1134134911025673e-191,5.757470253414848e-194
-1270.9884899646843,2.0,0.06750886972624405,-0.7848892896510999,5.711851055169485e-193,2.953602844304416e-195
-1268.9884899645842,2.0,0.06789421552720319,-0.7804773401143736,2.9010440548741177e-194,1.5001322494524257e-196
-1266.9884899644842,2.0,0.06828238676289042,-0.775705208023717,1.4587767372437371e-195,7.543346419071444e-198
-1264.9884899643841,2.0,0.06867319889191836,-0.7705827209433924,7.262403745928436e-197,3.755394906708538e-199
-1262.988489964284,0.0,0.06906687612101675,-0.7698022736768126,3.579554712581464e-198,1.8509906645508938e-200
-1260.988489964184,0.0,0.06947566987682119,-0.770004801547878,1.7467657810198623e-199,9.032540115843064e-202
-1258.988489964084,0.0,0.0698891509849533,-0.7702057483932466,8.43912464434657e-201,4.363878244062846e-203
-1256.988489963984,0.0,0.07030602827400091,-0.770405116176589,4.0366136308781667e-202,2.0873362043867157e-204
-1254.988489963884,3.0,0.07072539865860196,-0.7838388375095453,1.9115867808969607e-203,9.884830851956543e-206
-1252.9884899637839,3.0,0.07116289038569118,-0.7850671163382115,8.962474024528098e-205,4.6345026358648914e-207
-1250.9884899636838,3.0,0.07160660897348686,-0.7850688918156616,4.1602445136873743e-206,2.1512658348308884e-208
-1248.9884899635838,3.0,0.07205416621370708,-0.7839486954903019,1.9119074183010652e-207,9.886488870591144e-210
-1246.9884899634837,6.0,0.07250353317948101,-0.8009141343424145,8.699051765513979e-209,4.498286770646727e-211
-1244.9884899633837,6.0,0.0729748755936805,-0.8017738919424107,3.9186279094887756e-210,2.026325691521955e-212
-1242.9884899632837,6.0,0.07345401744296101,-0.8017672572975397,1.747644902596523e-211,9.037086060693927e-214
-1240.9884899631836,6.0,0.07393761802707578,-0.8009954102261645,7.716660917338064e-213,3.990291660941452e-215
-1238.9884899630836,9.0,0.07442266279261535,-0.8176096986280912,3.3733600293442075e-214,1.7443672254927585e-216
-1236.9884899629835,9.0,0.07493173112038677,-0.8195194567798145,1.460000577375267e-215,7.549674906384131e-218
-1234.9884899628835,9.0,0.0754499219746069,-0.8202820960622832,6.256052945492277e-217,3.2350100861264013e-219
-1232.9884899627834,9.0,0.0759731868132906,-0.8199579199221037,2.6540240788821404e-218,1.372398018177331e-220
-1230.9884899626834,12.0,0.07649777702018783,-0.8374081831318775,1.1147214473842948e-219,5.76423370602701e-222
-1228.9884899625833,12.0,0.07704642541526101,-0.8377974103873344,4.635375389413737e-221,2.3969563986091823e-223
-1226.9884899624833,12.0,0.07760531212226207,-0.8365230113349988,1.9083609419855782e-222,9.868150012607091e-225
-1224.9884899623833,12.0,0.07816999329750275,-0.8337247398881651,7.778452129019848e-224,4.022243946954085e-226
-1222.9884899622832,15.0,0.07873628881653016,-0.8449673992205191,3.1389391905501723e-225,1.6231480183498048e-227
-1220.9884899621832,15.0,0.07932597890439552,-0.8424098319340043,1.2540928062088631e-226,6.4849241404637695e-229
-1218.9884899620831,15.0,0.0799273985657592,-0.8380514722571206,4.9605919718763054e-228,2.565126158937062e-230
-1216.988489961983,15.0,0.08053581801729251,-0.8320424021084007,1.9426492318843052e-229,1.0045455039634288e-231
-1214.988489961883,18.0,0.08114672737501086,-0.8398474034446091,7.532035018860076e-231,3.894821458093058e-233
-1212.988489961783,18.0,0.08178156922953045,-0.8367516993402949,2.8912611826198112e-232,1.4950735182220945e-234
-1210.988489961683,18.0,0.08243035971568678,-0.8316266732029719,1.0988018341572429e-233,5.681913256047678e-236
-1208.988489961583,18.0,0.08308822529798578,-0.8246664131737054,4.134361816816335e-235,2.137881871145879e-237
-1206.9884899614829,21.0,0.08375045669070404,-0.8310997407008263,1.540120286990449e-236,7.963974578974636e-239
-1204.9884899613828,21.0,0.08443794316284159,-0.8275465912629203,5.680124531054173e-238,2.9371970327799594e-240
-1202.9884899612828,21.0,0.0851422059663751,-0.8222006343958846,2.0740447767647813e-239,1.0724902475044326e-241
-1200.9884899611827,21.0,0.08585844159007845,-0.8152709001229193,7.497827667877308e-241,3.877132808969867e-243
-1198.9884899610827,24.0,0.08658189205276907,-0.8199633795265302,2.6835508899361678e-242,1.3876663562817506e-244
-1196.9884899609826,24.0,0.08733122770082258,-0.8194876671417997,9.509140668373874e-244,4.917184403746061e-246
-1194.9884899608826,24.0,0.08809939254894371,-0.8169456328295721,3.3360285873024272e-245,1.725063106332159e-247
-1192.9884899607825,24.0,0.08888178057495975,-0.8125365617838327,1.1587114815429386e-246,5.991706531836126e-249
-1190.9884899606825,27.0,0.08967367786750546,-0.8124871579898173,3.984537443555929e-248,2.060407565402636e-250
-1188.9884899605825,27.0,0.09049254570842297,-0.8089989624694451,1.3565555093324394e-249,7.014759614914765e-252
-1186.9884899604824,27.0,0.09133240243141419,-0.8037623576626192,4.572505976940179e-251,2.3644465740867812e-253
-1184.9884899603824,27.0,0.09218875136885726,-0.7969702157601251,1.5259069438912697e-252,7.890477265758082e-255
-1182.9884899602823,30.0,0.09305684090757217,-0.7998022735302079,5.041489558521409e-254,2.606958367043415e-256
-1180.9884899601823,30.0,0.09395354530299306,-0.8022225102067736,1.6490990820260565e-255,8.527504817906064e-258
-1178.9884899600822,30.0,0.09487299476615696,-0.8025258225384547,5.340620063821139e-257,2.761638995571339e-259
-1176.9884899599822,30.0,0.09581067629393454,-0.8008306108420953,1.7123544677499052e-258,8.854598933958761e-261
-1174.9884899598821,33.0,0.09676169727238482,-0.8068633012421578,5.435665392246604e-260,2.8107870125038234e-262
-1172.988489959782,33.0,0.0977426201190851,-0.8105447167465532,1.7083183789100683e-261,8.833728285613652e-264
-1170.988489959682,33.0,0.09874749582096806,-0.8121512591511213,5.3154736187573114e-263,2.748635748296982e-265
-1168.988489959582,33.0,0.09977171885703275,-0.8117646172253619,1.6374655658331671e-264,8.467347810685995e-267
-1166.988489959482,36.0,0.10081019390624096,-0.817330132296507,4.994125366427766e-266,2.582466304639345e-268
-1164.988489959382,36.0,0.10188034955776447,-0.8207400421326374,1.508008395837336e-267,7.797923727631116e-270
-1162.9884899592819,36.0,0.10297612809530891,-0.8220719047581592,4.508220338693159e-269,2.3312044180605873e-271
-1160.9884899591818,36.0,0.10409266618688748,-0.8213927440868821,1.3343309622909716e-270,6.899836300701859e-273
-1158.9884899590818,39.0,0.10522450713008123,-0.8271851566349673,3.9100206273964414e-272,2.0218748589242387e-274
-1156.9884899589817,39.0,0.10639016332656236,-0.8305775674083459,1.1343617882460463e-273,5.865794068984787e-276
-1154.9884899588817,39.0,0.10758287165644109,-0.8317938386270809,3.258225841429748e-275,1.6848312429161372e-277
-1152.9884899587817,39.0,0.10879741908324084,-0.8309161756663968,9.265478106873893e-277,4.791186294246077e-279
-1150.9884899586816,42.0,0.11002791056015299,-0.8368242583730772,2.6086243256803296e-278,1.3489217687281743e-280
-1148.9884899585816,42.0,0.11129459087394018,-0.843078386174049,7.271303974611591e-280,3.7599972222275566e-282
-1146.9884899584815,42.0,0.11258990408979194,-0.8472110820165595,2.006643009651492e-281,1.0376367386971994e-283
-1144.9884899583815,42.0,0.11390723739264878,-0.8492732834802064,5.482580128400542e-283,2.8350466608744957e-285
-1142.9884899582814,45.0,0.11523936790577773,-0.8561528000145313,1.4830538271873678e-284,7.668883449390267e-287
-1140.9884899581814,45.0,0.11660616232694934,-0.8626782364257628,3.971786501179894e-286,2.053814042688956e-288
-1138.9884899580813,45.0,0.1179994622999358,-0.8668079712481211,1.053105624104586e-287,5.445617780759845e-290
-1136.9884899579813,45.0,0.1194112033636066,-0.868569565895195,2.764490004268752e-289,1.4295200383892068e-291
-1134.9884899578813,48.0,0.12083284472875773,-0.877596552130949,7.18480806707476e-291,3.7152701178171115e-293
-1132.9884899577812,48.0,0.12227551121681901,-0.8841082131609341,1.8487252514338056e-292,9.559773369843694e-295
-1130.9884899576812,48.0,0.12373678476580993,-0.8878784676740554,4.7096282798177814e-294,2.435352628863947e-296
-1128.9884899575811,48.0,0.12520825304602842,-0.8889026615616527,1.1878399926678644e-295,6.142330300694855e-298
-1126.988489957481,51.0,0.12668109328783142,-0.8950140466545538,2.9661035655468426e-297,1.5337745755418113e-299
-1124.988489957381,51.0,0.128153068152291,-0.8979724378162534,7.332831978692534e-299,3.791813403374887e-301
-1122.988489957281,51.0,0.12963336770012374,-0.8977019947386873,1.7947923592296882e-300,9.28088594389887e-303
-1120.988489957181,51.0,0.13111352223191272,-0.8942232792012852,4.349243722378393e-302,2.24899747996121e-304
-1118.988489957081,54.0,0.1325847579043046,-0.8983153686332164,1.0434468534489722e-303,5.39567219883665e-306
-1116.9884899569809,54.0,0.13403234141791065,-0.900939297547017,2.4784717745790175e-305,1.28161977828527e-307
-1114.9884899568808,54.0,0.1354770943577693,-0.9003083012426382,5.8284714873294934e-307,3.01390736499392e-309
-1112.9884899567808,54.0,0.13691079203460657,-0.8964544431199069,1.357008069691608e-308,7.0170998082273e-311
-1110.9884899566807,57.0,0.13832501344473588,-0.8997817800447134,3.1280035658693e-310,1.6174931979e-312
-1108.9884899565807,57.0,0.13969623046542234,-0.9017739630713596,7.138535175353e-312,3.691342368e-314
-1106.9884899564806,57.0,0.14105338645121004,-0.9003704962753393,1.61290215853e-313,8.3403302e-316
-1104.9884899563806,57.0,0.1423887762053351,-0.8955959718863042,3.607978904e-315,1.8656887e-317
-1102.9884899562805,60.0,0.14369460744041762,-0.89908958597539,7.990546e-317,4.1319e-319
-1100.9884899561805,60.0,0.1449438930098705,-0.9006386506019999,1.751957e-318,9.06e-321
-1098.9884899560805,60.0,0.14616883870476638,-0.8984458321453315,3.802e-320,2e-322
-1096.9884899559804,60.0,0.14736261196512757,-0.8925716737071174,8.9e-322,5e-324
-1094.9884899558804,63.0,0.14851839186616195,-0.8961011945079473,0.0,0.0
-1092.9884899557803,63.0,0.1496059037006617,-0.8981642431768078,0.0,0.0
-1090.9884899556803,63.0,0.15065869331149473,-0.8963531571691531,0.0,0.0
-1088.9884899555802,63.0,0.1516711283455332,-0.8907163934048081,0.0,0.0
-1086.9884899554802,66.0,0.1526376806190714,-0.894940261040127,0.0,0.0
-1084.9884899553801,66.0,0.15352711860744137,-0.8979902454158538,0.0,0.0
-1082.98848995528,66.0,0.15437378651942876,-0.897077327935068,0.0,0.0
-1080.98848995518,66.0,0.15517351442127214,-0.8922227850172058,0.0,0.0
-1078.98848995508,66.0,0.15592228540042416,-0.8925771178732059,0.0,0.0
-1076.98848995498,66.0,0.15659658373139573,-0.8923476776793551,0.0,0.0
-1074.98848995488,66.0,0.1572306767303664,-0.8881833266352077,0.0,0.0
-1072.9884899547799,66.0,0.15782199676406505,-0.8801413318765643,0.0,0.0
-1070.9884899546798,63.0,0.1583680236078647,-0.8789883551419451,0.0,0.0
-1068.9884899545798,63.0,0.15885042203399727,-0.8772337794152212,0.0,0.0
-1066.9884899544797,63.0,0.15930072295396902,-0.8717034166346302,0.0,0.0
-1064.9884899543797,63.0,0.15971779655396176,-0.8624575767317426,0.0,0.0
-1062.9884899542797,60.0,0.16010039098616413,-0.859314431244567,0.0,0.0
-1060.9884899541796,60.0,0.16042828287777308,-0.8553975340046113,0.0,0.0
-1058.9884899540796,60.0,0.16072886814181353,-0.8477695956543347,0.0,0.0
-1056.9884899539795,60.0,0.16100221194349798,-0.8364918671087949,0.0,0.0
-1054.9884899538795,57.0,0.1612481529999545,-0.8311264098554991,0.0,0.0
-1052.9884899537794,57.0,0.1614460597640471,-0.8250200286981758,0.0,0.0
-1050.9884899536794,57.0,0.1616200717134754,-0.815310844609928,0.0,0.0
-1048.9884899535793,57.0,0.16177128485010217,-0.8020902148945717,0.0,0.0
-1046.9884899534793,54.0,0.1619004908395179,-0.7983034718379353,0.0,0.0
-1044.9884899533793,54.0,0.16198795337713645,-0.7951361665072909,0.0,0.0
-1042.9884899532792,54.0,0.16205546099953463,-0.7886161462569841,0.0,0.0
-1040.9884899531792,54.0,0.16210497279162037,-0.7787285211345271,0.0,0.0
-1038.9884899530791,51.0,0.16213807500456237,-0.7748862860996286,0.0,0.0
-1036.988489952979,51.0,0.16213608521036393,-0.7707168059381813,0.0,0.0
-1034.988489952879,51.0,0.16211750727612428,-0.7632809454866525,0.0,0.0
-1032.988489952779,51.0,0.16208504442456406,-0.7525853428217459,0.0,0.0
-1030.988489952679,48.0,0.1620409787039112,-0.7482576183551097,0.0,0.0
-1028.988489952579,48.0,0.16197116262555328,-0.7438381243040357,0.0,0.0
-1026.9884899524789,48.0,0.1618925556313172,-0.7362914406202552,0.0,0.0
-1024.9884899523788,48.0,0.16180849270582365,-0.7256115955230252,0.0,0.0
-1022.9884899522788,45.0,0.16172177456259845,-0.7222402095402864,0.0,0.0
-1020.9884899521787,45.0,0.16162137781715333,-0.7191716239985803,0.0,0.0
-1018.9884899520787,45.0,0.16152139676961835,-0.7130209939951326,0.0,0.0
-1016.9884899519786,45.0,0.16142551985158485,-0.7037161806400132,0.0,0.0
-1014.9884899518786,42.0,0.16133679351573377,-0.7021174804504986,0.0,0.0
-1012.9884899517785,42.0,0.16124342907236822,-0.7011790086455921,0.0,0.0
-1010.9884899516785,42.0,0.16115468191779211,-0.6973278944223891,0.0,0.0
-1008.9884899515785,42.0,0.16107414866332212,-0.6904384346980199,0.0,0.0
-1006.9884899514784,39.0,0.1610047703830891,-0.6914526750067771,0.0,0.0
-1004.9884899513784,39.0,0.16093574664346422,-0.693244936219586,0.0,0.0
-1002.9884899512783,39.0,0.1608743433234862,-0.6920871801051651,0.0,0.0
-1000.9884899511783,39.0,0.16082401327305604,-0.6877717079533123,0.0,0.0
-998.9884899510782,36.0,0.16078758913731986,-0.6887390577185573,0.0,0.0
-996.9884899509782,36.0,0.16075641643174476,-0.6896067336849321,0.0,0.0
-994.9884899508781,36.0,0.1607364771665039,-0.6874212437603635,0.0,0.0
-992.9884899507781,36.0,0.16073128528112215,-0.6819997724157365,0.0,0.0
-990.9884899506781,33.0,0.16074379392705415,-0.6821039725157699,0.0,0.0
-988.988489950578,33.0,0.1607673284904996,-0.682116731256157,0.0,0.0
-986.988489950478,33.0,0.1608059496250408,-0.6789162866994839,0.0,0.0
-984.9884899503779,33.0,0.16086328367076816,-0.6722832078823755,0.0,0.0
-982.9884899502779,30.0,0.1609424888780636,-0.6727452620384355,0.0,0.0
-980.9884899501778,30.0,0.1610386827798714,-0.6735155732704677,0.0,0.0
-978.9884899500778,30.0,0.1611534007978083,-0.6708151111072884,0.0,0.0
-976.9884899499777,30.0,0.16129057087685936,-0.6644128693339473,0.0,0.0
-974.9884899498777,27.0,0.16145378606284527,-0.6643599968190393,0.0,0.0
-972.9884899497777,27.0,0.16163990615106655,-0.6644834539610798,0.0,0.0
-970.9884899496776,27.0,0.16184677908744663,-0.6611125417221198,0.0,0.0
-968.9884899495776,27.0,0.16207861354409073,-0.6539465665981257,0.0,0.0
-966.9884899494775,24.0,0.16233946450274084,-0.6525469036813027,0.0,0.0
-964.9884899493775,24.0,0.16262731106538464,-0.6508045018358752,0.0,0.0
-962.9884899492774,24.0,0.16293550199882262,-0.6450442448510676,0.0,0.0
-960.9884899491774,24.0,0.1632685645586384,-0.6349237175184888,0.0,0.0
-958.9884899490773,21.0,0.16363114451579533,-0.6340159192045718,0.0,0.0
-956.9884899489773,21.0,0.16402153228670233,-0.6344584127215276,0.0,0.0
-954.9884899488773,21.0,0.16442656202779626,-0.6312132899540948,0.0,0.0
-952.9884899487772,21.0,0.16485108329412776,-0.623768086909705,0.0,0.0
-950.9884899486772,18.0,0.1653004591084463,-0.6244413153504438,0.0,0.0
-948.9884899485771,18.0,0.16577509298769666,-0.6263417265148477,0.0,0.0
-946.9884899484771,18.0,0.16625542107223734,-0.6249469473276348,0.0,0.0
-944.988489948377,18.0,0.16674650874670036,-0.6199486008459993,0.0,0.0
-942.988489948277,15.0,0.1672542804749455,-0.6172108298379404,0.0,0.0
-940.988489948177,15.0,0.16778531057902885,-0.6138624001041744,0.0,0.0
-938.9884899480769,15.0,0.1683183955158574,-0.607747291787963,0.0,0.0
-936.9884899479769,15.0,0.16885866825761842,-0.5987280480416267,0.0,0.0
-934.9884899478768,12.0,0.169412248835948,-0.5981457447949787,0.0,0.0
-932.9884899477768,12.0,0.16999147858210154,-0.5995526482528141,0.0,0.0
-930.9884899476767,12.0,0.17057309537886114,-0.5986720317092986,0.0,0.0
-928.9884899475767,12.0,0.1711619695327879,-0.5950189160810783,0.0,0.0
-926.9884899474766,9.0,0.1717640281182654,-0.594525925737061,0.0,0.0
-924.9884899473766,9.0,0.17239565684821884,-0.5943176683064824,0.0,0.0
-922.9884899472765,9.0,0.17302878653720036,-0.5918837435691358,0.0,0.0
-920.9884899471765,9.0,0.17366762390538204,-0.5866401714853796,0.0,0.0
-918.9884899470765,6.0,0.1743174876336792,-0.5837839337010268,0.0,0.0
-916.9884899469764,6.0,0.17500015610519737,-0.5814333814033237,0.0,0.0
-914.9884899468764,6.0,0.1756850932170949,-0.5777499890050166,0.0,0.0
-912.9884899467763,6.0,0.17637492321932885,-0.5726841979313737,0.0,0.0
-910.9884899466763,3.0,0.17707337146963528,-0.5678361771711418,0.0,0.0
-908.9884899465762,3.0,0.17780766391927402,-0.563009181171268,0.0,0.0
-906.9884899464762,3.0,0.17854803458571636,-0.5577540249028972,0.0,0.0
-904.9884899463761,3.0,0.1792947044764854,-0.5520830294660997,0.0,0.0
-902.9884899462761,0.0,0.18004896630055736,-0.5458998320951044,0.0,0.0
-900.9884899461761,0.0,0.18084143574768516,-0.5395984201699799,0.0,0.0
-898.988489946076,0.0,0.18164441177727625,-0.5332738939872496,0.0,0.0
-896.988489945976,0.0,0.18245523812767886,-0.5269319541540494,0.0,0.0
-894.9884899458759,4.0,0.18327229316927832,-0.4985518146144393,0.0,0.0
-892.9884899457759,4.0,0.1841333012948,-0.49623292616634096,0.0,0.0
-890.9884899456758,4.0,0.1850083308547703,-0.4932846694818336,0.0,0.0
-888.9884899455758,4.0,0.18589187001448104,-0.489786010321404,0.0,0.0
-886.9884899454757,8.0,0.1867793847614674,-0.4843747142907708,0.0,0.0
-884.9884899453757,8.0,0.18771884968266858,-0.4832731071994641,0.0,0.0
-882.9884899452757,8.0,0.18867580867499656,-0.481734852890965,0.0,0.0
-880.9884899451756,8.0,0.18964228769444064,-0.4798166391691,0.0,0.0
-878.9884899450756,12.0,0.19061122416741638,-0.48156569448212116,0.0,0.0
-876.9884899449755,12.0,0.19163586574867403,-0.480318001026288,0.0,0.0
-874.9884899448755,12.0,0.1926810500406026,-0.47841633301896125,0.0,0.0
-872.9884899447754,12.0,0.19373701003571125,-0.4759013190011939,0.0,0.0
-870.9884899446754,16.0,0.19479483772475467,-0.48584555673799107,0.0,0.0
-868.9884899445753,16.0,0.19590748577787898,-0.4839695531770819,0.0,0.0
-866.9884899444753,16.0,0.19704316077736628,-0.4809065496074958,0.0,0.0
-864.9884899443753,16.0,0.19819114555857562,-0.47674607560768767,0.0,0.0
-862.9884899442752,20.0,0.1993414988837684,-0.4752390734587516,0.0,0.0
-860.9884899441752,20.0,0.20054400923124577,-0.47596930809490345,0.0,0.0
-858.9884899440751,20.0,0.2017725071857291,-0.4754100340118077,0.0,0.0
-856.9884899439751,20.0,0.20301563559402255,-0.47362238144151725,0.0,0.0
-854.988489943875,24.0,0.20426271223830317,-0.4741910852466782,0.0,0.0
-852.988489943775,24.0,0.20556207124335718,-0.4718476560223867,0.0,0.0
-850.988489943675,24.0,0.20689239932851264,-0.4681500432621789,0.0,0.0
-848.9884899435749,24.0,0.20824208005054148,-0.4632074688474996,0.0,0.0
-846.9884899434749,28.0,0.209600037301217,-0.4663803173036914,0.0,0.0
-844.9884899433748,28.0,0.21101267443133864,-0.4652735479725101,0.0,0.0
-842.9884899432748,28.0,0.21246324050517498,-0.4625806248629597,0.0,0.0
-840.9884899431747,28.0,0.2139403976439126,-0.45850308856916344,0.0,0.0
-838.9884899430747,32.0,0.2154330431408986,-0.47698115460222024,0.0,0.0
-836.9884899429746,32.0,0.21698119161905344,-0.47873671461323075,0.0,0.0
-834.9884899428746,32.0,0.21857193852079354,-0.4787353364841666,0.0,0.0
-832.9884899427745,32.0,0.22019454147304993,-0.4771695629545921,0.0,0.0
-830.9884899426745,36.0,0.22183810482453964,-0.5000535392738159,0.0,0.0
-828.9884899425745,36.0,0.22353843419617075,-0.5026396009849889,0.0,0.0
-826.9884899424744,36.0,0.22528546754613032,-0.5036302615714479,0.0,0.0
-824.9884899423744,36.0,0.2270688554963653,-0.5031824179438773,0.0,0.0
-822.9884899422743,40.0,0.22887773975858908,-0.5265413534500356,0.0,0.0
-820.9884899421743,40.0,0.23074534613950642,-0.5323732023449357,0.0,0.0
-818.9884899420742,40.0,0.23266244712118117,-0.5363583978774457,0.0,0.0
-816.9884899419742,40.0,0.23461880026346774,-0.5385812657700375,0.0,0.0
-814.9884899418741,44.0,0.23660336249799765,-0.5580492352011811,0.0,0.0
-812.9884899417741,44.0,0.2386474605123083,-0.5645691786434455,0.0,0.0
-810.9884899416741,44.0,0.24074238593924718,-0.5692609511896564,0.0,0.0
-808.988489941574,44.0,0.24287784280299213,-0.5721877607307868,0.0,0.0
-806.988489941474,48.0,0.24504248294880576,-0.5901279660343226,0.0,0.0
-804.9884899413739,48.0,0.2472684743698606,-0.5961986598701241,0.0,0.0
-802.9884899412739,48.0,0.24954758966304863,-0.6004636879396329,0.0,0.0
-800.9884899411738,48.0,0.25186909226054965,-0.6029730048821307,0.0,0.0
-798.9884899410738,52.0,0.2542209635628882,-0.6180269530938646,0.0,0.0
-796.9884899409737,52.0,0.2566367329440238,-0.622281206891663,0.0,0.0
-794.9884899408737,52.0,0.25910737248218557,-0.6245988468019967,0.0,0.0
-792.9884899407737,52.0,0.2616215032353826,-0.6250436669447326,0.0,0.0
-790.9884899406736,56.0,0.264166273625474,-0.6375548269079225,0.0,0.0
-788.9884899405736,56.0,0.26677805715839126,-0.6430372447540416,0.0,0.0
-786.9884899404735,56.0,0.26944687399373596,-0.646616573253468,0.0,0.0
-784.9884899403735,56.0,0.2721586242601272,-0.648331003368928,0.0,0.0
-782.9884899402734,60.0,0.27489786164533236,-0.6597253838311954,0.0,0.0
-780.9884899401734,60.0,0.2776997226841707,-0.6639857861183572,0.0,0.0
-778.9884899400734,60.0,0.28055340914636834,-0.6661991243228695,0.0,0.0
-776.9884899399733,60.0,0.2834420001475091,-0.666401764683102,0.0,0.0
-774.9884899398733,64.0,0.2863474852246552,-0.6766076146838025,0.0,0.0
-772.9884899397732,64.0,0.28928700407830554,-0.6815240245322649,0.0,0.0
-770.9884899396732,64.0,0.2922607386276219,-0.6841612763441177,0.0,0.0
-768.9884899395731,64.0,0.29525116468530965,-0.6845200789523751,0.0,0.0
-766.9884899394731,68.0,0.2982398168878458,-0.6920118590977432,0.0,0.0
-764.988489939373,68.0,0.3012173519758644,-0.6956258070278545,0.0,0.0
-762.988489939273,68.0,0.3042069435408453,-0.6966690129041686,0.0,0.0
-760.988489939173,68.0,0.30719110351480383,-0.6951374733734523,0.0,0.0
-758.9884899390729,72.0,0.3101516334940737,-0.7005442786143725,0.0,0.0
-756.9884899389729,72.0,0.3130546777749888,-0.7030130643561492,0.0,0.0
-754.9884899388728,72.0,0.31594666016893863,-0.7028868042240101,0.0,0.0
-752.9884899387728,72.0,0.3188107677072703,-0.7001789110956056,0.0,0.0
-750.9884899386727,76.0,0.3216296979351549,-0.7042391495295802,0.0,0.0
-748.9884899385727,76.0,0.3243518338557438,-0.7059998754112328,0.0,0.0
-746.9884899384726,76.0,0.32703930394501873,-0.7050482232732675,0.0,0.0
-744.9884899383726,76.0,0.32967653284007303,-0.7013925628924713,0.0,0.0
-742.9884899382726,80.0,0.3322476856559785,-0.7017482529825255,0.0,0.0
-740.9884899381725,80.0,0.3346938757791373,-0.7017306451285674,0.0,0.0
-738.9884899380725,80.0,0.33708351645878326,-0.6987701861102966,0.0,0.0
-736.9884899379724,80.0,0.3394030108633937,-0.692920865786036,0.0,0.0
-734.9884899378724,84.0,0.34163871623036723,-0.6948877606295021,0.0,0.0
-732.9884899377723,84.0,0.3437245802417878,-0.6957012554473425,0.0,0.0
-730.9884899376723,84.0,0.34573129113383155,-0.6935389360305404,0.0,0.0
-728.9884899375722,84.0,0.3476479181772986,-0.6884425736856687,0.0,0.0
-726.9884899374722,88.0,0.3494636935407472,-0.6903771115220623,0.0,0.0
-724.9884899373722,88.0,0.35110969214685417,-0.6919121791858962,0.0,0.0
-722.9884899372721,88.0,0.3526575210670937,-0.6904638296136754,0.0,0.0
-720.9884899371721,88.0,0.3540994819949382,-0.686057434818959,0.0,0.0
-718.988489937072,88.0,0.3554281801836117,-0.6869327942385683,0.0,0.0
-716.988489936972,88.0,0.35658957406572217,-0.6870247352865324,0.0,0.0
-714.9884899368719,88.0,0.35765652454809127,-0.6841828617090265,0.0,0.0
-712.9884899367719,88.0,0.3586249039273921,-0.6784446768363223,0.0,0.0
-710.9884899366718,84.0,0.35949070255610255,-0.6757384879089898,0.0,0.0
-708.9884899365718,84.0,0.36021034820190656,-0.6729533983630647,0.0,0.0
-706.9884899364718,84.0,0.3608532787573335,-0.6673613777743375,0.0,0.0
-704.9884899363717,84.0,0.36141861108151535,-0.659016405468313,0.0,0.0
-702.9884899362717,80.0,0.36190522707329137,-0.6559759330833115,0.0,0.0
-700.9884899361716,80.0,0.36226573863829087,-0.6539776409950981,0.0,0.0
-698.9884899360716,80.0,0.36256118232787354,-0.6492442200887749,0.0,0.0
-696.9884899359715,80.0,0.36279337892252467,-0.641796784718181,0.0,0.0
-694.9884899358715,76.0,0.3629636833775747,-0.6396244489247259,0.0,0.0
-692.9884899357714,76.0,0.3630238945506531,-0.6386069555531677,0.0,0.0
-690.9884899356714,76.0,0.36302796610417526,-0.6349641335719947,0.0,0.0
-688.9884899355714,76.0,0.3629800151226327,-0.6287073580298761,0.0,0.0
-686.9884899354713,72.0,0.3628835145721339,-0.6264265209771878,0.0,0.0
-684.9884899353713,72.0,0.362692389120204,-0.6248428335684042,0.0,0.0
-682.9884899352712,72.0,0.3624552778766737,-0.6207991959037773,0.0,0.0
-680.9884899351712,72.0,0.3621781757177687,-0.614275528754564,0.0,0.0
-678.9884899350711,68.0,0.36186627362529455,-0.611793055756574,0.0,0.0
-676.9884899349711,68.0,0.36147681558646066,-0.6100714102378969,0.0,0.0
-674.988489934871,68.0,0.36105033860283975,-0.6059406408906669,8.9e-322,7.26e-322
-672.988489934771,68.0,0.3605944183980387,-0.5993865867093686,3.9797e-320,3.2574e-320
-670.988489934671,64.0,0.36011570902842666,-0.5973298127297497,1.83266e-318,1.500117e-318
-668.9884899345709,64.0,0.3595822839656886,-0.5963244030372021,8.357212e-317,6.84076e-317
-666.9884899344709,64.0,0.3590293344157853,-0.5929731218489658,3.77316686e-315,3.08850895e-315
-664.9884899343708,64.0,0.3584657229740779,-0.5872490608472152,1.68658629695e-313,1.3805474139e-313
-662.9884899342708,60.0,0.35789914685870916,-0.5845484176014238,7.463943549765e-312,6.10957513854e-312
-660.9884899341707,60.0,0.35730581755758944,-0.5823359173885513,3.27028314297676e-310,2.6768739593932e-310
-658.9884899340707,60.0,0.3567128191139637,-0.5779366372064816,1.418598836723379e-308,1.1611867393049364e-308
-656.9884899339706,60.0,0.3561296712589,-0.5713055573405106,6.09243747226837e-307,4.9869320169222454e-307
-654.9884899338706,56.0,0.3555645058775794,-0.5675771944425962,2.5904773729253965e-305,2.1204208569777772e-305
-652.9884899337706,56.0,0.354993110756378,-0.5644135075937695,1.0905002533699241e-303,8.92622705931086e-304
-650.9884899336705,56.0,0.35443142138087036,-0.5592353337742528,4.5449487180896655e-302,3.720240696030134e-302
-648.9884899335705,56.0,0.35388853542591325,-0.551973943434526,1.8753807619498543e-300,1.5350813632838816e-300
-646.9884899334704,52.0,0.35337212347378644,-0.5486220589426503,7.661383158505716e-299,6.271176350353368e-299
-644.9884899333704,52.0,0.3528599372630091,-0.5463197213992,3.098718818127506e-297,2.536435872446621e-297
-642.9884899332703,52.0,0.3523638562108307,-0.5419794538452685,1.2408361039998234e-295,1.0156779460401812e-295
-640.9884899331703,52.0,0.3518924520464731,-0.5355050015635042,4.91930718162419e-294,4.026664307479232e-294
-638.9884899330702,48.0,0.3514529383043853,-0.5351243403338848,1.9308597839523135e-292,1.5804912611478742e-292
-636.9884899329702,48.0,0.35102726242489546,-0.5370544474717112,7.503343170506312e-291,6.141805346381799e-291
-634.9884899328702,48.0,0.35062486455003716,-0.5370498358002496,2.886796463537487e-289,2.362964936645711e-289
-632.9884899327701,48.0,0.3502543581807371,-0.5349699364653211,1.0996001907773343e-287,9.000689727852566e-288
-630.9884899326701,44.0,0.34992313736212405,-0.5356469870913324,4.1467775637252234e-286,3.3943107037166836e-286
-628.98848993257,44.0,0.34961704802434174,-0.5368809196221812,1.5482602722784276e-284,1.2673153353277291e-284
-626.98848993247,44.0,0.3493416323673793,-0.5360313868954222,5.723141734456577e-283,4.68462773441342e-283
-624.9884899323699,44.0,0.3491056634317366,-0.5329175502643051,2.0945095213592894e-281,1.7144419463531725e-281
-622.9884899322699,40.0,0.3489169049533777,-0.5337755551238595,7.589051286555413e-280,6.211947703930291e-280
-620.9884899321698,40.0,0.3487650099162428,-0.5357756161633209,2.7223875694405737e-278,2.2283844108834905e-278
-618.9884899320698,40.0,0.3486504271585504,-0.535503262901896,9.66873684381496e-277,7.914249748693413e-277
-616.9884899319698,40.0,0.34858250816190106,-0.5327580929531367,3.399748996141257e-275,2.7828302444866653e-275
-614.9884899318697,36.0,0.34856988622904944,-0.5308593599802196,1.1835355322261097e-273,9.68770728073024e-274
-612.9884899317697,36.0,0.34860591092967,-0.5285206633740042,4.07918202963517e-272,3.338970915649923e-272
-610.9884899316696,36.0,0.34868323357379116,-0.5238232118827214,1.3919454458445704e-270,1.1393616701439728e-270
-608.9884899315696,36.0,0.34881176000274194,-0.5165535907672592,4.702498793224143e-269,3.8491773396782845e-269
-606.9884899314695,32.0,0.34900106794159985,-0.5112074518604431,1.5728689051267765e-267,1.2874536063344356e-267
-604.9884899313695,32.0,0.3492470910186431,-0.5057027388101183,5.2085126384894185e-266,4.2633659673306245e-266
-602.9884899312694,32.0,0.3495330666511575,-0.49741154877296123,1.7076241404100015e-264,1.397754839055709e-264
-600.9884899311694,32.0,0.34986956283144716,-0.48613274429247066,5.542787428072092e-263,4.536978962368833e-263
-598.9884899310694,28.0,0.3502673935309199,-0.47892478068541755,1.7812363172759665e-261,1.4580079883514082e-261
-596.9884899309693,28.0,0.3507239819580305,-0.47283981401278297,5.667248372455732e-260,4.638851018279484e-260
-594.9884899308693,28.0,0.35120908729575007,-0.46391762604778297,1.785173146376689e-258,1.4612291804754824e-258
-592.9884899307692,28.0,0.3517339725851447,-0.4518850347806983,5.567315644498608e-257,4.557048436726369e-257
-590.9884899306692,24.0,0.35231095752468367,-0.4429987340330006,1.7189717986842992e-255,1.4070397173248406e-255
-588.9884899305691,24.0,0.3529424991921626,-0.4350018916196144,5.254713876803075e-254,4.301168725927684e-254
-586.9884899304691,24.0,0.3535846705768368,-0.4245663031390394,1.590328407912732e-252,1.3017393099324467e-252
-584.988489930369,24.0,0.35424917134453815,-0.4116876509631903,4.765209396013308e-251,3.900488353994057e-251
-582.988489930269,20.0,0.35494945974883335,-0.40118239094418773,1.4136262427307205e-249,1.1571013060152707e-249
-580.988489930169,20.0,0.3557007201488652,-0.3914136157998729,4.151878660808238e-248,3.3984526408783536e-248
-578.9884899300689,20.0,0.3564551875747552,-0.3800157804635571,1.2072915440437955e-246,9.882083257323736e-247
-576.9884899299689,20.0,0.3572246341867913,-0.36711142136290187,3.475658714355601e-245,2.844940911691854e-245
-574.9884899298688,16.0,0.35802285181762017,-0.35445496727241316,9.906484397955213e-244,8.108778861931992e-244
-572.9884899297688,16.0,0.358877025852596,-0.3408174678421887,2.795499837315908e-242,2.2882060781979757e-242
-570.9884899296687,16.0,0.3597349229768691,-0.32525113193379246,7.810104915564076e-241,6.392817308703328e-241
-568.9884899295687,16.0,0.36060769043844876,-0.3078966585172226,2.160288522979853e-239,1.7682633320703927e-239
-566.9884899294686,12.0,0.361508641656148,-0.29048213027053066,5.915945322607461e-238,4.84238244670095e-238
-564.9884899293686,12.0,0.36247386796346137,-0.2719945390583773,1.6039619301381052e-236,1.3128912040628966e-236
-562.9884899292686,12.0,0.36344124073490736,-0.2516643700700467,4.3054790630496435e-235,3.524162345021754e-235
-560.9884899291685,12.0,0.364420466333408,-0.22978640011358764,1.1442118398219912e-233,9.365707696582872e-234
-558.9884899290685,8.0,0.365423534107363,-0.2123707959992036,3.01057140817038e-232,2.4642389999134876e-232
-556.9884899289684,8.0,0.36649741825532584,-0.1976957874941403,7.842399783144531e-231,6.419224992793733e-231
-554.9884899288684,8.0,0.367575125288943,-0.18295621104820822,2.0225840675937472e-229,1.655540933071971e-229
-552.9884899287683,8.0,0.36866302991231203,-0.1682838007508028,5.16442239387989e-228,4.2272196255270526e-228
-550.9884899286683,4.0,0.36976977832347746,-0.1550195331062506,1.305553006596275e-226,1.0686297867998832e-226
-548.9884899285682,4.0,0.3709524056711355,-0.14262634132080126,3.2675696476503173e-225,2.6745906575502682e-225
-546.9884899284682,4.0,0.3721463317232587,-0.13043502533667078,8.096788563161036e-224,6.627427206104534e-224
-544.9884899283682,4.0,0.37335292087115785,-0.11845740236604269,1.986361804578809e-222,1.6258864634108894e-222
-542.9884899282681,0.0,0.3745757672181282,-0.1067564324163559,4.824602484929394e-221,3.9490540819940813e-221
-540.9884899281681,0.0,0.3758772586618468,-0.09532332493430898,1.1601719240546324e-219,9.496281410448146e-220
-538.988489928068,0.0,0.3771987644902094,-0.08412613280988057,2.762108999994545e-218,2.2608497970955912e-218
-536.988489927968,0.0,0.37853567181496145,-0.07315937684963547,6.510538818981282e-217,5.329021793488075e-217
-534.9884899278679,5.0,0.37988554067377545,-0.09841825221687106,1.519325135371827e-215,1.2436006659904388e-215
-532.9884899277679,5.0,0.38132346548365936,-0.09166966302580823,3.5102835224678587e-214,2.8732411082995626e-214
-530.9884899276678,5.0,0.3827881556095165,-0.08553037484060258,8.029552895091109e-213,6.572353057623348e-213
-528.9884899275678,5.0,0.384269060923526,-0.07995931669021414,1.8184369159540282e-211,1.488426521031917e-211
-526.9884899274678,10.0,0.3857577077708938,-0.09552238093962712,4.0772077078387955e-210,3.3372721816588896e-210
-524.9884899273677,10.0,0.38734860532353743,-0.09253738899196193,9.050762489476548e-209,7.40821510566867e-209
-522.9884899272677,10.0,0.38897279654829603,-0.08983488107675855,1.9891395298127857e-207,1.628145751939657e-207
-520.9884899271676,10.0,0.3906146319047231,-0.0873599119130817,4.32815783739907e-206,3.542670256842635e-206
-518.9884899270676,15.0,0.3922604237615564,-0.10001574575142742,9.323923641484965e-205,7.631781892393534e-205
-516.9884899269675,15.0,0.3940144812167614,-0.09398924559081778,1.9886214383753307e-203,1.6277171975216544e-203
-514.9884899268675,15.0,0.39580779646805186,-0.08825383745535892,4.19916878386617e-202,3.4370808733313925e-202
-512.9884899267674,15.0,0.39762105064279224,-0.08281031847416764,8.778743623887843e-201,7.185522642533358e-201
-510.98848992666746,20.0,0.39943679532726284,-0.08956798424845072,1.8170180288776993e-199,1.4872528188628205e-199
-508.98848992656747,20.0,0.40135799610829315,-0.08658490860085369,3.723436557635693e-198,3.0476780137587103e-198
-506.9884899264675,20.0,0.4033232441803745,-0.08356255050020933,7.554166412654803e-197,6.183170494019454e-197
-504.9884899263675,20.0,0.4053113374656989,-0.08050747954601992,1.5173543734336635e-195,1.2419703741364203e-195
-502.9884899262675,25.0,0.4073027829341016,-0.09180390866246946,3.017486904586691e-194,2.4698418310990596e-194
-500.9884899261675,25.0,0.40939327876371767,-0.08949503045341214,5.941029165510162e-193,4.862783733258009e-193
-498.98848992606753,25.0,0.41153299287176603,-0.08709301532020822,1.1580729277339603e-191,9.478916410594485e-192
-496.98848992596754,25.0,0.4136995136318511,-0.08460015163903403,2.2349514125212201e-190,1.8293229124409656e-190
-494.98848992586755,30.0,0.41587194174369074,-0.09298699131568378,4.270298490198444e-189,3.4952642464553866e-189
-492.98848992576757,30.0,0.41814242767133086,-0.08807813833040269,8.078046857148895e-188,6.611920654541247e-188
-490.9884899256676,30.0,0.4204716952694164,-0.08291280796034046,1.5129079674761866e-186,1.2383210302247836e-186
-488.9884899255676,30.0,0.4228369239675903,-0.0775444624923279,2.8052829879482255e-185,2.2961321487743626e-185
-486.9884899254676,35.0,0.4252165348600768,-0.06769734295269607,5.149901131072469e-184,4.2152034856916406e-184
-484.9884899253676,35.0,0.4276982749104131,-0.05840552497504713,9.360071581550587e-183,7.661225831812602e-183
-482.98848992526763,35.0,0.43025300608899153,-0.04892657502130854,1.6842925745957878e-181,1.378592965726752e-181
-480.98848992516764,35.0,0.43285858827846646,-0.03941088370171793,3.00064075749459e-180,2.4560202688558817e-180
-478.98848992506765,40.0,0.43549348921490244,-0.030823735280356576,5.292594253017812e-179,4.331975087146274e-179
-476.98848992496767,40.0,0.43823165502790984,-0.026295741070584813,9.242327342302714e-178,7.564811150354128e-178
-474.9884899248677,40.0,0.4410519418775638,-0.021662709288126886,1.5979098051822106e-176,1.3078814770744471e-176
-472.9884899247677,40.0,0.44393352459901114,-0.01700785099512364,2.735151391704133e-175,2.2387049921420212e-175
-470.9884899246677,45.0,0.4468553874628146,-0.013412867356190877,4.635202295137606e-174,3.7938796405390303e-174
-468.9884899245677,45.0,0.44988165725518814,-0.008446740682450868,7.777038598952369e-173,6.365440393077491e-173
-466.98848992446773,45.0,0.45299696094059777,-0.0035010743641031017,1.291867813214527e-171,1.0573812654374616e-171
-464.98848992436774,45.0,0.45618139602782615,0.0013470283616039969,2.1246147269586656e-170,1.738973803657872e-170
-462.98848992426775,50.0,0.4594141595156598,0.005174018573608746,3.459398618488478e-169,2.8314752194232614e-169
-460.98848992416777,50.0,0.46275298256127934,0.006906123382664539,5.576726725411096e-168,4.564474784661806e-168
-458.9884899240678,50.0,0.4661847122082333,0.008724499327760954,8.900542542376396e-167,7.284960586280443e-167
-456.9884899239678,50.0,0.4696898205427725,0.010593348698425334,1.4064101255628637e-165,1.1511236414698247e-165
-454.9884899238678,55.0,0.47324730872068305,0.0071344798700913176,2.2002189576281177e-164,1.8008400451030277e-164
-452.9884899237678,55.0,0.47690990694044305,0.008236317176196516,3.407832661826124e-163,2.7892454372997496e-163
-450.9884899236678,55.0,0.4806662476651777,0.009418867500470884,5.225755521649005e-162,4.2771726029095847e-162
-448.98848992356784,55.0,0.48449688586060746,0.010662083521826522,7.933748181131677e-161,6.4935965511480985e-161
-446.98848992346785,60.0,0.4883804212643445,0.006012072870654153,1.1925216179581698e-159,9.760506109789133e-160
-444.98848992336787,60.0,0.49236988851743346,0.003579178722075825,1.7746497982608441e-158,1.4525059206120479e-158
-442.9884899232679,60.0,0.4964556639520585,0.0012625098962941103,2.6146746228218202e-157,2.140040797685382e-157
-440.9884899231679,60.0,0.5006176291706295,-0.0009245927562723313,3.814004966949394e-156,3.1216541974261994e-156
-438.9884899230679,65.0,0.504833276478888,-0.0029033205218143704,5.508121386658406e-155,4.508230992235754e-155
-436.9884899229679,65.0,0.5091569930048162,-0.0039012593405672105,7.875614107421288e-154,6.445938953883393e-154
-434.9884899228679,65.0,0.5135785713979397,-0.004783570595533172,1.114869574813498e-152,9.124832644784699e-153
-432.98848992276794,65.0,0.5180768408451195,-0.005550924063393352,1.562508690106477e-151,1.2788580808309647e-151
-430.98848992266795,70.0,0.5226278886116953,-0.0030297994311074203,2.1681014270227988e-150,1.774510418822813e-150
-428.98848992256796,70.0,0.5272903009085823,-0.0009545591391671646,2.9784859744549065e-149,2.4377745931814237e-149
-426.988489922468,70.0,0.5320530587281234,0.0011716884416350243,4.051075791790875e-148,3.3156399598867764e-148
-424.988489922368,70.0,0.5368903087560136,0.003319131275298523,5.455116855948065e-147,4.464779799930318e-147
-422.988489922268,75.0,0.541773654754604,0.008761315144483427,7.27271660288558e-146,5.952393323869418e-146
-420.988489922168,75.0,0.5467588431186233,0.01358162319959682,9.599491421974786e-145,7.856735459764311e-145
-418.988489922068,75.0,0.5518339218729292,0.01838828973267778,1.254465657251402e-143,1.0267190274292477e-143
-416.98848992196804,75.0,0.5569681843626864,0.02311693945898031,1.6230367652904315e-142,1.3283731817173518e-142
-414.98848992186805,80.0,0.5621288200104967,0.03773348531222483,2.0790120558347336e-141,1.7015614386629108e-141
-412.98848992176806,80.0,0.5673391624219597,0.04346992245370612,2.636603149707362e-140,2.157914619500691e-140
-410.9884899216681,80.0,0.5726058709482322,0.049060646094946356,3.3104853837613906e-139,2.709442922918284e-139
-408.9884899215681,80.0,0.5778973031897134,0.054430751239080304,4.115264689240952e-138,3.368099584623812e-138
-406.9884899214681,85.0,0.5831799985108777,0.069683094714861,5.064809392548322e-137,4.145233990936621e-137
-404.9884899213681,85.0,0.5884310074954913,0.0775010671238264,6.171457096822828e-136,5.05094256307641e-136
-402.9884899212681,85.0,0.5936971998922206,0.08501852854324717,7.445118979141877e-135,6.093335694411477e-135
-400.98848992116814,85.0,0.5989472007398062,0.0921302832679031,8.892316986671669e-134,7.277749783849681e-134
-398.98848992106815,90.0,0.6041482489527399,0.10861150170874054,1.0515202467940299e-132,8.605944090859578e-133
-396.98848992096816,90.0,0.6092349202835566,0.11628819678947672,1.2310616431142546e-131,1.007533167613643e-131
-394.9884899208682,90.0,0.6142950806629126,0.12347419307806522,1.4269260448627419e-130,1.1678300915200548e-130
-392.9884899207682,90.0,0.6192987912763418,0.1300715038671708,1.6375051806556672e-129,1.3401687819010585e-129
-390.9884899206682,95.0,0.6242151227141584,0.14138466374814224,1.8604735595357183e-128,1.5226458654676952e-128
-388.9884899205682,95.0,0.6289471408107847,0.14858770114967756,2.092781917663138e-127,1.7127656415904053e-127
-386.9884899204682,95.0,0.6336096763224244,0.15513010827925755,2.3306880500084392e-126,1.9074653264236412e-126
-384.98848992036824,95.0,0.6381752330402488,0.16091462509376767,2.5698281388923085e-125,2.1031734401741572e-125
-382.98848992026825,100.0,0.6426157440677496,0.16961228476938928,2.805329119081075e-124,2.2959017783923385e-124
-380.98848992016826,100.0,0.6468209936753981,0.17569288758003676,3.0319596831134064e-123,2.4813690052264676e-123
-378.9884899200683,100.0,0.6509166116855607,0.18090074641060094,3.2443144626017204e-122,2.65515139576769e-122
-376.9884899199683,100.0,0.6548788907910095,0.1851570125303661,3.4370229932041875e-121,2.8128538583677007e-121
-374.9884899198683,105.0,0.6586839500215329,0.1934924007564475,3.6049725678074704e-120,2.9502923193846652e-120
-372.9884899197683,105.0,0.6622081425630353,0.19983175397703484,3.743532271450049e-119,3.0636770709187453e-119
-370.9884899196683,105.0,0.6655806064087126,0.20515912175031176,3.8487645906553577e-118,3.1497859451349133e-118
-368.98848991956834,105.0,0.6687826721668685,0.20939500514761297,3.917611139809451e-117,3.206116301841648e-117
-366.98848991946835,110.0,0.6717958957891734,0.21324349896367784,3.94804029071622e-116,3.231005834019073e-116
-364.98848991936836,110.0,0.674490239044765,0.21493239461036534,3.9391467633804675e-115,3.2237140556456447e-115
-362.9884899192684,110.0,0.6769955692916574,0.2154812381019116,3.8911963657894396e-114,3.184458897792985e-114
-360.9884899191684,110.0,0.6792993052616686,0.21489109940596607,3.8056127973422617e-113,3.1144058892044764e-113
-358.9884899190684,110.0,0.6813893966242721,0.21082076573730665,3.684907430119256e-112,3.0156106708587586e-112
-356.9884899189684,110.0,0.68316104869862,0.21040862771134822,3.532556900555812e-111,2.8909188007588204e-111
-354.9884899188684,110.0,0.6847482517945268,0.20888265091379,3.352836836287484e-110,2.743829663036764e-110
-352.98848991876844,110.0,0.6861451855251415,0.20627393756890805,3.1506228096478276e-109,2.578333559479321e-109
-350.98848991866845,105.0,0.6873462715829174,0.20678018775568036,2.9311714283263178e-108,2.398732549936446e-108
-348.98848991856846,105.0,0.6882651548301412,0.2091173483898841,2.6998952213672026e-107,2.209456219602243e-107
-346.9884899184685,105.0,0.689032652009572,0.2104089370464704,2.462144639457316e-106,2.0148832731611453e-106
-344.9884899183685,105.0,0.6896491371966906,0.21063879400223287,2.223009151610202e-105,1.819178761389595e-105
-342.9884899182685,100.0,0.6901145893804762,0.2130000876410056,1.987147264776226e-104,1.6261549814120486e-104
-340.9884899181685,100.0,0.6903359865766163,0.21656632503721157,1.7586525627629608e-103,1.4391618572795666e-103
-338.9884899180685,100.0,0.6904292316574,0.21909166474031622,1.5409598352884726e-102,1.2610101313378807e-102
-336.98848991796854,100.0,0.6903998705433512,0.2205341270808845,1.336792329518199e-101,1.0939282101828609e-101
-334.98848991786855,95.0,0.6902526187964031,0.22344370986141504,1.1481483615129314e-100,9.395512217407444e-101
-332.98848991776856,95.0,0.6898931276751431,0.22710325827572658,9.763231804380641e-100,7.989389213831162e-100
-330.9884899176686,95.0,0.6894240422835182,0.22967984129585253,8.219602257182309e-99,6.726176508263742e-99
-328.9884899175686,95.0,0.6888552562597714,0.23113004678682936,6.851248262408029e-98,5.6064066086799525e-98
-326.9884899174686,90.0,0.6881954886446795,0.233592547041299,5.653929611439676e-97,4.62660757693403e-97
-324.9884899173686,90.0,0.687354713829482,0.23653128947390953,4.619478733175125e-96,3.7800937313375425e-96
-322.9884899172686,90.0,0.6864253522875888,0.2383970764019371,3.736779935773204e-95,3.057767051658815e-95
-320.98848991716864,90.0,0.6854207965924438,0.239140965163343,2.992706615628075e-94,2.448884164578721e-94
-318.98848991706865,85.0,0.6843529518513992,0.24187904402709132,2.3729737445016967e-93,1.9417539777897237e-93
-316.98848991696866,85.0,0.6831395216078557,0.2457885329384214,1.8628761791962902e-92,1.5243418613887312e-92
-314.9884899168687,85.0,0.6818564235817178,0.24860010865577384,1.4478961503330238e-91,1.1847667604721132e-91
-312.9884899167687,85.0,0.6805199445420832,0.25025458654684685,1.1141747391571212e-90,9.116869948737415e-91
-310.9884899166687,80.0,0.6791446464013536,0.24970595958843808,8.488516107450858e-90,6.945782428054057e-90
-308.9884899165687,80.0,0.6776699623989012,0.24730298286258404,6.402844103770067e-89,5.239130463026687e-89
-306.9884899164687,80.0,0.6761590645901518,0.24378227303588162,4.781639916847575e-88,3.9125507255203396e-88
-304.98848991636874,80.0,0.6746305211332703,0.23916896432890072,3.535441937307636e-87,2.892834500504156e-87
-302.98848991626875,75.0,0.6731007216186938,0.23843729451995355,2.5880553665803465e-86,2.1176303181664813e-86
-300.98848991616876,75.0,0.6715262611753494,0.2403022419412853,1.8757136736484086e-85,1.53475751336307e-85
-298.9884899160688,75.0,0.6699525393247711,0.2411844991280795,1.3459309192352623e-84,1.1012668587476885e-84
-296.9884899159688,75.0,0.6683991990319081,0.241037520824968,9.561859520670009e-84,7.823636588699124e-84
-294.9884899158688,70.0,0.6668833026294537,0.24266999922922203,6.725513242797917e-83,5.502856474418264e-83
-292.9884899157688,70.0,0.6653623376438942,0.24548687335549732,4.683517131732546e-82,3.832050659639724e-82
-290.9884899156688,70.0,0.6638599424107735,0.24741149737132337,3.229107680087188e-81,2.6420313211609764e-81
-288.98848991556883,70.0,0.6623946619009299,0.24837279682740793,2.204229463830634e-80,1.8034681317121515e-80
-286.98848991546885,65.0,0.6609823714097257,0.2506424354853446,1.4896871470782854e-79,1.2188293474162074e-79
-284.98848991536886,65.0,0.659583938601402,0.2536957513700612,9.967757473408858e-79,8.155327088084063e-79
-282.9884899152689,65.0,0.6582157911854576,0.25577503401660734,6.603346914614208e-78,5.40261537642521e-78
-280.9884899151689,65.0,0.6568951936656223,0.25679279292360935,4.331069599217364e-77,3.543488581797083e-77
-278.9884899150689,60.0,0.6556368569676881,0.25825615091754095,2.8124884590933554e-76,2.3010310815718948e-76
-276.9884899149689,60.0,0.6544088296902453,0.25989302234185585,1.8082189466615488e-75,1.4793758802762774e-75
-274.9884899148689,60.0,0.6532235351522644,0.2605082546418509,1.151002077872641e-74,9.416712855642566e-75
-272.98848991476893,60.0,0.6520981907970073,0.26002684230372325,7.253809961059691e-74,5.934512015714445e-74
-270.98848991466895,55.0,0.6510477314321651,0.26116716762550873,4.526071015869548e-73,3.7028467694152096e-73
-268.98848991456896,55.0,0.6500469107846412,0.26336858186968826,2.7960300356190214e-72,2.2874502679617677e-72
-266.98848991446897,55.0,0.6491013460080323,0.2645127389350039,1.7101245250660617e-71,1.399049011467679e-71
-264.988489914369,55.0,0.6482284358527435,0.2644934802503063,1.035569454487388e-70,8.471878190900442e-71
-262.988489914269,50.0,0.6474436987921938,0.2660119325083456,6.208640080685722e-70,5.079162912471237e-70
-260.988489914169,50.0,0.6467287908535067,0.268507574106477,3.6853577909332177e-69,3.01488265082705e-69
-258.988489914069,50.0,0.646080429068924,0.2698220421194385,2.1658527146229512e-68,1.7717999230249778e-68
-256.98848991396903,50.0,0.6455169827421567,0.2698404175499264,1.260214413042192e-67,1.0309203438935868e-67
-254.98848991386905,45.0,0.6450554854305899,0.27156289288020813,7.259829135243017e-67,5.938843482576777e-67
-252.98848991376906,45.0,0.6446842912259614,0.2745867942859183,4.140711462546943e-66,3.387233713971002e-66
-250.98848991366907,45.0,0.6443859813296716,0.27655691363722956,2.3382467026181544e-65,1.912736475984095e-65
-248.98848991356908,45.0,0.6441798774383588,0.2773286466982053,1.3072921984626678e-64,1.0693798382055566e-64
-246.9884899134691,40.0,0.6440846874291006,0.28078616156760244,7.23639346236053e-64,5.919375686445106e-64
-244.9884899133691,40.0,0.644093677646637,0.28620709473906325,3.9658750846855996e-63,3.2440464687314135e-63
-242.98848991326912,40.0,0.6441724531844198,0.2904318184282183,2.1519067042119794e-62,1.7602148106303747e-62
-240.98848991316913,40.0,0.6443415175703273,0.29325803724195676,1.1560472730581745e-61,9.456096883651468e-62
-238.98848991306915,35.0,0.6446218087143221,0.3002986336400987,6.148875467315468e-61,5.02951367100892e-61
-236.98848991296916,35.0,0.6450102301603541,0.31080641884005494,3.238053016277574e-60,2.648549617554596e-60
-234.98848991286917,35.0,0.6454482177928166,0.32027562502366247,1.688264839212072e-59,1.3808880814306252e-59
-232.98848991276918,35.0,0.6459575380804349,0.3284064081389457,8.714967498829459e-59,7.128157828496857e-59
-230.9884899126692,30.0,0.6465618465682575,0.33721094601774104,4.4540979164380905e-58,3.643047262343789e-58
-228.9884899125692,30.0,0.6472677977754587,0.346550504659664,2.2538383333343522e-57,1.8434068409692796e-57
-226.98848991246922,30.0,0.6479917559341997,0.3546219354455104,1.1291587374554502e-56,9.235208344219775e-57
-224.98848991236923,30.0,0.6487562289504459,0.3612534081784907,5.60088562217431e-56,4.580802206284147e-56
-222.98848991226924,25.0,0.6495868674066844,0.36668411992897765,2.7506042344857253e-55,2.2496033629940926e-55
-220.98848991216926,25.0,0.650512938531026,0.37122486273418154,1.3374250299228815e-54,1.0938056704492082e-54
-218.98848991206927,25.0,0.6514435535540565,0.3746319341855642,6.43844461255624e-54,5.265558386191146e-54
-216.98848991196928,25.0,0.6524012282414305,0.3768341064135601,3.0687598599460644e-53,2.509683658469241e-53
-214.9884899118693,20.0,0.6534120961519626,0.3808450782024789,1.4481565733383001e-52,1.1843063797368925e-52
-212.9884899117693,20.0,0.6545266219135633,0.38621651948475894,6.766110159113819e-52,5.533245547285363e-52
-210.98848991166932,20.0,0.6556459900208906,0.3905086087206357,3.129924039552359e-51,2.5595691279636953e-51
-208.98848991156933,20.0,0.6567914461246307,0.39362521896162334,1.4335075511189563e-50,1.1722630904376265e-50
-206.98848991146934,15.0,0.6579881343325487,0.3990687481616426,6.500367278569091e-50,5.315631831624476e-50
-204.98848991136936,15.0,0.6593023807229053,0.4064738790406894,2.9184200736519703e-49,2.38647309262318e-49
-202.98848991126937,15.0,0.6606182483903899,0.41306825976122247,1.2972688491715769e-48,1.0607921905790741e-48
-200.98848991116938,15.0,0.6619542599144408,0.4187997049013752,5.709324633385259e-48,4.668490622012349e-48
-198.9884899110694,10.0,0.6633330695978156,0.4234248374654609,2.4877820982552515e-47,2.0342080095667822e-47
-196.9884899109694,10.0,0.6648390542509491,0.4274399437692506,1.0732801246139018e-46,8.775810044210234e-47
-194.98848991086942,10.0,0.6663487441174136,0.4311355120475948,4.5844504682868894e-46,3.748455430919734e-46
-192.98848991076943,10.0,0.6678745546561001,0.4345028984902692,1.9388099446972117e-45,1.585225593658938e-45
-190.98848991066944,5.0,0.6694330520931506,0.4381375995638192,8.118153542421171e-45,6.637487184980678e-45
-188.98848991056946,5.0,0.6711236320622401,0.4420842592532625,3.3655315837912143e-44,2.7516331132864213e-44
-186.98848991046947,5.0,0.6728294282908434,0.44589715041025874,1.3814169853899469e-43,1.1294106827479585e-43
-184.98848991036948,5.0,0.6745537668098636,0.4495672287631723,5.613981214208354e-43,4.5897403285338804e-43
-182.9884899102695,0.0,0.6763041062099994,0.45345789071131143,2.2588765547540417e-42,1.8467135380746633e-42
-180.9884899101695,0.0,0.6781853874882844,0.45761730034562415,8.998906997948019e-42,7.35675823449904e-42
-178.98848991006952,0.0,0.6800951070552568,0.461780097134616,3.549466667390258e-41,2.9016786551173687e-41
-176.98848990996953,0.0,0.6820258036376817,0.46594835899650655,1.386158430389093e-40,1.1331525466955481e-40
-174.98848990986954,6.0,0.6839741125275387,0.46689314068797955,5.359687057572424e-40,4.3813105407012535e-40
-172.98848990976956,6.0,0.6860628881964379,0.4722848448022757,2.0518384288677558e-39,1.6772455710771346e-39
-170.98848990966957,6.0,0.6881892044858263,0.47733707719701235,7.77722079677368e-39,6.357210695353425e-39
-168.98848990956958,6.0,0.6903349163505176,0.48206292653184735,2.9186608084602536e-38,2.3856914426911433e-38
-166.9884899094696,12.0,0.6924858776132743,0.48563142889970357,1.0844789972597106e-37,8.864210177690951e-38
-164.9884899093696,12.0,0.6947947458795276,0.4902434750071545,3.989673785576706e-37,3.260951343161042e-37
-162.98848990926962,12.0,0.6971491953777691,0.4943761452567883,1.4532246646684893e-36,1.1877567265564401e-36
-160.98848990916963,12.0,0.69952198291663,0.4980463796499549,5.240921829056494e-36,4.283413463251119e-36
-158.98848990906964,18.0,0.7018897439229034,0.50581086998045,1.8713825613196716e-35,1.5294392667277368e-35
-156.98848990896965,18.0,0.704418006232746,0.5133031856446495,6.616036352805801e-35,5.406978518323858e-35
-154.98848990886967,18.0,0.7069987323764938,0.519763149447658,2.315869266325543e-34,1.89259487606626e-34
-152.98848990876968,18.0,0.7095982694434576,0.5251763609926696,8.026228132587629e-34,6.559061918891782e-34
-150.9884899086697,24.0,0.7121867659357698,0.5364129388610301,2.7541698873654745e-33,2.250646632112385e-33
-148.9884899085697,24.0,0.7149225431865783,0.5423034722296578,9.357335224884547e-33,7.646362310564315e-33
-146.98848990846972,24.0,0.7177149876741465,0.5468338484245012,3.1477219943763306e-32,2.572082443731162e-32
-144.98848990836973,24.0,0.7205273732678935,0.5500295422742227,1.048392143929226e-31,8.566389874591924e-32
-142.98848990826974,30.0,0.723326572738589,0.5608182240170041,3.4572824186736646e-31,2.824842390575341e-31
-140.98848990816975,30.0,0.7262525611675158,0.5668930839275805,1.1288342559003575e-30,9.223049686824568e-31
-138.98848990806977,30.0,0.7292387820736177,0.571478142689553,3.649305727453528e-30,2.9815310260383092e-30
-136.98848990796978,30.0,0.7322467692670055,0.5745804313894276,1.1680880958716676e-29,9.54309186180396e-30
-134.9884899078698,36.0,0.7352414006444877,0.5834090646749693,3.7019178270492414e-29,3.0242967469100116e-29
-132.9884899077698,36.0,0.7383507109135466,0.5889183517144005,1.161620682512322e-28,9.489553500387752e-29
-130.98848990766982,36.0,0.7415313484175334,0.5924729537779239,3.609016384542936e-28,2.948178652753053e-28
-128.98848990756983,36.0,0.7447446569875745,0.5941145438717216,1.110199202309341e-27,9.068783511372801e-28
-126.98848990746983,42.0,0.7479549409974765,0.6050289443334523,3.381435472643532e-27,2.7620534602234753e-27
-124.98848990736983,42.0,0.7512763904874286,0.6117652026776979,1.0197413821965506e-26,8.329204723124691e-27
-122.98848990726982,42.0,0.7546886306297372,0.6161539074567666,3.0448671837997e-26,2.4869326303103665e-26
-120.98848990716982,42.0,0.7581548527664895,0.6183220635351033,9.00195156951379e-26,7.352146673259527e-26
-118.98848990706982,48.0,0.7616401694486573,0.6304923086315033,2.635091212131843e-25,2.152061150664289e-25
-116.98848990696982,48.0,0.765227287526205,0.6377602516465579,7.637407508987992e-25,6.23714752222306e-25
-114.98848990686982,48.0,0.768914453111282,0.642407550833979,2.191736247429094e-24,1.7898187938788805e-24
-112.98848990676981,48.0,0.7726679380859864,0.6445704743743217,6.227637602811129e-24,5.085392088448678e-24
-110.98848990666981,54.0,0.7764546194374119,0.6532951462222303,1.7520714297128704e-23,1.4306482291469544e-23
-108.98848990656981,54.0,0.7803317034218876,0.6581140939575081,4.88061389277239e-23,3.985061657800023e-23
-106.98848990646981,54.0,0.7843121654440147,0.6605176016081857,1.346145541781385e-22,1.0990861551742101e-22
-104.98848990636981,54.0,0.7883648115736535,0.6606599511167741,3.676252015566459e-22,3.0013987610055236e-22
-102.9884899062698,60.0,0.7924579315037551,0.6702721687798698,9.940655373784043e-22,8.1154332625030865e-22
-100.9884899061698,60.0,0.7966288894528948,0.6784396358750594,2.6614729362573425e-21,2.1726840306888874e-21
-98.9884899060698,60.0,0.8009000016483605,0.6840381796997421,7.055490580394492e-21,5.7594246892808394e-21
-96.9884899059698,60.0,0.8052418120259444,0.6871617506717353,1.851958951509417e-20,1.511680970117704e-20
-94.9884899058698,66.0,0.8096234978767703,0.6969170911403315,4.8132159654127435e-20,3.9286248669469944e-20
-92.9884899057698,66.0,0.8140644947795419,0.7036282835178489,1.23862570932397e-19,1.0109303484141349e-19
-90.9884899056698,66.0,0.8185962052207816,0.707848180278206,3.1560690879111923e-19,2.5757462316944364e-19
-88.98848990556979,66.0,0.8231905822611771,0.7096946923447456,7.962611518646981e-19,6.498109257668686e-19
-86.98848990546979,72.0,0.8278175328851807,0.718153845691528,1.989152770308913e-18,1.6232073442710492e-18
-84.98848990536979,72.0,0.8324870833632252,0.7252988941361929,4.9202291677220735e-18,4.014810253352012e-18
-82.98848990526979,72.0,0.8372399530483597,0.7300080896533012,1.2050584926848793e-17,9.832435237178718e-18
-80.98848990516979,72.0,0.8420483553419243,0.7323598615748692,2.9223860075097024e-17,2.3843128797900346e-17
-78.98848990506978,78.0,0.8468818880521319,0.7414241987438717,7.01737632665648e-17,5.72496109644586e-17
-76.98848990496978,78.0,0.8517424171424269,0.7495868620636701,1.668479215000157e-16,1.3611001237034263e-16
-74.98848990486978,78.0,0.8566764316883582,0.7552011045169409,3.928048317416408e-16,3.204180478521656e-16
-72.98848990476978,78.0,0.8616559394180437,0.7583357893409981,9.156805768216165e-16,7.4688611527015e-16
-70.98848990466978,84.0,0.8666499239730074,0.7666977347816275,2.1136036506798214e-15,1.723866021459403e-15
-68.98848990456978,84.0,0.8716563266795917,0.7742285970121061,4.830773858432508e-15,3.939721873600635e-15
-66.98848990446977,84.0,0.8767273385290436,0.7792764314692882,1.0932632528028914e-14,8.91541998025861e-15
-64.98848990436977,84.0,0.8818323698802978,0.7819018562314675,2.449903592379055e-14,1.997715006429652e-14
-62.98848990426977,90.0,0.886937754562687,0.7896873825629814,5.436141992769792e-14,4.432431908323941e-14
-60.98848990416977,90.0,0.8920347556353891,0.7973040745198919,1.1944047894861965e-13,9.737978240618555e-14
-58.988489904069766,90.0,0.8971791210026315,0.8022305301385038,2.5985594759788633e-13,2.118434914038946e-13
-56.988489903969764,90.0,0.9023375692224647,0.8045042578972752,5.598035458594009e-13,4.563336594247138e-13
-54.98848990386976,96.0,0.9074739270256885,0.8128100633581081,1.194158594848609e-12,9.733576186132874e-13
-52.98848990376976,96.0,0.9125516674130156,0.8223147934817338,2.5223963001475198e-12,2.0558264758605256e-12
-50.98848990366976,96.0,0.9176357156689153,0.8289380309679991,5.275834902284871e-12,4.299581253144423e-12
-48.98848990356976,96.0,0.9226930276970778,0.8326634042020056,1.0926908387484984e-11,8.904164784776204e-12
-46.988489903469755,102.0,0.9276880019390141,0.8405543041823715,2.2409561234699198e-11,1.8259514587871042e-11
-44.988489903369754,102.0,0.9325529913060768,0.8488602761982847,4.55094011987154e-11,3.7077976099675933e-11
-42.98848990326975,102.0,0.9373787939748575,0.8540122467278691,9.151713813719342e-11,7.455475728367584e-11
-40.98848990316975,102.0,0.9421340931065268,0.8560027004894126,1.8223809398279643e-10,1.4844620568246613e-10
-38.98848990306975,108.0,0.9467854890830494,0.8631059354074215,3.5934637206034376e-10,2.9268411503708235e-10
-36.98848990296975,108.0,0.9512390197478253,0.8723464351362498,7.016600248452941e-10,5.714358514280549e-10
-34.988489902869745,108.0,0.9556131610390929,0.8783201432908974,1.3566931786294092e-09,1.1047808296352125e-09
-32.98848990276974,108.0,0.9598795625799529,0.8810182631884682,2.5976469105851915e-09,2.1150818900660918e-09
-30.98848990266974,114.0,0.9640081344514098,0.8883080523109255,4.925205634264429e-09,4.009801003915396e-09
-28.98848990256974,114.0,0.9678806960864855,0.898272283076084,9.247336492696895e-09,7.527751338902339e-09
-26.988489902469738,114.0,0.9716287097561224,0.9048095222641075,1.719330410099676e-08,1.3994481968230022e-08
-24.988489902369736,114.0,0.9752276969944886,0.9078738636942856,3.165591275143804e-08,2.576320490443672e-08
-22.988489902269734,120.0,0.9786518693712494,0.915414763964482,5.7717252347775516e-08,4.6967441742519787e-08
-20.988489902169732,120.0,0.9817700887889569,0.9257473133342373,1.0421118874779089e-07,8.479112904834733e-08
-18.98848990206973,120.0,0.9847179248469712,0.9323787712186173,1.8633035502479998e-07,1.5158738009020435e-07
-16.98848990196973,120.0,0.9874761925441503,0.9352682938974133,3.2992572923942356e-07,2.683721825497139e-07
-14.988489901869729,126.0,0.9900248633284565,0.9429618220479987,5.785153863762268e-07,4.7051835076362853e-07
-12.988489901769729,126.0,0.9922174972253102,0.954659895392425,1.0045758492657348e-06,8.16926787168012e-07
-10.988489901669729,126.0,0.9941870272192398,0.9625208809586479,1.7275183688218654e-06,1.4046243430954525e-06
-8.988489901569729,126.0,0.995920898518799,0.9664647243629054,2.9419674719389528e-06,2.391722589209517e-06
-6.988489901469729,132.0,0.9974062567769888,0.974876839296799,4.961711899931289e-06,4.0330922767083405e-06
-4.988489901369729,132.0,0.9984830857593332,0.9871761174705905,8.28718515758586e-06,6.735123018652318e-06
-2.9884899012697286,132.0,0.9992773746972458,0.9954176373401117,1.3707801561032427e-05,1.1138746380121549e-05
-0.9884899011697286,132.0,0.9997844506946688,0.999503888535028,2.2455224473902005e-05,1.8243745531994742e-05
