#lags,ntau,weight_dist,acf,smooth_dist,smooth_weight_dist
-1976.98849,1.0,0.002031463494443671,0.0,3.4453810755309275,0.007900194769647925
-1974.9884899999,1.0,0.0020549907276684837,0.0,3.7870048868287243,0.008750167391882648
-1972.9884899997999,1.0,0.002079481251461453,0.0,4.144453858918082,0.009652788979696545
-1970.9884899996998,1.0,0.002104407236790064,0.0,4.517016943705761,0.010607938054954098
-1968.9884899995998,1.0,0.0021296787485697703,0.0,4.903849903537447,0.011614981007215194
-1966.9884899994997,2.0,0.0021552101482897826,-0.9999999999994778,5.303917095818554,0.012672561006483096
-1964.9884899993997,2.0,0.0021820010819405666,-0.9999999999996461,5.715916014143888,0.013778345171254234
-1962.9884899992996,2.0,0.0022093573566424928,-0.9999999999990246,6.13818838198666,0.014928742081671607
-1960.9884899991996,2.0,0.002237159428837662,-4.626299343613027e-13,6.568623871164574,0.016118607553503535
-1958.9884899990996,3.0,0.002265289126487276,-0.8282636676025051,7.004564561844168,0.017340961735490865
-1956.9884899989995,3.0,0.002294925655265241,-0.7709536679653982,7.442719821647462,0.018586744410961007
-1954.9884899988995,3.0,0.002325253802404961,-0.5632184934862131,7.879102124551455,0.019844637272726232
-1952.9884899987994,3.0,0.002356128893943881,-0.1896186560105745,8.308994269551977,0.021100981420337075
-1950.9884899986994,4.0,0.002387404853029705,-0.6079933219412789,8.726957383460352,0.022339815117942585
-1948.9884899985993,4.0,0.002420375326948381,-0.7414597491454735,9.126886987108993,0.023543050917419296
-1946.9884899984993,4.0,0.002454171265980054,-0.8392056448811995,9.502121363305466,0.024690802845790685
-1944.9884899983992,4.0,0.0024886291412177745,-0.8691747485166488,9.845602689838735,0.025761864012518575
-1942.9884899982992,5.0,0.002523580944263578,-0.890776912609861,10.150087188375146,0.026734323495858595
-1940.9884899981992,5.0,0.0025604140716327223,-0.8008118030358353,10.408396256192503,0.02758629968811635
-1938.988489998099,5.0,0.00259824898987882,-0.5704936837799951,10.61369659210207,0.028296756480235975
-1936.988489997999,5.0,0.0026369036899577766,-0.2833560447884592,10.759794092214221,0.028846359793432953
-1934.988489997899,6.0,0.0026761881128961333,-0.12896611114589207,10.841424115865957,0.029218325936737555
-1932.988489997799,6.0,0.0027176082962895444,-0.021147496944850214,10.854519857353951,0.0293992107682139
-1930.988489997699,6.0,0.0027602366689327314,0.1385858567293251,10.796441135338736,0.02937959003380636
-1928.988489997599,6.0,0.0028038743455029206,0.2759038718587348,10.666147922134737,0.02915458655875872
-1926.9884899974988,7.0,0.002848310361668344,-0.002451400711282331,10.46430623418042,0.0287242088099365
-1924.9884899973988,7.0,0.002895171722726131,-0.11062398899997379,10.193318322778236,0.028093477034051476
-1922.9884899972988,7.0,0.002943465053085717,-0.22882143992574533,9.85727407403494,0.027272326741452586
-1920.9884899971987,7.0,0.002992979050016494,-0.29141990640802024,9.4618257239218,0.026275293615484856
-1918.9884899970987,8.0,0.0030434845382619514,-0.20849122129404385,9.013992979535828,0.025120997799715328
-1916.9884899969986,8.0,0.003096698020551855,-0.09153146602705046,8.521910002419943,0.023831457832754255
-1914.9884899968986,8.0,0.0031515696734500734,0.07035424459150644,7.994529115679777,0.022431274320127068
-1912.9884899967985,8.0,0.0032078773844272926,0.17413099403420162,7.441298305513209,0.020946730070020382
-1910.9884899966985,9.0,0.0032653738862697197,-0.13560184304249143,6.871830480034978,0.01940485650109812
-1908.9884899965984,9.0,0.003325922410609268,-0.14833815255928195,6.295582027306478,0.01783251561081136
-1906.9884899964984,9.0,0.003388404044971745,-0.14108639197831405,5.72155659795418,0.01625554293757614
-1904.9884899963984,9.0,0.0034525795705869482,-0.13229899392175612,5.158047437830104,0.014697990288976233
-1902.9884899962983,10.0,0.003518176686475519,-0.3448725924725694,4.612428291604267,0.01318149826279973
-1900.9884899961983,10.0,0.003587235093166582,-0.45025940686683774,4.090999202336591,0.01172481859006624
-1898.9884899960982,10.0,0.003658515085226283,-0.5039280099499575,3.59888976059801,0.010343495935081524
-1896.9884899959982,10.0,0.003731752239874293,-0.48218446955388305,3.14001879849247,0.00904970879777505
-1894.9884899958981,11.0,0.0038066413135091916,-0.4872341188343487,2.7171064180691165,0.007852260259117545
-1892.988489995798,11.0,0.0038854203195637167,-0.4029262274496085,2.331731764038076,0.006756702006872815
-1890.988489995698,11.0,0.00396671080675967,-0.25760145237093723,1.9844281990991202,0.005765569702349637
-1888.988489995598,11.0,0.004050216356931933,-0.14167973941520512,1.6748065467920699,0.004878704432454174
-1886.988489995498,12.0,0.004135592041195442,-0.0691136423170853,1.4016967977973804,0.004093633690767047
-1884.988489995398,12.0,0.004225332593750391,0.058702400918331385,1.163299045576375,0.0034059858535940195
-1882.9884899952979,12.0,0.004317912875793345,0.19633118749805084,0.9573353041614363,0.002809914158620898
-1880.9884899951978,12.0,0.004412994710982322,0.28600744433109115,0.7811951223873663,0.002298509383351929
-1878.9884899950978,13.0,0.004510183450332812,0.27687019322469686,0.6320693973243411,0.0018641843594375503
-1876.9884899949977,13.0,0.004612251670220575,0.2649213080003557,0.5070683654624049,0.0014990177587150613
-1874.9884899948977,13.0,0.004717495057793764,0.20522068329828658,0.4033212915858754,0.0011950488982193385
-1872.9884899947976,13.0,0.004825525969697839,0.12923049183478205,0.3180567851100162,0.0009445193459672866
-1870.9884899946976,14.0,0.004935892456738093,0.4052466439107869,0.24866388257720265,0.0007400606508276304
-1868.9884899945976,14.0,0.005051684536263085,0.5409857844955841,0.19273500167220026,0.0005748304281462097
-1866.9884899944975,14.0,0.005171008164912269,0.6170524918238249,0.1480925809249839,0.0004426012404205072
-1864.9884899943975,14.0,0.005293299294014335,0.6329394358103115,0.11280167641740792,0.00033780821522454716
-1862.9884899942974,15.0,0.005417941191287558,0.759352452437168,0.08517101527771788,0.00025556218794451106
-1860.9884899941974,15.0,0.005548049326259861,0.7604271517262915,0.0637450399541259,0.00019163542884212398
-1858.9884899940973,15.0,0.005681590395269396,0.6692541225493208,0.04728935791536534,0.00014242681935748236
-1856.9884899939973,15.0,0.0058178174767500425,0.5249639111360722,0.03477178099602207,0.00010491279781405091
-1854.9884899938972,16.0,0.005955948933991158,0.4412998040917473,0.025340837644307605,7.658961474245064e-05
-1852.9884899937972,16.0,0.006098135101005904,0.3955932817733524,0.018303305826730624,5.5411527901799865e-05
-1850.9884899936972,16.0,0.006243075723127912,0.2962799341875514,0.013101974051611991,3.972861608899519e-05
-1848.988489993597,16.0,0.006389969046113307,0.18904505026969043,0.00929451565780314,2.8226969561724415e-05
-1846.988489993497,17.0,0.006537984700972429,0.37600519765411133,0.006534072956742078,1.9873174346214458e-05
-1844.988489993397,17.0,0.006687669857914934,0.43406112423512083,0.00455190238212622,1.3864280242440409e-05
-1842.988489993297,17.0,0.006839143964760774,0.44537056395078084,0.0031422333961564847,9.583844036807696e-06
-1840.988489993197,17.0,0.006991574622410414,0.42797876865711126,0.0021493421153630492,6.56417305181606e-06
-1838.988489993097,18.0,0.0071441109633261606,0.4589391416286582,0.0014567319265868755,4.454552515192359e-06
-1836.9884899929968,18.0,0.0072957698240264,0.3981709942643189,0.0009782422489172306,2.9950094390247987e-06
-1834.9884899928968,18.0,0.007448081835451052,0.31387191668737197,0.0006508665318949048,1.995028119204226e-06
-1832.9884899927968,18.0,0.007600212877155751,0.22626400633402727,0.0004290448071491402,1.3165690066122632e-06
-1830.9884899926967,19.0,0.007751322062519592,0.2661835101500276,0.00028019822088260545,8.607350647315177e-07
-1828.9884899925967,19.0,0.007899414185706454,0.22391712319357507,0.00018128728565092915,5.574610662308429e-07
-1826.9884899924966,19.0,0.008047083153772491,0.17247056045180414,0.00011619735084028408,3.5765733772006045e-07
-1824.9884899923966,19.0,0.008193522204284001,0.12078845737347643,7.378024935247083e-05,2.2730878150541735e-07
-1822.9884899922965,20.0,0.008337928574173523,0.11653170072358976,4.6407442699863704e-05,1.4310391151378917e-07
-1820.9884899921965,20.0,0.008477951638513536,0.040703773172322336,2.8915326710754716e-05,8.924100259920625e-08
-1818.9884899920964,20.0,0.008616636736839262,-0.03262500469481511,1.7846463827761445e-05,5.512529958104748e-08
-1816.9884899919964,20.0,0.008753238069737377,-0.0939957805082482,1.091073188018162e-05,3.373033445725886e-08
-1814.9884899918964,21.0,0.00888702252916119,-0.08675204461614441,6.607500609904311e-06,2.0446839321361722e-08
-1812.9884899917963,21.0,0.009015337311295536,-0.14558930736178594,3.964034079057132e-06,1.2284525768078996e-08
-1810.9884899916963,21.0,0.009141474832615425,-0.19406069821309382,2.356619610156631e-06,7.325734986877408e-09
-1808.9884899915962,21.0,0.009264781016602879,-0.22757050206091595,1.3897902866838124e-06,4.356593903160662e-09
-1806.9884899914962,22.0,0.00938462123486448,-0.1913569475207676,8.158229761135218e-07,2.621941968137341e-09
-1804.9884899913961,22.0,0.009498363049132005,-0.2249407437392992,4.818371803310454e-07,1.6660465883652597e-09
-1802.988489991296,22.0,0.009609514109988388,-0.2477968774007243,2.956418252985121e-07,1.2330800032403209e-09
-1800.988489991196,22.0,0.009717534569849619,-0.25916971652696835,2.0428534210412034e-07,1.2104831654454807e-09
-1798.988489991096,22.0,0.009821902954167553,-0.21259447551421246,1.8132186081122024e-07,1.6056100579492156e-09
-1796.988489990996,22.0,0.009920872178276271,-0.23198930056880251,2.2033387866290683e-07,2.552294385906299e-09
-1794.988489990896,22.0,0.01001772464847913,-0.24268962561270516,3.33435546347005e-07,4.350071850767141e-09
-1792.9884899907959,22.0,0.010112041174766634,-0.24472429469238466,5.544819661133226e-07,7.545649571395293e-09
-1790.9884899906958,21.0,0.010203405885978586,-0.26397219950595374,9.47675959911978e-07,1.3074906512642878e-08
-1788.9884899905958,21.0,0.010290594989977076,-0.27672662829651173,1.6233397804666375e-06,2.2495537322819244e-08
-1786.9884899904957,21.0,0.01037628566710551,-0.28014272822152797,2.7639598481610114e-06,3.835705671230532e-08
-1784.9884899903957,21.0,0.010460161386278111,-0.27577078882000006,4.665393152997947e-06,6.477834526990776e-08
-1782.9884899902956,20.0,0.010541892948116876,-0.29541339689341445,7.800550400865245e-06,1.0833586353815693e-07
-1780.9884899901956,20.0,0.010620092927380954,-0.30912117726473154,1.2916187164577305e-05,1.7941132425596748e-07
-1778.9884899900956,20.0,0.01069699994057339,-0.31364427466571365,2.1177924945938072e-05,2.942098586381661e-07
-1776.9884899899955,20.0,0.010772381976504434,-0.3102746275537789,3.438461070923264e-05,4.777429662373002e-07
-1774.9884899898955,19.0,0.01084598602794612,-0.33071947601836904,5.5280950030529817e-05,7.681795724255123e-07
-1772.9884899897954,19.0,0.010916426201474323,-0.3451956964209133,8.80073528604696e-05,1.2231080453369553e-06
-1770.9884899896954,19.0,0.010985639268539347,-0.35053851186227025,0.00013873839478526645,1.9284260260248827e-06
-1768.9884899895953,19.0,0.01105347133575489,-0.3479904281948787,0.00021657637743990394,3.010785655995086e-06
-1766.9884899894953,18.0,0.011119741979568937,-0.3633225769097226,0.00033478410246255794,4.654768409313696e-06
-1764.9884899893952,18.0,0.011183181280638051,-0.3723300578412604,0.0005124607383622736,7.126240581977394e-06
-1762.9884899892952,18.0,0.011245526216987512,-0.37274244998949646,0.0007767856456197315,1.080363497672055e-05
-1760.9884899891952,18.0,0.011306694511377854,-0.3661840603404407,0.0011659756583761222,1.6219194670017372e-05
-1758.9884899890951,17.0,0.01136657250374771,-0.3849401703461969,0.0017331192066816173,2.4112467740365444e-05
-1756.988489988995,17.0,0.01142394651185752,-0.3994774108894724,0.0025510624556953406,3.5498510963256127e-05
-1754.988489988895,17.0,0.011480325988190338,-0.40653316221919633,0.003718523975034499,5.175328498932085e-05
-1752.988489988795,17.0,0.01153569454656721,-0.4065234902932606,0.005367599997619597,7.471852899406829e-05
-1750.988489988695,16.0,0.01159000127758648,-0.3982204434581402,0.007672785977491931,0.00010682790388412919
-1748.988489988595,16.0,0.011642430617120598,-0.38290626183268306,0.010861575442661248,0.00015125529924559463
-1746.9884899884948,16.0,0.011694525526872411,-0.36145460518352523,0.01522659788374032,0.00021208482344357832
-1744.9884899883948,16.0,0.011746332396421815,-0.3361201896259292,0.021139118643179883,0.0002945000681379752
-1742.9884899882948,15.0,0.011797852079410434,-0.31068730545476586,0.029063542845192705,0.000404987719908581
-1740.9884899881947,15.0,0.011848477831999065,-0.28040270903406406,0.03957234338243727,0.0005515474955986503
-1738.9884899880947,15.0,0.01189964800326041,-0.24700804456052278,0.053360575962099234,0.0007438967876721496
-1736.9884899879946,15.0,0.01195145102418117,-0.2131623553031558,0.07125886464122538,0.000993654492747823
-1734.9884899878946,14.0,0.012003917819058128,-0.19064425981428948,0.09424345880493701,0.0013144845329782291
-1732.9884899877945,14.0,0.012056247575763929,-0.1670003476281138,0.12344170432911242,0.0017221759439412531
-1730.9884899876945,14.0,0.01210946893440918,-0.14339864476901992,0.16013107179741282,0.0022346335694836627
-1728.9884899875944,14.0,0.012163680888271496,-0.12160736169055346,0.20572978237323086,0.0028717519226253213
-1726.9884899874944,13.0,0.012218923460485765,-0.11301720770969706,0.2617771087270306,0.003655145223984353
-1724.9884899873944,13.0,0.012274483876056591,-0.10611634304854577,0.3299016437241738,0.004607709570839808
-1722.9884899872943,13.0,0.012331186026751543,-0.10125467143449529,0.4117762554960446,0.005752999076514
-1720.9884899871943,13.0,0.012389133576086864,-0.09884142677229843,0.5090591028857928,0.007114406923591711
-1718.9884899870942,12.0,0.012448374242920874,-0.06805124674041366,0.6233209696863126,0.008714154600833888
-1716.9884899869942,12.0,0.01250842513737361,-0.03623040342139214,0.7559602647838061,0.010572107807356759
-1714.9884899868941,12.0,0.012569996954844991,-0.008370279879569231,0.9081082756475998,0.012704454883417102
-1712.988489986794,12.0,0.012633207308348686,0.013767187404731263,1.08052857323777,0.01512230203578736
-1710.988489986694,11.0,0.012698121598976576,0.036427328094985,1.273515739838237,0.017830257567243653
-1708.988489986594,11.0,0.012764461860467697,0.05542258518225307,1.4867997002161344,0.020825093009616696
-1706.988489986494,11.0,0.01283278690041833,0.06839863947395311,1.7194627437770966,0.024094580568871187
-1704.988489986394,11.0,0.0129032322042242,0.07502457283540895,1.9698766975871171,0.027616611730753526
-1702.9884899862939,10.0,0.012975887497870995,0.10154398940232245,2.235667532976666,0.031358699617190476
-1700.9884899861938,10.0,0.013050599849321836,0.12467344865227703,2.5137138828505483,0.035277956582153505
-1698.9884899860938,10.0,0.013127700139872914,0.14030235721055923,2.800184483537256,0.03932161813910136
-1696.9884899859937,10.0,0.013207356098166652,0.14812306172467885,3.090617465666551,0.0434281550210984
-1694.9884899858937,9.0,0.013289700718774774,0.1649660902229094,3.380041801321078,0.04752897832764278
-1692.9884899857936,9.0,0.013374704278629454,0.17633499638604522,3.6631382329130266,0.05155070057367146
-1690.9884899856936,9.0,0.013462412166663565,0.17965513358207147,3.934433882425361,0.05541787109788367
-1688.9884899855936,9.0,0.013553019275552542,0.17554850030182995,4.188521727075534,0.05905606136353019
-1686.9884899854935,8.0,0.013646701640409977,0.18168799076875833,4.420293505311956,0.06239513811652869
-1684.9884899853935,8.0,0.013743454613715064,0.18213409321864388,4.625172651600909,0.06537253396533313
-1682.9884899852934,8.0,0.013842939377584334,0.17469602320814162,4.799332777832044,0.06793630901853992
-1680.9884899851934,8.0,0.013945376613269464,0.16046160546062013,4.939887187108942,0.07004779617969673
-1678.9884899850933,7.0,0.014050993984103572,0.18469873661889732,5.0450360004570705,0.0716836377815402
-1676.9884899849933,7.0,0.014159610860172964,0.20788896001766086,5.114159678133395,0.07283705227731149
-1674.9884899848932,7.0,0.014270275547909144,0.22505619689066741,5.147850902186023,0.07351821506817696
-1672.9884899847932,7.0,0.014383230748585402,0.23591123317344612,5.147880738113616,0.07375369422845288
-1670.9884899846932,6.0,0.014498767890021892,0.2683307684058142,5.117099415566826,0.07358494573812782
-1668.9884899845931,6.0,0.014616753326778741,0.29842310595189314,5.059276613568905,0.07306593888742177
-1666.988489984493,6.0,0.014735724807187687,0.32274060522416387,4.978890436616313,0.07226004546033993
-1664.988489984393,6.0,0.014855945529004164,0.34114215204733944,4.8808779694558435,0.07123638093268558
-1662.988489984293,5.0,0.014977765418324086,0.3483529087617607,4.77036309170099,0.07006582763115574
-1660.988489984193,5.0,0.01510165943396087,0.3499745928978902,4.652378884742906,0.0688169950113188
-1658.988489984093,5.0,0.015226126801777484,0.3460138814804844,4.5316023344415814,0.06755237869100578
-1656.9884899839928,5.0,0.015351449440454796,0.33678629284551515,4.412118093465355,0.06632496694325167
-1654.9884899838928,4.0,0.015478010027376365,0.30467069600845537,4.297225896129904,0.065175511945079
-1652.9884899837928,4.0,0.015606836697594198,0.2631151706096757,4.189302996830416,0.064130635659589
-1650.9884899836927,4.0,0.015736290039948236,0.21418799267583058,4.089728995532461,0.06320188057128419
-1648.9884899835927,4.0,0.01586664131868707,0.1598595900154643,3.9988759450703824,0.062385748344689115
-1646.9884899834926,3.0,0.01599826925474405,0.0864681746186476,3.916162060936431,0.06166470014043136
-1644.9884899833926,3.0,0.016132493608053265,-0.000776574424240084,3.840163030663234,0.06100902621050819
-1642.9884899832925,3.0,0.01626719507677068,-0.09869241925221689,3.7687711727526643,0.060379434560059515
-1640.9884899831925,3.0,0.016402591749348175,-0.20258484621813683,3.6993897939386624,0.059730163186567764
-1638.9884899830924,2.0,0.016539014140204734,-0.26369411941646254,3.629148230715539,0.059012390849298976
-1636.9884899829924,2.0,0.016678392616510256,-0.31931905349590056,3.555122338086594,0.05817770928123517
-1634.9884899828924,2.0,0.01681831223755,-0.3719330121348061,3.474545610942129,0.057181425553138876
-1632.9884899827923,2.0,0.016958843703324553,-0.42051823534904353,3.3849976041191137,0.05598548579086876
-1630.9884899826923,1.0,0.017100166482562736,-0.4366288876516071,3.2845586871762475,0.05456084816812398
-1628.9884899825922,1.0,0.017245037326501532,-0.4494514394408256,3.171923196696162,0.052889180519868725
-1626.9884899824922,1.0,0.01739093682397785,-0.46178828349231504,3.046466459100728,0.05096381180168491
-1624.9884899823921,1.0,0.01753770170646302,-0.4736350936779406,2.908264661777513,0.048789922393777184
-1622.988489982292,0.0,0.01768527000006524,-0.47465458036366337,2.7580698713610774,0.046384011446910324
-1620.988489982192,0.0,0.017837126847773343,-0.4746545803636878,2.5972453907362416,0.043772726105094854
-1618.988489982092,0.0,0.0179905854630689,-0.47465458036362784,2.427668919154005,0.040991174336697286
-1616.988489981992,0.0,0.01814519775956534,-0.4746545803636066,2.251612507293801,0.03808086812009415
-1614.988489981892,2.0,0.0183006082683459,-0.3812094714299008,2.0716090279228188,0.03508745587813958
-1612.9884899817919,2.0,0.018461490398282297,-0.4102414788191576,1.8903148309360092,0.032058402513767945
-1610.9884899816918,2.0,0.01862448683568441,-0.4372345081117426,1.7103775004670834,0.029040763394477948
-1608.9884899815918,2.0,0.018788867234242165,-0.46186099028647254,1.5343163133565803,0.026079177243701127
-1606.9884899814917,4.0,0.01895398262376373,-0.4464373699947657,1.3644212782101766,0.023214174783299943
-1604.9884899813917,4.0,0.01912598055948483,-0.46269488458087304,1.2026746936342763,0.020480868079972656
-1602.9884899812917,4.0,0.019300645276302025,-0.4770890048447872,1.0506971814744046,0.01790805281362461
-1600.9884899811916,4.0,0.019476997652053483,-0.4891602782148469,0.9097182861265047,0.015517724765678309
-1598.9884899810916,6.0,0.01965412718371232,-0.4627361201825353,0.7805701138128899,0.013324984892910332
-1596.9884899809915,6.0,0.019839025189213613,-0.4888008270947978,0.6637012073799277,0.011338285959721077
-1594.9884899808915,6.0,0.020027049813748067,-0.5120884875210661,0.5592069625976502,0.009559958721100041
-1592.9884899807914,6.0,0.020217029502546658,-0.5317038949258732,0.4668724010567354,0.007986947288057895
-1590.9884899806914,8.0,0.020407850873991048,-0.5099200427368896,0.38622299757222545,0.0066116811888351735
-1588.9884899805913,8.0,0.020606724150470077,-0.525774618940536,0.31657946427729045,0.00542301492202209
-1586.9884899804913,8.0,0.020809145170198617,-0.5276499555428932,0.2571128489617407,0.004407173328051154
-1584.9884899803913,8.0,0.021013824036722667,-0.518508214030563,0.2068969325804278,0.003548651572477906
-1582.9884899802912,10.0,0.02121951663354561,-0.3941298107276768,0.16495563102910632,0.0028310306151085535
-1580.9884899801912,10.0,0.0214333757604512,-0.39093790642805576,0.13030384708501483,0.002237681519272129
-1578.9884899800911,10.0,0.021651396213676653,-0.37530170398132684,0.10198091982170561,0.001752343818590133
-1576.988489979991,10.0,0.021872192133402843,-0.35015402369659154,0.079076435969157,0.0013595736378338489
-1574.988489979891,12.0,0.02209440857609768,-0.29173718142910837,0.0607486718369719,0.0010450658618834934
-1572.988489979791,12.0,0.02232528940579368,-0.300804153255603,0.04623631209900329,0.0007958611220723243
-1570.988489979691,12.0,0.022561121405723507,-0.29642184395211685,0.03486434272801397,0.0006004527062822612
-1568.988489979591,12.0,0.022800455890846744,-0.2798607352297366,0.02604514977780416,0.0004488108587576439
-1566.9884899794909,14.0,0.023041857551311735,-0.2531685195570547,0.019275890747573063,0.0003323426012875465
-1564.9884899793908,14.0,0.023292600541423625,-0.25574667168735127,0.01413316207626178,0.0002438045323479574
-1562.9884899792908,14.0,0.02354918482231709,-0.24523966770750896,0.01026588719712756,0.00017718442039506285
-1560.9884899791907,14.0,0.023810155165971368,-0.22431986586593672,0.007387215752131512,0.00012756516130616022
-1558.9884899790907,16.0,0.0240740368826499,-0.18542673174987762,0.005266074592449224,9.098213446647507e-05
-1556.9884899789906,16.0,0.024347736672631553,-0.1910865561755361,0.0037188600766428132,6.428242434723966e-05
-1554.9884899788906,16.0,0.024628026641353922,-0.18185925351032992,0.0026016200043931146,4.4991965891887146e-05
-1552.9884899787905,16.0,0.024913478311979632,-0.16008798562373427,0.0018029495638993837,3.119454936231983e-05
-1550.9884899786905,18.0,0.025202600711647427,-0.14418318930742094,0.0012377228199149525,2.1424852642874833e-05
-1548.9884899785905,18.0,0.025502277668195843,-0.15117657962214487,0.000841700667084871,1.4576278243359999e-05
-1546.9884899784904,18.0,0.02580947573368348,-0.14483202605145873,0.0005669969042216284,9.823344755769172e-06
-1544.9884899783904,18.0,0.02612276385858158,-0.12822159602891375,0.0003783438617006758,6.557680745766021e-06
-1542.9884899782903,20.0,0.026440604072626762,-0.15550733118249685,0.00025007478195277904,4.336241853027633e-06
-1540.9884899781903,20.0,0.026770024654510623,-0.18016990272800293,0.00016372858250943677,2.8401629417801416e-06
-1538.9884899780902,20.0,0.027107850289098383,-0.1922782108759344,0.00010618048154648497,1.842611350033815e-06
-1536.9884899779902,20.0,0.027452605827851136,-0.19224861272469043,6.820632668532922e-05,1.1840748705709175e-06
-1534.9884899778901,22.0,0.027802669392579905,-0.19497416385175778,4.3396892043150057e-05,7.536570452771666e-07
-1532.98848997779,22.0,0.02816529995973065,-0.20505618801544256,2.7348961353169058e-05,4.7512930731071023e-07
-1530.98848997769,22.0,0.028537095898472784,-0.2025421368180086,1.7071260070597954e-05,2.9667958649985496e-07
-1528.98848997759,22.0,0.02891650954017778,-0.18978091616591058,1.0554245501753713e-05,1.8348294057792078e-07
-1526.98848997749,24.0,0.029301809757625658,-0.19461441163858284,6.462790552249111e-06,1.1239069643207804e-07
-1524.98848997739,24.0,0.029700853769171077,-0.2076010321958366,3.919572678354741e-06,6.818458757436682e-08
-1522.9884899772899,24.0,0.0301099952203216,-0.20930173942680774,2.3543860056877118e-06,4.0969237913551166e-08
-1520.9884899771898,24.0,0.03052756153767829,-0.20195136597788615,1.4006562423658978e-06,2.438035836080238e-08
-1518.9884899770898,26.0,0.030951660682222257,-0.21275030397777742,8.252682513478903e-07,1.436903606242188e-08
-1516.9884899769897,26.0,0.03139082178883104,-0.21479904766905902,4.81574223535763e-07,8.387170230215735e-09
-1514.9884899768897,26.0,0.03184095020239229,-0.2085948330043334,2.783112662229585e-07,4.8484015945452605e-09
-1512.9884899767897,26.0,0.032300215696252695,-0.1969448910588931,1.5929159093811648e-07,2.775697674458471e-09
-1510.9884899766896,28.0,0.032766536104720585,-0.22601651715313067,9.029102507963048e-08,1.5737344281827125e-09
-1508.9884899765896,28.0,0.03324932413693589,-0.23311934552556426,5.06852120063155e-08,8.83632775611686e-10
-1506.9884899764895,28.0,0.03374399749248271,-0.23416432465241002,2.817723010862593e-08,4.913475230164712e-10
-1504.9884899763895,28.0,0.03424813247972904,-0.23066023163822374,1.5512835791269025e-08,2.705689335839648e-10
-1502.9884899762894,30.0,0.03475908785624768,-0.259119687871469,8.457764675397006e-09,1.4754858043221289e-10
-1500.9884899761894,30.0,0.03528624257848055,-0.27065874134640266,4.56654001211468e-09,7.968121602560777e-11
-1498.9884899760893,30.0,0.03582466104134023,-0.2761757010143607,2.4416425838796042e-09,4.2612466411630596e-11
-1496.9884899759893,30.0,0.036371304043728625,-0.276443600640212,1.292814088891163e-09,2.256697265491104e-11
-1494.9884899758893,32.0,0.036922972815760804,-0.30255200569275337,6.778683474636657e-10,1.1834831493396766e-11
-1492.9884899757892,32.0,0.03748558584339263,-0.3129656562796063,3.519704316293935e-10,6.146096208722765e-12
-1490.9884899756892,32.0,0.038056673913864386,-0.31676843806594723,1.8097347523352254e-10,3.1606878197119364e-12
-1488.9884899755891,32.0,0.03863303168171983,-0.31436651082767253,9.214421715544159e-11,1.6095534966333506e-12
-1486.988489975489,34.0,0.039211317608471394,-0.3271744515861086,4.645818795191317e-11,8.116475854642538e-13
-1484.988489975389,34.0,0.0397919183559979,-0.3313451544555808,2.31949904658265e-11,4.0528887228952133e-13
-1482.988489975289,34.0,0.04037719274611594,-0.3279668455349855,1.1467287994461288e-11,2.003982319695597e-13
-1480.988489975189,34.0,0.04096387245768065,-0.31934747262497054,5.6138238606061835e-12,9.81187848992978e-14
-1478.988489975089,36.0,0.041548592143765106,-0.34038470951213506,2.7213565466159307e-12,4.7570383941342726e-14
-1476.9884899749889,36.0,0.042126505687640134,-0.3531868605114691,1.3062848141563505e-12,2.2837293108111007e-14
-1474.9884899748888,36.0,0.0427047708107667,-0.3595724645757662,6.208881193446479e-13,1.0856089753167694e-14
-1472.9884899747888,36.0,0.04328017021417268,-0.3604221732786532,2.9221952673073353e-13,5.109995404313395e-15
-1470.9884899746887,38.0,0.04384943227966327,-0.38068281280516314,1.361830319530139e-13,2.3816801130843093e-15
-1468.9884899745887,38.0,0.04440414945175023,-0.3933288594472384,6.284232065014671e-14,1.0991572592619688e-15
-1466.9884899744886,38.0,0.044954964470559126,-0.39971167063402113,2.871405572980908e-14,5.022818112500978e-16
-1464.9884899743886,38.0,0.04549881916108769,-0.40030915167463377,1.2991153756932829e-14,2.2727104633641764e-16
-1462.9884899742885,40.0,0.046032642570535354,-0.4275870944478696,5.819820684999328e-15,1.0182342951241805e-16
-1460.9884899741885,40.0,0.04654669898086187,-0.44830681263163497,2.5815355129741036e-15,4.5170642684253783e-17
-1458.9884899740885,40.0,0.047053052634172365,-0.46165185005238474,1.1338385720239595e-15,1.98411952084349e-17
-1456.9884899739884,40.0,0.04754893824533231,-0.46768711664104534,4.930909788168386e-16,8.629398972290261e-18
-1454.9884899738884,42.0,0.04803161366847264,-0.49565923849372673,2.1232628123118298e-16,3.7161449673558705e-18
-1452.9884899737883,42.0,0.048490144247372184,-0.5171885803466083,9.052729623466324e-17,1.5845371284040876e-18
-1450.9884899736883,42.0,0.04893726812195303,-0.5300919837291573,3.8216661902456863e-17,6.689724426833437e-19
-1448.9884899735882,42.0,0.0493706366247048,-0.5344606551171628,1.5974296038270578e-17,2.7964592852780214e-19
-1446.9884899734882,44.0,0.04978795563913659,-0.5562097799629615,6.611270459016014e-18,1.1574486441136942e-19
-1444.9884899733881,44.0,0.050178135292907856,-0.570382918227085,2.709198579770807e-18,4.743364204965957e-20
-1442.988489973288,44.0,0.05055442857812584,-0.5754199037675294,1.099228648262983e-18,1.9246924311315194e-20
-1440.988489973188,44.0,0.050914998621761604,-0.5719739288479175,4.41596014001753e-19,7.732590304437885e-21
-1438.988489973088,44.0,0.05125807184048234,-0.5959472212686949,1.7565108516468009e-19,3.075928128052664e-21
-1436.988489972988,44.0,0.051575780788131846,-0.6134053842654663,6.91773386427928e-20,1.2114727927034478e-21
-1434.988489972888,44.0,0.0518809837044233,-0.6216972087932636,2.6975094159549437e-20,4.724287007623123e-22
-1432.9884899727879,44.0,0.05217239694856611,-0.6212765877904693,1.0414706400498793e-20,1.8240758192132263e-22
-1430.9884899726878,42.0,0.05244875128589845,-0.6462295441984838,3.9812084806841766e-21,6.973204883756752e-23
-1428.9884899725878,42.0,0.052704221374752544,-0.6684487292038941,1.5068345432653174e-21,2.6393917821874463e-23
-1426.9884899724877,42.0,0.052950039171374176,-0.6815840090377296,5.646742029412161e-22,9.891364374374225e-24
-1424.9884899723877,42.0,0.05318540748198396,-0.6858816977253184,2.095130493604542e-22,3.670189585797554e-24
-1422.9884899722877,40.0,0.05340947908247462,-0.7020923049795151,7.696690391673396e-23,1.3483413255281303e-24
-1420.9884899721876,40.0,0.0536157046557668,-0.7131934576459351,2.799470285592868e-23,4.904439372209679e-25
-1418.9884899720876,40.0,0.05381367689344989,-0.715329914663638,1.0081513787285628e-23,1.7662665243441557e-25
-1416.9884899719875,40.0,0.0540030012401728,-0.7090990973800924,3.594618842727742e-24,6.297956379581817e-26
-1414.9884899718875,38.0,0.05418319645559879,-0.724610605173997,1.2689846294595005e-24,2.2234063129551505e-26
-1412.9884899717874,38.0,0.05434758270369451,-0.7368218399774507,4.435427984766681e-25,7.77164690908141e-27
-1410.9884899716874,38.0,0.05450456100694063,-0.7402665454843149,1.5349337233602982e-25,2.6895623908573178e-27
-1408.9884899715873,38.0,0.054654093219745035,-0.7353956732253448,5.25917895205257e-26,9.21560487060687e-28
-1406.9884899714873,36.0,0.05479602852276809,-0.7478687096324321,1.7841025893027703e-26,3.1263606834909267e-28
-1404.9884899713873,36.0,0.05492401390911936,-0.7574751942473215,5.992314645464251e-27,1.0500904453657626e-28
-1402.9884899712872,36.0,0.05504563244383475,-0.7594024148418251,1.9926989377446534e-27,3.492095641574558e-29
-1400.9884899711872,36.0,0.05516115545190071,-0.7536904038277539,6.560855493065585e-28,1.1497853690488797e-29
-1398.9884899710871,34.0,0.0552707191848771,-0.7661240847533557,2.1387025699556807e-28,3.748159853017845e-30
-1396.988489970987,34.0,0.05536817847817478,-0.7758483083581759,6.902571323395746e-29,1.2097331583647803e-30
-1394.988489970887,34.0,0.055460108930114986,-0.7780540411817836,2.2056748216402623e-29,3.865722855192502e-31
-1392.988489970787,34.0,0.05554705724675238,-0.7729324143404968,6.978171516423528e-30,1.2230409907225225e-31
-1390.988489970687,32.0,0.05562942019429675,-0.782101513293268,2.185802336204676e-30,3.83106936426266e-32
-1388.988489970587,32.0,0.05570255748762757,-0.7880808166184037,6.778736677146588e-31,1.1881390727658927e-32
-1386.9884899704869,32.0,0.05577289583828454,-0.7868563681390166,2.081396562115853e-31,3.648231388413059e-33
-1384.9884899703868,32.0,0.05584122876441453,-0.7786889900545078,6.327449236984217e-32,1.1090851712924285e-33
-1382.9884899702868,30.0,0.05590815772534051,-0.7878253471097687,1.9044512852298023e-32,3.3382161620198066e-34
-1380.9884899701867,30.0,0.05596993325258739,-0.7945324503802823,5.675159068102096e-33,9.947883015912426e-35
-1378.9884899700867,30.0,0.056032322224848226,-0.7941773417202792,1.6743752963889868e-33,2.935034290859295e-35
-1376.9884899699866,30.0,0.05609627040680045,-0.786881313634566,4.890956682631623e-34,8.573568839680163e-36
-1374.9884899698866,28.0,0.05616248889691354,-0.7942686735008907,1.4144927322168148e-34,2.4795662463787184e-36
-1372.9884899697865,28.0,0.05622667855178004,-0.7993505119222332,4.0501694082240086e-35,7.099946721692575e-37
-1370.9884899696865,28.0,0.05629295373564216,-0.7981155282266148,1.1481824520691222e-35,2.0127945812256185e-37
-1368.9884899695865,28.0,0.05636227268122457,-0.7907603597476414,3.2226531402271267e-36,5.64948052414131e-38
-1366.9884899694864,26.0,0.056435355240322095,-0.8055765085148299,8.955315142326272e-37,1.5699361533624829e-38
-1364.9884899693864,26.0,0.056508287745112754,-0.8197395538667316,2.4638402876595963e-37,4.319362046460106e-39
-1362.9884899692863,26.0,0.05658440250514549,-0.8277974206599699,6.711325936427826e-38,1.1765790372854657e-39
-1360.9884899691863,26.0,0.05666464910755938,-0.8297350056946359,1.8099557198099846e-38,3.173118096570742e-40
-1358.9884899690862,24.0,0.056749752641758786,-0.8373773633159969,4.8327147413995216e-39,8.472562000530261e-41
-1356.9884899689862,24.0,0.056836675367208905,-0.8411762040197278,1.2775494651783965e-39,2.2397855286229313e-41
-1354.9884899688861,24.0,0.05692823366684831,-0.8386975042482303,3.343700813554568e-40,5.862205652059779e-42
-1352.988489968786,24.0,0.05702541871286611,-0.8300532195884673,8.664430038091179e-41,1.5190721046512123e-42
-1350.988489968686,22.0,0.05712901623490079,-0.825397416799764,2.222876208805001e-41,3.897249819070304e-43
-1348.988489968586,22.0,0.05723678732133185,-0.8164964385921989,5.646158193333859e-42,9.899207397253478e-44
-1346.988489968486,22.0,0.05735082474835319,-0.80139464965635,1.419884754867043e-42,2.4894575892053767e-44
-1344.988489968386,22.0,0.05747217854432879,-0.780358668775202,3.535210284346449e-43,6.198277122697054e-45
-1342.9884899682859,20.0,0.05760172439419256,-0.7779559714081201,8.714436867376876e-44,1.5279143875007237e-45
-1340.9884899681858,20.0,0.05773786138625356,-0.7745647774552052,2.1267926460772384e-44,3.7289679969602626e-46
-1338.9884899680858,20.0,0.05788170579865138,-0.7654393440040572,5.1389282064564815e-45,9.010310027232336e-47
-1336.9884899679857,20.0,0.058034432325194306,-0.7507121703493379,1.2293664818890435e-45,2.1555202112685865e-47
-1334.9884899678857,18.0,0.05819708886729592,-0.7520979970519669,2.9117323260890245e-46,5.1053509411966414e-48
-1332.9884899677857,18.0,0.05836869663996146,-0.7526834443657613,6.827829080965507e-47,1.1971817680535187e-48
-1330.9884899676856,18.0,0.058549032902705266,-0.7482054515644971,1.5851662004038562e-47,2.779428081377369e-49
-1328.9884899675856,18.0,0.058739383969501256,-0.7387220618741621,3.6435757046263424e-48,6.388685467157852e-50
-1326.9884899674855,16.0,0.058940975562176395,-0.7395239189623493,8.291660087139841e-49,1.4538786665550937e-50
-1324.9884899673855,16.0,0.05915315812883672,-0.7383511646007594,1.868167245182526e-49,3.2757088022094036e-51
-1322.9884899672854,16.0,0.059374033975926485,-0.7320567301985921,4.167258719533126e-50,7.307061439951237e-52
-1320.9884899671854,16.0,0.05960500757908102,-0.7206891509455897,9.203340787329261e-51,1.6137656356886222e-52
-1318.9884899670853,14.0,0.059847525455616585,-0.7273323703230046,2.012337212012124e-51,3.5285663606885705e-53
-1316.9884899669853,14.0,0.06010078224636565,-0.7346109478565375,4.356283324855244e-52,7.638641563111038e-54
-1314.9884899668853,14.0,0.060360390773865624,-0.73770073217333,9.336658546678108e-53,1.637170411016207e-54
-1312.9884899667852,14.0,0.06062786834284245,-0.7363070038000437,1.9811927602257306e-53,3.4740131396416674e-55
-1310.9884899666852,12.0,0.0609049295928231,-0.7429437654460278,4.162188905297652e-54,7.29841821683752e-56
-1308.9884899665851,12.0,0.061191367910990606,-0.7481898770439904,8.657181977288533e-55,1.5180485546313206e-56
-1306.988489966485,12.0,0.06148048401055994,-0.7492351474126333,1.7827519470230967e-55,3.1260946183814696e-57
-1304.988489966385,12.0,0.06177387908520057,-0.7458538185928809,3.634668588919352e-56,6.373500573145253e-58
-1302.988489966285,10.0,0.06207348978195876,-0.7519374064257435,7.336656011976095e-57,1.2865104311202182e-58
-1300.988489966185,10.0,0.06238149316137206,-0.7580902095306616,1.4661920350679752e-57,2.5710344014361167e-59
-1298.988489966085,10.0,0.0626907144965415,-0.7613667572066611,2.9009673144575772e-58,5.086999331816912e-60
-1296.9884899659849,10.0,0.06300279948851144,-0.7615388292858835,5.682690721781077e-59,9.964938369196509e-61
-1294.9884899658848,8.0,0.06331978025220812,-0.7698048105644955,1.1021084629502463e-59,1.932620697156032e-61
-1292.9884899657848,8.0,0.06364603304635028,-0.7783640881014695,2.116185410507402e-60,3.7108862316941246e-62
-1290.9884899656847,8.0,0.06397366951312086,-0.7846255183119378,4.0229264115391746e-61,7.054522002370957e-63
-1288.9884899655847,8.0,0.06430425690493981,-0.7881401726046751,7.571630104276038e-62,1.32775033561603e-63
-1286.9884899654846,6.0,0.06463977539103336,-0.795674146698774,1.4108977972655025e-62,2.4741388074749122e-64
-1284.9884899653846,6.0,0.06498599850933681,-0.8028349887730215,2.602918235389262e-63,4.564471058330487e-65
-1282.9884899652845,6.0,0.06533317645695272,-0.8077421618903291,4.754274379447294e-64,8.337110390998213e-66
-1280.9884899651845,6.0,0.06568263928558887,-0.8097087139886815,8.597390386333556e-65,1.5076456855385655e-66
-1278.9884899650845,4.0,0.06603615062594435,-0.8076339438776882,1.5392447714729109e-65,2.6992407163754668e-67
-1276.9884899649844,4.0,0.06640165434619479,-0.8035458615724098,2.728395397922492e-66,4.784565256150599e-68
-1274.9884899648844,4.0,0.06676838147023494,-0.7976249347618847,4.788124787044115e-67,8.39656854207394e-69
-1272.9884899647843,4.0,0.06713706643686995,-0.7898191862376363,8.319210131411804e-68,1.4588802149972214e-69
-1270.9884899646843,2.0,0.06750886972624406,-0.7848892896510999,1.431057757131089e-68,2.5095498518690845e-70
-1268.9884899645842,2.0,0.0678942155272032,-0.7804773401143736,2.4371969103109625e-69,4.273959210491418e-71
-1266.9884899644842,2.0,0.06828238676289043,-0.775705208023717,4.1094379387215084e-70,7.206481728484391e-72
-1264.9884899643841,2.0,0.06867319889191836,-0.7705827209433924,6.8601366279674864e-71,1.203031170437225e-72
-1262.988489964284,0.0,0.06906687612101677,-0.7698022736768126,1.133835954080874e-71,1.988754951942444e-73
-1260.988489964184,0.0,0.06947566987682119,-0.770004801547878,1.856806475628564e-72,3.2816351563458237e-74
-1258.988489964084,0.0,0.06988915098495331,-0.7702057483932466,3.1012911099380095e-73,7.024423572790063e-75
-1256.988489963984,0.0,0.07030602827400093,-0.770405116176589,1.0725885072240009e-73,1.1667862489927176e-74
-1254.988489963884,3.0,0.07072539865860199,-0.7838388375095453,3.684642359707139e-73,6.626054699363804e-74
-1252.9884899637839,3.0,0.07116289038569121,-0.7850671163382115,2.1838454189819301e-72,4.000388908332463e-73
-1250.9884899636838,3.0,0.07160660897348689,-0.7850688918156616,1.3072264880926005e-71,2.3957529140333093e-72
-1248.9884899635838,3.0,0.07205416621370711,-0.7839486954903019,7.751111090975179e-71,1.4205634257954824e-71
-1246.9884899634837,6.0,0.07250353317948102,-0.8009141343424145,4.55030013074539e-70,8.33943932270285e-71
-1244.9884899633837,6.0,0.0729748755936805,-0.8017738919424107,2.6446812320074246e-69,4.846967939814855e-70
-1242.9884899632837,6.0,0.07345401744296103,-0.8017672572975397,1.5218213852892652e-68,2.7890769507436243e-69
-1240.9884899631836,6.0,0.0739376180270758,-0.8009954102261645,8.669840093471286e-68,1.5889414753411888e-68
-1238.9884899630836,9.0,0.07442266279261536,-0.8176096986280912,4.8900753073637694e-67,8.96215315351018e-68
-1236.9884899629835,9.0,0.07493173112038677,-0.8195194567798145,2.730719316343313e-66,5.004651911078829e-67
-1234.9884899628835,9.0,0.07544992197460691,-0.8202820960622832,1.5097173034073961e-65,2.7668935223281265e-66
-1232.9884899627834,9.0,0.07597318681329061,-0.8199579199221037,8.263637506527895e-65,1.5144957957410247e-65
-1230.9884899626834,12.0,0.07649777702018784,-0.8374081831318775,4.47820467253035e-64,8.207308396160144e-65
-1228.9884899625833,12.0,0.07704642541526102,-0.8377974103873344,2.4026675037820122e-63,4.403423831414351e-64
-1226.9884899624833,12.0,0.07760531212226209,-0.8365230113349988,1.276263842576885e-62,2.3390380111810056e-63
-1224.9884899623833,12.0,0.07816999329750277,-0.8337247398881651,6.7118819855122434e-62,1.2301020029663978e-62
-1222.9884899622832,15.0,0.07873628881653018,-0.8449673992205191,3.494662285344367e-61,6.404747708872531e-62
-1220.9884899621832,15.0,0.07932597890439554,-0.8424098319340043,1.8014539696419185e-60,3.3015660005517396e-61
-1218.9884899620831,15.0,0.0799273985657592,-0.8380514722571206,9.193866246987518e-60,1.6849809501770293e-60
-1216.988489961983,15.0,0.08053581801729251,-0.8320424021084007,4.64547629404546e-59,8.513870932732323e-60
-1214.988489961883,18.0,0.08114672737501087,-0.8398474034446091,2.3239103505845322e-58,4.259083790714488e-59
-1212.988489961783,18.0,0.08178156922953046,-0.8367516993402949,1.150974090933374e-57,2.1094166102378496e-58
-1210.988489961683,18.0,0.08243035971568681,-0.8316266732029719,5.643763155137164e-57,1.0343454155462696e-57
-1208.988489961583,18.0,0.0830882252979858,-0.8246664131737054,2.7398643880734803e-56,5.021412293750683e-57
-1206.9884899614829,21.0,0.08375045669070405,-0.8310997407008263,1.3168806321066667e-55,2.4134773327639757e-56
-1204.9884899613828,21.0,0.0844379431628416,-0.8275465912629203,6.266438883323866e-55,1.1484646241518967e-55
-1202.9884899612828,21.0,0.08514220596637512,-0.8222006343958846,2.95224408744244e-54,5.410645439010195e-55
-1200.9884899611827,21.0,0.08585844159007847,-0.8152709001229193,1.3770216544412192e-53,2.5236991635319582e-54
-1198.9884899610827,24.0,0.08658189205276909,-0.8199633795265302,6.358963517293133e-53,1.1654218259940924e-53
-1196.9884899609826,24.0,0.08733122770082259,-0.8194876671417997,2.907294000295833e-52,5.328264383515019e-53
-1194.9884899608826,24.0,0.08809939254894372,-0.8169456328295721,1.3159779907618063e-51,2.4118230412721563e-52
-1192.9884899607825,24.0,0.08888178057495977,-0.8125365617838327,5.897464767107638e-51,1.0808418917528409e-51
-1190.9884899606825,27.0,0.08967367786750545,-0.8124871579898173,2.616610857969534e-50,4.795522722717094e-51
-1188.9884899605825,27.0,0.09049254570842298,-0.8089989624694451,1.149396786629546e-49,2.1065258484699662e-50
-1186.9884899604824,27.0,0.0913324024314142,-0.8037623576626192,4.9987092097039354e-49,9.161248997488314e-50
-1184.9884899603824,27.0,0.09218875136885728,-0.7969702157601251,2.1523000859110144e-48,3.944569723333464e-49
-1182.9884899602823,30.0,0.09305684090757219,-0.7998022735302079,9.174973699109905e-48,1.6815184696036886e-48
-1180.9884899601823,30.0,0.09395354530299307,-0.8022225102067736,3.8722544552751187e-47,7.096769537532258e-48
-1178.9884899600822,30.0,0.09487299476615696,-0.8025258225384547,1.6180055368512047e-46,2.965355850993096e-47
-1176.9884899599822,30.0,0.09581067629393453,-0.8008306108420953,6.693498554661503e-46,1.2267328294380638e-46
-1174.9884899598821,33.0,0.09676169727238484,-0.8068633012421578,2.7414693806391092e-45,5.0243538004309074e-46
-1172.988489959782,33.0,0.09774262011908513,-0.8105447167465532,1.111656676070691e-44,2.0373586824041316e-45
-1170.988489959682,33.0,0.09874749582096808,-0.8121512591511213,4.4628780172268513e-44,8.179218883519271e-45
-1168.988489959582,33.0,0.09977171885703277,-0.8117646172253619,1.7738480208751547e-43,3.250971945195755e-44
-1166.988489959482,36.0,0.10081019390624098,-0.817330132296507,6.98031231158165e-43,1.2792978443813152e-43
-1164.988489959382,36.0,0.10188034955776448,-0.8207400421326374,2.719508094113153e-42,4.984104847005312e-43
-1162.9884899592819,36.0,0.10297612809530891,-0.8220719047581592,1.0489696250008394e-41,1.922470686388218e-42
-1160.9884899591818,36.0,0.10409266618688749,-0.8213927440868821,4.0058300900866214e-41,7.34157666656672e-42
-1158.9884899590818,39.0,0.10522450713008125,-0.8271851566349673,1.5145345728644263e-40,2.775722242530169e-41
-1156.9884899589817,39.0,0.10639016332656237,-0.8305775674083459,5.669214821905179e-40,1.0390100008798241e-40
-1154.9884899588817,39.0,0.10758287165644112,-0.8317938386270809,2.1009885780462114e-39,3.850529946209905e-40
-1152.9884899587817,39.0,0.10879741908324085,-0.8309161756663968,7.70870673648313e-39,1.4127923609647272e-39
-1150.9884899586816,42.0,0.11002791056015299,-0.8368242583730772,2.800247459551779e-38,5.1320777335350047e-39
-1148.9884899585816,42.0,0.11129459087394021,-0.843078386174049,1.0070901653690226e-37,1.8457172403540852e-38
-1146.9884899584815,42.0,0.112589904089792,-0.8472110820165595,3.5858932204664796e-37,6.571948735750603e-38
-1144.9884899583815,42.0,0.1139072373926488,-0.8492732834802064,1.2641057492380381e-36,2.3167555947132396e-37
-1142.9884899582814,45.0,0.11523936790577775,-0.8561528000145313,4.411908685059043e-36,8.085806219642263e-37
-1140.9884899581814,45.0,0.11660616232694936,-0.8626782364257628,1.5244973678264485e-35,2.7939812853208205e-36
-1138.9884899580813,45.0,0.11799946229993581,-0.8668079712481211,5.215355268534084e-35,9.558301197567189e-36
-1136.9884899579813,45.0,0.11941120336360662,-0.868569565895195,1.7664370771686432e-34,3.237389738719347e-35
-1134.9884899578813,48.0,0.12083284472875774,-0.877596552130949,5.9233787255116074e-34,1.0855912023346296e-34
-1132.9884899577812,48.0,0.12227551121681904,-0.8841082131609341,1.96651781754154e-33,3.6040822997908254e-34
-1130.9884899576812,48.0,0.12373678476580995,-0.8878784676740554,6.463731761131109e-33,1.1846229422935963e-33
-1128.9884899575811,48.0,0.12520825304602842,-0.8889026615616527,2.1034191337361104e-32,3.854984481359539e-33
-1126.988489957481,51.0,0.12668109328783145,-0.8950140466545538,6.776810945387275e-32,1.242001682335791e-32
-1124.988489957381,51.0,0.12815306815229102,-0.8979724378162534,2.161633067683127e-31,3.961674493048285e-32
-1122.988489957281,51.0,0.12963336770012374,-0.8977019947386873,6.8264613509620635e-31,1.2511012260222672e-31
-1120.988489957181,51.0,0.13111352223191275,-0.8942232792012852,2.1343535034447063e-30,3.9116786101019453e-31
-1118.988489957081,54.0,0.1325847579043046,-0.8983153686332164,6.60684505910823e-30,1.2108516445968816e-30
-1116.9884899569809,54.0,0.13403234141791068,-0.900939297547017,2.024785154478222e-29,3.7108701843633526e-30
-1114.9884899568808,54.0,0.1354770943577694,-0.9003083012426382,6.143570255421973e-29,1.1259462089577542e-29
-1112.9884899567808,54.0,0.1369107920346066,-0.8964544431199069,1.8455242890180986e-28,3.3823346854794896e-29
-1110.9884899566807,57.0,0.13832501344473588,-0.8997817800447134,5.488779152666448e-28,1.0059411420089085e-28
-1108.9884899565807,57.0,0.13969623046542237,-0.9017739630713596,1.6161765588552295e-27,2.9620038410783107e-28
-1106.9884899564806,57.0,0.14105338645121007,-0.9003704962753393,4.7114968517582354e-27,8.634868322815673e-28
-1104.9884899563806,57.0,0.1423887762053351,-0.8955959718863042,1.359834521637374e-26,2.492199911112302e-27
-1102.9884899562805,60.0,0.14369460744041765,-0.89908958597539,3.885709010636312e-26,7.121428009678447e-27
-1100.9884899561805,60.0,0.14494389300987054,-0.9006386506019999,1.099288138289113e-25,2.0146905795803254e-26
-1098.9884899560805,60.0,0.1461688387047664,-0.8984458321453315,3.079001243825884e-25,5.642956186270301e-26
-1096.9884899559804,60.0,0.1473626119651276,-0.8925716737071174,8.538178737940852e-25,1.564811596791595e-25
-1094.9884899558804,63.0,0.148518391866162,-0.8961011945079473,2.3441083126910623e-24,4.296101059040588e-25
-1092.9884899557803,63.0,0.14960590370066174,-0.8981642431768078,6.371580332815098e-24,1.1677341387072969e-24
-1090.9884899556803,63.0,0.15065869331149476,-0.8963531571691531,1.7146429822802737e-23,3.1424655132911608e-24
-1088.9884899555802,63.0,0.1516711283455332,-0.8907163934048081,4.5683282801483236e-23,8.372479998528487e-24
-1086.9884899554802,66.0,0.1526376806190714,-0.894940261040127,1.2050302755459536e-22,2.2084866193771426e-23
-1084.9884899553801,66.0,0.15352711860744137,-0.8979902454158538,3.146992205144665e-22,5.767564780227068e-23
-1082.98848995528,66.0,0.1543737865194288,-0.897077327935068,8.136739856530769e-22,1.4912389724282588e-22
-1080.98848995518,66.0,0.15517351442127217,-0.8922227850172058,2.0828704103742996e-21,3.817324364837337e-22
-1078.98848995508,66.0,0.1559222854004242,-0.8925771178732059,5.2787503679378134e-21,9.67448685000135e-22
-1076.98848995498,66.0,0.15659658373139573,-0.8923476776793551,1.324515528318773e-20,2.4274699821329976e-21
-1074.98848995488,66.0,0.15723067673036642,-0.8881833266352077,3.2903344072989563e-20,6.0302713211945806e-21
-1072.9884899547799,66.0,0.15782199676406508,-0.8801413318765643,8.09245100770963e-20,1.4831220535429812e-20
-1070.9884899546798,63.0,0.15836802360786473,-0.8789883551419451,1.9705033335194407e-19,3.6113866463181517e-20
-1068.9884899545798,63.0,0.15885042203399727,-0.8772337794152212,4.750412512238518e-19,8.706189946179856e-20
-1066.9884899544797,63.0,0.15930072295396905,-0.8717034166346302,1.1338158649753388e-18,2.077970336057392e-19
-1064.9884899543797,63.0,0.15971779655396176,-0.8624575767317426,2.679234890510625e-18,4.910295223230226e-19
-1062.9884899542797,60.0,0.16010039098616413,-0.859314431244567,6.268102734894529e-18,1.1487695620447455e-18
-1060.9884899541796,60.0,0.1604282828777731,-0.8553975340046113,1.451839061879899e-17,2.660818741834629e-18
-1058.9884899540796,60.0,0.16072886814181356,-0.8477695956543347,3.3293381181647565e-17,6.1017543165194476e-18
-1056.9884899539795,60.0,0.161002211943498,-0.8364918671087949,7.558826630275688e-17,1.3853234901996341e-17
-1054.9884899538795,57.0,0.16124815299995454,-0.8311264098554991,1.6990568909697521e-16,3.11390052633091e-17
-1052.9884899537794,57.0,0.16144605976404713,-0.8250200286981758,3.781103040381711e-16,6.929714249200866e-17
-1050.9884899536794,57.0,0.16162007171347542,-0.815310844609928,8.330789472291431e-16,1.526802890497333e-16
-1048.9884899535793,57.0,0.16177128485010217,-0.8020902148945717,1.8172340327660854e-15,3.33048648410296e-16
-1046.9884899534793,54.0,0.1619004908395179,-0.7983034718379353,3.924574871776315e-15,7.192658364649717e-16
-1044.9884899533793,54.0,0.16198795337713648,-0.7951361665072909,8.391342184728323e-15,1.5379005249632619e-15
-1042.9884899532792,54.0,0.16205546099953463,-0.7886161462569841,1.7763449221102375e-14,3.2555480733474636e-15
-1040.9884899531792,54.0,0.16210497279162037,-0.7787285211345271,3.722890148184087e-14,6.823026146750121e-15
-1038.9884899530791,51.0,0.1621380750045624,-0.7748862860996286,7.724852569684387e-14,1.4157514448406502e-14
-1036.988489952979,51.0,0.16213608521036396,-0.7707168059381813,1.5869280356419045e-13,2.9083994018671013e-14
-1034.988489952879,51.0,0.1621175072761243,-0.7632809454866525,3.2276119968149655e-13,5.915318521169522e-14
-1032.988489952779,51.0,0.1620850444245641,-0.7525853428217459,6.499238352561691e-13,1.191130316727704e-13
-1030.988489952679,48.0,0.16204097870391124,-0.7482576183551097,1.2956886761948949e-12,2.374638349197049e-13
-1028.988489952579,48.0,0.1619711626255533,-0.7438381243040357,2.5573838430784244e-12,4.686976014350447e-13
-1026.9884899524789,48.0,0.1618925556313172,-0.7362914406202552,4.997447335829031e-12,9.158936332300871e-13
-1024.9884899523788,48.0,0.16180849270582365,-0.7256115955230252,9.668466356547457e-12,1.7719620005944698e-12
-1022.9884899522788,45.0,0.16172177456259845,-0.7222402095402864,1.8519276236945117e-11,3.3940702237802556e-12
-1020.9884899521787,45.0,0.16162137781715336,-0.7191716239985803,3.511943208534108e-11,6.436418853083191e-12
-1018.9884899520787,45.0,0.16152139676961835,-0.7130209939951326,6.593682241942138e-11,1.208439264910284e-11
-1016.9884899519786,45.0,0.16142551985158485,-0.7037161806400132,1.2256475432812151e-10,2.2462723587444062e-11
-1014.9884899518786,42.0,0.16133679351573377,-0.7021174804504986,2.2555904085533413e-10,4.133872266262003e-11
-1012.9884899517785,42.0,0.16124342907236827,-0.7011790086455921,4.109717166591421e-10,7.531972893983588e-11
-1010.9884899516785,42.0,0.16115468191779214,-0.6973278944223891,7.413455499223686e-10,1.3586809896511222e-10
-1008.9884899515785,42.0,0.16107414866332215,-0.6904384346980199,1.3239954439186897e-09,2.426516811526549e-10
-1006.9884899514784,39.0,0.16100477038308914,-0.6914526750067771,2.341042787816478e-09,4.2904828013052623e-10
-1004.9884899513784,39.0,0.16093574664346424,-0.693244936219586,4.098163372761279e-09,7.510797991083036e-10
-1002.9884899512783,39.0,0.1608743433234862,-0.6920871801051651,7.102745255679113e-09,1.3017364108055234e-09
-1000.9884899511783,39.0,0.16082401327305607,-0.6877717079533123,1.2187658173817464e-08,2.2336600618788256e-09
-998.9884899510782,36.0,0.1607875891373199,-0.6887390577185573,2.0704814632387803e-08,3.7946188573225414e-09
-996.9884899509782,36.0,0.1607564164317448,-0.6896067336849321,3.482406649546253e-08,6.382286524102852e-09
-994.9884899508781,36.0,0.1607364771665039,-0.6874212437603635,5.798887392566396e-08,1.0627753902660607e-08
-992.9884899507781,36.0,0.16073128528112218,-0.6819997724157365,9.560198780998344e-08,1.752119553747706e-08
-990.9884899506781,33.0,0.16074379392705418,-0.6821039725157699,1.5604369471966147e-07,2.859848576587917e-08
-988.988489950578,33.0,0.16076732849049963,-0.682116731256157,2.521637081084807e-07,4.62146210391098e-08
-986.988489950478,33.0,0.16080594962504083,-0.6789162866994839,4.0343725005137143e-07,7.39388699668224e-08
-984.9884899503779,33.0,0.1608632836707682,-0.6722832078823755,6.39037674421097e-07,1.1711790001271714e-07
-982.9884899502779,30.0,0.1609424888780636,-0.6727452620384355,1.0021528957727581e-06,1.8366685931450618e-07
-980.9884899501778,30.0,0.16103868277987143,-0.6735155732704677,1.555960486514831e-06,2.8516444644435907e-07
-978.9884899500778,30.0,0.16115340079780832,-0.6708151111072884,2.3917743125865035e-06,4.383459630111029e-07
-976.9884899499777,30.0,0.16129057087685938,-0.6644128693339473,3.639979065002892e-06,6.671073103312457e-07
-974.9884899498777,27.0,0.1614537860628453,-0.6643599968190393,5.484469549792939e-06,1.0051513112076315e-06
-972.9884899497777,27.0,0.16163990615106655,-0.6644834539610798,8.181396271220665e-06,1.4994232559531943e-06
-970.9884899496776,27.0,0.16184677908744666,-0.6611125417221198,1.2083069753558713e-05,2.214491902259052e-06
-968.9884899495776,27.0,0.16207861354409078,-0.6539465665981257,1.7667869870453943e-05,3.238031026574495e-06
-966.9884899494775,24.0,0.16233946450274087,-0.6525469036813027,2.5576914773322318e-05,4.687539822701975e-06
-964.9884899493775,24.0,0.1626273110653847,-0.6508045018358752,3.6658034530906516e-05,6.718402051557828e-06
-962.9884899492774,24.0,0.16293550199882267,-0.6450442448510676,5.201723349619223e-05,9.533317667168947e-06
-960.9884899491774,24.0,0.1632685645586384,-0.6349237175184888,7.307728111606548e-05,1.339304088871732e-05
-958.9884899490773,21.0,0.16363114451579536,-0.6340159192045718,0.00010164231921654037,1.8628220925859162e-05
-956.9884899489773,21.0,0.16402153228670235,-0.6344584127215276,0.00013996640446150554,2.565196391231883e-05
-954.9884899488773,21.0,0.1644265620277963,-0.6312132899540948,0.00019082272872511874,3.4972519082271636e-05
-952.9884899487772,21.0,0.1648510832941278,-0.623768086909705,0.00025756891741792495,4.7205246144311584e-05
-950.9884899486772,18.0,0.16530045910844632,-0.6244413153504438,0.0003442023717215726,6.308275797971699e-05
-948.9884899485771,18.0,0.16577509298769666,-0.6263417265148477,0.0004553982103684921,8.346187431941897e-05
-946.9884899484771,18.0,0.16625542107223737,-0.6249469473276348,0.0005965211354522294,0.00010932579641827179
-944.988489948377,18.0,0.16674650874670036,-0.6199486008459993,0.0007736016854795362,0.0001417797548974534
-942.988489948277,15.0,0.1672542804749455,-0.6172108298379404,0.000993267061917634,0.00018203833216715636
-940.988489948177,15.0,0.16778531057902887,-0.6138624001041744,0.0012626172421978316,0.00023140275737266672
-938.9884899480769,15.0,0.1683183955158574,-0.607747291787963,0.001589038621014059,0.0002912267520077944
-936.9884899479769,15.0,0.16885866825761844,-0.5987280480416267,0.0019799500993078114,0.00036286999506088296
-934.9884899478768,12.0,0.16941224883594802,-0.5981457447949787,0.002442480427375451,0.0004476389889461779
-932.9884899477768,12.0,0.16999147858210156,-0.5995526482528141,0.0029830806481019627,0.0005467160310865438
-930.9884899476767,12.0,0.17057309537886117,-0.5986720317092986,0.003607081478268991,0.0006610780941707884
-928.9884899475767,12.0,0.17116196953278795,-0.5950189160810783,0.004318212053666601,0.0007914086254666967
-926.9884899474766,9.0,0.17176402811826544,-0.594525925737061,0.005118103138486189,0.0009380064988672445
-924.9884899473766,9.0,0.17239565684821886,-0.5943176683064824,0.006005804025030029,0.0011006974759925354
-922.9884899472765,9.0,0.1730287865372004,-0.5918837435691358,0.006977347210163415,0.0012787544234449159
-920.9884899471765,9.0,0.1736676239053821,-0.5866401714853796,0.00802539780259103,0.0014708330588765455
-918.9884899470765,6.0,0.17431748763367924,-0.5837839337010268,0.009139024834648136,0.0016749300387769487
-916.9884899469764,6.0,0.1750001561051974,-0.5814333814033237,0.010303628731704042,0.0018883696656242627
-914.9884899468764,6.0,0.17568509321709494,-0.5777499890050166,0.011501052889151304,0.0021078243368559137
-912.9884899467763,6.0,0.17637492321932888,-0.5726841979313737,0.012709897698522285,0.002329372097155112
-910.9884899466763,3.0,0.17707337146963528,-0.5678361771711418,0.013906042887699631,0.002548592368939045
-908.9884899465762,3.0,0.17780766391927405,-0.563009181171268,0.015063369493591243,0.0027606982699466182
-906.9884899464762,3.0,0.17854803458571644,-0.5577540249028972,0.01615465728397815,0.0029607010857984613
-904.9884899463761,3.0,0.17929470447648543,-0.5520830294660997,0.017152618331075047,0.003143599695393524
-902.9884899462761,0.0,0.1800489663005574,-0.5458998320951044,0.018031014155079215,0.0033045853123690855
-900.9884899461761,0.0,0.1808414357476852,-0.5395984201699799,0.018765793790509137,0.0034392500611284136
-898.988489946076,0.0,0.1816444117772763,-0.5332738939872496,0.019336184455727674,0.003543786866345365
-896.988489945976,0.0,0.1824552381276789,-0.5269319541540494,0.01972566603827748,0.003615168049126468
-894.9884899458759,4.0,0.18327229316927834,-0.4985518146144393,0.019922765679820497,0.0036512909524148993
-892.9884899457759,4.0,0.18413330129480002,-0.49623292616634096,0.019921619147797782,0.003651080824861904
-890.9884899456758,4.0,0.18500833085477034,-0.4932846694818336,0.019722260666758296,0.0036145439388790535
-888.9884899455758,4.0,0.18589187001448107,-0.489786010321404,0.019330621221306698,0.0035427672796155946
-886.9884899454757,8.0,0.18677938476146744,-0.4843747142907708,0.018758235448089834,0.0034378648263806693
-884.9884899453757,8.0,0.1877188496826686,-0.4832731071994641,0.01802167732930007,0.0033028741308976195
-882.9884899452757,8.0,0.1886758086749966,-0.481734852890965,0.0171417632090665,0.003141610252290385
-880.9884899451756,8.0,0.18964228769444066,-0.4798166391691,0.01614257559336183,0.002958486846653847
-878.9884899450756,12.0,0.1906112241674164,-0.48156569448212116,0.015050371539262416,0.0027583161050502643
-876.9884899449755,12.0,0.19163586574867406,-0.480318001026288,0.013892444446921037,0.002546100151514025
-874.9884899448755,12.0,0.19268105004060262,-0.47841633301896125,0.012696007537038877,0.0023268264154075566
-872.9884899447754,12.0,0.1937370100357113,-0.4759013190011939,0.011487161568213465,0.002105278442612485
-870.9884899446754,16.0,0.1947948377247547,-0.48584555673799107,0.010289999238774342,0.0018858717572003021
-868.9884899445753,16.0,0.195907485777879,-0.4839695531770819,0.00912588540423352,0.0016725219452339238
-866.9884899444753,16.0,0.1970431607773663,-0.4809065496074958,0.008012937114695423,0.0014685493600314508
-864.9884899443753,16.0,0.19819114555857567,-0.47674607560768767,0.006965711978591792,0.0012766220078732288
-862.9884899442752,20.0,0.19934149888376843,-0.4752390734587516,0.005995098830533643,0.0010987355104483596
-860.9884899441752,20.0,0.2005440092312458,-0.47596930809490345,0.0051083922336376325,0.0009362267590669008
-858.9884899440751,20.0,0.20177250718572917,-0.4754100340118077,0.004309522774517862,0.0007898161213511194
-856.9884899439751,20.0,0.20301563559402258,-0.47362238144151725,0.003599408845168987,0.0006596719131079042
-854.988489943875,24.0,0.2042627122383032,-0.4741910852466782,0.0029763927234506037,0.0005454903197991459
-852.988489943775,24.0,0.20556207124335724,-0.4718476560223867,0.0024367240171705197,0.0004465839984474971
-850.988489943675,24.0,0.20689239932851267,-0.4681500432621789,0.0019750564313092194,0.0003619731213047719
-848.9884899435749,24.0,0.2082420800505415,-0.4632074688474996,0.001584928697072615,0.0002904735168222946
-846.9884899434749,28.0,0.209600037301217,-0.4663803173036914,0.001259206637317198,0.00023077768799509868
-844.9884899433748,28.0,0.21101267443133867,-0.4652735479725101,0.0009904700200502358,0.0001815257118900278
-842.9884899432748,28.0,0.21246324050517504,-0.4625806248629597,0.000771334435249112,0.000141364230748535
-840.9884899431747,28.0,0.21394039764391262,-0.45850308856916344,0.0005947044129504059,0.00010899284151931036
-838.9884899430747,32.0,0.21543304314089862,-0.47698115460222024,0.0004539590277074504,8.319811201284041e-05
-836.9884899429746,32.0,0.21698119161905347,-0.47873671461323075,0.00034307510770851347,6.287616171903642e-05
-834.9884899428746,32.0,0.21857193852079362,-0.4787353364841666,0.00025669583063685935,4.704523352780991e-05
-832.9884899427745,32.0,0.22019454147304995,-0.4771695629545921,0.00019015400473121682,3.484996050241191e-05
-830.9884899426745,36.0,0.22183810482453967,-0.5000535392738159,0.00013945984976538892,2.5559126471545873e-05
-828.9884899425745,36.0,0.22353843419617078,-0.5026396009849889,0.00010126280772199147,1.8558666983969084e-05
-826.9884899424744,36.0,0.22528546754613038,-0.5036302615714479,7.279604621388592e-05,1.3341498323275636e-05
-824.9884899423744,36.0,0.22706885549636535,-0.5031824179438773,5.18110834684662e-05,9.495536078850688e-06
-822.9884899422743,40.0,0.2288777397585891,-0.5265413534500356,3.650855228867776e-05,6.691006098236478e-06
-820.9884899421743,40.0,0.23074534613950645,-0.5323732023449357,2.5469686794773115e-05,4.667887905181355e-06
-818.9884899420742,40.0,0.23266244712118125,-0.5363583978774457,1.7591774614620156e-05,3.224084874538534e-06
-816.9884899419742,40.0,0.23461880026346782,-0.5385812657700375,1.2029643446193472e-05,2.204700340392658e-06
-814.9884899418741,44.0,0.23660336249799774,-0.5580492352011811,8.144284071627104e-06,1.4926216180291265e-06
-812.9884899417741,44.0,0.23864746051230834,-0.5645691786434455,5.458962698559404e-06,1.000476612090534e-06
-810.9884899416741,44.0,0.2407423859392472,-0.5692609511896564,3.6226334698887087e-06,6.639283433382835e-07
-808.988489941574,44.0,0.24287784280299218,-0.5721877607307868,2.3801028206103312e-06,4.362069019119229e-07
-806.988489941474,48.0,0.2450424829488058,-0.5901279660343226,1.5481894294860656e-06,2.83740227002348e-07
-804.9884899413739,48.0,0.24726847436986063,-0.5961986598701241,9.97032997887971e-07,1.827285238883687e-07
-802.9884899412739,48.0,0.24954758966304866,-0.6004636879396329,6.35699721634583e-07,1.1650614575104193e-07
-800.9884899411738,48.0,0.25186909226054965,-0.6029730048821307,4.012837429604028e-07,7.354419178390427e-08
-798.9884899410738,52.0,0.2542209635628882,-0.6180269530938646,2.5078881612775515e-07,4.5962641432942184e-08
-796.9884899409737,52.0,0.2566367329440238,-0.622281206891663,1.5517502360682284e-07,2.8439282419019322e-08
-794.9884899408737,52.0,0.25910737248218557,-0.6245988468019967,9.50588443341591e-08,1.74216523871428e-08
-792.9884899407737,52.0,0.26162150323538264,-0.6250436669447326,5.765278552084805e-08,1.056615821000239e-08
-790.9884899406736,56.0,0.26416627362547407,-0.6375548269079225,3.4618250454956384e-08,6.3445661463882695e-09
-788.9884899405736,56.0,0.2667780571583913,-0.6430372447540416,2.0580076801503197e-08,3.771757869011358e-09
-786.9884899404735,56.0,0.26944687399373607,-0.646616573253468,1.211283836118904e-08,2.219947663243919e-09
-784.9884899403735,56.0,0.27215862426012727,-0.648331003368928,7.058329163868287e-09,1.293596171805736e-09
-782.9884899402734,60.0,0.27489786164533236,-0.6597253838311954,4.072067316241992e-09,7.462971149873389e-10
-780.9884899401734,60.0,0.27769972268417076,-0.6639857861183572,2.3258679008102942e-09,4.2626714379031827e-10
-778.9884899400734,60.0,0.28055340914636834,-0.6661991243228695,1.315261768744723e-09,2.4105104047572645e-10
-776.9884899399733,60.0,0.2834420001475092,-0.666401764683102,7.363705361754812e-10,1.3495631678717147e-10
-774.9884899398733,64.0,0.2863474852246553,-0.6766076146838025,4.081667889761104e-10,7.480566341119267e-11
-772.9884899397732,64.0,0.28928700407830554,-0.6815240245322649,2.2399379191936743e-10,4.1051855900744635e-11
-770.9884899396732,64.0,0.292260738627622,-0.6841612763441177,1.2170021739003398e-10,2.2304277920271215e-11
-768.9884899395731,64.0,0.29525116468530965,-0.6845200789523751,6.546418739020948e-11,1.1997771743467047e-11
-766.9884899394731,68.0,0.2982398168878458,-0.6920118590977432,3.486368298147944e-11,6.3895471283424805e-12
-764.988489939373,68.0,0.30121735197586447,-0.6956258070278545,1.838229796841764e-11,3.3689659023928675e-12
-762.988489939273,68.0,0.3042069435408454,-0.6966690129041686,9.59584875921968e-12,1.758653207007765e-12
-760.988489939173,68.0,0.30719110351480383,-0.6951374733734523,4.959341815669511e-12,9.089099471680439e-13
-758.9884899390729,72.0,0.3101516334940737,-0.7005442786143725,2.537591703224026e-12,4.650702505772021e-13
-756.9884899389729,72.0,0.3130546777749888,-0.7030130643561492,1.2855130924088933e-12,2.355989323449085e-13
-754.9884899388728,72.0,0.3159466601689387,-0.7028868042240101,6.447454970890575e-13,1.1816398576207847e-13
-752.9884899387728,72.0,0.3188107677072704,-0.7001789110956056,3.2015271304059793e-13,5.867512188331819e-14
-750.9884899386727,76.0,0.32162969793515495,-0.7042391495295802,1.5739216539905914e-13,2.88456230795694e-14
-748.9884899385727,76.0,0.32435183385574384,-0.7059998754112328,7.660658269939514e-14,1.4039864083195934e-14
-746.9884899384726,76.0,0.32703930394501873,-0.7050482232732675,3.691527634688711e-14,6.765547349116834e-15
-744.9884899383726,76.0,0.32967653284007303,-0.7013925628924713,1.7611778443926497e-14,3.2277510223355823e-15
-742.9884899382726,80.0,0.33224768565597856,-0.7017482529825255,8.318736310944277e-15,1.5245938803355606e-15
-740.9884899381725,80.0,0.33469387577913734,-0.7017306451285674,3.890169804102589e-15,7.129603418092313e-16
-738.9884899380725,80.0,0.3370835164587833,-0.6987701861102966,1.8010958118668673e-15,3.3009096238593183e-16
-736.9884899379724,80.0,0.33940301086339375,-0.692920865786036,8.255856645860055e-16,1.5130698537006844e-16
-734.9884899378724,84.0,0.3416387162303673,-0.6948877606295021,3.7466627958663675e-16,6.866596818392468e-17
-732.9884899377723,84.0,0.34372458024178787,-0.6957012554473425,1.6833895090336498e-16,3.085191871695725e-17
-730.9884899376723,84.0,0.34573129113383155,-0.6935389360305404,7.488323159610733e-17,1.3724161786906253e-17
-728.9884899375722,84.0,0.3476479181772987,-0.6884425736856687,3.2980617342379664e-17,6.044799541532563e-18
-726.9884899374722,88.0,0.34946369354074724,-0.6903771115220623,1.4384405778572046e-17,2.6372097904653774e-18
-724.9884899373722,88.0,0.3511096921468542,-0.6919121791858962,6.219931688888575e-18,1.1423646862322874e-18
-722.9884899372721,88.0,0.35265752106709375,-0.6904638296136754,2.684669996314943e-18,4.981677632184272e-19
-720.9884899371721,88.0,0.35409948199493824,-0.686057434818959,1.2020542685076863e-18,2.357147596603214e-19
-718.988489937072,88.0,0.3554281801836118,-0.6869327942385683,6.677010268318507e-19,1.606560748033551e-19
-716.988489936972,88.0,0.3565895740657222,-0.6870247352865324,6.8060034159979035e-19,2.1889561343254617e-19
-714.9884899368719,88.0,0.35765652454809127,-0.6841828617090265,1.2623971424490705e-18,4.606420741043192e-19
-712.9884899367719,88.0,0.358624903927392,-0.6784446768363223,2.8828098880721383e-18,1.0810776204483802e-18
-710.9884899366718,84.0,0.3594907025561026,-0.6757384879089898,6.8160015825853935e-18,2.5684456992199945e-18
-708.9884899365718,84.0,0.3602103482019066,-0.6729533983630647,1.60806321895414e-17,6.064581745928844e-18
-706.9884899364718,84.0,0.3608532787573336,-0.6673613777743375,3.761067698423292e-17,1.41863012900804e-17
-704.9884899363717,84.0,0.3614186110815154,-0.659016405468313,8.711114858437116e-17,3.285806153344301e-17
-702.9884899362717,80.0,0.3619052270732915,-0.6559759330833115,1.9976059834882926e-16,7.534939052965469e-17
-700.9884899361716,80.0,0.3622657386382909,-0.6539776409950981,4.535297169885179e-16,1.7107082579706233e-16
-698.9884899360716,80.0,0.3625611823278736,-0.6492442200887749,1.0194341797553266e-15,3.8452930432246643e-16
-696.9884899359715,80.0,0.3627933789225248,-0.641796784718181,2.268661841182157e-15,8.557364402523324e-16
-694.9884899358715,76.0,0.3629636833775748,-0.6396244489247259,4.998473689673884e-15,1.885418098860259e-15
-692.9884899357714,76.0,0.3630238945506531,-0.6386069555531677,1.090340419891366e-14,4.112750592118236e-15
-690.9884899356714,76.0,0.3630279661041753,-0.6349641335719947,2.354744923150179e-14,8.882068756854749e-15
-688.9884899355714,76.0,0.3629800151226327,-0.6287073580298761,5.034805310867423e-14,1.8991223427020348e-14
-686.9884899354713,72.0,0.36288351457213386,-0.6264265209771878,1.0658069532672288e-13,4.020210659572623e-14
-684.9884899353713,72.0,0.362692389120204,-0.6248428335684042,2.2337340889108363e-13,8.425617385367562e-14
-682.9884899352712,72.0,0.36245527787667375,-0.6207991959037773,4.634911541810766e-13,1.7482829070924062e-13
-680.9884899351712,72.0,0.3621781757177688,-0.614275528754564,9.521568213851475e-13,3.5915237662740157e-13
-678.9884899350711,68.0,0.3618662736252946,-0.611793055756574,1.936567198088981e-12,7.304707544714297e-13
-676.9884899349711,68.0,0.3614768155864607,-0.6100714102378969,3.8995430115370154e-12,1.470902806028192e-12
-674.988489934871,68.0,0.3610503386028398,-0.6059406408906669,7.77413205716937e-12,2.932393006948015e-12
-672.988489934771,68.0,0.36059441839803874,-0.5993865867093686,1.5344303058470546e-11,5.78785215561843e-12
-670.988489934671,64.0,0.3601157090284267,-0.5973298127297497,2.998468401497419e-11,1.1310185764077591e-11
-668.9884899345709,64.0,0.3595822839656887,-0.5963244030372021,5.801079813928474e-11,2.1881601385229136e-11
-666.9884899344709,64.0,0.3590293344157854,-0.5929731218489658,1.111156574216707e-10,4.191268869497154e-11
-664.9884899343708,64.0,0.3584657229740781,-0.5872490608472152,2.1071659251204648e-10,7.948203835313082e-11
-662.9884899342708,60.0,0.3578991468587092,-0.5845484176014238,3.956209345165283e-10,1.4922772770609646e-10
-660.9884899341707,60.0,0.3573058175575895,-0.5823359173885513,7.35388525968729e-10,2.7738764341568077e-10
-658.9884899340707,60.0,0.35671281911396374,-0.5779366372064816,1.3533542451320047e-09,5.10483549181372e-10
-656.9884899339706,60.0,0.35612967125890005,-0.5713055573405106,2.4658302999548525e-09,9.301081425854925e-10
-654.9884899338706,56.0,0.35556450587757943,-0.5675771944425962,4.448073299534212e-09,1.6778077529461933e-09
-652.9884899337706,56.0,0.35499311075637807,-0.5644135075937695,7.943972663512138e-09,2.9964566738207754e-09
-650.9884899336705,56.0,0.3544314213808704,-0.5592353337742528,1.4046256726898868e-08,5.298230683098544e-09
-648.9884899335705,56.0,0.3538885354259133,-0.551973943434526,2.4588980236567673e-08,9.2749329653075e-09
-646.9884899334704,52.0,0.3533721234737865,-0.5486220589426503,4.261647153407468e-08,1.6074880409585142e-08
-644.9884899333704,52.0,0.3528599372630092,-0.5463197213992,7.312594904290478e-08,2.7583017631157685e-08
-642.9884899332703,52.0,0.3523638562108309,-0.5419794538452685,1.2422888779432683e-07,4.685898299001291e-08
-640.9884899331703,52.0,0.3518924520464733,-0.5355050015635042,2.0894439897277518e-07,7.881356913968015e-08
-638.9884899330702,48.0,0.35145293830438534,-0.5351243403338848,3.4793324355398377e-07,1.3123998959363374e-07
-636.9884899329702,48.0,0.3510272624248954,-0.5370544474717112,5.736119268599006e-07,2.163657101084028e-07
-634.9884899328702,48.0,0.35062486455003716,-0.5370498358002496,9.362621683179688e-07,3.531569331284622e-07
-632.9884899327701,48.0,0.35025435818073714,-0.5349699364653211,1.512982248650884e-06,5.706950348867321e-07
-630.9884899326701,44.0,0.3499231373621241,-0.5356469870913324,2.420623500308229e-06,9.130561936122296e-07
-628.98848993257,44.0,0.3496170480243418,-0.5368809196221812,3.834226046526582e-06,1.4462653275260065e-06
-626.98848993247,44.0,0.3493416323673795,-0.5360313868954222,6.012917374636549e-06,2.268065004694619e-06
-624.9884899323699,44.0,0.34910566343173677,-0.5329175502643051,9.335762919088987e-06,3.5214382386538754e-06
-622.9884899322699,40.0,0.3489169049533778,-0.5337755551238595,1.4350645875519022e-05,5.413045893882292e-06
-620.9884899321698,40.0,0.34876500991624293,-0.5357756161633209,2.183987439001735e-05,8.237973636535908e-06
-618.9884899320698,40.0,0.34865042715855044,-0.535503262901896,3.2906817298757636e-05,1.2412410828396426e-05
-616.9884899319698,40.0,0.3485825081619011,-0.5327580929531367,4.9088377627323984e-05,1.8516075391855438e-05
-614.9884899318697,36.0,0.3485698862290495,-0.5308593599802196,7.249841852135228e-05,2.7346313893748185e-05
-612.9884899317697,36.0,0.3486059109296701,-0.5285206633740042,0.00010600721922272366,3.998579211785413e-05
-610.9884899316696,36.0,0.3486832335737913,-0.5238232118827214,0.0001534614886399339,5.788548391181136e-05
-608.9884899315696,36.0,0.348811760002742,-0.5165535907672592,0.00021994820718543908,8.29641920021842e-05
-606.9884899314695,32.0,0.3490010679415999,-0.5112074518604431,0.0003121034009771534,0.00011772501724177463
-604.9884899313695,32.0,0.34924709101864315,-0.5057027388101183,0.00043846368669639283,0.0001653879608957016
-602.9884899312694,32.0,0.3495330666511575,-0.49741154877296123,0.0006098539152992423,0.0002300361433703909
-600.9884899311694,32.0,0.3498695628314472,-0.48613274429247066,0.0008397984267690332,0.00031677092899810085
-598.9884899310694,28.0,0.35026739353091996,-0.47892478068541755,0.0011449363723507124,0.00043186858507059095
-596.9884899309693,28.0,0.35072398195803056,-0.47283981401278297,0.0015454135045075497,0.0005829280645267322
-594.9884899308693,28.0,0.3512090872957501,-0.46391762604778297,0.0020652142303294358,0.0007789962560878616
-592.9884899307692,28.0,0.3517339725851448,-0.4518850347806983,0.0027323892622109526,0.0010306538538122857
-590.9884899306692,24.0,0.3523109575246837,-0.4429987340330006,0.003579126812713377,0.0013500422117092663
-588.9884899305691,24.0,0.35294249919216253,-0.4350018916196144,0.004641610112877217,0.001750809599822547
-586.9884899304691,24.0,0.3535846705768367,-0.4245663031390394,0.005959602371505803,0.0022479546513849103
-584.988489930369,24.0,0.3542491713445382,-0.4116876509631903,0.007575703453186989,0.0028575459826863446
-582.988489930269,20.0,0.3549494597488334,-0.40118239094418773,0.009534231726084355,0.003596300427442374
-580.988489930169,20.0,0.35570072014886533,-0.3914136157998729,0.011879700595846868,0.004481008387267042
-578.9884899300689,20.0,0.35645518757475525,-0.3800157804635571,0.014654882564252705,0.005527803596985231
-576.9884899299689,20.0,0.35722463418679135,-0.36711142136290187,0.017898483888611774,0.006751286009032279
-574.9884899298688,16.0,0.3580228518176202,-0.35445496727241316,0.021642488869613945,0.008163520062111487
-572.9884899297688,16.0,0.35887702585259595,-0.3408174678421887,0.025909272321999605,0.009772945508698627
-570.9884899296687,16.0,0.35973492297686915,-0.32525113193379246,0.030708618830917134,0.011583253082222718
-568.9884899295687,16.0,0.3606076904384488,-0.3078966585172226,0.036034824150180174,0.013592291148069919
-566.9884899294686,12.0,0.36150864165614804,-0.29048213027053066,0.04186408326098049,0.015791080482557094
-564.9884899293686,12.0,0.3624738679634614,-0.2719945390583773,0.04815238681554618,0.018163020814078664
-562.9884899292686,12.0,0.3634412407349074,-0.2516643700700467,0.05483414900788881,0.020683373257647696
-560.9884899291685,12.0,0.3644204663334081,-0.22978640011358764,0.06182177239022425,0.02331909616418752
-558.9884899290685,8.0,0.36542353410736306,-0.2123707959992036,0.06900631733490782,0.026029097640746544
-556.9884899289684,8.0,0.3664974182553259,-0.1976957874941403,0.0762593861911337,0.028764946252077362
-554.9884899288684,8.0,0.36757512528894304,-0.18295621104820822,0.08343625732619779,0.03147205317712898
-552.9884899287683,8.0,0.368663029912312,-0.1682838007508028,0.09038021696154745,0.034091306172252756
-550.9884899286683,4.0,0.36976977832347746,-0.1550195331062506,0.0969279437038689,0.036561100609675906
-548.9884899285682,4.0,0.3709524056711356,-0.14262634132080126,0.10291570998645028,0.03881967865352174
-546.9884899284682,4.0,0.37214633172325884,-0.13043502533667078,0.1081860849304753,0.04080765757080813
-544.9884899283682,4.0,0.3733529208711579,-0.11845740236604269,0.11259476274305483,0.04247060539474853
-542.9884899282681,0.0,0.37457576721812824,-0.1067564324163559,0.11601710673436605,0.04376150931993161
-540.9884899281681,0.0,0.37587725866184685,-0.09532332493430898,0.11835399622966489,0.044642981150308486
-538.988489928068,0.0,0.3771987644902093,-0.08412613280988057,0.11953659407892298,0.04508905559793742
-536.988489927968,0.0,0.37853567181496145,-0.07315937684963547,0.1195297148867867,0.045086460775162915
-534.9884899278679,5.0,0.37988554067377545,-0.09841825221687106,0.11833356400054978,0.04463527413873048
-532.9884899277679,5.0,0.3813234654836594,-0.09166966302580823,0.11598372732784018,0.04374891864903064
-530.9884899276678,5.0,0.38278815560951657,-0.08553037484060258,0.112549412688539,0.042453499410215596
-528.9884899275678,5.0,0.38426906092352603,-0.07995931669021414,0.10813006397580041,0.0407865265359192
-526.9884899274678,10.0,0.385757707770894,-0.09552238093962712,0.102850579254399,0.03879511142186166
-524.9884899273677,10.0,0.38734860532353754,-0.09253738899196193,0.09685545356017099,0.03653375741703534
-522.9884899272677,10.0,0.3889727965482961,-0.08983488107675855,0.09030222923557449,0.034061889298370354
-520.9884899271676,10.0,0.3906146319047232,-0.0873599119130817,0.08335466668152622,0.03144127728676491
-518.9884899270676,15.0,0.39226042376155645,-0.10001574575142742,0.07617604522223326,0.0287335101415767
-516.9884899269675,15.0,0.39401448121676147,-0.09398924559081778,0.06892296940928079,0.025997658906177203
-514.9884899268675,15.0,0.3958077964680519,-0.08825383745535892,0.06173999543264605,0.023288249996825255
-512.9884899267674,15.0,0.39762105064279224,-0.08281031847416764,0.05475531242540112,0.020653636196136707
-510.98848992666746,20.0,0.3994367953272629,-0.08956798424845072,0.04807762268817253,0.018134819877605134
-508.98848992656747,20.0,0.4013579961082932,-0.08658490860085369,0.041794271871550756,0.01576474771271685
-506.9884899264675,20.0,0.4033232441803745,-0.08356255050020933,0.035970592983201856,0.013568063231243932
-504.9884899263675,20.0,0.4053113374656989,-0.08050747954601992,0.030650353401825793,0.011561275434356973
-502.9884899262675,25.0,0.4073027829341017,-0.09180390866246946,0.02585713664710717,0.009753279996543338
-500.9884899261675,25.0,0.4093932787637178,-0.08949503045341214,0.021596453071013922,0.008146155415757238
-498.98848992606753,25.0,0.4115329928717661,-0.08709301532020822,0.017858356340703624,0.006736149947539301
-496.98848992596754,25.0,0.4136995136318512,-0.08460015163903403,0.014620344103023118,0.005514775732082037
-494.98848992586755,30.0,0.4158719417436908,-0.09298699131568378,0.011850338587855317,0.004469933074129677
-492.98848992576757,30.0,0.418142427671331,-0.08807813833040269,0.009509572182435689,0.003586998878045205
-490.9884899256676,30.0,0.42047169526941647,-0.08291280796034046,0.007555239823903189,0.002849827127003509
-488.9884899255676,30.0,0.4228369239675904,-0.0775444624923279,0.005942820120301414,0.0022416244069652503
-486.9884899254676,35.0,0.4252165348600768,-0.06769734295269607,0.004628006611494671,0.0017456783759083102
-484.9884899253676,35.0,0.42769827491041307,-0.05840552497504713,0.0035682264777024356,0.00134593061881061
-482.98848992526763,35.0,0.43025300608899153,-0.04892657502130854,0.0027237541662447026,0.0010273967062825618
-480.98848992516764,35.0,0.4328585882784665,-0.03941088370171793,0.0020584506462510807,0.0007764450405299806
-478.98848992506765,40.0,0.43549348921490244,-0.030823735280356576,0.0015401749838211561,0.0005809521009960682
-476.98848992496767,40.0,0.43823165502790984,-0.026295741070584813,0.001140924028387301,0.0004303551338848824
-474.9884899248677,40.0,0.4410519418775638,-0.021662709288126886,0.0008367590985923336,0.0003156244981649694
-472.9884899247677,40.0,0.44393352459901114,-0.01700785099512364,0.0006075768463319488,0.00022917723576926883
-470.9884899246677,45.0,0.44685538746281467,-0.013412867356190877,0.0004367762772833155,0.00016475147214989967
-468.9884899245677,45.0,0.4498816572551882,-0.008446740682450868,0.00031086650081079716,0.00011725846002722734
-466.98848992446773,45.0,0.45299696094059794,-0.0035010743641031017,0.00021905131373206656,8.262588489969272e-05
-464.98848992436774,45.0,0.4561813960278263,0.0013470283616039969,0.00015281812076863867,5.7642806345646105e-05
-462.98848992426775,50.0,0.45941415951565984,0.005174018573608746,0.00010555064768772094,3.9813573898949705e-05
-460.98848992416777,50.0,0.46275298256127945,0.006906123382664539,7.217786067716083e-05,2.7225399870971527e-05
-458.9884899240678,50.0,0.4661847122082334,0.008724499327760954,4.886570442976262e-05,1.8432083336850207e-05
-456.9884899239678,50.0,0.46968982054277253,0.010593348698425334,3.2753776191356424e-05,1.2354683911768476e-05
-454.9884899238678,55.0,0.4732473087206831,0.0071344798700913176,2.1735800819332252e-05,8.198717214257404e-06
-452.9884899237678,55.0,0.47690990694044316,0.008236317176196516,1.4280616923661987e-05,5.386631059763275e-06
-450.9884899236678,55.0,0.4806662476651778,0.009418867500470884,9.289136576916394e-06,3.5038508399936756e-06
-448.98848992356784,55.0,0.4844968858606075,0.010662083521826522,5.982197987327826e-06,2.2564776897558725e-06
-446.98848992346785,60.0,0.4883804212643445,0.006012072870654153,3.8141983298074977e-06,1.438710897524008e-06
-444.98848992336787,60.0,0.4923698885174336,0.003579178722075825,2.4077024577624166e-06,9.081823923280239e-07
-442.9884899232679,60.0,0.4964556639520586,0.0012625098962941103,1.504732896766531e-06,5.675833895481091e-07
-440.9884899231679,60.0,0.5006176291706296,-0.0009245927562723313,9.310501416409371e-07,3.511909631053958e-07
-438.9884899230679,65.0,0.5048332764788881,-0.0029033205218143704,5.703530660049546e-07,2.1513647182027165e-07
-436.9884899229679,65.0,0.5091569930048163,-0.0039012593405672105,3.459167131250883e-07,1.3047935680729747e-07
-434.9884899228679,65.0,0.5135785713979398,-0.004783570595533172,2.077095027297383e-07,7.834776780253304e-08
-432.98848992276794,65.0,0.5180768408451194,-0.005550924063393352,1.2348046080901919e-07,4.657667725584374e-08
-430.98848992266795,70.0,0.5226278886116953,-0.0030297994311074203,7.267703016713424e-08,2.7413685985860703e-08
-428.98848992256796,70.0,0.5272903009085823,-0.0009545591391671646,4.234997498320972e-08,1.597435823985798e-08
-426.988489922468,70.0,0.5320530587281234,0.0011716884416350243,2.4432403897451954e-08,9.215872563644651e-09
-424.988489922368,70.0,0.5368903087560137,0.003319131275298523,1.3955207404861765e-08,5.263886991318478e-09
-422.988489922268,75.0,0.5417736547546042,0.008761315144483427,7.891570612468337e-09,2.976690684910301e-09
-420.988489922168,75.0,0.5467588431186234,0.01358162319959682,4.418223217052887e-09,1.6665483387143066e-09
-418.988489922068,75.0,0.5518339218729293,0.01838828973267778,2.4490007338566625e-09,9.237600510463489e-10
-416.98848992196804,75.0,0.5569681843626866,0.02311693945898031,1.3439627515162045e-09,5.069410893927745e-10
-414.98848992186805,80.0,0.5621288200104969,0.03773348531222483,7.302013043402039e-10,2.754310298262642e-10
-412.98848992176806,80.0,0.5673391624219598,0.04346992245370612,3.927851243412569e-10,1.4815806361165533e-10
-410.9884899216681,80.0,0.5726058709482322,0.049060646094946356,2.0918209788887666e-10,7.890322887715429e-11
-408.9884899215681,80.0,0.5778973031897136,0.054430751239080304,1.1029378781050585e-10,4.160268049306811e-11
-406.9884899214681,85.0,0.5831799985108779,0.069683094714861,5.757509255531808e-11,2.1717253777275424e-11
-404.9884899213681,85.0,0.5884310074954914,0.0775010671238264,2.975605089401707e-11,1.1223945633331025e-11
-402.9884899212681,85.0,0.5936971998922207,0.08501852854324717,1.5225550219344154e-11,5.7430587314202504e-12
-400.98848992116814,85.0,0.5989472007398062,0.0921302832679031,7.713078554453353e-12,2.9093637011557342e-12
-398.98848992106815,90.0,0.60414824895274,0.10861150170874054,3.868472982534325e-12,1.4591832294757025e-12
-396.98848992096816,90.0,0.6092349202835566,0.11628819678947672,1.92091627824353e-12,7.245672468425909e-13
-394.9884899208682,90.0,0.6142950806629127,0.12347419307806522,9.443529923941876e-13,3.5620878197372034e-13
-392.9884899207682,90.0,0.6192987912763418,0.1300715038671708,4.596394961958888e-13,1.7337545007599377e-13
-390.9884899206682,95.0,0.6242151227141584,0.14138466374814224,2.2149165807994616e-13,8.354637977265047e-14
-388.9884899205682,95.0,0.6289471408107847,0.14858770114967756,1.0567067065966797e-13,3.9858846415699076e-14
-386.9884899204682,95.0,0.6336096763224245,0.15513010827925755,4.9912417854776815e-14,1.8826902347601277e-14
-384.98848992036824,95.0,0.6381752330402489,0.16091462509376767,2.3341018794448187e-14,8.80420345138469e-15
-382.98848992026825,100.0,0.6426157440677496,0.16961228476938928,1.0806574788458705e-14,4.076226659085872e-15
-380.98848992016826,100.0,0.6468209936753981,0.17569288758003676,4.953513762840849e-15,1.8684592726810047e-15
-378.9884899200683,100.0,0.6509166116855608,0.18090074641060094,2.2479970735497332e-15,8.479417228288867e-16
-376.9884899199683,100.0,0.6548788907910096,0.1851570125303661,1.010032098077924e-15,3.809828709974624e-16
-374.9884899198683,105.0,0.658683950021533,0.1934924007564475,4.492951547796148e-16,1.6947360918366688e-16
-372.9884899197683,105.0,0.6622081425630354,0.19983175397703484,1.9787265851944533e-16,7.4637409925254e-17
-370.9884899196683,105.0,0.6655806064087127,0.20515912175031176,8.627791336916903e-17,3.254416044790558e-17
-368.98848991956834,105.0,0.6687826721668686,0.20939500514761297,3.7246681516566535e-17,1.4050043055368863e-17
-366.98848991946835,110.0,0.6717958957891735,0.21324349896367784,1.5923512641862876e-17,6.008036596035277e-18
-364.98848991936836,110.0,0.6744902390447651,0.21493239461036534,6.750080887185466e-18,2.5506256773584945e-18
-362.9884899192684,110.0,0.6769955692916576,0.2154812381019116,2.8597643800457302e-18,1.0904607060623621e-18
-360.9884899191684,110.0,0.6792993052616687,0.21489109940596607,1.2687742390872977e-18,5.089891544106504e-19
-358.9884899190684,110.0,0.6813893966242721,0.21082076573730665,7.325981736797271e-19,3.5417732321513765e-19
-356.9884899189684,110.0,0.6831610486986202,0.21040862771134822,8.341030788946431e-19,5.1190306022204145e-19
-354.9884899188684,110.0,0.6847482517945269,0.20888265091379,1.6813021456658781e-18,1.1291904389471664e-18
-352.98848991876844,110.0,0.6861451855251416,0.20627393756890805,4.012641711697631e-18,2.7432456626213482e-18
-350.98848991866845,105.0,0.6873462715829174,0.20678018775568036,9.80422916852316e-18,6.722499153995313e-18
-348.98848991856846,105.0,0.6882651548301413,0.2091173483898841,2.3847919565048653e-17,1.6359680998547226e-17
-346.9884899184685,105.0,0.6890326520095721,0.2104089370464704,5.748185895174934e-17,3.943559335101175e-17
-344.9884899183685,105.0,0.6896491371966907,0.21063879400223287,1.3719243469387616e-16,9.412241713709297e-17
-342.9884899182685,100.0,0.6901145893804763,0.2130000876410056,3.2418769279263655e-16,2.2241306112026087e-16
-340.9884899181685,100.0,0.6903359865766164,0.21656632503721157,7.584405326410234e-16,5.203378709316619e-16
-338.9884899180685,100.0,0.6904292316574001,0.21909166474031622,1.7567253026688323e-15,1.2052240232434822e-15
-336.98848991796854,100.0,0.6903998705433512,0.2205341270808845,4.028499136882248e-15,2.763803748652188e-15
-334.98848991786855,95.0,0.6902526187964032,0.22344370986141504,9.146180227696987e-15,6.274854821415046e-15
-332.98848991776856,95.0,0.6898931276751432,0.22710325827572658,2.0558588382559735e-14,1.4104484522416765e-14
-330.9884899176686,95.0,0.6894240422835183,0.22967984129585253,4.575134678927046e-14,3.138830111692242e-14
-328.9884899175686,95.0,0.6888552562597715,0.23113004678682936,1.0080255261495667e-13,6.915689038451943e-14
-326.9884899174686,90.0,0.6881954886446796,0.233592547041299,2.1988531796477693e-13,1.5085515631488209e-13
-324.9884899173686,90.0,0.6873547138294821,0.23653128947390953,4.748735594849621e-13,3.257931257483675e-13
-322.9884899172686,90.0,0.6864253522875889,0.2383970764019371,1.0153524043521366e-12,6.965956030670215e-13
-320.98848991716864,90.0,0.6854207965924438,0.239140965163343,2.1493773557533905e-12,1.474608036512193e-12
-318.98848991706865,85.0,0.6843529518513993,0.24187904402709132,4.504697079302747e-12,3.090505488676501e-12
-316.98848991696866,85.0,0.6831395216078558,0.2457885329384214,9.347071609318109e-12,6.412678944467709e-12
-314.9884899168687,85.0,0.6818564235817179,0.24860010865577384,1.9201829231267044e-11,1.3173662421057858e-11
-312.9884899167687,85.0,0.6805199445420833,0.25025458654684685,3.905410516146108e-11,2.679357218299941e-11
-310.9884899166687,80.0,0.6791446464013537,0.24970595958843808,7.864078406599646e-11,5.3952523446349955e-11
-308.9884899165687,80.0,0.6776699623989013,0.24730298286258404,1.5677832981958227e-10,1.0755979376263636e-10
-306.9884899164687,80.0,0.6761590645901518,0.24378227303588162,3.0944344501248935e-10,2.122976636187241e-10
-304.98848991636874,80.0,0.6746305211332703,0.23916896432890072,6.046911276353128e-10,4.148561414922436e-10
-302.98848991626875,75.0,0.6731007216186938,0.23843729451995355,1.1698844291422422e-09,8.026142903133678e-10
-300.98848991616876,75.0,0.6715262611753495,0.2403022419412853,2.2408324246703594e-09,1.5373519652335737e-09
-298.9884899160688,75.0,0.6699525393247713,0.2411844991280795,4.249451282326271e-09,2.9153908200028188e-09
-296.9884899159688,75.0,0.6683991990319083,0.241037520824968,7.978355512749988e-09,5.473653626135229e-09
-294.9884899158688,70.0,0.6668833026294538,0.24266999922922203,1.4830335273702703e-08,1.0174542650797988e-08
-292.9884899157688,70.0,0.6653623376438943,0.24548687335549732,2.729264394349543e-08,1.8724470130391498e-08
-290.9884899156688,70.0,0.6638599424107737,0.24741149737132337,4.9727577715756196e-08,3.411624559068452e-08
-288.98848991556883,70.0,0.66239466190093,0.24837279682740793,8.970281154060661e-08,6.154176996488934e-08
-286.98848991546885,65.0,0.6609823714097258,0.2506424354853446,1.6020344871416146e-07,1.0990964072386754e-07
-284.98848991536886,65.0,0.6595839386014021,0.2536957513700612,2.8326617732579383e-07,1.9433841174449848e-07
-282.9884899152689,65.0,0.6582157911854577,0.25577503401660734,4.958777681041148e-07,3.402033337779125e-07
-280.9884899151689,65.0,0.6568951936656225,0.25679279292360935,8.594321759371727e-07,5.89624520832406e-07
-278.9884899150689,60.0,0.6556368569676883,0.25825615091754095,1.4747066390319131e-06,1.0117414960166962e-06
-276.9884899149689,60.0,0.6544088296902454,0.25989302234185585,2.505282570518924e-06,1.7187813960784097e-06
-274.9884899148689,60.0,0.6532235351522645,0.2605082546418509,4.213712045950966e-06,2.8908714562732418e-06
-272.98848991476893,60.0,0.6520981907970074,0.26002684230372325,7.016653745005339e-06,4.813865733772717e-06
-270.98848991466895,55.0,0.6510477314321652,0.26116716762550873,1.1567840525007996e-05,7.936266080782785e-06
-268.98848991456896,55.0,0.6500469107846412,0.26336858186968826,1.8881287061079037e-05,1.295375033398992e-05
-266.98848991446897,55.0,0.6491013460080323,0.2645127389350039,3.0511808681126162e-05,2.0933019587870565e-05
-264.988489914369,55.0,0.6482284358527436,0.2644934802503063,4.881590725621594e-05,3.3490782322128966e-05
-262.988489914269,50.0,0.6474436987921939,0.2660119325083456,7.732355860495274e-05,5.304882394214042e-05
-260.988489914169,50.0,0.6467287908535069,0.268507574106477,0.00012126050038850373,8.319232912068216e-05
-258.988489914069,50.0,0.6460804290689242,0.2698220421194385,0.00018827121886829456,0.0001291658961810459
-256.98848991396903,50.0,0.645516982742157,0.2698404175499264,0.0002894046918229669,0.00019854981872966475
-254.98848991386905,45.0,0.6450554854305901,0.27156289288020813,0.0004404374668653499,0.00030216780058756493
-252.98848991376906,45.0,0.6446842912259615,0.2745867942859183,0.0006636208155249456,0.0004552856133663198
-250.98848991366907,45.0,0.6443859813296717,0.27655691363722956,0.0009899489488177004,0.0006791672349928993
-248.98848991356908,45.0,0.6441798774383589,0.2773286466982053,0.0014620514401806042,0.001003059233742067
-246.9884899134691,40.0,0.6440846874291006,0.28078616156760244,0.0021378122543249272,0.0014666736496238976
-244.9884899133691,40.0,0.6440936776466372,0.28620709473906325,0.0030948066875720005,0.002123232014485298
-242.98848991326912,40.0,0.64417245318442,0.2904318184282183,0.004435622178239689,0.0030431157625512963
-240.98848991316913,40.0,0.6443415175703274,0.29325803724195676,0.00629408525303926,0.004318138307254723
-238.98848991306915,35.0,0.6446218087143222,0.3002986336400987,0.008842351015043923,0.006066408875827739
-236.98848991296916,35.0,0.6450102301603542,0.31080641884005494,0.012298720625201385,0.008437695793246764
-234.98848991286917,35.0,0.6454482177928166,0.32027562502366247,0.01693593493984217,0.011619116439135088
-232.98848991276918,35.0,0.645957538080435,0.3284064081389457,0.023089550175739368,0.015840883480724325
-230.9884899126692,30.0,0.6465618465682577,0.33721094601774104,0.03116583900756892,0.02138172552259794
-228.9884899125692,30.0,0.6472677977754588,0.346550504659664,0.041648486978310285,0.028573481265351298
-226.98848991246922,30.0,0.6479917559341997,0.3546219354455104,0.05510318345458754,0.037804249189672505
-224.98848991236923,30.0,0.6487562289504459,0.3612534081784907,0.07217905738971976,0.049519372580087595
-222.98848991226924,25.0,0.6495868674066844,0.36668411992897765,0.09360580394302387,0.06421946820510048
-220.98848991216926,25.0,0.6505129385310259,0.37122486273418154,0.1201853144920337,0.08245468397920186
-218.98848991206927,25.0,0.6514435535540565,0.3746319341855642,0.15277668630593763,0.10481441465613277
-216.98848991196928,25.0,0.6524012282414307,0.3768341064135601,0.19227367314270113,0.13191183152041944
-214.9884899118693,20.0,0.6534120961519626,0.3808450782024789,0.23957396201624517,0.1643628043175289
-212.9884899117693,20.0,0.6545266219135634,0.38621651948475894,0.29554013171242954,0.20275911634058513
-210.98848991166932,20.0,0.6556459900208907,0.3905086087206357,0.36095275842033747,0.2476362919443279
-208.98848991156933,20.0,0.6567914461246309,0.39362521896162334,0.4364568588705479,0.29943685316987323
-206.98848991146934,15.0,0.6579881343325489,0.3990687481616426,0.5225036584936587,0.3584703690393648
-204.98848991136936,15.0,0.6593023807229054,0.4064738790406894,0.6192904797568289,0.4248722151745278
-202.98848991126937,15.0,0.66061824839039,0.41306825976122247,0.7267022870286335,0.49856346989782124
-200.98848991116938,15.0,0.6619542599144409,0.4187997049013752,0.8442590124297733,0.5792147764534428
-198.9884899110694,10.0,0.6633330695978157,0.4234248374654609,0.9710731341135147,0.6662172390398848
-196.9884899109694,10.0,0.6648390542509492,0.4274399437692506,1.1058220049924246,0.7586634385762786
-194.98848991086942,10.0,0.6663487441174137,0.4311355120475948,1.246739076536189,0.8553414116757778
-192.98848991076943,10.0,0.6678745546561002,0.4345028984902692,1.3916273995873079,0.954743913054167
-190.98848991066944,5.0,0.6694330520931507,0.4381375995638192,1.5378976215211964,1.0550944839712646
-188.98848991056946,5.0,0.6711236320622402,0.4420842592532625,1.6826311894116555,1.154390813577168
-186.98848991046947,5.0,0.6728294282908434,0.44589715041025874,1.8226677087245404,1.2504646724699422
-184.98848991036948,5.0,0.6745537668098637,0.4495672287631723,1.9547135313613562,1.3410564109224306
-182.9884899102695,0.0,0.6763041062099995,0.45345789071131143,2.0754668180600806,1.4239007595541702
-180.9884899101695,0.0,0.6781853874882845,0.45761730034562415,2.181752712764585,1.496819567449685
-178.98848991006952,0.0,0.6800951070552568,0.461780097134616,2.2706610486516055,1.5578162771530732
-176.98848990996953,0.0,0.6820258036376818,0.46594835899650655,2.3396783191430486,1.6051664650818673
-174.98848990986954,6.0,0.6839741125275386,0.46689314068797955,2.386805590631575,1.6374987370721037
-172.98848990976956,6.0,0.686062888196438,0.4722848448022757,2.41065464725828,1.6538606897421813
-170.98848990966957,6.0,0.6881892044858264,0.47733707719701235,2.4105159168835315,1.6537655119806007
-168.98848990956958,6.0,0.6903349163505177,0.48206292653184735,2.3863935406777537,1.6372160448907038
-166.9884899094696,12.0,0.6924858776132743,0.48563142889970357,2.3390051677781103,1.6047046409122445
-164.9884899093696,12.0,0.6947947458795276,0.4902434750071545,2.26974648921887,1.5571888318672233
-162.98848990926962,12.0,0.6971491953777692,0.4943761452567883,2.1806229568453084,1.496044483840749
-160.98848990916963,12.0,0.6995219829166301,0.4980463796499549,2.0741533482970467,1.4229996366949842
-158.98848990906964,18.0,0.7018897439229035,0.50581086998045,1.9532516467967815,1.3400534661758488
-156.98848990896965,18.0,0.7044180062327461,0.5133031856446495,1.8210949562507524,1.249385665365357
-154.98848990886967,18.0,0.7069987323764939,0.519763149447658,1.6809857780774455,1.1532619579249488
-152.98848990876968,18.0,0.7095982694434577,0.5251763609926696,1.5362169119817042,1.0539414115303811
-150.9884899086697,24.0,0.7121867659357701,0.5364129388610301,1.3899465497538293,0.9535907443627861
-148.9884899085697,24.0,0.7149225431865784,0.5423034722296578,1.2450899078916953,0.8542099782724135
-146.98848990846972,24.0,0.7177149876741467,0.5468338484245012,1.1042321339122558,0.7575726870311582
-144.98848990836973,24.0,0.7205273732678934,0.5500295422742227,0.9695653908781462,0.6651828323611694
-142.98848990826974,30.0,0.7233265727385891,0.5608182240170041,0.8428511494096068,0.5782488938836424
-140.98848990816975,30.0,0.7262525611675159,0.5668930839275805,0.7254069584945707,0.49767479306257884
-138.98848990806977,30.0,0.729238782073618,0.571478142689553,0.6181154602701535,0.42406607791181217
-136.98848990796978,30.0,0.7322467692670056,0.5745804313894276,0.5214522557166613,0.3577490406135202
-134.9884899078698,36.0,0.7352414006444878,0.5834090646749693,0.43552847026544744,0.29879992020208934
-132.9884899077698,36.0,0.7383507109135469,0.5889183517144005,0.36014351953752305,0.24708110317914336
-130.98848990766982,36.0,0.7415313484175335,0.5924729537779239,0.2948436060776329,0.20228125595187366
-128.98848990756983,36.0,0.7447446569875746,0.5941145438717216,0.23898182818841554,0.1639565632734093
-126.98848990746983,42.0,0.7479549409974765,0.6050289443334523,0.1917763723457864,0.13157065189938572
-124.98848990736983,42.0,0.7512763904874287,0.6117652026776979,0.15236400311538095,0.10453128803450934
-122.98848990726982,42.0,0.7546886306297373,0.6161539074567666,0.11984687242607853,0.0822224914379455
-120.98848990716982,42.0,0.7581548527664896,0.6183220635351033,0.09333146666514255,0.06403125557989728
-118.98848990706982,48.0,0.7616401694486574,0.6304923086315033,0.07195923396699912,0.049368559887802636
-116.98848990696982,48.0,0.7652272875262051,0.6377602516465579,0.0549290423526015,0.03768477744229025
