#lags,ntau,weight_dist,acf,smooth_dist,smooth_weight_dist
-1976.98849,1.0,0.002031463494443671,0.0,1.6021029779545128,0.003992064481438845
-1974.9884899999,1.0,0.0020549907276684837,0.0,1.8752083355219502,0.004698195091238451
-1972.9884899997999,1.0,0.002079481251461453,0.0,2.1812934062964087,0.005495614786614214
-1970.9884899996998,1.0,0.002104407236790064,0.0,2.5218174874497876,0.006389591049997421
-1968.9884899995998,1.0,0.0021296787485697703,0.0,2.897815188422223,0.007384377556176188
-1966.9884899994997,2.0,0.0021552101482897826,-0.9999999999994778,3.3097896628963017,0.008482894782557173
-1964.9884899993997,2.0,0.0021820010819405666,-0.9999999999996461,3.757601834946389,0.009686391388440723
-1962.9884899992996,2.0,0.0022093573566424928,-0.9999999999990246,4.240359923758229,0.010994098785304048
-1960.9884899991996,2.0,0.002237159428837662,-4.626299343613027e-13,4.7563147658151514,0.012402895003186342
-1958.9884899990996,3.0,0.002265289126487276,-0.8282636676025051,5.302767502419423,0.013906997268672668
-1956.9884899989995,3.0,0.002294925655265241,-0.7709536679653982,5.8759969976854105,0.015497705226467708
-1954.9884899988995,3.0,0.002325253802404961,-0.5632184934862131,6.471214727385419,0.01716321802999758
-1952.9884899987994,3.0,0.002356128893943881,-0.1896186560105745,7.08255469632888,0.018888548211505724
-1950.9884899986994,4.0,0.002387404853029705,-0.6079933219412789,7.703105099989887,0.02065555303283537
-1948.9884899985993,4.0,0.002420375326948381,-0.7414597491454735,8.324986897315776,0.022443099780550264
-1946.9884899984993,4.0,0.002454171265980054,-0.8392056448811995,8.939482227456761,0.02422737526229647
-1944.9884899983992,4.0,0.0024886291412177745,-0.8691747485166488,9.53721278232564,0.025982341859708068
-1942.9884899982992,5.0,0.002523580944263578,-0.890776912609861,10.108365015043553,0.02768033338406077
-1940.9884899981992,5.0,0.0025604140716327223,-0.8008118030358353,10.64295566337897,0.02929277433493755
-1938.988489998099,5.0,0.00259824898987882,-0.5704936837799951,11.131127785212795,0.030790996777194768
-1936.988489997999,5.0,0.0026369036899577766,-0.2833560447884592,11.563464645641778,0.03214712077474915
-1934.988489997899,6.0,0.0026761881128961333,-0.12896611114589207,11.931306653041059,0.03333495795709933
-1932.988489997799,6.0,0.0027176082962895444,-0.021147496944850214,12.227055355510906,0.03433089401813739
-1930.988489997699,6.0,0.0027602366689327314,0.1385858567293251,12.444448441483871,0.03511470521274511
-1928.988489997599,6.0,0.0028038743455029206,0.2759038718587348,12.57879079905953,0.035670266404695145
-1926.9884899974988,7.0,0.002848310361668344,-0.002451400711282331,12.627128925464362,0.03598611380375303
-1924.9884899973988,7.0,0.002895171722726131,-0.11062398899997379,12.588359178173825,0.03605583378600596
-1922.9884899972988,7.0,0.002943465053085717,-0.22882143992574533,12.463264265158148,0.035878259438466995
-1920.9884899971987,7.0,0.002992979050016494,-0.29141990640802024,12.25447665812672,0.03545746784324179
-1918.9884899970987,8.0,0.0030434845382619514,-0.20849122129404385,11.966371921551545,0.034802582666266
-1916.9884899969986,8.0,0.003096698020551855,-0.09153146602705046,11.60489892951177,0.03392739740458923
-1914.9884899968986,8.0,0.0031515696734500734,0.07035424459150644,11.177357282764238,0.032849843852308616
-1912.9884899967985,8.0,0.0032078773844272926,0.17413099403420162,10.692134704306657,0.03159133734167525
-1910.9884899966985,9.0,0.0032653738862697197,-0.13560184304249143,10.158418641903246,0.03017603472460844
-1908.9884899965984,9.0,0.003325922410609268,-0.14833815255928195,9.585896702505153,0.028630042772387072
-1906.9884899964984,9.0,0.003388404044971745,-0.14108639197831405,8.984459947268697,0.026980613835797668
-1904.9884899963984,9.0,0.0034525795705869482,-0.13229899392175612,8.363921631992932,0.025255362587005555
-1902.9884899962983,10.0,0.003518176686475519,-0.3448725924725694,7.7337618917717865,0.02348153297117024
-1900.9884899961983,10.0,0.003587235093166582,-0.45025940686683774,7.102906378335119,0.021685338720095038
-1898.9884899960982,10.0,0.003658515085226283,-0.5039280099499575,6.4795442054701216,0.019891394514137503
-1896.9884899959982,10.0,0.003731752239874293,-0.48218446955388305,5.870987961844188,0.018122248652933458
-1894.9884899958981,11.0,0.0038066413135091916,-0.4872341188343487,5.283576190174317,0.01639802233319379
-1892.988489995798,11.0,0.0038854203195637167,-0.4029262274496085,4.722616733053969,0.014736155623260198
-1890.988489995698,11.0,0.00396671080675967,-0.25760145237093723,4.192367778889065,0.01315125612358565
-1888.988489995598,11.0,0.004050216356931933,-0.14167973941520512,3.6960523242588375,0.011655043143247364
-1886.988489995498,12.0,0.004135592041195442,-0.0691136423170853,3.2359010769401806,0.010256377945564155
-1884.988489995398,12.0,0.004225332593750391,0.058702400918331385,2.8132185022568366,0.008961369103025503
-1882.9884899952979,12.0,0.004317912875793345,0.19633118749805084,2.4284666934686623,0.007773541111060277
-1880.9884899951978,12.0,0.004412994710982322,0.28600744433109115,2.0813619497920515,0.006694054004297076
-1878.9884899950978,13.0,0.004510183450332812,0.27687019322469686,1.7709793042372484,0.005721961684819806
-1876.9884899949977,13.0,0.004612251670220575,0.2649213080003557,1.4958607005017444,0.0048544969300580425
-1874.9884899948977,13.0,0.004717495057793764,0.20522068329828658,1.254123030806893,0.004087371552213038
-1872.9884899947976,13.0,0.004825525969697839,0.12923049183478205,1.0435627858232484,0.003415080910875129
-1870.9884899946976,14.0,0.004935892456738093,0.4052466439107869,0.8617546159195685,0.002831202928637528
-1868.9884899945976,14.0,0.005051684536263085,0.5409857844955841,0.70614164954435,0.0023286829196034185
-1866.9884899944975,14.0,0.005171008164912269,0.6170524918238249,0.5741159528342714,0.0019000968960395082
-1864.9884899943975,14.0,0.005293299294014335,0.6329394358103115,0.46308803818226735,0.0015378875352793481
-1862.9884899942974,15.0,0.005417941191287558,0.759352452437168,0.3705448305589739,0.0012345686145032431
-1860.9884899941974,15.0,0.005548049326259861,0.7604271517262915,0.2940959686930177,0.0009828953861143607
-1858.9884899940973,15.0,0.005681590395269396,0.6692541225493208,0.2315087418644846,0.0007759999921527444
-1856.9884899939973,15.0,0.0058178174767500425,0.5249639111360722,0.18073232972116132,0.0006074925223218293
-1854.9884899938972,16.0,0.005955948933991158,0.4412998040917473,0.1399123111501231,0.00047152963418305746
-1852.9884899937972,16.0,0.006098135101005904,0.3955932817733524,0.1073966307415154,0.00036285371874893526
-1850.9884899936972,16.0,0.006243075723127912,0.2962799341875514,0.08173435389542244,0.0002768063737511383
-1848.988489993597,16.0,0.006389969046113307,0.18904505026969043,0.061668605139437935,0.00020932042727954517
-1846.988489993497,17.0,0.006537984700972429,0.37600519765411133,0.04612507456778429,0.0001568949461092258
-1844.988489993397,17.0,0.006687669857914934,0.43406112423512083,0.034197404482332085,0.00011655759544125648
-1842.988489993297,17.0,0.006839143964760774,0.44537056395078084,0.025130645367898857,8.581843440871965e-05
-1840.988489993197,17.0,0.006991574622410414,0.42797876865711126,0.018303812006085378,6.261878793799826e-05
-1838.988489993097,18.0,0.0071441109633261606,0.4589391416286582,0.013212391826256465,4.527828680277055e-05
-1836.9884899929968,18.0,0.0072957698240264,0.3981709942643189,0.009451472507630038,3.2442568025291075e-05
-1834.9884899928968,18.0,0.007448081835451052,0.31387191668737197,0.006699976388607836,2.303352470930585e-05
-1832.9884899927968,18.0,0.007600212877155751,0.22626400633402727,0.004706324785482562,1.6203426183762442e-05
-1830.9884899926967,19.0,0.007751322062519592,0.2661835101500276,0.003275712348770597,1.1293723633172523e-05
-1828.9884899925967,19.0,0.007899414185706454,0.22391712319357507,0.0022590537215466514,7.798930178064574e-06
-1826.9884899924966,19.0,0.008047083153772491,0.17247056045180414,0.0015435731033824906,5.335624972809577e-06
-1824.9884899923966,19.0,0.008193522204284001,0.12078845737347643,0.0010449408997291014,3.6163776353441127e-06
-1822.9884899922965,20.0,0.008337928574173523,0.11653170072358976,0.000700817982532944,2.4282155533115365e-06
-1820.9884899921965,20.0,0.008477951638513536,0.040703773172322336,0.0004656437966702372,1.6151517374203316e-06
-1818.9884899920964,20.0,0.008616636736839262,-0.03262500469481511,0.0003064957788873899,1.064242291592307e-06
-1816.9884899919964,20.0,0.008753238069737377,-0.0939957805082482,0.0001998504539744476,6.946371484559352e-07
-1814.9884899918964,21.0,0.00888702252916119,-0.08675204461614441,0.0001290875671248577,4.4911309537969886e-07
-1812.9884899917963,21.0,0.009015337311295536,-0.14558930736178594,8.259461542323317e-05,2.876233974657128e-07
-1810.9884899916963,21.0,0.009141474832615425,-0.19406069821309382,5.2347649666751946e-05,1.8245452542915064e-07
-1808.9884899915962,21.0,0.009264781016602879,-0.22757050206091595,3.286332423147484e-05,1.146406672960176e-07
-1806.9884899914962,22.0,0.00938462123486448,-0.1913569475207676,2.043553210358003e-05,7.134583402048344e-08
-1804.9884899913961,22.0,0.009498363049132005,-0.2249407437392992,1.2586715116399175e-05,4.397816033471661e-08
-1802.988489991296,22.0,0.009609514109988388,-0.2477968774007243,7.678620115059552e-06,2.68495573459338e-08
-1800.988489991196,22.0,0.009717534569849619,-0.25916971652696835,4.639712599113971e-06,1.623537553099443e-08
-1798.988489991096,22.0,0.009821902954167553,-0.21259447551421246,2.7767022076585606e-06,9.723140303406325e-09
-1796.988489990996,22.0,0.009920872178276271,-0.23198930056880251,1.6458545734667775e-06,5.767186267695383e-09
-1794.988489990896,22.0,0.01001772464847913,-0.24268962561270516,9.662099252739174e-07,3.3878886856291596e-09
-1792.9884899907959,22.0,0.010112041174766634,-0.24472429469238466,5.61776668049693e-07,1.971046263038893e-09
-1790.9884899906958,21.0,0.010203405885978586,-0.26397219950595374,3.2349133929969797e-07,1.135696015937713e-09
-1788.9884899905958,21.0,0.010290594989977076,-0.27672662829651173,1.8448592737004654e-07,6.48067582619208e-10
-1786.9884899904957,21.0,0.01037628566710551,-0.28014272822152797,1.0419828791946848e-07,3.662409847923619e-10
-1784.9884899903957,21.0,0.010460161386278111,-0.27577078882000006,5.828409318122558e-08,2.0497353250427222e-10
-1782.9884899902956,20.0,0.010541892948116876,-0.29541339689341445,3.228696439714712e-08,1.136079616922761e-10
-1780.9884899901956,20.0,0.010620092927380954,-0.30912117726473154,1.7712827379540782e-08,6.235855056003135e-11
-1778.9884899900956,20.0,0.01069699994057339,-0.31364427466571365,9.623389295695873e-09,3.389657421052492e-11
-1776.9884899899955,20.0,0.010772381976504434,-0.3102746275537789,5.177783289841376e-09,1.824671135939895e-11
-1774.9884899898955,19.0,0.01084598602794612,-0.33071947601836904,2.758872693869077e-09,9.72700157091481e-12
-1772.9884899897954,19.0,0.010916426201474323,-0.3451956964209133,1.4557537156494767e-09,5.134943715520538e-12
-1770.9884899896954,19.0,0.010985639268539347,-0.35053851186227025,7.606926696709308e-10,2.68442677641613e-12
-1768.9884899895953,19.0,0.01105347133575489,-0.3479904281948787,3.936338051524429e-10,1.3897080850032876e-12
-1766.9884899894953,18.0,0.011119741979568937,-0.3633225769097226,2.0171317244763674e-10,7.124408948696988e-13
-1764.9884899893952,18.0,0.011183181280638051,-0.3723300578412604,1.023603692268716e-10,3.6168002454871865e-13
-1762.9884899892952,18.0,0.011245526216987512,-0.37274244998949646,5.143778385029578e-11,1.8182262573337874e-13
-1760.9884899891952,18.0,0.011306694511377854,-0.3661840603404407,2.559662398510174e-11,9.051414045423015e-14
-1758.9884899890951,17.0,0.01136657250374771,-0.3849401703461969,1.2613350768599464e-11,4.4619789568989086e-14
-1756.988489988995,17.0,0.01142394651185752,-0.3994774108894724,6.154928421067609e-12,2.1781046554107834e-14
-1754.988489988895,17.0,0.011480325988190338,-0.40653316221919633,2.974115155855571e-12,1.0528530214788436e-14
-1752.988489988795,17.0,0.01153569454656721,-0.4065234902932606,1.4230900052622403e-12,5.039555675165352e-15
-1750.988489988695,16.0,0.01159000127758648,-0.3982204434581402,6.742864396031832e-13,2.388636317721083e-15
-1748.988489988595,16.0,0.011642430617120598,-0.38290626183268306,3.1636736796629695e-13,1.121086072578258e-15
-1746.9884899884948,16.0,0.011694525526872411,-0.36145460518352523,1.4698463446527688e-13,5.210230665441601e-16
-1744.9884899883948,16.0,0.011746332396421815,-0.3361201896259292,6.762122931980128e-14,2.397739510753306e-16
-1742.9884899882948,15.0,0.011797852079410434,-0.31068730545476586,3.0805126211636226e-14,1.0926275688171818e-16
-1740.9884899881947,15.0,0.011848477831999065,-0.28040270903406406,1.3895997514273235e-14,4.9302111827130376e-17
-1738.9884899880947,15.0,0.01189964800326041,-0.24700804456052278,6.206994019688736e-15,2.2028263805641298e-17
-1736.9884899879946,15.0,0.01195145102418117,-0.2131623553031558,2.7453385443671198e-15,9.74573532361608e-18
-1734.9884899878946,14.0,0.012003917819058128,-0.19064425981428948,1.2023520357615442e-15,4.269399794690651e-18
-1732.9884899877945,14.0,0.012056247575763929,-0.1670003476281138,5.214188898215612e-16,1.8519754597351957e-18
-1730.9884899876945,14.0,0.01210946893440918,-0.14339864476901992,2.2390280765376776e-16,7.954597170510072e-19
-1728.9884899875944,14.0,0.012163680888271496,-0.12160736169055346,9.520249034552034e-17,3.3830945377836287e-19
-1726.9884899874944,13.0,0.012218923460485765,-0.11301720770969706,4.008219040907673e-17,1.4246937485032329e-19
-1724.9884899873944,13.0,0.012274483876056591,-0.10611634304854577,1.6709650931734582e-17,5.94071684493841e-20
-1722.9884899872943,13.0,0.012331186026751543,-0.10125467143449529,6.897545449314121e-18,2.4528143985661017e-20
-1720.9884899871943,13.0,0.012389133576086864,-0.09884142677229843,2.819236701019069e-18,1.0027614099709417e-20
-1718.9884899870942,12.0,0.012448374242920874,-0.06805124674041366,1.1409768753362524e-18,4.059160846774305e-21
-1716.9884899869942,12.0,0.01250842513737361,-0.03623040342139214,4.572240583638011e-19,1.6269690941855978e-21
-1714.9884899868941,12.0,0.012569996954844991,-0.008370279879569231,1.8142071436865086e-19,6.456920627058833e-22
-1712.988489986794,12.0,0.012633207308348686,0.013767187404731263,7.12769182186701e-20,2.53730946660261e-22
-1710.988489986694,11.0,0.012698121598976576,0.036427328094985,2.7727704140298746e-20,9.872384464881528e-23
-1708.988489986594,11.0,0.012764461860467697,0.05542258518225307,1.0680230235038324e-20,3.803383547665055e-23
-1706.988489986494,11.0,0.01283278690041833,0.06839863947395311,4.0733132500148696e-21,1.4508298401110556e-23
-1704.988489986394,11.0,0.0129032322042242,0.07502457283540895,1.5382053448703117e-21,5.479740710091941e-24
-1702.9884899862939,10.0,0.012975887497870995,0.10154398940232245,5.751471691681247e-22,2.0492720920867543e-24
-1700.9884899861938,10.0,0.013050599849321836,0.12467344865227703,2.129318890319255e-22,7.588121448867309e-25
-1698.9884899860938,10.0,0.013127700139872914,0.14030235721055923,7.805458058088904e-23,2.7820371531678924e-25
-1696.9884899859937,10.0,0.013207356098166652,0.14812306172467885,2.833028847206626e-23,1.0099144487516293e-25
-1694.9884899858937,9.0,0.013289700718774774,0.1649660902229094,1.0181165365608032e-23,3.629930289299755e-26
-1692.9884899857936,9.0,0.013374704278629454,0.17633499638604522,3.6227376541342876e-24,1.2918232049877195e-26
-1690.9884899856936,9.0,0.013462412166663565,0.17965513358207147,1.2763453848496101e-24,4.55195606134031e-27
-1688.9884899855936,9.0,0.013553019275552542,0.17554850030182995,4.452362694081781e-25,1.5881164177107133e-27
-1686.9884899854935,8.0,0.013646701640409977,0.18168799076875833,1.5378109259710105e-25,5.485990364390623e-28
-1684.9884899853935,8.0,0.013743454613715064,0.18213409321864388,5.259016674168516e-26,1.8763564194711583e-28
-1682.9884899852934,8.0,0.013842939377584334,0.17469602320814162,1.780715305248589e-26,6.354222397895513e-29
-1680.9884899851934,8.0,0.013945376613269464,0.16046160546062013,5.969967091956176e-27,2.130568341338598e-29
-1678.9884899850933,7.0,0.014050993984103572,0.18469873661889732,1.9816916185042023e-27,7.073164246049974e-30
-1676.9884899849933,7.0,0.014159610860172964,0.20788896001766086,6.51307543488235e-28,2.324965345323336e-30
-1674.9884899848932,7.0,0.014270275547909144,0.22505619689066741,2.1194407360360997e-28,7.566638151549089e-31
-1672.9884899847932,7.0,0.014383230748585402,0.23591123317344612,6.828744041471642e-29,2.4382177176886818e-31
-1670.9884899846932,6.0,0.014498767890021892,0.2683307684058142,2.1784322411744085e-29,7.779010344922224e-32
-1668.9884899845931,6.0,0.014616753326778741,0.29842310595189314,6.880662216640174e-30,2.4572984013258478e-32
-1666.988489984493,6.0,0.014735724807187687,0.32274060522416387,2.151784116067838e-30,7.685506293504983e-33
-1664.988489984393,6.0,0.014855945529004164,0.34114215204733944,6.662677151679006e-31,2.3799480274879116e-33
-1662.988489984293,5.0,0.014977765418324086,0.3483529087617607,2.0425834525160406e-31,7.296964925625292e-34
-1660.988489984193,5.0,0.01510165943396087,0.3499745928978902,6.199992862759829e-32,2.215114832630003e-34
-1658.988489984093,5.0,0.015226126801777484,0.3460138814804844,1.8632979282291435e-32,6.657771033753412e-35
-1656.9884899839928,5.0,0.015351449440454796,0.33678629284551515,5.544374427977595e-33,1.9812511347916187e-35
-1654.9884899838928,4.0,0.015478010027376365,0.30467069600845537,1.6334331542807945e-33,5.837511096025672e-36
-1652.9884899837928,4.0,0.015606836697594198,0.2631151706096757,4.764619081880693e-34,1.7029147140305293e-36
-1650.9884899836927,4.0,0.015736290039948236,0.21418799267583058,1.3760444614378283e-34,4.918521231177044e-37
-1648.9884899835927,4.0,0.01586664131868707,0.1598595900154643,3.934718626025374e-35,1.406540286976248e-37
-1646.9884899834926,3.0,0.01599826925474405,0.0864681746186476,1.1139644111017802e-35,3.982403754551928e-38
-1644.9884899833926,3.0,0.016132493608053265,-0.000776574424240084,3.122517444013598e-36,1.11638351797243e-38
-1642.9884899832925,3.0,0.01626719507677068,-0.09869241925221689,8.665903879529436e-37,3.098532806965226e-39
-1640.9884899831925,3.0,0.016402591749348175,-0.20258484621813683,2.381210716300419e-37,8.514769396791598e-40
-1638.9884899830924,2.0,0.016539014140204734,-0.26369411941646254,6.478229027338324e-38,2.3166656409504706e-40
-1636.9884899829924,2.0,0.016678392616510256,-0.31931905349590056,1.7449734791904718e-38,6.240610508534261e-41
-1634.9884899828924,2.0,0.01681831223755,-0.3719330121348061,4.6536636942700776e-39,1.664422745338976e-41
-1632.9884899827923,2.0,0.016958843703324553,-0.42051823534904353,1.2287806675259037e-39,4.3951393688422334e-42
-1630.9884899826923,1.0,0.017100166482562736,-0.4366288876516071,3.2123772902196424e-40,1.1490891327818473e-42
-1628.9884899825922,1.0,0.017245037326501532,-0.4494514394408256,8.314787008747985e-41,2.9744485735967613e-43
-1626.9884899824922,1.0,0.01739093682397785,-0.46178828349231504,2.1308247330753488e-41,7.623080857389544e-44
-1624.9884899823921,1.0,0.01753770170646302,-0.4736350936779406,5.406497074513058e-42,1.9343076362330004e-44
-1622.988489982292,0.0,0.01768527000006524,-0.47465458036366337,1.3581742530858331e-42,4.8594954329541724e-45
-1620.988489982192,0.0,0.017837126847773343,-0.4746545803636878,3.378048937916212e-43,1.2087238332116327e-45
-1618.988489982092,0.0,0.0179905854630689,-0.47465458036362784,8.318537101354313e-44,2.976685419936179e-46
-1616.988489981992,0.0,0.01814519775956534,-0.4746545803636066,2.0281413545413246e-44,7.257857283410949e-47
-1614.988489981892,2.0,0.0183006082683459,-0.3812094714299008,4.89575186710453e-45,1.7520771556079313e-47
-1612.9884899817919,2.0,0.018461490398282297,-0.4102414788191576,1.1700654976972435e-45,4.1876179039118053e-48
-1610.9884899816918,2.0,0.01862448683568441,-0.4372345081117426,2.7686638919532314e-46,9.909450972640544e-49
-1608.9884899815918,2.0,0.018788867234242165,-0.46186099028647254,6.486333705949376e-47,2.3216704728373272e-49
-1606.9884899814917,4.0,0.01895398262376373,-0.4464373699947657,1.5045167785068145e-47,5.385421806483993e-50
-1604.9884899813917,4.0,0.01912598055948483,-0.46269488458087304,3.4551204631239094e-48,1.2368207502764998e-50
-1602.9884899812917,4.0,0.019300645276302025,-0.4770890048447872,7.855927855745913e-49,2.8122985968620154e-51
-1600.9884899811916,4.0,0.019476997652053483,-0.4891602782148469,1.768477930832606e-49,6.331162650075161e-52
-1598.9884899810916,6.0,0.01965412718371232,-0.4627361201825353,3.941571471002935e-50,1.4111482322897664e-52
-1596.9884899809915,6.0,0.019839025189213613,-0.4888008270947978,8.697741888091625e-51,3.1140722438449853e-53
-1594.9884899808915,6.0,0.020027049813748067,-0.5120884875210661,1.9002499306827512e-51,6.803797475892161e-54
-1592.9884899807914,6.0,0.020217029502546658,-0.5317038949258732,4.110378297931188e-52,1.471771839886094e-54
-1590.9884899806914,8.0,0.020407850873991048,-0.5099200427368896,8.802772664686245e-53,3.1520695692404103e-55
-1588.9884899805913,8.0,0.020606724150470077,-0.525774618940536,1.8664809995969139e-53,6.683701961545516e-56
-1586.9884899804913,8.0,0.020809145170198617,-0.5276499555428932,3.918265249143885e-54,1.40315006820418e-56
-1584.9884899803913,8.0,0.021013824036722667,-0.518508214030563,8.143855270140559e-55,2.916464713102065e-57
-1582.9884899802912,10.0,0.02121951663354561,-0.3941298107276768,1.6758378903649056e-55,6.001705600479403e-58
-1580.9884899801912,10.0,0.0214333757604512,-0.39093790642805576,3.414282897295927e-56,1.2228067083535304e-58
-1578.9884899800911,10.0,0.021651396213676653,-0.37530170398132684,6.8870357604987e-57,2.466640787956626e-59
-1576.988489979991,10.0,0.021872192133402843,-0.35015402369659154,1.3754041069240637e-57,4.926276577754333e-60
-1574.988489979891,12.0,0.02209440857609768,-0.29173718142910837,2.719526211450099e-58,9.740837062341755e-61
-1572.988489979791,12.0,0.02232528940579368,-0.300804153255603,5.3237904112360806e-59,1.906945127423654e-61
-1570.988489979691,12.0,0.022561121405723507,-0.29642184395211685,1.0318420886036244e-59,3.6961056103119703e-62
-1568.988489979591,12.0,0.022800455890846744,-0.2798607352297366,1.9800216567053216e-60,7.092749776142589e-63
-1566.9884899794909,14.0,0.023041857551311735,-0.2531685195570547,3.761758266075336e-61,1.3475622418973788e-63
-1564.9884899793908,14.0,0.023292600541423625,-0.25574667168735127,7.075805763095241e-62,2.5348180933036415e-64
-1562.9884899792908,14.0,0.02354918482231709,-0.24523966770750896,1.317725147590658e-62,4.72072148130309e-65
-1560.9884899791907,14.0,0.023810155165971368,-0.22431986586593672,2.4296153358557252e-63,8.704291410436059e-66
-1558.9884899790907,16.0,0.0240740368826499,-0.18542673174987762,4.435206107932571e-64,1.588992268197834e-66
-1556.9884899789906,16.0,0.024347736672631553,-0.1910865561755361,8.015923120349173e-65,2.8719264938207287e-67
-1554.9884899788906,16.0,0.024628026641353922,-0.18185925351032992,1.4343547749952072e-65,5.13910973155146e-68
-1552.9884899787905,16.0,0.024913478311979632,-0.16008798562373427,2.541106017473422e-66,9.104694134966367e-69
-1550.9884899786905,18.0,0.025202600711647427,-0.14418318930742094,4.4570961956659944e-67,1.5970025012678921e-69
-1548.9884899785905,18.0,0.025502277668195843,-0.15117657962214487,7.740056235926994e-68,2.7733741855252623e-70
-1546.9884899784904,18.0,0.02580947573368348,-0.14483202605145873,1.3307576713974328e-68,4.768412875092255e-71
-1544.9884899783904,18.0,0.02612276385858158,-0.12822159602891375,2.2652517018244568e-69,8.117113573965618e-72
-1542.9884899782903,20.0,0.026440604072626762,-0.15550733118249685,3.8176529979421725e-70,1.3680175248723095e-72
-1540.9884899781903,20.0,0.026770024654510623,-0.18016990272800293,6.369990913318085e-71,2.282673777211848e-73
-1538.9884899780902,20.0,0.027107850289098383,-0.1922782108759344,1.0523093542577184e-71,3.7710133950993064e-74
-1536.9884899779902,20.0,0.027452605827851136,-0.19224861272469043,1.7211161855696663e-72,6.167855995413316e-75
-1534.9884899778901,22.0,0.027802669392579905,-0.19497416385175778,2.787012857987891e-73,9.987854158422568e-76
-1532.98848997779,22.0,0.02816529995973065,-0.20505618801544256,4.468169817914862e-74,1.6012969239957343e-76
-1530.98848997769,22.0,0.028537095898472784,-0.2025421368180086,7.09221961264788e-75,2.5417518806756428e-77
-1528.98848997759,22.0,0.02891650954017778,-0.18978091616591058,1.1145418496489726e-75,3.9944403839390004e-78
-1526.98848997749,24.0,0.029301809757625658,-0.19461441163858284,1.734092192402473e-76,6.214985812809405e-79
-1524.98848997739,24.0,0.029700853769171077,-0.2076010321958366,2.671218919863722e-77,9.573828661202232e-80
-1522.9884899772899,24.0,0.0301099952203216,-0.20930173942680774,4.073879507415036e-78,1.4601328697189832e-80
-1520.9884899771898,24.0,0.03052756153767829,-0.20195136597788615,6.151318014457712e-79,2.2047544637868944e-81
-1518.9884899770898,26.0,0.030951660682222257,-0.21275030397777742,9.195797289605275e-80,3.2960145491713627e-82
-1516.9884899769897,26.0,0.03139082178883104,-0.21479904766905902,1.3610425916639557e-80,4.878417433001327e-83
-1514.9884899768897,26.0,0.03184095020239229,-0.2085948330043334,1.9944128843831536e-81,7.148742633608774e-84
-1512.9884899767897,26.0,0.032300215696252695,-0.1969448910588931,2.8934725569872587e-82,1.0371489836213889e-84
-1510.9884899766896,28.0,0.032766536104720585,-0.22601651715313067,4.156085951175875e-83,1.489749779776389e-85
-1508.9884899765896,28.0,0.03324932413693589,-0.23311934552556426,5.9103125341291065e-84,2.118586176064856e-86
-1506.9884899764895,28.0,0.03374399749248271,-0.23416432465241002,8.321412775000787e-85,2.9829054072254122e-87
-1504.9884899763895,28.0,0.03424813247972904,-0.23066023163822374,1.159963428585189e-85,4.1580843586329815e-88
-1502.9884899762894,30.0,0.03475908785624768,-0.259119687871469,1.600855249911747e-86,5.738620481911338e-89
-1500.9884899761894,30.0,0.03528624257848055,-0.27065874134640266,2.187360134314114e-87,7.8411910119014335e-90
-1498.9884899760893,30.0,0.03582466104134023,-0.2761757010143607,2.9590268599348246e-88,1.0607592159194524e-90
-1496.9884899759893,30.0,0.036371304043728625,-0.276443600640212,3.963125605565911e-89,1.4207307351159955e-91
-1494.9884899758893,32.0,0.036922972815760804,-0.30255200569275337,5.255172918230196e-90,1.8839390693692705e-92
-1492.9884899757892,32.0,0.03748558584339263,-0.3129656562796063,6.899162279809889e-91,2.473329506136407e-93
-1490.9884899756892,32.0,0.038056673913864386,-0.31676843806594723,8.967385056025318e-92,3.2148231660359173e-94
-1488.9884899755891,32.0,0.03863303168171983,-0.31436651082767253,1.153972129135454e-92,4.1370628803616626e-95
-1486.988489975489,34.0,0.039211317608471394,-0.3271744515861086,1.4702283741308821e-93,5.270927168734978e-96
-1484.988489975389,34.0,0.0397919183559979,-0.3313451544555808,1.854531423772915e-94,6.648776123308135e-97
-1482.988489975289,34.0,0.04037719274611594,-0.3279668455349855,2.3160260948033698e-95,8.303403567920945e-98
-1480.988489975189,34.0,0.04096387245768065,-0.31934747262497054,2.8636009346197576e-96,1.0266685727067312e-98
-1478.988489975089,36.0,0.041548592143765106,-0.34038470951213506,3.505429843402174e-97,1.256793769344418e-99
-1476.9884899749889,36.0,0.042126505687640134,-0.3531868605114691,4.248442491359593e-98,1.5232014499551892e-100
-1474.9884899748888,36.0,0.0427047708107667,-0.3595724645757662,5.097741769511485e-99,1.827722217285941e-101
-1472.9884899747888,36.0,0.04328017021417268,-0.3604221732786532,6.055994750422728e-100,2.171313369733169e-102
-1470.9884899746887,38.0,0.04384943227966327,-0.38068281280516314,7.122831394655092e-101,2.553843263338146e-103
-1468.9884899745887,38.0,0.04440414945175023,-0.3933288594472384,8.294291656833309e-102,2.973893017046692e-104
-1466.9884899744886,38.0,0.044954964470559126,-0.39971167063402113,9.56236582354523e-103,3.4285916378970354e-105
-1464.9884899743886,38.0,0.04549881916108769,-0.40030915167463377,1.091467401833185e-103,3.9135010394103534e-106
-1462.9884899742885,40.0,0.046032642570535354,-0.4275870944478696,1.233432817493803e-104,4.422566483020772e-107
-1460.9884899741885,40.0,0.04654669898086187,-0.44830681263163497,1.3800013029862248e-105,4.948145552904977e-108
-1458.9884899740885,40.0,0.047053052634172365,-0.46165185005238474,1.5286311814584313e-106,5.481124877329993e-109
-1456.9884899739884,40.0,0.04754893824533231,-0.46768711664104534,1.6764287766428012e-107,6.011128588624997e-110
-1454.9884899738884,42.0,0.04803161366847264,-0.49565923849372673,1.8202315202177467e-108,6.526816283611071e-111
-1452.9884899737883,42.0,0.048490144247372184,-0.5171885803466083,1.9567134994610567e-109,7.016261467266518e-112
-1450.9884899736883,42.0,0.04893726812195303,-0.5300919837291573,2.0825090453742613e-110,7.46739470639237e-113
-1448.9884899735882,42.0,0.0493706366247048,-0.5344606551171628,2.1943482599838335e-111,7.868489617527563e-114
-1446.9884899734882,44.0,0.04978795563913659,-0.5562097799629615,2.2891970363323215e-112,8.208664988082988e-115
-1444.9884899733881,44.0,0.050178135292907856,-0.570382918227085,2.3643932880108353e-113,8.478373327705913e-116
-1442.988489973288,44.0,0.05055442857812584,-0.5754199037675294,2.4177708887175918e-114,8.669845369190931e-117
-1440.988489973188,44.0,0.050914998621761604,-0.5719739288479175,2.4477632823210784e-115,8.777461686046709e-118
-1438.988489973088,44.0,0.05125807184048234,-0.5959472212686949,2.453479851085071e-116,8.798026634380486e-119
-1436.988489972988,44.0,0.051575780788131846,-0.6134053842654663,2.4347498475889594e-117,8.730925985945188e-120
-1434.988489972888,44.0,0.0518809837044233,-0.6216972087932636,2.3921308664995422e-118,8.578157402430317e-121
-1432.9884899727879,44.0,0.05217239694856611,-0.6212765877904693,2.3268812696770975e-119,8.344231641279995e-122
-1430.9884899726878,42.0,0.05244875128589845,-0.6462295441984838,2.2408984674721837e-120,8.035951310731547e-123
-1428.9884899725878,42.0,0.052704221374752544,-0.6684487292038941,2.136627280164463e-121,7.662082316237092e-124
-1426.9884899724877,42.0,0.052950039171374176,-0.6815840090377296,2.0169445541332153e-122,7.232940136838009e-125
-1424.9884899723877,42.0,0.05318540748198396,-0.6858816977253184,1.885027624954794e-123,6.759918155258192e-126
-1422.9884899722877,40.0,0.05340947908247462,-0.7020923049795151,1.7442149976005837e-124,6.2549880570487835e-127
-1420.9884899721876,40.0,0.0536157046557668,-0.7131934576459351,1.5978677113368783e-125,5.730202665134713e-128
-1418.9884899720876,40.0,0.05381367689344989,-0.715329914663638,1.4492392999870399e-126,5.197229580319073e-129
-1416.9884899719875,40.0,0.0540030012401728,-0.7090990973800924,1.301361134172833e-127,4.66693996851935e-130
-1414.9884899718875,38.0,0.05418319645559879,-0.724610605173997,1.1569483764814448e-128,4.1490712574868425e-131
-1412.9884899717874,38.0,0.05434758270369451,-0.7368218399774507,1.018329959453385e-129,3.6519759756373556e-132
-1410.9884899716874,38.0,0.05450456100694063,-0.7402665454843149,8.87404087251885e-131,3.1824621195747e-133
-1408.9884899715873,38.0,0.054654093219745035,-0.7353956732253448,7.656189341217432e-132,2.7457238819723086e-134
-1406.9884899714873,36.0,0.05479602852276809,-0.7478687096324321,6.539766108288366e-133,2.3453558261587666e-135
-1404.9884899713873,36.0,0.05492401390911936,-0.7574751942473215,5.530572019079894e-134,1.9834390444144457e-136
-1402.9884899712872,36.0,0.05504563244383475,-0.7594024148418251,4.630588058495538e-135,1.6606847136469957e-137
-1400.9884899711872,36.0,0.05516115545190071,-0.7536904038277539,3.838490567601835e-136,1.376618834569291e-138
-1398.9884899710871,34.0,0.0552707191848771,-0.7661240847533557,3.150235481967872e-137,1.1297917322910318e-139
-1396.988489970987,34.0,0.05536817847817478,-0.7758483083581759,2.5596686354675438e-138,9.179969128723002e-141
-1394.988489970887,34.0,0.055460108930114986,-0.7780540411817836,2.0591246566678655e-139,7.384858363292988e-142
-1392.988489970787,34.0,0.05554705724675238,-0.7729324143404968,1.6399842320444104e-140,5.881677652096826e-143
-1390.988489970687,32.0,0.05562942019429675,-0.782101513293268,1.2931676300828763e-141,4.637867596230542e-144
-1388.988489970587,32.0,0.05570255748762757,-0.7880808166184037,1.0095505623874585e-142,3.620708238546154e-145
-1386.9884899704869,32.0,0.05577289583828454,-0.7868563681390166,7.802960370885681e-144,2.7985092784508295e-146
-1384.9884899703868,32.0,0.05584122876441453,-0.7786889900545078,5.971023533195501e-145,2.1414995570785886e-147
-1382.9884899702868,30.0,0.05590815772534051,-0.7878253471097687,4.523725035455063e-146,1.622434691216563e-148
-1380.9884899701867,30.0,0.05596993325258739,-0.7945324503802823,3.3931388453019393e-147,1.2169547692341254e-149
-1378.9884899700867,30.0,0.056032322224848226,-0.7941773417202792,2.5197941207147906e-148,9.037318941145948e-151
-1376.9884899699866,30.0,0.05609627040680045,-0.786881313634566,1.8526204851168263e-149,6.6445063822231835e-152
-1374.9884899698866,28.0,0.05616248889691354,-0.7942686735008907,1.348546180188498e-150,4.836639956269146e-153
-1372.9884899697865,28.0,0.05622667855178004,-0.7993505119222332,9.718586935061544e-152,3.485641367313495e-154
-1370.9884899696865,28.0,0.05629295373564216,-0.7981155282266148,6.934231650947141e-153,2.487021450541664e-155
-1368.9884899695865,28.0,0.05636227268122457,-0.7907603597476414,4.898368706448097e-154,1.756848176751924e-156
-1366.9884899694864,26.0,0.056435355240322095,-0.8055765085148299,3.4258037820505738e-155,1.2287026309061132e-157
-1364.9884899693864,26.0,0.056508287745112754,-0.8197395538667316,2.372091115138672e-156,8.507798248865905e-159
-1362.9884899692863,26.0,0.05658440250514549,-0.8277974206599699,1.626140635339784e-157,5.83237446320516e-160
-1360.9884899691863,26.0,0.05666464910755938,-0.8297350056946359,1.1036787357134e-158,3.958507061599923e-161
-1358.9884899690862,24.0,0.056749752641758786,-0.8373773633159969,7.416262088013574e-160,2.6599608230185656e-162
-1356.9884899689862,24.0,0.056836675367208905,-0.8411762040197278,4.9338423564626606e-161,1.769607024008523e-163
-1354.9884899688861,24.0,0.05692823366684831,-0.8386975042482303,3.2496999179555026e-162,1.1655641715969896e-164
-1352.988489968786,24.0,0.05702541871286611,-0.8300532195884673,2.1191369575251224e-163,7.600694780355774e-166
-1350.988489968686,22.0,0.05712901623490079,-0.825397416799764,1.3681463398669825e-164,4.90713641278565e-167
-1348.988489968586,22.0,0.05723678732133185,-0.8164964385921989,8.745080814294444e-166,3.1366112048804784e-168
-1346.988489968486,22.0,0.05735082474835319,-0.80139464965635,5.534174315258432e-167,1.9849563235767858e-169
-1344.988489968386,22.0,0.05747217854432879,-0.780358668775202,3.4673649988711565e-168,1.2436521201486148e-170
-1342.9884899682859,20.0,0.05760172439419256,-0.7779559714081201,2.1508196387375155e-169,7.714442654880776e-172
-1340.9884899681858,20.0,0.05773786138625356,-0.7745647774552052,1.3208883762337208e-170,4.737703349737704e-173
-1338.9884899680858,20.0,0.05788170579865138,-0.7654393440040572,8.031301381081032e-172,2.880638952248567e-174
-1336.9884899679857,20.0,0.058034432325194306,-0.7507121703493379,4.83463170554743e-173,1.7340732463488282e-175
-1334.9884899678857,18.0,0.05819708886729592,-0.7520979970519669,2.8813666366891596e-174,1.0334838132307357e-176
-1332.9884899677857,18.0,0.05836869663996146,-0.7526834443657613,1.7001658690404412e-175,6.098142104896187e-178
-1330.9884899676856,18.0,0.058549032902705266,-0.7482054515644971,9.932113978623488e-177,3.562451915962642e-179
-1328.9884899675856,18.0,0.058739383969501256,-0.7387220618741621,5.744466691748867e-178,2.06043102118898e-180
-1326.9884899674855,16.0,0.058940975562176395,-0.7395239189623493,3.289389824087432e-179,1.1798444001565064e-181
-1324.9884899673855,16.0,0.05915315812883672,-0.7383511646007594,1.8648270946763156e-180,6.688811663777663e-183
-1322.9884899672854,16.0,0.059374033975926485,-0.7320567301985921,1.0466931517096466e-181,3.7543154941624087e-184
-1320.9884899671854,16.0,0.05960500757908102,-0.7206891509455897,5.816446934899795e-183,2.0862681093406452e-185
-1318.9884899670853,14.0,0.059847525455616585,-0.7273323703230046,3.2000275907208356e-184,1.1478021100784877e-186
-1316.9884899669853,14.0,0.06010078224636565,-0.7346109478565375,1.7430395046753906e-185,6.252035766816527e-188
-1314.9884899668853,14.0,0.060360390773865624,-0.73770073217333,9.399792837256299e-187,3.3715795816020276e-189
-1312.9884899667852,14.0,0.06062786834284245,-0.7363070038000437,5.018649539432289e-188,1.8001259514238756e-190
-1310.9884899666852,12.0,0.0609049295928231,-0.7429437654460278,2.65285175389419e-189,9.515461977392526e-192
-1308.9884899665851,12.0,0.061191367910990606,-0.7481898770439904,1.3883424716061879e-190,4.979828218560116e-193
-1306.988489966485,12.0,0.06148048401055994,-0.7492351474126333,7.19345853148447e-192,2.5802176096812626e-194
-1304.988489966385,12.0,0.06177387908520057,-0.7458538185928809,3.690085055343214e-193,1.323597044555461e-195
-1302.988489966285,10.0,0.06207348978195876,-0.7519374064257435,1.8740988648201595e-194,6.722219894523099e-197
-1300.988489966185,10.0,0.06238149316137206,-0.7580902095306616,9.423366852754502e-196,3.38008097647637e-198
-1298.988489966085,10.0,0.0626907144965415,-0.7613667572066611,4.691126789959299e-197,1.6826699944774674e-199
-1296.9884899659849,10.0,0.06300279948851144,-0.7615388292858835,2.3120951711132718e-198,8.293316575257003e-201
-1294.9884899658848,8.0,0.06331978025220812,-0.7698048105644955,1.1282145525261287e-199,4.0468301492015e-202
-1292.9884899657848,8.0,0.06364603304635028,-0.7783640881014695,5.4504848251240714e-201,1.9550557317269342e-203
-1290.9884899656847,8.0,0.06397366951312086,-0.7846255183119378,2.6069698682718207e-202,9.351057595459267e-205
-1288.9884899655847,8.0,0.06430425690493981,-0.7881401726046751,1.2345091685234045e-203,4.4281236440389564e-206
-1286.9884899654846,6.0,0.06463977539103336,-0.795674146698774,5.787753840334045e-205,2.076042098006474e-207
-1284.9884899653846,6.0,0.06498599850933681,-0.8028349887730215,2.686477455812311e-206,9.636292535523122e-209
-1282.9884899652845,6.0,0.06533317645695272,-0.8077421618903291,1.2345644253791166e-207,4.428342381638446e-210
-1280.9884899651845,6.0,0.06568263928558887,-0.8097087139886815,5.616965010770687e-209,2.0147900443000384e-211
-1278.9884899650845,4.0,0.06603615062594435,-0.8076339438776882,2.5301546896302627e-210,9.075609131740547e-213
-1276.9884899649844,4.0,0.06640165434619479,-0.8035458615724098,1.1283655493691831e-211,4.047428137217189e-214
-1274.9884899648844,4.0,0.06676838147023494,-0.7976249347618847,4.982071360839459e-213,1.7870630657078538e-215
-1272.9884899647843,4.0,0.06713706643686995,-0.7898191862376363,2.1778473959399726e-214,7.811923376658415e-217
-1270.9884899646843,2.0,0.06750886972624406,-0.7848892896510999,9.425454799468699e-216,3.3809085807107166e-218
-1268.9884899645842,2.0,0.0678942155272032,-0.7804773401143736,4.038634470889018e-217,1.4486592088592855e-219
-1266.9884899644842,2.0,0.06828238676289043,-0.775705208023717,1.713263398979094e-218,6.14548807703781e-221
-1264.9884899643841,2.0,0.06867319889191836,-0.7705827209433924,7.195667328044863e-220,2.5810942819042963e-222
-1262.988489964284,0.0,0.06906687612101677,-0.7698022736768126,2.9920948803786587e-221,1.0732692597478905e-223
-1260.988489964184,0.0,0.06947566987682119,-0.770004801547878,1.2317908796328486e-222,4.4184591139824875e-225
-1258.988489964084,0.0,0.06988915098495331,-0.7702057483932466,5.020603684747305e-224,1.8009029658075334e-226
-1256.988489963984,0.0,0.07030602827400093,-0.770405116176589,2.0259663345204378e-225,7.267199845026127e-228
-1254.988489963884,3.0,0.07072539865860199,-0.7838388375095453,8.094049024424805e-227,2.9033621135882347e-229
-1252.9884899637839,3.0,0.07116289038569121,-0.7850671163382115,3.201523938453239e-228,1.148398494274086e-230
-1250.9884899636838,3.0,0.07160660897348689,-0.7850688918156616,1.253732800324038e-229,4.4971909226226556e-232
-1248.9884899635838,3.0,0.07205416621370711,-0.7839486954903019,4.860831081671052e-231,1.7436018992422152e-233
-1246.9884899634837,6.0,0.07250353317948102,-0.8009141343424145,1.8658355859033626e-232,6.692842940560259e-235
-1244.9884899633837,6.0,0.0729748755936805,-0.8017738919424107,7.090771836585193e-234,2.543496950884355e-236
-1242.9884899632837,6.0,0.07345401744296103,-0.8017672572975397,2.6679085700615104e-235,9.569937289259798e-238
-1240.9884899631836,6.0,0.0739376180270758,-0.8009954102261645,9.938152581194667e-237,3.5648744629910684e-239
-1238.9884899630836,9.0,0.07442266279261536,-0.8176096986280912,3.665199855527357e-238,1.3147302742555505e-240
-1236.9884899629835,9.0,0.07493173112038677,-0.8195194567798145,1.3382798508130043e-239,4.800498693194722e-242
-1234.9884899628835,9.0,0.07544992197460691,-0.8202820960622832,4.8378621701720535e-241,1.7353749067024746e-243
-1232.9884899627834,9.0,0.07597318681329061,-0.8199579199221037,1.7314793337172963e-242,6.2109428327790035e-245
-1230.9884899626834,12.0,0.07649777702018784,-0.8374081831318775,6.135336658309584e-244,2.200792044301184e-246
-1228.9884899625833,12.0,0.07704642541526102,-0.8377974103873344,2.1523690824342317e-245,7.720718814894498e-248
-1226.9884899624833,12.0,0.07760531212226209,-0.8365230113349988,7.47570832299764e-247,2.681598249391393e-249
-1224.9884899623833,12.0,0.07816999329750277,-0.8337247398881651,2.5706633404100556e-248,9.221189266528274e-251
-1222.9884899622832,15.0,0.07873628881653018,-0.8449673992205191,8.751758172846111e-250,3.1393331072161166e-252
-1220.9884899621832,15.0,0.07932597890439554,-0.8424098319340043,2.949868512720045e-251,1.0581447993848199e-253
-1218.9884899620831,15.0,0.0799273985657592,-0.8380514722571206,9.843901255365356e-253,3.5311001678835696e-255
-1216.988489961983,15.0,0.08053581801729251,-0.8320424021084007,3.252288596695187e-254,1.1666274844409208e-256
-1214.988489961883,18.0,0.08114672737501087,-0.8398474034446091,1.0638199682253973e-255,3.8160283885691413e-258
-1212.988489961783,18.0,0.08178156922953046,-0.8367516993402949,3.4451206010378675e-257,1.2358000647725604e-259
-1210.988489961683,18.0,0.08243035971568681,-0.8316266732029719,1.1045819647258595e-258,3.962251610598527e-261
-1208.988489961583,18.0,0.0830882252979858,-0.8246664131737054,3.506296914625692e-260,1.2577464625184399e-262
-1206.9884899614829,21.0,0.08375045669070405,-0.8310997407008263,1.1019367091847182e-261,3.9527684289332924e-264
-1204.9884899613828,21.0,0.0844379431628416,-0.8275465912629203,3.42863954063615e-263,1.2298916424904028e-265
-1202.9884899612828,21.0,0.08514220596637512,-0.8222006343958846,1.0561952766366203e-264,3.7886940508487676e-267
-1200.9884899611827,21.0,0.08585844159007847,-0.8152709001229193,3.221245485587666e-266,1.1554986067146105e-268
-1198.9884899610827,24.0,0.08658189205276909,-0.8199633795265302,9.726590501935338e-268,3.4890445738319085e-270
-1196.9884899609826,24.0,0.08733122770082259,-0.8194876671417997,2.9077338042065948e-269,1.0430396259145959e-271
-1194.9884899608826,24.0,0.08809939254894372,-0.8169456328295721,8.606089534453669e-271,3.0871113455283433e-273
-1192.9884899607825,24.0,0.08888178057495977,-0.8125365617838327,2.5218210928497404e-272,9.046091425290516e-275
-1190.9884899606825,27.0,0.08967367786750545,-0.8124871579898173,7.316104182598188e-274,2.6243807390224583e-276
-1188.9884899605825,27.0,0.09049254570842298,-0.8089989624694451,2.101370747748406e-275,7.537891782762328e-278
-1186.9884899604824,27.0,0.0913324024314142,-0.8037623576626192,5.975615888899558e-277,2.1435328308551217e-279
-1184.9884899603824,27.0,0.09218875136885728,-0.7969702157601251,1.6823635549716884e-278,6.034865055628586e-281
-1182.9884899602823,30.0,0.09305684090757219,-0.7998022735302079,4.689366910593317e-280,1.682140111305463e-282
-1180.9884899601823,30.0,0.09395354530299307,-0.8022225102067736,1.2940938093517361e-281,4.6420941840270027e-284
-1178.9884899600822,30.0,0.09487299476615696,-0.8025258225384547,3.5356924751302805e-283,1.2683026601163547e-285
-1176.9884899599822,30.0,0.09581067629393453,-0.8008306108420953,9.564018024326949e-285,3.430749680007679e-287
-1174.9884899598821,33.0,0.09676169727238484,-0.8068633012421578,2.561317768140122e-286,9.187816859754126e-289
-1172.988489959782,33.0,0.09774262011908513,-0.8105447167465532,6.791156064328015e-288,2.4360870104335888e-290
-1170.988489959682,33.0,0.09874749582096808,-0.8121512591511213,1.7827117604084497e-289,6.394850971331009e-292
-1168.988489959582,33.0,0.09977171885703277,-0.8117646172253619,4.633143118031951e-291,1.6619778186678748e-293
-1166.988489959482,36.0,0.10081019390624098,-0.817330132296507,1.1921405692616788e-292,4.276388764694169e-295
-1164.988489959382,36.0,0.10188034955776448,-0.8207400421326374,3.036941194163707e-294,1.0893973027646344e-296
-1162.9884899592819,36.0,0.10297612809530891,-0.8220719047581592,7.659535946234721e-296,2.7475940587451087e-298
-1160.9884899591818,36.0,0.10409266618688749,-0.8213927440868821,1.9126067923852793e-297,6.860819546570432e-300
-1158.9884899590818,39.0,0.10522450713008125,-0.8271851566349673,4.72831156356338e-299,1.6961200101574984e-301
-1156.9884899589817,39.0,0.10639016332656237,-0.8305775674083459,1.1572938170740634e-300,4.151397411158033e-303
-1154.9884899588817,39.0,0.10758287165644112,-0.8317938386270809,2.804389502925031e-302,1.0059796414739715e-304
-1152.9884899587817,39.0,0.10879741908324085,-0.8309161756663968,6.728065081652187e-304,2.4134661987326655e-306
-1150.9884899586816,42.0,0.11002791056015299,-0.8368242583730772,1.5980824563990474e-305,5.732583579823532e-308
-1148.9884899585816,42.0,0.11129459087394021,-0.843078386174049,3.758074031924162e-307,1.34808325351133e-309
-1146.9884899584815,42.0,0.112589904089792,-0.8472110820165595,8.749608558894947e-309,3.138630379854e-311
-1144.9884899583815,42.0,0.1139072373926488,-0.8492732834802064,2.01682892036635e-310,7.23470412756e-313
-1142.9884899582814,45.0,0.11523936790577775,-0.8561528000145313,4.602636089854e-312,1.651043493e-314
-1140.9884899581814,45.0,0.11660616232694936,-0.8626782364257628,1.0399234141e-313,3.73038273e-316
-1138.9884899580813,45.0,0.11799946229993581,-0.8668079712481211,2.326232956e-315,8.3446e-318
-1136.9884899579813,45.0,0.11941120336360662,-0.868569565895195,5.1518285e-317,1.84805e-319
-1134.9884899578813,48.0,0.12083284472875774,-0.877596552130949,1.12959e-318,4.05e-321
-1132.9884899577812,48.0,0.12227551121681904,-0.8841082131609341,2.45e-320,9e-323
-1130.9884899576812,48.0,0.12373678476580995,-0.8878784676740554,5.73e-322,0.0
-1128.9884899575811,48.0,0.12520825304602842,-0.8889026615616527,0.0,0.0
-1126.988489957481,51.0,0.12668109328783145,-0.8950140466545538,0.0,0.0
-1124.988489957381,51.0,0.12815306815229102,-0.8979724378162534,0.0,0.0
-1122.988489957281,51.0,0.12963336770012374,-0.8977019947386873,0.0,0.0
-1120.988489957181,51.0,0.13111352223191275,-0.8942232792012852,0.0,0.0
-1118.988489957081,54.0,0.1325847579043046,-0.8983153686332164,0.0,0.0
-1116.9884899569809,54.0,0.13403234141791068,-0.900939297547017,0.0,0.0
-1114.9884899568808,54.0,0.1354770943577694,-0.9003083012426382,0.0,0.0
-1112.9884899567808,54.0,0.1369107920346066,-0.8964544431199069,0.0,0.0
-1110.9884899566807,57.0,0.13832501344473588,-0.8997817800447134,0.0,0.0
-1108.9884899565807,57.0,0.13969623046542237,-0.9017739630713596,0.0,0.0
-1106.9884899564806,57.0,0.14105338645121007,-0.9003704962753393,0.0,0.0
-1104.9884899563806,57.0,0.1423887762053351,-0.8955959718863042,0.0,0.0
-1102.9884899562805,60.0,0.14369460744041765,-0.89908958597539,0.0,0.0
-1100.9884899561805,60.0,0.14494389300987054,-0.9006386506019999,0.0,0.0
-1098.9884899560805,60.0,0.1461688387047664,-0.8984458321453315,0.0,0.0
-1096.9884899559804,60.0,0.1473626119651276,-0.8925716737071174,0.0,0.0
-1094.9884899558804,63.0,0.148518391866162,-0.8961011945079473,0.0,0.0
-1092.9884899557803,63.0,0.14960590370066174,-0.8981642431768078,0.0,0.0
-1090.9884899556803,63.0,0.15065869331149476,-0.8963531571691531,0.0,0.0
-1088.9884899555802,63.0,0.1516711283455332,-0.8907163934048081,0.0,0.0
-1086.9884899554802,66.0,0.1526376806190714,-0.894940261040127,0.0,0.0
-1084.9884899553801,66.0,0.15352711860744137,-0.8979902454158538,0.0,0.0
-1082.98848995528,66.0,0.1543737865194288,-0.897077327935068,0.0,0.0
-1080.98848995518,66.0,0.15517351442127217,-0.8922227850172058,0.0,0.0
-1078.98848995508,66.0,0.1559222854004242,-0.8925771178732059,0.0,0.0
-1076.98848995498,66.0,0.15659658373139573,-0.8923476776793551,0.0,0.0
-1074.98848995488,66.0,0.15723067673036642,-0.8881833266352077,0.0,0.0
-1072.9884899547799,66.0,0.15782199676406508,-0.8801413318765643,0.0,0.0
-1070.9884899546798,63.0,0.15836802360786473,-0.8789883551419451,0.0,0.0
-1068.9884899545798,63.0,0.15885042203399727,-0.8772337794152212,0.0,0.0
-1066.9884899544797,63.0,0.15930072295396905,-0.8717034166346302,0.0,0.0
-1064.9884899543797,63.0,0.15971779655396176,-0.8624575767317426,0.0,0.0
-1062.9884899542797,60.0,0.16010039098616413,-0.859314431244567,0.0,0.0
-1060.9884899541796,60.0,0.1604282828777731,-0.8553975340046113,0.0,0.0
-1058.9884899540796,60.0,0.16072886814181356,-0.8477695956543347,0.0,0.0
-1056.9884899539795,60.0,0.161002211943498,-0.8364918671087949,0.0,0.0
-1054.9884899538795,57.0,0.16124815299995454,-0.8311264098554991,0.0,0.0
-1052.9884899537794,57.0,0.16144605976404713,-0.8250200286981758,0.0,0.0
-1050.9884899536794,57.0,0.16162007171347542,-0.815310844609928,0.0,0.0
-1048.9884899535793,57.0,0.16177128485010217,-0.8020902148945717,0.0,0.0
-1046.9884899534793,54.0,0.1619004908395179,-0.7983034718379353,0.0,0.0
-1044.9884899533793,54.0,0.16198795337713648,-0.7951361665072909,0.0,0.0
-1042.9884899532792,54.0,0.16205546099953463,-0.7886161462569841,0.0,0.0
-1040.9884899531792,54.0,0.16210497279162037,-0.7787285211345271,0.0,0.0
-1038.9884899530791,51.0,0.1621380750045624,-0.7748862860996286,0.0,0.0
-1036.988489952979,51.0,0.16213608521036396,-0.7707168059381813,0.0,0.0
-1034.988489952879,51.0,0.1621175072761243,-0.7632809454866525,0.0,0.0
-1032.988489952779,51.0,0.1620850444245641,-0.7525853428217459,0.0,0.0
-1030.988489952679,48.0,0.16204097870391124,-0.7482576183551097,0.0,0.0
-1028.988489952579,48.0,0.1619711626255533,-0.7438381243040357,0.0,0.0
-1026.9884899524789,48.0,0.1618925556313172,-0.7362914406202552,0.0,0.0
-1024.9884899523788,48.0,0.16180849270582365,-0.7256115955230252,0.0,0.0
-1022.9884899522788,45.0,0.16172177456259845,-0.7222402095402864,0.0,0.0
-1020.9884899521787,45.0,0.16162137781715336,-0.7191716239985803,0.0,0.0
-1018.9884899520787,45.0,0.16152139676961835,-0.7130209939951326,0.0,0.0
-1016.9884899519786,45.0,0.16142551985158485,-0.7037161806400132,0.0,0.0
-1014.9884899518786,42.0,0.16133679351573377,-0.7021174804504986,0.0,0.0
-1012.9884899517785,42.0,0.16124342907236827,-0.7011790086455921,0.0,0.0
-1010.9884899516785,42.0,0.16115468191779214,-0.6973278944223891,0.0,0.0
-1008.9884899515785,42.0,0.16107414866332215,-0.6904384346980199,0.0,0.0
-1006.9884899514784,39.0,0.16100477038308914,-0.6914526750067771,0.0,0.0
-1004.9884899513784,39.0,0.16093574664346424,-0.693244936219586,0.0,0.0
-1002.9884899512783,39.0,0.1608743433234862,-0.6920871801051651,0.0,0.0
-1000.9884899511783,39.0,0.16082401327305607,-0.6877717079533123,0.0,0.0
-998.9884899510782,36.0,0.1607875891373199,-0.6887390577185573,0.0,0.0
-996.9884899509782,36.0,0.1607564164317448,-0.6896067336849321,0.0,0.0
-994.9884899508781,36.0,0.1607364771665039,-0.6874212437603635,0.0,0.0
-992.9884899507781,36.0,0.16073128528112218,-0.6819997724157365,0.0,0.0
-990.9884899506781,33.0,0.16074379392705418,-0.6821039725157699,0.0,0.0
-988.988489950578,33.0,0.16076732849049963,-0.682116731256157,0.0,0.0
-986.988489950478,33.0,0.16080594962504083,-0.6789162866994839,0.0,0.0
-984.9884899503779,33.0,0.1608632836707682,-0.6722832078823755,0.0,0.0
-982.9884899502779,30.0,0.1609424888780636,-0.6727452620384355,0.0,0.0
-980.9884899501778,30.0,0.16103868277987143,-0.6735155732704677,0.0,0.0
-978.9884899500778,30.0,0.16115340079780832,-0.6708151111072884,0.0,0.0
-976.9884899499777,30.0,0.16129057087685938,-0.6644128693339473,0.0,0.0
-974.9884899498777,27.0,0.1614537860628453,-0.6643599968190393,0.0,0.0
-972.9884899497777,27.0,0.16163990615106655,-0.6644834539610798,0.0,0.0
-970.9884899496776,27.0,0.16184677908744666,-0.6611125417221198,0.0,0.0
-968.9884899495776,27.0,0.16207861354409078,-0.6539465665981257,0.0,0.0
-966.9884899494775,24.0,0.16233946450274087,-0.6525469036813027,0.0,0.0
-964.9884899493775,24.0,0.1626273110653847,-0.6508045018358752,0.0,0.0
-962.9884899492774,24.0,0.16293550199882267,-0.6450442448510676,0.0,0.0
-960.9884899491774,24.0,0.1632685645586384,-0.6349237175184888,0.0,0.0
-958.9884899490773,21.0,0.16363114451579536,-0.6340159192045718,0.0,0.0
-956.9884899489773,21.0,0.16402153228670235,-0.6344584127215276,0.0,0.0
-954.9884899488773,21.0,0.1644265620277963,-0.6312132899540948,0.0,0.0
-952.9884899487772,21.0,0.1648510832941278,-0.623768086909705,0.0,0.0
-950.9884899486772,18.0,0.16530045910844632,-0.6244413153504438,0.0,0.0
-948.9884899485771,18.0,0.16577509298769666,-0.6263417265148477,0.0,0.0
-946.9884899484771,18.0,0.16625542107223737,-0.6249469473276348,0.0,0.0
-944.988489948377,18.0,0.16674650874670036,-0.6199486008459993,0.0,0.0
-942.988489948277,15.0,0.1672542804749455,-0.6172108298379404,0.0,0.0
-940.988489948177,15.0,0.16778531057902887,-0.6138624001041744,0.0,0.0
-938.9884899480769,15.0,0.1683183955158574,-0.607747291787963,0.0,0.0
-936.9884899479769,15.0,0.16885866825761844,-0.5987280480416267,0.0,0.0
-934.9884899478768,12.0,0.16941224883594802,-0.5981457447949787,0.0,0.0
-932.9884899477768,12.0,0.16999147858210156,-0.5995526482528141,0.0,0.0
-930.9884899476767,12.0,0.17057309537886117,-0.5986720317092986,0.0,0.0
-928.9884899475767,12.0,0.17116196953278795,-0.5950189160810783,0.0,0.0
-926.9884899474766,9.0,0.17176402811826544,-0.594525925737061,0.0,0.0
-924.9884899473766,9.0,0.17239565684821886,-0.5943176683064824,0.0,0.0
-922.9884899472765,9.0,0.1730287865372004,-0.5918837435691358,0.0,0.0
-920.9884899471765,9.0,0.1736676239053821,-0.5866401714853796,0.0,0.0
-918.9884899470765,6.0,0.17431748763367924,-0.5837839337010268,0.0,0.0
-916.9884899469764,6.0,0.1750001561051974,-0.5814333814033237,0.0,0.0
-914.9884899468764,6.0,0.17568509321709494,-0.5777499890050166,0.0,0.0
-912.9884899467763,6.0,0.17637492321932888,-0.5726841979313737,0.0,0.0
-910.9884899466763,3.0,0.17707337146963528,-0.5678361771711418,0.0,0.0
-908.9884899465762,3.0,0.17780766391927405,-0.563009181171268,0.0,0.0
-906.9884899464762,3.0,0.17854803458571644,-0.5577540249028972,0.0,0.0
-904.9884899463761,3.0,0.17929470447648543,-0.5520830294660997,0.0,0.0
-902.9884899462761,0.0,0.1800489663005574,-0.5458998320951044,0.0,0.0
-900.9884899461761,0.0,0.1808414357476852,-0.5395984201699799,0.0,0.0
-898.988489946076,0.0,0.1816444117772763,-0.5332738939872496,0.0,0.0
-896.988489945976,0.0,0.1824552381276789,-0.5269319541540494,0.0,0.0
-894.9884899458759,4.0,0.18327229316927834,-0.4985518146144393,0.0,0.0
-892.9884899457759,4.0,0.18413330129480002,-0.49623292616634096,0.0,0.0
-890.9884899456758,4.0,0.18500833085477034,-0.4932846694818336,0.0,0.0
-888.9884899455758,4.0,0.18589187001448107,-0.489786010321404,0.0,0.0
-886.9884899454757,8.0,0.18677938476146744,-0.4843747142907708,0.0,0.0
-884.9884899453757,8.0,0.1877188496826686,-0.4832731071994641,0.0,0.0
-882.9884899452757,8.0,0.1886758086749966,-0.481734852890965,0.0,0.0
-880.9884899451756,8.0,0.18964228769444066,-0.4798166391691,0.0,0.0
-878.9884899450756,12.0,0.1906112241674164,-0.48156569448212116,0.0,0.0
-876.9884899449755,12.0,0.19163586574867406,-0.480318001026288,0.0,0.0
-874.9884899448755,12.0,0.19268105004060262,-0.47841633301896125,0.0,0.0
-872.9884899447754,12.0,0.1937370100357113,-0.4759013190011939,0.0,0.0
-870.9884899446754,16.0,0.1947948377247547,-0.48584555673799107,0.0,0.0
-868.9884899445753,16.0,0.195907485777879,-0.4839695531770819,0.0,0.0
-866.9884899444753,16.0,0.1970431607773663,-0.4809065496074958,0.0,0.0
-864.9884899443753,16.0,0.19819114555857567,-0.47674607560768767,0.0,0.0
-862.9884899442752,20.0,0.19934149888376843,-0.4752390734587516,0.0,0.0
-860.9884899441752,20.0,0.2005440092312458,-0.47596930809490345,0.0,0.0
-858.9884899440751,20.0,0.20177250718572917,-0.4754100340118077,0.0,0.0
-856.9884899439751,20.0,0.20301563559402258,-0.47362238144151725,0.0,0.0
-854.988489943875,24.0,0.2042627122383032,-0.4741910852466782,0.0,0.0
-852.988489943775,24.0,0.20556207124335724,-0.4718476560223867,0.0,0.0
-850.988489943675,24.0,0.20689239932851267,-0.4681500432621789,0.0,0.0
-848.9884899435749,24.0,0.2082420800505415,-0.4632074688474996,0.0,0.0
-846.9884899434749,28.0,0.209600037301217,-0.4663803173036914,0.0,0.0
-844.9884899433748,28.0,0.21101267443133867,-0.4652735479725101,0.0,0.0
-842.9884899432748,28.0,0.21246324050517504,-0.4625806248629597,0.0,0.0
-840.9884899431747,28.0,0.21394039764391262,-0.45850308856916344,0.0,0.0
-838.9884899430747,32.0,0.21543304314089862,-0.47698115460222024,0.0,0.0
-836.9884899429746,32.0,0.21698119161905347,-0.47873671461323075,0.0,0.0
-834.9884899428746,32.0,0.21857193852079362,-0.4787353364841666,0.0,0.0
-832.9884899427745,32.0,0.22019454147304995,-0.4771695629545921,0.0,0.0
-830.9884899426745,36.0,0.22183810482453967,-0.5000535392738159,0.0,0.0
-828.9884899425745,36.0,0.22353843419617078,-0.5026396009849889,0.0,0.0
-826.9884899424744,36.0,0.22528546754613038,-0.5036302615714479,0.0,0.0
-824.9884899423744,36.0,0.22706885549636535,-0.5031824179438773,0.0,0.0
-822.9884899422743,40.0,0.2288777397585891,-0.5265413534500356,0.0,0.0
-820.9884899421743,40.0,0.23074534613950645,-0.5323732023449357,0.0,0.0
-818.9884899420742,40.0,0.23266244712118125,-0.5363583978774457,0.0,0.0
-816.9884899419742,40.0,0.23461880026346782,-0.5385812657700375,0.0,0.0
-814.9884899418741,44.0,0.23660336249799774,-0.5580492352011811,0.0,0.0
-812.9884899417741,44.0,0.23864746051230834,-0.5645691786434455,0.0,0.0
-810.9884899416741,44.0,0.2407423859392472,-0.5692609511896564,0.0,0.0
-808.988489941574,44.0,0.24287784280299218,-0.5721877607307868,0.0,0.0
-806.988489941474,48.0,0.2450424829488058,-0.5901279660343226,0.0,0.0
-804.9884899413739,48.0,0.24726847436986063,-0.5961986598701241,0.0,0.0
-802.9884899412739,48.0,0.24954758966304866,-0.6004636879396329,0.0,0.0
-800.9884899411738,48.0,0.25186909226054965,-0.6029730048821307,0.0,0.0
-798.9884899410738,52.0,0.2542209635628882,-0.6180269530938646,0.0,0.0
-796.9884899409737,52.0,0.2566367329440238,-0.622281206891663,0.0,0.0
-794.9884899408737,52.0,0.25910737248218557,-0.6245988468019967,0.0,0.0
-792.9884899407737,52.0,0.26162150323538264,-0.6250436669447326,0.0,0.0
-790.9884899406736,56.0,0.26416627362547407,-0.6375548269079225,0.0,0.0
-788.9884899405736,56.0,0.2667780571583913,-0.6430372447540416,0.0,0.0
-786.9884899404735,56.0,0.26944687399373607,-0.646616573253468,0.0,0.0
-784.9884899403735,56.0,0.27215862426012727,-0.648331003368928,0.0,0.0
-782.9884899402734,60.0,0.27489786164533236,-0.6597253838311954,0.0,0.0
-780.9884899401734,60.0,0.27769972268417076,-0.6639857861183572,0.0,0.0
-778.9884899400734,60.0,0.28055340914636834,-0.6661991243228695,0.0,0.0
-776.9884899399733,60.0,0.2834420001475092,-0.666401764683102,0.0,0.0
-774.9884899398733,64.0,0.2863474852246553,-0.6766076146838025,0.0,0.0
-772.9884899397732,64.0,0.28928700407830554,-0.6815240245322649,0.0,0.0
-770.9884899396732,64.0,0.292260738627622,-0.6841612763441177,0.0,0.0
-768.9884899395731,64.0,0.29525116468530965,-0.6845200789523751,0.0,0.0
-766.9884899394731,68.0,0.2982398168878458,-0.6920118590977432,0.0,0.0
-764.988489939373,68.0,0.30121735197586447,-0.6956258070278545,0.0,0.0
-762.988489939273,68.0,0.3042069435408454,-0.6966690129041686,0.0,0.0
-760.988489939173,68.0,0.30719110351480383,-0.6951374733734523,0.0,0.0
-758.9884899390729,72.0,0.3101516334940737,-0.7005442786143725,0.0,0.0
-756.9884899389729,72.0,0.3130546777749888,-0.7030130643561492,0.0,0.0
-754.9884899388728,72.0,0.3159466601689387,-0.7028868042240101,0.0,0.0
-752.9884899387728,72.0,0.3188107677072704,-0.7001789110956056,0.0,0.0
-750.9884899386727,76.0,0.32162969793515495,-0.7042391495295802,0.0,0.0
-748.9884899385727,76.0,0.32435183385574384,-0.7059998754112328,0.0,0.0
-746.9884899384726,76.0,0.32703930394501873,-0.7050482232732675,0.0,0.0
-744.9884899383726,76.0,0.32967653284007303,-0.7013925628924713,0.0,0.0
-742.9884899382726,80.0,0.33224768565597856,-0.7017482529825255,0.0,0.0
-740.9884899381725,80.0,0.33469387577913734,-0.7017306451285674,0.0,0.0
-738.9884899380725,80.0,0.3370835164587833,-0.6987701861102966,0.0,0.0
-736.9884899379724,80.0,0.33940301086339375,-0.692920865786036,0.0,0.0
-734.9884899378724,84.0,0.3416387162303673,-0.6948877606295021,0.0,0.0
-732.9884899377723,84.0,0.34372458024178787,-0.6957012554473425,0.0,0.0
-730.9884899376723,84.0,0.34573129113383155,-0.6935389360305404,0.0,0.0
-728.9884899375722,84.0,0.3476479181772987,-0.6884425736856687,0.0,0.0
-726.9884899374722,88.0,0.34946369354074724,-0.6903771115220623,0.0,0.0
-724.9884899373722,88.0,0.3511096921468542,-0.6919121791858962,0.0,0.0
-722.9884899372721,88.0,0.35265752106709375,-0.6904638296136754,0.0,0.0
-720.9884899371721,88.0,0.35409948199493824,-0.686057434818959,0.0,0.0
-718.988489937072,88.0,0.3554281801836118,-0.6869327942385683,0.0,0.0
-716.988489936972,88.0,0.3565895740657222,-0.6870247352865324,0.0,0.0
-714.9884899368719,88.0,0.35765652454809127,-0.6841828617090265,0.0,0.0
-712.9884899367719,88.0,0.358624903927392,-0.6784446768363223,0.0,0.0
-710.9884899366718,84.0,0.3594907025561026,-0.6757384879089898,0.0,0.0
-708.9884899365718,84.0,0.3602103482019066,-0.6729533983630647,0.0,0.0
-706.9884899364718,84.0,0.3608532787573336,-0.6673613777743375,0.0,0.0
-704.9884899363717,84.0,0.3614186110815154,-0.659016405468313,0.0,0.0
-702.9884899362717,80.0,0.3619052270732915,-0.6559759330833115,0.0,0.0
-700.9884899361716,80.0,0.3622657386382909,-0.6539776409950981,0.0,0.0
-698.9884899360716,80.0,0.3625611823278736,-0.6492442200887749,0.0,0.0
-696.9884899359715,80.0,0.3627933789225248,-0.641796784718181,0.0,0.0
-694.9884899358715,76.0,0.3629636833775748,-0.6396244489247259,0.0,0.0
-692.9884899357714,76.0,0.3630238945506531,-0.6386069555531677,0.0,0.0
-690.9884899356714,76.0,0.3630279661041753,-0.6349641335719947,0.0,0.0
-688.9884899355714,76.0,0.3629800151226327,-0.6287073580298761,0.0,0.0
-686.9884899354713,72.0,0.36288351457213386,-0.6264265209771878,0.0,0.0
-684.9884899353713,72.0,0.362692389120204,-0.6248428335684042,0.0,0.0
-682.9884899352712,72.0,0.36245527787667375,-0.6207991959037773,0.0,0.0
-680.9884899351712,72.0,0.3621781757177688,-0.614275528754564,0.0,0.0
-678.9884899350711,68.0,0.3618662736252946,-0.611793055756574,0.0,0.0
-676.9884899349711,68.0,0.3614768155864607,-0.6100714102378969,0.0,0.0
-674.988489934871,68.0,0.3610503386028398,-0.6059406408906669,0.0,0.0
-672.988489934771,68.0,0.36059441839803874,-0.5993865867093686,0.0,0.0
-670.988489934671,64.0,0.3601157090284267,-0.5973298127297497,0.0,0.0
-668.9884899345709,64.0,0.3595822839656887,-0.5963244030372021,8.9e-322,7.16e-322
-666.9884899344709,64.0,0.3590293344157854,-0.5929731218489658,4.037e-320,3.2505e-320
-664.9884899343708,64.0,0.3584657229740781,-0.5872490608472152,1.85742e-318,1.495477e-318
-662.9884899342708,60.0,0.3578991468587092,-0.5845484176014238,8.4712224e-317,6.820501e-317
-660.9884899341707,60.0,0.3573058175575895,-0.5823359173885513,3.82514316e-315,3.07976443e-315
-658.9884899340707,60.0,0.35671281911396374,-0.5779366372064816,1.7100441238e-313,1.3768186837e-313
-656.9884899339706,60.0,0.35612967125890005,-0.5713055573405106,7.568759324908e-312,6.09387799675e-312
-654.9884899338706,56.0,0.35556450587757943,-0.5675771944425962,3.3166514210093e-310,2.67035198487663e-310
-652.9884899337706,56.0,0.35499311075637807,-0.5644135075937695,1.4389070030321663e-308,1.158513300061869e-308
-650.9884899336705,56.0,0.3544314213808704,-0.5592353337742528,6.180496901010792e-307,4.976125254484814e-307
-648.9884899335705,56.0,0.3538885354259133,-0.551973943434526,2.6282812556940946e-305,2.1161154438410783e-305
-646.9884899334704,52.0,0.3533721234737865,-0.5486220589426503,1.1065679019764813e-303,8.909333001942991e-304
-644.9884899333704,52.0,0.3528599372630092,-0.5463197213992,4.6125606893944377e-302,3.713717091857702e-302
-642.9884899332703,52.0,0.3523638562108309,-0.5419794538452685,1.903548385570594e-300,1.5326050030083944e-300
-640.9884899331703,52.0,0.3518924520464733,-0.5355050015635042,7.777563363504765e-299,6.261948152090369e-299
-638.9884899330702,48.0,0.35145293830438534,-0.5351243403338848,3.146161514967523e-297,2.533066026441856e-297
-636.9884899329702,48.0,0.3510272624248954,-0.5370544474717112,1.260016690343894e-295,1.014475062073165e-295
-634.9884899328702,48.0,0.35062486455003716,-0.5370498358002496,4.996080383357883e-294,4.022481656161054e-294
-632.9884899327701,48.0,0.35025435818073714,-0.5349699364653211,1.96128352873155e-292,1.5790817294734078e-292
-630.9884899326701,44.0,0.3499231373621241,-0.5356469870913324,7.62270649581019e-291,6.137238396443045e-291
-628.98848993257,44.0,0.3496170480243418,-0.5368809196221812,2.9331608324671566e-289,2.3615613669582737e-289
-626.98848993247,44.0,0.3493416323673795,-0.5360313868954222,1.1174302579986662e-287,8.996702171409346e-288
-624.9884899323699,44.0,0.34910566343173677,-0.5329175502643051,4.214663024749696e-286,3.3933239871701713e-286
-622.9884899322699,40.0,0.3489169049533778,-0.5337755551238595,1.573849413209427e-284,1.2671417336074423e-284
-620.9884899321698,40.0,0.34876500991624293,-0.5357756161633209,5.818638742050726e-283,4.684712633625934e-283
-618.9884899320698,40.0,0.34865042715855044,-0.535503262901896,2.1297936114103374e-281,1.7147413461820333e-281
-616.9884899319698,40.0,0.3485825081619011,-0.5327580929531367,7.718120647867837e-280,6.214013550389316e-280
-614.9884899318697,36.0,0.3485698862290495,-0.5308593599802196,2.769131201992106e-278,2.229480580910947e-278
-612.9884899317697,36.0,0.3486059109296701,-0.5285206633740042,9.83633791703361e-277,7.919415393248388e-277
-610.9884899316696,36.0,0.3486832335737913,-0.5238232118827214,3.459244773989615e-275,2.785098081519598e-275
-608.9884899315696,36.0,0.348811760002742,-0.5165535907672592,1.2044453617485101e-273,9.697188014195962e-274
-606.9884899314695,32.0,0.3490010679415999,-0.5112074518604431,4.151938196176259e-272,3.342790036977697e-272
-604.9884899313695,32.0,0.34924709101864315,-0.5057027388101183,1.417009081768364e-270,1.1408547462412368e-270
-602.9884899312694,32.0,0.3495330666511575,-0.49741154877296123,4.7879805155461736e-269,3.8548686938421624e-269
-600.9884899311694,32.0,0.3498695628314472,-0.48613274429247066,1.6017329610338584e-267,1.2895756303728884e-267
-598.9884899310694,28.0,0.35026739353091996,-0.47892478068541755,5.3050057540901614e-266,4.2711227004357334e-266
-596.9884899309693,28.0,0.35072398195803056,-0.47283981401278297,1.7395608490984525e-264,1.4005392731947588e-264
-594.9884899308693,28.0,0.3512090872957501,-0.46391762604778297,5.647437327650488e-263,4.546807410043132e-263
-592.9884899307692,28.0,0.3517339725851448,-0.4518850347806983,1.8151865129847484e-261,1.4614227422052324e-261
-590.9884899306692,24.0,0.3523109575246837,-0.4429987340330006,5.776292060340589e-260,4.6505381303665036e-260
-588.9884899305691,24.0,0.35294249919216253,-0.4350018916196144,1.8198479122789258e-258,1.465172014057343e-258
-586.9884899304691,24.0,0.3535846705768367,-0.4245663031390394,5.676480106096212e-257,4.570167190292871e-257
-584.988489930369,24.0,0.3542491713445382,-0.4116876509631903,1.7529972366416778e-255,1.411346469888924e-255
-582.988489930269,20.0,0.3549494597488334,-0.40118239094418773,5.359711834638399e-254,4.31512405589057e-254
-580.988489930169,20.0,0.35570072014886533,-0.3914136157998729,1.6224068033217762e-252,1.306204072024616e-252
-578.9884899300689,20.0,0.35645518757475525,-0.3800157804635571,4.862237836182985e-251,3.914595528840212e-251
-576.9884899299689,20.0,0.35722463418679135,-0.36711142136290187,1.4426825263358995e-249,1.161504468737551e-249
-574.9884899298688,16.0,0.3580228518176202,-0.35445496727241316,4.238024768115774e-248,3.4120313542737395e-248
-572.9884899297688,16.0,0.35887702585259595,-0.3408174678421887,1.2325778738568306e-246,9.923463876272036e-247
-570.9884899296687,16.0,0.35973492297686915,-0.32525113193379246,3.5491423203161324e-245,2.8574045807247695e-245
-568.9884899295687,16.0,0.3606076904384488,-0.3078966585172226,1.0117906124118244e-243,8.145886536701835e-244
-566.9884899294686,12.0,0.36150864165614804,-0.29048213027053066,2.8557229548849952e-242,2.2991280799696427e-242
-564.9884899293686,12.0,0.3624738679634614,-0.2719945390583773,7.979941516660194e-241,6.424601234758968e-241
-562.9884899292686,12.0,0.3634412407349074,-0.2516643700700467,2.2077076717078436e-239,1.777409115795332e-239
-560.9884899291685,12.0,0.3644204663334081,-0.22978640011358764,6.04702356064188e-238,4.868406773263648e-238
-558.9884899290685,8.0,0.36542353410736306,-0.2123707959992036,1.6398344417896794e-236,1.32021467092158e-236
-556.9884899289684,8.0,0.3664974182553259,-0.1976957874941403,4.402674817349079e-235,3.544545099335272e-235
-554.9884899288684,8.0,0.36757512528894304,-0.18295621104820822,1.1702846049382812e-233,9.421818364517151e-234
-552.9884899287683,8.0,0.368663029912312,-0.1682838007508028,3.079815248739196e-232,2.4795178074657182e-232
-550.9884899286683,4.0,0.36976977832347746,-0.1550195331062506,8.024466026019498e-231,6.460379536998433e-231
-548.9884899285682,4.0,0.3709524056711356,-0.14262634132080126,2.069978999988093e-229,1.6665070122057036e-229
-546.9884899284682,4.0,0.37214633172325884,-0.13043502533667078,5.286571009656829e-228,4.256127050740687e-228
-544.9884899283682,4.0,0.3733529208711579,-0.11845740236604269,1.336720316771869e-226,1.0761687144918288e-226
-542.9884899282681,0.0,0.37457576721812824,-0.1067564324163559,3.346303988409732e-225,2.6940428329165792e-225
-540.9884899281681,0.0,0.37587725866184685,-0.09532332493430898,8.293705528423847e-224,6.677086468793767e-224
-538.988489928068,0.0,0.3771987644902093,-0.08412613280988057,2.0351209522834705e-222,1.6384299940867173e-222
-536.988489927968,0.0,0.37853567181496145,-0.07315937684963547,4.944134179502703e-221,3.980404237572632e-221
-534.9884899278679,5.0,0.37988554067377545,-0.09841825221687106,1.1891830117817118e-219,9.573811806491433e-220
-532.9884899277679,5.0,0.3813234654836594,-0.09166966302580823,2.831819609318267e-218,2.279822442721608e-218
-530.9884899276678,5.0,0.38278815560951657,-0.08553037484060258,6.6763781896370646e-217,5.3749646310237025e-217
-528.9884899275678,5.0,0.38426906092352603,-0.07995931669021414,1.558384957699775e-215,1.2546097581886202e-215
-526.9884899274678,10.0,0.385757707770894,-0.09552238093962712,3.6013642960346856e-214,2.8993469736715788e-214
-524.9884899273677,10.0,0.38734860532353754,-0.09253738899196193,8.23982271651423e-213,6.633614343641465e-213
-522.9884899272677,10.0,0.3889727965482961,-0.08983488107675855,1.8664966023864346e-211,1.502653201066992e-211
-520.9884899271676,10.0,0.3906146319047232,-0.0873599119130817,4.185960053890482e-210,3.369968434252494e-210
-518.9884899270676,15.0,0.39226042376155645,-0.10001574575142742,9.29440328739873e-209,7.48258144935512e-209
-516.9884899269675,15.0,0.39401448121676147,-0.09398924559081778,2.0431794912933493e-207,1.644885371030484e-207
-514.9884899268675,15.0,0.3958077964680519,-0.08825383745535892,4.4468258445114356e-206,3.579961913917488e-206
-512.9884899267674,15.0,0.39762105064279224,-0.08281031847416764,9.581915397618904e-205,7.714002500131332e-205
-510.98848992666746,20.0,0.3994367953272629,-0.08956798424845072,2.0441519315710985e-203,1.6456586734543265e-203
-508.98848992656747,20.0,0.4013579961082932,-0.08658490860085369,4.3175031026186185e-202,3.4758288851457856e-202
-506.9884899264675,20.0,0.4033232441803745,-0.08356255050020933,9.028400390191055e-201,7.268347263652114e-201
-504.9884899263675,20.0,0.4053113374656989,-0.08050747954601992,1.8691650336063792e-199,1.5047751955305464e-199
-502.9884899262675,25.0,0.4073027829341017,-0.09180390866246946,3.831273795335366e-198,3.0843685941359244e-198
-500.9884899261675,25.0,0.4093932787637178,-0.08949503045341214,7.774947292120108e-197,6.259211601571121e-197
-498.98848992606753,25.0,0.4115329928717661,-0.08709301532020822,1.562105857130546e-195,1.2575687227151072e-195
-496.98848992596754,25.0,0.4136995136318512,-0.08460015163903403,3.107293172841366e-194,2.5015118991512028e-194
-494.98848992586755,30.0,0.4158719417436908,-0.09298699131568378,6.119455540032746e-193,4.926428576961375e-193
-492.98848992576757,30.0,0.418142427671331,-0.08807813833040269,1.1931694914085566e-191,9.605513812666583e-192
-490.9884899256676,30.0,0.42047169526941647,-0.08291280796034046,2.303299008287306e-190,1.8542480192675265e-190
-488.9884899255676,30.0,0.4228369239675904,-0.0775444624923279,4.402074072180675e-189,3.54383816025233e-189
-486.9884899254676,35.0,0.4252165348600768,-0.06769734295269607,8.329582569141456e-188,6.705617727748386e-188
-484.9884899253676,35.0,0.42769827491041307,-0.05840552497504713,1.5604433864803994e-186,1.2562109625108344e-186
-482.98848992526763,35.0,0.43025300608899153,-0.04892657502130854,2.89422110200993e-185,2.3299428259883746e-185
-480.98848992516764,35.0,0.4328585882784665,-0.03941088370171793,5.314645801718322e-184,4.2784540171344444e-184
-478.98848992506765,40.0,0.43549348921490244,-0.030823735280356576,9.662197270479811e-183,7.778348820207336e-183
-476.98848992496767,40.0,0.43823165502790984,-0.026295741070584813,1.7391476359630706e-181,1.4000608961582828e-181
-474.9884899248677,40.0,0.4410519418775638,-0.021662709288126886,3.099245653578558e-180,2.494970549482129e-180
-472.9884899247677,40.0,0.44393352459901114,-0.01700785099512364,5.4680763951914066e-179,4.401927965960863e-179
-470.9884899246677,45.0,0.44685538746281467,-0.013412867356190877,9.551513468193477e-178,7.689170173554505e-178
-468.9884899245677,45.0,0.4498816572551882,-0.008446740682450868,1.651843433675937e-176,1.3297655298884232e-176
-466.98848992446773,45.0,0.45299696094059794,-0.0035010743641031017,2.828294730336481e-175,2.2768255193489364e-175
-464.98848992436774,45.0,0.4561813960278263,0.0013470283616039969,4.79445852469025e-174,3.8596109987255822e-174
-462.98848992426775,50.0,0.45941415951565984,0.005174018573608746,8.046622201276104e-173,6.47763466243621e-173
-460.98848992416777,50.0,0.46275298256127945,0.006906123382664539,1.3370474646031648e-171,1.0763376203153893e-171
-458.9884899240678,50.0,0.4661847122082334,0.008724499327760954,2.1995773172022126e-170,1.770678728820456e-170
-456.9884899239678,50.0,0.46968982054277253,0.010593348698425334,3.582538447028602e-169,2.8839665976002623e-169
-454.9884899238678,55.0,0.4732473087206831,0.0071344798700913176,5.776991561395512e-168,4.65050283755479e-168
-452.9884899237678,55.0,0.47690990694044316,0.008236317176196516,9.2229929960221e-167,7.424528170740957e-167
-450.9884899236678,55.0,0.4806662476651778,0.009418867500470884,1.457811338363575e-165,1.1735378186989847e-165
-448.98848992356784,55.0,0.4844968858606075,0.010662083521826522,2.2813404184964373e-164,1.83647335617692e-164
-446.98848992346785,60.0,0.4883804212643445,0.006012072870654153,3.534583291026731e-163,2.8453225973989665e-163
-444.98848992336787,60.0,0.4923698885174336,0.003579178722075825,5.421827887539439e-162,4.364532792405489e-162
-442.9884899232679,60.0,0.4964556639520586,0.0012625098962941103,8.234033775850268e-161,6.628319031117784e-161
-440.9884899231679,60.0,0.5006176291706296,-0.0009245927562723313,1.2380523246636226e-159,9.966174095052039e-160
-438.9884899230679,65.0,0.5048332764788881,-0.0029033205218143704,1.8429978288093034e-158,1.483586891619974e-158
-436.9884899229679,65.0,0.5091569930048163,-0.0039012593405672105,2.7162525337557677e-157,2.1865377853408707e-157
-434.9884899228679,65.0,0.5135785713979398,-0.004783570595533172,3.9634646798123635e-156,3.190512841832381e-156
-432.98848992276794,65.0,0.5180768408451194,-0.005550924063393352,5.725842497122903e-155,4.609178720641041e-155
-430.98848992266795,70.0,0.5226278886116953,-0.0030297994311074203,8.189613207263539e-154,6.592439771088559e-154
-428.98848992256796,70.0,0.5272903009085823,-0.0009545591391671646,1.1597035930860966e-152,9.335302502855617e-153
-426.988489922468,70.0,0.5320530587281234,0.0011716884416350243,1.625886650392234e-151,1.3087908605807626e-151
-424.988489922368,70.0,0.5368903087560137,0.003319131275298523,2.256800711378706e-150,1.816652148604656e-150
-422.988489922268,75.0,0.5417736547546042,0.008761315144483427,3.1013863384793665e-149,2.49650820205202e-149
-420.988489922168,75.0,0.5467588431186234,0.01358162319959682,4.219667941559806e-148,3.396674628768869e-148
-418.988489922068,75.0,0.5518339218729293,0.01838828973267778,5.684083692079873e-147,4.5754589156926114e-147
-416.98848992196804,75.0,0.5569681843626866,0.02311693945898031,7.580580527536499e-146,6.102041667415696e-146
-414.98848992186805,80.0,0.5621288200104969,0.03773348531222483,1.0009314047366638e-144,8.05703977511537e-145
-412.98848992176806,80.0,0.5673391624219598,0.04346992245370612,1.3084768662495694e-143,1.0532602898211246e-143
-410.9884899216681,80.0,0.5726058709482322,0.049060646094946356,1.6935097442226416e-142,1.3631881832140495e-142
-408.9884899215681,80.0,0.5778973031897136,0.054430751239080304,2.1700478214109409e-141,1.7467705016129275e-141
-406.9884899214681,85.0,0.5831799985108779,0.069683094714861,2.7530297133808444e-140,2.2160311241969556e-140
-404.9884899213681,85.0,0.5884310074954914,0.0775010671238264,3.457900712147978e-139,2.78340157526479e-139
-402.9884899212681,85.0,0.5936971998922207,0.08501852854324717,4.300056901454923e-138,3.46127355857417e-138
-400.98848992116814,85.0,0.5989472007398062,0.0921302832679031,5.294146885685444e-137,4.2614368898454773e-137
-398.98848992106815,90.0,0.60414824895274,0.10861150170874054,6.453241371242109e-136,5.194411072486723e-136
-396.98848992096816,90.0,0.6092349202835566,0.11628819678947672,7.787893599124945e-135,6.268689032312787e-135
-394.9884899208682,90.0,0.6142950806629127,0.12347419307806522,9.305127447561188e-134,7.489922650757806e-134
-392.9884899207682,90.0,0.6192987912763418,0.1300715038671708,1.1007403791035127e-132,8.860090817030403e-133
-390.9884899206682,95.0,0.6242151227141584,0.14138466374814224,1.2891628054995609e-131,1.0376700661549549e-131
-388.9884899205682,95.0,0.6289471408107847,0.14858770114967756,1.4948271340154827e-130,1.2032080225475145e-130
-386.9884899204682,95.0,0.6336096763224245,0.15513010827925755,1.7160682509634544e-129,1.3812824859330302e-129
-384.98848992036824,95.0,0.6381752330402489,0.16091462509376767,1.9504667924691143e-128,1.5699459072032552e-128
-382.98848992026825,100.0,0.6426157440677496,0.16961228476938928,2.1948408142963496e-127,1.7666369615776408e-127
-380.98848992016826,100.0,0.6468209936753981,0.17569288758003676,2.4452766469048344e-126,1.9682053979992105e-126
-378.9884899200683,100.0,0.6509166116855608,0.18090074641060094,2.6972023067488555e-125,2.1709711418172522e-125
-376.9884899199683,100.0,0.6548788907910096,0.1851570125303661,2.9455041463817585e-124,2.3708181990802272e-124
-374.9884899198683,105.0,0.658683950021533,0.1934924007564475,3.1846843460703166e-123,2.5633214317392436e-123
-372.9884899197683,105.0,0.6622081425630354,0.19983175397703484,3.409053620398182e-122,2.743901673914744e-122
-370.9884899196683,105.0,0.6655806064087127,0.20515912175031176,3.6129504196317943e-121,2.90800216941735e-121
-368.98848991956834,105.0,0.6687826721668686,0.20939500514761297,3.790975247447041e-120,3.0512771714126117e-120
-366.98848991946835,110.0,0.6717958957891735,0.21324349896367784,3.9382267766270354e-119,3.1697819839726996e-119
-364.98848991936836,110.0,0.6744902390447651,0.21493239461036534,4.050525454638591e-118,3.260152929053634e-118
-362.9884899192684,110.0,0.6769955692916576,0.2154812381019116,4.124610403346159e-117,3.3197658132967755e-117
-360.9884899191684,110.0,0.6792993052616687,0.21489109940596607,4.1582966808622934e-116,3.346862486645961e-116
-358.9884899190684,110.0,0.6813893966242721,0.21082076573730665,4.1505823246955865e-115,3.3406369775672092e-115
-356.9884899189684,110.0,0.6831610486986202,0.21040862771134822,4.1016978585864516e-114,3.301275316476169e-114
-354.9884899188684,110.0,0.6847482517945269,0.20888265091379,4.01309484971765e-113,3.2299463016626603e-113
-352.98848991876844,110.0,0.6861451855251416,0.20627393756890805,3.8873743088610444e-112,3.128743847281894e-112
-350.98848991866845,105.0,0.6873462715829174,0.20678018775568036,3.728159861535827e-111,3.0005848814842096e-111
-348.98848991856846,105.0,0.6882651548301413,0.2091173483898841,3.539924319131524e-110,2.8490697412901836e-110
-346.9884899184685,105.0,0.6890326520095721,0.2104089370464704,3.327781227518286e-109,2.6783143837197617e-109
-344.9884899183685,105.0,0.6896491371966907,0.21063879400223287,3.0972549292431736e-108,2.4927653086802723e-108
-342.9884899182685,100.0,0.6901145893804763,0.2130000876410056,2.854043509340566e-107,2.2970087598715636e-107
-340.9884899181685,100.0,0.6903359865766164,0.21656632503721157,2.6037886830467205e-106,2.09558551860295e-106
-338.9884899180685,100.0,0.6904292316574001,0.21909166474031622,2.351865316030144e-105,1.8928215041989633e-105
-336.98848991796854,100.0,0.6903998705433512,0.2205341270808845,2.103201029003701e-104,1.692682592434499e-104
-334.98848991786855,95.0,0.6902526187964032,0.22344370986141504,1.8621334835570233e-103,1.4986597652813962e-103
-332.98848991776856,95.0,0.6898931276751432,0.22710325827572658,1.6323097677171684e-102,1.3136881469913235e-102
-330.9884899176686,95.0,0.6894240422835183,0.22967984129585253,1.416629095962564e-101,1.140100902916205e-101
-328.9884899175686,95.0,0.6888552562597715,0.23113004678682936,1.2172270807936454e-100,9.796165970794888e-101
-326.9884899174686,90.0,0.6881954886446796,0.233592547041299,1.0354973417175807e-99,8.333565995818222e-100
-324.9884899173686,90.0,0.6873547138294821,0.23653128947390953,8.721443446832626e-99,7.018876278051001e-99
-322.9884899172686,90.0,0.6864253522875889,0.2383970764019371,7.27260187091404e-98,5.852835575992909e-98
-320.98848991716864,90.0,0.6854207965924438,0.239140965163343,6.0041756331695e-97,4.832002544320543e-97
-318.98848991706865,85.0,0.6843529518513993,0.24187904402709132,4.907713020437164e-96,3.949573005897464e-96
-316.98848991696866,85.0,0.6831395216078558,0.2457885329384214,3.9716154976920514e-95,3.19621044501699e-95
-314.9884899168687,85.0,0.6818564235817179,0.24860010865577384,3.1821274440471286e-94,2.5608425927421783e-94
-312.9884899167687,85.0,0.6805199445420833,0.25025458654684685,2.5242382717443194e-93,2.0313874738496233e-93
-310.9884899166687,80.0,0.6791446464013537,0.24970595958843808,1.9824653351200092e-92,1.595383492952566e-92
-308.9884899165687,80.0,0.6776699623989013,0.24730298286258404,1.5414995658305655e-91,1.2405090264850263e-91
-306.9884899164687,80.0,0.6761590645901518,0.24378227303588162,1.18670790342142e-90,9.549867519290725e-91
-304.98848991636874,80.0,0.6746305211332703,0.23916896432890072,9.04496646453496e-90,7.278760386503439e-90
-302.98848991626875,75.0,0.6731007216186938,0.23843729451995355,6.825474704093788e-89,5.492628575963469e-89
-300.98848991616876,75.0,0.6715262611753495,0.2403022419412853,5.099429750409912e-88,4.103607841298378e-88
-298.9884899160688,75.0,0.6699525393247713,0.2411844991280795,3.7720139916239036e-87,3.0353890108409184e-87
-296.9884899159688,75.0,0.6683991990319083,0.241037520824968,2.7624090368598584e-86,2.2229302224503607e-86
-294.9884899158688,70.0,0.6668833026294538,0.24266999922922203,2.0029299811676734e-85,1.6117599132576386e-85
-292.9884899157688,70.0,0.6653623376438943,0.24548687335549732,1.4378272860933645e-84,1.1570123582061164e-84
-290.9884899156688,70.0,0.6638599424107737,0.24741149737132337,1.0219059564570432e-83,8.223162190708605e-84
-288.98848991556883,70.0,0.66239466190093,0.24837279682740793,7.190821041017698e-83,5.786327485267719e-83
-286.98848991546885,65.0,0.6609823714097258,0.2506424354853446,5.0096739034805165e-82,4.031164705855904e-82
-284.98848991536886,65.0,0.6595839386014021,0.2536957513700612,3.4554447052391613e-81,2.7804913178779793e-81
-282.9884899152689,65.0,0.6582157911854577,0.25577503401660734,2.359728518053496e-80,1.8987863397125628e-80
-280.9884899151689,65.0,0.6568951936656225,0.25679279292360935,1.5954523122916556e-79,1.2837909163652425e-79
-278.9884899150689,60.0,0.6556368569676883,0.25825615091754095,1.0679954420772223e-78,8.593621739521584e-79
-276.9884899149689,60.0,0.6544088296902454,0.25989302234185585,7.078135117508057e-78,5.695370701027615e-78
-274.9884899148689,60.0,0.6532235351522645,0.2605082546418509,4.644428390939967e-77,3.737073861667128e-77
-272.98848991476893,60.0,0.6520981907970074,0.26002684230372325,3.0172393475221884e-76,2.4277579425221655e-76
-270.98848991466895,55.0,0.6510477314321652,0.26116716762550873,1.9406687879510842e-75,1.5615043551769203e-75
-268.98848991456896,55.0,0.6500469107846412,0.26336858186968826,1.2358260513143576e-74,9.94363624990367e-75
-266.98848991446897,55.0,0.6491013460080323,0.2645127389350039,7.791617750512412e-74,6.269192004219546e-74
-264.988489914369,55.0,0.6482284358527436,0.2644934802503063,4.8636509687691984e-73,3.913292657743921e-73
-262.988489914269,50.0,0.6474436987921939,0.2660119325083456,3.0058114783259807e-72,2.4184527320656397e-72
-260.988489914169,50.0,0.6467287908535069,0.268507574106477,1.8391864439453124e-71,1.4797811918627788e-71
-258.988489914069,50.0,0.6460804290689242,0.2698220421194385,1.1141779646619882e-70,8.96441871337921e-71
-256.98848991396903,50.0,0.645516982742157,0.2698404175499264,6.682643171150687e-70,5.376647986901926e-70
-254.98848991386905,45.0,0.6450554854305901,0.27156289288020813,3.9683227773251224e-69,3.192758169203092e-69
-252.98848991376906,45.0,0.6446842912259615,0.2745867942859183,2.3330864536267774e-68,1.8770917850865992e-68
-250.98848991366907,45.0,0.6443859813296717,0.27655691363722956,1.3580629919127035e-67,1.0926225797045888e-67
-248.98848991356908,45.0,0.6441798774383589,0.2773286466982053,7.826621919995032e-67,6.29680331300253e-67
-246.9884899134691,40.0,0.6440846874291006,0.28078616156760244,4.4657486205895647e-66,3.59282031437702e-66
-244.9884899133691,40.0,0.6440936776466372,0.28620709473906325,2.5227823850190176e-65,2.0296277920782273e-65
-242.98848991326912,40.0,0.64417245318442,0.2904318184282183,1.4110130498463438e-64,1.1351753740560564e-64
-240.98848991316913,40.0,0.6443415175703274,0.29325803724195676,7.813545045348204e-64,6.28601340371282e-64
-238.98848991306915,35.0,0.6446218087143222,0.3002986336400987,4.283819740943986e-63,3.446303752920119e-63
-236.98848991296916,35.0,0.6450102301603542,0.31080641884005494,2.3253073477692047e-62,1.8706728422373364e-62
-234.98848991286917,35.0,0.6454482177928166,0.32027562502366247,1.2496712586780205e-61,1.0053292063597075e-61
-232.98848991276918,35.0,0.645957538080435,0.3284064081389457,6.649325238639372e-61,5.3491535173307575e-61
-230.9884899126692,30.0,0.6465618465682577,0.33721094601774104,3.502885048197244e-60,2.817917441528687e-60
-228.9884899125692,30.0,0.6472677977754588,0.346550504659664,1.8270096887089443e-59,1.4697316547681348e-59
-226.98848991246922,30.0,0.6479917559341997,0.3546219354455104,9.434580918790845e-59,7.5895242398040005e-59
-224.98848991236923,30.0,0.6487562289504459,0.3612534081784907,4.8236003845429636e-58,3.880234051097505e-58
-222.98848991226924,25.0,0.6495868674066844,0.36668411992897765,2.441670865392631e-57,1.964121300097086e-57
-220.98848991216926,25.0,0.6505129385310259,0.37122486273418154,1.2236864892306097e-56,9.843416256335725e-57
-218.98848991206927,25.0,0.6514435535540565,0.3746319341855642,6.071844026390396e-56,4.884169321594306e-56
-216.98848991196928,25.0,0.6524012282414307,0.3768341064135601,2.982899379571975e-55,2.39940214404266e-55
-214.9884899118693,20.0,0.6534120961519626,0.3808450782024789,1.4508560194429063e-54,1.1670326404407613e-54
-212.9884899117693,20.0,0.6545266219135634,0.38621651948475894,6.98679348151382e-54,5.61992802880704e-54
-210.98848991166932,20.0,0.6556459900208907,0.3905086087206357,3.331191054948383e-53,2.6794549534492007e-53
-208.98848991156933,20.0,0.6567914461246309,0.39362521896162334,1.5724954277415596e-52,1.2648245592061963e-52
-206.98848991146934,15.0,0.6579881343325489,0.3990687481616426,7.349327969104271e-52,5.911292015227688e-52
-204.98848991136936,15.0,0.6593023807229054,0.4064738790406894,3.4007478303709723e-51,2.735287665576939e-51
-202.98848991126937,15.0,0.66061824839039,0.41306825976122247,1.5580090455891756e-50,1.2531188059811396e-50
-200.98848991116938,15.0,0.6619542599144409,0.4187997049013752,7.066989525772624e-50,5.683950894125709e-50
-198.9884899110694,10.0,0.6633330695978157,0.4234248374654609,3.173715812100528e-49,2.552568475238611e-49
-196.9884899109694,10.0,0.6648390542509492,0.4274399437692506,1.4111426888023625e-48,1.1349420553011679e-48
-194.98848991086942,10.0,0.6663487441174137,0.4311355120475948,6.212169916245411e-48,4.9961949235751463e-48
-192.98848991076943,10.0,0.6678745546561002,0.4345028984902692,2.7076057223224367e-47,2.177582674509254e-47
-190.98848991066944,5.0,0.6694330520931507,0.4381375995638192,1.168415810574557e-46,9.39679444127682e-47
-188.98848991056946,5.0,0.6711236320622402,0.4420842592532625,4.992057043608564e-46,4.014715748618028e-46
-186.98848991046947,5.0,0.6728294282908434,0.44589715041025874,2.1116988258149345e-45,1.6982439948782564e-45
-184.98848991036948,5.0,0.6745537668098637,0.4495672287631723,8.844126775179622e-45,7.11239386856083e-45
-182.9884899102695,0.0,0.6763041062099995,0.45345789071131143,3.667319127111342e-44,2.949185939685914e-44
-180.9884899101695,0.0,0.6781853874882845,0.45761730034562415,1.505613283473693e-43,1.2107636641188067e-43
-178.98848991006952,0.0,0.6800951070552568,0.461780097134616,6.119971410228155e-43,4.9213890717838825e-43
-176.98848990996953,0.0,0.6820258036376818,0.46594835899650655,2.4629568715822924e-42,1.980557034225086e-42
-174.98848990986954,6.0,0.6839741125275386,0.46689314068797955,9.813771027940231e-42,7.891482113895121e-42
-172.98848990976956,6.0,0.686062888196438,0.4722848448022757,3.871568810268654e-41,3.1131612403104596e-41
-170.98848990966957,6.0,0.6881892044858264,0.47733707719701235,1.5122035208493269e-40,1.2159528027636489e-40
-168.98848990956958,6.0,0.6903349163505177,0.48206292653184735,5.84798119192875e-40,4.702232973846994e-40
-166.9884899094696,12.0,0.6924858776132743,0.48563142889970357,2.2391047664191758e-39,1.800379876578856e-39
-164.9884899093696,12.0,0.6947947458795276,0.4902434750071545,8.488204964948198e-39,6.824911252701497e-39
-162.98848990926962,12.0,0.6971491953777692,0.4943761452567883,3.185888523125977e-38,2.561550911719388e-38
-160.98848990916963,12.0,0.6995219829166301,0.4980463796499549,1.1839104424731067e-37,9.518803941104567e-38
-158.98848990906964,18.0,0.7018897439229035,0.50581086998045,4.35593084759487e-37,3.5021558200442247e-37
-156.98848990896965,18.0,0.7044180062327461,0.5133031856446495,1.5867819427615846e-36,1.2757410686541725e-36
-154.98848990886967,18.0,0.7069987323764939,0.519763149447658,5.7230557459283106e-36,4.601123579335836e-36
-152.98848990876968,18.0,0.7095982694434577,0.5251763609926696,2.0436827035670406e-35,1.6430086818921098e-35
-150.9884899086697,24.0,0.7121867659357701,0.5364129388610301,7.225602231830936e-35,5.808857658375646e-35
-148.9884899085697,24.0,0.7149225431865784,0.5423034722296578,2.52935651212898e-34,2.033372058369165e-34
-146.98848990846972,24.0,0.7177149876741467,0.5468338484245012,8.766410406653567e-34,7.047231558340651e-34
-144.98848990836973,24.0,0.7205273732678934,0.5500295422742227,3.0082203854350083e-33,2.418221884991622e-33
-142.98848990826974,30.0,0.7233265727385891,0.5608182240170041,1.0220542682931914e-32,8.215803014521122e-33
-140.98848990816975,30.0,0.7262525611675159,0.5668930839275805,3.4380729049647243e-32,2.7636339113289e-32
-138.98848990806977,30.0,0.729238782073618,0.571478142689553,1.145073595132579e-31,9.204241422843329e-32
-136.98848990796978,30.0,0.7322467692670056,0.5745804313894276,3.7759766074942627e-31,3.0350989991101287e-31
-134.9884899078698,36.0,0.7352414006444878,0.5834090646749693,1.2328299049421521e-30,9.909128985150892e-31
-132.9884899077698,36.0,0.7383507109135469,0.5889183517144005,3.9852484446596544e-30,3.203142505710126e-30
-130.98848990766982,36.0,0.7415313484175335,0.5924729537779239,1.2755175300650117e-29,1.0251693375675326e-29
-128.98848990756983,36.0,0.7447446569875746,0.5941145438717216,4.0420034478764347e-29,3.248582833285032e-29
-126.98848990746983,42.0,0.7479549409974765,0.6050289443334523,1.268196596458072e-28,1.0192288391566144e-28
-124.98848990736983,42.0,0.7512763904874287,0.6117652026776979,3.9396405005796172e-28,3.1661342664879394e-28
-122.98848990726982,42.0,0.7546886306297373,0.6161539074567666,1.2117336639559714e-27,9.73794405629828e-28
-120.98848990716982,42.0,0.7581548527664896,0.6183220635351033,3.690105644104942e-27,2.9654186497135924e-27
-118.98848990706982,48.0,0.7616401694486574,0.6304923086315033,1.1126330656045828e-26,8.940998639670388e-27
-116.98848990696982,48.0,0.7652272875262051,0.6377602516465579,3.3215987248563426e-26,2.669118248982548e-26
-114.98848990686982,48.0,0.7689144531112821,0.642407550833979,9.818042929168345e-26,7.889180322021977e-26
-112.98848990676981,48.0,0.7726679380859865,0.6445704743743217,2.8733318090638e-25,2.3087598376806344e-25
-110.98848990666981,54.0,0.776454619437412,0.6532951462222303,8.325882476686318e-25,6.689736074251375e-25
-108.98848990656981,54.0,0.7803317034218877,0.6581140939575081,2.3886855314850836e-24,1.919212728052375e-24
-106.98848990646981,54.0,0.7843121654440148,0.6605176016081857,6.785353384283732e-24,5.451571661366227e-24
-104.98848990636981,54.0,0.7883648115736536,0.6606599511167741,1.9084085404172412e-23,1.533223280279615e-23
-102.9884899062698,60.0,0.7924579315037552,0.6702721687798698,5.31442446021899e-23,4.2694778231729294e-23
-100.9884899061698,60.0,0.7966288894528948,0.6784396358750594,1.4653041101162734e-22,1.1771462491228265e-22
-98.9884899060698,60.0,0.8009000016483606,0.6840381796997421,4.000245040235821e-22,3.2134609998921374e-22
-96.9884899059698,60.0,0.8052418120259445,0.6871617506717353,1.0812681160271923e-21,8.685668665499541e-22
-94.9884899058698,66.0,0.8096234978767705,0.6969170911403315,2.8938023745452695e-21,2.3244584246329575e-21
-92.9884899057698,66.0,0.814064494779542,0.7036282835178489,7.66820524912689e-21,6.159271013621859e-21
-90.9884899056698,66.0,0.8185962052207817,0.707848180278206,2.011910780070516e-20,1.6159450183406216e-20
-88.98848990556979,66.0,0.8231905822611773,0.7096946923447456,5.2265438539707515e-20,4.1977283716456456e-20
-86.98848990546979,72.0,0.8278175328851808,0.718153845691528,1.344349406075309e-19,1.0796757487376119e-19
-84.98848990536979,72.0,0.8324870833632253,0.7252988941361929,3.423751320355854e-19,2.749567722854368e-19
-82.98848990526979,72.0,0.8372399530483597,0.7300080896533012,8.633474214118135e-19,6.933114627635967e-19
-80.98848990516979,72.0,0.8420483553419243,0.7323598615748692,2.155575183058976e-18,1.7309561901893597e-18
-78.98848990506978,78.0,0.8468818880521318,0.7414241987438717,5.328878784391774e-18,4.2789615668512706e-18
-76.98848990496978,78.0,0.851742417142427,0.7495868620636701,1.3043811588176066e-17,1.0473364425290188e-17
-74.98848990486978,78.0,0.8566764316883585,0.7552011045169409,3.161332326964546e-17,2.538227236804538e-17
-72.98848990476978,78.0,0.8616559394180439,0.7583357893409981,7.586364915369742e-17,6.090770077654204e-17
-70.98848990466978,84.0,0.8666499239730077,0.7666977347816275,1.802587107594541e-16,1.4471459322903818e-16
-68.98848990456978,84.0,0.8716563266795918,0.7742285970121061,4.240907433341572e-16,3.404488701116186e-16
-66.98848990446977,84.0,0.8767273385290437,0.7792764314692882,9.879214321057571e-16,7.930343057541478e-16
-64.98848990436977,84.0,0.881832369880298,0.7819018562314675,2.2787055923854727e-15,1.8290840312314413e-15
-62.98848990426977,90.0,0.8869377545626871,0.7896873825629814,5.2042407407311985e-15,4.1771308520148745e-15
-60.98848990416977,90.0,0.8920347556353894,0.7973040745198919,1.1768770041442056e-14,9.445531713957026e-15
-58.988489904069766,90.0,0.8971791210026318,0.8022305301385038,2.6351815614062475e-14,2.114851402571701e-14
-56.988489903969764,90.0,0.902337569222465,0.8045042578972752,5.842477457363976e-14,4.6885620621142516e-14
-54.98848990386976,96.0,0.9074739270256886,0.8128100633581081,1.2826019456931627e-13,1.0292174326954234e-13
-52.98848990376976,96.0,0.9125516674130157,0.8223147934817338,2.788023585768307e-13,2.2370906461869553e-13
-50.98848990366976,96.0,0.9176357156689153,0.8289380309679991,6.000840590429461e-13,4.814712823298495e-13
-48.98848990356976,96.0,0.922693027697078,0.8326634042020056,1.2789108671156136e-12,1.026051057977307e-12
-46.988489903469755,102.0,0.9276880019390142,0.8405543041823715,2.6988732978416916e-12,2.1651141572633076e-12
-44.988489903369754,102.0,0.9325529913060769,0.8488602761982847,5.639495903835438e-12,4.523841535728588e-12
-42.98848990326975,102.0,0.9373787939748576,0.8540122467278691,1.1668505456886069e-11,9.359449106135997e-12
-40.98848990316975,102.0,0.942134093106527,0.8560027004894126,2.3906113721239666e-11,1.9173929364419547e-11
-38.98848990306975,108.0,0.9467854890830496,0.8631059354074215,4.8497932101415396e-11,3.8894801323039665e-11
-36.98848990296975,108.0,0.9512390197478254,0.8723464351362498,9.74225967740756e-11,7.812558981992747e-11
-34.988489902869745,108.0,0.955613161039093,0.8783201432908974,1.9378503034849233e-10,1.553882417139007e-10
-32.98848990276974,108.0,0.959879562579953,0.8810182631884682,3.81686371850084e-10,3.0603275948973417e-10
-30.98848990266974,114.0,0.9640081344514099,0.8883080523109255,7.444249256206896e-10,5.968215490732019e-10
-28.98848990256974,114.0,0.9678806960864855,0.898272283076084,1.4376890424890585e-09,1.1525236145293282e-09
-26.988489902469738,114.0,0.9716287097561226,0.9048095222641075,2.7494185902874613e-09,2.203869825796988e-09
-24.988489902369736,114.0,0.9752276969944887,0.9078738636942856,5.206558078187307e-09,4.173062469251421e-09
-22.988489902269734,120.0,0.9786518693712495,0.915414763964482,9.763301232425784e-09,7.824539902775056e-09
-20.988489902169732,120.0,0.9817700887889569,0.9257473133342373,1.8129299146961347e-08,1.4527801942234177e-08
-18.98848990206973,120.0,0.9847179248469712,0.9323787712186173,3.333542510162949e-08,2.671040391665101e-08
-16.98848990196973,120.0,0.9874761925441503,0.9352682938974133,6.069794766617525e-08,4.862983314878597e-08
-14.988489901869729,126.0,0.9900248633284567,0.9429618220479987,1.0944287224225234e-07,8.767369010495208e-08
-12.988489901769729,126.0,0.9922174972253104,0.954659895392425,1.954109670673208e-07,1.56524544467897e-07
-10.988489901669729,126.0,0.9941870272192399,0.9625208809586479,3.45510256281638e-07,2.767227159917332e-07
-8.988489901569729,126.0,0.9959208985187991,0.9664647243629054,6.049593105475142e-07,4.844611897363811e-07
-6.988489901469729,132.0,0.9974062567769888,0.974876839296799,1.0489319762859632e-06,8.399001850397915e-07
-4.988489901369729,132.0,0.9984830857593332,0.9871761174705905,1.8010560294478353e-06,1.4419613855264804e-06
-2.9884899012697286,132.0,0.9992773746972458,0.9954176373401117,3.0624480869506063e-06,2.4515439767486975e-06
-0.9884899011697286,132.0,0.9997844506946689,0.999503888535028,5.156734944874229e-06,4.127515951185967e-06
1.0115100989302714,132.0,1.0,0.9994804318598062,8.59901028138356e-06,6.8818282794923715e-06
3.0115100990302714,132.0,0.9997810719265521,0.9953463734765886,1.4200145997670589e-05,1.1362867988008035e-05
5.0115100991302715,132.0,0.9992706651318257,0.987057302393578,2.3222608724281758e-05,1.857993893745375e-05
7.0115100992302715,132.0,0.9984730986529662,0.9747124709409428,3.761025681691199e-05,3.008680022905517e-05
9.011510099330271,126.0,0.9973930436670302,0.9664415212759989,6.032287188588899e-05,4.824878724102232e-05
11.011510099430271,126.0,0.9959047529125734,0.9624526643186819,9.581676979201978e-05,7.662647236290147e-05
13.011510099530271,126.0,0.994168095420587,0.9545467897539509,0.0001507260462088691,0.00012051933279350982
