#lags,ntau,weight_dist,acf,smooth_dist,smooth_weight_dist
-1000.0,36.0,0.08316260828269263,-0.6811933314882133,1.374076457666854e-09,1.7801593278637153e-10
-998.5,36.0,0.0837251243271733,-0.6827822369332455,2.5565214833743445e-09,3.3133281504306e-10
-997.0,36.0,0.08429025078504522,-0.6828066979717489,4.71177560850669e-09,6.109087524010801e-10
-995.5,36.0,0.08485843027033572,-0.6811573945423106,8.602610637243696e-09,1.1158580341140663e-09
-994.0,36.0,0.08542957079177636,-0.6777550456323809,1.555969310229509e-08,2.0191905181781204e-09
-992.5,36.0,0.08600350789467116,-0.6725567327668285,2.7881243308078712e-08,3.619904761497562e-09
-991.0,33.0,0.0865792691367089,-0.6739838498046895,4.949707484371596e-08,6.429614019381259e-09
-989.5,33.0,0.0871585237487678,-0.6738438415494676,8.706023577128061e-08,1.1315080998706946e-08
-988.0,33.0,0.08774315360178771,-0.6719801647514723,1.5172262413214341e-07,1.9730277879835374e-08
-986.5,33.0,0.0883332508188701,-0.6682832807840906,2.619925910528014e-07,3.409022899917707e-08
-985.0,33.0,0.08892885171300367,-0.662678647560746,4.482852320821678e-07,5.836693054444844e-08
-983.5,30.0,0.08952991953852792,-0.6619157415170889,7.600914156465142e-07,9.902928437392556e-08
-982.0,30.0,0.09013738226505838,-0.6629034224040851,1.2771531944913944e-06,1.665100524192262e-07
-980.5,30.0,0.09075224947926766,-0.6620752309873471,2.126700167384091e-06,2.774712478838656e-07
-979.0,30.0,0.09137479309331119,-0.6593011277840017,3.5097522350734876e-06,4.582656992534928e-07
-977.5,30.0,0.0920052367921778,-0.6544944422331311,5.740831681046355e-06,7.501706041302355e-07
-976.0,27.0,0.09264375393504483,-0.6507059011639544,9.307282839911259e-06,1.2172165140535974e-06
-974.5,27.0,0.09329258848786401,-0.651538017949362,1.4956934725273152e-05,1.9577746753883373e-06
-973.0,27.0,0.09395091910602464,-0.6506067654480776,2.3826260343924416e-05,3.121524295487326e-06
-971.5,27.0,0.09461833579895014,-0.6477486344304384,3.762572141225071e-05,4.934031526566157e-06
-970.0,27.0,0.09529521685946674,-0.6428368553307562,5.8904906416833284e-05,7.731970898897013e-06
-968.5,27.0,0.09598193035668279,-0.6357954365323748,9.142766335733017e-05,1.2013048220836666e-05
-967.0,24.0,0.09667894041857278,-0.6357397482312254,0.00014069698971066574,1.8505983315867618e-05
-965.5,24.0,0.09738548278615906,-0.6338300175519445,0.00021468123817499428,2.826752019307229e-05
-964.0,24.0,0.09810117957105247,-0.6297653498231779,0.0003248074228199877,4.281538118892113e-05
-962.5,24.0,0.09882654153607642,-0.6233864110455667,0.00048730412684294737,6.430838260971082e-05
-961.0,24.0,0.09956213064499196,-0.6146024732552301,0.0007249955627846885,9.578756588802024e-05
-959.5,21.0,0.10030853365682169,-0.6119107429738603,0.0010696692394646882,0.000141495110404956
-958.0,21.0,0.10106547187699248,-0.6119346864982511,0.0015651615225549748,0.0002072908615894482
-956.5,21.0,0.10182874837304604,-0.6100738165820881,0.0022713266308947793,0.0003011893305084189
-955.0,21.0,0.1025989538114922,-0.6060966415891835,0.0032690730590134525,0.00043404269879766333
-953.5,21.0,0.10337677100216325,-0.5998115055004812,0.004666663979154762,0.0006203972768850337
-952.0,18.0,0.10416300023235699,-0.594953660386423,0.006607480836380663,0.0008795514633803035
-950.5,18.0,0.10495932332723744,-0.5965797286650597,0.009279437133739465,0.00123684185226847
-949.0,18.0,0.10575971456671165,-0.5966000902176498,0.0129261964688866,0.0017251799193778975
-947.5,18.0,0.10656232314002288,-0.5948564767277056,0.01786028876023251,0.002386853783420983
-946.0,18.0,0.10736789177983913,-0.5912308480545995,0.02447812462989788,0.0032755969368591137
-944.5,18.0,0.10817736537820821,-0.5856621764091304,0.03327677390679246,0.00445890769004261
-943.0,15.0,0.10899287222615323,-0.5835245569331816,0.04487219537751406,0.006020578661517901
-941.5,15.0,0.10981380050125353,-0.5801325359767147,0.06001837898567,0.00806336461203103
-940.0,15.0,0.11063583942103379,-0.5752988409405961,0.07962659028070566,0.010711679422234718
-938.5,15.0,0.11145971546411451,-0.5689674835191738,0.10478359697218126,0.014114169947592556
-937.0,15.0,0.11228637859894888,-0.5611294709694958,0.13676742254955385,0.018445967666433926
-935.5,12.0,0.11311697418290642,-0.5583031481328529,0.17705883342161574,0.023910371368314202
-934.0,12.0,0.11395499077740623,-0.5579512191413646,0.22734645353485694,0.030739669674606354
-932.5,12.0,0.11479434715076378,-0.5564443391683183,0.2895231515540249,0.03919477614087963
-931.0,12.0,0.11563571245009,-0.5536069672303147,0.3656712046315096,0.04956332821158413
-929.5,12.0,0.11647993049340678,-0.5492691111793826,0.4580337576400167,0.06215590111676417
-928.0,9.0,0.11732805633563627,-0.5448000414731226,0.5689703153466381,0.07730001567212336
-926.5,9.0,0.11818337109719221,-0.5424290349308495,0.7008944695300725,0.09533168088645491
-925.0,9.0,0.11904259133799347,-0.5388720239309237,0.8561928034712634,0.11658431267282071
-923.5,9.0,0.11990315579993889,-0.533940161929752,1.037124943398528,0.1413750105600091
-922.0,9.0,0.12076560904377832,-0.527438205039059,1.245706025290348,0.1699883532983519
-920.5,9.0,0.12163071851101845,-0.5191853110635348,1.48357436957494,0.20265808549026235
-919.0,6.0,0.12250142838080347,-0.5162853652679883,1.751848824948863,0.23954729988242635
-917.5,6.0,0.12338046799076785,-0.5129438338293351,2.0509819408560372,0.28072795795788236
-916.0,6.0,0.12426152744635605,-0.5089716208789243,2.380616711521224,0.3261608149638747
-914.5,6.0,0.1251445994376832,-0.5043695778611225,2.7394559375984224,0.37567700151444416
-913.0,6.0,0.12602988844163585,-0.4991495070825065,3.12515410221398,0.42896263829633974
-911.5,3.0,0.12691780283954687,-0.4946248294175317,3.5342418944548717,0.48554790033145956
-910.0,3.0,0.1278192116474285,-0.49058914451558133,3.962093002992059,0.5448018838507547
-908.5,3.0,0.128725287163211,-0.48638928257641734,4.402941462915806,0.6059344500199371
-907.0,3.0,0.12963533399504187,-0.4820325490438173,4.849955654363232,0.6680059226660097
-905.5,3.0,0.130548751793091,-0.4775265828663585,5.295372085986951,0.72994510995686
-904.0,0.0,0.131465131185623,-0.47283718027369803,5.730688498238846,0.790575622678503
-902.5,0.0,0.13239043446597984,-0.4680139373376616,6.146911820033182,0.8486499056860335
-901.0,0.0,0.1333276068615802,-0.4632098488152218,6.534852403736851,0.902889825134547
-899.5,0.0,0.13427121488736748,-0.4584268642467023,6.8854520874378595,0.9520321094231775
-898.0,0.0,0.1352197240247686,-0.4536668263528686,7.190130342716074,0.9948764756855066
-896.5,0.0,0.13617177309711057,-0.44893147019538876,7.441130390626414,1.030333932549817
-895.0,4.0,0.13713006727822877,-0.4496369978981692,7.631845979285476,1.057472572256446
-893.5,4.0,0.13810841887497022,-0.4486192485185597,7.757109692757037,1.0755581770087876
-892.0,4.0,0.13909684746617415,-0.44734110200746807,7.813425266079028,1.0840871755469128
-890.5,4.0,0.14009295139636505,-0.4458214508662932,7.799129349090686,1.0828098882656194
-889.0,4.0,0.1410944614962058,-0.44408222828432947,7.7144722971855835,1.0717425666074998
-887.5,8.0,0.14209927560026195,-0.4501328088289591,7.561612561246054,1.0511674227194356
-886.0,8.0,0.14312861372889316,-0.45035288212055413,7.3445247068142,1.0216206039619213
-884.5,8.0,0.14417096913400745,-0.4503320179747679,7.068826571116231,0.9838688322654741
-883.0,8.0,0.1452232964272883,-0.45008686346608556,6.741536118944037,0.9388761380583115
-881.5,8.0,0.14628248911381336,-0.44963469396196043,6.37077277819329,0.8877627153552423
-880.0,12.0,0.14734558114600332,-0.45721795626564093,5.965421097130847,0.8317583623316234
-878.5,12.0,0.14842069597056953,-0.4567530639799706,5.534776253518061,0.7721532193418669
-877.0,12.0,0.14952030713290848,-0.4559623603744671,5.088191175191985,0.7102485608529656
-875.5,12.0,0.1506326117787824,-0.4548552653348044,4.634743850286201,0.647310244701432
-874.0,12.0,0.15175389318077234,-0.45344507488812347,4.182940983073348,0.5845270942103599
-872.5,12.0,0.15288054105807083,-0.4517483302946942,3.7404707579181835,0.5229760228732339
-871.0,16.0,0.15401308917664075,-0.46570173357840705,3.3140134456859913,0.46359515402995044
-869.5,16.0,0.1551728571901912,-0.46479405073349306,2.9091142908308614,0.4071655902382302
-868.0,16.0,0.15634813520165095,-0.4632818714514765,2.530118912516377,0.35430189915233806
-866.5,16.0,0.15753478739944962,-0.46119225511835266,2.18016765769393,0.305450849466566
-865.0,16.0,0.15872874873674025,-0.45855805569877317,1.8612422090050336,0.2608974874726421
-863.5,20.0,0.15992610031318044,-0.4598332865355075,1.5742554426578539,0.22077731602201478
-862.0,20.0,0.16114879894568862,-0.46101003611035585,1.319174127831019,0.1850931346174468
-860.5,20.0,0.1623900981859478,-0.4615215955605934,1.0951635499606716,0.15373502130239253
-859.0,20.0,0.16364581560564595,-0.46138143290734074,0.9007434413032924,0.1265019727870695
-857.5,20.0,0.16491151790295142,-0.46061095699454324,0.7339455728209593,0.10312384963095397
-856.0,24.0,0.16618287831736767,-0.4635799314170382,0.592464825809241,0.08328247398102315
-854.5,24.0,0.16746430276948474,-0.462704513641629,0.4737973301749028,0.06663097195084158
-853.0,24.0,0.16877445455170687,-0.46110803653950005,0.3753611451356672,0.05281071549763839
-851.5,24.0,0.1701029997535576,-0.4588177571259556,0.29459680527907117,0.04146547680244191
-850.0,24.0,0.1714452098773656,-0.4558695676328209,0.2290467308909664,0.03225264334648584
-848.5,24.0,0.17279640922813652,-0.4523066662422423,0.17641391509577856,0.024851541087806406
-847.0,28.0,0.17415502959030738,-0.45863904116634835,0.13460139973638396,0.018969068838011097
-845.5,28.0,0.17554192357982723,-0.45819836804673925,0.10173482128827896,0.014342956657388321
-844.0,28.0,0.17695089435373854,-0.4569156444257868,0.0761707617931667,0.01074302661717776
-842.5,28.0,0.17837713803150973,-0.45485716977576984,0.056493814582411365,0.007970860601539228
-841.0,28.0,0.17981582810265717,-0.45209628583259776,0.04150522144290936,0.0058582739662917955
-839.5,32.0,0.18126221383398558,-0.4707730872485153,0.030205714349320546,0.004264963825815012
-838.0,32.0,0.18273140262278414,-0.4727922628697609,0.02177485835018192,0.0030756545252692384
-836.5,32.0,0.1842258300371925,-0.47384034495743355,0.015548794955617907,0.0021970078153831962
-835.0,32.0,0.18574147018326312,-0.47397747627991277,0.010997871338855266,0.001554507572566483
-833.5,32.0,0.18727355629402764,-0.4732741850991761,0.007705243671685827,0.0010894733925404347
-832.0,36.0,0.18881729961894606,-0.494460902325992,0.005347186447992181,0.0007563073794872912
-830.5,36.0,0.1903721397824248,-0.49731865719640156,0.003675537599021789,0.0005200359571845438
-829.0,36.0,0.19195781019039992,-0.49926951148770427,0.0025024673211872656,0.0003541743989620976
-827.5,36.0,0.19356495548929947,-0.5003601789386065,0.0016875762456953804,0.00023891596867454176
-826.0,36.0,0.19518888234439133,-0.5006463570237205,0.0011272008567007911,0.00015962941089162162
-824.5,36.0,0.19682479639764056,-0.5001902458330454,0.000745723185580082,0.00010563696222672496
-823.0,40.0,0.1984694392139971,-0.5240630450104902,0.0004886388171348369,6.92388331619536e-05
-821.5,40.0,0.20013904718130507,-0.5285689095308425,0.0003171230875145259,4.494796675941452e-05
-820.0,40.0,0.20182913558141935,-0.5320731842120221,0.00020384167641686757,2.8899645568976754e-05
-818.5,40.0,0.20353503797331587,-0.5346004659796713,0.00012977141018763976,1.8403179878053424e-05
-817.0,40.0,0.2052519247860785,-0.536189303986867,8.182419410390562e-05,1.1606650448565828e-05
-815.5,44.0,0.2069749071370496,-0.5539042048614813,5.1097179434847727e-05,7.249874165299175e-06
-814.0,44.0,0.2087217021330712,-0.5592427982777529,3.160242905010974e-05,4.484969281308841e-06
-812.5,44.0,0.21049140935808697,-0.5635863245180917,1.935745588509283e-05,2.7478302044681204e-06
-811.0,44.0,0.21227809271603376,-0.5669478872625601,1.1742927023049214e-05,1.6673154365650137e-06
-809.5,44.0,0.2140767010288714,-0.5693545894481205,7.055061071729103e-06,1.0019342358208944e-06
-808.0,48.0,0.21588204934838534,-0.5842724679319163,4.1977604842560725e-06,5.962802287208002e-07
-806.5,48.0,0.21770734039418077,-0.5895850253738557,2.473564244660284e-06,3.5143709513785845e-07
-805.0,48.0,0.21956434252849608,-0.5939172048384312,1.4434896304448893e-06,2.0512902412442161e-07
-803.5,48.0,0.22144361931093764,-0.5972719159503854,8.342292664275926e-07,1.1857287420840407e-07
-802.0,48.0,0.22333980466922448,-0.5996659337869392,4.77457669391785e-07,6.787639576157744e-08
-800.5,48.0,0.2252472963979864,-0.6011287201690119,2.7061914592686505e-07,3.847901442350835e-08
-799.0,52.0,0.2271709128282957,-0.615999183003475,1.5189830497916666e-07,2.1602174563385532e-08
-797.5,52.0,0.22913617483993087,-0.6194321178012133,8.44334909484553e-08,1.2009808106208644e-08
-796.0,52.0,0.23113007283756662,-0.6218042501339127,4.647727920877012e-08,6.61205577536285e-09
-794.5,52.0,0.2331468333060992,-0.6231326410502284,2.5335389135759737e-08,3.6049201195162103e-09
-793.0,52.0,0.23518033815088157,-0.6234490804778443,1.3676414992622419e-08,1.946302817393844e-09
-791.5,56.0,0.2372242677659635,-0.6347264961265706,7.310914806885075e-09,1.040585601832121e-09
-790.0,56.0,0.23930972242589385,-0.639389761012652,3.87010694912189e-09,5.509281108235787e-10
-788.5,56.0,0.24142815316316574,-0.6430122695005848,2.0287246520386075e-09,2.8884106047391806e-10
-787.0,56.0,0.24357292135232345,-0.6455956976031081,1.05309929806811e-09,1.4995710281648267e-10
-785.5,56.0,0.24573747554484818,-0.6471563407022449,5.41325982140647e-10,7.70932886365775e-11
-784.0,60.0,0.24791498048172156,-0.6562261748076879,2.755428105125401e-10,3.924685903570044e-11
-782.5,60.0,0.25011545703702814,-0.6603524763205859,1.3888564503534673e-10,1.978470119714584e-11
-781.0,60.0,0.25235383815090134,-0.6633632069599065,6.932041861091806e-11,9.876154350232833e-12
-779.5,60.0,0.2546171865775093,-0.6652529697034796,3.426084576765428e-11,4.881773453455211e-12
-778.0,60.0,0.2568986605225475,-0.6660333145694408,1.6767398513542677e-11,2.3894415966891984e-12
-776.5,60.0,0.25919106951899007,-0.6657319395086805,8.125716805026264e-12,1.1580891652087969e-12
-775.0,64.0,0.26149485006700574,-0.6763060398055604,3.899274607050683e-12,5.557918304585316e-13
-773.5,64.0,0.26382264756263196,-0.6801598023754718,1.8528058978691663e-12,2.6412211618546485e-13
-772.0,64.0,0.2661693357318654,-0.6827651864591537,8.717618857306427e-13,1.242847258356284e-13
-770.5,64.0,0.2685278857007939,-0.6841112071476567,4.061492262325952e-13,5.79094079770349e-14
-769.0,64.0,0.2708908960342587,-0.684207621567195,1.873661772130882e-13,2.671756806408439e-14
-767.5,68.0,0.27325077556234845,-0.6904863389068617,8.558795495579727e-14,1.2205603962384659e-14
-766.0,68.0,0.2756034384246578,-0.6938088694314433,3.871222424338838e-14,5.521211079499713e-15
-764.5,68.0,0.2779664518686801,-0.6957358166949932,1.73378729158493e-14,2.4729787720991766e-15
-763.0,68.0,0.28033302324834314,-0.696243340916079,7.688718689151061e-15,1.096770289830648e-15
-761.5,68.0,0.28269586079582887,-0.6953335649852743,3.376143514664718e-15,4.816355810458851e-16
-760.0,72.0,0.2850474926661116,-0.6977624510101611,1.4678948957361579e-15,2.0942447927091517e-16
-758.5,72.0,0.2873685943175183,-0.7007084399787755,6.31938140083801e-16,9.016557810470946e-17
-757.0,72.0,0.28967962413240744,-0.7022524566433823,2.693755578507853e-16,3.843766934032155e-17
-755.5,72.0,0.2919858095532196,-0.7023695225984887,1.1369577694891405e-16,1.6224630673477527e-17
-754.0,72.0,0.29428018342993095,-0.7010606460298445,4.751509182712847e-17,6.780983530391289e-18
-752.5,72.0,0.29655558761193423,-0.6983527285262965,1.9661584597988147e-17,2.806139786604302e-18
-751.0,76.0,0.29879556859548856,-0.7032528566724436,8.055709972102379e-18,1.1498027562989269e-18
-749.5,76.0,0.30099809129122607,-0.7047926661058526,3.268031192796741e-18,4.664805662675021e-19
-748.0,76.0,0.3031861377290531,-0.704848915090013,1.3126966474322808e-18,1.8738667654142646e-19
-746.5,76.0,0.3053532503530325,-0.7034102346278781,5.22080123793268e-19,7.453111571332986e-20
-745.0,76.0,0.30749278463639496,-0.7004936993261324,2.0559065619119368e-19,2.935142258122019e-20
-743.5,80.0,0.3095980739019871,-0.7002282008131644,8.016077088579671e-20,1.1444905288902595e-20
-742.0,80.0,0.31162943291917766,-0.7008822375731916,3.0946504697511765e-20,4.418610300231179e-21
-740.5,80.0,0.3136354947692154,-0.6999281672716822,1.1829093769367252e-20,1.689073772428571e-21
-739.0,80.0,0.31561158544333384,-0.6973586062135624,4.47693178531723e-21,6.392930190968388e-22
-737.5,80.0,0.31755185073660924,-0.6931993219711492,1.6776355778414735e-21,2.3957349671426145e-22
-736.0,84.0,0.31945041482749487,-0.6914762074368968,6.224464231444959e-22,8.889229524421568e-23
-734.5,84.0,0.3212739699223409,-0.6932684121191671,2.2866126569375455e-22,3.26569117047448e-23
-733.0,84.0,0.32304348347759304,-0.6934509019415298,8.317036823801998e-23,1.1878753898811397e-23
-731.5,84.0,0.32477300877682574,-0.6919988694023055,2.9952231876531755e-23,4.278096912184452e-24
-730.0,84.0,0.3264577794703707,-0.6889216037385053,1.0680055808535666e-23,1.5255050169191834e-24
-728.5,84.0,0.328093023947172,-0.6842621338281711,3.77052031249018e-24,5.385925933382372e-25
-727.0,88.0,0.32966268239145463,-0.6873846911825932,1.318001379274782e-24,1.8827860761008342e-25
-725.5,88.0,0.3311542530791766,-0.6886562948633969,4.561988029715027e-25,6.518284966760245e-26
-724.0,88.0,0.33259783292530204,-0.6882966629568614,1.5647883822986178e-25,2.2394821294094923e-26
-722.5,88.0,0.33398986023479404,-0.6862966471253478,5.3564770514338e-26,7.776353429916142e-27
-721.0,88.0,0.3353267827823622,-0.6826817727647443,1.9438409470635784e-26,3.153548349971282e-27
-719.5,88.0,0.33660513335407216,-0.6826858235193922,1.0813703616337472e-26,2.6775960782728766e-27
-718.0,88.0,0.337791934215449,-0.6834195811240783,1.65166121080382e-26,5.73407854573153e-27
-716.5,88.0,0.33893160505489495,-0.6825542105538296,4.3598887398605345e-26,1.6181908464428352e-26
-715.0,88.0,0.3400242457597678,-0.6800748143207597,1.2566749868898028e-25,4.7019166250105775e-26
-713.5,88.0,0.34106762798524176,-0.6760002718276522,3.6280121102572155e-25,1.3586613818250475e-25
-712.0,84.0,0.34205951835488374,-0.6718350368990159,1.0383252960855171e-24,3.8888320810724345e-25
-710.5,84.0,0.34298276744419076,-0.6708362331644754,2.9425070702794332e-24,1.102067230619205e-24
-709.0,84.0,0.34385212035899515,-0.6683110057095436,8.255924360183142e-24,3.092123643274711e-24
-707.5,84.0,0.344684968348758,-0.6642443033088322,2.2933583082011112e-23,8.589406691475876e-24
-706.0,84.0,0.34548032132626505,-0.6586522968350081,6.307183755416211e-23,2.362255111816376e-23
-704.5,84.0,0.34623707621257466,-0.6515821822327357,1.717340324301692e-22,6.43202525860151e-23
-703.0,80.0,0.3469455934591293,-0.6507255886670696,4.629505259618822e-22,1.7339078845637755e-22
-701.5,80.0,0.34759516944300384,-0.649244639914205,1.2355779669535415e-21,4.627662392814908e-22
-700.0,80.0,0.34821392525116734,-0.6462672397350945,3.2648491534782805e-21,1.2227979826958213e-21
-698.5,80.0,0.34880192040449937,-0.6417859734124465,8.541094220304654e-21,3.1989333782366274e-21
-697.0,80.0,0.3493590591848502,-0.6358240219433768,2.2121846403870018e-20,8.285393785290621e-21
-695.5,76.0,0.34988506302242944,-0.6332547066244871,5.672659865496061e-20,2.124607132377507e-20
-694.0,76.0,0.35035531415250265,-0.6330023848359201,1.44015645567505e-19,5.393885063693862e-20
-692.5,76.0,0.3507949441286666,-0.631326995735431,3.6198470583187774e-19,1.3557586011925287e-19
-691.0,76.0,0.3512086602935461,-0.6282091533393028,9.008001339503265e-19,3.3738109043319216e-19
-689.5,76.0,0.3515972709443953,-0.6236584556991798,2.2193428757086408e-18,8.312216829775557e-19
-688.0,72.0,0.3519613600387685,-0.6192973903691392,5.413500474508784e-18,2.0275464931726733e-18
-686.5,72.0,0.35228703879927387,-0.6189461665121503,1.3073439183841715e-17,4.89646546135996e-18
-685.0,72.0,0.3525724817066822,-0.6172770658401696,3.125787924256778e-17,1.1707187587952596e-17
-683.5,72.0,0.35283401684040494,-0.6142540759105504,7.399242375539883e-17,2.7712810345028326e-17
-682.0,72.0,0.3530732515721081,-0.6098666240210158,1.7340962367253251e-16,6.49481501792038e-17
-680.5,72.0,0.35329157200178574,-0.604130938106288,4.023624633640568e-16,1.5069934090877628e-16
-679.0,68.0,0.35348464377707395,-0.6032924776231624,9.243153764818271e-16,3.4618991274237616e-16
-677.5,68.0,0.3536343978892126,-0.6019203512127127,2.102236176217497e-15,7.873650081501165e-16
-676.0,68.0,0.3537626995662871,-0.5992365155074457,4.7337095663284104e-15,1.7729505672178182e-15
-674.5,68.0,0.35387189893644716,-0.5952240610970128,1.055311506113296e-14,3.9525388743822725e-15
-673.0,68.0,0.35396414131940007,-0.5898918202424333,2.329265025516008e-14,8.723984603351717e-15
-671.5,64.0,0.3540412756741991,-0.5874020597158235,5.089985373368307e-14,1.9063958421324832e-14
-670.0,64.0,0.35408235458440857,-0.5869594795435887,1.101219296359681e-13,4.12449693052135e-14
-668.5,64.0,0.3541035074571606,-0.5852545102642321,2.358799474633348e-13,8.834640588581687e-14
-667.0,64.0,0.3541125362974261,-0.5822586140972725,5.002285501663747e-13,1.873557844335594e-13
-665.5,64.0,0.3541122242217159,-0.5779681517099204,1.0502834385993523e-12,3.933743142900699e-13
-664.0,60.0,0.35410502750429323,-0.573672831636919,2.1832603787287258e-12,8.177225195826322e-13
-662.5,60.0,0.35408546266170166,-0.572662889634898,4.493305524856055e-12,1.6829353022347789e-12
-661.0,60.0,0.3540476663701442,-0.5704910829575843,9.155630132539183e-12,3.42918464932775e-12
-659.5,60.0,0.3540060073757062,-0.5671180944805856,1.847025661707345e-11,6.917940901902198e-12
-658.0,60.0,0.35396369425706037,-0.5625264151036471,3.6891014804414914e-11,1.3817387850549198e-11
-656.5,60.0,0.35392359576142574,-0.5567222160738907,7.295111027649365e-11,2.7323657744330406e-11
-655.0,56.0,0.3538843560873835,-0.5545763095221908,1.4282609462510475e-10,5.349537672235705e-11
-653.5,56.0,0.35382301126876253,-0.5520068605808586,2.7685244757322133e-10,1.0369528459136343e-10
-652.0,56.0,0.3537609611449495,-0.5483475918655346,5.313188365146514e-10,1.9900684732532136e-10
-650.5,56.0,0.3537016468281668,-0.5435656074559956,1.0095529109264493e-09,3.7813275323579005e-10
-649.0,56.0,0.3536482149105183,-0.5376471708662287,1.8992016627392323e-09,7.113592177448907e-10
-647.5,52.0,0.35360340453392103,-0.5341135933941685,3.5373857504347014e-09,1.3249615297918774e-09
-646.0,52.0,0.3535526688688459,-0.5324150255474709,6.5232565926931594e-09,2.4433664244093018e-09
-644.5,52.0,0.353499199191936,-0.529637949856401,1.1910190526985583e-08,4.461146721023454e-09
-643.0,52.0,0.3534510842399559,-0.525734471536754,2.1530139304354032e-08,8.06452331213945e-09
-641.5,52.0,0.3534116038607333,-0.5206763042327536,3.8534587925138906e-08,1.4434013150429765e-08
-640.0,48.0,0.3533836981962788,-0.5163657712454949,6.828611753609096e-08,2.5578426048339733e-08
-638.5,48.0,0.3533662659277072,-0.5180787297649236,1.1981032707175188e-07,4.4878799080758834e-08
-637.0,48.0,0.3533461579740026,-0.5188173000006251,2.0813196497464458e-07,7.796361316825237e-08
-635.5,48.0,0.35333369210998516,-0.5185100691617661,3.579883310892332e-07,1.3410004937025193e-07
-634.0,48.0,0.35333233432504974,-0.5171019989559367,6.096599874863217e-07,2.2837860991219564e-07
-632.5,48.0,0.35334529213257604,-0.5145584072101692,1.0280134354339903e-06,3.851013559118067e-07
-631.0,44.0,0.35337397763949535,-0.5153662766746632,1.7163509885895915e-06,6.429716783473059e-07
-629.5,44.0,0.35339866404021836,-0.5157834075877143,2.8373572506035286e-06,1.0629438119567754e-06
-628.0,44.0,0.35343271703462925,-0.5151016743888023,4.644376554661563e-06,1.7399447021877593e-06
-626.5,44.0,0.35347987284745347,-0.5132437130616243,7.5275170921624864e-06,2.820154034492183e-06
-625.0,44.0,0.3535437205822243,-0.5101529315153792,1.208072651973861e-05,4.52614708207938e-06
-623.5,40.0,0.35362759281977557,-0.5094311000723656,1.9198092095405332e-05,7.192996532794381e-06
-622.0,40.0,0.3537221957267186,-0.5106742421397182,3.0210248981940632e-05,1.131941759080951e-05
-620.5,40.0,0.3538254120398849,-0.5107627109567643,4.707497559649196e-05,1.7639241735407572e-05
-619.0,40.0,0.35394445196346275,-0.5096057428395557,7.263981983450908e-05,2.7219921101129897e-05
-617.5,40.0,0.354083352275359,-0.5071377010165623,0.00011099888219799468,4.1596378760644504e-05
-616.0,36.0,0.3542460124436381,-0.5039434046243945,0.0001679705484614157,6.295028166562713e-05
-614.5,36.0,0.3544351651791678,-0.501931974938044,0.0002517277789132189,9.434663554706877e-05
-613.0,36.0,0.3546366050290799,-0.4987269330909463,0.0003736171626729618,0.00014004135151432785
-611.5,36.0,0.3548545984781374,-0.4942334106182228,0.0005492068364641327,0.00020587492839640474
-610.0,36.0,0.3550935163803069,-0.4883766572028978,0.0007996059135809531,0.00029976839837615445
-608.5,36.0,0.35535774008616916,-0.48111076967057953,0.0011530985204725385,0.00043233791831787723
-607.0,32.0,0.35565180024228116,-0.47639764280854147,0.001647133074216642,0.000617643551067405
-605.5,32.0,0.3559580061154415,-0.4708985653915845,0.0023307012360272916,0.0008740855665516605
-604.0,32.0,0.35627825989727313,-0.46392527901809827,0.0032671303317810974,0.0012254577374192818
-602.5,32.0,0.3566172924329009,-0.4554115204142067,0.004537297461433599,0.0017021614298778655
-601.0,32.0,0.3569800539872835,-0.44533714274596276,0.006243252918680871,0.0023425767561178748
-599.5,28.0,0.3573715856332621,-0.4373686156212746,0.008512215308954664,0.003194577804792768
-598.0,28.0,0.3577876573083769,-0.43115777241310427,0.011500871891744775,0.00431716836685374
-596.5,28.0,0.3582105521615217,-0.4234557559563545,0.015399886829022545,0.005782203226518469
-595.0,28.0,0.3586452599130844,-0.4141788499593466,0.020438489429061603,0.007676148804499517
-593.5,28.0,0.3590971347499134,-0.40329457052163553,0.026888986781914422,0.010101826682375014
-592.0,24.0,0.35957186935706076,-0.39212146576966145,0.035071023148331264,0.013180075295315515
-590.5,24.0,0.36007589988301936,-0.3848499317403627,0.045355394536678834,0.017051259722572924
-589.0,24.0,0.3605870409351862,-0.3764088475180398,0.05816722271613921,0.021876557586508045
-587.5,24.0,0.36110013474754443,-0.36682451153864476,0.07398829876783458,0.02783895064365052
-586.0,24.0,0.3616205902770936,-0.3561708094535605,0.09335842069184101,0.03514385610504355
-584.5,24.0,0.3621543689643086,-0.34457108160230604,0.11687556906897029,0.04401933770062882
-583.0,20.0,0.3627098699939182,-0.3357472170504238,0.14519478386684914,0.05471584193347765
-581.5,20.0,0.3632815542612933,-0.32678946747834053,0.1790256172431395,0.06750540725996243
-580.0,20.0,0.36385079588427455,-0.31719486313858286,0.21912803415033005,0.08268029032488002
-578.5,20.0,0.36442274021528814,-0.3070596036292261,0.2663066080296243,0.10055094148298885
-577.0,20.0,0.3650031679603857,-0.2965010259198222,0.3214028087690163,0.12144324026655509
-575.5,16.0,0.3655983669427949,-0.2851846442910432,0.3852851046126051,0.1456948705219519
-574.0,16.0,0.3662230357207886,-0.2726885250438921,0.4588365050415871,0.17365067724768635
-572.5,16.0,0.36685014912548125,-0.25934009856411244,0.542939071059124,0.2056568080267969
-571.0,16.0,0.3674798267361058,-0.2452673880477201,0.6384548332857132,0.2420534093997118
-569.5,16.0,0.3681172900703917,-0.23064619094080002,0.7462025134647402,0.28316563291963864
-568.0,12.0,0.36876832994857306,-0.21566625748898588,0.8669294717645472,0.3292927186711546
-566.5,12.0,0.3694488496237338,-0.19999470654135,1.001278430915152,0.38069497728424156
-565.0,12.0,0.370143602806535,-0.1835908809599725,1.1497487839854845,0.437578594490156
-563.5,12.0,0.3708401909186921,-0.16663429948412806,1.3126526902416455,0.500078340472704
-562.0,12.0,0.37154290015464986,-0.14935408051433727,1.4900667019951368,0.5682384789647413
-560.5,12.0,0.3722566290697364,-0.13202064804028696,1.6817803236440532,0.6419924297978508
-559.0,8.0,0.37299072134499717,-0.12069433997283893,1.8872436390604101,0.7211420264684317
-557.5,8.0,0.37376075180932467,-0.11052818567267206,2.105516890346795,0.8053375019887992
-556.0,8.0,0.3745335742684236,-0.10055975340532697,2.3352255673245628,0.8940595998236306
-554.5,8.0,0.37531176494023055,-0.09082908694853642,2.5745250799192805,0.9866054060431996
-553.0,8.0,0.3760985106838537,-0.08137046093441583,2.8210793413261825,1.082079597787305
-551.5,4.0,0.37689754933780356,-0.07299158315641469,3.0720575062482114,1.1793927699940887
-550.0,4.0,0.3777400528074411,-0.06553101507416315,3.3241526270422113,1.2772683145525123
-548.5,4.0,0.3785962983253268,-0.05822148322367496,3.5736250874861875,1.3742589744813525
-547.0,4.0,0.37945982303754067,-0.05106030728130198,3.8163723681958284,1.4687736878947717
-545.5,4.0,0.38033150723414805,-0.04404395990303772,4.048025055157728,1.5591146978502415
-544.0,0.0,0.38121280091357607,-0.03717999235866193,4.264067133874876,1.643524177450133
-542.5,0.0,0.38212496406929974,-0.030498585242672155,4.459976663854883,1.720238861904998
-541.0,0.0,0.38306774490512274,-0.023937364893135415,4.631381073395325,1.787550457144514
-539.5,0.0,0.38402296831567784,-0.0174919059353828,4.774219731681104,1.8438689772329984
-538.0,0.0,0.3849888439651678,-0.011157768635892018,4.88490531072575,1.8877857148958848
-536.5,0.0,0.3859641321731499,-0.004930515248771528,4.960474878909351,1.918132323421108
-535.0,5.0,0.38695574993069703,-0.040247484356091656,4.998721758112837,1.9340325181384337
-533.5,5.0,0.3879954639350071,-0.03634650659419697,4.998299955369751,1.9349432026573363
-532.0,5.0,0.38905276629650964,-0.03285983928632044,4.958794410218232,1.9206823750159852
-530.5,5.0,0.39012320418415475,-0.02976048341801349,4.880752280186231,1.8914419334299384
-529.0,5.0,0.3912028215770431,-0.027017011703539456,4.7656728648445,1.8477844210923526
-527.5,10.0,0.3922882231386164,-0.048644726672691235,4.615956350740352,1.7906237500712237
-526.0,10.0,0.39342932113490836,-0.04740492680519856,4.434814133309828,1.7211909438330537
-524.5,10.0,0.39459851891876174,-0.04638916755602693,4.2261458279547055,1.640986855088838
-523.0,10.0,0.3957870589380246,-0.04556540753238164,3.9943900344565,1.551724578084743
-521.5,10.0,0.39698868262914366,-0.04490188865971256,3.744357321342724,1.4552648254020872
-520.0,15.0,0.3981976403807969,-0.06349220463787139,3.4810546580167028,1.353547842704264
-518.5,15.0,0.39943548152909936,-0.059283328117797074,3.2095106109606326,1.2485254778264383
-517.0,15.0,0.40072461259359454,-0.055326619085671686,2.9346100647792843,1.1420968135535365
-515.5,15.0,0.4020392669846236,-0.05162161364911927,2.6609461116445403,1.0360503476301353
-514.0,15.0,0.40337137463141953,-0.0481625407765868,2.39269519843721,0.9320151067191964
-512.5,15.0,0.40471330970319863,-0.044938951414713074,2.1335197814876112,0.8314223716489131
-511.0,20.0,0.4060656673398686,-0.055163696308509785,1.8865007771215936,0.735478932256754
-509.5,20.0,0.4074764825269223,-0.05334009683128224,1.6541001699844582,0.6451520426025703
-508.0,20.0,0.40891907861245363,-0.05159172244980384,1.438152389175041,0.5611655652904115
-506.5,20.0,0.41038426781161397,-0.04991385045773844,1.2398815940024366,0.48400621989679715
-505.0,20.0,0.4118632089426322,-0.048300015900608256,1.0599409003181948,0.4139384140890001
-503.5,25.0,0.4133475791830586,-0.061852477459844235,0.8984688606163237,0.3510258513427387
-502.0,25.0,0.41488260787743214,-0.06049986656902556,0.7551581860847487,0.2951579766647248
-500.5,25.0,0.41645636461002156,-0.05919324718522237,0.629331735112462,0.2460793297270638
-499.0,25.0,0.41805893590013293,-0.05792766050438672,0.5200211351372799,0.2034200023252532
-497.5,25.0,0.4196805908174227,-0.05669657271502221,0.4260439824147454,0.16672561695448965
-496.0,30.0,0.4213120273781264,-0.06843056026719617,0.34607629956367497,0.13548552558817847
-494.5,30.0,0.4229645787051505,-0.06518477280080778,0.2787177466028187,0.10915824261799681
-493.0,30.0,0.42467528434647056,-0.06189331906651112,0.2225479077182234,0.08719344618118847
-491.5,30.0,0.42642392804205403,-0.058568474199030815,0.17617275492007747,0.06905018498382859
-490.0,30.0,0.42820026446845566,-0.055221952189898504,0.13826107711335345,0.05421119594559153
-488.5,30.0,0.429994352115596,-0.051864850610089025,0.10757123018444381,0.04219346012786229
-487.0,35.0,0.43180217053847936,-0.04494025482848102,0.08296899634073807,0.032555294701561203
-485.5,35.0,0.4336711081847614,-0.03857009067901444,0.0634376377631786,0.024900396385969515
-484.0,35.0,0.4355897349813523,-0.03216300156178689,0.04808139952179812,0.018879320084065173
-482.5,35.0,0.43754782024438565,-0.025765801098546273,0.036123775895778615,0.01418890149850867
-481.0,35.0,0.4395352047912794,-0.019423188527973256,0.026901823426670492,0.010570122266467034
-479.5,40.0,0.4415420192008851,-0.01375993037346565,0.0198577057356227,0.00780487929335286
-478.0,40.0,0.4435963024807738,-0.010820886999352228,0.01452851150909194,0.0057120650925026285
-476.5,40.0,0.44570700067162733,-0.007879472977009527,0.01053521824802023,0.004143300902310988
-475.0,40.0,0.4478662314599885,-0.004956436841391271,0.007571497432305087,0.0029785958295667847
-473.5,40.0,0.4500640623821695,-0.0020713810092681806,0.00539288506777366,0.0021221385267322164
-472.0,45.0,0.45229058323740606,-0.001106173839153679,0.0038066847760003836,0.0014983667598381717
-470.5,45.0,0.45454275328806126,0.0022485248423491505,0.0026628347320681884,0.001048407090581569
-469.0,45.0,0.4568594439391527,0.005573817629738673,0.001845857843383203,0.0007269330034364288
-467.5,45.0,0.45922589450377266,0.008845484271633772,0.001267927098986322,0.0004994554009795825
-466.0,45.0,0.4616326015497291,0.0120414387215238,0.0008630136624008162,0.00034003398313640524
-464.5,45.0,0.46406986163340785,0.01514235555339942,0.0005820414611257877,0.00022938064356471175
-463.0,50.0,0.46653026104126105,0.016938764180868926,0.0003889454866368611,0.00015331540683370063
-461.5,50.0,0.469047270955572,0.018139078934784655,0.00025751826467137334,0.0001015302394421003
-460.0,50.0,0.4716129791518729,0.0193449717416931,0.00016892658664885852,6.661497273227198e-05
-458.5,50.0,0.4742160388701017,0.020547374731489335,0.00010978553272574247,4.330137449730974e-05
-457.0,50.0,0.47684678722221463,0.021736731975471463,7.068644459763107e-05,2.7885071506858348e-05
-455.5,55.0,0.47949542154772995,0.017907870397207287,4.508771160186297e-05,1.7789727820614705e-05
-454.0,55.0,0.48218747919857785,0.01863056651483566,2.8490413039379978e-05,1.124299117431111e-05
-452.5,55.0,0.4849267649157624,0.019363756954001637,1.783387118375349e-05,7.038780075966775e-06
-451.0,55.0,0.4877039915559817,0.020104142821163892,1.1058266265300884e-05,4.36520052141462e-06
-449.5,55.0,0.4905094472123648,0.020847425573536707,6.792217656443955e-06,2.6815813833358094e-06
-448.0,60.0,0.4933330963624001,0.01787940442505076,4.132456297787456e-06,1.6317245435633722e-06
-446.5,60.0,0.49618512609614757,0.016080952667195704,2.4903847814703435e-06,9.834703868282893e-07
-445.0,60.0,0.49910437459479035,0.014303705460993063,1.4865377102718722e-06,5.871163851987013e-07
-443.5,60.0,0.5020689491720927,0.012557130452124761,8.78874534618948e-07,3.471569603803721e-07
-442.0,60.0,0.5050688773318217,0.01084923857714521,5.1464751353591e-07,2.0330918568933822e-07
-440.5,60.0,0.5080936514244164,0.009186486447381986,2.9848044878347805e-07,1.1792574948589657e-07
-439.0,65.0,0.5111430394322073,0.007764063391216616,1.714495147215115e-07,6.774422291452772e-08
-437.5,65.0,0.5142726303271703,0.006902969477957946,9.753550086097807e-08,3.85424832713256e-08
-436.0,65.0,0.5174593723227747,0.0060730564279457555,5.495248788837645e-08,2.1717164673223614e-08
-434.5,65.0,0.5206913584022324,0.005278364280250768,3.066215241728942e-08,1.2118674386346411e-08
-433.0,65.0,0.5239574458697053,0.004521544235692579,1.6943431131971264e-08,6.69712758982013e-09
-431.5,70.0,0.5272460219623168,0.006276674884438532,9.272069477703007e-09,3.665192039286159e-09
-430.0,70.0,0.5306043436299054,0.007735309524541427,5.024837963226002e-09,1.98642956300197e-09
-428.5,70.0,0.5340227140706248,0.009201884888215175,2.696691775823373e-09,1.066133925106732e-09
-427.0,70.0,0.5374905965924166,0.01066722978508635,1.4331727045074283e-09,5.666393135574634e-10
-425.5,70.0,0.5409962569189151,0.012121936142250066,7.542548546864187e-10,2.982307841432311e-10
-424.0,75.0,0.5445273135837556,0.015658920718569624,3.9308344476713345e-10,1.554332148957202e-10
-422.5,75.0,0.5480944499213035,0.019106394315211342,2.0285859070864275e-10,8.021873601206191e-11
-421.0,75.0,0.5517291408649553,0.022546681490335008,1.0366670307487736e-10,4.0996210804179496e-11
-419.5,75.0,0.5554092027362421,0.02595678511501714,5.245874217596611e-11,2.0746415878841504e-11
-418.0,75.0,0.5591224898848627,0.02931393363929218,2.6286022441062604e-11,1.0396081549417911e-11
-416.5,75.0,0.5628560935028464,0.03259638567115994,1.3042361423437515e-11,5.158453448055503e-12
-415.0,80.0,0.5666080413139567,0.04573654731062795,6.4077875201139284e-12,2.5344796765609938e-12
-413.5,80.0,0.5703997559828264,0.04993371975493254,3.1172874827348747e-12,1.2330309976571e-12
-412.0,80.0,0.5742248156727349,0.05404030360945901,1.5016165875139676e-12,5.939798068835159e-13
-410.5,80.0,0.578069860520571,0.05802713792996632,7.162282734633313e-13,2.83320942679929e-13
-409.0,80.0,0.581921792774564,0.06186750378547333,3.3826027803416556e-13,1.338110473189522e-13
-407.5,85.0,0.5857670578630361,0.07466715708891769,1.5818116977894832e-13,6.257613092253003e-14
-406.0,85.0,0.589608178831916,0.08048832733277642,7.324197914544553e-14,2.8975183885281186e-14
-404.5,85.0,0.5934450800853935,0.08615681353809976,3.357873152796875e-14,1.3284399029713741e-14
-403.0,85.0,0.597284540644493,0.09162874119474629,1.5242808464455416e-14,6.030501730261698e-15
-401.5,85.0,0.6011138314926938,0.09686429620547174,6.851093473812945e-15,2.7105569967365134e-15
-400.0,90.0,0.6049197750049389,0.11072535133064151,3.048925556901337e-15,1.2062992944824917e-15
-398.5,90.0,0.608680418921279,0.11659251303544263,1.3434568822867649e-15,5.315462109976271e-16
-397.0,90.0,0.6124012074210999,0.12222220927034996,5.861229163482274e-16,2.319073473429986e-16
-395.5,90.0,0.6161064851554597,0.1275690831763872,2.5318613129971903e-16,1.0017831736164971e-16
-394.0,90.0,0.6197843122012424,0.1325937132267385,1.082868333478604e-16,4.284666436182249e-17
-392.5,90.0,0.6234223102929658,0.13726410868872937,4.585580394210656e-17,1.8144406895478683e-17
-391.0,95.0,0.6270068480676951,0.1470637009601492,1.9226240366154435e-17,7.607632339860042e-18
-389.5,95.0,0.630494829591712,0.1523989458004803,7.981313853607973e-18,3.1581723593560806e-18
-388.0,95.0,0.633948886486456,0.157376524980202,3.2804470196792393e-18,1.2980767991079925e-18
-386.5,95.0,0.6373574447236008,0.16195383442389608,1.3349623408542954e-18,5.282529680400118e-19
-385.0,95.0,0.6407092188301304,0.16609757262777786,5.378747435472859e-19,2.1284297805724871e-19
-383.5,100.0,0.6439928189594779,0.17299422361481426,2.1456966072711962e-19,8.490854983957107e-20
-382.0,100.0,0.6471540744489844,0.177797290235809,8.474799678611052e-20,3.353645812201311e-20
-380.5,100.0,0.6502369555341846,0.18214461772769944,3.314084171122124e-20,1.3114618320147986e-20
-379.0,100.0,0.6532570754467435,0.18599373574572045,1.2831270293319694e-20,5.077686524461211e-21
-377.5,100.0,0.65620483530162,0.18931465102558082,4.9186612564453766e-21,1.94646686251603e-21
-376.0,105.0,0.6590705497565548,0.19499509761338396,1.8667857782948746e-21,7.387512415437957e-22
-374.5,105.0,0.661810869796023,0.2002232066653509,7.014740037069869e-22,2.775995435743102e-22
-373.0,105.0,0.6644249654804509,0.20494046852146003,2.6097414929522667e-22,1.0327801910397831e-22
-371.5,105.0,0.666956643356787,0.2090972207197124,9.612839843632835e-23,3.8042173178482436e-23
-370.0,105.0,0.6693984246075593,0.2126577569684252,3.505703354593256e-23,1.3873724733678786e-23
-368.5,105.0,0.6717428037304042,0.21560178545749029,1.2658453158371279e-23,5.009719645442766e-24
-367.0,110.0,0.6739793924713916,0.21859863911667515,4.5266867003650576e-24,1.7919194833939214e-24
-365.5,110.0,0.6760423929156627,0.2201656938727511,1.6066601902184195e-24,6.372754290414471e-25
-364.0,110.0,0.678004748293537,0.22110781818610514,5.7635650913882795e-25,2.323372886073625e-25
-362.5,110.0,0.6798609584599419,0.22141427347962195,2.3903275632520157e-25,1.0700832470884612e-25
-361.0,110.0,0.6816059816940098,0.2210909054422292,1.9529347906233381e-25,1.132371832587633e-25
-359.5,110.0,0.6832349498483316,0.21740906876066154,3.9105542546370175e-25,2.578698570645608e-25
-358.0,110.0,0.6846962962186786,0.2176533990036656,1.0535817259828957e-24,7.097699468492152e-25
-356.5,110.0,0.6860343823110153,0.21728223265357488,2.943391479047926e-24,1.9881784779620562e-24
-355.0,110.0,0.687271406067571,0.21629179105954405,8.187934554469903e-24,5.532528803017731e-24
-353.5,110.0,0.6884050637843733,0.21469422542606312,2.2567411007492252e-23,1.5249371196982372e-23
-352.0,105.0,0.6894331056857053,0.213121925289098,6.159041397906409e-23,4.161883854643757e-23
-350.5,105.0,0.6903276982338218,0.2155552192989758,1.6643280152695943e-22,1.1246589265817479e-22
-349.0,105.0,0.691099507306403,0.21742905748933944,4.453039551557816e-22,3.009147606969821e-22
-347.5,105.0,0.6917892691664259,0.2187171590679608,1.1796866108819178e-21,7.971843239521124e-22
-346.0,105.0,0.6923971901597867,0.21940755113905286,3.094355926275899e-21,2.091065732896039e-21
-344.5,105.0,0.6929233592053297,0.21950303995940543,8.03652919779002e-21,5.43089528708286e-21
-343.0,100.0,0.6933664118699914,0.22217176429871136,2.0666293506955988e-20,1.39659714338975e-20
-341.5,100.0,0.6936739723793991,0.22518026686255022,5.2620341212539944e-20,3.556051526154935e-20
-340.0,100.0,0.6939115973132693,0.22761285621345217,1.3266090486019988e-19,8.965269498041192e-20
-338.5,100.0,0.6940814449341167,0.22944177325376164,3.3115532300744504e-19,2.2379909577801e-19
-337.0,100.0,0.6941856753309059,0.23065371147083386,8.185049511224967e-19,5.531644747630164e-19
-335.5,95.0,0.6942261609948713,0.23267234425897837,2.0031478141022867e-18,1.3537938785363477e-18
-334.0,95.0,0.6941658369221154,0.23589092825079616,4.8540938301126065e-18,3.2806091676057008e-18
-332.5,95.0,0.6940215202078157,0.23851788408242908,1.1646843049318626e-17,7.871573132496393e-18
-331.0,95.0,0.693819188980433,0.2405210044844086,2.767034708135521e-17,1.870144285123118e-17
-329.5,95.0,0.6935628490778982,0.24188281540323647,6.509217719006019e-17,4.3994331117936633e-17
-328.0,90.0,0.6932561538772848,0.24290186375172879,1.516185421172532e-16,1.0247734717554183e-16
-326.5,90.0,0.6928804347353378,0.24578383461439712,3.49692825565776e-16,2.3635791294777756e-16
-325.0,90.0,0.6924228835160885,0.24809124137695976,7.986079290489362e-16,5.397903847230768e-16
-323.5,90.0,0.6919170945074932,0.24978631947300384,1.8059039523388583e-15,1.220659455169152e-15
-322.0,90.0,0.6913685793233796,0.2508444760681207,4.043630877612971e-15,2.7332538538098295e-15
-320.5,90.0,0.6907824795608044,0.25125563956935537,8.965322590477958e-15,6.0601480779054836e-15
-319.0,85.0,0.6901636818238573,0.2541744841463126,1.9682473821055648e-14,1.3304731410810122e-14
-317.5,85.0,0.689465589305744,0.25743588536193884,4.27872743630724e-14,2.892347277921562e-14
-316.0,85.0,0.6887270891381602,0.2600816529700611,9.210275562905708e-14,6.226128843055637e-14
-314.5,85.0,0.6879549183023519,0.26207796117058724,1.963159688057197e-13,1.327122646444758e-13
-313.0,85.0,0.687155521268548,0.2634054516269694,4.143483630510005e-13,2.8011173914074475e-13
-311.5,80.0,0.6863347720425443,0.2635596021917131,8.659736510380846e-13,5.854380112113178e-13
-310.0,80.0,0.6854778667192382,0.2624351170703422,1.7921522258458866e-12,1.2116076523855192e-12
-308.5,80.0,0.6845798020550672,0.2606767423635283,3.672640884771535e-12,2.483000324067922e-12
-307.0,80.0,0.6836637146038756,0.258280142587604,7.452768603892317e-12,5.038804257611281e-12
-305.5,80.0,0.6827370931250586,0.25525475180767315,1.4975962465092486e-11,1.0125500116031932e-11
-304.0,75.0,0.6818068030502167,0.25226280682212066,2.979972050302471e-11,2.014866077007168e-11
-302.5,75.0,0.6808729154455376,0.25439250948806974,5.871816530284402e-11,3.97026142828978e-11
-301.0,75.0,0.6799202462066929,0.2559846030387484,1.1457192041610794e-10,7.747076557471267e-11
-299.5,75.0,0.6789659964300159,0.25700523353882454,2.2137676132876878e-10,1.4969425197887285e-10
-298.0,75.0,0.6780182851388415,0.25743128645546887,4.2358131282112506e-10,2.8643346567439864e-10
-296.5,75.0,0.6770845949514003,0.25725170594873775,8.025930716471733e-10,5.427460792594475e-10
-295.0,70.0,0.676172292998962,0.2593592297770115,1.505951319625256e-09,1.0184202350864236e-09
-293.5,70.0,0.6752601522100535,0.261871267942984,2.7982504507211556e-09,1.892421910347538e-09
-292.0,70.0,0.6743524558356798,0.26387744436285,5.149033619230041e-09,3.4823541909996295e-09
-290.5,70.0,0.6734574237036162,0.2653414699364341,9.382788475869112e-09,6.345933690520283e-09
-289.0,70.0,0.6725827351865652,0.26623622057226837,1.6932026476925723e-08,1.1452216006520513e-08
-287.5,65.0,0.6717352809763835,0.2678773839252476,3.0259430986925565e-08,2.04672255298294e-08
-286.0,65.0,0.670915094787556,0.2707672304932133,5.355396456218068e-08,3.622498001455834e-08
-284.5,65.0,0.6700994794745009,0.2731198293526261,9.386551843367351e-08,6.349531109312441e-08
-283.0,65.0,0.6692986055640401,0.27488874930323837,1.6293297429996452e-07,1.1022101220640288e-07
-281.5,65.0,0.6685201348516637,0.2760373952106152,2.800951312620534e-07,1.8948797951027018e-07
-280.0,60.0,0.6677710959541995,0.2767365954337059,4.768715855732228e-07,3.2262586296601725e-07
-278.5,60.0,0.6670583771134958,0.27875601834802405,8.040864641283547e-07,5.440303516968583e-07
-277.0,60.0,0.6663604026151334,0.280223895699787,1.342814785899144e-06,9.085738864435993e-07
-275.5,60.0,0.6656787301160384,0.28109487241499576,2.22100110476569e-06,1.5028577950263016e-06
-274.0,60.0,0.6650211331540363,0.2813331667455934,3.638384985451497e-06,2.462090917015687e-06
-272.5,60.0,0.6643949266299611,0.28091467459890157,5.903430235488334e-06,3.995100190605239e-06
-271.0,55.0,0.6638087996262114,0.2827025780268134,9.48736688467634e-06,6.420936602214977e-06
-269.5,55.0,0.6632501905969513,0.2848519982704498,1.5102296462935336e-05,1.0221789802172545e-05
-268.0,55.0,0.6627104096692749,0.2864018463902059,2.3812665302026417e-05,1.611852348549258e-05
-266.5,55.0,0.6621974291566477,0.2872992360772067,3.7192357117987436e-05,2.5177146244648847e-05
-265.0,55.0,0.6617189504003164,0.28750221642859325,5.7543261954908904e-05,3.895698567257376e-05
-263.5,50.0,0.6612822022175685,0.2885402815905788,8.819548582458171e-05,5.9714267434311734e-05
-262.0,50.0,0.6608931217020066,0.2910816076355392,0.00013391437756020243,9.06782207999422e-05
-260.5,50.0,0.6605274976767395,0.2929706560374627,0.00020144521718730416,0.0001364207078693193
-259.0,50.0,0.6601924612005201,0.2941467747647727,0.00030023261922761666,0.00020334463275601802
-257.5,50.0,0.6598962655696174,0.2945623400387171,0.0004433582688970071,0.0003003209096210841
-256.0,45.0,0.6596469205722869,0.2945458617168497,0.0006487472745161424,0.0004395083901217088
-254.5,45.0,0.6594564886600316,0.2977469328913843,0.000940699879142869,0.0006373956738533312
-253.0,45.0,0.6593027575740067,0.3003973772465124,0.0013518112047832844,0.0009161079424157177
-251.5,45.0,0.6591816350167894,0.3024257422463718,0.0019253468171189557,0.0013050256887267892
-250.0,45.0,0.6591018553381875,0.30376757678381644,0.0027181460211220783,0.0018427653541435523
-248.5,45.0,0.6590721823053471,0.304369034748345,0.003804127946421908,0.002579574465293127
-247.0,40.0,0.6591046721837704,0.3081266017768193,0.005278477951498752,0.003580196095773032
-245.5,40.0,0.6591876573404816,0.3125820733003114,0.007262594300895823,0.004927259805832791
-244.0,40.0,0.6592991218424706,0.316357102707063,0.009909878428854216,0.006725259304115638
-242.5,40.0,0.6594483822402286,0.31936443412014115,0.013412457644028047,0.00910518176829651
-241.0,40.0,0.6596450729348038,0.3215296128637127,0.018008938171507238,0.012229860924871295
-239.5,35.0,0.6598989872556973,0.3258616478429448,0.02399330001009542,0.01630013627803194
-238.0,35.0,0.6602244049175561,0.33394414876514633,0.031725063453169444,0.021561914380606614
-236.5,35.0,0.6605716902946649,0.34146374226132026,0.04164087907395813,0.028314243817701763
-235.0,35.0,0.6609427776672491,0.34830211759901364,0.054267715086071,0.036918531137885194
-233.5,35.0,0.6613478414238303,0.3543471112360078,0.07023783185098795,0.047809035759008335
-232.0,30.0,0.6617976747091442,0.35970955539678723,0.09030573291220029,0.06150478085161487
-230.5,30.0,0.6623185121463715,0.36682780474080984,0.11536725141779877,0.07862299465609116
-229.0,30.0,0.6628675687043482,0.373297268764469,0.14648085270181324,0.09989414046982144
-227.5,30.0,0.6634207756260292,0.3790483594779987,0.18489108818921596,0.12617848981572732
-226.0,30.0,0.6639882429533732,0.3840229343487322,0.2320539022836469,0.1584840279891007
-224.5,30.0,0.6645810923380355,0.38817677002301987,0.28966315474701804,0.19798524208594157
-223.0,25.0,0.6652172299918716,0.3919414695905711,0.3596772652435517,0.2460420212623591
-221.5,25.0,0.6659051907376312,0.39526240757611214,0.4443443146070791,0.3042174978777854
-220.0,25.0,0.6665875539235042,0.3979864826324564,0.5462232658008516,0.3742931882623647
-218.5,25.0,0.6672740974690129,0.4000879312332174,0.6681982340632923,0.4582792794911176
-217.0,25.0,0.6679755872343375,0.40154957687219994,0.8134820016928862,0.5584173965786527
-215.5,20.0,0.6687037341262787,0.4038629434255477,0.9856043238744244,0.6771727325523231
-214.0,20.0,0.6694976011107667,0.4078176082360711,1.1883801147984787,0.8172121063202393
-212.5,20.0,0.6702980033013403,0.41122058355991076,1.425852459410614,0.9813644144777143
-211.0,20.0,0.6710999163159653,0.4140375701138847,1.7022056899575424,1.1725601496887825
-209.5,20.0,0.6719130309400974,0.41624129666502396,2.0216446105628614,1.3937472481323838
-208.0,15.0,0.6727481073809692,0.4181021555830989,2.3882374297665887,1.647781558875827
-206.5,15.0,0.6736456524535874,0.42334452201928674,2.8057221035210627,1.9372917219149821
-205.0,15.0,0.6745765842026082,0.4281861895654797,3.2772785659579093,2.2645201755769113
-203.5,15.0,0.6755055509733757,0.4326094946921867,3.8052726186491688,2.631144308972349
-202.0,15.0,0.6764404444687262,0.43660043043958735,4.390980861358431,3.0380842924029414
-200.5,15.0,0.6773903115374578,0.44014886690603494,5.034309696535898,3.485306662172956
-199.0,10.0,0.6783746078929337,0.4430118141597986,5.733524777383524,3.971635063776874
-197.5,10.0,0.6794355506453549,0.4455966118700648,6.485009906861536,4.494581398924192
-196.0,10.0,0.6804945139369574,0.44802686663472857,7.283075942007706,5.050211705654437
-194.5,10.0,0.6815567206808536,0.45030043772938644,8.119840366418792,5.633061184595047
-193.0,10.0,0.6826282157353666,0.4524155375240524,8.985196605463113,6.236111688082602
-191.5,5.0,0.6837160991984866,0.45461573957581897,9.866888749066122,6.850842624878332
-190.0,5.0,0.6848810890779982,0.4570985638564345,10.750702158710043,7.467362630418146
-188.5,5.0,0.686069386404684,0.4595213357013338,11.620773697824301,8.074624669200315
-187.0,5.0,0.6872644935657288,0.4618814807342951,12.460017452055098,8.660721758847336
-185.5,5.0,0.6884683554676129,0.46417638467488814,13.250653373230474,9.213254633706061
-184.0,0.0,0.6896840061851082,0.4664250639285019,13.974817979358997,9.719756879706644
-182.5,0.0,0.6909553225657142,0.4689729062484815,14.615228816505208,10.168157888855117
-181.0,0.0,0.6922820928877144,0.47152275989380504,15.155868558258206,10.547259903530847
-179.5,0.0,0.6936231374580368,0.4740753848482394,15.582651005471439,10.84720288072652
-178.0,0.0,0.6949755814713773,0.47663152299923145,15.884030301052546,11.059890218081806
-176.5,0.0,0.6963376148440408,0.47919189789221295,16.051516610706592,11.179349701703746
-175.0,6.0,0.6977230439721858,0.4806695618844518,16.08006629711794,11.202007332735787
-173.5,6.0,0.6991967988794217,0.484139693676592,15.968321920999331,11.126856751718373
-172.0,6.0,0.7006921106946613,0.487439098390733,15.71868668373626,10.955513423954866
-170.5,6.0,0.7022020022738551,0.4905724801459418,15.33722843812626,10.692150058913334
-169.0,6.0,0.7037199393533047,0.493545007340753,14.833419273771732,10.343317313232827
-167.5,12.0,0.7052404770133768,0.4966362006878513,14.219727039057492,9.91766104878911
-166.0,12.0,0.7068473112480378,0.4997148550095212,13.511084157760793,9.425553702710456
-164.5,12.0,0.7084992019778587,0.502548809581532,12.724266040463863,8.878662189741323
-163.0,12.0,0.7101718730908269,0.5051439019804952,11.877215788545456,8.289477854787437
-161.5,12.0,0.7118547042990616,0.5075067022977963,10.988353495775147,7.670835150489221
-160.0,18.0,0.7135381074535557,0.5117903381781055,10.075907281114599,7.0354449360124205
-158.5,18.0,0.7152648201393197,0.5172877031155811,9.157299490611889,6.395465752792752
-157.0,18.0,0.7170682224028696,0.5222936429197957,8.248615743968678,5.762132446691913
-155.5,18.0,0.7189005848671556,0.5267970877292817,7.364177275742768,5.1454564920140795
-154.0,18.0,0.7207481239991406,0.5307912585885292,6.516229012638862,4.554006803857095
-152.5,18.0,0.7225979935453928,0.5342736796951874,5.714747723893677,3.9947741796457867
-151.0,24.0,0.7244547075180107,0.5430043699571021,4.96736701007219,3.4731172271011967
-149.5,24.0,0.7264017857390334,0.5472782462531174,4.279409374640735,2.992783076704799
-148.0,24.0,0.7283846135011234,0.5508837658619253,3.654010524064357,2.5559926028876676
-146.5,24.0,0.7303883802529568,0.5538223294638703,3.0923175741766693,2.163577437218823
-145.0,24.0,0.7323982858397694,0.5561024250322105,2.59374104957671,1.8151547835351516
-143.5,30.0,0.7344006135133245,0.5639767747788258,2.1562403505531336,1.5093258730048564
-142.0,30.0,0.7364737432379901,0.5685763485254751,1.7766235147163822,1.2438846793963982
-140.5,30.0,0.7385935454890162,0.5724385527903368,1.4508443249986356,1.0160250483737925
-139.0,30.0,0.7407410466123843,0.5755557666326103,1.1742827779202814,0.8225364474054724
-137.5,30.0,0.7429000982870204,0.5779291488683762,0.9419982873513113,0.6599808790075097
-136.0,36.0,0.7450555112077786,0.5832332400952946,0.7489484468082294,0.5248459013545442
-134.5,36.0,0.7472380089405523,0.5879781823852077,0.590169443953678,0.4136709823160436
-133.0,36.0,0.7494863179153995,0.5917444379349655,0.46091711377420125,0.32314643492401024
-131.5,36.0,0.7517741726604391,0.5945238893133376,0.3567699997878959,0.25018585100412827
-130.0,36.0,0.754084746162928,0.5963235498947161,0.27369759994354637,0.19197421840213263
-128.5,36.0,0.7564019808493665,0.5971648178704374,0.20809819859091636,0.14599477006629705
-127.0,42.0,0.7587254028226932,0.6071473723258177,0.15681136790143782,0.11003809722638445
-125.5,42.0,0.7611235357417574,0.6123433679164375,0.1171104346070562,0.08219721450803727
-124.0,42.0,0.7635759140156116,0.616327368976384,0.08668004378780655,0.06085215644431835
-122.5,42.0,0.7660671443548036,0.6191253831780831,0.0635835108707489,0.044647382195740715
-121.0,42.0,0.768581162086843,0.6207825762806685,0.04622403335812262,0.0324648362581057
-119.5,48.0,0.7711026518027734,0.6300388566004302,0.033303122136814176,0.023395018362868135
-118.0,48.0,0.7736838623537166,0.636089541535559,0.023778880606058084,0.016707906132347686
-116.5,48.0,0.7763251394010899,0.6407570397614495,0.016826063234545455,0.011825087912503512
-115.0,48.0,0.7790156385959719,0.6440635061673381,0.011799221277126088,0.00829402716487145
-113.5,48.0,0.7817400963845503,0.6460554936404921,0.008199714319193464,0.005765009498209126
-112.0,54.0,0.784483575677894,0.6513042563613174,0.005646940960498964,0.003971025268298635
-110.5,54.0,0.7872583012154378,0.6560285869728981,0.003853818973008889,0.002710613912067045
-109.0,54.0,0.790089937632799,0.6594365336094252,0.0026063161641415628,0.0018335349966170616
-107.5,54.0,0.7929743531017092,0.6615562465744551,0.001746685051777024,0.0012290264358043295
-106.0,54.0,0.7958973216186193,0.6624368147900692,0.0011599723749453805,0.0008163520768291782
-104.5,54.0,0.7988445543041998,0.6621449932343303,0.000763343267538672,0.0005373183237049524
-103.0,60.0,0.8018118661949448,0.6714456589342059,0.0004977655140062059,0.0003504427976733097
-101.5,60.0,0.8048342581417701,0.6777201540480622,0.0003216294335159062,0.00022647866494492503
-100.0,60.0,0.8079084664373948,0.6826134789538143,0.00020592357183108067,0.0001450291608164377
-98.5,60.0,0.8110198538258485,0.6861451187136748,0.0001306377717685981,9.202256927261007e-05
-97.0,60.0,0.8141546085994184,0.6883578556113723,8.211772752999977e-05,5.7854529573337824e-05
-95.5,66.0,0.8172988785081303,0.6956695055028695,5.114503567995771e-05,3.60393789199736e-05
-94.0,66.0,0.8204807784323038,0.7013496567571931,3.156176870436521e-05,2.224369900757386e-05
-92.5,66.0,0.8237070272999192,0.7056672293773751,1.9297599318745288e-05,1.3602517985760939e-05
-91.0,66.0,0.8269680474550044,0.7086457147182814,1.1690204794791505e-05,8.241513251483622e-06
-89.5,66.0,0.8302505542276086,0.7103302568208587,7.016339309514558e-06,4.947236873715292e-06
-88.0,72.0,0.8335409463436803,0.7142292046659117,4.172164316684325e-06,2.942247900091637e-06
-86.5,72.0,0.8368438470500692,0.7206649210069761,2.4579175122166556e-06,1.7336018000715959e-06
-85.0,72.0,0.8401889409709249,0.725769072651699,1.4345675674157614e-06,1.0119654693005785e-06
-83.5,72.0,0.843570679176209,0.7295442618524527,8.294978405011413e-07,5.852225321785536e-07
-82.0,72.0,0.8469760723680091,0.7320147836588283,4.7516323271201394e-07,3.352803947813376e-07
-80.5,72.0,0.8503915348729085,0.7332246709155854,2.6964757623930404e-07,1.9029170959997302e-07
-79.0,78.0,0.8538089170024256,0.7417050279144737,1.515895248332558e-07,1.0699143880018576e-07
-77.5,78.0,0.8572718048576351,0.7480002326175016,8.442163345800366e-08,5.9592082226276754e-08
-76.0,78.0,0.8607746338491545,0.7528950872383431,4.657396094168885e-08,3.287997315575051e-08
-74.5,78.0,0.8643036257628763,0.7564023176596752,2.545250383666811e-08,1.7970939117269425e-08
-73.0,78.0,0.8678450343753098,0.7585565743263406,1.3778720538194344e-08,9.729704769633853e-09
-71.5,84.0,0.8713846160151683,0.7643904012979362,7.388759544069659e-09,5.218087525598882e-09
-70.0,84.0,0.8749494948300702,0.77069697264873,3.924747746576092e-09,2.77203810320695e-09
-68.5,84.0,0.8785527309163896,0.7756314135356881,2.0650137668762266e-09,1.4586685019032808e-09
-67.0,84.0,0.8821811620254557,0.7791974869127154,1.0762140566860116e-09,7.602862373560663e-10
-65.5,84.0,0.8858208450616856,0.7814200095044894,5.555619651353885e-10,3.9251333956859663e-10
-64.0,90.0,0.8894571301629949,0.7846521450313422,2.8406533060092765e-10,2.007161186176282e-10
-62.5,90.0,0.8930883141318354,0.7915606923810912,1.4386319658844173e-10,1.01661030243203e-10
-61.0,90.0,0.8967412044324733,0.7969939808043164,7.216405233977764e-11,5.099941601233658e-11
-59.5,90.0,0.9004129975956923,0.8009348082970296,3.585303835086989e-11,2.5340109002167005e-11
-58.0,90.0,0.904089831208292,0.8033913795139231,1.764245851128942e-11,1.2470348796524191e-11
-56.5,90.0,0.9077569765378832,0.8043962322497652,8.598341706425843e-12,6.078129759673631e-12
-55.0,96.0,0.9114017524115807,0.8123312677581992,4.150374193795095e-12,2.9341148393115573e-12
-53.5,96.0,0.9150449453927222,0.8197083236476612,1.9841358305063657e-12,1.4027965351043675e-12
-52.0,96.0,0.9186903732915138,0.8254911004428984,9.394245499359297e-13,6.642284808601754e-13
-50.5,96.0,0.9223239554400606,0.8296556566428488,4.4050787010959017e-13,3.114873861829457e-13
-49.0,96.0,0.9259313248937409,0.8322064852514748,2.045699010443015e-13,1.4466339795244907e-13
-47.5,102.0,0.9294976040837263,0.8374166280515811,9.408519006331176e-14,6.653762369354116e-14
-46.0,102.0,0.9330217268043521,0.844517809125034,4.285362702170184e-14,3.0308307749619014e-14
-44.5,102.0,0.9365110279816842,0.8498809673261003,1.9330194608349605e-14,1.367216986743021e-14
-43.0,102.0,0.9399685890094404,0.8534719770415405,8.635019966654654e-15,6.107884700512938e-15
-41.5,102.0,0.9433810362914495,0.8552898807477833,3.8200417979067246e-15,2.702225287998608e-15
-40.0,108.0,0.9467344995420455,0.8566594281998996,1.6736582216060236e-15,1.1839923662923195e-15
-38.5,108.0,0.9500146392940529,0.8650995609488645,7.263989577875745e-16,5.139329765201669e-16
-37.0,108.0,0.953216388613126,0.871753454259715,3.128187136157686e-16,2.2140994345006559e-16
-35.5,108.0,0.9563687564593758,0.8765740711716228,1.3492750364301004e-16,9.569634338475105e-17
-34.0,108.0,0.959459891875702,0.8795490954212761,6.139313296629881e-17,4.401123403571446e-17
-32.5,108.0,0.962477436230158,0.880700692462639,3.675068849089234e-17,2.7404595822184224e-17
-31.0,114.0,0.9654093392830954,0.8877192915433754,4.2194368270322505e-17,3.325212814312691e-17
-29.5,114.0,0.9682204809356612,0.8955385149900402,8.212478073376534e-17,6.626414885243692e-17
-28.0,114.0,0.970961429165749,0.9014473367704138,1.874817324101394e-16,1.5204371019703305e-16
-26.5,114.0,0.9736216798126875,0.9054045970524347,4.382128043615619e-16,3.5569964175752195e-16
-25.0,114.0,0.9761906698892254,0.9074068946724244,1.020079789183435e-15,8.281238645850655e-16
-23.5,120.0,0.9786576737069134,0.91171612384153,2.3533692994665454e-15,1.9105479741353515e-15
-22.0,120.0,0.9809888447703256,0.9205377327499196,5.376384495057181e-15,4.364708919498447e-15
-20.5,120.0,0.9832062076961399,0.9273102012891454,1.2161106486667107e-14,9.8726442499651e-15
-19.0,120.0,0.9853217571664007,0.9319789501275817,2.7235036633365853e-14,2.2109731553154925e-14
-17.5,120.0,0.987327270985614,0.9345315777055865,6.038836312074604e-14,4.902343971251131e-14
-16.0,126.0,0.9892144111372151,0.9352747012581373,1.3257107894597315e-13,1.0762031878138607e-13
-14.5,126.0,0.9909586524508853,0.9458482486350241,2.881473567339166e-13,2.3391336330226713e-13
-13.0,126.0,0.9925339740856733,0.9543369751732225,6.200845801681379e-13,5.033686724398659e-13
-11.5,126.0,0.9939809327871617,0.9606546279396202,1.32116726990038e-12,1.0724766902876847e-12
-10.0,126.0,0.9952941928009401,0.9647585514184346,2.786990003754926e-12,2.2623521890040026e-12
-8.5,126.0,0.9964684211634726,0.9666510771546761,5.8208164081507374e-12,4.725017190120249e-12
-7.0,132.0,0.9974984452736627,0.9746416784357286,1.203658925230166e-11,9.770517293378536e-12
-5.5,132.0,0.9983237293067009,0.9843147137007036,2.4643035248295605e-11,2.0003356559401476e-11
-4.0,132.0,0.9989887358743794,0.9917163935450426,4.995239937454809e-11,4.054707442284256e-11
-2.5,132.0,0.999491046668557,0.9967804288720847,1.0025131879176683e-10,8.137437870750751e-11
-1.0,132.0,0.9998286973939418,0.9994892153299691,1.9920288215943978e-10,1.6169163571922e-10
0.5,132.0,1.0,0.9998727600817829,3.9189807531487676e-10,3.1809682455478036e-10
2.0,132.0,0.9999671728298185,0.9979445045698192,7.633484896883927e-10,6.195883411445566e-10
3.5,132.0,0.9997486614244143,0.9936660263705475,1.4721260803089727e-09,1.1948667853740437e-09
5.0,132.0,0.9993642491133101,0.9870385699640278,2.8108640402743507e-09,2.2814361853195293e-09
6.5,132.0,0.9988156545941368,0.9781123654961191,5.313829338663497e-09,4.3129060252906156e-09
8.0,132.0,0.9981048580390702,0.9669848066528406,9.946002442310622e-09,8.072438774924521e-09
9.5,126.0,0.9972114043447472,0.9656337010435456,1.843159834986161e-08,1.495935588637483e-08
11.0,126.0,0.9961279861574377,0.9622693829205389,3.3818255988923305e-08,2.7446987758013365e-08
12.5,126.0,0.9949019106678405,0.9566871172919849,6.143466590504025e-08,4.985979037893421e-08
14.0,126.0,0.9935384623376776,0.9489145956297813,1.1049692876803145e-07,8.967688107248149e-08
15.5,126.0,0.992043034618387,0.9390238443897504,1.9677126252323327e-07,1.5969273861283096e-07
17.0,120.0,0.9904209778560812,0.934916133272675,3.4693511650531214e-07,2.8155602597077564e-07
18.5,120.0,0.9886213113187197,0.9330643409990822,6.056341540678561e-07,4.914958401141939e-07
20.0,120.0,0.9866982920504505,0.9291016850496332,1.0467630201505633e-06,8.494750468907395e-07
21.5,120.0,0.9846596958391741,0.923026455122801,1.7912769119507757e-06,1.4536424129219776e-06
23.0,120.0,0.9825138005629428,0.9148792836469986,3.034966358190434e-06,2.4628681889298397e-06
24.5,114.0,0.9802686904342709,0.9076446891359122,5.09122521544122e-06,4.131443754072056e-06
26.0,114.0,0.9778979194450359,0.9062883296153336,8.456068950279092e-06,6.861832400635507e-06
27.5,114.0,0.975402495622538,0.9029842109878281,1.3905705721445796e-05,1.128382849553738e-05
29.0,114.0,0.9728084327712205,0.8977231921375041,2.2641042971420512e-05,1.8371791481907206e-05
30.5,114.0,0.9701263754771519,0.8905338996154637,3.649885955046359e-05,2.961595778057345e-05
32.0,114.0,0.9673667108694305,0.8814820281264835,5.825621452048028e-05,4.7269381227764e-05
33.5,108.0,0.9645192391428392,0.8801335057415004,9.206318448063784e-05,7.46989615408922e-05
35.0,108.0,0.9615572126735733,0.8777704147050575,0.00014404931437578746,0.00011687736524691991
36.5,108.0,0.9585130013687871,0.8735653520729719,0.0002231611613130332,0.00018106236630441303
38.0,108.0,0.9553991246103475,0.867519023997285,0.0003423016818859414,0.00027772096983943746
39.5,108.0,0.9522278316768399,0.8596669802496029,0.0005198562750891936,0.00042176707476804297
41.0,102.0,0.9490107617464816,0.8555063719290503,0.0007817038826790051,0.0006341924356760239
42.5,102.0,0.945706842151239,0.8542740531214268,0.001163822915964603,0.0009441798799815176
44.0,102.0,0.9423363829473406,0.8512756061827256,0.001715608495548724,0.0013917931536716233
45.5,102.0,0.938911562589158,0.8465010061414507,0.0025040164187617,0.002031336860591748
47.0,102.0,0.9354460773193827,0.8399733495553201,0.003618636603318121,0.0029354696401329644
48.5,96.0,0.9319530016614892,0.8327029191740705,0.00517777019172176,0.004200130506911969
50.0,96.0,0.9284351515144024,0.830684207312223,0.007335535558818905,0.005950298522276012
51.5,96.0,0.9248609482970644,0.827059447334056,0.01028995498783239,0.00834654631406875
53.0,96.0,0.9212502323489481,0.8218148274100443,0.014291872622362624,0.011592265863155624
54.5,96.0,0.9176176832000363,0.8149647820551635,0.019654424183246207,0.015941339403599167
56.0,96.0,0.9139773471471578,0.8065520937830462,0.026762621412235885,0.021705900508574905
57.5,90.0,0.9103377914327433,0.803885360968859,0.036082434633967944,0.029263684820524702
59.0,90.0,0.9066784627270973,0.8019174601650683,0.048168565242366006,0.03906431457969538
60.5,90.0,0.9029988724935999,0.7984735312497884,0.06366991155487807,0.05163370848188721
62.0,90.0,0.8993141892553487,0.7935370822583228,0.0833315668216956,0.06757567507795417
63.5,90.0,0.8956389903195918,0.7871168001389255,0.10799207229443977,0.08756965424971132
65.0,84.0,0.8919868703116899,0.7818693923653237,0.13857460928063525,0.11236354007069518
66.5,84.0,0.8883602063454008,0.7800858094476747,0.17607088078230365,0.14276057288337984
68.0,84.0,0.8847254201563821,0.7769713393882623,0.22151663166771612,0.17959944977602957
69.5,84.0,0.8810921555207858,0.772494506759831,0.2759581056515207,0.2237270864251217
71.0,84.0,0.8774748200337329,0.7666443822187792,0.3404092458964307,0.27596387609901263
72.5,78.0,0.8738869886639326,0.7589828619257379,0.4158001068602287,0.33706182778903215
74.0,78.0,0.8703437817833193,0.7572684320696117,0.502917732724931,0.4076566042822267
75.5,78.0,0.8668075476581687,0.7542170653100995,0.6023416268559587,0.488215185521663
77.0,78.0,0.8632740162150094,0.7497872882056783,0.7143768220940473,0.5789815998952632
78.5,78.0,0.8597572336285365,0.7439588564880439,0.8389883816167287,0.6799238298642154
80.0,78.0,0.8562706346397109,0.7367345312749876,0.9757418224126195,0.7906855337844165
81.5,72.0,0.8528235882199485,0.7325554555647571,1.1237543639315777,0.9105465565512317
83.0,72.0,0.8494021746319913,0.7305109405948853,1.2816619776667264,1.0383962585175845
84.5,72.0,0.8459811668698657,0.7271743630771182,1.447606883855964,1.1727234220727756
86.0,72.0,0.8425744277433389,0.7225145898048558,1.6192493748388601,1.3116258706877768
87.5,72.0,0.8391954545870799,0.7165216256900863,1.793806646610817,1.4528419610301762
89.0,66.0,0.8358570496727893,0.7106147768685298,1.9681197419462593,1.5938048266878035
90.5,66.0,0.832561597478911,0.7093482021343598,2.138747847232255,1.7317187411292119
92.0,66.0,0.8292749615317804,0.7068070353005034,2.302087178889704,1.8636553399173066
93.5,66.0,0.8260007086977189,0.7029395590063228,2.4545097122722197,1.986665834496794
95.0,66.0,0.8227523371562894,0.6977147730484365,2.5925152293796856,2.097903910622656
96.5,60.0,0.8195429222860832,0.6888127050098176,2.7128887708929925,2.1947528789072246
98.0,60.0,0.8163835671683584,0.6870265159691455,2.812854728512543,2.274949958840789
99.5,60.0,0.8132496777945651,0.6839403300427012,2.890218618773761,2.336700422378515
101.0,60.0,0.8101297632052077,0.6795042720150843,2.9434880960226586,2.378774743914283
102.5,60.0,0.8070375952320287,0.6736907901491224,2.971965981172806,2.400582892028347
104.0,60.0,0.8039868001133909,0.6664972284396677,2.9758099284518957,2.402221392296247
105.5,54.0,0.8009792981473722,0.6624660715438082,2.9560556882103217,2.384490678020127
107.0,54.0,0.7980181567694404,0.6619844843882203,2.9146035663567478,2.3488823770878056
108.5,54.0,0.7950713217602386,0.6602842197131009,2.854170417826962,2.2975383854079943
110.0,54.0,0.7921529857380902,0.6573099060027949,2.77821212330609,2.2331856723129464
111.5,54.0,0.7892775061514148,0.6530260928296652,2.6908237802923267,2.159052585119837
113.0,48.0,0.7864590842921793,0.6464385011996039,2.5966266197959875,2.0787738306308694
114.5,48.0,0.7836976080988056,0.6448706187215443,2.500651813551438,1.9962922116449637
116.0,48.0,0.780961524948107,0.6420085930530255,2.408231792208627,1.9157655321806766
117.5,48.0,0.7782494803030823,0.6377985030979847,2.324909434417854,1.841486846253628
119.0,48.0,0.7755765248001448,0.6322097166177589,2.256374538226442,1.777825440903175
120.5,42.0,0.7729579149740786,0.6210916184957608,2.208435412639222,1.7291946733317234
122.0,42.0,0.7704080335570106,0.6198018172646973,2.1870313120835445,1.7000511008480905
123.5,42.0,0.7678936995339509,0.6173899510676275,2.198288870527374,1.6949273333326247
125.0,42.0,0.7653914572336991,0.6138051765278912,2.2486227626203337,1.7184987806903471
126.5,42.0,0.7629167989058431,0.6090147690730734,2.3448776058604324,1.775682033600642
128.0,42.0,0.7604858646537197,0.6030069987004449,2.4945046934120154,1.8717600679874202
129.5,36.0,0.7581114469034002,0.5967090121574816,2.705763586678765,2.0125268621731873
131.0,36.0,0.7557993288217277,0.5952318706740384,2.987934990502809,2.2044414272505244
132.5,36.0,0.7534832043704099,0.5927805271311178,3.3515278045193457,2.454778760876057
134.0,36.0,0.7511783760880097,0.5893430599946177,3.8084599626548483,2.7717629580334218
135.5,36.0,0.7489011494433716,0.5849224993519679,4.372189870011212,3.1646658045570213
137.0,30.0,0.7466684949321719,0.5785564161845415,5.0577732170427305,3.643852838681169
138.5,30.0,0.7445039428933187,0.5764292354249474,5.881819045232907,4.2207583292323765
140.0,30.0,0.7423480197758786,0.573560522893204,6.862319540565178,4.907771146772466
141.5,30.0,0.7401932417578708,0.5699462378563036,8.01833052319826,5.7180153556300795
143.0,30.0,0.7380551725096186,0.5655910630561843,9.369484315798658,6.665012755391711
144.5,24.0,0.7359502276808184,0.556718557544739,10.93532383317426,7.762219700531515
146.0,24.0,0.7339128091540704,0.5546549099102694,12.734456398337514,9.022437360044844
147.5,24.0,0.7319092586495921,0.5519371158675048,14.78353778696723,10.45710302278535
149.0,24.0,0.7299023398686548,0.5485544289368304,17.096110898352023,12.075479800218496
150.5,24.0,0.7279061442936754,0.544503041285952,19.681338522555002,13.883772617193518
152.0,24.0,0.7259357600368948,0.5397864616021701,22.542684916024232,15.884209008723715
153.5,18.0,0.7240125310844028,0.5320089261513337,25.676615067706145,18.07413308720438
155.0,18.0,0.7221690206623542,0.5281852743997127,29.071392231448502,20.44516913106167
156.5,18.0,0.72031946761714,0.5238510475652373,32.706062067813754,22.98251656358149
158.0,18.0,0.7184759005544924,0.5190115866522365,36.54971422267371,25.6644396990106
159.5,18.0,0.7166514489658716,0.5136765387710185,40.56110826404689,28.462012768548156
161.0,12.0,0.7148601026075845,0.5082439059131697,44.68873990089921,31.33917292365385
162.5,12.0,0.713159585250978,0.5059569694083745,48.871405158925754,34.25312105064733
164.0,12.0,0.7114770974191872,0.5034400699223118,53.0392951714205,37.15509266976423
165.5,12.0,0.7097979906729079,0.5006864237060961,57.115623627032804,39.991499762320686
167.0,12.0,0.7081322622434871,0.4976899336911125,61.018754531205374,42.705420359344416
168.5,6.0,0.706490882373349,0.4945010543554238,64.66476217801826,45.23838781058804
170.0,6.0,0.7049161070415476,0.4915809282243673,67.97032087869172,47.53240777847716
171.5,6.0,0.703396434504221,0.4885017595173322,70.85579199424022,49.532110215460264
173.0,6.0,0.701881202992282,0.4852582430617482,73.24835299712069,51.18692784563323
174.5,6.0,0.7003762464842134,0.4818455109928787,75.08500005768437,52.45318365362522
176.0,6.0,0.6988884537679967,0.47825921345942524,76.31525375524642,53.29596878001326
177.5,0.0,0.6974351300028921,0.4774844753505002,76.90340779164958,53.69069959892751
179.0,0.0,0.6960687172167973,0.47492700443289015,76.83018283975414,53.62425845194312
180.5,0.0,0.6947111840216191,0.4723732899443328,76.09368061586717,53.09564562628725
182.0,0.0,0.6933635415844834,0.4698225960831539,74.70957464642993,52.116099093518784
183.5,0.0,0.6920278863705421,0.46727416887152573,72.71052090899394,50.70867110081207
185.0,5.0,0.6907073668536675,0.46492640060271645,70.14481992749168,48.907284393514516
186.5,5.0,0.6894684797417359,0.4626538274322528,67.07440815414157,46.75532297506294
188.0,5.0,0.6882565119666497,0.46031513779389893,63.57229690680015,44.30384033335157
189.5,5.0,0.6870551614254135,0.45791295297101176,59.71960860776207,41.60948980646505
191.0,5.0,0.6858618031644016,0.45544986371054874,55.602380269437965,38.7322956283409
192.5,10.0,0.6846749153148398,0.4530851000375661,51.30831181155999,35.73338831217154
194.0,10.0,0.6835361050803564,0.4510231565281816,46.92363172601151,32.67282431147624
195.5,10.0,0.6824572197784596,0.4488022287539605,42.53023579391652,29.607598033075973
197.0,10.0,0.6813924315891393,0.4464239809272317,38.203227944656064,26.589935624568596
198.5,10.0,0.680335005338442,0.44389043893725827,34.00895860840496,23.665936394318575
200.0,10.0,0.6792792973072989,0.44120396464481637,30.003618175539145,20.874601420476623
201.5,15.0,0.6782332524148049,0.43783279482084836,26.232404677036794,18.247262119379435
203.0,15.0,0.6772703663578008,0.43398842928305176,22.729248579558018,15.807396382362125
204.5,15.0,0.676329106941443,0.42970787877415667,19.51704621718153,13.57079813322651
206.0,15.0,0.6753996789725031,0.4250038777776041,16.60832876037275,11.546049119282294
207.5,15.0,0.6744733256413311,0.4198929011134075,14.006276873927394,9.735230197282501
209.0,20.0,0.6735424944800465,0.41683601192746966,11.705982662823208,8.13480352684333
210.5,20.0,0.6726795293769895,0.41484141048709655,9.695859737051135,6.736596643702258
212.0,20.0,0.6718532090684376,0.4122261903566561,7.959108229396829,5.528823641542786
213.5,20.0,0.6710448439989534,0.40901505867596,6.4751529321671555,4.497086637181624
215.0,20.0,0.6702440290573036,0.4052400910792533,5.220987705698902,3.625311163193701
216.5,25.0,0.6694415001441915,0.40189295910112405,4.17237623598848,2.8965809302819587
218.0,25.0,0.6686686327258813,0.40064682349850494,3.304876485750978,2.2938494210761515
219.5,25.0,0.6679518440004423,0.3987571781777874,2.5946724452129937,1.8005170832059243
221.0,25.0,0.6672574462089877,0.3962381910125945,2.019211025789809,1.400872776319749
222.5,25.0,0.6665740625183898,0.39311284861232826,1.5576534912494817,1.0804061395969076
224.0,25.0,0.6658913435963658,0.38941215593536266,1.1911593775131473,0.8260034713390739
225.5,30.0,0.6652109801782208,0.38550048351482,0.9030264129740146,0.6260435527078059
227.0,30.0,0.6646006470840782,0.3807953215051936,0.6787127598042062,0.470411775346558
228.5,30.0,0.6640235858575824,0.37529725114312185,0.5057683668222548,0.35045123679516377
230.0,30.0,0.6634680389704993,0.36906002127344656,0.3737008648433534,0.2588685030406386
231.5,30.0,0.6629230966126591,0.3621497120845457,0.27379878256601287,0.1896098777932369
233.0,35.0,0.662378934622546,0.35616804430555443,0.19893142507742623,0.13772161784806167
234.5,35.0,0.6618913142319146,0.35041051706498266,0.14334098310065627,0.09920490238051932
236.0,35.0,0.6614589018013233,0.34382461340490106,0.10243868657069177,0.07087374922550134
237.5,35.0,0.6610670145875692,0.33651913065813044,0.07261334226165345,0.050221654133178806
239.0,35.0,0.6607050074281614,0.3286109755993731,0.05105757005068169,0.03530062588808909
240.5,40.0,0.6603629494108689,0.32205377330044216,0.03561456190320637,0.02461456015311792
242.0,40.0,0.6600560663692514,0.32018294618298787,0.0246462513192382,0.017027551004898975
243.5,40.0,0.6598194564370562,0.31744883444661115,0.016922369453123164,0.011686760538068757
245.0,40.0,0.6596360957009088,0.3139205381863054,0.011528916208554658,0.007958810756680406
246.5,40.0,0.6594963350710442,0.30968160302140285,0.007794012136389057,0.005378273656987861
248.0,40.0,0.6593907733358063,0.3048250197482213,0.005228836669071847,0.003606656906548148
249.5,45.0,0.6593153127116249,0.3040526127863745,0.0034813204234079593,0.002400258358084742
251.0,45.0,0.6593111417494297,0.30295221312919496,0.0023003734170207782,0.0015853437084008837
252.5,45.0,0.6593624497161158,0.301145980339133,0.0015086385057852258,0.0010392472141323513
254.0,45.0,0.6594605581561271,0.2986952283502066,0.0009820144335617603,0.0006761737499249999
255.5,45.0,0.6595966724274142,0.29566947441299607,0.0006344620885572552,0.00043666839435530327
257.0,50.0,0.6597621073596085,0.294525904764774,0.000406868093248004,0.00027990136185164396
258.5,50.0,0.6599775825562295,0.2943717137571459,0.00025897770102989177,0.000178081771179454
260.0,50.0,0.6602474996010624,0.29344456339232927,0.00016361686150735707,0.00011245844387337344
261.5,50.0,0.6605610725639952,0.29178698983846146,0.00010259883376819677,7.04880211309382e-05
263.0,50.0,0.6609101498432765,0.2894556947689089,6.385470010432471e-05,4.3850782960718824e-05
264.5,55.0,0.6612864228400723,0.2874102287443712,3.944233741572073e-05,2.7074604619292114e-05
266.0,55.0,0.6616903534440157,0.28744575534522593,2.4178597364137503e-05,1.659012426306187e-05
267.5,55.0,0.662141905078755,0.2867757960279354,1.4708690978215572e-05,1.0088260033249098e-05
269.0,55.0,0.6626321464134821,0.285438037855822,8.87899822580856e-06,6.087445663293922e-06
270.5,55.0,0.6631537347575011,0.28348204587667303,5.31827381237888e-06,3.644822073428781e-06
272.0,55.0,0.6636989360352867,0.28096633263396803,3.1605420174489668e-06,2.1652483628871577e-06
273.5,60.0,0.6642621112784263,0.281267465830758,1.863382555824611e-06,1.2761301939400783e-06
275.0,60.0,0.6648665237872269,0.28124605031007965,1.0898230642012025e-06,7.461090007215936e-07
276.5,60.0,0.6655063940820387,0.28058252954114327,6.322463556516287e-07,4.3270569158582503e-07
278.0,60.0,0.6661748388591912,0.27930900469013475,3.6379375688954407e-07,2.489019179294732e-07
279.5,60.0,0.6668643776444688,0.2774678974110072,2.0759870135948696e-07,1.4199436632055348e-07
281.0,65.0,0.6675671527021918,0.276277786437998,1.174779857581927e-07,8.033099744744985e-08
282.5,65.0,0.668295773969733,0.27534203343036656,6.591939077136765e-08,4.506367939336684e-08
284.0,65.0,0.6690593096884028,0.2737763532957428,3.6673953595883976e-08,2.5064812389256624e-08
285.5,65.0,0.66984952866373,0.27161359469699725,2.02280507674637e-08,1.3821663492339239e-08
287.0,65.0,0.6706591247123487,0.2688971593853134,1.1060304423766905e-08,7.555774618382326e-09
288.5,70.0,0.6714802447149596,0.2664047778688491,5.994639734082641e-09,4.094364319256827e-09
290.0,70.0,0.6723113206164147,0.26570401908832303,3.220398625424152e-09,2.1991259689625448e-09
291.5,70.0,0.673169464606217,0.2644272352291578,1.7146509889482478e-09,1.1706811372159014e-09
293.0,70.0,0.6740519127031918,0.2625981627126338,9.047569253284268e-10,6.176213164382066e-10
294.5,70.0,0.6749515299061586,0.26025021718554386,4.730970470562753e-10,3.2290357968700837e-10
296.0,70.0,0.675860483348059,0.2574248285240174,2.4513442516298935e-10,1.6728758118732613e-10
297.5,75.0,0.6767710155138071,0.2574389009471382,1.2585465005441915e-10,8.58755790172921e-11
299.0,75.0,0.6776931447353217,0.2572141188225927,6.402090131212554e-11,4.3678446775894974e-11
300.5,75.0,0.6786334421846496,0.2563896867456867,3.226561896542547e-11,2.201071294682683e-11
302.0,75.0,0.6795850085380903,0.25498481613309515,1.611029499286087e-11,1.0988787527326797e-11
303.5,75.0,0.680540143777843,0.25302996307703424,7.968805286201008e-12,5.434941841783689e-12
305.0,80.0,0.6814905998315652,0.25411017359642096,3.904733894571277e-12,2.662879603968073e-12
306.5,80.0,0.682423134497153,0.25734067900790847,1.895316326990101e-12,1.2924179464006384e-12
308.0,80.0,0.6833564281342172,0.2599486100044289,9.112734529261938e-13,6.213463649574091e-13
309.5,80.0,0.6842832948221217,0.26191991696653316,4.3398860628741135e-13,2.9588948089673977e-13
311.0,80.0,0.685196595969228,0.26325438890630387,2.047186587699382e-13,1.3956515026117948e-13
312.5,85.0,0.6860886627834544,0.26369818061481337,9.564756148207549e-14,6.520244215464875e-14
314.0,85.0,0.6869418872674506,0.26259528869176413,4.4260524931359224e-14,3.017024257726074e-14
315.5,85.0,0.6877626038623884,0.26082051713144666,2.0285002776372305e-14,1.3826470427941981e-14
317.0,85.0,0.6885592828747369,0.25838816404770826,9.207461378679596e-15,6.275549766853751e-15
318.5,85.0,0.6893258089105934,0.25532738561152457,4.13906528829401e-15,2.820923027673205e-15
320.0,85.0,0.6900555843414607,0.2516807324523276,1.8426976683512016e-15,1.2558029196973011e-15
321.5,90.0,0.6907370079721588,0.25105348418216866,8.124335928610921e-16,5.536495685137678e-16
323.0,90.0,0.6913503049455944,0.2502106118463279,3.5472905475471546e-16,2.4172673992572463e-16
324.5,90.0,0.6919285244905761,0.24872580600688438,1.5338200904983937e-16,1.0451635434832581e-16
326.0,90.0,0.6924668502054742,0.2466189262394174,6.56772592621159e-17,4.4751512931969914e-17
327.5,90.0,0.6929599807628974,0.2439235474587063,2.7849229637981225e-17,1.897534380681531e-17
329.0,95.0,0.6934023220080563,0.24219344367682955,1.1694023615650564e-17,7.967554162048758e-18
330.5,95.0,0.6937432276382287,0.24104661747245998,4.8625356592094915e-18,3.312906714531696e-18
332.0,95.0,0.69403504929589,0.23925608317039257,2.0021908738319463e-18,1.3640740117289859e-18
333.5,95.0,0.6942745505554799,0.23683419573165804,8.163720378250209e-19,5.561696327666012e-19
335.0,95.0,0.6944579404049319,0.2338083923813658,3.2961513756222877e-19,2.2455027350659653e-19
336.5,100.0,0.6945811424384826,0.2309204277174221,1.3178295842133634e-19,8.977461052879371e-20
338.0,100.0,0.69460988361362,0.22991453398195,5.2172467617828716e-20,3.554053803622763e-20
339.5,100.0,0.6945542340107083,0.22829053234472046,2.045270234215707e-20,1.393227791101668e-20
341.0,100.0,0.6944333699337325,0.22605677768484086,7.939343563928424e-21,5.408106934998633e-21
342.5,100.0,0.6942452681837394,0.22323631516168704,3.0516916398000177e-21,2.0786959334053723e-21
344.0,100.0,0.6939876686748899,0.21986584677138746,1.161493024454446e-21,7.911465515017989e-22
345.5,105.0,0.6936474298155698,0.21950492197825255,4.3773410224195835e-22,2.9815429836379398e-22
347.0,105.0,0.6931813370862241,0.219013866483407,1.633503374840892e-22,1.1126060246314942e-22
348.5,105.0,0.6926325983261659,0.2179244010807971,6.03592397475676e-23,4.1110817027566575e-23
350.0,105.0,0.6920011877206769,0.21624357402083133,2.208410854818158e-23,1.5041234162869462e-23
351.5,105.0,0.6912869536092743,0.21399301172047364,8.000678162175445e-24,5.449064018375459e-24
353.0,110.0,0.6904896610705579,0.2140311020135223,2.8700077850440535e-24,1.9546541915628638e-24
354.5,110.0,0.6895372743275388,0.21582567715255907,1.0194063257877033e-24,6.942664173487354e-25
356.0,110.0,0.6884750685442846,0.21702061902536568,3.5852405741264723e-25,2.4416831174251836e-25
357.5,110.0,0.6873070020005012,0.2175985805088824,1.2485191597638707e-25,8.502729689783933e-26
359.0,110.0,0.6860353422327373,0.21755801569156819,4.305075657144223e-26,2.9318006892840133e-26
360.5,110.0,0.684662421239494,0.22084647999748383,1.4699763024130422e-26,1.001007306024649e-26
362.0,110.0,0.6831466821158684,0.22137570578273033,4.9742063147446086e-27,3.385797630122926e-27
363.5,110.0,0.6814884216688455,0.22128065049992884,1.680344970213815e-27,1.1392771868062592e-27
365.0,110.0,0.6797146883573878,0.22055004349094198,6.046504180990432e-28,3.9618929574889253e-28
366.5,110.0,0.6778303381329994,0.21918908847223398,3.453728984563811e-28,1.8728935167329095e-28
368.0,110.0,0.6758403855761886,0.21721938740987898,5.601259546660309e-28,2.35429800166164e-28
369.5,105.0,0.673731133025765,0.21370814590694354,1.5320381777526655e-27,6.0261144650133895e-28
371.0,105.0,0.6714518316855878,0.21035163979665095,4.528055094109448e-27,1.7664714776320707e-27
372.5,105.0,0.6690690995296859,0.2063904004400129,1.338380714572375e-26,5.216396147868178e-27
374.0,105.0,0.6665903695289679,0.2018551046979565,3.9213822751735336e-26,1.5281619356609054e-26
375.5,105.0,0.6640231982710427,0.19679098941578815,1.1378411300976048e-25,4.433910716918675e-26
377.0,100.0,0.6613750763038433,0.19030100934288613,3.2693902016349614e-25,1.2739433661374069e-25
378.5,100.0,0.6585694309539369,0.1871604920039548,9.302372977902565e-25,3.6245538018615617e-25
380.0,100.0,0.6556708692893632,0.18348476625326898,2.6209946317329326e-24,1.0211824523460492e-24
381.5,100.0,0.6526924608555038,0.1792993726860158,7.312873169344104e-24,2.8490531633350187e-24
383.0,100.0,0.649643924276592,0.17464280328914134,2.0205231320527977e-23,7.871372788546945e-24
384.5,95.0,0.6465348287233145,0.16737821579062356,5.528381562793344e-23,2.1535631144875356e-23
386.0,95.0,0.64333152053991,0.1633846044800345,1.4979429854992158e-22,5.834808012347013e-23
387.5,95.0,0.64003137870291,0.15894861975096738,4.0193933883941845e-22,1.5655329082782537e-22
389.0,95.0,0.6366659266165711,0.15410015698868673,1.0680675994442e-21,4.1597716440735176e-22
390.5,95.0,0.6332464806903279,0.14887889565586793,2.8107044405257256e-21,1.0945953715265188e-21
392.0,95.0,0.6297841724151382,0.14333265684502144,7.325128079465108e-21,2.8524622034676407e-21
393.5,90.0,0.626274882224216,0.13419121447892884,1.8906208215954766e-20,7.361628289209393e-21
395.0,90.0,0.6226697276889156,0.12928150942625807,4.832685832351015e-20,1.8815738246065854e-20
396.5,90.0,0.6190155154471,0.12403801030372605,1.2234142003084746e-19,4.762860946579642e-20
398.0,90.0,0.6153247366940541,0.1184978063714576,3.067364477450419e-19,1.1940426634404893e-19
399.5,90.0,0.6116096805199113,0.11270446689977717,7.616762517951601e-19,2.9647173728948992e-19
401.0,85.0,0.6078821094836034,0.09855084521585056,1.873246909419665e-18,7.290622910957752e-19
402.5,85.0,0.6040922370968472,0.09340200909364994,4.5629507744266774e-18,1.775703244645431e-18
404.0,85.0,0.6002715932039359,0.0880046943200193,1.1008532063959743e-17,4.283583500546661e-18
405.5,85.0,0.5964311111409321,0.08239701981688638,2.630587614129279e-17,1.02348624067352e-17
407.0,85.0,0.5925838768345526,0.07662168710619766,6.22619696651552e-17,2.4221535071417667e-17
408.5,80.0,0.588742431162382,0.06311092649324318,1.4596434453427478e-16,5.677711068540761e-17
410.0,80.0,0.5849106099085096,0.05932476488004042,3.389469843300715e-16,1.3182691247252183e-16
411.5,80.0,0.5810676605463003,0.05538393303983314,7.796239217559173e-16,3.0318055250770547e-16
413.0,80.0,0.5772217221720515,0.051314125673755255,1.7762918852136558e-15,6.906729563292991e-16
414.5,80.0,0.5733861796650618,0.047143800627568275,4.0089142782931755e-15,1.5585648195841464e-15
416.0,80.0,0.5695738617996047,0.042903171151772355,8.962516918776336e-15,3.4839033684989506e-15
417.5,75.0,0.5657979681926061,0.030417413102507514,1.98486756236278e-14,7.714427257301339e-15
419.0,75.0,0.5620541382095269,0.027082820895142655,4.354506701585901e-14,1.6921746629584553e-14
420.5,75.0,0.5583210374499195,0.023687873431636124,9.46367502593591e-14,3.677038267802962e-14
422.0,75.0,0.554611932452943,0.02025508655463136,2.0375187244996442e-13,7.91534946405325e-14
423.5,75.0,0.5509395627075321,0.01680747266953876,4.3458204822003634e-13,1.687984632484364e-13
425.0,70.0,0.5473158080385478,0.012602854890260605,9.182854567027367e-13,3.5661591830454367e-13
426.5,70.0,0.5437540763615084,0.01115377910474262,1.9223242161490986e-12,7.46404230527119e-13
428.0,70.0,0.5402257422551371,0.00969093274396568,3.986811446526687e-12,1.5477319631521671e-12
429.5,70.0,0.5367262650485426,0.008223730180543704,8.191847248497636e-12,3.179601618700076e-12
431.0,70.0,0.5332678359444202,0.006761457282559891,1.6676382829371426e-11,6.471601861922645e-12
432.5,65.0,0.5298619089834146,0.004277951265845931,3.36350661887421e-11,1.3050273541136072e-11
434.0,65.0,0.5265332855571392,0.005021791347585028,6.721395523703713e-11,2.607369393311189e-11
435.5,65.0,0.5232550793708518,0.005804086286450766,1.3307896131479106e-10,5.161390987756809e-11
437.0,65.0,0.5200027120236742,0.006622639151952374,2.610645441826618e-10,1.0123205177406931e-10
438.5,65.0,0.5167876135192178,0.0074738736163996455,5.074349355876533e-10,1.9672607607064685e-10
440.0,65.0,0.5136206556408736,0.008352838821967655,9.772640309800613e-10,3.787944631993289e-10
441.5,60.0,0.5105184199803248,0.010289698692411801,1.8648645072810124e-09,7.226831922217583e-10
443.0,60.0,0.5074809472635513,0.011983183836557249,3.52606917848449e-09,1.3661531444957053e-09
444.5,60.0,0.5044604997955159,0.013717678799108242,6.606120776732746e-09,2.558951087502375e-09
446.0,60.0,0.5014678100327886,0.015485685153908524,1.2263597040251764e-08,4.749407210457974e-09
447.5,60.0,0.4985132567688533,0.017278203330964616,2.2558386604972146e-08,8.73443640643895e-09
449.0,55.0,0.49560661173471554,0.021094974284663982,4.1116835453212927e-08,1.5916633771469074e-08
450.5,55.0,0.4927628656797837,0.0203518183826832,7.426001791934251e-08,2.8740265318628026e-08
452.0,55.0,0.4899427314170033,0.01960994660695707,1.3289722954764615e-07,5.142276721529432e-08
453.5,55.0,0.48714351088685354,0.018873937331247606,2.3566964806772133e-07,9.11688954025842e-08
455.0,55.0,0.4843751310974328,0.018147446421288987,4.141132394333723e-07,1.6016422927941601e-07
456.5,50.0,0.48164713071315457,0.022128622962788225,7.210456424905919e-07,2.788126728769205e-07
458.0,50.0,0.47897703907478467,0.020945753483849264,1.2440406786092804e-06,4.809365213326665e-07
459.5,50.0,0.4763388606813462,0.019746626891433028,2.1268367993281896e-06,8.220362330458331e-07
461.0,50.0,0.4737213619868104,0.01854085605086088,3.6029702038161807e-06,1.392263337939851e-06
462.5,50.0,0.4711342369934278,0.017337723484292536,6.048014935061155e-06,2.3365651902488773e-06
464.0,50.0,0.4685869700135318,0.01614572133088707,1.0059794202822271e-05,3.8856079852232865e-06
465.5,45.0,0.4660884927325365,0.01308650305969801,1.6580110049360528e-05,6.402693870754018e-06
467.0,45.0,0.463632742136551,0.009920230959533718,2.707730681039971e-05,1.0454106688531638e-05
468.5,45.0,0.4612003074569838,0.006671473088174201,4.381679661553362e-05,1.6913324921713767e-05
470.0,45.0,0.4588009233882926,0.0033614548875666866,7.025705579738088e-05,2.7113530382473657e-05
471.5,45.0,0.45644428462862086,1.3766809670162639e-05,0.00011162211105194685,4.3068031986786336e-05
473.0,40.0,0.4541398294009451,-0.0011212825566104118,0.00017571872392653363,6.778482595184294e-05
474.5,40.0,0.4518857221411562,-0.003989608676138109,0.00027408781136327475,0.00010570970192866267
476.0,40.0,0.44966628340345516,-0.0069020877383776935,0.0004236053602709258,0.00016334217357553228
477.5,40.0,0.44747827759914566,-0.009839638226023323,0.0006486780889009796,0.0002500800145638807
479.0,40.0,0.4453316082076464,-0.012781819868914662,0.000984212687560679,0.00037936104907999597
480.5,35.0,0.4432361350325175,-0.017328361563373654,0.0014795731284992179,0.0005701844972127217
482.0,35.0,0.4412010272249559,-0.023643412887815907,0.0022037756740258636,0.0008491076098800069
483.5,35.0,0.4392028966544499,-0.03002723750385186,0.0032522018796477935,0.0012528250237847452
485.0,35.0,0.4372267479070067,-0.03643615853545862,0.004755130546685574,0.0018314460952527879
486.5,35.0,0.43528248257985824,-0.04282389926717267,0.006888392974606655,0.0026525866476367964
488.0,35.0,0.4333802349505168,-0.049143111733974607,0.009886433074645148,0.003806382666598254
489.5,30.0,0.4315310293372478,-0.054103563941654,0.014057994633847524,0.005411510552796711
491.0,30.0,0.42973092409163277,-0.05745481447016182,0.01980455121314732,0.007622257361382839
492.5,30.0,0.42794166153389035,-0.06078815679005681,0.02764142905222492,0.010636620903949817
494.0,30.0,0.426172848979625,-0.06409207885119655,0.03822134090679991,0.014705330218386947
495.5,30.0,0.42443454267668,-0.06735448289287706,0.05235974355600277,0.020141559681575383
497.0,25.0,0.42273703960666686,-0.05629258437669324,0.07106105422689232,0.027330965154181507
498.5,25.0,0.42108827515377945,-0.05751382299861685,0.09554432003923882,0.03674150136669532
500.0,25.0,0.4194597896227762,-0.05876712080136412,0.1272664488761197,0.0489322936536748
501.5,25.0,0.41784369489505213,-0.06005942373103196,0.1679406111225552,0.0645606461645225
503.0,25.0,0.41624946337770846,-0.06139627002354675,0.21954695375367245,0.08438608984040186
504.5,20.0,0.4146869369911181,-0.04777500042200308,0.28433238792467735,0.10927022848968312
506.0,20.0,0.4131737088416,-0.04936914950675117,0.3647959850525593,0.14017105573559008
507.5,20.0,0.4116896673647828,-0.051024886680100384,0.46365651624401527,0.17813041697645704
509.0,20.0,0.4102133831740708,-0.05274913867121642,0.583798966220646,0.22425340572121732
510.5,20.0,0.40875334542882186,-0.05454726709156732,0.7281975058304885,0.2796787357175988
512.0,20.0,0.4073185125739623,-0.05642255348558678,0.8998134567328068,0.3455395343314611
513.5,15.0,0.40592004932613385,-0.047062482361084707,1.101468237070293,0.42291456198856137
515.0,15.0,0.40457530865333213,-0.0504416903087789,1.335693106835011,0.512770565028714
516.5,15.0,0.40323522126216554,-0.05406383119421346,1.604559657944471,0.6158972848241379
518.0,15.0,0.4019070265036862,-0.05793631468651514,1.9094972885386754,0.7328375251100496
519.5,15.0,0.4005985035691714,-0.06206143089045968,2.251106188220366,0.8638155547365269
521.0,10.0,0.3993178303568776,-0.044710979154825914,2.6289764274436616,1.0086679125649476
522.5,10.0,0.3980883562045748,-0.04532797374533035,3.041525354570142,1.1667812947623262
524.0,10.0,0.3968815122187556,-0.046094830269518244,3.485866422836147,1.3370425521894866
525.5,10.0,0.39568356654294823,-0.04704302503985988,3.9577225875564492,1.5178058270742112
527.0,10.0,0.39450047409472816,-0.04820460573874272,4.451396376662556,1.7068814548273896
528.5,5.0,0.39333866507302184,-0.026175727622710726,4.959806571184182,1.9015504208628138
530.0,5.0,0.39221820397471524,-0.028808100055913333,5.474598164180047,2.098606904796095
531.5,5.0,0.3911330750476842,-0.03178516182240454,5.986328038064551,2.294429820118842
533.0,5.0,0.39005494495503773,-0.03513947472687587,6.484723865974901,2.485082364535046
534.5,5.0,0.38898738118707143,-0.03889968660532045,6.959008457654766,2.6664365710371074
536.0,5.0,0.38793449110128925,-0.04308898085619556,7.398276562522831,2.834317856843847
537.5,0.0,0.3869042014736561,-0.00907036032065428,7.79190647539293,2.9846627840613973
539.0,0.0,0.38592129586815016,-0.015368377097609659,8.129985115789655,3.1136818453543387
540.5,0.0,0.3849471022995594,-0.021776235313203718,8.40372296190025,3.218018219718742
542.0,0.0,0.38398247902922455,-0.028298375756247413,8.605834600908462,3.294893216490686
543.5,0.0,0.38302884680079125,-0.034939230529178356,8.730861852058709,3.3422295940169873
545.0,4.0,0.38208816936697465,-0.041736643483094776,8.775419405339827,3.3587450935741647
546.5,4.0,0.38119151105661025,-0.04870562926239136,8.73834750511048,3.344010294613421
548.0,4.0,0.38031448343413377,-0.05581809838886814,8.620762046393725,3.298467140104955
549.5,4.0,0.37944656444214075,-0.0630778364010007,8.425999070303416,3.2234070193439113
551.0,4.0,0.3785865178842645,-0.07048781797839815,8.159457495343336,3.1209099194915426
552.5,8.0,0.37773368443959904,-0.07828303816883792,7.828350432790162,2.993748647860083
554.0,8.0,0.37690693105772194,-0.08764447392969127,7.441381073043011,2.8452642802772834
555.5,8.0,0.37611257761591743,-0.09728796003463938,7.008363451404825,2.679220637219141
557.0,8.0,0.37532930512535617,-0.10718131948982132,6.539811094138651,2.499646610074654
558.5,8.0,0.3745535299579929,-0.11728633353742535,6.046517455731548,2.3106754972573738
560.0,8.0,0.3737822405062618,-0.12755965169899894,5.539151200644263,2.1163901704961674
561.5,12.0,0.3730174607608553,-0.14356790815899675,5.027886929706128,1.920681942452313
563.0,12.0,0.37229217199565834,-0.16089755992647,4.522088206466266,1.727129564928765
564.5,12.0,0.37158120537131156,-0.17798976420212712,4.030055098788138,1.5389030047738768
566.0,12.0,0.37087931027275534,-0.1946003238431967,3.5588433594584066,1.3586946923175072
567.5,12.0,0.37018178279522956,-0.21053273485037216,3.1141572704353946,1.1886789847734882
569.0,16.0,0.369484560239733,-0.22568725630363223,2.700313469873418,1.0304987878931389
570.5,16.0,0.3688174028866193,-0.2404446069286802,2.320269093843496,0.8852767570832409
572.0,16.0,0.36817169640182495,-0.2547219510632268,1.9757045211937712,0.7536473399237265
573.5,16.0,0.36753719046967787,-0.2683284240125805,1.667149026942365,0.6358051695345143
575.0,16.0,0.36690829317377166,-0.2811199033835396,1.3941367376474514,0.5315649759669714
576.5,20.0,0.3662800246602833,-0.2929099168688471,1.155380359292679,0.4404282187220879
578.0,20.0,0.3656641006571779,-0.3035808300050752,0.9489510604516833,0.361651998230081
579.5,20.0,0.36507469809491433,-0.31387110117157724,0.7724544402090833,0.29431640053104113
581.0,20.0,0.3644975808843958,-0.32365776970978244,0.623194470084828,0.2373871825427327
582.5,20.0,0.3639266166641568,-0.33283698775576176,0.49831945363225905,0.18977153157089338
584.0,20.0,0.36335623123761307,-0.341329081448731,0.39494620054925833,0.15036545722881312
585.5,24.0,0.3627848355435207,-0.35240188536547323,0.31026060440561987,0.11809213577994451
587.0,24.0,0.36223911213691695,-0.36338700750930447,0.24159452868040993,0.0919311820485093
588.5,24.0,0.361710622063332,-0.3733384705387552,0.1864802746683169,0.07093934592759216
590.0,24.0,0.361193102570205,-0.3821658093485043,0.14268489960256692,0.054263508955994896
591.5,24.0,0.3606807533686978,-0.38982741650488084,0.10822728284956996,0.04114709504001339
593.0,28.0,0.3601683697901893,-0.3993135129415655,0.08138113854445563,0.030931122243485633
594.5,28.0,0.359671781672368,-0.4107290963848593,0.06066719894554352,0.023051130609919573
596.0,28.0,0.3592024686703419,-0.42054129372836985,0.04483760759831687,0.017031148599713882
597.5,28.0,0.3587533920529608,-0.4287610877801161,0.032855230009934816,0.012475732788800303
599.0,28.0,0.3583189936666281,-0.4354573406482662,0.02387017223493949,0.009060955045138638
600.5,32.0,0.3578941129530227,-0.4416368547189477,0.017195346191906404,0.006525038194608224
602.0,32.0,0.3574784800351161,-0.4522262244321652,0.012282475437321718,0.004659170750585225
603.5,32.0,0.35709273952985454,-0.46126059008099807,0.00869952581846652,0.003298874757973978
605.0,32.0,0.35673354232023613,-0.46874201506504454,0.006110190374702807,0.002316165190996825
606.5,32.0,0.35639597491619757,-0.47472282904734553,0.00425576614102917,0.0016126280600038216
608.0,32.0,0.35607526048368304,-0.4792926899617438,0.0029395337479512116,0.0011134579940681772
609.5,36.0,0.35576726088308885,-0.4861125340230058,0.002013585105163169,0.0007624330783047908
611.0,36.0,0.3554883104148402,-0.4924355744776817,0.0013679327147206387,0.0005177623205013817
612.5,36.0,0.3552370344124352,-0.497376444685277,0.0009216671750697091,0.00034871579835983374
614.0,36.0,0.35500909480392484,-0.5010012571672865,0.0006158976023363592,0.0002329356112935135
615.5,36.0,0.3548000943997492,-0.5033991179185806,0.0004082038490318404,0.00015432372239467565
617.0,40.0,0.3546056965424989,-0.5060168335325534,0.0002683414340388026,0.00010140752736742264
618.5,40.0,0.35442496933152845,-0.5089311135586315,0.0001749632679579592,6.609295389717914e-05
620.0,40.0,0.35426982844988963,-0.5105192672871632,0.00011315127486045299,4.27260608520928e-05
